genomestart 19970
trait 1 0.04140625 0.2014679564 0.03597471702 0.3321519144 0.1487510894 0.616874812 0.1337602988 0.02615256431 
node 1 1 1 3
node 2 1 1 1
node 3 1 1 1
node 4 1 1 1
node 5 1 1 1
node 6 1 1 1
node 7 1 1 1
node 8 1 1 1
node 9 1 1 1
node 10 1 1 1
node 11 1 1 1
node 12 1 0 0
node 13 1 0 2
node 14 1 0 2
gene 1 1 12 -1.127862124 0 1 -1.127862124 1
gene 1 2 12 -0.3749612909 0 2 -0.3749612909 1
gene 1 3 12 0.1212647032 0 3 0.1212647032 1
gene 1 4 12 -0.2538969612 0 4 -0.2538969612 1
gene 1 5 12 0.8060105395 0 5 0.8060105395 1
gene 1 6 12 1.135362756 0 6 1.135362756 1
gene 1 7 12 1.391009528 0 7 1.391009528 1
gene 1 8 12 -0.9513609909 0 8 -0.9513609909 1
gene 1 9 12 -0.1379764073 0 9 -0.1379764073 1
gene 1 10 12 -2.339263165 0 10 -2.339263165 1
gene 1 11 12 -0.5829382553 0 11 -0.5829382553 1
gene 1 12 13 -1.840393387 0 12 -1.840393387 1
gene 1 12 14 0.9203935121 0 13 0.9203935121 1
gene 1 11 13 -0.3945948609 0 22 -0.3945948609 1
gene 1 4 13 -0.329087761 0 25 -0.329087761 1
gene 1 11 14 -0.9753190801 0 26 -0.9753190801 1
gene 1 13 13 -0.6893802903 1 30 -0.6893802903 1
gene 1 10 13 -2.688438873 0 31 -2.688438873 1
gene 1 8 13 -0.06713908728 0 40 -0.06713908728 1
gene 1 9 14 -1.406211077 0 42 -1.406211077 1
gene 1 5 14 0.4629493626 0 43 0.4629493626 1
gene 1 14 13 1.087458113 0 44 1.087458113 1
gene 1 7 13 0.439095786 0 46 0.439095786 1
gene 1 9 13 0.5872105847 0 49 0.5872105847 1
gene 1 14 14 -0.153871955 1 52 -0.153871955 1
gene 1 6 13 -0.2354335522 0 53 -0.2354335522 1
gene 1 12 12 -1.827177909 1 64 -1.827177909 0
gene 1 13 14 -0.7156414523 1 99 -0.7156414523 1
genomeend 19970
/* Novelty: 7.804948807 Fitness: 261.0406799 Generation: 80 Indiv: 20220 */
/* Point: 28.44755936 58.87562943 28.44755936 58.87562943 */
genomestart 15844
trait 1 0.1796743613 0.1082775658 0.3117761534 0.1955745959 0.1296855746 0.1217330439 0.2839547182 0.5150900312 
node 1 1 1 3
node 2 1 1 1
node 3 1 1 1
node 4 1 1 1
node 5 1 1 1
node 6 1 1 1
node 7 1 1 1
node 8 1 1 1
node 9 1 1 1
node 10 1 1 1
node 11 1 1 1
node 12 1 0 0
node 13 1 0 2
node 14 1 0 2
gene 1 1 12 0.1574800759 0 1 0.1574800759 1
gene 1 2 12 0.4106181502 0 2 0.4106181502 1
gene 1 3 12 1.365583665 0 3 1.365583665 1
gene 1 4 12 -1.68385526 0 4 -1.68385526 1
gene 1 5 12 0.07965805446 0 5 0.07965805446 1
gene 1 6 12 -0.1711371747 0 6 -0.1711371747 1
gene 1 7 12 -1.122083207 0 7 -1.122083207 1
gene 1 8 12 -0.1068401445 0 8 -0.1068401445 1
gene 1 9 12 0.07676165268 0 9 0.07676165268 1
gene 1 10 12 1.250093224 0 10 1.250093224 1
gene 1 11 12 0.2228399535 0 11 0.2228399535 1
gene 1 12 13 -0.173161751 0 12 -0.173161751 1
gene 1 12 14 -0.1599639854 0 13 -0.1599639854 1
gene 1 13 13 -0.05592772889 1 14 -0.05592772889 1
gene 1 11 14 -1.032439241 0 26 -0.703040304 1
gene 1 10 14 2.496104264 0 27 2.496104264 1
gene 1 12 12 -0.7029373101 1 28 -0.7029373101 1
gene 1 1 13 -0.0864827404 0 29 -0.0864827404 1
gene 1 2 13 -0.00300775096 0 32 0 1
gene 1 9 14 -0.9033981268 0 42 0 1
gene 1 14 13 0.8182351368 0 44 0.578803331 1
gene 1 6 14 -0.1650338312 0 45 -0.1650338312 1
gene 1 2 14 -0.9463747275 0 50 -0.9463747275 1
gene 1 14 14 0.4189760637 1 86 0.4189760637 1
genomeend 15844
/* Novelty: 7.570621967 Fitness: 260.9682007 Generation: 64 Indiv: 16094 */
/* Point: 29.34036446 58.99649048 29.34036446 58.99649048 */
genomestart 14845
trait 1 0.9631862278 0.005800684295 0.2474178338 0.3148666108 0.2270576783 0.2652608521 0.7557361395 0 
node 1 1 1 3
node 2 1 1 1
node 3 1 1 1
node 4 1 1 1
node 5 1 1 1
node 6 1 1 1
node 7 1 1 1
node 8 1 1 1
node 9 1 1 1
node 10 1 1 1
node 11 1 1 1
node 12 1 0 0
node 13 1 0 2
node 14 1 0 2
node 35 1 0 0
gene 1 1 12 -0.7046376541 0 1 -0.7046376541 1
gene 1 2 12 -0.1893903688 0 2 -0.1893903688 1
gene 1 3 12 0.2918654778 0 3 0.2918654778 1
gene 1 4 12 0.7729096863 0 4 0.7729096863 1
gene 1 5 12 0.4478165457 0 5 0.4478165457 1
gene 1 6 12 -0.7213773042 0 6 -0.7213773042 1
gene 1 7 12 -0.1720292148 0 7 -0.1720292148 1
gene 1 8 12 -0.5576738417 0 8 -0.5576738417 1
gene 1 9 12 -2.452296329 0 9 -2.452296329 1
gene 1 10 12 0.3024043991 0 10 0.3024043991 1
gene 1 11 12 0.2200556525 0 11 0.2200556525 1
gene 1 12 13 0.6199303592 0 12 0.6199303592 1
gene 1 12 14 0.5649014595 0 13 0.5649014595 1
gene 1 14 14 -1.266890476 1 21 -1.266890476 1
gene 1 12 12 1.94027371 1 23 1.94027371 1
gene 1 7 14 0.6864714499 0 24 0.6864714499 1
gene 1 4 13 -1.542289459 0 25 -1.542289459 1
gene 1 2 13 0.1296880909 0 32 0.1296880909 1
gene 1 14 12 2.782954344 1 41 2.782954344 1
gene 1 7 13 -1.025684727 0 46 -1.025684727 0
gene 1 2 14 0.01023613625 0 50 0.01023613625 1
gene 1 6 13 -0.59130943 0 53 -0.59130943 1
gene 1 13 13 1.277314973 1 233 1.277314973 1
gene 1 13 35 -0.3030605125 1 261 -0.3030605125 1
gene 1 35 13 -1.080241484 0 262 -1.080241484 1
gene 1 5 35 -0.7805606771 0 275 -0.7805606771 1
genomeend 14845
/* Novelty: 7.475421429 Fitness: 260.938446 Generation: 60 Indiv: 15095 */
/* Point: 26.02320671 58.74322128 26.02320671 58.74322128 */
genomestart 13419
trait 1 0.3943417253 0.1359809971 0.5532861896 0.5389945685 0.8801728885 0.5321437202 0.5502412876 0.1827311115 
node 1 1 1 3
node 2 1 1 1
node 3 1 1 1
node 4 1 1 1
node 5 1 1 1
node 6 1 1 1
node 7 1 1 1
node 8 1 1 1
node 9 1 1 1
node 10 1 1 1
node 11 1 1 1
node 12 1 0 0
node 13 1 0 2
node 14 1 0 2
gene 1 1 12 1.458807496 0 1 1.458807496 1
gene 1 2 12 -0.9045086372 0 2 -0.9045086372 1
gene 1 3 12 0.3010345899 0 3 0.3010345899 1
gene 1 4 12 -0.4758407915 0 4 -0.4758407915 1
gene 1 5 12 2.63957084 0 5 2.63957084 1
gene 1 6 12 -0.1004733613 0 6 -0.1004733613 1
gene 1 7 12 -1.627450394 0 7 -1.627450394 0
gene 1 8 12 1.572526205 0 8 1.572526205 1
gene 1 9 12 -0.2116895714 0 9 -0.2116895714 1
gene 1 10 12 1.837471533 0 10 1.837471533 1
gene 1 11 12 -0.3809682351 0 11 -0.3809682351 1
gene 1 12 13 0.476021464 0 12 0.476021464 1
gene 1 12 14 -0.7896772091 0 13 -0.7896772091 1
gene 1 14 14 1.459397912 1 21 1.459397912 1
gene 1 12 12 -1.520322301 1 23 -1.520322301 1
gene 1 7 14 -0.3125265332 0 24 -0.3125265332 0
gene 1 10 14 -0.2021206196 0 27 -0.2021206196 1
gene 1 1 13 -0.664718311 0 29 -0.4317959334 1
gene 1 2 13 1.201204359 0 32 1.201204359 1
gene 1 5 13 -1.504612401 0 34 -1.504612401 1
gene 1 8 14 -0.3631675236 0 35 -0.3631675236 1
gene 1 9 14 -0.7394712949 0 42 -0.7394712949 1
gene 1 5 14 0.7535663087 0 43 0.7535663087 1
gene 1 9 13 0.6620468882 0 49 0.6620468882 1
gene 1 13 14 -0.3618726073 0 63 -0.3618726073 1
gene 1 13 12 0.2030501402 1 71 0.2030501402 1
gene 1 13 13 -0.2164819675 1 328 -0.2164819675 1
genomeend 13419
/* Novelty: 7.467948437 Fitness: 260.9354248 Generation: 54 Indiv: 13669 */
/* Point: 28.81731415 59.00354004 28.81731415 59.00354004 */
genomestart 13225
trait 1 0.3943417253 0.1359809971 0.5532861896 0.5389945685 0.8801728885 0.5321437202 0.5502412876 0.1827311115 
node 1 1 1 3
node 2 1 1 1
node 3 1 1 1
node 4 1 1 1
node 5 1 1 1
node 6 1 1 1
node 7 1 1 1
node 8 1 1 1
node 9 1 1 1
node 10 1 1 1
node 11 1 1 1
node 12 1 0 0
node 13 1 0 2
node 14 1 0 2
gene 1 1 12 1.458807496 0 1 1.458807496 1
gene 1 2 12 -0.9045086372 0 2 -0.9045086372 1
gene 1 3 12 0.3010345899 0 3 0.3010345899 1
gene 1 4 12 -0.4758407915 0 4 -0.4758407915 1
gene 1 5 12 2.63957084 0 5 2.63957084 1
gene 1 6 12 -0.1004733613 0 6 -0.1004733613 1
gene 1 7 12 -1.627450394 0 7 -1.627450394 0
gene 1 8 12 1.572526205 0 8 1.572526205 1
gene 1 9 12 -0.2116895714 0 9 -0.2116895714 1
gene 1 10 12 1.837471533 0 10 1.837471533 1
gene 1 11 12 -0.3809682351 0 11 -0.3809682351 1
gene 1 12 13 0.476021464 0 12 0.476021464 1
gene 1 12 14 -0.7896772091 0 13 -0.7896772091 1
gene 1 14 14 1.459397912 1 21 1.459397912 1
gene 1 12 12 -1.520322301 1 23 -1.520322301 1
gene 1 7 14 -0.3125265332 0 24 -0.3125265332 0
gene 1 10 14 -0.2021206196 0 27 -0.2021206196 1
gene 1 1 13 -0.664718311 0 29 -0.4317959334 1
gene 1 2 13 1.201204359 0 32 1.201204359 1
gene 1 5 13 -1.504612401 0 34 -1.504612401 1
gene 1 8 14 -0.3631675236 0 35 -0.3631675236 1
gene 1 9 14 -0.7394712949 0 42 -0.7394712949 1
gene 1 5 14 0.7535663087 0 43 0.7535663087 1
gene 1 9 13 0.6620468882 0 49 0.6620468882 1
gene 1 13 14 -0.3618726073 0 63 -0.3618726073 1
gene 1 13 12 0.2030501402 1 71 0.2030501402 1
gene 1 13 13 -0.2164819675 1 328 -0.2164819675 1
genomeend 13225
/* Novelty: 7.284258842 Fitness: 260.9354248 Generation: 53 Indiv: 13475 */
/* Point: 28.81731415 59.00354004 28.81731415 59.00354004 */
