
/* Species #1 : (Size 17) (AF 0) (Age 1)  */


/* Organism #54818 Fitness: 11.0895 Error: 0 */
genomestart 54818
trait 1 0.1981677395 0.6685632035 0.6913939492 0.7403583169 0.6988539084 0.7269903411 0.3763706667 0.4006837862 
node 1 1 1 3
node 2 1 1 1
node 3 1 1 1
node 4 1 1 1
node 5 1 1 1
node 6 1 1 1
node 7 1 1 1
node 8 1 1 1
node 9 1 1 1
node 10 1 1 1
node 11 1 1 1
node 12 1 0 0
node 13 1 0 2
node 14 1 0 2
gene 1 1 12 0.7339557051 0 1 0.7339557051 1
gene 1 2 12 0.05620525412 0 2 0.05620525412 1
gene 1 3 12 0.1695921743 0 3 0.1695921743 1
gene 1 4 12 -1.179661343 0 4 -1.179661343 0
gene 1 5 12 0.3343043694 0 5 0.3343043694 1
gene 1 6 12 0.1805821338 0 6 0.1805821338 0
gene 1 7 12 -1.471795449 0 7 -1.471795449 1
gene 1 8 12 2.576892204 0 8 2.576892204 1
gene 1 9 12 -1.028004868 0 9 -1.028004868 1
gene 1 10 12 -0.6650957491 0 10 -0.6650957491 1
gene 1 11 12 0.5713802187 0 11 0.5713802187 1
gene 1 12 13 0.6084834403 0 12 0.6084834403 1
gene 1 12 14 0.7192599216 0 13 0.7192599216 1
gene 1 13 13 0.4557297029 1 17 0.4557297029 1
gene 1 14 14 1.008021153 1 21 1.008021153 1
gene 1 11 13 -0.6450540999 0 22 -0.6450540999 0
gene 1 7 14 0.07959864665 0 24 0 1
gene 1 4 13 -0.3317887395 0 25 -0.3317887395 1
gene 1 10 14 0.5956299331 0 27 0 1
gene 1 10 13 -0.3207974992 0 31 -0.3207974992 1
gene 1 8 14 -3 0 35 -3 1
gene 1 3 13 -0.2529402856 0 38 -0.2529402856 1
gene 1 5 14 0.2594816919 0 43 0 1
gene 1 6 14 -0.5081502885 0 45 -0.5081502885 1
gene 1 6 13 0.4440800745 0 53 0 1
gene 1 13 14 -0.4765716253 0 63 0 1
gene 1 12 12 -0.6377660966 1 184 -0.6377660966 1
genomeend 54818
/* Novelty: 11.08951473 Fitness: 186.9521484 Generation: 221 Indiv: 55068 */
/* Point: 143.9471283 15.22922421 143.9471283 15.22922421 */

/* Organism #49762 Fitness: 11.08951473 Error: 0 */
genomestart 49762
trait 1 0.1981677395 0.6685632035 0.6913939492 0.7403583169 0.6988539084 0.7269903411 0.3763706667 0.4006837862 
node 1 1 1 3
node 2 1 1 1
node 3 1 1 1
node 4 1 1 1
node 5 1 1 1
node 6 1 1 1
node 7 1 1 1
node 8 1 1 1
node 9 1 1 1
node 10 1 1 1
node 11 1 1 1
node 12 1 0 0
node 13 1 0 2
node 14 1 0 2
gene 1 1 12 0.7339557051 0 1 0.7339557051 1
gene 1 2 12 0.05620525412 0 2 0.05620525412 1
gene 1 3 12 0.1695921743 0 3 0.1695921743 1
gene 1 4 12 -1.179661343 0 4 -1.179661343 0
gene 1 5 12 0.3343043694 0 5 0.3343043694 1
gene 1 6 12 0.1805821338 0 6 0.1805821338 0
gene 1 7 12 -1.471795449 0 7 -1.471795449 1
gene 1 8 12 2.576892204 0 8 2.576892204 1
gene 1 9 12 -1.028004868 0 9 -1.028004868 1
gene 1 10 12 -0.6650957491 0 10 -0.6650957491 1
gene 1 11 12 0.5713802187 0 11 0.5713802187 1
gene 1 12 13 0.6084834403 0 12 0.6084834403 1
gene 1 12 14 0.7192599216 0 13 0.7192599216 1
gene 1 13 13 0.4557297029 1 17 0.4557297029 1
gene 1 14 14 1.008021153 1 21 1.008021153 1
gene 1 11 13 -0.6450540999 0 22 -0.6450540999 0
gene 1 7 14 0.07959864665 0 24 0 1
gene 1 4 13 -0.3317887395 0 25 -0.3317887395 1
gene 1 10 14 0.5956299331 0 27 0 1
gene 1 10 13 -0.3207974992 0 31 -0.3207974992 1
gene 1 8 14 -3 0 35 -3 1
gene 1 3 13 -0.2529402856 0 38 -0.2529402856 1
gene 1 5 14 0.2594816919 0 43 0 1
gene 1 6 14 -0.5081502885 0 45 -0.5081502885 1
gene 1 6 13 0.4440800745 0 53 0 1
gene 1 13 14 -0.4765716253 0 63 0 1
gene 1 12 12 -0.6377660966 1 184 -0.6377660966 1
genomeend 49762
/* Novelty: 11.08951473 Fitness: 186.9521484 Generation: 221 Indiv: 50012 */
/* Point: 143.9471283 15.22922421 143.9471283 15.22922421 */

/* Organism #54178 Fitness: 11.08951473 Error: 0 */
genomestart 54178
trait 1 0.1981677395 0.6685632035 0.6913939492 0.7403583169 0.6988539084 0.7269903411 0.3763706667 0.4006837862 
node 1 1 1 3
node 2 1 1 1
node 3 1 1 1
node 4 1 1 1
node 5 1 1 1
node 6 1 1 1
node 7 1 1 1
node 8 1 1 1
node 9 1 1 1
node 10 1 1 1
node 11 1 1 1
node 12 1 0 0
node 13 1 0 2
node 14 1 0 2
gene 1 1 12 0.7339557051 0 1 0.7339557051 1
gene 1 2 12 0.05620525412 0 2 0.05620525412 1
gene 1 3 12 0.1695921743 0 3 0.1695921743 1
gene 1 4 12 -1.179661343 0 4 -1.179661343 0
gene 1 5 12 0.3343043694 0 5 0.3343043694 1
gene 1 6 12 0.1805821338 0 6 0.1805821338 0
gene 1 7 12 -1.471795449 0 7 -1.471795449 1
gene 1 8 12 2.576892204 0 8 2.576892204 1
gene 1 9 12 -1.028004868 0 9 -1.028004868 1
gene 1 10 12 -0.6650957491 0 10 -0.6650957491 1
gene 1 11 12 0.5713802187 0 11 0.5713802187 1
gene 1 12 13 0.6084834403 0 12 0.6084834403 1
gene 1 12 14 0.7192599216 0 13 0.7192599216 1
gene 1 13 13 0.4557297029 1 17 0.4557297029 1
gene 1 14 14 1.008021153 1 21 1.008021153 1
gene 1 11 13 -0.6450540999 0 22 -0.6450540999 0
gene 1 7 14 0.07959864665 0 24 0 1
gene 1 4 13 -0.3317887395 0 25 -0.3317887395 1
gene 1 10 14 0.5956299331 0 27 0 1
gene 1 10 13 -0.3207974992 0 31 -0.3207974992 1
gene 1 8 14 -3 0 35 -3 1
gene 1 3 13 -0.2529402856 0 38 -0.2529402856 1
gene 1 5 14 0.2594816919 0 43 0 1
gene 1 6 14 -0.5081502885 0 45 -0.5081502885 1
gene 1 6 13 0.4440800745 0 53 0 1
gene 1 13 14 -0.4765716253 0 63 0 1
gene 1 12 12 -0.6377660966 1 184 -0.6377660966 1
genomeend 54178
/* Novelty: 11.08951473 Fitness: 186.9521484 Generation: 221 Indiv: 54428 */
/* Point: 143.9471283 15.22922421 143.9471283 15.22922421 */

/* Organism #54766 Fitness: 10.97149181 Error: 0 */
genomestart 54766
trait 1 0.01466513804 1 0.817344687 1 0.5510904995 0.5296772048 0 0.3419769199 
node 1 1 1 3
node 2 1 1 1
node 3 1 1 1
node 4 1 1 1
node 5 1 1 1
node 6 1 1 1
node 7 1 1 1
node 8 1 1 1
node 9 1 1 1
node 10 1 1 1
node 11 1 1 1
node 12 1 0 0
node 13 1 0 2
node 14 1 0 2
gene 1 1 12 0.7339557051 0 1 0.7339557051 1
gene 1 2 12 0.06064944817 0 2 0.06064944817 1
gene 1 3 12 0.1695921743 0 3 0.1695921743 0
gene 1 4 12 -1.179661343 0 4 -1.179661343 0
gene 1 5 12 0.3343043694 0 5 0.3343043694 1
gene 1 6 12 0.1805821338 0 6 0.1805821338 0
gene 1 7 12 -1.471795449 0 7 -1.471795449 1
gene 1 8 12 2.576892204 0 8 2.576892204 1
gene 1 9 12 -1.028004868 0 9 -1.028004868 1
gene 1 10 12 -0.9129292195 0 10 -0.9129292195 1
gene 1 11 12 0.5713802187 0 11 0.5713802187 1
gene 1 12 13 0.5926620354 0 12 0.5926620354 1
gene 1 12 14 0.7192599216 0 13 0.7192599216 1
gene 1 13 13 0.4557297029 1 17 0.4557297029 1
gene 1 14 14 1.008021153 1 21 1.008021153 1
gene 1 11 13 -0.6226591493 0 22 -0.6226591493 0
gene 1 7 14 0.07959864665 0 24 0 1
gene 1 4 13 -0.3317887395 0 25 -0.3317887395 1
gene 1 11 14 -0.6587978735 0 26 0 1
gene 1 10 14 0.5956299331 0 27 0 1
gene 1 10 13 -0.1844166033 0 31 -0.1844166033 1
gene 1 2 13 -0.00300775096 0 32 0 1
gene 1 8 14 -3 0 35 -3 1
gene 1 3 13 -0.2529402856 0 38 -0.2529402856 1
gene 1 5 14 0.2594816919 0 43 0 1
gene 1 6 14 -0.5081502885 0 45 -0.5081502885 1
gene 1 9 13 0.4755613503 0 49 0 1
gene 1 6 13 0.4440800745 0 53 0 1
gene 1 13 14 -0.4765716253 0 63 0 1
gene 1 12 12 -0.6377660966 1 184 -0.6377660966 1
genomeend 54766
/* Novelty: 10.97149181 Fitness: 216.8631592 Generation: 221 Indiv: 55016 */
/* Point: 114.1345367 19.38066101 114.1345367 19.38066101 */

/* Organism #51002 Fitness: 10.97149181 Error: 0 */
genomestart 51002
trait 1 0.148874431 0.7167258847 0.4573860409 0.6358438217 0.5510904995 0.5296772048 0.3080467604 0.3566997551 
node 1 1 1 3
node 2 1 1 1
node 3 1 1 1
node 4 1 1 1
node 5 1 1 1
node 6 1 1 1
node 7 1 1 1
node 8 1 1 1
node 9 1 1 1
node 10 1 1 1
node 11 1 1 1
node 12 1 0 0
node 13 1 0 2
node 14 1 0 2
gene 1 1 12 0.7339557051 0 1 0.7339557051 1
gene 1 2 12 0.06064944817 0 2 0.06064944817 1
gene 1 3 12 0.1695921743 0 3 0.1695921743 0
gene 1 4 12 -1.179661343 0 4 -1.179661343 0
gene 1 5 12 0.3343043694 0 5 0.3343043694 1
gene 1 6 12 0.1805821338 0 6 0.1805821338 0
gene 1 7 12 -1.471795449 0 7 -1.471795449 1
gene 1 8 12 2.576892204 0 8 2.576892204 1
gene 1 9 12 -1.028004868 0 9 -1.028004868 1
gene 1 10 12 -0.9129292195 0 10 -0.9129292195 1
gene 1 11 12 0.5713802187 0 11 0.5713802187 1
gene 1 12 13 0.5926620354 0 12 0.5926620354 1
gene 1 12 14 0.7192599216 0 13 0.7192599216 1
gene 1 13 13 0.4557297029 1 17 0.4557297029 1
gene 1 14 14 1.008021153 1 21 1.008021153 1
gene 1 11 13 -0.6226591493 0 22 -0.6226591493 0
gene 1 7 14 0.07959864665 0 24 0 1
gene 1 4 13 -0.3317887395 0 25 -0.3317887395 1
gene 1 11 14 -0.6587978735 0 26 0 1
gene 1 10 14 0.5956299331 0 27 0 1
gene 1 10 13 -0.1844166033 0 31 -0.1844166033 1
gene 1 2 13 -0.00300775096 0 32 0 1
gene 1 8 14 -3 0 35 -3 1
gene 1 3 13 -0.2529402856 0 38 -0.2529402856 1
gene 1 5 14 0.2594816919 0 43 0 1
gene 1 6 14 -0.5081502885 0 45 -0.5081502885 1
gene 1 9 13 0.4755613503 0 49 0 1
gene 1 6 13 0.4440800745 0 53 0 1
gene 1 13 14 -0.4765716253 0 63 0 1
gene 1 12 12 -0.6377660966 1 184 -0.6377660966 1
genomeend 51002
/* Novelty: 10.97149181 Fitness: 216.8631592 Generation: 221 Indiv: 51252 */
/* Point: 114.1345367 19.38066101 114.1345367 19.38066101 */

/* Organism #50496 Fitness: 10.96919155 Error: 0 */
genomestart 50496
trait 1 0.1886534302 0.7773756058 0.3600784417 0.6738607963 0.4146221532 0.4616625495 0.3292791459 0.2814725638 
node 1 1 1 3
node 2 1 1 1
node 3 1 1 1
node 4 1 1 1
node 5 1 1 1
node 6 1 1 1
node 7 1 1 1
node 8 1 1 1
node 9 1 1 1
node 10 1 1 1
node 11 1 1 1
node 12 1 0 0
node 13 1 0 2
node 14 1 0 2
gene 1 1 12 0.7339557051 0 1 0.7339557051 1
gene 1 2 12 0.0739820303 0 2 0.0739820303 1
gene 1 3 12 0.1695921743 0 3 0.1695921743 0
gene 1 4 12 -1.179661343 0 4 -1.179661343 0
gene 1 5 12 0.3343043694 0 5 0.3343043694 1
gene 1 6 12 0.1805821338 0 6 0.1805821338 1
gene 1 7 12 -1.471795449 0 7 -1.471795449 1
gene 1 8 12 2.576892204 0 8 2.576892204 1
gene 1 9 12 -1.028004868 0 9 -1.028004868 1
gene 1 10 12 -0.6650957491 0 10 -0.6650957491 1
gene 1 11 12 0.5713802187 0 11 0.5713802187 1
gene 1 12 13 0.5958263164 0 12 0.5958263164 1
gene 1 12 14 0.7192599216 0 13 0.7192599216 1
gene 1 13 13 0.4557297029 1 17 0.4557297029 1
gene 1 14 14 1.008021153 1 21 1.008021153 1
gene 1 11 13 -0.6450540999 0 22 -0.6450540999 1
gene 1 7 14 0.07959864665 0 24 0 1
gene 1 4 13 -0.3317887395 0 25 -0.3317887395 1
gene 1 11 14 -0.6587978735 0 26 0 1
gene 1 10 14 0.5956299331 0 27 0 1
gene 1 10 13 -0.1844166033 0 31 -0.1844166033 1
gene 1 2 13 -0.00300775096 0 32 0 1
gene 1 8 14 -3 0 35 -3 1
gene 1 3 13 -0.2529402856 0 38 -0.2529402856 1
gene 1 5 14 0.2594816919 0 43 0 1
gene 1 6 14 -0.5081502885 0 45 -0.5081502885 1
gene 1 9 13 0.4755613503 0 49 0 1
gene 1 6 13 0.4440800745 0 53 0 1
gene 1 13 14 -0.4765716253 0 63 0 1
gene 1 12 12 -0.6377660966 1 184 -0.6377660966 1
genomeend 50496
/* Novelty: 10.96919155 Fitness: 239.0805359 Generation: 221 Indiv: 50746 */
/* Point: 80.40406799 55.64292526 80.40406799 55.64292526 */

/* Organism #50935 Fitness: 10.73055935 Error: 0 */
genomestart 50935
trait 1 0.1934105849 0.7229694047 0.5257361954 0.7071095566 0.5567380308 0.5943264453 0.3528249063 0.341078175 
node 1 1 1 3
node 2 1 1 1
node 3 1 1 1
node 4 1 1 1
node 5 1 1 1
node 6 1 1 1
node 7 1 1 1
node 8 1 1 1
node 9 1 1 1
node 10 1 1 1
node 11 1 1 1
node 12 1 0 0
node 13 1 0 2
node 14 1 0 2
gene 1 1 12 0.7339557051 0 1 0.7339557051 1
gene 1 2 12 0.06509364221 0 2 0.06509364221 1
gene 1 3 12 0.1695921743 0 3 0.1695921743 1
gene 1 4 12 -1.179661343 0 4 -1.179661343 0
gene 1 5 12 0.3343043694 0 5 0.3343043694 1
gene 1 6 12 0.1805821338 0 6 0.1805821338 0
gene 1 7 12 -1.471795449 0 7 -1.471795449 1
gene 1 8 12 2.576892204 0 8 2.576892204 1
gene 1 9 12 -1.028004868 0 9 -1.028004868 1
gene 1 10 12 -0.6650957491 0 10 -0.6650957491 1
gene 1 11 12 0.5713802187 0 11 0.5713802187 1
gene 1 12 13 0.6021548784 0 12 0.6021548784 1
gene 1 12 14 0.7192599216 0 13 0.7192599216 1
gene 1 13 13 0.4557297029 1 17 0.4557297029 1
gene 1 14 14 1.008021153 1 21 1.008021153 1
gene 1 11 13 -0.6450540999 0 22 -0.6450540999 0
gene 1 7 14 0.07959864665 0 24 0 1
gene 1 4 13 -0.3317887395 0 25 -0.3317887395 1
gene 1 11 14 -0.6587978735 0 26 0 1
gene 1 10 14 0.5956299331 0 27 0 1
gene 1 10 13 -0.2526070513 0 31 -0.2526070513 1
gene 1 2 13 -0.00300775096 0 32 0 1
gene 1 8 14 -3 0 35 -3 1
gene 1 3 13 -0.2529402856 0 38 -0.2529402856 1
gene 1 5 14 0.2594816919 0 43 0 1
gene 1 6 14 -0.5081502885 0 45 -0.5081502885 1
gene 1 9 13 0.4755613503 0 49 0 1
gene 1 6 13 0.4440800745 0 53 0 1
gene 1 13 14 -0.4765716253 0 63 0 1
gene 1 12 12 -0.6377660966 1 184 -0.6377660966 1
genomeend 50935
/* Novelty: 10.73055935 Fitness: 130.5193024 Generation: 221 Indiv: 51185 */
/* Point: 180.9383698 99.00753021 180.9383698 99.00753021 */

/* Organism #50059 Fitness: 10.67319393 Error: 0 */
genomestart 50059
trait 1 0.2023329516 0.6407248139 0.3017013466 0.7282885354 0.242093753 0.4609390442 0.3456687942 0.3338475871 
node 1 1 1 3
node 2 1 1 1
node 3 1 1 1
node 4 1 1 1
node 5 1 1 1
node 6 1 1 1
node 7 1 1 1
node 8 1 1 1
node 9 1 1 1
node 10 1 1 1
node 11 1 1 1
node 12 1 0 0
node 13 1 0 2
node 14 1 0 2
gene 1 1 12 0.7339557051 0 1 0.7339557051 1
gene 1 2 12 0.07842622435 0 2 0.07842622435 1
gene 1 3 12 0.1695921743 0 3 0.1695921743 0
gene 1 4 12 -1.179661343 0 4 -1.179661343 0
gene 1 5 12 0.3343043694 0 5 0.3343043694 1
gene 1 6 12 0.1805821338 0 6 0.1805821338 1
gene 1 7 12 -1.471795449 0 7 -1.471795449 1
gene 1 8 12 2.576892204 0 8 2.576892204 1
gene 1 9 12 -1.028004868 0 9 -1.028004868 1
gene 1 10 12 -0.8716236411 0 10 -0.8716236411 1
gene 1 11 12 0.5713802187 0 11 0.5713802187 1
gene 1 12 13 0.6053191594 0 12 0.6053191594 1
gene 1 12 14 0.7192599216 0 13 0.7192599216 1
gene 1 13 13 0.4557297029 1 17 0.4557297029 1
gene 1 14 14 1.008021153 1 21 1.008021153 1
gene 1 11 13 -0.6263916411 0 22 -0.6263916411 1
gene 1 7 14 0.07959864665 0 24 0 1
gene 1 4 13 -0.3317887395 0 25 -0.3317887395 1
gene 1 11 14 -0.6587978735 0 26 0 1
gene 1 10 14 0.5956299331 0 27 0 1
gene 1 10 13 -0.2355594393 0 31 -0.2355594393 1
gene 1 8 14 -3 0 35 -3 1
gene 1 3 13 -0.2529402856 0 38 -0.2529402856 1
gene 1 5 14 0.2594816919 0 43 0 1
gene 1 6 14 -0.5081502885 0 45 -0.5081502885 1
gene 1 9 13 0.4755613503 0 49 0 1
gene 1 6 13 0.4440800745 0 53 0 1
gene 1 13 14 -0.4765716253 0 63 0 1
gene 1 12 12 -0.6377660966 1 184 -0.6377660966 1
genomeend 50059
/* Novelty: 10.67319393 Fitness: 215.2967834 Generation: 221 Indiv: 50309 */
/* Point: 115.5254669 25.48456573 115.5254669 25.48456573 */

/* Organism #53763 Fitness: 10.64529228 Error: 0 */
genomestart 53763
trait 1 0.2019851824 0.7139828009 0.454876132 0.7446993 0.5538604631 0.5292058113 0.3084986989 0.3578155363 
node 1 1 1 3
node 2 1 1 1
node 3 1 1 1
node 4 1 1 1
node 5 1 1 1
node 6 1 1 1
node 7 1 1 1
node 8 1 1 1
node 9 1 1 1
node 10 1 1 1
node 11 1 1 1
node 12 1 0 0
node 13 1 0 2
node 14 1 0 2
gene 1 1 12 0.7339557051 0 1 0.7339557051 1
gene 1 2 12 0.06509364221 0 2 0.06509364221 1
gene 1 3 12 0.1695921743 0 3 0.1695921743 1
gene 1 4 12 -1.179661343 0 4 -1.179661343 0
gene 1 5 12 0.3343043694 0 5 0.3343043694 1
gene 1 6 12 0.1805821338 0 6 0.1805821338 0
gene 1 7 12 -1.471795449 0 7 -1.471795449 1
gene 1 8 12 2.576892204 0 8 2.576892204 1
gene 1 9 12 -1.028004868 0 9 -1.028004868 1
gene 1 10 12 -0.6650957491 0 10 -0.6650957491 1
gene 1 11 12 0.5713802187 0 11 0.5713802187 1
gene 1 12 13 0.5958263164 0 12 0.5958263164 1
gene 1 12 14 0.7192599216 0 13 0.7192599216 1
gene 1 13 13 0.4557297029 1 17 0.4557297029 1
gene 1 14 14 1.008021153 1 21 1.008021153 1
gene 1 11 13 -0.6450540999 0 22 -0.6450540999 0
gene 1 7 14 0.07959864665 0 24 0 1
gene 1 4 13 -0.3317887395 0 25 -0.3317887395 1
gene 1 11 14 -0.6587978735 0 26 0 1
gene 1 10 14 0.5956299331 0 27 0 1
gene 1 10 13 -0.2526070513 0 31 -0.2526070513 1
gene 1 2 13 -0.00300775096 0 32 0 1
gene 1 8 14 -3 0 35 -3 1
gene 1 3 13 -0.2529402856 0 38 -0.2529402856 1
gene 1 5 14 0.2594816919 0 43 0 1
gene 1 6 14 -0.5081502885 0 45 -0.5081502885 1
gene 1 9 13 0.4755613503 0 49 0 1
gene 1 6 13 0.4440800745 0 53 0 1
gene 1 13 14 -0.4765716253 0 63 0 1
gene 1 12 12 -0.6377660966 1 184 -0.6377660966 1
genomeend 53763
/* Novelty: 10.64529228 Fitness: 130.958374 Generation: 221 Indiv: 54013 */
/* Point: 182.1335144 95.72141266 182.1335144 95.72141266 */

/* Organism #42994 Fitness: 10.59648323 Error: 0 */
genomestart 42994
trait 1 0.1667470805 0.8497550146 0.3361408149 0.5654325492 0.2782614112 0.4592399218 0.3943858003 0.18839223 
node 1 1 1 3
node 2 1 1 1
node 3 1 1 1
node 4 1 1 1
node 5 1 1 1
node 6 1 1 1
node 7 1 1 1
node 8 1 1 1
node 9 1 1 1
node 10 1 1 1
node 11 1 1 1
node 12 1 0 0
node 13 1 0 2
node 14 1 0 2
gene 1 1 12 0.7339557051 0 1 0.7339557051 1
gene 1 2 12 0.0739820303 0 2 0.0739820303 1
gene 1 3 12 0.1695921743 0 3 0.1695921743 0
gene 1 4 12 -1.179661343 0 4 -1.179661343 0
gene 1 5 12 0.3343043694 0 5 0.3343043694 1
gene 1 6 12 0.1805821338 0 6 0.1805821338 1
gene 1 7 12 -1.471795449 0 7 -1.471795449 1
gene 1 8 12 2.576892204 0 8 2.576892204 1
gene 1 9 12 -1.028004868 0 9 -1.028004868 1
gene 1 10 12 -0.6650957491 0 10 -0.6650957491 1
gene 1 11 12 0.5713802187 0 11 0.5713802187 1
gene 1 12 13 0.6211405643 0 12 0.6211405643 1
gene 1 12 14 0.7192599216 0 13 0.7192599216 1
gene 1 13 13 0.4557297029 1 17 0.4557297029 1
gene 1 14 14 1.008021153 1 21 1.008021153 1
gene 1 11 13 -0.6450540999 0 22 -0.6450540999 1
gene 1 7 14 0.07959864665 0 24 0 1
gene 1 4 13 -0.3317887395 0 25 -0.3317887395 1
gene 1 11 14 -0.6587978735 0 26 0 1
gene 1 10 14 0.5956299331 0 27 0 1
gene 1 10 13 -0.3207974992 0 31 -0.3207974992 1
gene 1 8 14 -3 0 35 -3 1
gene 1 3 13 -0.2529402856 0 38 -0.2529402856 1
gene 1 5 14 0.2594816919 0 43 0 1
gene 1 6 14 -0.5081502885 0 45 -0.5081502885 1
gene 1 9 13 0.4755613503 0 49 0 1
gene 1 6 13 0.4440800745 0 53 0 1
gene 1 13 14 -0.4765716253 0 63 0 1
gene 1 12 12 -0.6377660966 1 184 -0.6377660966 1
genomeend 42994
/* Novelty: 10.59648323 Fitness: 218.3850708 Generation: 221 Indiv: 43244 */
/* Point: 112.3676453 26.34850883 112.3676453 26.34850883 */

/* Organism #46882 Fitness: 10.58359146 Error: 0 */
genomestart 46882
trait 1 0.2044152472 0.6661343373 0.3827878984 0.556802365 0.5909794635 0.4539806823 0.383850545 0.4024258455 
node 1 1 1 3
node 2 1 1 1
node 3 1 1 1
node 4 1 1 1
node 5 1 1 1
node 6 1 1 1
node 7 1 1 1
node 8 1 1 1
node 9 1 1 1
node 10 1 1 1
node 11 1 1 1
node 12 1 0 0
node 13 1 0 2
node 14 1 0 2
gene 1 1 12 0.7339557051 0 1 0.7339557051 1
gene 1 2 12 0.05620525412 0 2 0.05620525412 1
gene 1 3 12 0.1695921743 0 3 0.1695921743 1
gene 1 4 12 -1.179661343 0 4 -1.179661343 0
gene 1 5 12 0.3343043694 0 5 0.3343043694 1
gene 1 6 12 0.1805821338 0 6 0.1805821338 0
gene 1 7 12 -1.471795449 0 7 -1.471795449 1
gene 1 8 12 2.576892204 0 8 2.576892204 1
gene 1 9 12 -1.028004868 0 9 -1.028004868 1
gene 1 10 12 -0.6650957491 0 10 -0.6650957491 1
gene 1 11 12 0.5713802187 0 11 0.5713802187 1
gene 1 12 13 0.6211405643 0 12 0.6211405643 1
gene 1 12 14 0.7192599216 0 13 0.7192599216 1
gene 1 13 13 0.4557297029 1 17 0.4557297029 1
gene 1 14 14 1.008021153 1 21 1.008021153 1
gene 1 11 13 -0.6450540999 0 22 -0.6450540999 1
gene 1 7 14 0.07959864665 0 24 0 1
gene 1 4 13 -0.3317887395 0 25 -0.3317887395 1
gene 1 10 14 0.5956299331 0 27 0 1
gene 1 10 13 -0.3207974992 0 31 -0.3207974992 1
gene 1 8 14 -3 0 35 -3 1
gene 1 3 13 -0.2529402856 0 38 -0.2529402856 1
gene 1 5 14 0.2594816919 0 43 0 1
gene 1 6 14 -0.5081502885 0 45 -0.5081502885 1
gene 1 6 13 0.4440800745 0 53 0 1
gene 1 13 14 -0.4765716253 0 63 0 1
gene 1 12 12 -0.6377660966 1 184 -0.6377660966 1
genomeend 46882
/* Novelty: 10.58359146 Fitness: 204.013092 Generation: 221 Indiv: 47132 */
/* Point: 126.851532 14.90373516 126.851532 14.90373516 */

/* Organism #50401 Fitness: 10.09349155 Error: 0 */
genomestart 50401
trait 1 0.21055978 0.704996197 0.3840160685 0.7822890434 0.5509828953 0.4640851772 0.2641724916 0.3745528976 
node 1 1 1 3
node 2 1 1 1
node 3 1 1 1
node 4 1 1 1
node 5 1 1 1
node 6 1 1 1
node 7 1 1 1
node 8 1 1 1
node 9 1 1 1
node 10 1 1 1
node 11 1 1 1
node 12 1 0 0
node 13 1 0 2
node 14 1 0 2
gene 1 1 12 0.7339557051 0 1 0.7339557051 1
gene 1 2 12 0.0739820303 0 2 0.0739820303 1
gene 1 3 12 0.1695921743 0 3 0.1695921743 1
gene 1 4 12 -1.179661343 0 4 -1.179661343 0
gene 1 5 12 0.3343043694 0 5 0.3343043694 1
gene 1 6 12 0.1805821338 0 6 0.1805821338 1
gene 1 7 12 -1.471795449 0 7 -1.471795449 1
gene 1 8 12 2.576892204 0 8 2.576892204 1
gene 1 9 12 -1.028004868 0 9 -1.028004868 1
gene 1 10 12 -0.9955403762 0 10 -0.9955403762 1
gene 1 11 12 0.5713802187 0 11 0.5713802187 1
gene 1 12 13 0.5958263164 0 12 0.5958263164 1
gene 1 12 14 0.7192599216 0 13 0.7192599216 1
gene 1 13 13 0.4557297029 1 17 0.4557297029 1
gene 1 14 14 1.008021153 1 21 1.008021153 1
gene 1 11 13 -0.6151941658 0 22 -0.6151941658 1
gene 1 7 14 0.07959864665 0 24 0 1
gene 1 4 13 -0.3317887395 0 25 -0.3317887395 1
gene 1 10 14 0.5956299331 0 27 0 1
gene 1 10 13 -0.1844166033 0 31 -0.1844166033 1
gene 1 2 13 -0.00300775096 0 32 0 1
gene 1 8 14 -3 0 35 -3 1
gene 1 3 13 -0.2529402856 0 38 -0.2529402856 1
gene 1 5 14 0.2594816919 0 43 0 1
gene 1 6 14 -0.5081502885 0 45 -0.5081502885 1
gene 1 12 12 -0.6377660966 1 184 -0.6377660966 1
genomeend 50401
/* Novelty: 10.09349155 Fitness: 142.1687317 Generation: 221 Indiv: 50651 */
/* Point: 180.8823853 69.45684052 180.8823853 69.45684052 */

/* Organism #45572 Fitness: 10.00209236 Error: 0 */
genomestart 45572
trait 1 0.1043382772 0.7104823648 0.3890358864 0.5645780868 0.5454429682 0.4650279644 0.2632686146 0.3723213353 
node 1 1 1 3
node 2 1 1 1
node 3 1 1 1
node 4 1 1 1
node 5 1 1 1
node 6 1 1 1
node 7 1 1 1
node 8 1 1 1
node 9 1 1 1
node 10 1 1 1
node 11 1 1 1
node 12 1 0 0
node 13 1 0 2
node 14 1 0 2
gene 1 1 12 0.7339557051 0 1 0.7339557051 1
gene 1 2 12 0.05620525412 0 2 0.05620525412 1
gene 1 3 12 0.1695921743 0 3 0.1695921743 0
gene 1 4 12 -1.179661343 0 4 -1.179661343 0
gene 1 5 12 0.3343043694 0 5 0.3343043694 1
gene 1 6 12 0.1805821338 0 6 0.1805821338 0
gene 1 7 12 -1.471795449 0 7 -1.471795449 1
gene 1 8 12 2.576892204 0 8 2.576892204 1
gene 1 9 12 -1.028004868 0 9 -1.028004868 1
gene 1 10 12 -1.16076269 0 10 -1.16076269 1
gene 1 11 12 0.5713802187 0 11 0.5713802187 1
gene 1 12 13 0.5831691925 0 12 0.5831691925 1
gene 1 12 14 0.7192599216 0 13 0.7192599216 1
gene 1 13 13 0.4557297029 1 17 0.4557297029 1
gene 1 14 14 1.008021153 1 21 1.008021153 1
gene 1 11 13 -0.6002641988 0 22 -0.6002641988 1
gene 1 7 14 0.07959864665 0 24 0 1
gene 1 4 13 -0.3317887395 0 25 -0.3317887395 1
gene 1 10 14 0.5956299331 0 27 0 1
gene 1 10 13 -0.1162261554 0 31 -0.1162261554 1
gene 1 8 14 -3 0 35 -3 1
gene 1 3 13 -0.2529402856 0 38 -0.2529402856 1
gene 1 5 14 0.2594816919 0 43 0 1
gene 1 6 14 -0.5081502885 0 45 -0.5081502885 1
gene 1 12 12 -0.6377660966 1 184 -0.6377660966 1
genomeend 45572
/* Novelty: 10.00209236 Fitness: 181.8479614 Generation: 221 Indiv: 45822 */
/* Point: 126.6212006 89.4009552 126.6212006 89.4009552 */

/* Organism #39850 Fitness: 10.00209236 Error: 0 */
genomestart 39850
trait 1 0.1043382772 0.7104823648 0.3890358864 0.5645780868 0.5454429682 0.4650279644 0.2632686146 0.3723213353 
node 1 1 1 3
node 2 1 1 1
node 3 1 1 1
node 4 1 1 1
node 5 1 1 1
node 6 1 1 1
node 7 1 1 1
node 8 1 1 1
node 9 1 1 1
node 10 1 1 1
node 11 1 1 1
node 12 1 0 0
node 13 1 0 2
node 14 1 0 2
gene 1 1 12 0.7339557051 0 1 0.7339557051 1
gene 1 2 12 0.05620525412 0 2 0.05620525412 1
gene 1 3 12 0.1695921743 0 3 0.1695921743 0
gene 1 4 12 -1.179661343 0 4 -1.179661343 0
gene 1 5 12 0.3343043694 0 5 0.3343043694 1
gene 1 6 12 0.1805821338 0 6 0.1805821338 0
gene 1 7 12 -1.471795449 0 7 -1.471795449 1
gene 1 8 12 2.576892204 0 8 2.576892204 1
gene 1 9 12 -1.028004868 0 9 -1.028004868 1
gene 1 10 12 -1.16076269 0 10 -1.16076269 1
gene 1 11 12 0.5713802187 0 11 0.5713802187 1
gene 1 12 13 0.5831691925 0 12 0.5831691925 1
gene 1 12 14 0.7192599216 0 13 0.7192599216 1
gene 1 13 13 0.4557297029 1 17 0.4557297029 1
gene 1 14 14 1.008021153 1 21 1.008021153 1
gene 1 11 13 -0.6002641988 0 22 -0.6002641988 1
gene 1 7 14 0.07959864665 0 24 0 1
gene 1 4 13 -0.3317887395 0 25 -0.3317887395 1
gene 1 10 14 0.5956299331 0 27 0 1
gene 1 10 13 -0.1162261554 0 31 -0.1162261554 1
gene 1 8 14 -3 0 35 -3 1
gene 1 3 13 -0.2529402856 0 38 -0.2529402856 1
gene 1 5 14 0.2594816919 0 43 0 1
gene 1 6 14 -0.5081502885 0 45 -0.5081502885 1
gene 1 12 12 -0.6377660966 1 184 -0.6377660966 1
genomeend 39850
/* Novelty: 10.00209236 Fitness: 181.8479614 Generation: 221 Indiv: 40100 */
/* Point: 126.6212006 89.4009552 126.6212006 89.4009552 */

/* Organism #54927 Fitness: 9.954832077 Error: 0 */
genomestart 54927
trait 1 0.4236685069 0.008148043798 0.1719354059 1 0 0.4631423901 0.2650763685 0.37678446 
node 1 1 1 3
node 2 1 1 1
node 3 1 1 1
node 4 1 1 1
node 5 1 1 1
node 6 1 1 1
node 7 1 1 1
node 8 1 1 1
node 9 1 1 1
node 10 1 1 1
node 11 1 1 1
node 12 1 0 0
node 13 1 0 2
node 14 1 0 2
gene 1 1 12 0.7339557051 0 1 0.7339557051 1
gene 1 2 12 0.09175880648 0 2 0.09175880648 1
gene 1 3 12 0.1695921743 0 3 0.1695921743 1
gene 1 4 12 -1.179661343 0 4 -1.179661343 1
gene 1 5 12 0.3343043694 0 5 0.3343043694 1
gene 1 6 12 0.1805821338 0 6 0.1805821338 0
gene 1 7 12 -1.471795449 0 7 -1.471795449 1
gene 1 8 12 2.576892204 0 8 2.576892204 1
gene 1 9 12 -1.028004868 0 9 -1.028004868 1
gene 1 10 12 -0.8303180627 0 10 -0.8303180627 1
gene 1 11 12 0.5713802187 0 11 0.5713802187 1
gene 1 12 13 0.6084834403 0 12 0.6084834403 1
gene 1 12 14 0.7192599216 0 13 0.7192599216 1
gene 1 13 13 0.4557297029 1 17 0.4557297029 1
gene 1 14 14 1.008021153 1 21 1.008021153 1
gene 1 11 13 -0.6301241328 0 22 -0.6301241328 1
gene 1 7 14 0.07959864665 0 24 0 1
gene 1 4 13 -0.3317887395 0 25 -0.3317887395 1
gene 1 10 14 0.5956299331 0 27 0 1
gene 1 10 13 -0.2526070513 0 31 -0.2526070513 1
gene 1 8 14 -3 0 35 -3 1
gene 1 3 13 -0.2529402856 0 38 -0.2529402856 1
gene 1 5 14 0.2594816919 0 43 0 1
gene 1 6 14 -0.5081502885 0 45 -0.5081502885 1
gene 1 12 12 -0.6377660966 1 184 -0.6377660966 1
genomeend 54927
/* Novelty: 9.954832077 Fitness: 222.5384674 Generation: 221 Indiv: 55177 */
/* Point: 103.163063 48.1563797 103.163063 48.1563797 */

/* Organism #45950 Fitness: 9.954832077 Error: 0 */
genomestart 45950
trait 1 0.4236685069 0.008148043798 0.1719354059 1 0 0.4631423901 0.2650763685 0.37678446 
node 1 1 1 3
node 2 1 1 1
node 3 1 1 1
node 4 1 1 1
node 5 1 1 1
node 6 1 1 1
node 7 1 1 1
node 8 1 1 1
node 9 1 1 1
node 10 1 1 1
node 11 1 1 1
node 12 1 0 0
node 13 1 0 2
node 14 1 0 2
gene 1 1 12 0.7339557051 0 1 0.7339557051 1
gene 1 2 12 0.09175880648 0 2 0.09175880648 1
gene 1 3 12 0.1695921743 0 3 0.1695921743 1
gene 1 4 12 -1.179661343 0 4 -1.179661343 1
gene 1 5 12 0.3343043694 0 5 0.3343043694 1
gene 1 6 12 0.1805821338 0 6 0.1805821338 0
gene 1 7 12 -1.471795449 0 7 -1.471795449 1
gene 1 8 12 2.576892204 0 8 2.576892204 1
gene 1 9 12 -1.028004868 0 9 -1.028004868 1
gene 1 10 12 -0.8303180627 0 10 -0.8303180627 1
gene 1 11 12 0.5713802187 0 11 0.5713802187 1
gene 1 12 13 0.6084834403 0 12 0.6084834403 1
gene 1 12 14 0.7192599216 0 13 0.7192599216 1
gene 1 13 13 0.4557297029 1 17 0.4557297029 1
gene 1 14 14 1.008021153 1 21 1.008021153 1
gene 1 11 13 -0.6301241328 0 22 -0.6301241328 1
gene 1 7 14 0.07959864665 0 24 0 1
gene 1 4 13 -0.3317887395 0 25 -0.3317887395 1
gene 1 10 14 0.5956299331 0 27 0 1
gene 1 10 13 -0.2526070513 0 31 -0.2526070513 1
gene 1 8 14 -3 0 35 -3 1
gene 1 3 13 -0.2529402856 0 38 -0.2529402856 1
gene 1 5 14 0.2594816919 0 43 0 1
gene 1 6 14 -0.5081502885 0 45 -0.5081502885 1
gene 1 12 12 -0.6377660966 1 184 -0.6377660966 1
genomeend 45950
/* Novelty: 9.954832077 Fitness: 222.5384674 Generation: 221 Indiv: 46200 */
/* Point: 103.163063 48.1563797 103.163063 48.1563797 */

/* Organism #48320 Fitness: 9.954832077 Error: 0 */
genomestart 48320
trait 1 0.3702248948 0.3538290365 0.2754658283 1 0.2782614112 0.4631423901 0.2650763685 0.37678446 
node 1 1 1 3
node 2 1 1 1
node 3 1 1 1
node 4 1 1 1
node 5 1 1 1
node 6 1 1 1
node 7 1 1 1
node 8 1 1 1
node 9 1 1 1
node 10 1 1 1
node 11 1 1 1
node 12 1 0 0
node 13 1 0 2
node 14 1 0 2
gene 1 1 12 0.7339557051 0 1 0.7339557051 1
gene 1 2 12 0.09175880648 0 2 0.09175880648 1
gene 1 3 12 0.1695921743 0 3 0.1695921743 1
gene 1 4 12 -1.179661343 0 4 -1.179661343 1
gene 1 5 12 0.3343043694 0 5 0.3343043694 1
gene 1 6 12 0.1805821338 0 6 0.1805821338 0
gene 1 7 12 -1.471795449 0 7 -1.471795449 1
gene 1 8 12 2.576892204 0 8 2.576892204 1
gene 1 9 12 -1.028004868 0 9 -1.028004868 1
gene 1 10 12 -0.8303180627 0 10 -0.8303180627 1
gene 1 11 12 0.5713802187 0 11 0.5713802187 1
gene 1 12 13 0.6084834403 0 12 0.6084834403 1
gene 1 12 14 0.7192599216 0 13 0.7192599216 1
gene 1 13 13 0.4557297029 1 17 0.4557297029 1
gene 1 14 14 1.008021153 1 21 1.008021153 1
gene 1 11 13 -0.6301241328 0 22 -0.6301241328 1
gene 1 7 14 0.07959864665 0 24 0 1
gene 1 4 13 -0.3317887395 0 25 -0.3317887395 1
gene 1 10 14 0.5956299331 0 27 0 1
gene 1 10 13 -0.2526070513 0 31 -0.2526070513 1
gene 1 8 14 -3 0 35 -3 1
gene 1 3 13 -0.2529402856 0 38 -0.2529402856 1
gene 1 5 14 0.2594816919 0 43 0 1
gene 1 6 14 -0.5081502885 0 45 -0.5081502885 1
gene 1 12 12 -0.6377660966 1 184 -0.6377660966 1
genomeend 48320
/* Novelty: 9.954832077 Fitness: 222.5384674 Generation: 221 Indiv: 48570 */
/* Point: 103.163063 48.1563797 103.163063 48.1563797 */

/* Species #2 : (Size 17) (AF 0) (Age 1)  */


/* Organism #54113 Fitness: 10.98291683 Error: 0 */
genomestart 54113
trait 1 0.1897869342 0.1069077715 0.3324978142 0.1678410731 0.1442311102 0.2640341635 0.2951431866 0.6104794143 
node 1 1 1 3
node 2 1 1 1
node 3 1 1 1
node 4 1 1 1
node 5 1 1 1
node 6 1 1 1
node 7 1 1 1
node 8 1 1 1
node 9 1 1 1
node 10 1 1 1
node 11 1 1 1
node 12 1 0 0
node 13 1 0 2
node 14 1 0 2
node 29 1 0 0
gene 1 1 12 0.2384409446 0 1 0.2384409446 1
gene 1 2 12 0.3225344613 0 2 0.3225344613 1
gene 1 3 12 0.5647526322 0 3 0.5647526322 1
gene 1 4 12 -1.405501143 0 4 -1.405501143 1
gene 1 5 12 -0.5365453959 0 5 -0.5365453959 1
gene 1 6 12 -0.3971994319 0 6 -0.3971994319 1
gene 1 7 12 -1.121495607 0 7 -1.121495607 1
gene 1 8 12 0.0009693546691 0 8 0.0009693546691 1
gene 1 9 12 0.08378613412 0 9 0.08378613412 1
gene 1 10 12 0.7946908574 0 10 0.7946908574 1
gene 1 11 12 0.2228399535 0 11 0.2228399535 1
gene 1 12 13 -0.2683160913 0 12 -0.2683160913 1
gene 1 12 14 0.6022876018 0 13 0.6022876018 1
gene 1 13 13 0.6831914734 1 14 0.6831914734 1
gene 1 11 14 -0.6587978735 0 26 0 1
gene 1 10 14 2.298136649 0 27 2.298136649 1
gene 1 12 12 -1.138569557 1 28 -1.138569557 1
gene 1 1 13 -0.4857618405 0 29 -0.4857618405 1
gene 1 10 13 -0.2144441862 0 31 0 1
gene 1 2 13 0.5847096934 0 32 0.5847096934 1
gene 1 8 14 -0.3470903502 0 35 0 1
gene 1 9 14 -0.9033981268 0 42 0 1
gene 1 14 13 0.8553497983 0 44 0.8553497983 1
gene 1 6 14 -0.1146999056 0 45 -0.1146999056 1
gene 1 2 14 -0.4259145809 0 50 -0.4259145809 1
gene 1 14 14 0.06481334505 1 86 0.06481334505 1
gene 1 11 29 1 0 162 0 1
gene 1 29 12 0.03145238837 0 163 0 1
gene 1 10 29 -0.2101777532 0 699 0 1
gene 1 1 29 0.7304789302 0 744 0 1
genomeend 54113
/* Novelty: 10.98291683 Fitness: 200.5270081 Generation: 221 Indiv: 54363 */
/* Point: 120.650444 63.1007576 120.650444 63.1007576 */

/* Organism #52585 Fitness: 10.98291683 Error: 0 */
genomestart 52585
trait 1 0.1897869342 0.1069077715 0.3324978142 0.1678410731 0.1442311102 0.2640341635 0.2951431866 0.6104794143 
node 1 1 1 3
node 2 1 1 1
node 3 1 1 1
node 4 1 1 1
node 5 1 1 1
node 6 1 1 1
node 7 1 1 1
node 8 1 1 1
node 9 1 1 1
node 10 1 1 1
node 11 1 1 1
node 12 1 0 0
node 13 1 0 2
node 14 1 0 2
node 29 1 0 0
gene 1 1 12 0.2384409446 0 1 0.2384409446 1
gene 1 2 12 0.3225344613 0 2 0.3225344613 1
gene 1 3 12 0.5647526322 0 3 0.5647526322 1
gene 1 4 12 -1.405501143 0 4 -1.405501143 1
gene 1 5 12 -0.5365453959 0 5 -0.5365453959 1
gene 1 6 12 -0.3971994319 0 6 -0.3971994319 1
gene 1 7 12 -1.121495607 0 7 -1.121495607 1
gene 1 8 12 0.0009693546691 0 8 0.0009693546691 1
gene 1 9 12 0.08378613412 0 9 0.08378613412 1
gene 1 10 12 0.7946908574 0 10 0.7946908574 1
gene 1 11 12 0.2228399535 0 11 0.2228399535 1
gene 1 12 13 -0.2683160913 0 12 -0.2683160913 1
gene 1 12 14 0.6022876018 0 13 0.6022876018 1
gene 1 13 13 0.6831914734 1 14 0.6831914734 1
gene 1 11 14 -0.6587978735 0 26 0 1
gene 1 10 14 2.298136649 0 27 2.298136649 1
gene 1 12 12 -1.138569557 1 28 -1.138569557 1
gene 1 1 13 -0.4857618405 0 29 -0.4857618405 1
gene 1 10 13 -0.2144441862 0 31 0 1
gene 1 2 13 0.5847096934 0 32 0.5847096934 1
gene 1 8 14 -0.3470903502 0 35 0 1
gene 1 9 14 -0.9033981268 0 42 0 1
gene 1 14 13 0.8553497983 0 44 0.8553497983 1
gene 1 6 14 -0.1146999056 0 45 -0.1146999056 1
gene 1 2 14 -0.4259145809 0 50 -0.4259145809 1
gene 1 14 14 0.06481334505 1 86 0.06481334505 1
gene 1 11 29 1 0 162 0 1
gene 1 29 12 0.03145238837 0 163 0 1
gene 1 10 29 -0.2101777532 0 699 0 1
gene 1 1 29 0.7304789302 0 744 0 1
genomeend 52585
/* Novelty: 10.98291683 Fitness: 200.5270081 Generation: 221 Indiv: 52835 */
/* Point: 120.650444 63.1007576 120.650444 63.1007576 */

/* Organism #48906 Fitness: 10.78425694 Error: 0 */
genomestart 48906
trait 1 0.09549280556 0.7876945566 0 0.02404103434 0.07279803667 0.5907742637 0.255185305 1 
node 1 1 1 3
node 2 1 1 1
node 3 1 1 1
node 4 1 1 1
node 5 1 1 1
node 6 1 1 1
node 7 1 1 1
node 8 1 1 1
node 9 1 1 1
node 10 1 1 1
node 11 1 1 1
node 12 1 0 0
node 13 1 0 2
node 14 1 0 2
node 29 1 0 0
gene 1 1 12 0.1651821332 0 1 0.1651821332 1
gene 1 2 12 0.3321403977 0 2 0.3321403977 1
gene 1 3 12 1.011501965 0 3 1.011501965 1
gene 1 4 12 -0.9172351779 0 4 -0.9172351779 1
gene 1 5 12 -0.1950946996 0 5 -0.1950946996 1
gene 1 6 12 -0.5305486034 0 6 -0.5305486034 1
gene 1 7 12 -1.27677757 0 7 -1.27677757 1
gene 1 8 12 -0.1152648253 0 8 -0.1152648253 1
gene 1 9 12 0.09916059796 0 9 0.09916059796 1
gene 1 10 12 1.234203378 0 10 1.234203378 1
gene 1 11 12 0.187369461 0 11 0.187369461 0
gene 1 12 13 -0.2415137308 0 12 -0.2415137308 1
gene 1 12 14 0.2565319968 0 13 0.2565319968 1
gene 1 13 13 0.2095850068 1 14 0.2095850068 1
gene 1 11 14 -0.7055030444 0 26 -0.2114046393 1
gene 1 10 14 2.273283395 0 27 2.273283395 1
gene 1 12 12 -0.9984890112 1 28 -0.9984890112 1
gene 1 1 13 -0.1986805979 0 29 -0.1986805979 1
gene 1 10 13 -0.2144441862 0 31 0 1
gene 1 2 13 0.5226982085 0 32 0.5226982085 1
gene 1 9 14 -0.956654581 0 42 -0.7308050493 1
gene 1 14 13 0.7430352163 0 44 0.6233193134 1
gene 1 6 14 -0.1007106573 0 45 -0.1007106573 1
gene 1 2 14 -1.16015803 0 50 -1.16015803 1
gene 1 14 14 -0.1690654493 1 86 -0.1690654493 1
gene 1 11 29 1 0 162 0 1
gene 1 29 12 0.03145238837 0 163 0 1
genomeend 48906
/* Novelty: 10.78425694 Fitness: 237.115036 Generation: 221 Indiv: 49156 */
/* Point: 82.27024078 56.41265106 82.27024078 56.41265106 */

/* Organism #46995 Fitness: 10.73555374 Error: 0 */
genomestart 46995
trait 1 0.1909856111 0.106779229 0.3388411798 0 0 0 0.2226998154 0.6390187267 
node 1 1 1 3
node 2 1 1 1
node 3 1 1 1
node 4 1 1 1
node 5 1 1 1
node 6 1 1 1
node 7 1 1 1
node 8 1 1 1
node 9 1 1 1
node 10 1 1 1
node 11 1 1 1
node 12 1 0 0
node 13 1 0 2
node 14 1 0 2
node 29 1 0 0
gene 1 1 12 0.08931580411 0 1 0.08931580411 1
gene 1 2 12 0.4106181502 0 2 0.4106181502 1
gene 1 3 12 0.9098569093 0 3 0.9098569093 1
gene 1 4 12 -0.4253516942 0 4 -0.4253516942 1
gene 1 5 12 -0.6890688415 0 5 -0.6890688415 1
gene 1 6 12 -0.736755256 0 6 -0.736755256 1
gene 1 7 12 -1.20887705 0 7 -1.20887705 1
gene 1 8 12 -0.1180730522 0 8 -0.1180730522 1
gene 1 9 12 0.1379649918 0 9 0.1379649918 1
gene 1 10 12 1.250093224 0 10 1.250093224 1
gene 1 11 12 0.1048412946 0 11 0.1048412946 0
gene 1 12 13 -0.01583785462 0 12 -0.01583785462 1
gene 1 12 14 0.6022876018 0 13 0.6022876018 1
gene 1 13 13 0.5611299894 1 14 0.5611299894 1
gene 1 11 14 -0.6587978735 0 26 0 1
gene 1 10 14 2.317531718 0 27 2.317531718 1
gene 1 12 12 -1.111358989 1 28 -1.111358989 1
gene 1 1 13 -0.3627102247 0 29 -0.3627102247 1
gene 1 10 13 -0.2144441862 0 31 0 1
gene 1 2 13 0.1491580047 0 32 0.1491580047 1
gene 1 9 14 -1.262125842 0 42 -1.262125842 1
gene 1 14 13 0.9808451939 0 44 0.9808451939 1
gene 1 6 14 -0.1650338312 0 45 -0.1650338312 1
gene 1 2 14 -1.485202805 0 50 -1.485202805 1
gene 1 14 14 -0.2530713798 1 86 -0.2530713798 1
gene 1 11 29 1 0 162 0 1
gene 1 29 12 0.03145238837 0 163 0 1
genomeend 46995
/* Novelty: 10.73555374 Fitness: 203.8839417 Generation: 221 Indiv: 47245 */
/* Point: 114.6139679 67.40257263 114.6139679 67.40257263 */

/* Organism #48276 Fitness: 10.72061729 Error: 0 */
genomestart 48276
trait 1 0.1885266614 0.1070972722 0.3320749232 0.1670223342 0.1422188448 0.2595198336 0.2923405114 0.6081651816 
node 1 1 1 3
node 2 1 1 1
node 3 1 1 1
node 4 1 1 1
node 5 1 1 1
node 6 1 1 1
node 7 1 1 1
node 8 1 1 1
node 9 1 1 1
node 10 1 1 1
node 11 1 1 1
node 12 1 0 0
node 13 1 0 2
node 14 1 0 2
node 29 1 0 0
gene 1 1 12 0.2384409446 0 1 0.2384409446 1
gene 1 2 12 0.2635402919 0 2 0.2635402919 1
gene 1 3 12 0.5980301189 0 3 0.5980301189 1
gene 1 4 12 -1.405501143 0 4 -1.405501143 1
gene 1 5 12 -0.5365453959 0 5 -0.5365453959 1
gene 1 6 12 -0.3971994319 0 6 -0.3971994319 1
gene 1 7 12 -1.121495607 0 7 -1.121495607 1
gene 1 8 12 -0.02452406286 0 8 -0.02452406286 1
gene 1 9 12 0.08378613412 0 9 0.08378613412 1
gene 1 10 12 0.9701379847 0 10 0.9701379847 1
gene 1 11 12 0.1453904315 0 11 0.1453904315 1
gene 1 12 13 -0.2683160913 0 12 -0.2683160913 1
gene 1 12 14 0.4119163018 0 13 0.4119163018 1
gene 1 13 13 0.642504312 1 14 0.642504312 1
gene 1 11 14 -0.6487664368 0 26 -0.2370177658 1
gene 1 10 14 2.298136649 0 27 2.298136649 1
gene 1 12 12 -1.138569557 1 28 -1.138569557 1
gene 1 1 13 -0.4447446352 0 29 -0.4447446352 1
gene 1 10 13 -0.2144441862 0 31 0 1
gene 1 2 13 0.7070504235 0 32 0.7070504235 1
gene 1 9 14 -1.262125842 0 42 -1.262125842 1
gene 1 14 13 0.8553497983 0 44 0.8553497983 1
gene 1 6 14 -0.1146999056 0 45 -0.1146999056 1
gene 1 2 14 -1.594840387 0 50 -1.594840387 1
gene 1 14 14 0.06481334505 1 86 0.06481334505 1
gene 1 11 29 1 0 162 0 1
gene 1 29 12 0.03145238837 0 163 0 1
genomeend 48276
/* Novelty: 10.72061729 Fitness: 178.7962036 Generation: 221 Indiv: 48526 */
/* Point: 137.7015991 77.49026489 137.7015991 77.49026489 */

/* Organism #33789 Fitness: 10.72061729 Error: 0 */
genomestart 33789
trait 1 0.1885266614 0.1070972722 0.3320749232 0.1670223342 0.1422188448 0.2595198336 0.2923405114 0.6081651816 
node 1 1 1 3
node 2 1 1 1
node 3 1 1 1
node 4 1 1 1
node 5 1 1 1
node 6 1 1 1
node 7 1 1 1
node 8 1 1 1
node 9 1 1 1
node 10 1 1 1
node 11 1 1 1
node 12 1 0 0
node 13 1 0 2
node 14 1 0 2
node 29 1 0 0
gene 1 1 12 0.2384409446 0 1 0.2384409446 1
gene 1 2 12 0.2635402919 0 2 0.2635402919 1
gene 1 3 12 0.5980301189 0 3 0.5980301189 1
gene 1 4 12 -1.405501143 0 4 -1.405501143 1
gene 1 5 12 -0.5365453959 0 5 -0.5365453959 1
gene 1 6 12 -0.3971994319 0 6 -0.3971994319 1
gene 1 7 12 -1.121495607 0 7 -1.121495607 1
gene 1 8 12 -0.02452406286 0 8 -0.02452406286 1
gene 1 9 12 0.08378613412 0 9 0.08378613412 1
gene 1 10 12 0.9701379847 0 10 0.9701379847 1
gene 1 11 12 0.1453904315 0 11 0.1453904315 1
gene 1 12 13 -0.2683160913 0 12 -0.2683160913 1
gene 1 12 14 0.4119163018 0 13 0.4119163018 1
gene 1 13 13 0.642504312 1 14 0.642504312 1
gene 1 11 14 -0.6487664368 0 26 -0.2370177658 1
gene 1 10 14 2.298136649 0 27 2.298136649 1
gene 1 12 12 -1.138569557 1 28 -1.138569557 1
gene 1 1 13 -0.4447446352 0 29 -0.4447446352 1
gene 1 10 13 -0.2144441862 0 31 0 1
gene 1 2 13 0.7070504235 0 32 0.7070504235 1
gene 1 9 14 -1.262125842 0 42 -1.262125842 1
gene 1 14 13 0.8553497983 0 44 0.8553497983 1
gene 1 6 14 -0.1146999056 0 45 -0.1146999056 1
gene 1 2 14 -1.594840387 0 50 -1.594840387 1
gene 1 14 14 0.06481334505 1 86 0.06481334505 1
gene 1 11 29 1 0 162 0 1
gene 1 29 12 0.03145238837 0 163 0 1
genomeend 33789
/* Novelty: 10.72061729 Fitness: 178.7962036 Generation: 221 Indiv: 34039 */
/* Point: 137.7015991 77.49026489 137.7015991 77.49026489 */

/* Organism #47043 Fitness: 10.6557312 Error: 0 */
genomestart 47043
trait 1 0 0.1071644147 1 1 1 0.2798542637 0.2895333896 0.6230774392 
node 1 1 1 3
node 2 1 1 1
node 3 1 1 1
node 4 1 1 1
node 5 1 1 1
node 6 1 1 1
node 7 1 1 1
node 8 1 1 1
node 9 1 1 1
node 10 1 1 1
node 11 1 1 1
node 12 1 0 0
node 13 1 0 2
node 14 1 0 2
node 29 1 0 0
gene 1 1 12 0.2332259093 0 1 0.2332259093 1
gene 1 2 12 0.2635402919 0 2 0.2635402919 1
gene 1 3 12 0.4719028643 0 3 0.4719028643 1
gene 1 4 12 -1.405501143 0 4 -1.405501143 1
gene 1 5 12 -0.1950281532 0 5 -0.1950281532 1
gene 1 6 12 -0.3971994319 0 6 -0.3971994319 1
gene 1 7 12 -1.121495607 0 7 -1.121495607 1
gene 1 8 12 0.02365454527 0 8 0.02365454527 1
gene 1 9 12 0.08378613412 0 9 0.08378613412 1
gene 1 10 12 0.9701379847 0 10 0.9701379847 1
gene 1 11 12 -0.1036239604 0 11 -0.1036239604 1
gene 1 12 13 -0.2683160913 0 12 -0.2683160913 1
gene 1 12 14 -0.01153145566 0 13 -0.01153145566 1
gene 1 13 13 0.642504312 1 14 0.642504312 1
gene 1 11 14 -0.6487664368 0 26 -0.2370177658 1
gene 1 10 14 2.614385931 0 27 2.614385931 1
gene 1 12 12 -1.095739853 1 28 -1.095739853 1
gene 1 1 13 -0.4447446352 0 29 -0.4447446352 1
gene 1 10 13 -0.2144441862 0 31 0 1
gene 1 2 13 0.7070504235 0 32 0.7070504235 1
gene 1 8 14 -0.3470903502 0 35 0 1
gene 1 9 14 -1.262125842 0 42 -1.262125842 1
gene 1 14 13 0.6476129536 0 44 0.5877550021 1
gene 1 6 14 -0.1146999056 0 45 -0.1146999056 1
gene 1 2 14 -1.48713679 0 50 -1.48713679 1
gene 1 14 14 -0.09412901737 1 86 -0.09412901737 1
gene 1 11 29 1 0 162 0 1
gene 1 29 12 0.03145238837 0 163 0 1
genomeend 47043
/* Novelty: 10.6557312 Fitness: 180.2454224 Generation: 221 Indiv: 47293 */
/* Point: 143.9884186 59.68344498 143.9884186 59.68344498 */

/* Organism #48992 Fitness: 10.59157467 Error: 0 */
genomestart 48992
trait 1 0.1902476822 0.1069806564 0.3489905647 0.1357974026 0.143457162 0.3657006152 0.2855130521 0.6837554997 
node 1 1 1 3
node 2 1 1 1
node 3 1 1 1
node 4 1 1 1
node 5 1 1 1
node 6 1 1 1
node 7 1 1 1
node 8 1 1 1
node 9 1 1 1
node 10 1 1 1
node 11 1 1 1
node 12 1 0 0
node 13 1 0 2
node 14 1 0 2
node 29 1 0 0
gene 1 1 12 0.1932910049 0 1 0.1932910049 1
gene 1 2 12 0.3175050679 0 2 0.3175050679 1
gene 1 3 12 0.7539435141 0 3 0.7539435141 1
gene 1 4 12 -0.9154264187 0 4 -0.9154264187 1
gene 1 5 12 -0.6128071187 0 5 -0.6128071187 1
gene 1 6 12 -0.566977344 0 6 -0.566977344 1
gene 1 7 12 -1.165186329 0 7 -1.165186329 1
gene 1 8 12 -0.01701728132 0 8 -0.01701728132 1
gene 1 9 12 0.1108755629 0 9 0.1108755629 1
gene 1 10 12 1.110115604 0 10 1.110115604 1
gene 1 11 12 0.125115863 0 11 0.125115863 1
gene 1 12 13 -0.1420769729 0 12 -0.1420769729 1
gene 1 12 14 0.5071019518 0 13 0.5071019518 1
gene 1 13 13 0.6018171507 1 14 0.6018171507 1
gene 1 11 14 -0.6437507184 0 26 -0.1908271804 1
gene 1 10 14 2.307834183 0 27 2.307834183 1
gene 1 12 12 -1.124964273 1 28 -1.124964273 1
gene 1 1 13 -0.40372743 0 29 -0.40372743 1
gene 1 10 13 -0.2144441862 0 31 0 1
gene 1 2 13 0.4281042141 0 32 0.4281042141 1
gene 1 9 14 -1.262125842 0 42 -1.262125842 1
gene 1 14 13 0.9180974961 0 44 0.9180974961 1
gene 1 6 14 -0.07631509912 0 45 -0.07631509912 1
gene 1 2 14 -1.540021596 0 50 -1.540021596 1
gene 1 14 14 -0.09412901737 1 86 -0.09412901737 1
gene 1 11 29 1 0 162 0 1
gene 1 29 12 0.03145238837 0 163 0 1
genomeend 48992
/* Novelty: 10.59157467 Fitness: 168.7338715 Generation: 221 Indiv: 49242 */
/* Point: 154.1161194 65.53258514 154.1161194 65.53258514 */

/* Organism #48466 Fitness: 10.55179787 Error: 0 */
genomestart 48466
trait 1 0.1880347089 0.1072315571 0.3388411798 0.1529814648 0.1407929039 0.3001886937 0.2867262678 0.6379896969 
node 1 1 1 3
node 2 1 1 1
node 3 1 1 1
node 4 1 1 1
node 5 1 1 1
node 6 1 1 1
node 7 1 1 1
node 8 1 1 1
node 9 1 1 1
node 10 1 1 1
node 11 1 1 1
node 12 1 0 0
node 13 1 0 2
node 14 1 0 2
gene 1 1 12 0.2332259093 0 1 0.2332259093 1
gene 1 2 12 0.2635402919 0 2 0.2635402919 1
gene 1 3 12 0.4719028643 0 3 0.4719028643 1
gene 1 4 12 -1.159592403 0 4 -1.159592403 1
gene 1 5 12 -0.1950281532 0 5 -0.1950281532 1
gene 1 6 12 -0.4350306209 0 6 -0.4350306209 1
gene 1 7 12 -1.28873557 0 7 -1.28873557 1
gene 1 8 12 0.02365454527 0 8 0.02365454527 1
gene 1 9 12 0.08378613412 0 9 0.08378613412 1
gene 1 10 12 0.8222154422 0 10 0.8222154422 1
gene 1 11 12 -0.1036239604 0 11 -0.1036239604 1
gene 1 12 13 -0.2683160913 0 12 -0.2683160913 1
gene 1 12 14 -0.01153145566 0 13 -0.01153145566 1
gene 1 13 13 0.5002496282 1 14 0.5002496282 1
gene 1 11 14 -0.6437507184 0 26 -0.437876383 1
gene 1 10 14 2.614385931 0 27 2.614385931 1
gene 1 12 12 -1.095739853 1 28 -1.095739853 1
gene 1 1 13 -0.399427713 0 29 -0.399427713 1
gene 1 10 13 -0.2144441862 0 31 0 1
gene 1 2 13 0.7070504235 0 32 0.7070504235 1
gene 1 8 14 -0.3470903502 0 35 0 1
gene 1 9 14 -0.8039189503 0 42 -0.4651446528 1
gene 1 14 13 0.6476129536 0 44 0.5877550021 1
gene 1 6 14 -0.1146999056 0 45 -0.1146999056 1
gene 1 2 14 -1.48713679 0 50 -1.48713679 1
gene 1 14 14 -0.09412901737 1 86 -0.09412901737 1
genomeend 48466
/* Novelty: 10.55179787 Fitness: 177.0937653 Generation: 221 Indiv: 48716 */
/* Point: 146.5045319 62.00770187 146.5045319 62.00770187 */

/* Organism #54008 Fitness: 10.49581718 Error: 0 */
genomestart 54008
trait 1 0.5557452413 0.05351948214 0.3367267246 0.1600348402 0.5714190017 0.1563051122 0.1444633909 0.7545832959 
node 1 1 1 3
node 2 1 1 1
node 3 1 1 1
node 4 1 1 1
node 5 1 1 1
node 6 1 1 1
node 7 1 1 1
node 8 1 1 1
node 9 1 1 1
node 10 1 1 1
node 11 1 1 1
node 12 1 0 0
node 13 1 0 2
node 14 1 0 2
node 29 1 0 0
gene 1 1 12 0.1638783744 0 1 0.1638783744 1
gene 1 2 12 0.3225344613 0 2 0.3225344613 1
gene 1 3 12 0.5647526322 0 3 0.5647526322 1
gene 1 4 12 -0.6545840711 0 4 -0.6545840711 1
gene 1 5 12 -0.6128071187 0 5 -0.6128071187 1
gene 1 6 12 -0.4255728236 0 6 -0.4255728236 1
gene 1 7 12 -1.205409388 0 7 -1.205409388 1
gene 1 8 12 0.0009693546691 0 8 0.0009693546691 1
gene 1 9 12 0.118931029 0 9 0.118931029 1
gene 1 10 12 0.841461324 0 10 0.841461324 1
gene 1 11 12 0.1841151925 0 11 0.1841151925 1
gene 1 12 13 -0.114413005 0 12 -0.114413005 1
gene 1 12 14 0.2953780731 0 13 0.2953780731 1
gene 1 13 13 0.6831914734 1 14 0.6831914734 1
gene 1 11 14 -0.6537821551 0 26 -0.1185088829 1
gene 1 10 14 2.19408947 0 27 2.19408947 1
gene 1 12 12 -1.138569557 1 28 -1.138569557 1
gene 1 1 13 -0.4857618405 0 29 -0.4857618405 1
gene 1 10 13 -0.2144441862 0 31 0 1
gene 1 2 13 0.5847096934 0 32 0.5847096934 1
gene 1 8 14 -0.3470903502 0 35 0 1
gene 1 9 14 -0.8536585385 0 42 -0.2325723264 1
gene 1 14 13 0.8553497983 0 44 0.8553497983 1
gene 1 6 14 -0.1586699815 0 45 -0.1586699815 1
gene 1 2 14 -1.037786879 0 50 -1.037786879 1
gene 1 14 14 0.06481334505 1 86 0.06481334505 1
gene 1 11 29 1 0 162 0 1
gene 1 29 12 0.03145238837 0 163 0 1
gene 1 5 29 0.8300395114 0 655 0 1
gene 1 10 29 -0.2101777532 0 699 0 1
gene 1 1 29 0.7304789302 0 744 0 1
genomeend 54008
/* Novelty: 10.49581718 Fitness: 157.5369873 Generation: 221 Indiv: 54258 */
/* Point: 151.0421143 96.71768188 151.0421143 96.71768188 */

/* Organism #39097 Fitness: 10.28648376 Error: 0 */
genomestart 39097
trait 1 0.1893871718 0.1070389643 0.3405327439 0.1514098684 0.1428380034 0.3126102244 0.2889267818 0.6459603406 
node 1 1 1 3
node 2 1 1 1
node 3 1 1 1
node 4 1 1 1
node 5 1 1 1
node 6 1 1 1
node 7 1 1 1
node 8 1 1 1
node 9 1 1 1
node 10 1 1 1
node 11 1 1 1
node 12 1 0 0
node 13 1 0 2
node 14 1 0 2
node 29 1 0 0
gene 1 1 12 0.2384409446 0 1 0.2384409446 1
gene 1 2 12 0.3225344613 0 2 0.3225344613 1
gene 1 3 12 0.5647526322 0 3 0.5647526322 1
gene 1 4 12 -0.8838164479 0 4 -0.8838164479 1
gene 1 5 12 -0.5365453959 0 5 -0.5365453959 1
gene 1 6 12 -0.4255728236 0 6 -0.4255728236 1
gene 1 7 12 -1.28873557 0 7 -1.28873557 1
gene 1 8 12 0.0009693546691 0 8 0.0009693546691 1
gene 1 9 12 0.118931029 0 9 0.118931029 1
gene 1 10 12 0.8882317905 0 10 0.8882317905 1
gene 1 11 12 0.1453904315 0 11 0.1453904315 1
gene 1 12 13 -0.05566425894 0 12 -0.05566425894 1
gene 1 12 14 -0.01153145566 0 13 -0.01153145566 1
gene 1 13 13 0.6831914734 1 14 0.6831914734 1
gene 1 11 14 -0.6487664368 0 26 -0.2370177658 1
gene 1 10 14 2.298136649 0 27 2.298136649 1
gene 1 12 12 -1.138569557 1 28 -1.138569557 1
gene 1 1 13 -0.4857618405 0 29 -0.4857618405 1
gene 1 10 13 -0.2144441862 0 31 0 1
gene 1 2 13 0.5847096934 0 32 0.5847096934 1
gene 1 9 14 -0.8039189503 0 42 -0.4651446528 1
gene 1 14 13 0.8553497983 0 44 0.8553497983 1
gene 1 6 14 -0.1523061318 0 45 -0.1523061318 1
gene 1 2 14 -1.649659178 0 50 -1.649659178 1
gene 1 14 14 0.06481334505 1 86 0.06481334505 1
gene 1 11 29 1 0 162 0 1
gene 1 29 12 0.03145238837 0 163 0 1
gene 1 10 29 -0.2101777532 0 699 0 1
genomeend 39097
/* Novelty: 10.28648376 Fitness: 156.8091125 Generation: 221 Indiv: 39347 */
/* Point: 149.4878998 100.4005432 149.4878998 100.4005432 */

/* Organism #39292 Fitness: 10.28648376 Error: 0 */
genomestart 39292
trait 1 0.1893871718 0.1070389643 0.3405327439 0.1514098684 0.1428380034 0.3126102244 0.2889267818 0.6459603406 
node 1 1 1 3
node 2 1 1 1
node 3 1 1 1
node 4 1 1 1
node 5 1 1 1
node 6 1 1 1
node 7 1 1 1
node 8 1 1 1
node 9 1 1 1
node 10 1 1 1
node 11 1 1 1
node 12 1 0 0
node 13 1 0 2
node 14 1 0 2
node 29 1 0 0
gene 1 1 12 0.2384409446 0 1 0.2384409446 1
gene 1 2 12 0.3225344613 0 2 0.3225344613 1
gene 1 3 12 0.5647526322 0 3 0.5647526322 1
gene 1 4 12 -0.8838164479 0 4 -0.8838164479 1
gene 1 5 12 -0.5365453959 0 5 -0.5365453959 1
gene 1 6 12 -0.4255728236 0 6 -0.4255728236 1
gene 1 7 12 -1.28873557 0 7 -1.28873557 1
gene 1 8 12 0.0009693546691 0 8 0.0009693546691 1
gene 1 9 12 0.118931029 0 9 0.118931029 1
gene 1 10 12 0.8882317905 0 10 0.8882317905 1
gene 1 11 12 0.1453904315 0 11 0.1453904315 1
gene 1 12 13 -0.05566425894 0 12 -0.05566425894 1
gene 1 12 14 -0.01153145566 0 13 -0.01153145566 1
gene 1 13 13 0.6831914734 1 14 0.6831914734 1
gene 1 11 14 -0.6487664368 0 26 -0.2370177658 1
gene 1 10 14 2.298136649 0 27 2.298136649 1
gene 1 12 12 -1.138569557 1 28 -1.138569557 1
gene 1 1 13 -0.4857618405 0 29 -0.4857618405 1
gene 1 10 13 -0.2144441862 0 31 0 1
gene 1 2 13 0.5847096934 0 32 0.5847096934 1
gene 1 9 14 -0.8039189503 0 42 -0.4651446528 1
gene 1 14 13 0.8553497983 0 44 0.8553497983 1
gene 1 6 14 -0.1523061318 0 45 -0.1523061318 1
gene 1 2 14 -1.649659178 0 50 -1.649659178 1
gene 1 14 14 0.06481334505 1 86 0.06481334505 1
gene 1 11 29 1 0 162 0 1
gene 1 29 12 0.03145238837 0 163 0 1
gene 1 10 29 -0.2101777532 0 699 0 1
genomeend 39292
/* Novelty: 10.28648376 Fitness: 156.8091125 Generation: 221 Indiv: 39542 */
/* Point: 149.4878998 100.4005432 149.4878998 100.4005432 */

/* Organism #45623 Fitness: 10.04924583 Error: 0 */
genomestart 45623
trait 1 0.1910472069 0.1067182707 0.3329207053 0.1686598121 0.1462433755 0.2685484935 0.2979458619 0.6127936471 
node 1 1 1 3
node 2 1 1 1
node 3 1 1 1
node 4 1 1 1
node 5 1 1 1
node 6 1 1 1
node 7 1 1 1
node 8 1 1 1
node 9 1 1 1
node 10 1 1 1
node 11 1 1 1
node 12 1 0 0
node 13 1 0 2
node 14 1 0 2
node 29 1 0 0
gene 1 1 12 0.08931580411 0 1 0.08931580411 1
gene 1 2 12 0.3225344613 0 2 0.3225344613 1
gene 1 3 12 0.5647526322 0 3 0.5647526322 1
gene 1 4 12 -0.4253516942 0 4 -0.4253516942 1
gene 1 5 12 -0.6890688415 0 5 -0.6890688415 1
gene 1 6 12 -0.4255728236 0 6 -0.4255728236 1
gene 1 7 12 -1.122083207 0 7 -1.122083207 1
gene 1 8 12 0.0009693546691 0 8 0.0009693546691 1
gene 1 9 12 0.118931029 0 9 0.118931029 1
gene 1 10 12 0.7946908574 0 10 0.7946908574 1
gene 1 11 12 0.2228399535 0 11 0.2228399535 1
gene 1 12 13 -0.173161751 0 12 -0.173161751 1
gene 1 12 14 0.6022876018 0 13 0.6022876018 1
gene 1 13 13 0.6831914734 1 14 0.6831914734 1
gene 1 11 14 -0.6587978735 0 26 0 1
gene 1 10 14 2.090042291 0 27 2.090042291 1
gene 1 12 12 -1.138569557 1 28 -1.138569557 1
gene 1 1 13 -0.4857618405 0 29 -0.4857618405 1
gene 1 10 13 -0.2144441862 0 31 0 1
gene 1 2 13 0.5847096934 0 32 0.5847096934 1
gene 1 8 14 -0.3470903502 0 35 0 1
gene 1 9 14 -0.9033981268 0 42 0 1
gene 1 14 13 0.8553497983 0 44 0.8553497983 1
gene 1 6 14 -0.1650338312 0 45 -0.1650338312 1
gene 1 2 14 -0.4259145809 0 50 -0.4259145809 1
gene 1 14 14 0.06481334505 1 86 0.06481334505 1
gene 1 11 29 1 0 162 0 1
gene 1 29 12 0.03145238837 0 163 0 1
gene 1 10 29 -0.2101777532 0 699 0 1
gene 1 1 29 0.7304789302 0 744 0 1
genomeend 45623
/* Novelty: 10.04924583 Fitness: 152.4247284 Generation: 221 Indiv: 45873 */
/* Point: 164.581131 82.72593689 164.581131 82.72593689 */

/* Organism #52858 Fitness: 10.03692722 Error: 0 */
genomestart 52858
trait 1 0.9221033107 0 0.3329207053 0.1686598121 1 0 0 0.8632062511 
node 1 1 1 3
node 2 1 1 1
node 3 1 1 1
node 4 1 1 1
node 5 1 1 1
node 6 1 1 1
node 7 1 1 1
node 8 1 1 1
node 9 1 1 1
node 10 1 1 1
node 11 1 1 1
node 12 1 0 0
node 13 1 0 2
node 14 1 0 2
node 29 1 0 0
gene 1 1 12 0.08931580411 0 1 0.08931580411 1
gene 1 2 12 0.3225344613 0 2 0.3225344613 1
gene 1 3 12 0.5647526322 0 3 0.5647526322 1
gene 1 4 12 -0.4253516942 0 4 -0.4253516942 1
gene 1 5 12 -0.6890688415 0 5 -0.6890688415 1
gene 1 6 12 -0.4255728236 0 6 -0.4255728236 1
gene 1 7 12 -1.122083207 0 7 -1.122083207 1
gene 1 8 12 0.0009693546691 0 8 0.0009693546691 1
gene 1 9 12 0.118931029 0 9 0.118931029 1
gene 1 10 12 0.7946908574 0 10 0.7946908574 1
gene 1 11 12 0.2228399535 0 11 0.2228399535 1
gene 1 12 13 -0.173161751 0 12 -0.173161751 1
gene 1 12 14 0.6022876018 0 13 0.6022876018 1
gene 1 13 13 0.6831914734 1 14 0.6831914734 1
gene 1 11 14 -0.6587978735 0 26 0 1
gene 1 10 14 2.090042291 0 27 2.090042291 1
gene 1 12 12 -1.138569557 1 28 -1.138569557 1
gene 1 1 13 -0.4857618405 0 29 -0.4857618405 1
gene 1 10 13 -0.2144441862 0 31 0 1
gene 1 2 13 0.5847096934 0 32 0.5847096934 1
gene 1 8 14 -0.3470903502 0 35 0 1
gene 1 9 14 -0.9033981268 0 42 0 1
gene 1 14 13 0.8553497983 0 44 0.8553497983 1
gene 1 6 14 -0.1650338312 0 45 -0.1650338312 1
gene 1 2 14 -0.4259145809 0 50 -0.4259145809 1
gene 1 14 14 0.06481334505 1 86 0.06481334505 1
gene 1 11 29 1 0 162 0 1
gene 1 29 12 0.03145238837 0 163 0 1
gene 1 5 29 0.8300395114 0 655 0 1
gene 1 10 29 -0.2101777532 0 699 0 1
gene 1 1 29 0.7304789302 0 744 0 1
genomeend 52858
/* Novelty: 10.03692722 Fitness: 152.0989532 Generation: 221 Indiv: 53108 */
/* Point: 164.3156586 84.04415894 164.3156586 84.04415894 */

/* Organism #52243 Fitness: 10.03692722 Error: 0 */
genomestart 52243
trait 1 0.9221033107 0 0.3329207053 0.1686598121 1 0 0 0.8632062511 
node 1 1 1 3
node 2 1 1 1
node 3 1 1 1
node 4 1 1 1
node 5 1 1 1
node 6 1 1 1
node 7 1 1 1
node 8 1 1 1
node 9 1 1 1
node 10 1 1 1
node 11 1 1 1
node 12 1 0 0
node 13 1 0 2
node 14 1 0 2
node 29 1 0 0
gene 1 1 12 0.08931580411 0 1 0.08931580411 1
gene 1 2 12 0.3225344613 0 2 0.3225344613 1
gene 1 3 12 0.5647526322 0 3 0.5647526322 1
gene 1 4 12 -0.4253516942 0 4 -0.4253516942 1
gene 1 5 12 -0.6890688415 0 5 -0.6890688415 1
gene 1 6 12 -0.4255728236 0 6 -0.4255728236 1
gene 1 7 12 -1.122083207 0 7 -1.122083207 1
gene 1 8 12 0.0009693546691 0 8 0.0009693546691 1
gene 1 9 12 0.118931029 0 9 0.118931029 1
gene 1 10 12 0.7946908574 0 10 0.7946908574 1
gene 1 11 12 0.2228399535 0 11 0.2228399535 1
gene 1 12 13 -0.173161751 0 12 -0.173161751 1
gene 1 12 14 0.6022876018 0 13 0.6022876018 1
gene 1 13 13 0.6831914734 1 14 0.6831914734 1
gene 1 11 14 -0.6587978735 0 26 0 1
gene 1 10 14 2.090042291 0 27 2.090042291 1
gene 1 12 12 -1.138569557 1 28 -1.138569557 1
gene 1 1 13 -0.4857618405 0 29 -0.4857618405 1
gene 1 10 13 -0.2144441862 0 31 0 1
gene 1 2 13 0.5847096934 0 32 0.5847096934 1
gene 1 8 14 -0.3470903502 0 35 0 1
gene 1 9 14 -0.9033981268 0 42 0 1
gene 1 14 13 0.8553497983 0 44 0.8553497983 1
gene 1 6 14 -0.1650338312 0 45 -0.1650338312 1
gene 1 2 14 -0.4259145809 0 50 -0.4259145809 1
gene 1 14 14 0.06481334505 1 86 0.06481334505 1
gene 1 11 29 1 0 162 0 1
gene 1 29 12 0.03145238837 0 163 0 1
gene 1 5 29 0.8300395114 0 655 0 1
gene 1 10 29 -0.2101777532 0 699 0 1
gene 1 1 29 0.7304789302 0 744 0 1
genomeend 52243
/* Novelty: 10.03692722 Fitness: 152.0989532 Generation: 221 Indiv: 52493 */
/* Point: 164.3156586 84.04415894 164.3156586 84.04415894 */

/* Organism #50482 Fitness: 10.0161562 Error: 0 */
genomestart 50482
trait 1 0.1893871718 0.1070389643 0.3405327439 0.1514098684 0.1428380034 0.3126102244 0.2889267818 0.6459603406 
node 1 1 1 3
node 2 1 1 1
node 3 1 1 1
node 4 1 1 1
node 5 1 1 1
node 6 1 1 1
node 7 1 1 1
node 8 1 1 1
node 9 1 1 1
node 10 1 1 1
node 11 1 1 1
node 12 1 0 0
node 13 1 0 2
node 14 1 0 2
node 29 1 0 0
gene 1 1 12 0.2384409446 0 1 0.2384409446 1
gene 1 2 12 0.3225344613 0 2 0.3225344613 1
gene 1 3 12 0.5647526322 0 3 0.5647526322 1
gene 1 4 12 -0.8838164479 0 4 -0.8838164479 1
gene 1 5 12 -0.5365453959 0 5 -0.5365453959 1
gene 1 6 12 -0.4255728236 0 6 -0.4255728236 1
gene 1 7 12 -1.28873557 0 7 -1.28873557 1
gene 1 8 12 0.0009693546691 0 8 0.0009693546691 1
gene 1 9 12 0.118931029 0 9 0.118931029 1
gene 1 10 12 0.8882317905 0 10 0.8882317905 1
gene 1 11 12 0.1453904315 0 11 0.1453904315 1
gene 1 12 13 -0.05566425894 0 12 -0.05566425894 1
gene 1 12 14 -0.01153145566 0 13 -0.01153145566 1
gene 1 13 13 0.6831914734 1 14 0.6831914734 1
gene 1 11 14 -0.6487664368 0 26 -0.2370177658 1
gene 1 10 14 2.298136649 0 27 2.298136649 1
gene 1 12 12 -1.138569557 1 28 -1.138569557 1
gene 1 1 13 -0.4857618405 0 29 -0.4857618405 1
gene 1 10 13 -0.2144441862 0 31 0 1
gene 1 2 13 0.5847096934 0 32 0.5847096934 1
gene 1 9 14 -0.8039189503 0 42 -0.4651446528 1
gene 1 14 13 0.8553497983 0 44 0.8553497983 1
gene 1 6 14 -0.1523061318 0 45 -0.1523061318 1
gene 1 2 14 -1.649659178 0 50 -1.649659178 0
gene 1 14 14 0.06481334505 1 86 0.06481334505 1
gene 1 11 29 1 0 162 0 1
gene 1 29 12 0.03145238837 0 163 0 1
gene 1 10 29 -0.2101777532 0 699 0 1
genomeend 50482
/* Novelty: 10.0161562 Fitness: 165.5313721 Generation: 221 Indiv: 50732 */
/* Point: 133.9213715 106.539032 133.9213715 106.539032 */

/* Organism #54402 Fitness: 10.0161562 Error: 0 */
genomestart 54402
trait 1 0.1893871718 0.1070389643 0.3405327439 0.1514098684 0.1428380034 0.3126102244 0.2889267818 0.6459603406 
node 1 1 1 3
node 2 1 1 1
node 3 1 1 1
node 4 1 1 1
node 5 1 1 1
node 6 1 1 1
node 7 1 1 1
node 8 1 1 1
node 9 1 1 1
node 10 1 1 1
node 11 1 1 1
node 12 1 0 0
node 13 1 0 2
node 14 1 0 2
node 29 1 0 0
gene 1 1 12 0.2384409446 0 1 0.2384409446 1
gene 1 2 12 0.3225344613 0 2 0.3225344613 1
gene 1 3 12 0.5647526322 0 3 0.5647526322 1
gene 1 4 12 -0.8838164479 0 4 -0.8838164479 1
gene 1 5 12 -0.5365453959 0 5 -0.5365453959 1
gene 1 6 12 -0.4255728236 0 6 -0.4255728236 1
gene 1 7 12 -1.28873557 0 7 -1.28873557 1
gene 1 8 12 0.0009693546691 0 8 0.0009693546691 1
gene 1 9 12 0.118931029 0 9 0.118931029 1
gene 1 10 12 0.8882317905 0 10 0.8882317905 1
gene 1 11 12 0.1453904315 0 11 0.1453904315 1
gene 1 12 13 -0.05566425894 0 12 -0.05566425894 1
gene 1 12 14 -0.01153145566 0 13 -0.01153145566 1
gene 1 13 13 0.6831914734 1 14 0.6831914734 1
gene 1 11 14 -0.6487664368 0 26 -0.2370177658 1
gene 1 10 14 2.298136649 0 27 2.298136649 1
gene 1 12 12 -1.138569557 1 28 -1.138569557 1
gene 1 1 13 -0.4857618405 0 29 -0.4857618405 1
gene 1 10 13 -0.2144441862 0 31 0 1
gene 1 2 13 0.5847096934 0 32 0.5847096934 1
gene 1 9 14 -0.8039189503 0 42 -0.4651446528 1
gene 1 14 13 0.8553497983 0 44 0.8553497983 1
gene 1 6 14 -0.1523061318 0 45 -0.1523061318 1
gene 1 7 13 -0.3607128637 0 46 0 1
gene 1 2 14 -1.649659178 0 50 -1.649659178 0
gene 1 14 14 0.06481334505 1 86 0.06481334505 1
gene 1 11 29 1 0 162 0 1
gene 1 29 12 0.03145238837 0 163 0 1
gene 1 10 29 -0.2101777532 0 699 0 1
genomeend 54402
/* Novelty: 10.0161562 Fitness: 165.5313721 Generation: 221 Indiv: 54652 */
/* Point: 133.9213715 106.539032 133.9213715 106.539032 */

/* Species #17 : (Size 15) (AF 0) (Age 1)  */


/* Organism #27721 Fitness: 9.521818161 Error: 0 */
genomestart 27721
trait 1 0.1410536797 0 0.4063890064 0 0 0.1905157434 0.3599728659 0 
node 1 1 1 3
node 2 1 1 1
node 3 1 1 1
node 4 1 1 1
node 5 1 1 1
node 6 1 1 1
node 7 1 1 1
node 8 1 1 1
node 9 1 1 1
node 10 1 1 1
node 11 1 1 1
node 12 1 0 0
node 13 1 0 2
node 14 1 0 2
node 21 1 0 0
gene 1 1 12 -1.924799626 0 1 -1.924799626 1
gene 1 2 12 0.01633133767 0 2 0.01633133767 1
gene 1 3 12 -0.9188529128 0 3 -0.9188529128 1
gene 1 4 12 2.185592929 0 4 2.185592929 1
gene 1 5 12 -2.501618297 0 5 -2.501618297 1
gene 1 6 12 -1.467057713 0 6 -1.467057713 1
gene 1 7 12 -1.944790178 0 7 -1.944790178 1
gene 1 8 12 0.01415127905 0 8 0.01415127905 1
gene 1 9 12 0.04996331448 0 9 0.04996331448 1
gene 1 10 12 0.4976873045 0 10 0.4976873045 1
gene 1 11 12 -0.1446977081 0 11 -0.1446977081 1
gene 1 12 13 -1.24220484 0 12 -1.24220484 1
gene 1 12 14 -1.006124734 0 13 -1.006124734 1
gene 1 4 14 -0.07850817939 0 16 -0.07850817939 0
gene 1 7 14 1.011557379 0 24 1.011557379 1
gene 1 4 13 -0.3652306266 0 25 -0.3652306266 1
gene 1 11 14 -0.6587978735 0 26 0 1
gene 1 10 13 0.2348340966 0 31 0.2348340966 1
gene 1 2 13 0.8833183676 0 32 0.8833183676 0
gene 1 3 14 0.8297101748 0 36 0.8297101748 0
gene 1 12 12 -0.2625371279 1 37 -0.2625371279 0
gene 1 3 13 -0.996050125 0 38 -0.996050125 0
gene 1 9 14 -1.141661138 0 42 -1.141661138 1
gene 1 6 14 0.1218039005 0 45 0.1218039005 1
gene 1 7 13 0.6422328441 0 46 0.6422328441 0
gene 1 9 13 1.421950225 0 49 1.421950225 0
gene 1 6 13 0.8626474602 0 53 0.8626474602 1
gene 1 13 13 0.1746413513 1 60 0.1746413513 1
gene 1 2 21 0.1969430784 0 89 0.1969430784 1
gene 1 21 12 -0.6363319832 0 90 -0.6363319832 1
gene 1 14 14 -0.2707439963 1 92 -0.2707439963 1
gene 1 21 21 -0.04256831335 1 287 -0.04256831335 1
gene 1 10 21 0.1808224474 0 327 0.1808224474 1
genomeend 27721
/* Novelty: 9.521818161 Fitness: 256.192749 Generation: 221 Indiv: 27971 */
/* Point: 47.98765564 60.37937927 47.98765564 60.37937927 */

/* Organism #47477 Fitness: 9.338189125 Error: 0 */
genomestart 47477
trait 1 0.1404856381 0 0.03956146022 0.02439731227 0 0.1149843023 0.2778572563 0 
node 1 1 1 3
node 2 1 1 1
node 3 1 1 1
node 4 1 1 1
node 5 1 1 1
node 6 1 1 1
node 7 1 1 1
node 8 1 1 1
node 9 1 1 1
node 10 1 1 1
node 11 1 1 1
node 12 1 0 0
node 13 1 0 2
node 14 1 0 2
node 22 1 0 0
gene 1 1 12 -1.928840418 0 1 -1.928840418 1
gene 1 2 12 1.840283507 0 2 1.840283507 1
gene 1 3 12 -0.8565473332 0 3 -0.8565473332 1
gene 1 4 12 2.487536618 0 4 2.487536618 1
gene 1 5 12 -1.655412096 0 5 -1.655412096 1
gene 1 6 12 -0.4875244067 0 6 -0.4875244067 1
gene 1 7 12 -1.931444742 0 7 -1.931444742 1
gene 1 8 12 -0.3573864979 0 8 -0.3573864979 1
gene 1 9 12 -0.678310754 0 9 -0.678310754 1
gene 1 10 12 0.5984961239 0 10 0.5984961239 1
gene 1 11 12 0.6302762762 0 11 0.6302762762 1
gene 1 12 13 -2.663341905 0 12 -2.663341905 1
gene 1 12 14 0.3266772648 0 13 0.3266772648 0
gene 1 4 14 0.6773582492 0 16 0.6773582492 1
gene 1 7 14 0.4198151063 0 24 0.4198151063 1
gene 1 4 13 -0.3652306266 0 25 -0.3652306266 1
gene 1 11 14 -1.142441167 0 26 -0.9777416986 1
gene 1 10 13 0.4182165723 0 31 0.4182165723 1
gene 1 2 13 0.8100248199 0 32 0.8100248199 0
gene 1 3 14 0.309820811 0 36 0.309820811 1
gene 1 12 12 0.5304845301 1 37 0.5304845301 0
gene 1 3 13 0.2641409615 0 38 0.2641409615 0
gene 1 9 14 -0.06631420003 0 42 -0.06631420003 1
gene 1 6 14 0.1859523012 0 45 0 1
gene 1 7 13 -1.036959549 0 46 -0.9918704411 1
gene 1 9 13 0.00569676664 0 49 0.00569676664 0
gene 1 6 13 0.4440800745 0 53 0 1
gene 1 13 13 0.842045573 1 60 0.842045573 1
gene 1 14 14 -0.5226284766 1 92 -0.5226284766 1
gene 1 12 22 1 0 113 0 1
gene 1 22 14 0.09800317943 0 114 0 1
genomeend 47477
/* Novelty: 9.338189125 Fitness: 118.8512421 Generation: 221 Indiv: 47727 */
/* Point: 102.5895386 186.4025574 102.5895386 186.4025574 */

/* Organism #42902 Fitness: 9.179525375 Error: 0 */
genomestart 42902
trait 1 0.1411927654 0 0.05754156634 0.007425268952 0 0.2110980521 0.3802441589 0 
node 1 1 1 3
node 2 1 1 1
node 3 1 1 1
node 4 1 1 1
node 5 1 1 1
node 6 1 1 1
node 7 1 1 1
node 8 1 1 1
node 9 1 1 1
node 10 1 1 1
node 11 1 1 1
node 12 1 0 0
node 13 1 0 2
node 14 1 0 2
node 21 1 0 0
gene 1 1 12 -2.030704561 0 1 -2.030704561 1
gene 1 2 12 1.173013383 0 2 1.173013383 1
gene 1 3 12 -0.5576871573 0 3 -0.5576871573 1
gene 1 4 12 1.648587987 0 4 1.648587987 1
gene 1 5 12 -0.1199990397 0 5 -0.1199990397 1
gene 1 6 12 -0.1421894596 0 6 -0.1421894596 1
gene 1 7 12 -1.656447795 0 7 -1.656447795 1
gene 1 8 12 -0.143908002 0 8 -0.143908002 1
gene 1 9 12 -0.4195328512 0 9 -0.4195328512 1
gene 1 10 12 0.2243048581 0 10 0.2243048581 1
gene 1 11 12 -0.7262743119 0 11 -0.7262743119 1
gene 1 12 13 -1.856109716 0 12 -1.856109716 1
gene 1 12 14 -0.1888085633 0 13 -0.1888085633 1
gene 1 4 14 0.2357206172 0 16 0.2357206172 1
gene 1 11 13 -0.3041345157 0 22 0 1
gene 1 7 14 0.9376803386 0 24 0.9376803386 1
gene 1 4 13 -0.6897838561 0 25 -0.6897838561 1
gene 1 11 14 -0.7507925515 0 26 -0.5037433489 1
gene 1 10 13 0.06728586979 0 31 0.06728586979 1
gene 1 2 13 0.8527194096 0 32 0.8527194096 0
gene 1 3 14 0.7601636602 0 36 0.7601636602 0
gene 1 12 12 0.5278941133 1 37 0.5278941133 0
gene 1 3 13 -0.5839762608 0 38 -0.5839762608 1
gene 1 8 13 -0.6587021522 0 40 0 1
gene 1 9 14 -0.4748158668 0 42 -0.4748158668 1
gene 1 6 14 0.5799254897 0 45 0.4869493391 1
gene 1 7 13 -0.4473909973 0 46 -0.3797573354 0
gene 1 9 13 0.5908637917 0 49 0.5908637917 1
gene 1 6 13 0.4419593454 0 53 0.2199193081 1
gene 1 13 13 0.4078234662 1 60 0.4078234662 1
gene 1 2 21 0.128610429 0 89 0.128610429 1
gene 1 21 12 -0.7091623897 0 90 -0.7091623897 1
gene 1 14 14 0.09138432366 1 92 0.09138432366 1
gene 1 21 21 0.1375326547 1 287 0.1375326547 1
gene 1 10 21 0.09591952921 0 327 0.08765707095 1
genomeend 42902
/* Novelty: 9.179525375 Fitness: 121.7783203 Generation: 221 Indiv: 43152 */
/* Point: 117.2216263 175.9769135 117.2216263 175.9769135 */

/* Organism #51069 Fitness: 9.160048485 Error: 0 */
genomestart 51069
trait 1 0.1405870276 0.5125987537 0.04522205759 0.9078219914 0 0 0.2928031166 0 
node 1 1 1 3
node 2 1 1 1
node 3 1 1 1
node 4 1 1 1
node 5 1 1 1
node 6 1 1 1
node 7 1 1 1
node 8 1 1 1
node 9 1 1 1
node 10 1 1 1
node 11 1 1 1
node 12 1 0 0
node 13 1 0 2
node 14 1 0 2
gene 1 1 12 -1.914532067 0 1 -1.914532067 1
gene 1 2 12 1.770243749 0 2 1.770243749 1
gene 1 3 12 -0.8565473332 0 3 -0.8565473332 1
gene 1 4 12 2.487536618 0 4 2.487536618 1
gene 1 5 12 -1.655412096 0 5 -1.655412096 1
gene 1 6 12 -0.4875244067 0 6 -0.4875244067 1
gene 1 7 12 -1.701490434 0 7 -1.701490434 1
gene 1 8 12 -0.3573864979 0 8 -0.3573864979 1
gene 1 9 12 -0.678310754 0 9 -0.678310754 1
gene 1 10 12 0.5984961239 0 10 0.5984961239 1
gene 1 11 12 0.3719516148 0 11 0.3719516148 1
gene 1 12 13 -2.545000955 0 12 -2.545000955 1
gene 1 12 14 0.2356315673 0 13 0.2356315673 1
gene 1 4 14 0.6773582492 0 16 0.6773582492 1
gene 1 7 14 0.385308879 0 24 0.385308879 1
gene 1 4 13 -0.3652306266 0 25 -0.3652306266 1
gene 1 11 14 -0.9812267358 0 26 -0.6518277991 1
gene 1 10 13 0.3570890804 0 31 0.3570890804 1
gene 1 2 13 0.8100248199 0 32 0.8100248199 0
gene 1 3 14 0.309820811 0 36 0.309820811 1
gene 1 12 12 0.6466579874 1 37 0.6466579874 0
gene 1 3 13 0.2641409615 0 38 0.2641409615 0
gene 1 9 14 -0.2466067895 0 42 -0.2466067895 1
gene 1 6 14 0.1859523012 0 45 0 1
gene 1 7 13 -0.9403528797 0 46 -0.8501746638 1
gene 1 9 13 0.00569676664 0 49 0.00569676664 0
gene 1 6 13 0.4440800745 0 53 0 1
gene 1 13 13 0.842045573 1 60 0.842045573 1
gene 1 14 14 -0.4386669832 1 92 -0.4386669832 1
genomeend 51069
/* Novelty: 9.160048485 Fitness: 119.9048157 Generation: 221 Indiv: 51319 */
/* Point: 103.807457 184.7220459 103.807457 184.7220459 */

/* Organism #51063 Fitness: 9.115627289 Error: 0 */
genomestart 51063
trait 1 0.1415957239 0 0.05853988037 0 0 0.255803262 0.4377934806 0 
node 1 1 1 3
node 2 1 1 1
node 3 1 1 1
node 4 1 1 1
node 5 1 1 1
node 6 1 1 1
node 7 1 1 1
node 8 1 1 1
node 9 1 1 1
node 10 1 1 1
node 11 1 1 1
node 12 1 0 0
node 13 1 0 2
node 14 1 0 2
node 21 1 0 0
gene 1 1 12 -1.924799626 0 1 -1.924799626 1
gene 1 2 12 0.3453932891 0 2 0.3453932891 1
gene 1 3 12 -0.5708655098 0 3 -0.5708655098 1
gene 1 4 12 0.05677648483 0 4 0.05677648483 1
gene 1 5 12 0.7352311171 0 5 0.7352311171 1
gene 1 6 12 -0.1153235823 0 6 -0.1153235823 1
gene 1 7 12 -1.524448838 0 7 -1.524448838 1
gene 1 8 12 -0.2177919941 0 8 -0.2177919941 1
gene 1 9 12 0.04996331448 0 9 0.04996331448 1
gene 1 10 12 0.08477281932 0 10 0.08477281932 1
gene 1 11 12 -1.238647462 0 11 -1.238647462 1
gene 1 12 13 -1.474810804 0 12 -1.474810804 1
gene 1 12 14 -0.3654624363 0 13 -0.3654624363 1
gene 1 4 14 -0.07850817939 0 16 -0.07850817939 0
gene 1 7 14 1.011557379 0 24 1.011557379 1
gene 1 4 13 -0.9856995803 0 25 -0.9856995803 1
gene 1 11 14 -0.8985711728 0 26 -0.8985711728 1
gene 1 10 13 0.03580691751 0 31 0.03580691751 1
gene 1 2 13 0.784767485 0 32 0.784767485 1
gene 1 3 14 0.8297101748 0 36 0.8297101748 1
gene 1 12 12 0.09760740835 1 37 0.09760740835 0
gene 1 3 13 -0.996050125 0 38 -0.996050125 1
gene 1 9 14 -0.2669382067 0 42 -0.2669382067 1
gene 1 7 13 -0.7395458458 0 46 -0.7395458458 0
gene 1 9 13 1.421950225 0 49 1.421950225 1
gene 1 13 13 0.4399655892 1 60 0.4399655892 1
gene 1 2 21 0.1969430784 0 89 0.1969430784 1
gene 1 21 12 -0.6754895649 0 90 -0.6754895649 1
gene 1 14 14 1.207554188 1 92 1.207554188 1
gene 1 21 21 -0.04256831335 1 287 -0.04256831335 1
gene 1 10 21 0.01101661101 0 327 0 1
genomeend 51063
/* Novelty: 9.115627289 Fitness: 104.3540497 Generation: 221 Indiv: 51313 */
/* Point: 125.3549347 191.3898621 125.3549347 191.3898621 */

/* Organism #51073 Fitness: 9.050092697 Error: 0 */
genomestart 51073
trait 1 0.1411232225 0 0.2319652864 0.003712634476 0 0.2008068977 0.3701085124 0 
node 1 1 1 3
node 2 1 1 1
node 3 1 1 1
node 4 1 1 1
node 5 1 1 1
node 6 1 1 1
node 7 1 1 1
node 8 1 1 1
node 9 1 1 1
node 10 1 1 1
node 11 1 1 1
node 12 1 0 0
node 13 1 0 2
node 14 1 0 2
node 21 1 0 0
gene 1 1 12 -1.407288055 0 1 -1.407288055 1
gene 1 2 12 1.159057311 0 2 1.159057311 1
gene 1 3 12 -0.5576871573 0 3 -0.5576871573 1
gene 1 4 12 0.9458194827 0 4 0.9458194827 1
gene 1 5 12 -0.5457804601 0 5 -0.5457804601 1
gene 1 6 12 -1.101578605 0 6 -1.101578605 1
gene 1 7 12 -1.828951011 0 7 -1.828951011 1
gene 1 8 12 -0.07566671806 0 8 -0.07566671806 1
gene 1 9 12 0.2047242543 0 9 0.2047242543 1
gene 1 10 12 0.6140758532 0 10 0.6140758532 1
gene 1 11 12 -0.1446977081 0 11 -0.1446977081 1
gene 1 12 13 -1.24220484 0 12 -1.24220484 1
gene 1 12 14 0.230700729 0 13 0.230700729 1
gene 1 4 14 0.3308067662 0 16 0.3308067662 0
gene 1 11 13 0.355092357 0 22 0.355092357 1
gene 1 7 14 -0.749020924 0 24 -0.749020924 1
gene 1 4 13 0.3900765154 0 25 0.3900765154 1
gene 1 11 14 -1.178288933 0 26 -1.178288933 1
gene 1 10 13 -0.1896148276 0 31 -0.1896148276 1
gene 1 2 13 1.48283578 0 32 1.48283578 0
gene 1 3 14 0.7601636602 0 36 0.7601636602 0
gene 1 12 12 -1.062101723 1 37 -1.062101723 0
gene 1 3 13 -0.996050125 0 38 -0.996050125 0
gene 1 8 13 -0.05432978498 0 40 -0.05432978498 1
gene 1 9 14 0.5031974121 0 42 0.5031974121 1
gene 1 6 14 0.66314921 0 45 0.66314921 1
gene 1 7 13 0.3659493623 0 46 0.3659493623 0
gene 1 9 13 0.9796067148 0 49 0.9796067148 0
gene 1 6 13 0.9426843143 0 53 0.9426843143 1
gene 1 13 13 0.7883185776 1 60 0.7883185776 1
gene 1 2 21 0.1174955951 0 89 0.1174955951 1
gene 1 21 12 -1.236642459 0 90 -1.236642459 1
gene 1 14 14 0.09138432366 1 92 0.09138432366 1
gene 1 21 21 -0.4170953257 1 287 -0.4170953257 1
gene 1 10 21 -0.3747170878 0 327 -0.3747170878 1
genomeend 51073
/* Novelty: 9.050092697 Fitness: 126.8186646 Generation: 221 Indiv: 51323 */
/* Point: 46.38172531 192.4968872 46.38172531 192.4968872 */

/* Organism #52156 Fitness: 8.916967392 Error: 0 */
genomestart 52156
trait 1 0.1408898965 0.2562993768 0.05138181196 0.4576236302 0 0.1055490261 0.3365236378 0 
node 1 1 1 3
node 2 1 1 1
node 3 1 1 1
node 4 1 1 1
node 5 1 1 1
node 6 1 1 1
node 7 1 1 1
node 8 1 1 1
node 9 1 1 1
node 10 1 1 1
node 11 1 1 1
node 12 1 0 0
node 13 1 0 2
node 14 1 0 2
node 21 1 0 0
gene 1 1 12 -1.623606637 0 1 -1.623606637 1
gene 1 2 12 1.972482992 0 2 1.972482992 1
gene 1 3 12 -1.457607941 0 3 -1.457607941 1
gene 1 4 12 1.38006429 0 4 1.38006429 1
gene 1 5 12 -0.4862395435 0 5 -0.4862395435 1
gene 1 6 12 -0.1422420882 0 6 -0.1422420882 1
gene 1 7 12 -1.123523213 0 7 -1.123523213 1
gene 1 8 12 -0.600566431 0 8 -0.600566431 1
gene 1 9 12 -0.8542465897 0 9 -0.8542465897 1
gene 1 10 12 1.085698767 0 10 1.085698767 1
gene 1 11 12 0.3238686751 0 11 0.3238686751 1
gene 1 12 13 -2.294085665 0 12 -2.294085665 1
gene 1 12 14 -0.09180848822 0 13 -0.09180848822 1
gene 1 4 14 -0.1857884334 0 16 -0.1857884334 1
gene 1 11 13 -0.3726785832 0 22 -0.3726785832 1
gene 1 7 14 0.1890791818 0 24 0.1890791818 1
gene 1 4 13 -0.9932431598 0 25 -0.9932431598 1
gene 1 11 14 -1.555600721 0 26 -1.555600721 1
gene 1 10 13 0.4303440513 0 31 0.4303440513 1
gene 1 2 13 0.8269977779 0 32 0.8269977779 0
gene 1 3 14 1.182716547 0 36 1.182716547 1
gene 1 12 12 0.2234794949 1 37 0.2234794949 1
gene 1 3 13 0.2738206206 0 38 0.2738206206 0
gene 1 8 13 -0.2572038629 0 40 -0.2572038629 1
gene 1 9 14 0.1824241862 0 42 0.1824241862 1
gene 1 6 14 0.8714214023 0 45 0.8714214023 1
gene 1 7 13 -1.453186391 0 46 -1.453186391 0
gene 1 9 13 1.016325898 0 49 1.016325898 0
gene 1 6 13 -0.08271091361 0 53 -0.08271091361 1
gene 1 13 13 0.535407341 1 60 0.535407341 1
gene 1 2 21 0.128610429 0 89 0.128610429 1
gene 1 21 12 0.5726716737 0 90 0.5726716737 1
gene 1 14 14 -0.1408696518 1 92 -0.1408696518 1
gene 1 21 21 0.8215378208 1 287 0.8215378208 1
gene 1 10 21 0.09591952921 0 327 0.09591952921 1
genomeend 52156
/* Novelty: 8.916967392 Fitness: 168.4889069 Generation: 221 Indiv: 52406 */
/* Point: 93.63044739 135.6399384 93.63044739 135.6399384 */

/* Organism #34355 Fitness: 8.887021065 Error: 0 */
genomestart 34355
trait 1 0.1415957239 0 0.05853988037 0 0 0.255803262 0.4377934806 0 
node 1 1 1 3
node 2 1 1 1
node 3 1 1 1
node 4 1 1 1
node 5 1 1 1
node 6 1 1 1
node 7 1 1 1
node 8 1 1 1
node 9 1 1 1
node 10 1 1 1
node 11 1 1 1
node 12 1 0 0
node 13 1 0 2
node 14 1 0 2
node 21 1 0 0
gene 1 1 12 -2.386276664 0 1 -2.386276664 1
gene 1 2 12 1.108518427 0 2 1.108518427 1
gene 1 3 12 -1.13093477 0 3 -1.13093477 1
gene 1 4 12 0.6976759179 0 4 0.6976759179 1
gene 1 5 12 1.302284574 0 5 1.302284574 1
gene 1 6 12 -0.8049581699 0 6 -0.8049581699 1
gene 1 7 12 -1.412673125 0 7 -1.412673125 1
gene 1 8 12 -0.5682134781 0 8 -0.5682134781 1
gene 1 9 12 0.6003334246 0 9 0.6003334246 1
gene 1 10 12 -0.09085999582 0 10 -0.09085999582 1
gene 1 11 12 -0.8856023295 0 11 -0.8856023295 1
gene 1 12 13 -1.628070631 0 12 -1.628070631 1
gene 1 12 14 -0.4012621352 0 13 -0.4012621352 1
gene 1 4 14 -0.3133108991 0 16 -0.3133108991 0
gene 1 7 14 1.11093606 0 24 1.11093606 1
gene 1 4 13 -0.5759011357 0 25 -0.5759011357 1
gene 1 11 14 -0.1787707933 0 26 -0.1787707933 1
gene 1 10 13 0.03580691751 0 31 0.03580691751 1
gene 1 2 13 1.498036699 0 32 1.498036699 1
gene 1 3 14 1.115257088 0 36 1.115257088 1
gene 1 12 12 0.5373663467 1 37 0.5373663467 0
gene 1 3 13 -1.40338629 0 38 -1.40338629 1
gene 1 9 14 0.3141770741 0 42 0.3141770741 1
gene 1 7 13 -0.09034154885 0 46 -0.09034154885 0
gene 1 9 13 2.13309261 0 49 2.13309261 1
gene 1 13 13 0.4399655892 1 60 0.4399655892 1
gene 1 2 21 -0.3005240906 0 89 -0.3005240906 1
gene 1 21 12 -0.7803174984 0 90 -0.7803174984 1
gene 1 14 14 1.062692221 1 92 1.062692221 1
gene 1 21 21 -0.04256831335 1 287 -0.04256831335 1
gene 1 10 21 -0.5772222682 0 327 -0.5772222682 1
genomeend 34355
/* Novelty: 8.887021065 Fitness: 152.2021942 Generation: 221 Indiv: 34605 */
/* Point: 14.62391853 166.8877716 14.62391853 166.8877716 */

/* Organism #32957 Fitness: 8.841543198 Error: 0 */
genomestart 32957
trait 1 0.1410913758 0 0.05188096898 0.01060752707 0 0.1939618721 0.3652982986 0 
node 1 1 1 3
node 2 1 1 1
node 3 1 1 1
node 4 1 1 1
node 5 1 1 1
node 6 1 1 1
node 7 1 1 1
node 8 1 1 1
node 9 1 1 1
node 10 1 1 1
node 11 1 1 1
node 12 1 0 0
node 13 1 0 2
node 14 1 0 2
node 21 1 0 0
gene 1 1 12 -1.735795599 0 1 -1.735795599 1
gene 1 2 12 2.220393223 0 2 2.220393223 1
gene 1 3 12 0.5137805312 0 3 0.5137805312 1
gene 1 4 12 2.221514466 0 4 2.221514466 1
gene 1 5 12 -1.543160367 0 5 -1.543160367 1
gene 1 6 12 0.1878722244 0 6 0.1878722244 1
gene 1 7 12 -2.242860321 0 7 -2.242860321 1
gene 1 8 12 -0.6368501403 0 8 -0.6368501403 1
gene 1 9 12 -0.2773643879 0 9 -0.2773643879 1
gene 1 10 12 -0.4728644884 0 10 -0.4728644884 1
gene 1 11 12 -1.810119769 0 11 -1.810119769 1
gene 1 12 13 -0.7599164352 0 12 -0.7599164352 1
gene 1 12 14 0.4020191942 0 13 0.4020191942 1
gene 1 4 14 -0.7731694437 0 16 -0.7731694437 0
gene 1 7 14 -0.2779287712 0 24 -0.2779287712 0
gene 1 4 13 -1.167428992 0 25 -1.167428992 1
gene 1 11 14 0.7910923284 0 26 0.7910923284 1
gene 1 10 13 0.5601326479 0 31 0.5601326479 1
gene 1 2 13 0.7215946015 0 32 0.7215946015 0
gene 1 3 14 1.590289356 0 36 1.590289356 1
gene 1 12 12 1.075702338 1 37 1.075702338 0
gene 1 3 13 -0.9614674121 0 38 -0.9614674121 0
gene 1 9 14 -0.3972595366 0 42 -0.3972595366 1
gene 1 6 14 -0.2799589887 0 45 -0.2799589887 1
gene 1 7 13 0.4005345581 0 46 0.4005345581 1
gene 1 9 13 1.205020894 0 49 1.205020894 1
gene 1 6 13 -0.02835043689 0 53 -0.02835043689 1
gene 1 13 13 0.6730667037 1 60 0.6730667037 1
gene 1 2 21 0.5866412729 0 89 0.5866412729 1
gene 1 21 12 -0.138809966 0 90 -0.138809966 1
gene 1 14 14 -0.5860188215 1 92 -0.5860188215 1
gene 1 21 21 -0.04256831335 1 287 -0.04256831335 1
gene 1 10 21 -0.3769303763 0 327 -0.3769303763 1
genomeend 32957
/* Novelty: 8.841543198 Fitness: 174.0058899 Generation: 221 Indiv: 33207 */
/* Point: 73.74555206 138.5214386 73.74555206 138.5214386 */

/* Organism #28217 Fitness: 8.661470413 Error: 0 */
genomestart 28217
trait 1 0.1411927654 0 0.05754156634 0.007425268952 0 0.2110980521 0.3802441589 0 
node 1 1 1 3
node 2 1 1 1
node 3 1 1 1
node 4 1 1 1
node 5 1 1 1
node 6 1 1 1
node 7 1 1 1
node 8 1 1 1
node 9 1 1 1
node 10 1 1 1
node 11 1 1 1
node 12 1 0 0
node 13 1 0 2
node 14 1 0 2
node 21 1 0 0
gene 1 1 12 -2.030704561 0 1 -2.030704561 1
gene 1 2 12 1.173013383 0 2 1.173013383 1
gene 1 3 12 -0.5576871573 0 3 -0.5576871573 1
gene 1 4 12 1.648587987 0 4 1.648587987 1
gene 1 5 12 -0.1199990397 0 5 -0.1199990397 1
gene 1 6 12 -0.1421894596 0 6 -0.1421894596 1
gene 1 7 12 -1.656447795 0 7 -1.656447795 1
gene 1 8 12 -0.143908002 0 8 -0.143908002 1
gene 1 9 12 -0.4195328512 0 9 -0.4195328512 1
gene 1 10 12 0.2243048581 0 10 0.2243048581 1
gene 1 11 12 -0.7262743119 0 11 -0.7262743119 1
gene 1 12 13 -1.856109716 0 12 -1.856109716 1
gene 1 12 14 -0.1888085633 0 13 -0.1888085633 1
gene 1 4 14 0.2357206172 0 16 0.2357206172 1
gene 1 11 13 -0.3041345157 0 22 0 1
gene 1 7 14 0.9376803386 0 24 0.9376803386 1
gene 1 4 13 -0.6897838561 0 25 -0.6897838561 1
gene 1 11 14 -0.7507925515 0 26 -0.5037433489 1
gene 1 10 13 0.06728586979 0 31 0.06728586979 1
gene 1 2 13 0.8527194096 0 32 0.8527194096 0
gene 1 3 14 0.7601636602 0 36 0.7601636602 0
gene 1 12 12 0.5278941133 1 37 0.5278941133 0
gene 1 3 13 -0.5839762608 0 38 -0.5839762608 1
gene 1 9 14 -0.4748158668 0 42 -0.4748158668 1
gene 1 6 14 0.5799254897 0 45 0.4869493391 1
gene 1 7 13 -0.4473909973 0 46 -0.3797573354 0
gene 1 9 13 0.5908637917 0 49 0.5908637917 1
gene 1 6 13 0.4419593454 0 53 0.2199193081 1
gene 1 13 13 0.4078234662 1 60 0.4078234662 1
gene 1 2 21 0.128610429 0 89 0.128610429 1
gene 1 21 12 -0.7091623897 0 90 -0.7091623897 1
gene 1 14 14 0.09138432366 1 92 0.09138432366 1
gene 1 21 21 0.1375326547 1 287 0.1375326547 1
gene 1 10 21 0.09591952921 0 327 0.08765707095 1
genomeend 28217
/* Novelty: 8.661470413 Fitness: 87.79594421 Generation: 221 Indiv: 28467 */
/* Point: 157.063858 190.6999207 157.063858 190.6999207 */

/* Organism #28829 Fitness: 8.661470413 Error: 0 */
genomestart 28829
trait 1 0.1411927654 0 0.05754156634 0.007425268952 0 0.2110980521 0.3802441589 0 
node 1 1 1 3
node 2 1 1 1
node 3 1 1 1
node 4 1 1 1
node 5 1 1 1
node 6 1 1 1
node 7 1 1 1
node 8 1 1 1
node 9 1 1 1
node 10 1 1 1
node 11 1 1 1
node 12 1 0 0
node 13 1 0 2
node 14 1 0 2
node 21 1 0 0
gene 1 1 12 -2.030704561 0 1 -2.030704561 1
gene 1 2 12 1.173013383 0 2 1.173013383 1
gene 1 3 12 -0.5576871573 0 3 -0.5576871573 1
gene 1 4 12 1.648587987 0 4 1.648587987 1
gene 1 5 12 -0.1199990397 0 5 -0.1199990397 1
gene 1 6 12 -0.1421894596 0 6 -0.1421894596 1
gene 1 7 12 -1.656447795 0 7 -1.656447795 1
gene 1 8 12 -0.143908002 0 8 -0.143908002 1
gene 1 9 12 -0.4195328512 0 9 -0.4195328512 1
gene 1 10 12 0.2243048581 0 10 0.2243048581 1
gene 1 11 12 -0.7262743119 0 11 -0.7262743119 1
gene 1 12 13 -1.856109716 0 12 -1.856109716 1
gene 1 12 14 -0.1888085633 0 13 -0.1888085633 1
gene 1 4 14 0.2357206172 0 16 0.2357206172 1
gene 1 11 13 -0.3041345157 0 22 0 1
gene 1 7 14 0.9376803386 0 24 0.9376803386 1
gene 1 4 13 -0.6897838561 0 25 -0.6897838561 1
gene 1 11 14 -0.7507925515 0 26 -0.5037433489 1
gene 1 10 13 0.06728586979 0 31 0.06728586979 1
gene 1 2 13 0.8527194096 0 32 0.8527194096 0
gene 1 3 14 0.7601636602 0 36 0.7601636602 0
gene 1 12 12 0.5278941133 1 37 0.5278941133 0
gene 1 3 13 -0.5839762608 0 38 -0.5839762608 1
gene 1 9 14 -0.4748158668 0 42 -0.4748158668 1
gene 1 6 14 0.5799254897 0 45 0.4869493391 1
gene 1 7 13 -0.4473909973 0 46 -0.3797573354 0
gene 1 9 13 0.5908637917 0 49 0.5908637917 1
gene 1 6 13 0.4419593454 0 53 0.2199193081 1
gene 1 13 13 0.4078234662 1 60 0.4078234662 1
gene 1 2 21 0.128610429 0 89 0.128610429 1
gene 1 21 12 -0.7091623897 0 90 -0.7091623897 1
gene 1 14 14 0.09138432366 1 92 0.09138432366 1
gene 1 21 21 0.1375326547 1 287 0.1375326547 1
gene 1 10 21 0.09591952921 0 327 0.08765707095 1
genomeend 28829
/* Novelty: 8.661470413 Fitness: 87.79594421 Generation: 221 Indiv: 29079 */
/* Point: 157.063858 190.6999207 157.063858 190.6999207 */

/* Organism #29077 Fitness: 8.661470413 Error: 0 */
genomestart 29077
trait 1 0.1411927654 0 0.05754156634 0.007425268952 0 0.2110980521 0.3802441589 0 
node 1 1 1 3
node 2 1 1 1
node 3 1 1 1
node 4 1 1 1
node 5 1 1 1
node 6 1 1 1
node 7 1 1 1
node 8 1 1 1
node 9 1 1 1
node 10 1 1 1
node 11 1 1 1
node 12 1 0 0
node 13 1 0 2
node 14 1 0 2
node 21 1 0 0
gene 1 1 12 -2.030704561 0 1 -2.030704561 1
gene 1 2 12 1.173013383 0 2 1.173013383 1
gene 1 3 12 -0.5576871573 0 3 -0.5576871573 1
gene 1 4 12 1.648587987 0 4 1.648587987 1
gene 1 5 12 -0.1199990397 0 5 -0.1199990397 1
gene 1 6 12 -0.1421894596 0 6 -0.1421894596 1
gene 1 7 12 -1.656447795 0 7 -1.656447795 1
gene 1 8 12 -0.143908002 0 8 -0.143908002 1
gene 1 9 12 -0.4195328512 0 9 -0.4195328512 1
gene 1 10 12 0.2243048581 0 10 0.2243048581 1
gene 1 11 12 -0.7262743119 0 11 -0.7262743119 1
gene 1 12 13 -1.856109716 0 12 -1.856109716 1
gene 1 12 14 -0.1888085633 0 13 -0.1888085633 1
gene 1 4 14 0.2357206172 0 16 0.2357206172 1
gene 1 11 13 -0.3041345157 0 22 0 1
gene 1 7 14 0.9376803386 0 24 0.9376803386 1
gene 1 4 13 -0.6897838561 0 25 -0.6897838561 1
gene 1 11 14 -0.7507925515 0 26 -0.5037433489 1
gene 1 10 13 0.06728586979 0 31 0.06728586979 1
gene 1 2 13 0.8527194096 0 32 0.8527194096 0
gene 1 3 14 0.7601636602 0 36 0.7601636602 0
gene 1 12 12 0.5278941133 1 37 0.5278941133 0
gene 1 3 13 -0.5839762608 0 38 -0.5839762608 1
gene 1 9 14 -0.4748158668 0 42 -0.4748158668 1
gene 1 6 14 0.5799254897 0 45 0.4869493391 1
gene 1 7 13 -0.4473909973 0 46 -0.3797573354 0
gene 1 9 13 0.5908637917 0 49 0.5908637917 1
gene 1 6 13 0.4419593454 0 53 0.2199193081 1
gene 1 13 13 0.4078234662 1 60 0.4078234662 1
gene 1 2 21 0.128610429 0 89 0.128610429 1
gene 1 21 12 -0.7091623897 0 90 -0.7091623897 1
gene 1 14 14 0.09138432366 1 92 0.09138432366 1
gene 1 21 21 0.1375326547 1 287 0.1375326547 1
gene 1 10 21 0.09591952921 0 327 0.08765707095 1
genomeend 29077
/* Novelty: 8.661470413 Fitness: 87.79594421 Generation: 221 Indiv: 29327 */
/* Point: 157.063858 190.6999207 157.063858 190.6999207 */

/* Organism #42291 Fitness: 8.661470413 Error: 0 */
genomestart 42291
trait 1 0.1411927654 0 0.05754156634 0.007425268952 0 0.2110980521 0.3802441589 0 
node 1 1 1 3
node 2 1 1 1
node 3 1 1 1
node 4 1 1 1
node 5 1 1 1
node 6 1 1 1
node 7 1 1 1
node 8 1 1 1
node 9 1 1 1
node 10 1 1 1
node 11 1 1 1
node 12 1 0 0
node 13 1 0 2
node 14 1 0 2
node 21 1 0 0
gene 1 1 12 -2.030704561 0 1 -2.030704561 1
gene 1 2 12 1.173013383 0 2 1.173013383 1
gene 1 3 12 -0.5576871573 0 3 -0.5576871573 1
gene 1 4 12 1.648587987 0 4 1.648587987 1
gene 1 5 12 -0.1199990397 0 5 -0.1199990397 1
gene 1 6 12 -0.1421894596 0 6 -0.1421894596 1
gene 1 7 12 -1.656447795 0 7 -1.656447795 1
gene 1 8 12 -0.143908002 0 8 -0.143908002 1
gene 1 9 12 -0.4195328512 0 9 -0.4195328512 1
gene 1 10 12 0.2243048581 0 10 0.2243048581 1
gene 1 11 12 -0.7262743119 0 11 -0.7262743119 1
gene 1 12 13 -1.856109716 0 12 -1.856109716 1
gene 1 12 14 -0.1888085633 0 13 -0.1888085633 1
gene 1 4 14 0.2357206172 0 16 0.2357206172 1
gene 1 11 13 -0.3041345157 0 22 0 1
gene 1 7 14 0.9376803386 0 24 0.9376803386 1
gene 1 4 13 -0.6897838561 0 25 -0.6897838561 1
gene 1 11 14 -0.7507925515 0 26 -0.5037433489 1
gene 1 10 13 0.06728586979 0 31 0.06728586979 1
gene 1 2 13 0.8527194096 0 32 0.8527194096 0
gene 1 3 14 0.7601636602 0 36 0.7601636602 0
gene 1 12 12 0.5278941133 1 37 0.5278941133 0
gene 1 3 13 -0.5839762608 0 38 -0.5839762608 1
gene 1 9 14 -0.4748158668 0 42 -0.4748158668 1
gene 1 6 14 0.5799254897 0 45 0.4869493391 1
gene 1 7 13 -0.4473909973 0 46 -0.3797573354 0
gene 1 9 13 0.5908637917 0 49 0.5908637917 1
gene 1 6 13 0.4419593454 0 53 0.2199193081 1
gene 1 13 13 0.4078234662 1 60 0.4078234662 1
gene 1 2 21 0.128610429 0 89 0.128610429 1
gene 1 21 12 -0.7091623897 0 90 -0.7091623897 1
gene 1 14 14 0.09138432366 1 92 0.09138432366 1
gene 1 21 21 0.1375326547 1 287 0.1375326547 1
gene 1 10 21 0.09591952921 0 327 0.08765707095 1
genomeend 42291
/* Novelty: 8.661470413 Fitness: 87.79594421 Generation: 221 Indiv: 42541 */
/* Point: 157.063858 190.6999207 157.063858 190.6999207 */

/* Organism #43057 Fitness: 8.661470413 Error: 0 */
genomestart 43057
trait 1 0.1411927654 0 0.05754156634 0.007425268952 0 0.2110980521 0.3802441589 0 
node 1 1 1 3
node 2 1 1 1
node 3 1 1 1
node 4 1 1 1
node 5 1 1 1
node 6 1 1 1
node 7 1 1 1
node 8 1 1 1
node 9 1 1 1
node 10 1 1 1
node 11 1 1 1
node 12 1 0 0
node 13 1 0 2
node 14 1 0 2
node 21 1 0 0
gene 1 1 12 -2.030704561 0 1 -2.030704561 1
gene 1 2 12 1.173013383 0 2 1.173013383 1
gene 1 3 12 -0.5576871573 0 3 -0.5576871573 1
gene 1 4 12 1.648587987 0 4 1.648587987 1
gene 1 5 12 -0.1199990397 0 5 -0.1199990397 1
gene 1 6 12 -0.1421894596 0 6 -0.1421894596 1
gene 1 7 12 -1.656447795 0 7 -1.656447795 1
gene 1 8 12 -0.143908002 0 8 -0.143908002 1
gene 1 9 12 -0.4195328512 0 9 -0.4195328512 1
gene 1 10 12 0.2243048581 0 10 0.2243048581 1
gene 1 11 12 -0.7262743119 0 11 -0.7262743119 1
gene 1 12 13 -1.856109716 0 12 -1.856109716 1
gene 1 12 14 -0.1888085633 0 13 -0.1888085633 1
gene 1 4 14 0.2357206172 0 16 0.2357206172 1
gene 1 11 13 -0.3041345157 0 22 0 1
gene 1 7 14 0.9376803386 0 24 0.9376803386 1
gene 1 4 13 -0.6897838561 0 25 -0.6897838561 1
gene 1 11 14 -0.7507925515 0 26 -0.5037433489 1
gene 1 10 13 0.06728586979 0 31 0.06728586979 1
gene 1 2 13 0.8527194096 0 32 0.8527194096 0
gene 1 3 14 0.7601636602 0 36 0.7601636602 0
gene 1 12 12 0.5278941133 1 37 0.5278941133 0
gene 1 3 13 -0.5839762608 0 38 -0.5839762608 1
gene 1 9 14 -0.4748158668 0 42 -0.4748158668 1
gene 1 6 14 0.5799254897 0 45 0.4869493391 1
gene 1 7 13 -0.4473909973 0 46 -0.3797573354 0
gene 1 9 13 0.5908637917 0 49 0.5908637917 1
gene 1 6 13 0.4419593454 0 53 0.2199193081 1
gene 1 13 13 0.4078234662 1 60 0.4078234662 1
gene 1 2 21 0.128610429 0 89 0.128610429 1
gene 1 21 12 -0.7091623897 0 90 -0.7091623897 1
gene 1 14 14 0.09138432366 1 92 0.09138432366 1
gene 1 21 21 0.1375326547 1 287 0.1375326547 1
gene 1 10 21 0.09591952921 0 327 0.08765707095 1
genomeend 43057
/* Novelty: 8.661470413 Fitness: 87.79594421 Generation: 221 Indiv: 43307 */
/* Point: 157.063858 190.6999207 157.063858 190.6999207 */

/* Organism #51666 Fitness: 8.652984619 Error: 0 */
genomestart 51666
trait 1 0.1415957239 0 0.05853988037 0 0 0.255803262 0.4377934806 0 
node 1 1 1 3
node 2 1 1 1
node 3 1 1 1
node 4 1 1 1
node 5 1 1 1
node 6 1 1 1
node 7 1 1 1
node 8 1 1 1
node 9 1 1 1
node 10 1 1 1
node 11 1 1 1
node 12 1 0 0
node 13 1 0 2
node 14 1 0 2
node 21 1 0 0
gene 1 1 12 -1.263210995 0 1 -1.263210995 1
gene 1 2 12 0.2144848039 0 2 0.2144848039 1
gene 1 3 12 -0.9408669363 0 3 -0.9408669363 1
gene 1 4 12 -0.2573140802 0 4 -0.2573140802 1
gene 1 5 12 1.334803071 0 5 1.334803071 1
gene 1 6 12 0.3761916073 0 6 0.3761916073 1
gene 1 7 12 -1.807662606 0 7 -1.807662606 1
gene 1 8 12 -0.9498826822 0 8 -0.9498826822 1
gene 1 9 12 0.1594367617 0 9 0.1594367617 1
gene 1 10 12 0.3915939132 0 10 0.3915939132 1
gene 1 11 12 -1.594711374 0 11 -1.594711374 1
gene 1 12 13 -1.502883994 0 12 -1.502883994 1
gene 1 12 14 -0.4826415772 0 13 -0.4826415772 1
gene 1 4 14 0.5624474829 0 16 0.5624474829 0
gene 1 7 14 1.457272308 0 24 1.457272308 0
gene 1 4 13 -0.8547672414 0 25 -0.8547672414 1
gene 1 11 14 -0.2691759912 0 26 -0.2691759912 1
gene 1 10 13 -0.01894805982 0 31 -0.01894805982 1
gene 1 2 13 1.018150765 0 32 1.018150765 1
gene 1 3 14 0.8103067786 0 36 0.8103067786 1
gene 1 12 12 -0.6107547664 1 37 -0.6107547664 0
gene 1 3 13 -0.6081714807 0 38 -0.6081714807 1
gene 1 9 14 -0.8677361843 0 42 -0.8677361843 1
gene 1 7 13 -0.2671845953 0 46 -0.2671845953 0
gene 1 9 13 0.6758306684 0 49 0.6758306684 1
gene 1 13 13 0.4399655892 1 60 0.4399655892 1
gene 1 2 21 -0.4116934231 0 89 -0.4116934231 1
gene 1 21 12 0.01717722454 0 90 0.01717722454 1
gene 1 14 14 1.531659882 1 92 1.531659882 1
gene 1 21 21 -0.04256831335 1 287 -0.04256831335 1
gene 1 10 21 0.7928023163 0 327 0.7928023163 1
genomeend 51666
/* Novelty: 8.652984619 Fitness: 182.4682617 Generation: 221 Indiv: 51916 */
/* Point: 13.71371078 136.2535858 13.71371078 136.2535858 */

/* Species #125 : (Size 15) (AF 0) (Age 1)  */


/* Organism #52384 Fitness: 9.447085381 Error: 0 */
genomestart 52384
trait 1 0.5210253884 0.8697634615 0.9931300134 0.9039963615 0.2708240705 0.1274039713 0.615283259 0.1946629268 
node 1 1 1 3
node 2 1 1 1
node 3 1 1 1
node 4 1 1 1
node 5 1 1 1
node 6 1 1 1
node 7 1 1 1
node 8 1 1 1
node 9 1 1 1
node 10 1 1 1
node 11 1 1 1
node 12 1 0 0
node 13 1 0 2
node 14 1 0 2
node 18 1 0 0
gene 1 1 12 0.4291548306 0 1 0.4291548306 1
gene 1 2 12 0.09998685663 0 2 0.09998685663 1
gene 1 3 12 0.286078556 0 3 0.286078556 1
gene 1 4 12 0.850915397 0 4 0.850915397 1
gene 1 5 12 -0.9100051397 0 5 -0.9100051397 1
gene 1 6 12 -0.4917334781 0 6 -0.4917334781 1
gene 1 7 12 1.782495238 0 7 1.782495238 1
gene 1 8 12 -0.2289553719 0 8 -0.2289553719 1
gene 1 9 12 -2.571393916 0 9 -2.571393916 1
gene 1 10 12 -0.1266021157 0 10 -0.1266021157 1
gene 1 11 12 0.6836599945 0 11 0.6836599945 1
gene 1 12 13 -2.226397089 0 12 -2.226397089 1
gene 1 12 14 -1.206788335 0 13 -1.206788335 1
gene 1 13 13 -0.08723527421 1 14 -0.08723527421 1
gene 1 4 14 0.9677396857 0 16 0.9677396857 1
gene 1 11 13 -0.7214112119 0 22 -0.7214112119 1
gene 1 11 14 -1.194190849 0 26 -1.194190849 1
gene 1 12 12 1.025269127 1 28 1.025269127 1
gene 1 1 13 0.3083924407 0 29 0.3083924407 1
gene 1 10 13 -0.7696027769 0 31 -0.7696027769 1
gene 1 2 13 0.6514659248 0 32 0.6514659248 1
gene 1 5 13 0.6737895515 0 34 0.6737895515 1
gene 1 3 14 1.694456349 0 36 1.694456349 1
gene 1 6 14 -0.7627124306 0 45 -0.7627124306 1
gene 1 6 13 1.591483786 0 53 1.591483786 1
gene 1 7 18 -0.1363167786 0 58 -0.1363167786 1
gene 1 18 12 0.6038765947 0 59 0.6038765947 1
gene 1 3 18 -0.5640139749 0 73 -0.5640139749 1
gene 1 11 18 -0.4787944181 0 159 -0.4787944181 1
gene 1 1 18 -0.2290861671 0 167 -0.2290861671 1
gene 1 10 18 0.7251573018 0 240 0.7251573018 1
gene 1 4 18 -0.01731025913 0 305 -0.01731025913 1
gene 1 18 18 0.490257092 1 476 0.490257092 1
genomeend 52384
/* Novelty: 9.447085381 Fitness: 150.1661072 Generation: 221 Indiv: 52634 */
/* Point: 112.2482224 145.8925018 112.2482224 145.8925018 */

/* Organism #54009 Fitness: 9.334240913 Error: 0 */
genomestart 54009
trait 1 0.5261513594 0.8763218974 0.8283648477 0.8934590286 0 0.1719853574 0.6613888016 0 
node 1 1 1 3
node 2 1 1 1
node 3 1 1 1
node 4 1 1 1
node 5 1 1 1
node 6 1 1 1
node 7 1 1 1
node 8 1 1 1
node 9 1 1 1
node 10 1 1 1
node 11 1 1 1
node 12 1 0 0
node 13 1 0 2
node 14 1 0 2
node 18 1 0 0
gene 1 1 12 0.2999196062 0 1 0.2999196062 1
gene 1 2 12 0.1261300245 0 2 0.1261300245 1
gene 1 3 12 1.808638612 0 3 1.808638612 1
gene 1 4 12 0.3595785201 0 4 0.3595785201 1
gene 1 5 12 0.3339812477 0 5 0.3339812477 1
gene 1 6 12 0.6321150435 0 6 0.6321150435 1
gene 1 7 12 0.7851156473 0 7 0.7851156473 1
gene 1 8 12 -0.2327438527 0 8 -0.2327438527 1
gene 1 9 12 -1.812629446 0 9 -1.812629446 1
gene 1 10 12 0.2798289041 0 10 0.2798289041 1
gene 1 11 12 -0.1789930933 0 11 -0.1789930933 1
gene 1 12 13 -0.5014423541 0 12 -0.5014423541 1
gene 1 12 14 0.1468490256 0 13 0.1468490256 1
gene 1 13 13 -2.437129438 1 14 -2.437129438 1
gene 1 4 14 1.155736819 0 16 1.155736819 1
gene 1 11 13 -0.1708259364 0 22 -0.1708259364 1
gene 1 12 12 -0.523364191 1 28 -0.523364191 1
gene 1 1 13 1.33145606 0 29 1.33145606 1
gene 1 10 13 0.3051620343 0 31 0.3051620343 1
gene 1 2 13 0.6511076522 0 32 0.6511076522 1
gene 1 5 13 -0.5590272273 0 34 -0.5590272273 1
gene 1 3 14 2.057378715 0 36 2.057378715 1
gene 1 6 14 -0.419591043 0 45 -0.419591043 1
gene 1 6 13 1.789104576 0 53 1.789104576 1
gene 1 7 18 0.126017224 0 58 0.126017224 1
gene 1 18 12 0.5625905909 0 59 0.5625905909 1
gene 1 3 18 0.6094380682 0 73 0.6094380682 1
gene 1 1 18 -0.1969890466 0 167 -0.1969890466 1
gene 1 10 18 0.01936890225 0 240 0.01936890225 1
gene 1 4 18 -0.2168667358 0 305 -0.2168667358 1
gene 1 18 18 -0.3966276026 1 476 -0.3966276026 1
genomeend 54009
/* Novelty: 9.334240913 Fitness: 169.004425 Generation: 221 Indiv: 54259 */
/* Point: 26.95962143 150.9332581 26.95962143 150.9332581 */

/* Organism #40134 Fitness: 9.32228756 Error: 0 */
genomestart 40134
trait 1 0.5211094207 0.8734667496 0.9936584739 0.8835385397 0.2905855303 0.1281348137 0.6160390875 0.1914717313 
node 1 1 1 3
node 2 1 1 1
node 3 1 1 1
node 4 1 1 1
node 5 1 1 1
node 6 1 1 1
node 7 1 1 1
node 8 1 1 1
node 9 1 1 1
node 10 1 1 1
node 11 1 1 1
node 12 1 0 0
node 13 1 0 2
node 14 1 0 2
node 18 1 0 0
gene 1 1 12 0.05114303525 0 1 0.05114303525 1
gene 1 2 12 0.7424894514 0 2 0.7424894514 1
gene 1 3 12 -0.03390937114 0 3 -0.03390937114 1
gene 1 4 12 0.1537724179 0 4 0.1537724179 1
gene 1 5 12 -0.9100051397 0 5 -0.9100051397 1
gene 1 6 12 0.03747971485 0 6 0.03747971485 1
gene 1 7 12 0.5895674624 0 7 0.5895674624 1
gene 1 8 12 -0.5835997856 0 8 -0.5835997856 1
gene 1 9 12 -2.484535688 0 9 -2.484535688 1
gene 1 10 12 -0.2450281365 0 10 -0.2450281365 1
gene 1 11 12 0.6836599945 0 11 0.6836599945 1
gene 1 12 13 -1.867257294 0 12 -1.867257294 1
gene 1 12 14 -1.206788335 0 13 -1.206788335 1
gene 1 13 13 -0.08723527421 1 14 -0.08723527421 1
gene 1 4 14 0.9677396857 0 16 0.9677396857 1
gene 1 11 13 -0.7214112119 0 22 -0.7214112119 1
gene 1 11 14 -1.881106764 0 26 -1.881106764 1
gene 1 12 12 0.3166448165 1 28 0.3166448165 1
gene 1 1 13 0.3083924407 0 29 0.3083924407 1
gene 1 10 13 0.4095698101 0 31 0.4095698101 1
gene 1 2 13 0.1559258428 0 32 0.1559258428 1
gene 1 5 13 1.060601803 0 34 1.060601803 1
gene 1 3 14 1.694456349 0 36 1.694456349 1
gene 1 6 14 -0.7627124306 0 45 -0.7627124306 0
gene 1 6 13 1.648322872 0 53 1.648322872 1
gene 1 7 18 -0.291941774 0 58 -0.291941774 1
gene 1 18 12 -0.146918751 0 59 -0.146918751 1
gene 1 3 18 -0.2510963354 0 73 -0.2510963354 1
gene 1 11 18 -0.4787944181 0 159 -0.4787944181 1
gene 1 1 18 -1.098537996 0 167 -1.098537996 1
gene 1 10 18 0.1418625162 0 240 0.1418625162 1
gene 1 4 18 -0.01731025913 0 305 -0.01731025913 1
gene 1 18 18 0.490257092 1 476 0.490257092 1
genomeend 40134
/* Novelty: 9.32228756 Fitness: 115.5862885 Generation: 221 Indiv: 40384 */
/* Point: 98.27893066 191.703125 98.27893066 191.703125 */

/* Organism #51032 Fitness: 9.260914803 Error: 0 */
genomestart 51032
trait 1 0.5209413561 0.8660601734 0.9926015529 0.9244541832 0.2510626108 0.1266731289 0.6145274304 0.1978541223 
node 1 1 1 3
node 2 1 1 1
node 3 1 1 1
node 4 1 1 1
node 5 1 1 1
node 6 1 1 1
node 7 1 1 1
node 8 1 1 1
node 9 1 1 1
node 10 1 1 1
node 11 1 1 1
node 12 1 0 0
node 13 1 0 2
node 14 1 0 2
node 18 1 0 0
gene 1 1 12 0.4291548306 0 1 0.4291548306 1
gene 1 2 12 0.09998685663 0 2 0.09998685663 1
gene 1 3 12 0.286078556 0 3 0.286078556 1
gene 1 4 12 0.850915397 0 4 0.850915397 1
gene 1 5 12 -0.3508196814 0 5 -0.3508196814 1
gene 1 6 12 -0.4917334781 0 6 -0.4917334781 1
gene 1 7 12 1.782495238 0 7 1.782495238 1
gene 1 8 12 -0.2289553719 0 8 -0.2289553719 1
gene 1 9 12 -2.571393916 0 9 -2.571393916 1
gene 1 10 12 -0.1266021157 0 10 -0.1266021157 1
gene 1 11 12 -0.03773394788 0 11 -0.03773394788 1
gene 1 12 13 -2.226397089 0 12 -2.226397089 1
gene 1 12 14 -0.8525514192 0 13 -0.8525514192 1
gene 1 13 13 0.3904266154 1 14 0.3904266154 1
gene 1 4 14 1.519459625 0 16 1.519459625 1
gene 1 11 13 -1.094567458 0 22 -1.094567458 1
gene 1 11 14 -1.194190849 0 26 -1.194190849 1
gene 1 12 12 1.025269127 1 28 1.025269127 1
gene 1 1 13 1.325158541 0 29 1.325158541 1
gene 1 10 13 -0.7696027769 0 31 -0.7696027769 1
gene 1 2 13 0.6514659248 0 32 0.6514659248 1
gene 1 5 13 0.6737895515 0 34 0.6737895515 1
gene 1 3 14 1.5593612 0 36 1.5593612 1
gene 1 6 14 -0.9230212052 0 45 -0.9230212052 0
gene 1 6 13 1.591483786 0 53 1.591483786 1
gene 1 7 18 -0.1363167786 0 58 -0.1363167786 1
gene 1 18 12 0.6038765947 0 59 0.6038765947 1
gene 1 3 18 -0.5640139749 0 73 -0.5640139749 1
gene 1 11 18 0.8897258681 0 159 0.8897258681 0
gene 1 1 18 -0.2290861671 0 167 -0.2290861671 1
gene 1 10 18 0.7251573018 0 240 0.7251573018 1
gene 1 4 18 -0.2891201252 0 305 -0.2891201252 1
gene 1 18 18 -0.2010255498 1 476 -0.2010255498 1
genomeend 51032
/* Novelty: 9.260914803 Fitness: 158.5438843 Generation: 221 Indiv: 51282 */
/* Point: 84.54724884 150.9294586 84.54724884 150.9294586 */

/* Organism #51689 Fitness: 9.260914803 Error: 0 */
genomestart 51689
trait 1 0.5209413561 0.8660601734 0.9926015529 0.9244541832 0.2510626108 0.1266731289 0.6145274304 0.1978541223 
node 1 1 1 3
node 2 1 1 1
node 3 1 1 1
node 4 1 1 1
node 5 1 1 1
node 6 1 1 1
node 7 1 1 1
node 8 1 1 1
node 9 1 1 1
node 10 1 1 1
node 11 1 1 1
node 12 1 0 0
node 13 1 0 2
node 14 1 0 2
node 18 1 0 0
gene 1 1 12 0.4291548306 0 1 0.4291548306 1
gene 1 2 12 0.09998685663 0 2 0.09998685663 1
gene 1 3 12 0.286078556 0 3 0.286078556 1
gene 1 4 12 0.850915397 0 4 0.850915397 1
gene 1 5 12 -0.3508196814 0 5 -0.3508196814 1
gene 1 6 12 -0.4917334781 0 6 -0.4917334781 1
gene 1 7 12 1.782495238 0 7 1.782495238 1
gene 1 8 12 -0.2289553719 0 8 -0.2289553719 1
gene 1 9 12 -2.571393916 0 9 -2.571393916 1
gene 1 10 12 -0.1266021157 0 10 -0.1266021157 1
gene 1 11 12 -0.03773394788 0 11 -0.03773394788 1
gene 1 12 13 -2.226397089 0 12 -2.226397089 1
gene 1 12 14 -0.8525514192 0 13 -0.8525514192 1
gene 1 13 13 0.3904266154 1 14 0.3904266154 1
gene 1 4 14 1.519459625 0 16 1.519459625 1
gene 1 11 13 -1.094567458 0 22 -1.094567458 1
gene 1 11 14 -1.194190849 0 26 -1.194190849 1
gene 1 12 12 1.025269127 1 28 1.025269127 1
gene 1 1 13 1.325158541 0 29 1.325158541 1
gene 1 10 13 -0.7696027769 0 31 -0.7696027769 1
gene 1 2 13 0.6514659248 0 32 0.6514659248 1
gene 1 5 13 0.6737895515 0 34 0.6737895515 1
gene 1 3 14 1.5593612 0 36 1.5593612 1
gene 1 6 14 -0.9230212052 0 45 -0.9230212052 0
gene 1 6 13 1.591483786 0 53 1.591483786 1
gene 1 7 18 -0.1363167786 0 58 -0.1363167786 1
gene 1 18 12 0.6038765947 0 59 0.6038765947 1
gene 1 3 18 -0.5640139749 0 73 -0.5640139749 1
gene 1 11 18 0.8897258681 0 159 0.8897258681 0
gene 1 1 18 -0.2290861671 0 167 -0.2290861671 1
gene 1 10 18 0.7251573018 0 240 0.7251573018 1
gene 1 4 18 -0.2891201252 0 305 -0.2891201252 1
gene 1 18 18 -0.2010255498 1 476 -0.2010255498 1
genomeend 51689
/* Novelty: 9.260914803 Fitness: 158.5438843 Generation: 221 Indiv: 51939 */
/* Point: 84.54724884 150.9294586 84.54724884 150.9294586 */

/* Organism #49041 Fitness: 9.125766754 Error: 0 */
genomestart 49041
trait 1 0 0.8388952872 0.9941869344 0.863080718 1 0 0.6167949161 0.1882805357 
node 1 1 1 3
node 2 1 1 1
node 3 1 1 1
node 4 1 1 1
node 5 1 1 1
node 6 1 1 1
node 7 1 1 1
node 8 1 1 1
node 9 1 1 1
node 10 1 1 1
node 11 1 1 1
node 12 1 0 0
node 13 1 0 2
node 14 1 0 2
node 18 1 0 0
gene 1 1 12 -0.0711207863 0 1 -0.0711207863 1
gene 1 2 12 0.8842014265 0 2 0.8842014265 1
gene 1 3 12 -0.2131391893 0 3 -0.2131391893 1
gene 1 4 12 0.5273031543 0 4 0.5273031543 1
gene 1 5 12 -0.9866489328 0 5 -0.9866489328 1
gene 1 6 12 -0.1308185005 0 6 -0.1308185005 1
gene 1 7 12 0.8954486353 0 7 0.8954486353 1
gene 1 8 12 -0.3271893493 0 8 -0.3271893493 1
gene 1 9 12 -2.239972235 0 9 -2.239972235 1
gene 1 10 12 -0.2446877729 0 10 -0.2446877729 1
gene 1 11 12 -0.2067786885 0 11 -0.2067786885 1
