
/* Species #1 : (Size 16) (AF 0) (Age 1)  */


/* Organism #21191 Fitness: 10.7072 Error: 0 */
genomestart 21191
trait 1 0.3065515247 0.1527777536 0.07024619399 0.05403498749 0.3073472871 0.06934276687 0.1441159341 0.1024677377 
node 1 1 1 3
node 2 1 1 1
node 3 1 1 1
node 4 1 1 1
node 5 1 1 1
node 6 1 1 1
node 7 1 1 1
node 8 1 1 1
node 9 1 1 1
node 10 1 1 1
node 11 1 1 1
node 12 1 0 0
node 13 1 0 2
node 14 1 0 2
node 23 1 0 0
gene 1 1 12 -0.2567592034 0 1 -0.2567592034 1
gene 1 2 12 -0.3820250979 0 2 -0.3820250979 1
gene 1 3 12 -0.2086612874 0 3 -0.2086612874 1
gene 1 4 12 -1.0456998 0 4 -1.0456998 1
gene 1 5 12 1.483136057 0 5 1.483136057 1
gene 1 6 12 0.4155060174 0 6 0.4155060174 1
gene 1 7 12 -0.1372619776 0 7 -0.1372619776 1
gene 1 8 12 -0.1798096323 0 8 -0.1798096323 1
gene 1 9 12 -1.027012181 0 9 -1.027012181 1
gene 1 10 12 0.2486385356 0 10 0.2486385356 1
gene 1 11 12 0.2697180312 0 11 0.2697180312 1
gene 1 12 13 1.187968565 0 12 1.187968565 1
gene 1 12 14 -0.1124442409 0 13 -0.1124442409 1
gene 1 3 13 -1.571082114 0 14 -1.571082114 1
gene 1 10 13 0.00930267943 0 15 0.00930267943 1
gene 1 8 14 -0.573525415 0 17 -0.573525415 1
gene 1 9 14 0.4252905172 0 19 0.4237351925 1
gene 1 11 13 0.2669198779 0 24 0.423269631 1
gene 1 6 14 1.067290271 0 25 1.067290271 1
gene 1 7 14 0.190653224 0 30 0.190653224 1
gene 1 4 14 0.5052167886 0 32 0.5052167886 1
gene 1 13 14 -0.891304175 0 33 -0.891304175 1
gene 1 5 13 0.7832938483 0 41 0 1
gene 1 10 14 0.02927618959 0 46 0.02927618959 1
gene 1 12 23 1 0 119 0 1
gene 1 23 14 0.6792466545 0 120 0.6792466545 1
gene 1 14 14 0.9196735601 1 160 0.9196735601 1
gene 1 7 23 -0.8466040082 0 163 -0.8466040082 1
gene 1 5 23 -1.682751667 0 182 -1.682751667 1
gene 1 12 12 -0.3626284691 1 253 -0.3626284691 1
gene 1 11 23 -1.027020699 0 363 -1.027020699 0
gene 1 23 23 0.3211608937 1 408 0.3211608937 1
genomeend 21191
/* Novelty: 10.70718384 Fitness: 208.9799194 Generation: 88 Indiv: 21441 */
/* Point: 121.8775635 25.09134293 121.8775635 25.09134293 */

/* Organism #21010 Fitness: 10.62295055 Error: 0 */
genomestart 21010
trait 1 0.1929890357 0 0.03791077702 0.01429409297 0.09741915419 0.04160566012 0.08646956046 0.05463259096 
node 1 1 1 3
node 2 1 1 1
node 3 1 1 1
node 4 1 1 1
node 5 1 1 1
node 6 1 1 1
node 7 1 1 1
node 8 1 1 1
node 9 1 1 1
node 10 1 1 1
node 11 1 1 1
node 12 1 0 0
node 13 1 0 2
node 14 1 0 2
node 23 1 0 0
gene 1 1 12 0.1050390295 0 1 0.1050390295 1
gene 1 2 12 -0.291891311 0 2 -0.291891311 1
gene 1 3 12 -0.2795494444 0 3 -0.2795494444 1
gene 1 4 12 -0.5839550107 0 4 -0.5839550107 1
gene 1 5 12 1.56166524 0 5 1.56166524 1
gene 1 6 12 0.3316803312 0 6 0.3316803312 1
gene 1 7 12 -0.1918606799 0 7 -0.1918606799 1
gene 1 8 12 -0.3563045596 0 8 -0.3563045596 1
gene 1 9 12 -1.13127876 0 9 -1.13127876 1
gene 1 10 12 0.2109930526 0 10 0.2109930526 1
gene 1 11 12 0.5405091982 0 11 0.5405091982 1
gene 1 12 13 1.278476287 0 12 1.278476287 1
gene 1 12 14 0.3016349043 0 13 0.3016349043 1
gene 1 3 13 -1.019430401 0 14 -1.019430401 1
gene 1 10 13 -0.5896370798 0 15 -0.5896370798 1
gene 1 2 14 -0.7360287987 0 16 0 1
gene 1 8 14 -0.5591520203 0 17 -0.5591520203 1
gene 1 9 14 0.6363804511 0 19 0.6356027887 1
gene 1 11 13 0.2669198779 0 24 0.423269631 1
gene 1 6 14 0.7725347003 0 25 0.7725347003 1
gene 1 2 13 -0.3983447758 0 26 0 1
gene 1 7 14 0.190653224 0 30 0.190653224 1
gene 1 4 14 0.8549339746 0 32 0.8549339746 1
gene 1 13 14 -0.891304175 0 33 -0.891304175 1
gene 1 5 13 0.7832938483 0 41 0 1
gene 1 10 14 0.02927618959 0 46 0.02927618959 1
gene 1 12 23 1 0 119 0 1
gene 1 23 14 0.395494899 0 120 0.3396233272 1
gene 1 14 14 0.9196735601 1 160 0.9196735601 1
gene 1 7 23 -0.8466040082 0 163 -0.8466040082 1
gene 1 5 23 -1.082638108 0 182 -1.082638108 1
gene 1 12 12 -0.3626284691 1 253 -0.3626284691 1
gene 1 11 23 -1.027020699 0 363 -1.027020699 0
gene 1 23 23 0.3211608937 1 408 0.3211608937 1
genomeend 21010
/* Novelty: 10.62295055 Fitness: 172.2667542 Generation: 88 Indiv: 21260 */
/* Point: 148.3646698 70.41143799 148.3646698 70.41143799 */

/* Organism #21651 Fitness: 10.5853405 Error: 0 */
genomestart 21651
trait 1 0.2032757624 0.0763888768 0.03512309699 0.02701749375 0.1536736435 0.03467138343 0.07205796705 0.4315302924 
node 1 1 1 3
node 2 1 1 1
node 3 1 1 1
node 4 1 1 1
node 5 1 1 1
node 6 1 1 1
node 7 1 1 1
node 8 1 1 1
node 9 1 1 1
node 10 1 1 1
node 11 1 1 1
node 12 1 0 0
node 13 1 0 2
node 14 1 0 2
node 23 1 0 0
gene 1 1 12 -0.2567592034 0 1 -0.2567592034 1
gene 1 2 12 -0.3820250979 0 2 -0.3820250979 1
gene 1 3 12 -0.3504376014 0 3 -0.3504376014 1
gene 1 4 12 -0.1222102214 0 4 -0.1222102214 1
gene 1 5 12 1.640194423 0 5 1.640194423 1
gene 1 6 12 0.4155060174 0 6 0.4155060174 1
gene 1 7 12 -0.2464593821 0 7 -0.2464593821 1
gene 1 8 12 -0.1798096323 0 8 -0.1798096323 1
gene 1 9 12 -1.027012181 0 9 -1.027012181 1
gene 1 10 12 0.2486385356 0 10 0.2486385356 1
gene 1 11 12 0.637030974 0 11 0.637030974 1
gene 1 12 13 1.187968565 0 12 1.187968565 1
gene 1 12 14 0.2785947597 0 13 0.2785947597 1
gene 1 3 13 -1.571082114 0 14 -1.571082114 1
gene 1 10 13 0.00930267943 0 15 0.00930267943 1
gene 1 8 14 -0.573525415 0 17 -0.573525415 1
gene 1 9 14 0.4252905172 0 19 0.4237351925 1
gene 1 11 13 0.2669198779 0 24 0.423269631 1
gene 1 6 14 0.7845300701 0 25 0.7845300701 1
gene 1 2 13 -0.3983447758 0 26 0 1
gene 1 7 14 0.190653224 0 30 0.190653224 1
gene 1 4 14 0.9715063699 0 32 0.9715063699 1
gene 1 13 14 -0.891304175 0 33 -0.891304175 1
gene 1 5 13 0.7832938483 0 41 0 1
gene 1 10 14 0.02927618959 0 46 0.02927618959 1
gene 1 12 23 1 0 119 0 1
gene 1 23 14 0.6792466545 0 120 0.6792466545 1
gene 1 14 14 0.9196735601 1 160 0.9196735601 1
gene 1 7 23 -0.8466040082 0 163 -0.8466040082 1
gene 1 5 23 -1.682751667 0 182 -1.682751667 1
gene 1 12 12 -0.3626284691 1 253 -0.3626284691 1
gene 1 11 23 -1.027020699 0 363 -1.027020699 0
gene 1 23 23 0.3211608937 1 408 0.3211608937 1
genomeend 21651
/* Novelty: 10.5853405 Fitness: 270.285553 Generation: 88 Indiv: 21901 */
/* Point: 51.38156509 41.62268066 51.38156509 41.62268066 */

/* Organism #21739 Fitness: 10.5853405 Error: 0 */
genomestart 21739
trait 1 0.2032757624 0.0763888768 0.03512309699 0.02701749375 0.1536736435 0.03467138343 0.07205796705 0.4315302924 
node 1 1 1 3
node 2 1 1 1
node 3 1 1 1
node 4 1 1 1
node 5 1 1 1
node 6 1 1 1
node 7 1 1 1
node 8 1 1 1
node 9 1 1 1
node 10 1 1 1
node 11 1 1 1
node 12 1 0 0
node 13 1 0 2
node 14 1 0 2
node 23 1 0 0
gene 1 1 12 -0.2567592034 0 1 -0.2567592034 1
gene 1 2 12 -0.3820250979 0 2 -0.3820250979 1
gene 1 3 12 -0.3504376014 0 3 -0.3504376014 1
gene 1 4 12 -0.1222102214 0 4 -0.1222102214 1
gene 1 5 12 1.640194423 0 5 1.640194423 1
gene 1 6 12 0.4155060174 0 6 0.4155060174 1
gene 1 7 12 -0.2464593821 0 7 -0.2464593821 1
gene 1 8 12 -0.1798096323 0 8 -0.1798096323 1
gene 1 9 12 -1.027012181 0 9 -1.027012181 1
gene 1 10 12 0.2486385356 0 10 0.2486385356 1
gene 1 11 12 0.637030974 0 11 0.637030974 1
gene 1 12 13 1.187968565 0 12 1.187968565 1
gene 1 12 14 0.2785947597 0 13 0.2785947597 1
gene 1 3 13 -1.571082114 0 14 -1.571082114 1
gene 1 10 13 0.00930267943 0 15 0.00930267943 1
gene 1 8 14 -0.573525415 0 17 -0.573525415 1
gene 1 9 14 0.4252905172 0 19 0.4237351925 1
gene 1 11 13 0.2669198779 0 24 0.423269631 1
gene 1 6 14 0.7845300701 0 25 0.7845300701 1
gene 1 2 13 -0.3983447758 0 26 0 1
gene 1 7 14 0.190653224 0 30 0.190653224 1
gene 1 4 14 0.9715063699 0 32 0.9715063699 1
gene 1 13 14 -0.891304175 0 33 -0.891304175 1
gene 1 5 13 0.7832938483 0 41 0 1
gene 1 10 14 0.02927618959 0 46 0.02927618959 1
gene 1 12 23 1 0 119 0 1
gene 1 23 14 0.6792466545 0 120 0.6792466545 1
gene 1 14 14 0.9196735601 1 160 0.9196735601 1
gene 1 7 23 -0.8466040082 0 163 -0.8466040082 1
gene 1 5 23 -1.682751667 0 182 -1.682751667 1
gene 1 12 12 -0.3626284691 1 253 -0.3626284691 1
gene 1 11 23 -1.027020699 0 363 -1.027020699 0
gene 1 23 23 0.3211608937 1 408 0.3211608937 1
genomeend 21739
/* Novelty: 10.5853405 Fitness: 270.285553 Generation: 88 Indiv: 21989 */
/* Point: 51.38156509 41.62268066 51.38156509 41.62268066 */

/* Organism #21258 Fitness: 10.40017319 Error: 0 */
genomestart 21258
trait 1 0.3530460425 0.0763888768 0.09979393093 0.06118203398 0.3562168717 0.09014559693 0.1873507143 0.1469041624 
node 1 1 1 3
node 2 1 1 1
node 3 1 1 1
node 4 1 1 1
node 5 1 1 1
node 6 1 1 1
node 7 1 1 1
node 8 1 1 1
node 9 1 1 1
node 10 1 1 1
node 11 1 1 1
node 12 1 0 0
node 13 1 0 2
node 14 1 0 2
node 23 1 0 0
gene 1 1 12 -0.6410614792 0 1 -0.6410614792 1
gene 1 2 12 0.2148802735 0 2 0.2148802735 1
gene 1 3 12 -0.3679019633 0 3 -0.3679019633 1
gene 1 4 12 -1.415747127 0 4 -1.415747127 1
gene 1 5 12 1.110007564 0 5 1.110007564 1
gene 1 6 12 1.013526571 0 6 1.013526571 1
gene 1 7 12 0.4007171597 0 7 0.4007171597 1
gene 1 8 12 0.5766631773 0 8 0.5766631773 1
gene 1 9 12 -0.7555647281 0 9 -0.7555647281 1
gene 1 10 12 -0.4423789397 0 10 -0.4423789397 1
gene 1 11 12 0.8957929365 0 11 0.8957929365 1
gene 1 12 13 1.627483226 0 12 1.627483226 1
gene 1 12 14 -0.4989225776 0 13 -0.4989225776 1
gene 1 3 13 -1.863463316 0 14 -1.863463316 1
gene 1 10 13 -0.198827348 0 15 -0.198827348 1
gene 1 8 14 0.1371348229 0 17 0.1371348229 1
gene 1 9 14 -0.5476427966 0 19 -0.5476427966 1
gene 1 11 13 0.6520772781 0 24 0.6520772781 1
gene 1 6 14 1.366409378 0 25 1.366409378 1
gene 1 7 14 0.4317589706 0 30 0.4317589706 1
gene 1 4 14 0.7004209208 0 32 0.7004209208 1
gene 1 13 14 -0.7436413912 0 33 -0.7436413912 1
gene 1 5 13 1.447593771 0 41 1.447593771 1
gene 1 10 14 -0.4907893384 0 46 -0.4907893384 1
gene 1 12 23 0.8879358272 0 119 0.8879358272 1
gene 1 23 14 0.2336548112 0 120 0.2336548112 1
gene 1 14 14 1.66438451 1 160 1.66438451 1
gene 1 7 23 -0.8466040082 0 163 -0.8466040082 1
gene 1 5 23 -1.682751667 0 182 -1.682751667 1
gene 1 12 12 -0.9686926502 1 253 -0.9686926502 0
gene 1 11 23 -0.1243020103 0 363 -0.1243020103 0
gene 1 23 23 0.3211608937 1 408 0.3211608937 1
genomeend 21258
/* Novelty: 10.40017319 Fitness: 183.355545 Generation: 88 Indiv: 21508 */
/* Point: 145.7579651 40.89351654 145.7579651 40.89351654 */

/* Organism #21120 Fitness: 10.33099079 Error: 0 */
genomestart 21120
trait 1 0.5374659164 0.2291666304 0.08641390247 0.07390543476 0.7023832206 0.0554742135 0.4324613053 0.1263853111 
node 1 1 1 3
node 2 1 1 1
node 3 1 1 1
node 4 1 1 1
node 5 1 1 1
node 6 1 1 1
node 7 1 1 1
node 8 1 1 1
node 9 1 1 1
node 10 1 1 1
node 11 1 1 1
node 12 1 0 0
node 13 1 0 2
node 14 1 0 2
node 23 1 0 0
gene 1 1 12 -0.2567592034 0 1 -0.2567592034 1
gene 1 2 12 -0.3820250979 0 2 -0.3820250979 1
gene 1 3 12 0.08273358977 0 3 0.08273358977 1
gene 1 4 12 -2.446985203 0 4 -2.446985203 1
gene 1 5 12 1.518162834 0 5 1.518162834 1
gene 1 6 12 0.4939137996 0 6 0.4939137996 1
gene 1 7 12 0.1253106059 0 7 0.1253106059 1
gene 1 8 12 -0.1798096323 0 8 -0.1798096323 1
gene 1 9 12 -1.027012181 0 9 -1.027012181 1
gene 1 10 12 0.3239295016 0 10 0.3239295016 1
gene 1 11 12 0.2697180312 0 11 0.2697180312 1
gene 1 12 13 1.006953121 0 12 1.006953121 1
gene 1 12 14 -0.1124442409 0 13 -0.1124442409 1
gene 1 3 13 -1.199049205 0 14 -1.199049205 1
gene 1 10 13 -0.3278992223 0 15 -0.3278992223 1
gene 1 8 14 0.3245311001 0 17 0.3245311001 1
gene 1 9 14 0.5568246193 0 19 0.5552692945 1
gene 1 11 13 0.846539262 0 24 0.846539262 1
gene 1 6 14 0.9019194309 0 25 0.9019194309 1
gene 1 7 14 0.190653224 0 30 0.190653224 1
gene 1 4 14 0.5052167886 0 32 0.5052167886 1
gene 1 5 13 0.7832938483 0 41 0 1
gene 1 10 14 0.02927618959 0 46 0.02927618959 1
gene 1 12 23 1 0 119 0 1
gene 1 23 14 0.6792466545 0 120 0.6792466545 1
gene 1 14 14 0.9196735601 1 160 0.9196735601 1
gene 1 7 23 -0.8466040082 0 163 -0.8466040082 1
gene 1 5 23 -1.682751667 0 182 -1.682751667 1
gene 1 12 12 -0.1920534234 1 253 -0.1920534234 0
gene 1 11 23 -1.027020699 0 363 -1.027020699 0
gene 1 23 23 0.3211608937 1 408 0.3211608937 1
genomeend 21120
/* Novelty: 10.33099079 Fitness: 183.3735962 Generation: 88 Indiv: 21370 */
/* Point: 139.7579498 62.11205292 139.7579498 62.11205292 */

/* Organism #21679 Fitness: 10.16845608 Error: 0 */
genomestart 21679
trait 1 0.3882956857 0.7278492729 0.08473878748 0.6655387469 0.8284586607 0.4864358322 0 0.1369610337 
node 1 1 1 3
node 2 1 1 1
node 3 1 1 1
node 4 1 1 1
node 5 1 1 1
node 6 1 1 1
node 7 1 1 1
node 8 1 1 1
node 9 1 1 1
node 10 1 1 1
node 11 1 1 1
node 12 1 0 0
node 13 1 0 2
node 14 1 0 2
node 23 1 0 0
gene 1 1 12 -0.2567592034 0 1 -0.2567592034 1
gene 1 2 12 0.2208628907 0 2 0.2208628907 1
gene 1 3 12 0.232352153 0 3 0.232352153 1
gene 1 4 12 -2.924781027 0 4 -2.924781027 1
gene 1 5 12 1.710247977 0 5 1.710247977 1
gene 1 6 12 0.4046702096 0 6 0.4046702096 1
gene 1 7 12 0.1253106059 0 7 0.1253106059 1
gene 1 8 12 0.9064121975 0 8 0.9064121975 1
gene 1 9 12 -1.254676354 0 9 -1.254676354 1
gene 1 10 12 0.07894316846 0 10 0.07894316846 1
gene 1 11 12 0.2697180312 0 11 0.2697180312 1
gene 1 12 13 0.9889006364 0 12 0.9889006364 1
gene 1 12 14 -0.1124442409 0 13 -0.1124442409 1
gene 1 3 13 -1.571082114 0 14 -1.571082114 1
gene 1 10 13 0.00930267943 0 15 0.00930267943 1
gene 1 8 14 1.251334405 0 17 1.251334405 1
gene 1 9 14 1.110538589 0 19 1.110538589 1
gene 1 1 14 -0.5831946859 0 22 0 1
gene 1 11 13 0.846539262 0 24 0.846539262 1
gene 1 6 14 1.067290271 0 25 1.067290271 1
gene 1 7 14 0.190653224 0 30 0.190653224 1
gene 1 4 14 1.15721767 0 32 1.15721767 1
gene 1 5 13 1.123289753 0 41 1.123289753 1
gene 1 10 14 0.02927618959 0 46 0.02927618959 1
gene 1 12 23 -0.7277807548 0 119 -0.7277807548 1
gene 1 23 14 0.6792466545 0 120 0.6792466545 1
gene 1 14 14 0.9196735601 1 160 0.9196735601 1
gene 1 7 23 -1.158036464 0 163 -1.158036464 1
gene 1 5 23 -1.682751667 0 182 -1.682751667 1
gene 1 12 12 -0.02147837767 1 253 -0.02147837767 1
gene 1 11 23 -1.027020699 0 363 -1.027020699 1
gene 1 23 23 0.3211608937 1 408 0.3211608937 1
genomeend 21679
/* Novelty: 10.16845608 Fitness: 171.3990784 Generation: 88 Indiv: 21929 */
/* Point: 159.2656403 29.28019333 159.2656403 29.28019333 */

/* Organism #20825 Fitness: 10.16845608 Error: 0 */
genomestart 20825
trait 1 0.3882956857 0.7278492729 0.08473878748 0.6655387469 0.8284586607 0.4864358322 0 0.1369610337 
node 1 1 1 3
node 2 1 1 1
node 3 1 1 1
node 4 1 1 1
node 5 1 1 1
node 6 1 1 1
node 7 1 1 1
node 8 1 1 1
node 9 1 1 1
node 10 1 1 1
node 11 1 1 1
node 12 1 0 0
node 13 1 0 2
node 14 1 0 2
node 23 1 0 0
gene 1 1 12 -0.2567592034 0 1 -0.2567592034 1
gene 1 2 12 0.2208628907 0 2 0.2208628907 1
gene 1 3 12 0.232352153 0 3 0.232352153 1
gene 1 4 12 -2.924781027 0 4 -2.924781027 1
gene 1 5 12 1.710247977 0 5 1.710247977 1
gene 1 6 12 0.4046702096 0 6 0.4046702096 1
gene 1 7 12 0.1253106059 0 7 0.1253106059 1
gene 1 8 12 0.9064121975 0 8 0.9064121975 1
gene 1 9 12 -1.254676354 0 9 -1.254676354 1
gene 1 10 12 0.07894316846 0 10 0.07894316846 1
gene 1 11 12 0.2697180312 0 11 0.2697180312 1
gene 1 12 13 0.9889006364 0 12 0.9889006364 1
gene 1 12 14 -0.1124442409 0 13 -0.1124442409 1
gene 1 3 13 -1.571082114 0 14 -1.571082114 1
gene 1 10 13 0.00930267943 0 15 0.00930267943 1
gene 1 8 14 1.251334405 0 17 1.251334405 1
gene 1 9 14 1.110538589 0 19 1.110538589 1
gene 1 1 14 -0.5831946859 0 22 0 1
gene 1 11 13 0.846539262 0 24 0.846539262 1
gene 1 6 14 1.067290271 0 25 1.067290271 1
gene 1 7 14 0.190653224 0 30 0.190653224 1
gene 1 4 14 1.15721767 0 32 1.15721767 1
gene 1 5 13 1.123289753 0 41 1.123289753 1
gene 1 10 14 0.02927618959 0 46 0.02927618959 1
gene 1 12 23 -0.7277807548 0 119 -0.7277807548 1
gene 1 23 14 0.6792466545 0 120 0.6792466545 1
gene 1 14 14 0.9196735601 1 160 0.9196735601 1
gene 1 7 23 -1.158036464 0 163 -1.158036464 1
gene 1 5 23 -1.682751667 0 182 -1.682751667 1
gene 1 12 12 -0.02147837767 1 253 -0.02147837767 1
gene 1 11 23 -1.027020699 0 363 -1.027020699 1
gene 1 23 23 0.3211608937 1 408 0.3211608937 1
genomeend 20825
/* Novelty: 10.16845608 Fitness: 171.3990784 Generation: 88 Indiv: 21075 */
/* Point: 159.2656403 29.28019333 159.2656403 29.28019333 */

/* Organism #21512 Fitness: 10.16845608 Error: 0 */
genomestart 21512
trait 1 0.3882956857 0.7278492729 0.08473878748 0.6655387469 0.8284586607 0.4864358322 0 0.1369610337 
node 1 1 1 3
node 2 1 1 1
node 3 1 1 1
node 4 1 1 1
node 5 1 1 1
node 6 1 1 1
node 7 1 1 1
node 8 1 1 1
node 9 1 1 1
node 10 1 1 1
node 11 1 1 1
node 12 1 0 0
node 13 1 0 2
node 14 1 0 2
node 23 1 0 0
gene 1 1 12 -0.2567592034 0 1 -0.2567592034 1
gene 1 2 12 0.2208628907 0 2 0.2208628907 1
gene 1 3 12 0.232352153 0 3 0.232352153 1
gene 1 4 12 -2.924781027 0 4 -2.924781027 1
gene 1 5 12 1.710247977 0 5 1.710247977 1
gene 1 6 12 0.4046702096 0 6 0.4046702096 1
gene 1 7 12 0.1253106059 0 7 0.1253106059 1
gene 1 8 12 0.9064121975 0 8 0.9064121975 1
gene 1 9 12 -1.254676354 0 9 -1.254676354 1
gene 1 10 12 0.07894316846 0 10 0.07894316846 1
gene 1 11 12 0.2697180312 0 11 0.2697180312 1
gene 1 12 13 0.9889006364 0 12 0.9889006364 1
gene 1 12 14 -0.1124442409 0 13 -0.1124442409 1
gene 1 3 13 -1.571082114 0 14 -1.571082114 1
gene 1 10 13 0.00930267943 0 15 0.00930267943 1
gene 1 8 14 1.251334405 0 17 1.251334405 1
gene 1 9 14 1.110538589 0 19 1.110538589 1
gene 1 1 14 -0.5831946859 0 22 0 1
gene 1 11 13 0.846539262 0 24 0.846539262 1
gene 1 6 14 1.067290271 0 25 1.067290271 1
gene 1 7 14 0.190653224 0 30 0.190653224 1
gene 1 4 14 1.15721767 0 32 1.15721767 1
gene 1 5 13 1.123289753 0 41 1.123289753 1
gene 1 10 14 0.02927618959 0 46 0.02927618959 1
gene 1 12 23 -0.7277807548 0 119 -0.7277807548 1
gene 1 23 14 0.6792466545 0 120 0.6792466545 1
gene 1 14 14 0.9196735601 1 160 0.9196735601 1
gene 1 7 23 -1.158036464 0 163 -1.158036464 1
gene 1 5 23 -1.682751667 0 182 -1.682751667 1
gene 1 12 12 -0.02147837767 1 253 -0.02147837767 1
gene 1 11 23 -1.027020699 0 363 -1.027020699 1
gene 1 23 23 0.3211608937 1 408 0.3211608937 1
genomeend 21512
/* Novelty: 10.16845608 Fitness: 171.3990784 Generation: 88 Indiv: 21762 */
/* Point: 159.2656403 29.28019333 159.2656403 29.28019333 */

/* Organism #21313 Fitness: 10.16845608 Error: 0 */
genomestart 21313
trait 1 0.3882956857 0.7278492729 0.08473878748 0.6655387469 0.8284586607 0.4864358322 0 0.1369610337 
node 1 1 1 3
node 2 1 1 1
node 3 1 1 1
node 4 1 1 1
node 5 1 1 1
node 6 1 1 1
node 7 1 1 1
node 8 1 1 1
node 9 1 1 1
node 10 1 1 1
node 11 1 1 1
node 12 1 0 0
node 13 1 0 2
node 14 1 0 2
node 23 1 0 0
gene 1 1 12 -0.2567592034 0 1 -0.2567592034 1
gene 1 2 12 0.2208628907 0 2 0.2208628907 1
gene 1 3 12 0.232352153 0 3 0.232352153 1
gene 1 4 12 -2.924781027 0 4 -2.924781027 1
gene 1 5 12 1.710247977 0 5 1.710247977 1
gene 1 6 12 0.4046702096 0 6 0.4046702096 1
gene 1 7 12 0.1253106059 0 7 0.1253106059 1
gene 1 8 12 0.9064121975 0 8 0.9064121975 1
gene 1 9 12 -1.254676354 0 9 -1.254676354 1
gene 1 10 12 0.07894316846 0 10 0.07894316846 1
gene 1 11 12 0.2697180312 0 11 0.2697180312 1
gene 1 12 13 0.9889006364 0 12 0.9889006364 1
gene 1 12 14 -0.1124442409 0 13 -0.1124442409 1
gene 1 3 13 -1.571082114 0 14 -1.571082114 1
gene 1 10 13 0.00930267943 0 15 0.00930267943 1
gene 1 8 14 1.251334405 0 17 1.251334405 1
gene 1 9 14 1.110538589 0 19 1.110538589 1
gene 1 1 14 -0.5831946859 0 22 0 1
gene 1 11 13 0.846539262 0 24 0.846539262 1
gene 1 6 14 1.067290271 0 25 1.067290271 1
gene 1 7 14 0.190653224 0 30 0.190653224 1
gene 1 4 14 1.15721767 0 32 1.15721767 1
gene 1 5 13 1.123289753 0 41 1.123289753 1
gene 1 10 14 0.02927618959 0 46 0.02927618959 1
gene 1 12 23 -0.7277807548 0 119 -0.7277807548 1
gene 1 23 14 0.6792466545 0 120 0.6792466545 1
gene 1 14 14 0.9196735601 1 160 0.9196735601 1
gene 1 7 23 -1.158036464 0 163 -1.158036464 1
gene 1 5 23 -1.682751667 0 182 -1.682751667 1
gene 1 12 12 -0.02147837767 1 253 -0.02147837767 1
gene 1 11 23 -1.027020699 0 363 -1.027020699 1
gene 1 23 23 0.3211608937 1 408 0.3211608937 1
genomeend 21313
/* Novelty: 10.16845608 Fitness: 171.3990784 Generation: 88 Indiv: 21563 */
/* Point: 159.2656403 29.28019333 159.2656403 29.28019333 */

/* Organism #21567 Fitness: 9.960064888 Error: 0 */
genomestart 21567
trait 1 0.2859780713 0 0.07582155404 0.02858818594 0.1948383084 0.08321132024 0.1729391209 0.1092651819 
node 1 1 1 3
node 2 1 1 1
node 3 1 1 1
node 4 1 1 1
node 5 1 1 1
node 6 1 1 1
node 7 1 1 1
node 8 1 1 1
node 9 1 1 1
node 10 1 1 1
node 11 1 1 1
node 12 1 0 0
node 13 1 0 2
node 14 1 0 2
node 23 1 0 0
gene 1 1 12 0.08205547991 0 1 0.08205547991 1
gene 1 2 12 -0.3219359066 0 2 -0.3219359066 1
gene 1 3 12 -0.2086612874 0 3 -0.2086612874 1
gene 1 4 12 -1.0456998 0 4 -1.0456998 1
gene 1 5 12 1.483136057 0 5 1.483136057 1
gene 1 6 12 0.4155060174 0 6 0.4155060174 1
gene 1 7 12 -0.1372619776 0 7 -0.1372619776 1
gene 1 8 12 -0.2974729171 0 8 -0.2974729171 1
gene 1 9 12 -1.096523234 0 9 -1.096523234 1
gene 1 10 12 0.2486385356 0 10 0.2486385356 1
gene 1 11 12 0.4439874224 0 11 0.4439874224 1
gene 1 12 13 1.187968565 0 12 1.187968565 1
gene 1 12 14 0.3246750488 0 13 0.3246750488 1
gene 1 3 13 -0.9552923662 0 14 -0.9552923662 1
gene 1 10 13 -0.6147917612 0 15 -0.6147917612 1
gene 1 8 14 -0.573525415 0 17 -0.573525415 1
gene 1 9 14 0.4252905172 0 19 0.4237351925 1
gene 1 11 13 0.2669198779 0 24 0.423269631 1
gene 1 6 14 0.7605393304 0 25 0.7605393304 1
gene 1 7 14 0.190653224 0 30 0.190653224 1
gene 1 4 14 0.7383615793 0 32 0.7383615793 1
gene 1 13 14 -0.891304175 0 33 -0.891304175 1
gene 1 5 13 0.7832938483 0 41 0 1
gene 1 10 14 0.02927618959 0 46 0.02927618959 1
gene 1 12 23 1 0 119 0 1
gene 1 23 14 0.395494899 0 120 0.3396233272 1
gene 1 14 14 0.9196735601 1 160 0.9196735601 1
gene 1 7 23 -0.8466040082 0 163 -0.8466040082 1
gene 1 5 23 -1.082638108 0 182 -1.082638108 1
gene 1 12 12 -0.3626284691 1 253 -0.3626284691 1
gene 1 11 23 -1.027020699 0 363 -1.027020699 0
gene 1 23 23 0.3211608937 1 408 0.3211608937 1
genomeend 21567
/* Novelty: 9.960064888 Fitness: 193.651413 Generation: 88 Indiv: 21817 */
/* Point: 135.7553711 38.33942032 135.7553711 38.33942032 */

/* Organism #20378 Fitness: 9.960064888 Error: 0 */
genomestart 20378
trait 1 0.2859780713 0 0.07582155404 0.02858818594 0.1948383084 0.08321132024 0.1729391209 0.1092651819 
node 1 1 1 3
node 2 1 1 1
node 3 1 1 1
node 4 1 1 1
node 5 1 1 1
node 6 1 1 1
node 7 1 1 1
node 8 1 1 1
node 9 1 1 1
node 10 1 1 1
node 11 1 1 1
node 12 1 0 0
node 13 1 0 2
node 14 1 0 2
node 23 1 0 0
gene 1 1 12 0.08205547991 0 1 0.08205547991 1
gene 1 2 12 -0.3219359066 0 2 -0.3219359066 1
gene 1 3 12 -0.2086612874 0 3 -0.2086612874 1
gene 1 4 12 -1.0456998 0 4 -1.0456998 1
gene 1 5 12 1.483136057 0 5 1.483136057 1
gene 1 6 12 0.4155060174 0 6 0.4155060174 1
gene 1 7 12 -0.1372619776 0 7 -0.1372619776 1
gene 1 8 12 -0.2974729171 0 8 -0.2974729171 1
gene 1 9 12 -1.096523234 0 9 -1.096523234 1
gene 1 10 12 0.2486385356 0 10 0.2486385356 1
gene 1 11 12 0.4439874224 0 11 0.4439874224 1
gene 1 12 13 1.187968565 0 12 1.187968565 1
gene 1 12 14 0.3246750488 0 13 0.3246750488 1
gene 1 3 13 -0.9552923662 0 14 -0.9552923662 1
gene 1 10 13 -0.6147917612 0 15 -0.6147917612 1
gene 1 8 14 -0.573525415 0 17 -0.573525415 1
gene 1 9 14 0.4252905172 0 19 0.4237351925 1
gene 1 11 13 0.2669198779 0 24 0.423269631 1
gene 1 6 14 0.7605393304 0 25 0.7605393304 1
gene 1 7 14 0.190653224 0 30 0.190653224 1
gene 1 4 14 0.7383615793 0 32 0.7383615793 1
gene 1 13 14 -0.891304175 0 33 -0.891304175 1
gene 1 5 13 0.7832938483 0 41 0 1
gene 1 10 14 0.02927618959 0 46 0.02927618959 1
gene 1 12 23 1 0 119 0 1
gene 1 23 14 0.395494899 0 120 0.3396233272 1
gene 1 14 14 0.9196735601 1 160 0.9196735601 1
gene 1 7 23 -0.8466040082 0 163 -0.8466040082 1
gene 1 5 23 -1.082638108 0 182 -1.082638108 1
gene 1 12 12 -0.3626284691 1 253 -0.3626284691 1
gene 1 11 23 -1.027020699 0 363 -1.027020699 0
gene 1 23 23 0.3211608937 1 408 0.3211608937 1
genomeend 20378
/* Novelty: 9.960064888 Fitness: 193.651413 Generation: 88 Indiv: 20628 */
/* Point: 135.7553711 38.33942032 135.7553711 38.33942032 */

/* Organism #21325 Fitness: 9.744062424 Error: 0 */
genomestart 21325
trait 1 0.3271249781 0.3055555072 0.06467083394 0.07948178905 0.4198562658 0.0554742135 0.1152927473 0.09567029357 
node 1 1 1 3
node 2 1 1 1
node 3 1 1 1
node 4 1 1 1
node 5 1 1 1
node 6 1 1 1
node 7 1 1 1
node 8 1 1 1
node 9 1 1 1
node 10 1 1 1
node 11 1 1 1
node 12 1 0 0
node 13 1 0 2
node 14 1 0 2
node 23 1 0 0
gene 1 1 12 -0.2567592034 0 1 -0.2567592034 1
gene 1 2 12 -0.3820250979 0 2 -0.3820250979 1
gene 1 3 12 0.232352153 0 3 0.232352153 1
gene 1 4 12 -2.924781027 0 4 -2.924781027 1
gene 1 5 12 1.710247977 0 5 1.710247977 1
gene 1 6 12 0.4046702096 0 6 0.4046702096 1
gene 1 7 12 0.1253106059 0 7 0.1253106059 1
gene 1 8 12 -0.1798096323 0 8 -0.1798096323 1
gene 1 9 12 -1.027012181 0 9 -1.027012181 1
gene 1 10 12 0.3239295016 0 10 0.3239295016 1
gene 1 11 12 0.2697180312 0 11 0.2697180312 1
gene 1 12 13 1.006953121 0 12 1.006953121 1
gene 1 12 14 -0.1124442409 0 13 -0.1124442409 1
gene 1 3 13 -1.571082114 0 14 -1.571082114 1
gene 1 10 13 0.00930267943 0 15 0.00930267943 1
gene 1 8 14 1.251334405 0 17 1.251334405 1
gene 1 9 14 1.110538589 0 19 1.110538589 1
gene 1 11 13 0.846539262 0 24 0.846539262 1
gene 1 6 14 1.067290271 0 25 1.067290271 1
gene 1 7 14 0.190653224 0 30 0.190653224 1
gene 1 4 14 0.5052167886 0 32 0.5052167886 1
gene 1 5 13 0.7832938483 0 41 0 1
gene 1 10 14 0.02927618959 0 46 0.02927618959 1
gene 1 12 23 1 0 119 0 1
gene 1 23 14 0.6792466545 0 120 0.6792466545 1
gene 1 14 14 0.9196735601 1 160 0.9196735601 1
gene 1 7 23 -0.8466040082 0 163 -0.8466040082 1
gene 1 5 23 -1.682751667 0 182 -1.682751667 1
gene 1 12 12 -0.02147837767 1 253 -0.02147837767 1
gene 1 11 23 -1.027020699 0 363 -1.027020699 0
gene 1 23 23 0.3211608937 1 408 0.3211608937 1
genomeend 21325
/* Novelty: 9.744062424 Fitness: 189.145874 Generation: 88 Indiv: 21575 */
/* Point: 141.7503662 15.20454788 141.7503662 15.20454788 */

/* Organism #20059 Fitness: 9.744062424 Error: 0 */
genomestart 20059
trait 1 0.6753912725 0.3055555072 0.06467083394 0.07948178905 1 0 0.6343371161 0.09567029357 
node 1 1 1 3
node 2 1 1 1
node 3 1 1 1
node 4 1 1 1
node 5 1 1 1
node 6 1 1 1
node 7 1 1 1
node 8 1 1 1
node 9 1 1 1
node 10 1 1 1
node 11 1 1 1
node 12 1 0 0
node 13 1 0 2
node 14 1 0 2
node 23 1 0 0
gene 1 1 12 -0.2567592034 0 1 -0.2567592034 1
gene 1 2 12 -0.3820250979 0 2 -0.3820250979 1
gene 1 3 12 0.232352153 0 3 0.232352153 1
gene 1 4 12 -2.924781027 0 4 -2.924781027 1
gene 1 5 12 1.710247977 0 5 1.710247977 1
gene 1 6 12 0.4046702096 0 6 0.4046702096 1
gene 1 7 12 0.1253106059 0 7 0.1253106059 1
gene 1 8 12 -0.1798096323 0 8 -0.1798096323 1
gene 1 9 12 -1.027012181 0 9 -1.027012181 1
gene 1 10 12 0.3239295016 0 10 0.3239295016 1
gene 1 11 12 0.2697180312 0 11 0.2697180312 1
gene 1 12 13 1.006953121 0 12 1.006953121 1
gene 1 12 14 -0.1124442409 0 13 -0.1124442409 1
gene 1 3 13 -1.571082114 0 14 -1.571082114 1
gene 1 10 13 0.00930267943 0 15 0.00930267943 1
gene 1 8 14 1.251334405 0 17 1.251334405 1
gene 1 9 14 1.110538589 0 19 1.110538589 1
gene 1 11 13 0.846539262 0 24 0.846539262 1
gene 1 6 14 1.067290271 0 25 1.067290271 1
gene 1 7 14 0.190653224 0 30 0.190653224 1
gene 1 4 14 0.5052167886 0 32 0.5052167886 1
gene 1 5 13 0.7832938483 0 41 0 1
gene 1 10 14 0.02927618959 0 46 0.02927618959 1
gene 1 12 23 1 0 119 0 1
gene 1 23 14 0.6792466545 0 120 0.6792466545 1
gene 1 14 14 0.9196735601 1 160 0.9196735601 1
gene 1 7 23 -0.8466040082 0 163 -0.8466040082 1
gene 1 5 23 -1.682751667 0 182 -1.682751667 1
gene 1 12 12 -0.02147837767 1 253 -0.02147837767 1
gene 1 11 23 -1.027020699 0 363 -1.027020699 0
gene 1 23 23 0.3211608937 1 408 0.3211608937 1
genomeend 20059
/* Novelty: 9.744062424 Fitness: 189.145874 Generation: 88 Indiv: 20309 */
/* Point: 141.7503662 15.20454788 141.7503662 15.20454788 */

/* Organism #21579 Fitness: 9.744062424 Error: 0 */
genomestart 21579
trait 1 0.3271249781 0.3055555072 0.06467083394 0.07948178905 0.4198562658 0.0554742135 0.1152927473 0.09567029357 
node 1 1 1 3
node 2 1 1 1
node 3 1 1 1
node 4 1 1 1
node 5 1 1 1
node 6 1 1 1
node 7 1 1 1
node 8 1 1 1
node 9 1 1 1
node 10 1 1 1
node 11 1 1 1
node 12 1 0 0
node 13 1 0 2
node 14 1 0 2
node 23 1 0 0
gene 1 1 12 -0.2567592034 0 1 -0.2567592034 1
gene 1 2 12 -0.3820250979 0 2 -0.3820250979 1
gene 1 3 12 0.232352153 0 3 0.232352153 1
gene 1 4 12 -2.924781027 0 4 -2.924781027 1
gene 1 5 12 1.710247977 0 5 1.710247977 1
gene 1 6 12 0.4046702096 0 6 0.4046702096 1
gene 1 7 12 0.1253106059 0 7 0.1253106059 1
gene 1 8 12 -0.1798096323 0 8 -0.1798096323 1
gene 1 9 12 -1.027012181 0 9 -1.027012181 1
gene 1 10 12 0.3239295016 0 10 0.3239295016 1
gene 1 11 12 0.2697180312 0 11 0.2697180312 1
gene 1 12 13 1.006953121 0 12 1.006953121 1
gene 1 12 14 -0.1124442409 0 13 -0.1124442409 1
gene 1 3 13 -1.571082114 0 14 -1.571082114 1
gene 1 10 13 0.00930267943 0 15 0.00930267943 1
gene 1 8 14 1.251334405 0 17 1.251334405 1
gene 1 9 14 1.110538589 0 19 1.110538589 1
gene 1 11 13 0.846539262 0 24 0.846539262 1
gene 1 6 14 1.067290271 0 25 1.067290271 1
gene 1 7 14 0.190653224 0 30 0.190653224 1
gene 1 4 14 0.5052167886 0 32 0.5052167886 1
gene 1 5 13 0.7832938483 0 41 0 1
gene 1 10 14 0.02927618959 0 46 0.02927618959 1
gene 1 12 23 1 0 119 0 1
gene 1 23 14 0.6792466545 0 120 0.6792466545 1
gene 1 14 14 0.9196735601 1 160 0.9196735601 1
gene 1 7 23 -0.8466040082 0 163 -0.8466040082 1
gene 1 5 23 -1.682751667 0 182 -1.682751667 1
gene 1 12 12 -0.02147837767 1 253 -0.02147837767 1
gene 1 11 23 -1.027020699 0 363 -1.027020699 0
gene 1 23 23 0.3211608937 1 408 0.3211608937 1
genomeend 21579
/* Novelty: 9.744062424 Fitness: 189.145874 Generation: 88 Indiv: 21829 */
/* Point: 141.7503662 15.20454788 141.7503662 15.20454788 */

/* Organism #21783 Fitness: 9.744062424 Error: 0 */
genomestart 21783
trait 1 0.5012581253 0.3055555072 0.06467083394 0.07948178905 0.7099281329 0.02773710675 0.3748149317 0.09567029357 
node 1 1 1 3
node 2 1 1 1
node 3 1 1 1
node 4 1 1 1
node 5 1 1 1
node 6 1 1 1
node 7 1 1 1
node 8 1 1 1
node 9 1 1 1
node 10 1 1 1
node 11 1 1 1
node 12 1 0 0
node 13 1 0 2
node 14 1 0 2
node 23 1 0 0
gene 1 1 12 -0.2567592034 0 1 -0.2567592034 1
gene 1 2 12 -0.3820250979 0 2 -0.3820250979 1
gene 1 3 12 0.232352153 0 3 0.232352153 1
gene 1 4 12 -2.924781027 0 4 -2.924781027 1
gene 1 5 12 1.710247977 0 5 1.710247977 1
gene 1 6 12 0.4046702096 0 6 0.4046702096 1
gene 1 7 12 0.1253106059 0 7 0.1253106059 1
gene 1 8 12 -0.1798096323 0 8 -0.1798096323 1
gene 1 9 12 -1.027012181 0 9 -1.027012181 1
gene 1 10 12 0.3239295016 0 10 0.3239295016 1
gene 1 11 12 0.2697180312 0 11 0.2697180312 1
gene 1 12 13 1.006953121 0 12 1.006953121 1
gene 1 12 14 -0.1124442409 0 13 -0.1124442409 1
gene 1 3 13 -1.571082114 0 14 -1.571082114 1
gene 1 10 13 0.00930267943 0 15 0.00930267943 1
gene 1 8 14 1.251334405 0 17 1.251334405 1
gene 1 9 14 1.110538589 0 19 1.110538589 1
gene 1 11 13 0.846539262 0 24 0.846539262 1
gene 1 6 14 1.067290271 0 25 1.067290271 1
gene 1 7 14 0.190653224 0 30 0.190653224 1
gene 1 4 14 0.5052167886 0 32 0.5052167886 1
gene 1 5 13 0.7832938483 0 41 0 1
gene 1 10 14 0.02927618959 0 46 0.02927618959 1
gene 1 12 23 1 0 119 0 1
gene 1 23 14 0.6792466545 0 120 0.6792466545 1
gene 1 14 14 0.9196735601 1 160 0.9196735601 1
gene 1 7 23 -0.8466040082 0 163 -0.8466040082 1
gene 1 5 23 -1.682751667 0 182 -1.682751667 1
gene 1 12 12 -0.02147837767 1 253 -0.02147837767 1
gene 1 11 23 -1.027020699 0 363 -1.027020699 1
gene 1 23 23 0.3211608937 1 408 0.3211608937 1
genomeend 21783
/* Novelty: 9.744062424 Fitness: 189.145874 Generation: 88 Indiv: 22033 */
/* Point: 141.7503662 15.20454788 141.7503662 15.20454788 */

/* Species #3 : (Size 17) (AF 0) (Age 1)  */


/* Organism #20744 Fitness: 9.703576088 Error: 0 */
genomestart 20744
trait 1 0.700459724 0.7639470381 0.5978404801 0 0.2886088443 0.2248072146 0.005596087069 0.1993387976 
node 1 1 1 3
node 2 1 1 1
node 3 1 1 1
node 4 1 1 1
node 5 1 1 1
node 6 1 1 1
node 7 1 1 1
node 8 1 1 1
node 9 1 1 1
node 10 1 1 1
node 11 1 1 1
node 12 1 0 0
node 13 1 0 2
node 14 1 0 2
gene 1 1 12 0.9216135162 0 1 0.9216135162 1
gene 1 2 12 0.4709146861 0 2 0.4709146861 1
gene 1 3 12 -0.5151801741 0 3 -0.5151801741 1
gene 1 4 12 -2.221070514 0 4 -2.221070514 1
gene 1 5 12 -0.7165531013 0 5 -0.7165531013 1
gene 1 6 12 1.948904253 0 6 1.948904253 1
gene 1 7 12 0.4338163698 0 7 0.4338163698 1
gene 1 8 12 -1.941243784 0 8 -1.941243784 1
gene 1 9 12 0.723168058 0 9 0.723168058 1
gene 1 10 12 0.560987445 0 10 0.560987445 1
gene 1 11 12 -0.05004652368 0 11 -0.05004652368 0
gene 1 12 13 0.1654702786 0 12 0.1654702786 1
gene 1 12 14 0.6421627704 0 13 0.6421627704 1
gene 1 3 13 -1.632384526 0 14 -1.632384526 1
gene 1 2 14 -0.2060546129 0 16 -0.2060546129 1
gene 1 8 14 1.879486838 0 17 1.879486838 1
gene 1 9 14 -0.1614320592 0 19 -0.1614320592 1
gene 1 6 13 0.6762564806 0 20 0.6762564806 1
gene 1 11 13 -0.7581906134 0 24 -0.7581906134 1
gene 1 2 13 0.2277950952 0 26 0.2277950952 1
gene 1 7 13 0.520192147 0 27 0 1
gene 1 11 14 -0.4713938299 0 28 0 1
gene 1 5 14 -0.5719813603 0 31 -0.5719813603 1
gene 1 13 13 -0.1910089331 1 42 -0.1910089331 1
gene 1 10 14 0.1964591556 0 46 0.1964591556 1
gene 1 14 14 0.90866629 1 57 0.90866629 1
genomeend 20744
/* Novelty: 9.703576088 Fitness: 227.326889 Generation: 88 Indiv: 20994 */
/* Point: 96.86910248 50.70248795 96.86910248 50.70248795 */

/* Organism #21538 Fitness: 9.691392899 Error: 0 */
genomestart 21538
trait 1 0.700459724 0.756793918 0.3387894695 0 0.141849035 0.4496144292 0 0.3986775951 
node 1 1 1 3
node 2 1 1 1
node 3 1 1 1
node 4 1 1 1
node 5 1 1 1
node 6 1 1 1
node 7 1 1 1
node 8 1 1 1
node 9 1 1 1
node 10 1 1 1
node 11 1 1 1
node 12 1 0 0
node 13 1 0 2
node 14 1 0 2
gene 1 1 12 -0.2443110318 0 1 -0.2443110318 1
gene 1 2 12 1.085959972 0 2 1.085959972 1
gene 1 3 12 0.6630457665 0 3 0.6630457665 1
gene 1 4 12 0.1734701921 0 4 0.1734701921 1
gene 1 5 12 -0.9904733738 0 5 -0.9904733738 1
gene 1 6 12 1.316669474 0 6 1.316669474 1
gene 1 7 12 -0.3981205517 0 7 -0.3981205517 1
gene 1 8 12 0.4952276176 0 8 0.4952276176 1
gene 1 9 12 1.21083559 0 9 1.21083559 1
gene 1 10 12 0.9817845954 0 10 0.9817845954 1
gene 1 11 12 -0.3428171327 0 11 -0.3428171327 0
gene 1 12 13 0.1865958352 0 12 0.1865958352 1
gene 1 12 14 0.2689119615 0 13 0.2689119615 1
gene 1 3 13 -1.532140282 0 14 -1.532140282 1
gene 1 2 14 0.05928907104 0 16 0.05928907104 1
gene 1 8 14 1.882553125 0 17 1.882553125 1
gene 1 9 14 -0.1614320592 0 19 -0.1614320592 1
gene 1 6 13 1.216264796 0 20 1.216264796 1
gene 1 11 13 0.1514387947 0 24 0.1514387947 1
gene 1 2 13 -0.282037681 0 26 -0.282037681 1
gene 1 7 13 0.7368710652 0 27 0.7368710652 1
gene 1 11 14 0.3266319463 0 28 0.3266319463 1
gene 1 5 14 0.1337446232 0 31 0.1337446232 1
gene 1 13 13 -0.5593746636 1 42 -0.5593746636 1
gene 1 10 14 0.2428929636 0 46 0.2428929636 1
gene 1 14 14 0.5958149037 1 57 0.5958149037 1
genomeend 21538
/* Novelty: 9.691392899 Fitness: 229.7004242 Generation: 88 Indiv: 21788 */
/* Point: 93.67432404 51.84273529 93.67432404 51.84273529 */

/* Organism #17975 Fitness: 9.600199699 Error: 0 */
genomestart 17975
trait 1 0.700459724 0.7316302635 1 0.04992773433 0.4112880102 0.2358740896 0.07197267535 0.8965486822 
node 1 1 1 3
node 2 1 1 1
node 3 1 1 1
node 4 1 1 1
node 5 1 1 1
node 6 1 1 1
node 7 1 1 1
node 8 1 1 1
node 9 1 1 1
node 10 1 1 1
node 11 1 1 1
node 12 1 0 0
node 13 1 0 2
node 14 1 0 2
gene 1 1 12 0.7136535335 0 1 0.7136535335 1
gene 1 2 12 0.6298526013 0 2 0.6298526013 1
gene 1 3 12 -0.3210473555 0 3 -0.3210473555 1
gene 1 4 12 -2.100526483 0 4 -2.100526483 1
gene 1 5 12 -0.843401661 0 5 -0.843401661 1
gene 1 6 12 1.525560216 0 6 1.525560216 1
gene 1 7 12 0.3522684543 0 7 0.3522684543 1
gene 1 8 12 -1.941073651 0 8 -1.941073651 0
gene 1 9 12 0.7314121337 0 9 0.7314121337 1
gene 1 10 12 0.6028305866 0 10 0.6028305866 1
gene 1 11 12 -0.4717844961 0 11 -0.4717844961 1
gene 1 12 13 0.1600146514 0 12 0.1600146514 1
gene 1 12 14 0.5122031271 0 13 0.5122031271 1
gene 1 3 13 -1.648115256 0 14 -1.648115256 1
gene 1 2 14 -0.3239162683 0 16 -0.3239162683 1
gene 1 8 14 1.867638569 0 17 1.867638569 1
gene 1 9 14 -0.1529070235 0 19 -0.1529070235 1
gene 1 6 13 0.7647834048 0 20 0.7647834048 1
gene 1 11 13 -0.6445728848 0 24 -0.6445728848 1
gene 1 2 13 0.1228825979 0 26 0.1228825979 1
gene 1 7 13 0.520192147 0 27 0 1
gene 1 5 14 -0.3744401049 0 31 -0.3744401049 1
gene 1 13 13 -0.1871161201 1 42 -0.1871161201 1
gene 1 10 14 0.119707296 0 46 0.1657624126 1
gene 1 14 14 0.6673108 1 57 0.6673108 1
gene 1 12 12 -0.5703052346 1 334 -0.5703052346 1
genomeend 17975
/* Novelty: 9.600199699 Fitness: 221.0298462 Generation: 88 Indiv: 18225 */
/* Point: 87.34794617 75.32807159 87.34794617 75.32807159 */

/* Organism #20172 Fitness: 9.600199699 Error: 0 */
genomestart 20172
trait 1 1 0.7316302635 1 0 0.4112880102 0.7338483747 0.07197267535 0.8965486822 
node 1 1 1 3
node 2 1 1 1
node 3 1 1 1
node 4 1 1 1
node 5 1 1 1
node 6 1 1 1
node 7 1 1 1
node 8 1 1 1
node 9 1 1 1
node 10 1 1 1
node 11 1 1 1
node 12 1 0 0
node 13 1 0 2
node 14 1 0 2
gene 1 1 12 0.7136535335 0 1 0.7136535335 1
gene 1 2 12 0.6298526013 0 2 0.6298526013 1
gene 1 3 12 -0.3210473555 0 3 -0.3210473555 1
gene 1 4 12 -2.100526483 0 4 -2.100526483 1
gene 1 5 12 -0.843401661 0 5 -0.843401661 1
gene 1 6 12 1.525560216 0 6 1.525560216 1
gene 1 7 12 0.3522684543 0 7 0.3522684543 1
gene 1 8 12 -1.941073651 0 8 -1.941073651 0
gene 1 9 12 0.7314121337 0 9 0.7314121337 1
gene 1 10 12 0.6028305866 0 10 0.6028305866 1
gene 1 11 12 -0.4717844961 0 11 -0.4717844961 1
gene 1 12 13 0.1600146514 0 12 0.1600146514 1
gene 1 12 14 0.5122031271 0 13 0.5122031271 1
gene 1 3 13 -1.648115256 0 14 -1.648115256 1
gene 1 2 14 -0.3239162683 0 16 -0.3239162683 1
gene 1 8 14 1.867638569 0 17 1.867638569 1
gene 1 9 14 -0.1529070235 0 19 -0.1529070235 1
gene 1 6 13 0.7647834048 0 20 0.7647834048 1
gene 1 11 13 -0.6445728848 0 24 -0.6445728848 1
gene 1 2 13 0.1228825979 0 26 0.1228825979 1
gene 1 7 13 0.520192147 0 27 0 1
gene 1 5 14 -0.3744401049 0 31 -0.3744401049 1
gene 1 13 13 -0.1871161201 1 42 -0.1871161201 1
gene 1 10 14 0.119707296 0 46 0.1657624126 1
gene 1 14 14 0.6673108 1 57 0.6673108 1
gene 1 12 12 -0.5703052346 1 334 -0.5703052346 1
genomeend 20172
/* Novelty: 9.600199699 Fitness: 221.0298462 Generation: 88 Indiv: 20422 */
/* Point: 87.34794617 75.32807159 87.34794617 75.32807159 */

/* Organism #16167 Fitness: 9.600199699 Error: 0 */
genomestart 16167
trait 1 0.700459724 0.7316302635 0.9161473578 0 0.4112880102 0.2358740896 0.07197267535 0.006391296515 
node 1 1 1 3
node 2 1 1 1
node 3 1 1 1
node 4 1 1 1
node 5 1 1 1
node 6 1 1 1
node 7 1 1 1
node 8 1 1 1
node 9 1 1 1
node 10 1 1 1
node 11 1 1 1
node 12 1 0 0
node 13 1 0 2
node 14 1 0 2
gene 1 1 12 0.7136535335 0 1 0.7136535335 1
gene 1 2 12 0.6298526013 0 2 0.6298526013 1
gene 1 3 12 -0.3210473555 0 3 -0.3210473555 1
gene 1 4 12 -2.100526483 0 4 -2.100526483 1
gene 1 5 12 -0.843401661 0 5 -0.843401661 1
gene 1 6 12 1.525560216 0 6 1.525560216 1
gene 1 7 12 0.3522684543 0 7 0.3522684543 1
gene 1 8 12 -1.941073651 0 8 -1.941073651 0
gene 1 9 12 0.7314121337 0 9 0.7314121337 1
gene 1 10 12 0.6028305866 0 10 0.6028305866 1
gene 1 11 12 -0.4717844961 0 11 -0.4717844961 1
gene 1 12 13 0.1600146514 0 12 0.1600146514 1
gene 1 12 14 0.5122031271 0 13 0.5122031271 1
gene 1 3 13 -1.648115256 0 14 -1.648115256 1
gene 1 2 14 -0.3239162683 0 16 -0.3239162683 1
gene 1 8 14 1.867638569 0 17 1.867638569 1
gene 1 9 14 -0.1529070235 0 19 -0.1529070235 1
gene 1 6 13 0.7647834048 0 20 0.7647834048 1
gene 1 11 13 -0.6445728848 0 24 -0.6445728848 1
gene 1 2 13 0.1228825979 0 26 0.1228825979 1
gene 1 7 13 0.520192147 0 27 0 1
gene 1 5 14 -0.3744401049 0 31 -0.3744401049 1
gene 1 13 13 -0.1871161201 1 42 -0.1871161201 1
gene 1 10 14 0.119707296 0 46 0.1657624126 1
gene 1 14 14 0.6673108 1 57 0.6673108 1
gene 1 12 12 -0.5703052346 1 334 -0.5703052346 1
genomeend 16167
/* Novelty: 9.600199699 Fitness: 221.0298462 Generation: 88 Indiv: 16417 */
/* Point: 87.34794617 75.32807159 87.34794617 75.32807159 */

/* Organism #20391 Fitness: 9.445181847 Error: 0 */
genomestart 20391
trait 1 0.700459724 0.7576561245 0.7631431127 0.01248193358 0.3559685881 0.1713721297 0.02358925591 0.3238065693 
node 1 1 1 3
node 2 1 1 1
node 3 1 1 1
node 4 1 1 1
node 5 1 1 1
node 6 1 1 1
node 7 1 1 1
node 8 1 1 1
node 9 1 1 1
node 10 1 1 1
node 11 1 1 1
node 12 1 0 0
node 13 1 0 2
node 14 1 0 2
gene 1 1 12 0.838680326 0 1 0.838680326 1
gene 1 2 12 0.3120443273 0 2 0.3120443273 1
gene 1 3 12 -0.4891523917 0 3 -0.4891523917 1
gene 1 4 12 -1.819159194 0 4 -1.819159194 1
gene 1 5 12 -0.8188150155 0 5 -0.8188150155 1
gene 1 6 12 1.70429965 0 6 1.70429965 1
gene 1 7 12 0.4339777398 0 7 0.4339777398 1
gene 1 8 12 -1.750319051 0 8 -1.750319051 1
gene 1 9 12 0.9298424963 0 9 0.9298424963 1
gene 1 10 12 0.7252678003 0 10 0.7252678003 1
gene 1 11 12 -0.307378245 0 11 -0.307378245 1
gene 1 12 13 0.05809975713 0 12 0.05809975713 1
gene 1 12 14 0.6826774732 0 13 0.6826774732 1
gene 1 3 13 -1.46902237 0 14 -1.46902237 1
gene 1 2 14 -0.4494410094 0 16 -0.4494410094 1
gene 1 8 14 1.8129484 0 17 1.8129484 1
gene 1 9 14 -0.121264256 0 19 -0.121264256 1
gene 1 6 13 0.7770926649 0 20 0.7770926649 1
gene 1 11 13 -0.8529802987 0 24 -0.8529802987 1
gene 1 2 13 0.2337034608 0 26 0.2337034608 1
gene 1 7 13 0.365498834 0 27 -0.02464527626 1
gene 1 11 14 -0.4713938299 0 28 0 1
gene 1 5 14 -0.7032718812 0 31 -0.7032718812 1
gene 1 4 14 0.6531059857 0 32 0 1
gene 1 13 13 -0.1398162751 1 42 -0.1398162751 1
gene 1 10 14 0.3749122379 0 46 0.386426017 1
gene 1 3 14 -0.1423011441 0 52 0 1
gene 1 14 14 0.748902119 1 57 0.748902119 1
gene 1 12 12 -0.5703052346 1 334 -0.5703052346 1
genomeend 20391
/* Novelty: 9.445181847 Fitness: 191.6051331 Generation: 88 Indiv: 20641 */
/* Point: 132.6766815 57.56724167 132.6766815 57.56724167 */

/* Organism #21189 Fitness: 9.289465904 Error: 0 */
genomestart 21189
trait 1 0.700459724 0.7711001582 0.4601898773 0.1734030201 0.4353686537 0.4646465976 0.2306862812 0.4055546058 
node 1 1 1 3
node 2 1 1 1
node 3 1 1 1
node 4 1 1 1
node 5 1 1 1
node 6 1 1 1
node 7 1 1 1
node 8 1 1 1
node 9 1 1 1
node 10 1 1 1
node 11 1 1 1
node 12 1 0 0
node 13 1 0 2
node 14 1 0 2
gene 1 1 12 1.125306419 0 1 1.125306419 1
gene 1 2 12 0.4709146861 0 2 0.4709146861 1
gene 1 3 12 -0.5151801741 0 3 -0.5151801741 1
gene 1 4 12 -1.952149801 0 4 -1.952149801 1
gene 1 5 12 -0.7165531013 0 5 -0.7165531013 1
gene 1 6 12 1.948904253 0 6 1.948904253 1
gene 1 7 12 0.4338163698 0 7 0.4338163698 1
gene 1 8 12 -1.941243784 0 8 -1.941243784 0
gene 1 9 12 0.7396562093 0 9 0.7396562093 1
gene 1 10 12 0.6155807958 0 10 0.6155807958 1
gene 1 11 12 -0.05004652368 0 11 -0.05004652368 1
gene 1 12 13 0.1691073635 0 12 0.1691073635 1
gene 1 12 14 0.6421627704 0 13 0.6421627704 1
gene 1 3 13 -1.621897372 0 14 -1.621897372 1
gene 1 2 14 -0.2060546129 0 16 -0.2060546129 1
gene 1 8 14 1.879486838 0 17 1.879486838 1
gene 1 9 14 -0.1671154163 0 19 -0.1671154163 1
gene 1 6 13 0.6762564806 0 20 0.6762564806 1
gene 1 11 13 -0.7581906134 0 24 -0.7581906134 1
gene 1 2 13 0.3333127502 0 26 0.3333127502 0
gene 1 7 13 0.520192147 0 27 0 1
gene 1 5 14 -0.8128824733 0 31 -0.8128824733 1
gene 1 13 13 -0.2712632494 1 42 -0.2712632494 1
gene 1 10 14 0.1964591556 0 46 0.1964591556 1
gene 1 14 14 1.06956995 1 57 1.06956995 1
genomeend 21189
/* Novelty: 9.289465904 Fitness: 148.8638916 Generation: 88 Indiv: 21439 */
/* Point: 179.6995239 47.02909088 179.6995239 47.02909088 */

/* Organism #20830 Fitness: 9.211772919 Error: 0 */
genomestart 20830
trait 1 0.700459724 0.7711001582 0.06348826392 0.3468060402 0.4353686537 0.9292931952 0.4501803882 0.8111092117 
node 1 1 1 3
node 2 1 1 1
node 3 1 1 1
node 4 1 1 1
node 5 1 1 1
node 6 1 1 1
node 7 1 1 1
node 8 1 1 1
node 9 1 1 1
node 10 1 1 1
node 11 1 1 1
node 12 1 0 0
node 13 1 0 2
node 14 1 0 2
gene 1 1 12 1.125306419 0 1 1.125306419 1
gene 1 2 12 0.4709146861 0 2 0.4709146861 1
gene 1 3 12 -0.5151801741 0 3 -0.5151801741 1
gene 1 4 12 -1.952149801 0 4 -1.952149801 1
gene 1 5 12 -0.7165531013 0 5 -0.7165531013 1
gene 1 6 12 1.948904253 0 6 1.948904253 1
gene 1 7 12 0.4338163698 0 7 0.4338163698 1
gene 1 8 12 -1.941243784 0 8 -1.941243784 0
gene 1 9 12 0.7396562093 0 9 0.7396562093 1
gene 1 10 12 0.6155807958 0 10 0.6155807958 1
gene 1 11 12 -0.05004652368 0 11 -0.05004652368 1
gene 1 12 13 0.1691073635 0 12 0.1691073635 1
gene 1 12 14 0.6421627704 0 13 0.6421627704 1
gene 1 3 13 -1.621897372 0 14 -1.621897372 1
gene 1 2 14 -0.2060546129 0 16 -0.2060546129 1
gene 1 8 14 1.879486838 0 17 1.879486838 1
gene 1 9 14 -0.1671154163 0 19 -0.1671154163 1
gene 1 6 13 0.6762564806 0 20 0.6762564806 1
gene 1 11 13 -0.7581906134 0 24 -0.7581906134 1
gene 1 2 13 0.3333127502 0 26 0.3333127502 1
gene 1 7 13 0.520192147 0 27 0 1
gene 1 5 14 -0.8128824733 0 31 -0.8128824733 1
gene 1 13 13 -0.2712632494 1 42 -0.2712632494 1
gene 1 10 14 0.1964591556 0 46 0.1964591556 1
gene 1 14 14 1.06956995 1 57 1.06956995 1
genomeend 20830
/* Novelty: 9.211772919 Fitness: 149.4794464 Generation: 88 Indiv: 21080 */
/* Point: 179.6319275 43.7694664 179.6319275 43.7694664 */

/* Organism #18363 Fitness: 9.211772919 Error: 0 */
genomestart 18363
trait 1 0.700459724 0.7711001582 0.8568914907 0 0.4353686537 0 0.01119217414 0 
node 1 1 1 3
node 2 1 1 1
node 3 1 1 1
node 4 1 1 1
node 5 1 1 1
node 6 1 1 1
node 7 1 1 1
node 8 1 1 1
node 9 1 1 1
node 10 1 1 1
node 11 1 1 1
node 12 1 0 0
node 13 1 0 2
node 14 1 0 2
gene 1 1 12 1.125306419 0 1 1.125306419 1
gene 1 2 12 0.4709146861 0 2 0.4709146861 1
gene 1 3 12 -0.5151801741 0 3 -0.5151801741 1
gene 1 4 12 -1.952149801 0 4 -1.952149801 1
gene 1 5 12 -0.7165531013 0 5 -0.7165531013 1
gene 1 6 12 1.948904253 0 6 1.948904253 1
gene 1 7 12 0.4338163698 0 7 0.4338163698 1
gene 1 8 12 -1.941243784 0 8 -1.941243784 1
gene 1 9 12 0.7396562093 0 9 0.7396562093 1
gene 1 10 12 0.6155807958 0 10 0.6155807958 1
gene 1 11 12 -0.05004652368 0 11 -0.05004652368 1
gene 1 12 13 0.1691073635 0 12 0.1691073635 1
gene 1 12 14 0.6421627704 0 13 0.6421627704 1
gene 1 3 13 -1.621897372 0 14 -1.621897372 1
gene 1 2 14 -0.2060546129 0 16 -0.2060546129 1
gene 1 8 14 1.879486838 0 17 1.879486838 1
gene 1 9 14 -0.1671154163 0 19 -0.1671154163 1
gene 1 6 13 0.6762564806 0 20 0.6762564806 1
gene 1 11 13 -0.7581906134 0 24 -0.7581906134 1
gene 1 2 13 0.3333127502 0 26 0.3333127502 1
gene 1 7 13 0.520192147 0 27 0 1
gene 1 5 14 -0.8128824733 0 31 -0.8128824733 1
gene 1 13 13 -0.2712632494 1 42 -0.2712632494 1
gene 1 10 14 0.1964591556 0 46 0.1964591556 1
gene 1 14 14 1.06956995 1 57 1.06956995 1
genomeend 18363
/* Novelty: 9.211772919 Fitness: 149.4794464 Generation: 88 Indiv: 18613 */
/* Point: 179.6319275 43.7694664 179.6319275 43.7694664 */

/* Organism #20096 Fitness: 9.211772919 Error: 0 */
genomestart 20096
trait 1 0.700459724 0.7711001582 0.8568914907 0 0.4353686537 0 0.01119217414 0 
node 1 1 1 3
node 2 1 1 1
node 3 1 1 1
node 4 1 1 1
node 5 1 1 1
node 6 1 1 1
node 7 1 1 1
node 8 1 1 1
node 9 1 1 1
node 10 1 1 1
node 11 1 1 1
node 12 1 0 0
node 13 1 0 2
node 14 1 0 2
gene 1 1 12 1.125306419 0 1 1.125306419 1
gene 1 2 12 0.4709146861 0 2 0.4709146861 1
gene 1 3 12 -0.5151801741 0 3 -0.5151801741 1
gene 1 4 12 -1.952149801 0 4 -1.952149801 1
gene 1 5 12 -0.7165531013 0 5 -0.7165531013 1
gene 1 6 12 1.948904253 0 6 1.948904253 1
gene 1 7 12 0.4338163698 0 7 0.4338163698 1
gene 1 8 12 -1.941243784 0 8 -1.941243784 0
gene 1 9 12 0.7396562093 0 9 0.7396562093 1
gene 1 10 12 0.6155807958 0 10 0.6155807958 1
gene 1 11 12 -0.05004652368 0 11 -0.05004652368 1
gene 1 12 13 0.1691073635 0 12 0.1691073635 1
gene 1 12 14 0.6421627704 0 13 0.6421627704 1
gene 1 3 13 -1.621897372 0 14 -1.621897372 1
gene 1 2 14 -0.2060546129 0 16 -0.2060546129 1
gene 1 8 14 1.879486838 0 17 1.879486838 1
gene 1 9 14 -0.1671154163 0 19 -0.1671154163 1
gene 1 6 13 0.6762564806 0 20 0.6762564806 1
gene 1 11 13 -0.7581906134 0 24 -0.7581906134 1
gene 1 2 13 0.3333127502 0 26 0.3333127502 1
gene 1 7 13 0.520192147 0 27 0 1
gene 1 5 14 -0.8128824733 0 31 -0.8128824733 1
gene 1 13 13 -0.2712632494 1 42 -0.2712632494 1
gene 1 10 14 0.1964591556 0 46 0.1964591556 1
gene 1 14 14 1.06956995 1 57 1.06956995 1
genomeend 20096
/* Novelty: 9.211772919 Fitness: 149.4794464 Generation: 88 Indiv: 20346 */
/* Point: 179.6319275 43.7694664 179.6319275 43.7694664 */

/* Organism #21613 Fitness: 9.211772919 Error: 0 */
genomestart 21613
trait 1 0.700459724 0.7711001582 0.8568914907 0 0.4353686537 0 0.01119217414 0 
node 1 1 1 3
node 2 1 1 1
node 3 1 1 1
node 4 1 1 1
node 5 1 1 1
node 6 1 1 1
node 7 1 1 1
node 8 1 1 1
node 9 1 1 1
node 10 1 1 1
node 11 1 1 1
node 12 1 0 0
node 13 1 0 2
node 14 1 0 2
gene 1 1 12 1.125306419 0 1 1.125306419 1
gene 1 2 12 0.4709146861 0 2 0.4709146861 1
gene 1 3 12 -0.5151801741 0 3 -0.5151801741 1
gene 1 4 12 -1.952149801 0 4 -1.952149801 1
gene 1 5 12 -0.7165531013 0 5 -0.7165531013 1
gene 1 6 12 1.948904253 0 6 1.948904253 1
gene 1 7 12 0.4338163698 0 7 0.4338163698 1
gene 1 8 12 -1.941243784 0 8 -1.941243784 0
gene 1 9 12 0.7396562093 0 9 0.7396562093 1
gene 1 10 12 0.6155807958 0 10 0.6155807958 1
gene 1 11 12 -0.05004652368 0 11 -0.05004652368 1
gene 1 12 13 0.1691073635 0 12 0.1691073635 1
gene 1 12 14 0.6421627704 0 13 0.6421627704 1
gene 1 3 13 -1.621897372 0 14 -1.621897372 1
gene 1 2 14 -0.2060546129 0 16 -0.2060546129 1
gene 1 8 14 1.879486838 0 17 1.879486838 1
gene 1 9 14 -0.1671154163 0 19 -0.1671154163 1
gene 1 6 13 0.6762564806 0 20 0.6762564806 1
gene 1 11 13 -0.7581906134 0 24 -0.7581906134 1
gene 1 2 13 0.3333127502 0 26 0.3333127502 1
gene 1 7 13 0.520192147 0 27 0 1
gene 1 5 14 -0.8128824733 0 31 -0.8128824733 1
gene 1 13 13 -0.2712632494 1 42 -0.2712632494 1
gene 1 10 14 0.1964591556 0 46 0.1964591556 1
gene 1 14 14 1.06956995 1 57 1.06956995 1
genomeend 21613
/* Novelty: 9.211772919 Fitness: 149.4794464 Generation: 88 Indiv: 21863 */
/* Point: 179.6319275 43.7694664 179.6319275 43.7694664 */

/* Organism #19199 Fitness: 9.208948135 Error: 0 */
genomestart 19199
trait 1 0.700459724 0.7316302635 1 0.04992773433 0.4112880102 0.2358740896 0.07197267535 0.8965486822 
node 1 1 1 3
node 2 1 1 1
node 3 1 1 1
node 4 1 1 1
node 5 1 1 1
node 6 1 1 1
node 7 1 1 1
node 8 1 1 1
node 9 1 1 1
node 10 1 1 1
node 11 1 1 1
node 12 1 0 0
node 13 1 0 2
node 14 1 0 2
gene 1 1 12 0.7136535335 0 1 0.7136535335 1
gene 1 2 12 0.6298526013 0 2 0.6298526013 1
gene 1 3 12 -0.3210473555 0 3 -0.3210473555 1
gene 1 4 12 -2.100526483 0 4 -2.100526483 1
gene 1 5 12 -0.843401661 0 5 -0.843401661 1
gene 1 6 12 1.525560216 0 6 1.525560216 1
gene 1 7 12 0.3522684543 0 7 0.3522684543 1
gene 1 8 12 -1.941073651 0 8 -1.941073651 0
gene 1 9 12 0.7314121337 0 9 0.7314121337 1
gene 1 10 12 0.6028305866 0 10 0.6028305866 1
gene 1 11 12 -0.4717844961 0 11 -0.4717844961 1
gene 1 12 13 0.1600146514 0 12 0.1600146514 1
gene 1 12 14 0.5122031271 0 13 0.5122031271 1
gene 1 3 13 -1.648115256 0 14 -1.648115256 1
gene 1 2 14 -0.3239162683 0 16 -0.3239162683 1
gene 1 8 14 1.867638569 0 17 1.867638569 1
gene 1 9 14 -0.1529070235 0 19 -0.1529070235 1
gene 1 6 13 0.7647834048 0 20 0.7647834048 1
gene 1 11 13 -0.6445728848 0 24 -0.6445728848 1
gene 1 2 13 0.1228825979 0 26 0.1228825979 1
gene 1 7 13 0.520192147 0 27 0 1
gene 1 5 14 -0.3744401049 0 31 -0.3744401049 1
gene 1 13 13 -0.1871161201 1 42 -0.1871161201 1
gene 1 10 14 0.119707296 0 46 0.1657624126 1
gene 1 3 14 -0.1423011441 0 52 0 1
gene 1 14 14 0.6673108 1 57 0.6673108 1
gene 1 12 12 -0.5703052346 1 334 -0.5703052346 1
genomeend 19199
/* Novelty: 9.208948135 Fitness: 237.1529846 Generation: 88 Indiv: 19449 */
/* Point: 64.7852478 72.99344635 64.7852478 72.99344635 */

/* Organism #19290 Fitness: 9.208948135 Error: 0 */
genomestart 19290
trait 1 0.700459724 0.7316302635 0.9580736789 0.02496386716 0.4112880102 0.2358740896 0.07197267535 0.4514699894 
node 1 1 1 3
node 2 1 1 1
node 3 1 1 1
node 4 1 1 1
node 5 1 1 1
node 6 1 1 1
node 7 1 1 1
node 8 1 1 1
node 9 1 1 1
node 10 1 1 1
node 11 1 1 1
node 12 1 0 0
node 13 1 0 2
node 14 1 0 2
gene 1 1 12 0.7136535335 0 1 0.7136535335 1
gene 1 2 12 0.6298526013 0 2 0.6298526013 1
gene 1 3 12 -0.3210473555 0 3 -0.3210473555 1
gene 1 4 12 -2.100526483 0 4 -2.100526483 1
gene 1 5 12 -0.843401661 0 5 -0.843401661 1
gene 1 6 12 1.525560216 0 6 1.525560216 1
gene 1 7 12 0.3522684543 0 7 0.3522684543 1
gene 1 8 12 -1.941073651 0 8 -1.941073651 0
gene 1 9 12 0.7314121337 0 9 0.7314121337 1
gene 1 10 12 0.6028305866 0 10 0.6028305866 1
gene 1 11 12 -0.4717844961 0 11 -0.4717844961 1
gene 1 12 13 0.1600146514 0 12 0.1600146514 1
gene 1 12 14 0.5122031271 0 13 0.5122031271 1
gene 1 3 13 -1.648115256 0 14 -1.648115256 1
gene 1 2 14 -0.3239162683 0 16 -0.3239162683 1
gene 1 8 14 1.867638569 0 17 1.867638569 1
gene 1 9 14 -0.1529070235 0 19 -0.1529070235 1
gene 1 6 13 0.7647834048 0 20 0.7647834048 1
gene 1 11 13 -0.6445728848 0 24 -0.6445728848 1
gene 1 2 13 0.1228825979 0 26 0.1228825979 1
gene 1 7 13 0.520192147 0 27 0 1
gene 1 5 14 -0.3744401049 0 31 -0.3744401049 1
gene 1 13 13 -0.1871161201 1 42 -0.1871161201 1
gene 1 10 14 0.119707296 0 46 0.1657624126 1
gene 1 3 14 -0.1423011441 0 52 0 1
gene 1 14 14 0.6673108 1 57 0.6673108 1
gene 1 12 12 -0.5703052346 1 334 -0.5703052346 1
genomeend 19290
/* Novelty: 9.208948135 Fitness: 237.1529846 Generation: 88 Indiv: 19540 */
/* Point: 64.7852478 72.99344635 64.7852478 72.99344635 */

/* Organism #19666 Fitness: 9.208948135 Error: 0 */
genomestart 19666
trait 1 0.700459724 0.7316302635 1 0.04992773433 0.4112880102 0.2358740896 0.07197267535 0.8965486822 
node 1 1 1 3
node 2 1 1 1
node 3 1 1 1
node 4 1 1 1
node 5 1 1 1
node 6 1 1 1
node 7 1 1 1
node 8 1 1 1
node 9 1 1 1
node 10 1 1 1
node 11 1 1 1
node 12 1 0 0
node 13 1 0 2
node 14 1 0 2
gene 1 1 12 0.7136535335 0 1 0.7136535335 1
gene 1 2 12 0.6298526013 0 2 0.6298526013 1
gene 1 3 12 -0.3210473555 0 3 -0.3210473555 1
gene 1 4 12 -2.100526483 0 4 -2.100526483 1
gene 1 5 12 -0.843401661 0 5 -0.843401661 1
gene 1 6 12 1.525560216 0 6 1.525560216 1
gene 1 7 12 0.3522684543 0 7 0.3522684543 1
gene 1 8 12 -1.941073651 0 8 -1.941073651 0
gene 1 9 12 0.7314121337 0 9 0.7314121337 1
gene 1 10 12 0.6028305866 0 10 0.6028305866 1
gene 1 11 12 -0.4717844961 0 11 -0.4717844961 1
gene 1 12 13 0.1600146514 0 12 0.1600146514 1
gene 1 12 14 0.5122031271 0 13 0.5122031271 1
gene 1 3 13 -1.648115256 0 14 -1.648115256 1
gene 1 2 14 -0.3239162683 0 16 -0.3239162683 1
gene 1 8 14 1.867638569 0 17 1.867638569 1
gene 1 9 14 -0.1529070235 0 19 -0.1529070235 1
gene 1 6 13 0.7647834048 0 20 0.7647834048 1
gene 1 11 13 -0.6445728848 0 24 -0.6445728848 1
gene 1 2 13 0.1228825979 0 26 0.1228825979 1
gene 1 7 13 0.520192147 0 27 0 1
gene 1 5 14 -0.3744401049 0 31 -0.3744401049 1
gene 1 13 13 -0.1871161201 1 42 -0.1871161201 1
gene 1 10 14 0.119707296 0 46 0.1657624126 1
gene 1 3 14 -0.1423011441 0 52 0 1
gene 1 14 14 0.6673108 1 57 0.6673108 1
gene 1 12 12 -0.5703052346 1 334 -0.5703052346 1
genomeend 19666
/* Novelty: 9.208948135 Fitness: 237.1529846 Generation: 88 Indiv: 19916 */
/* Point: 64.7852478 72.99344635 64.7852478 72.99344635 */

/* Organism #19445 Fitness: 9.178472519 Error: 0 */
genomestart 19445
trait 1 0.700459724 0.756793918 0.6067847619 0 0.2823944847 0.2444499994 0.06397571143 0.1993387976 
node 1 1 1 3
node 2 1 1 1
node 3 1 1 1
node 4 1 1 1
node 5 1 1 1
node 6 1 1 1
node 7 1 1 1
node 8 1 1 1
node 9 1 1 1
node 10 1 1 1
node 11 1 1 1
node 12 1 0 0
node 13 1 0 2
node 14 1 0 2
gene 1 1 12 0.9216135162 0 1 0.9216135162 1
gene 1 2 12 0.614487613 0 2 0.614487613 1
gene 1 3 12 -0.4201873869 0 3 -0.4201873869 1
gene 1 4 12 -2.221070514 0 4 -2.221070514 1
gene 1 5 12 -0.8594241848 0 5 -0.8594241848 1
gene 1 6 12 1.779566638 0 6 1.779566638 1
gene 1 7 12 0.4011972036 0 7 0.4011972036 1
gene 1 8 12 -1.940903519 0 8 -1.940903519 1
gene 1 9 12 0.723168058 0 9 0.723168058 1
gene 1 10 12 0.560987445 0 10 0.560987445 1
gene 1 11 12 -0.3708315748 0 11 -0.3708315748 1
gene 1 12 13 0.1654702786 0 12 0.1654702786 1
gene 1 12 14 0.5542357316 0 13 0.5542357316 1
gene 1 3 13 -1.632384526 0 14 -1.632384526 1
gene 1 2 14 -0.3077803903 0 16 -0.3077803903 1
gene 1 8 14 1.87474753 0 17 1.87474753 1
gene 1 9 14 -0.1614320592 0 19 -0.1614320592 1
gene 1 6 13 0.748903328 0 20 0.748903328 1
gene 1 11 13 -0.7339118148 0 24 -0.7339118148 1
gene 1 2 13 0.2277950952 0 26 0.2277950952 1
gene 1 7 13 0.520192147 0 27 0 1
gene 1 11 14 -0.4713938299 0 28 0 1
gene 1 5 14 -0.5719813603 0 31 -0.5719813603 1
gene 1 13 13 -0.1910089331 1 42 -0.1910089331 1
gene 1 10 14 0.1657584118 0 46 0.1841804584 1
gene 1 14 14 0.90866629 1 57 0.90866629 1
genomeend 19445
/* Novelty: 9.178472519 Fitness: 204.2838745 Generation: 88 Indiv: 19695 */
/* Point: 116.1649551 63.68645859 116.1649551 63.68645859 */

/* Organism #19642 Fitness: 9.178472519 Error: 0 */
genomestart 19642
trait 1 0.700459724 0.756793918 0.3387894695 0 0.141849035 0.4496144292 0 0.3986775951 
node 1 1 1 3
node 2 1 1 1
node 3 1 1 1
node 4 1 1 1
node 5 1 1 1
node 6 1 1 1
node 7 1 1 1
node 8 1 1 1
node 9 1 1 1
node 10 1 1 1
node 11 1 1 1
node 12 1 0 0
node 13 1 0 2
node 14 1 0 2
gene 1 1 12 0.9216135162 0 1 0.9216135162 1
gene 1 2 12 0.614487613 0 2 0.614487613 1
gene 1 3 12 -0.4201873869 0 3 -0.4201873869 1
gene 1 4 12 -2.221070514 0 4 -2.221070514 1
gene 1 5 12 -0.8594241848 0 5 -0.8594241848 1
gene 1 6 12 1.779566638 0 6 1.779566638 1
gene 1 7 12 0.4011972036 0 7 0.4011972036 1
gene 1 8 12 -1.940903519 0 8 -1.940903519 1
gene 1 9 12 0.723168058 0 9 0.723168058 1
gene 1 10 12 0.560987445 0 10 0.560987445 1
gene 1 11 12 -0.3708315748 0 11 -0.3708315748 0
gene 1 12 13 0.1654702786 0 12 0.1654702786 1
gene 1 12 14 0.5542357316 0 13 0.5542357316 1
gene 1 3 13 -1.632384526 0 14 -1.632384526 1
gene 1 2 14 -0.3077803903 0 16 -0.3077803903 1
gene 1 8 14 1.87474753 0 17 1.87474753 1
gene 1 9 14 -0.1614320592 0 19 -0.1614320592 1
gene 1 6 13 0.748903328 0 20 0.748903328 1
gene 1 11 13 -0.7339118148 0 24 -0.7339118148 1
gene 1 2 13 0.2277950952 0 26 0.2277950952 1
gene 1 7 13 0.520192147 0 27 0 1
gene 1 11 14 -0.4713938299 0 28 0 1
gene 1 5 14 -0.5719813603 0 31 -0.5719813603 1
gene 1 13 13 -0.1910089331 1 42 -0.1910089331 1
gene 1 10 14 0.1657584118 0 46 0.1841804584 1
gene 1 14 14 0.90866629 1 57 0.90866629 1
genomeend 19642
/* Novelty: 9.178472519 Fitness: 204.2838745 Generation: 88 Indiv: 19892 */
/* Point: 116.1649551 63.68645859 116.1649551 63.68645859 */

/* Organism #20742 Fitness: 9.178472519 Error: 0 */
genomestart 20742
trait 1 0.700459724 0.756793918 0.3387894695 0 0.141849035 0.4496144292 0 0.3986775951 
node 1 1 1 3
node 2 1 1 1
node 3 1 1 1
node 4 1 1 1
node 5 1 1 1
node 6 1 1 1
node 7 1 1 1
node 8 1 1 1
node 9 1 1 1
node 10 1 1 1
node 11 1 1 1
node 12 1 0 0
node 13 1 0 2
node 14 1 0 2
gene 1 1 12 0.9216135162 0 1 0.9216135162 1
gene 1 2 12 0.614487613 0 2 0.614487613 1
gene 1 3 12 -0.4201873869 0 3 -0.4201873869 1
gene 1 4 12 -2.221070514 0 4 -2.221070514 1
gene 1 5 12 -0.8594241848 0 5 -0.8594241848 1
gene 1 6 12 1.779566638 0 6 1.779566638 1
gene 1 7 12 0.4011972036 0 7 0.4011972036 1
gene 1 8 12 -1.940903519 0 8 -1.940903519 1
gene 1 9 12 0.723168058 0 9 0.723168058 1
gene 1 10 12 0.560987445 0 10 0.560987445 1
gene 1 11 12 -0.3708315748 0 11 -0.3708315748 0
gene 1 12 13 0.1654702786 0 12 0.1654702786 1
gene 1 12 14 0.5542357316 0 13 0.5542357316 1
gene 1 3 13 -1.632384526 0 14 -1.632384526 1
gene 1 2 14 -0.3077803903 0 16 -0.3077803903 1
gene 1 8 14 1.87474753 0 17 1.87474753 1
gene 1 9 14 -0.1614320592 0 19 -0.1614320592 1
gene 1 6 13 0.748903328 0 20 0.748903328 1
gene 1 11 13 -0.7339118148 0 24 -0.7339118148 1
gene 1 2 13 0.2277950952 0 26 0.2277950952 1
gene 1 7 13 0.520192147 0 27 0 1
gene 1 11 14 -0.4713938299 0 28 0 1
gene 1 5 14 -0.5719813603 0 31 -0.5719813603 1
gene 1 13 13 -0.1910089331 1 42 -0.1910089331 1
gene 1 10 14 0.1657584118 0 46 0.1841804584 1
gene 1 14 14 0.90866629 1 57 0.90866629 1
genomeend 20742
/* Novelty: 9.178472519 Fitness: 204.2838745 Generation: 88 Indiv: 20992 */
/* Point: 116.1649551 63.68645859 116.1649551 63.68645859 */

/* Species #7 : (Size 15) (AF 0) (Age 1)  */


/* Organism #20081 Fitness: 9.914155006 Error: 0 */
genomestart 20081
trait 1 0.6944973642 0.608485046 0.3278869411 0 0.06127987049 0 0 0.2599263079 
node 1 1 1 3
node 2 1 1 1
node 3 1 1 1
node 4 1 1 1
node 5 1 1 1
node 6 1 1 1
node 7 1 1 1
node 8 1 1 1
node 9 1 1 1
node 10 1 1 1
node 11 1 1 1
node 12 1 0 0
node 13 1 0 2
node 14 1 0 2
gene 1 1 12 0.3589548341 0 1 0.3589548341 1
gene 1 2 12 1.305373023 0 2 1.305373023 1
gene 1 3 12 -1.727574873 0 3 -1.727574873 1
gene 1 4 12 -0.203511172 0 4 -0.203511172 1
gene 1 5 12 1.318674258 0 5 1.318674258 1
gene 1 6 12 -0.8638878011 0 6 -0.8638878011 1
gene 1 7 12 2.728903597 0 7 2.728903597 1
gene 1 8 12 0.6103440211 0 8 0.6103440211 1
gene 1 9 12 -0.1831191424 0 9 -0.1831191424 1
gene 1 10 12 -0.4794371752 0 10 -0.4794371752 1
gene 1 11 12 0.3774277503 0 11 0.3774277503 1
gene 1 12 13 -0.6393801634 0 12 -0.6393801634 0
gene 1 12 14 -0.9713353264 0 13 -0.9713353264 1
gene 1 2 14 0.5941277858 0 16 0.5941277858 1
gene 1 11 13 0.4741728803 0 24 0.4741728803 1
gene 1 6 14 -1.07949708 0 25 -1.07949708 1
gene 1 7 13 0.5647761519 0 27 0.5647761519 1
gene 1 7 14 0.8761446953 0 30 0.8761446953 1
gene 1 13 14 0.6374084178 0 33 0.6374084178 1
gene 1 9 13 0.2856004959 0 40 0.2856004959 1
gene 1 4 13 -0.1550834041 0 43 -0.1550834041 1
gene 1 14 14 0.2178753612 1 45 0.2178753612 1
gene 1 12 12 -0.6033859859 1 69 -0.6033859859 0
genomeend 20081
/* Novelty: 9.914155006 Fitness: 160.08815 Generation: 88 Indiv: 20331 */
/* Point: 82.19213104 150.2101746 82.19213104 150.2101746 */

/* Organism #19948 Fitness: 9.455147743 Error: 0 */
genomestart 19948
trait 1 0.2350444688 0.0536430586 0 0.4929659178 0 0.2759861952 0.2441653358 0.1184297346 
node 1 1 1 3
node 2 1 1 1
node 3 1 1 1
node 4 1 1 1
node 5 1 1 1
node 6 1 1 1
node 7 1 1 1
node 8 1 1 1
node 9 1 1 1
node 10 1 1 1
node 11 1 1 1
node 12 1 0 0
node 13 1 0 2
node 14 1 0 2
gene 1 1 12 -1.27074505 0 1 -1.27074505 1
gene 1 2 12 -1.878055888 0 2 -1.878055888 1
gene 1 3 12 -1.453077735 0 3 -1.453077735 1
gene 1 4 12 0.7163314076 0 4 0.7163314076 1
gene 1 5 12 1.446772013 0 5 1.446772013 1
gene 1 6 12 -1.512699513 0 6 -1.512699513 1
gene 1 7 12 2.514994135 0 7 2.514994135 1
gene 1 8 12 0.6573935821 0 8 0.6573935821 1
gene 1 9 12 0.01720100852 0 9 0.01720100852 1
gene 1 10 12 -0.2020578318 0 10 -0.2020578318 1
gene 1 11 12 1.364445432 0 11 1.364445432 1
gene 1 12 13 0.6901858729 0 12 0.6901858729 1
gene 1 12 14 1.190189093 0 13 1.190189093 1
gene 1 2 14 1.278438974 0 16 1.278438974 1
gene 1 11 13 0.2131226803 0 24 0.2131226803 1
gene 1 6 14 -0.7298775479 0 25 -0.7298775479 1
gene 1 7 13 0.4881362482 0 27 0.4881362482 1
gene 1 7 14 1.187532714 0 30 1.187532714 1
gene 1 13 14 1.025232022 0 33 1.025232022 1
gene 1 9 13 0.7391253406 0 40 0.7391253406 1
gene 1 4 13 -0.2357266848 0 43 -0.2357266848 1
gene 1 14 14 0.4766494962 1 45 0.4766494962 1
gene 1 12 12 0.280808266 1 69 0.280808266 1
gene 1 14 12 -0.5128377939 1 407 -0.5128377939 1
genomeend 19948
/* Novelty: 9.455147743 Fitness: 102.1846771 Generation: 88 Indiv: 20198 */
/* Point: 129.7936859 191.3788452 129.7936859 191.3788452 */

/* Organism #21123 Fitness: 9.455147743 Error: 0 */
genomestart 21123
trait 1 0.2350444688 0.0536430586 0 0.4929659178 0 0.2759861952 0.2441653358 0.1184297346 
node 1 1 1 3
node 2 1 1 1
node 3 1 1 1
node 4 1 1 1
node 5 1 1 1
node 6 1 1 1
node 7 1 1 1
node 8 1 1 1
node 9 1 1 1
node 10 1 1 1
node 11 1 1 1
node 12 1 0 0
node 13 1 0 2
node 14 1 0 2
gene 1 1 12 -1.27074505 0 1 -1.27074505 1
gene 1 2 12 -1.878055888 0 2 -1.878055888 1
gene 1 3 12 -1.453077735 0 3 -1.453077735 1
gene 1 4 12 0.7163314076 0 4 0.7163314076 1
gene 1 5 12 1.446772013 0 5 1.446772013 1
gene 1 6 12 -1.512699513 0 6 -1.512699513 1
gene 1 7 12 2.514994135 0 7 2.514994135 1
gene 1 8 12 0.6573935821 0 8 0.6573935821 1
gene 1 9 12 0.01720100852 0 9 0.01720100852 1
gene 1 10 12 -0.2020578318 0 10 -0.2020578318 1
gene 1 11 12 1.364445432 0 11 1.364445432 1
gene 1 12 13 0.6901858729 0 12 0.6901858729 1
gene 1 12 14 1.190189093 0 13 1.190189093 1
gene 1 2 14 1.278438974 0 16 1.278438974 1
gene 1 11 13 0.2131226803 0 24 0.2131226803 1
gene 1 6 14 -0.7298775479 0 25 -0.7298775479 1
gene 1 7 13 0.4881362482 0 27 0.4881362482 1
gene 1 7 14 1.187532714 0 30 1.187532714 1
gene 1 13 14 1.025232022 0 33 1.025232022 1
gene 1 9 13 0.7391253406 0 40 0.7391253406 1
gene 1 4 13 -0.2357266848 0 43 -0.2357266848 1
gene 1 14 14 0.4766494962 1 45 0.4766494962 1
gene 1 12 12 0.280808266 1 69 0.280808266 1
gene 1 14 12 -0.5128377939 1 407 -0.5128377939 1
genomeend 21123
/* Novelty: 9.455147743 Fitness: 102.1846771 Generation: 88 Indiv: 21373 */
/* Point: 129.7936859 191.3788452 129.7936859 191.3788452 */

/* Organism #17998 Fitness: 9.292269707 Error: 0 */
genomestart 17998
trait 1 0.2350444688 0.0536430586 0 0.4929659178 0 0.2759861952 0.2441653358 0.1184297346 
node 1 1 1 3
node 2 1 1 1
node 3 1 1 1
node 4 1 1 1
node 5 1 1 1
node 6 1 1 1
node 7 1 1 1
node 8 1 1 1
node 9 1 1 1
node 10 1 1 1
node 11 1 1 1
node 12 1 0 0
node 13 1 0 2
node 14 1 0 2
gene 1 1 12 -1.27074505 0 1 -1.27074505 1
gene 1 2 12 -1.826568919 0 2 -1.826568919 1
gene 1 3 12 -1.453077735 0 3 -1.453077735 1
gene 1 4 12 1.100262551 0 4 1.100262551 1
gene 1 5 12 1.446772013 0 5 1.446772013 1
gene 1 6 12 -1.512699513 0 6 -1.512699513 1
gene 1 7 12 2.514994135 0 7 2.514994135 1
gene 1 8 12 0.6573935821 0 8 0.6573935821 1
gene 1 9 12 0.01720100852 0 9 0.01720100852 0
gene 1 10 12 0.2907628854 0 10 0.2907628854 1
gene 1 11 12 1.364445432 0 11 1.364445432 1
gene 1 12 13 0.6901858729 0 12 0.6901858729 1
gene 1 12 14 1.190189093 0 13 1.190189093 1
gene 1 2 14 1.278438974 0 16 1.278438974 1
gene 1 11 13 0.2131226803 0 24 0.2131226803 1
gene 1 6 14 -0.7298775479 0 25 -0.7298775479 1
gene 1 7 13 0.4881362482 0 27 0.4881362482 1
gene 1 7 14 1.187532714 0 30 1.187532714 1
gene 1 13 14 1.025232022 0 33 1.025232022 1
gene 1 9 13 0.7391253406 0 40 0.7391253406 1
gene 1 4 13 -0.2357266848 0 43 -0.2357266848 1
gene 1 14 14 0.4091450302 1 45 0.4091450302 1
gene 1 12 12 0.280808266 1 69 0.280808266 1
gene 1 14 12 0.7216659668 1 407 0.7216659668 1
genomeend 17998
/* Novelty: 9.292269707 Fitness: 123.7786102 Generation: 88 Indiv: 18248 */
/* Point: 110.8728714 177.0805664 110.8728714 177.0805664 */

/* Organism #20585 Fitness: 9.292269707 Error: 0 */
genomestart 20585
trait 1 0.2350444688 0.0536430586 0 0.4929659178 0 0.2759861952 0.2441653358 0.1184297346 
node 1 1 1 3
node 2 1 1 1
node 3 1 1 1
node 4 1 1 1
node 5 1 1 1
node 6 1 1 1
node 7 1 1 1
node 8 1 1 1
node 9 1 1 1
node 10 1 1 1
node 11 1 1 1
node 12 1 0 0
node 13 1 0 2
node 14 1 0 2
gene 1 1 12 -1.27074505 0 1 -1.27074505 1
gene 1 2 12 -1.826568919 0 2 -1.826568919 1
gene 1 3 12 -1.453077735 0 3 -1.453077735 1
gene 1 4 12 1.100262551 0 4 1.100262551 1
gene 1 5 12 1.446772013 0 5 1.446772013 1
gene 1 6 12 -1.512699513 0 6 -1.512699513 1
gene 1 7 12 2.514994135 0 7 2.514994135 1
gene 1 8 12 0.6573935821 0 8 0.6573935821 1
gene 1 9 12 0.01720100852 0 9 0.01720100852 0
gene 1 10 12 0.2907628854 0 10 0.2907628854 1
gene 1 11 12 1.364445432 0 11 1.364445432 1
gene 1 12 13 0.6901858729 0 12 0.6901858729 1
gene 1 12 14 1.190189093 0 13 1.190189093 1
gene 1 2 14 1.278438974 0 16 1.278438974 1
gene 1 11 13 0.2131226803 0 24 0.2131226803 1
gene 1 6 14 -0.7298775479 0 25 -0.7298775479 1
gene 1 7 13 0.4881362482 0 27 0.4881362482 1
gene 1 7 14 1.187532714 0 30 1.187532714 1
gene 1 13 14 1.025232022 0 33 1.025232022 1
gene 1 9 13 0.7391253406 0 40 0.7391253406 1
gene 1 4 13 -0.2357266848 0 43 -0.2357266848 1
gene 1 14 14 0.4091450302 1 45 0.4091450302 1
gene 1 12 12 0.280808266 1 69 0.280808266 1
gene 1 14 12 0.7216659668 1 407 0.7216659668 1
genomeend 20585
/* Novelty: 9.292269707 Fitness: 123.7786102 Generation: 88 Indiv: 20835 */
/* Point: 110.8728714 177.0805664 110.8728714 177.0805664 */

/* Organism #21396 Fitness: 9.193882942 Error: 0 */
genomestart 21396
trait 1 0.2350444688 0.0536430586 0 0.4929659178 0 0.2759861952 0.2441653358 0.1184297346 
node 1 1 1 3
node 2 1 1 1
node 3 1 1 1
node 4 1 1 1
node 5 1 1 1
node 6 1 1 1
node 7 1 1 1
node 8 1 1 1
node 9 1 1 1
node 10 1 1 1
node 11 1 1 1
node 12 1 0 0
node 13 1 0 2
node 14 1 0 2
gene 1 1 12 -1.27074505 0 1 -1.27074505 1
gene 1 2 12 0.3544032631 0 2 0.3544032631 1
gene 1 3 12 -1.741583141 0 3 -1.741583141 1
gene 1 4 12 1.100262551 0 4 1.100262551 1
gene 1 5 12 1.839569865 0 5 1.839569865 1
gene 1 6 12 -1.512699513 0 6 -1.512699513 1
gene 1 7 12 2.514994135 0 7 2.514994135 1
gene 1 8 12 0.6573935821 0 8 0.6573935821 1
gene 1 9 12 0.01720100852 0 9 0.01720100852 0
gene 1 10 12 0.1764300258 0 10 0.1764300258 1
gene 1 11 12 0.9053201027 0 11 0.9053201027 1
gene 1 12 13 0.6901858729 0 12 0.6901858729 1
gene 1 12 14 1.190189093 0 13 1.190189093 1
gene 1 2 14 1.278438974 0 16 1.278438974 1
gene 1 11 13 -0.2871696747 0 24 -0.2871696747 1
gene 1 6 14 -0.7298775479 0 25 -0.7298775479 1
gene 1 7 13 -0.01288124389 0 27 -0.01288124389 1
gene 1 11 14 -0.4713938299 0 28 0 1
gene 1 7 14 1.187532714 0 30 1.187532714 1
gene 1 13 14 1.025232022 0 33 1.025232022 1
gene 1 9 13 0.7391253406 0 40 0.7391253406 1
gene 1 4 13 -0.01442961414 0 43 -0.01442961414 1
gene 1 14 14 0.4091450302 1 45 0.4091450302 1
gene 1 12 12 -0.1894763031 1 69 -0.1894763031 1
gene 1 14 12 0.7216659668 1 407 0.7216659668 1
genomeend 21396
/* Novelty: 9.193882942 Fitness: 166.5160522 Generation: 88 Indiv: 21646 */
/* Point: 25.46849251 153.369278 25.46849251 153.369278 */

/* Organism #20797 Fitness: 9.177109718 Error: 0 */
genomestart 20797
trait 1 0.2350444688 0.0536430586 0 0.4929659178 0 0.2759861952 0.2441653358 0.1184297346 
node 1 1 1 3
node 2 1 1 1
node 3 1 1 1
node 4 1 1 1
node 5 1 1 1
node 6 1 1 1
node 7 1 1 1
node 8 1 1 1
node 9 1 1 1
node 10 1 1 1
node 11 1 1 1
node 12 1 0 0
node 13 1 0 2
node 14 1 0 2
gene 1 1 12 -1.27074505 0 1 -1.27074505 1
gene 1 2 12 -1.878055888 0 2 -1.878055888 1
gene 1 3 12 -1.453077735 0 3 -1.453077735 1
gene 1 4 12 0.7163314076 0 4 0.7163314076 1
gene 1 5 12 1.446772013 0 5 1.446772013 1
gene 1 6 12 -1.512699513 0 6 -1.512699513 1
gene 1 7 12 2.514994135 0 7 2.514994135 1
gene 1 8 12 0.6573935821 0 8 0.6573935821 1
gene 1 9 12 0.01720100852 0 9 0.01720100852 1
gene 1 10 12 -0.2020578318 0 10 -0.2020578318 1
gene 1 11 12 1.364445432 0 11 1.364445432 1
gene 1 12 13 0.6901858729 0 12 0.6901858729 1
gene 1 12 14 1.190189093 0 13 1.190189093 1
gene 1 2 14 1.278438974 0 16 1.278438974 1
gene 1 11 13 0.2131226803 0 24 0.2131226803 1
gene 1 6 14 -0.7298775479 0 25 -0.7298775479 1
gene 1 7 13 0.4881362482 0 27 0.4881362482 1
gene 1 7 14 1.187532714 0 30 1.187532714 1
gene 1 13 14 1.025232022 0 33 1.025232022 1
gene 1 9 13 0.7391253406 0 40 0.7391253406 1
gene 1 5 13 0.7832938483 0 41 0 1
gene 1 4 13 -0.2357266848 0 43 -0.2357266848 1
gene 1 14 14 0.4766494962 1 45 0.4766494962 1
gene 1 12 12 0.280808266 1 69 0.280808266 1
gene 1 14 12 -0.5128377939 1 407 -0.5128377939 1
genomeend 20797
/* Novelty: 9.177109718 Fitness: 187.3922882 Generation: 88 Indiv: 21047 */
/* Point: 47.92061234 131.3291931 47.92061234 131.3291931 */

/* Organism #20087 Fitness: 9.163553238 Error: 0 */
genomestart 20087
trait 1 0.2350444688 0.0536430586 0 0.03686682602 0 0.2759861952 0.153715326 0.1184297346 
node 1 1 1 3
node 2 1 1 1
node 3 1 1 1
node 4 1 1 1
node 5 1 1 1
node 6 1 1 1
node 7 1 1 1
node 8 1 1 1
node 9 1 1 1
node 10 1 1 1
node 11 1 1 1
node 12 1 0 0
node 13 1 0 2
node 14 1 0 2
gene 1 1 12 -0.7648172136 0 1 -0.7648172136 1
gene 1 2 12 -1.172565555 0 2 -1.172565555 1
gene 1 3 12 -2.215656866 0 3 -2.215656866 1
gene 1 4 12 -0.2922010758 0 4 -0.2922010758 1
gene 1 5 12 2.615191156 0 5 2.615191156 1
gene 1 6 12 -0.6859176795 0 6 -0.6859176795 1
gene 1 7 12 3 0 7 3 1
gene 1 8 12 -0.5473533786 0 8 -0.5473533786 1
gene 1 9 12 -0.004428943621 0 9 -0.004428943621 1
gene 1 10 12 -1.675205646 0 10 -1.675205646 1
gene 1 11 12 0.9867613793 0 11 0.9867613793 1
gene 1 12 13 1.256143057 0 12 1.256143057 1
gene 1 12 14 1.177981284 0 13 1.177981284 1
gene 1 2 14 0.1841299077 0 16 0.1841299077 1
gene 1 11 13 -0.216119796 0 24 -0.216119796 1
gene 1 6 14 -0.4329392536 0 25 -0.4329392536 1
gene 1 7 13 -0.3348562589 0 27 -0.3348562589 1
gene 1 7 14 1.862329636 0 30 1.862329636 1
gene 1 13 14 2.069355404 0 33 2.069355404 1
gene 1 9 13 1.387607886 0 40 1.387607886 1
gene 1 4 13 -0.284888125 0 43 -0.284888125 1
gene 1 14 14 0.3690410586 1 45 0.3690410586 1
gene 1 12 12 -0.04757942262 1 69 -0.04757942262 1
gene 1 14 12 0.1095415611 1 407 0.1095415611 1
genomeend 20087
/* Novelty: 9.163553238 Fitness: 86.90548706 Generation: 88 Indiv: 20337 */
/* Point: 158.6000519 190.6678009 158.6000519 190.6678009 */

/* Organism #20741 Fitness: 9.05949688 Error: 0 */
genomestart 20741
trait 1 0.2350444688 0.0536430586 0 0.4929659178 0 0.2759861952 0.2441653358 0.1184297346 
node 1 1 1 3
node 2 1 1 1
node 3 1 1 1
node 4 1 1 1
node 5 1 1 1
node 6 1 1 1
node 7 1 1 1
node 8 1 1 1
node 9 1 1 1
node 10 1 1 1
node 11 1 1 1
node 12 1 0 0
node 13 1 0 2
node 14 1 0 2
gene 1 1 12 -1.674880239 0 1 -1.674880239 1
gene 1 2 12 0.3544032631 0 2 0.3544032631 1
gene 1 3 12 -1.741583141 0 3 -1.741583141 1
gene 1 4 12 -0.4796944712 0 4 -0.4796944712 1
gene 1 5 12 1.839569865 0 5 1.839569865 1
gene 1 6 12 -1.950927946 0 6 -1.950927946 1
gene 1 7 12 2.62061635 0 7 2.62061635 1
gene 1 8 12 -0.07974487882 0 8 -0.07974487882 1
gene 1 9 12 -0.1042706814 0 9 -0.1042706814 1
gene 1 10 12 0.1764300258 0 10 0.1764300258 1
gene 1 11 12 0.9053201027 0 11 0.9053201027 1
gene 1 12 13 0.9715729905 0 12 0.9715729905 1
gene 1 12 14 0.4940622652 0 13 0.4940622652 1
gene 1 2 14 1.510557491 0 16 1.510557491 1
gene 1 11 13 -0.2871696747 0 24 -0.2871696747 1
gene 1 6 14 0.4724213796 0 25 0.4724213796 1
gene 1 7 13 -0.01288124389 0 27 -0.01288124389 1
gene 1 11 14 -0.4713938299 0 28 0 1
gene 1 7 14 0.6569546297 0 30 0.6569546297 1
gene 1 13 14 1.380817546 0 33 1.380817546 1
gene 1 9 13 0.02650244498 0 40 0.02650244498 1
gene 1 4 13 -0.01442961414 0 43 -0.01442961414 1
gene 1 14 14 1.122002867 1 45 1.122002867 1
gene 1 12 12 -0.1894763031 1 69 -0.1894763031 1
genomeend 20741
/* Novelty: 9.05949688 Fitness: 129.3898926 Generation: 88 Indiv: 20991 */
/* Point: 120.6268311 165.1717529 120.6268311 165.1717529 */

/* Organism #21194 Fitness: 9.05949688 Error: 0 */
genomestart 21194
trait 1 0.2350444688 0.0536430586 0 0.4929659178 0 0.2759861952 0.2441653358 0.1184297346 
node 1 1 1 3
node 2 1 1 1
node 3 1 1 1
node 4 1 1 1
node 5 1 1 1
node 6 1 1 1
node 7 1 1 1
node 8 1 1 1
node 9 1 1 1
node 10 1 1 1
node 11 1 1 1
node 12 1 0 0
node 13 1 0 2
node 14 1 0 2
gene 1 1 12 -1.674880239 0 1 -1.674880239 1
gene 1 2 12 0.3544032631 0 2 0.3544032631 1
gene 1 3 12 -1.741583141 0 3 -1.741583141 1
gene 1 4 12 -0.4796944712 0 4 -0.4796944712 1
gene 1 5 12 1.839569865 0 5 1.839569865 1
gene 1 6 12 -1.950927946 0 6 -1.950927946 1
gene 1 7 12 2.62061635 0 7 2.62061635 1
gene 1 8 12 -0.07974487882 0 8 -0.07974487882 1
gene 1 9 12 -0.1042706814 0 9 -0.1042706814 1
gene 1 10 12 0.1764300258 0 10 0.1764300258 1
gene 1 11 12 0.9053201027 0 11 0.9053201027 1
gene 1 12 13 0.9715729905 0 12 0.9715729905 1
gene 1 12 14 0.4940622652 0 13 0.4940622652 1
gene 1 2 14 1.510557491 0 16 1.510557491 1
gene 1 11 13 -0.2871696747 0 24 -0.2871696747 1
gene 1 6 14 0.4724213796 0 25 0.4724213796 1
gene 1 7 13 -0.01288124389 0 27 -0.01288124389 1
gene 1 11 14 -0.4713938299 0 28 0 1
gene 1 7 14 0.6569546297 0 30 0.6569546297 1
gene 1 13 14 1.380817546 0 33 1.380817546 1
gene 1 9 13 0.02650244498 0 40 0.02650244498 1
gene 1 4 13 -0.01442961414 0 43 -0.01442961414 1
gene 1 14 14 1.122002867 1 45 1.122002867 1
gene 1 12 12 -0.1894763031 1 69 -0.1894763031 1
genomeend 21194
/* Novelty: 9.05949688 Fitness: 129.3898926 Generation: 88 Indiv: 21444 */
/* Point: 120.6268311 165.1717529 120.6268311 165.1717529 */

/* Organism #19043 Fitness: 8.64228344 Error: 0 */
genomestart 19043
trait 1 1 0.0536430586 0 0.9416498178 0 0.2759861952 0.5989150398 0.1184297346 
node 1 1 1 3
node 2 1 1 1
node 3 1 1 1
node 4 1 1 1
node 5 1 1 1
node 6 1 1 1
node 7 1 1 1
node 8 1 1 1
node 9 1 1 1
node 10 1 1 1
node 11 1 1 1
node 12 1 0 0
node 13 1 0 2
node 14 1 0 2
gene 1 1 12 -0.9287320007 0 1 -0.9287320007 1
gene 1 2 12 -1.318808662 0 2 -1.318808662 1
gene 1 3 12 -0.9549729435 0 3 -0.9549729435 1
gene 1 4 12 0.9200582786 0 4 0.9200582786 1
gene 1 5 12 1.545553443 0 5 1.545553443 1
gene 1 6 12 -1.294489116 0 6 -1.294489116 1
gene 1 7 12 2.764718429 0 7 2.764718429 1
gene 1 8 12 -0.1404821877 0 8 -0.1404821877 1
gene 1 9 12 -0.6350346953 0 9 -0.6350346953 1
gene 1 10 12 0.2772389454 0 10 0.2772389454 1
gene 1 11 12 1.433922669 0 11 1.433922669 1
gene 1 12 13 1.280155083 0 12 1.280155083 1
gene 1 12 14 1.258014474 0 13 1.258014474 1
gene 1 2 14 0.7295653355 0 16 0.7295653355 1
gene 1 11 13 -0.2984423305 0 24 -0.2984423305 1
gene 1 6 14 -0.7230794139 0 25 -0.7230794139 1
gene 1 7 13 1.030998669 0 27 1.030998669 1
gene 1 7 14 1.569584777 0 30 1.569584777 1
gene 1 13 14 1.698003748 0 33 1.698003748 1
gene 1 9 13 0.2749969884 0 40 0.2749969884 1
gene 1 4 13 -0.2357266848 0 43 -0.2357266848 1
gene 1 14 14 0.391155518 1 45 0.391155518 1
gene 1 12 12 0.6660558614 1 69 0.6660558614 1
gene 1 14 12 -0.710508738 1 407 -0.710508738 1
genomeend 19043
/* Novelty: 8.64228344 Fitness: 116.2358704 Generation: 88 Indiv: 19293 */
/* Point: 95.98822021 191.8888855 95.98822021 191.8888855 */

/* Organism #20191 Fitness: 8.611206055 Error: 0 */
genomestart 20191
trait 1 0.2350444688 0.0536430586 0 0.03686682602 0 0.2759861952 0.153715326 0.1184297346 
node 1 1 1 3
node 2 1 1 1
node 3 1 1 1
node 4 1 1 1
node 5 1 1 1
node 6 1 1 1
node 7 1 1 1
node 8 1 1 1
node 9 1 1 1
node 10 1 1 1
node 11 1 1 1
node 12 1 0 0
node 13 1 0 2
node 14 1 0 2
gene 1 1 12 -0.6306043147 0 1 -0.6306043147 1
gene 1 2 12 -1.172565555 0 2 -1.172565555 1
gene 1 3 12 -1.626326865 0 3 -1.626326865 1
gene 1 4 12 -0.541769336 0 4 -0.541769336 1
gene 1 5 12 1.994310671 0 5 1.994310671 1
gene 1 6 12 -2.171705319 0 6 -2.171705319 1
gene 1 7 12 2.703054974 0 7 2.703054974 1
gene 1 8 12 0.1823474728 0 8 0.1823474728 1
gene 1 9 12 -0.5474061171 0 9 -0.5474061171 1
gene 1 10 12 -0.9275437404 0 10 -0.9275437404 1
gene 1 11 12 0.7832891028 0 11 0.7832891028 1
gene 1 12 13 1.132757508 0 12 1.132757508 1
gene 1 12 14 0.6713428765 0 13 0.6713428765 1
gene 1 2 14 0.8269569871 0 16 0.8269569871 1
gene 1 11 13 0.2131226803 0 24 0.2131226803 1
gene 1 6 14 -1.06939153 0 25 -1.06939153 1
gene 1 7 13 -0.00502685942 0 27 -0.00502685942 1
gene 1 7 14 1.808971153 0 30 1.808971153 1
gene 1 13 14 1.291553844 0 33 1.291553844 1
gene 1 9 13 0.9347529555 0 40 0.9347529555 1
gene 1 4 13 -0.2357266848 0 43 -0.2357266848 1
gene 1 14 14 -0.01032580249 1 45 -0.01032580249 1
gene 1 12 12 -0.7818887554 1 69 -0.7818887554 1
gene 1 14 12 -0.5108443553 1 407 -0.5108443553 1
genomeend 20191
/* Novelty: 8.611206055 Fitness: 116.1735229 Generation: 88 Indiv: 20441 */
/* Point: 96.91526794 191.6023102 96.91526794 191.6023102 */

/* Organism #20099 Fitness: 8.611206055 Error: 0 */
genomestart 20099
trait 1 0.2350444688 0.0536430586 0 0.03686682602 0 0.2759861952 0.153715326 0.1184297346 
node 1 1 1 3
node 2 1 1 1
node 3 1 1 1
node 4 1 1 1
node 5 1 1 1
node 6 1 1 1
node 7 1 1 1
node 8 1 1 1
node 9 1 1 1
node 10 1 1 1
node 11 1 1 1
node 12 1 0 0
node 13 1 0 2
node 14 1 0 2
gene 1 1 12 -0.6306043147 0 1 -0.6306043147 1
gene 1 2 12 -1.172565555 0 2 -1.172565555 1
gene 1 3 12 -1.626326865 0 3 -1.626326865 1
gene 1 4 12 -0.541769336 0 4 -0.541769336 1
gene 1 5 12 1.994310671 0 5 1.994310671 1
gene 1 6 12 -2.171705319 0 6 -2.171705319 1
gene 1 7 12 2.703054974 0 7 2.703054974 1
gene 1 8 12 0.1823474728 0 8 0.1823474728 1
gene 1 9 12 -0.5474061171 0 9 -0.5474061171 1
gene 1 10 12 -0.9275437404 0 10 -0.9275437404 1
gene 1 11 12 0.7832891028 0 11 0.7832891028 1
gene 1 12 13 1.132757508 0 12 1.132757508 1
gene 1 12 14 0.6713428765 0 13 0.6713428765 1
gene 1 2 14 0.8269569871 0 16 0.8269569871 1
gene 1 11 13 0.2131226803 0 24 0.2131226803 1
gene 1 6 14 -1.06939153 0 25 -1.06939153 1
gene 1 7 13 -0.00502685942 0 27 -0.00502685942 1
gene 1 7 14 1.808971153 0 30 1.808971153 1
gene 1 13 14 1.291553844 0 33 1.291553844 1
gene 1 9 13 0.9347529555 0 40 0.9347529555 1
gene 1 4 13 -0.2357266848 0 43 -0.2357266848 1
gene 1 14 14 -0.01032580249 1 45 -0.01032580249 1
gene 1 12 12 -0.7818887554 1 69 -0.7818887554 1
gene 1 14 12 -0.5108443553 1 407 -0.5108443553 1
genomeend 20099
/* Novelty: 8.611206055 Fitness: 116.1735229 Generation: 88 Indiv: 20349 */
/* Point: 96.91526794 191.6023102 96.91526794 191.6023102 */

/* Organism #20664 Fitness: 8.13093853 Error: 0 */
genomestart 20664
trait 1 0.2350444688 0.0536430586 0 0.4929659178 0 0.2759861952 0.2441653358 0.1184297346 
node 1 1 1 3
node 2 1 1 1
node 3 1 1 1
node 4 1 1 1
node 5 1 1 1
node 6 1 1 1
node 7 1 1 1
node 8 1 1 1
node 9 1 1 1
node 10 1 1 1
node 11 1 1 1
node 12 1 0 0
node 13 1 0 2
node 14 1 0 2
gene 1 1 12 -1.674880239 0 1 -1.674880239 1
gene 1 2 12 0.3544032631 0 2 0.3544032631 1
gene 1 3 12 -1.741583141 0 3 -1.741583141 1
gene 1 4 12 -0.4796944712 0 4 -0.4796944712 1
gene 1 5 12 1.839569865 0 5 1.839569865 1
gene 1 6 12 -1.950927946 0 6 -1.950927946 1
gene 1 7 12 2.62061635 0 7 2.62061635 0
gene 1 8 12 -0.07974487882 0 8 -0.07974487882 1
gene 1 9 12 -0.1042706814 0 9 -0.1042706814 1
gene 1 10 12 0.1764300258 0 10 0.1764300258 1
gene 1 11 12 0.9053201027 0 11 0.9053201027 1
gene 1 12 13 0.9715729905 0 12 0.9715729905 1
gene 1 12 14 0.4940622652 0 13 0.4940622652 1
gene 1 2 14 1.510557491 0 16 1.510557491 1
gene 1 11 13 -0.2871696747 0 24 -0.2871696747 1
gene 1 6 14 0.4724213796 0 25 0.4724213796 1
gene 1 7 13 -0.01288124389 0 27 -0.01288124389 1
gene 1 11 14 -0.4713938299 0 28 0 1
gene 1 7 14 0.6569546297 0 30 0.6569546297 1
gene 1 13 14 1.380817546 0 33 1.380817546 1
gene 1 9 13 0.02650244498 0 40 0.02650244498 1
gene 1 4 13 -0.01442961414 0 43 -0.01442961414 1
gene 1 14 14 1.122002867 1 45 1.122002867 1
gene 1 12 12 -0.1894763031 1 69 -0.1894763031 1
genomeend 20664
/* Novelty: 8.13093853 Fitness: 128.4431763 Generation: 88 Indiv: 20914 */
/* Point: 76.41461182 185.4365692 76.41461182 185.4365692 */

/* Organism #21516 Fitness: 8.128704071 Error: 0 */
genomestart 21516
trait 1 0.4647709165 0.3310640523 0.1639434706 0.2464829589 0.03063993524 0.1379930976 0.1220826679 0.1891780213 
node 1 1 1 3
node 2 1 1 1
node 3 1 1 1
node 4 1 1 1
node 5 1 1 1
node 6 1 1 1
node 7 1 1 1
node 8 1 1 1
node 9 1 1 1
node 10 1 1 1
node 11 1 1 1
node 12 1 0 0
node 13 1 0 2
node 14 1 0 2
gene 1 1 12 -0.08212302324 0 1 -0.08212302324 1
gene 1 2 12 0.3768360758 0 2 0.3768360758 1
gene 1 3 12 -1.727574873 0 3 -1.727574873 1
gene 1 4 12 -0.3954295211 0 4 -0.3954295211 1
gene 1 5 12 1.318674258 0 5 1.318674258 1
gene 1 6 12 -0.291189879 0 6 -0.291189879 1
gene 1 7 12 -0.3126502757 0 7 -0.3126502757 0
gene 1 8 12 0.4117761045 0 8 0.4117761045 1
gene 1 9 12 0.2896048981 0 9 0.2896048981 1
gene 1 10 12 -0.4794371752 0 10 -0.4794371752 1
gene 1 11 12 0.1434176072 0 11 0.1434176072 1
gene 1 12 13 -1.073731084 0 12 -1.073731084 0
gene 1 12 14 -0.2653758322 0 13 -0.2653758322 1
gene 1 2 14 0.3121994925 0 16 0.3121994925 1
gene 1 11 13 0.3591950748 0 24 0.3591950748 1
gene 1 6 14 -1.334143461 0 25 -1.334143461 1
gene 1 7 13 0.5647761519 0 27 0.5647761519 1
gene 1 11 14 -0.8880532706 0 28 -0.8880532706 1
gene 1 7 14 0.568372321 0 30 0.568372321 1
gene 1 13 14 0.9101758495 0 33 0.9101758495 1
gene 1 9 13 -0.3809696646 0 40 -0.3809696646 1
gene 1 4 13 0.06948235429 0 43 0.06948235429 1
gene 1 14 14 0.96697739 1 45 0.96697739 1
gene 1 12 12 0.2711407212 1 69 0.2711407212 1
genomeend 21516
/* Novelty: 8.128704071 Fitness: 128.4032898 Generation: 88 Indiv: 21766 */
/* Point: 76.4499588 185.4682159 76.4499588 185.4682159 */

/* Species #66 : (Size 17) (AF 0) (Age 1)  */


/* Organism #21436 Fitness: 10.41200924 Error: 0 */
genomestart 21436
trait 1 1 1 0.4905690234 0 0.6764810648 0.04401534682 0.7198937197 0.7280905276 
node 1 1 1 3
node 2 1 1 1
node 3 1 1 1
node 4 1 1 1
node 5 1 1 1
node 6 1 1 1
node 7 1 1 1
node 8 1 1 1
node 9 1 1 1
node 10 1 1 1
node 11 1 1 1
node 12 1 0 0
node 13 1 0 2
node 14 1 0 2
node 24 1 0 0
gene 1 1 12 0.676561403 0 1 0.676561403 1
gene 1 2 12 0.4904823306 0 2 0.4904823306 1
gene 1 3 12 -2.815046528 0 3 -2.815046528 1
gene 1 4 12 -0.6105445798 0 4 -0.6105445798 1
gene 1 5 12 1.095556506 0 5 1.095556506 1
gene 1 6 12 -0.3999210133 0 6 -0.3999210133 1
gene 1 7 12 -0.1083488241 0 7 -0.1083488241 1
gene 1 8 12 0.436661564 0 8 0.436661564 1
gene 1 9 12 -0.8641526178 0 9 -0.8641526178 1
gene 1 10 12 -0.5841360633 0 10 -0.5841360633 1
gene 1 11 12 -0.4847612629 0 11 -0.4847612629 1
gene 1 12 13 0.33816215 0 12 0.33816215 0
gene 1 12 14 0.7900826826 0 13 0.7900826826 1
gene 1 3 13 1.220103088 0 14 1.220103088 1
gene 1 6 13 0.1687704384 0 20 0.1687704384 1
gene 1 6 14 -1.75137388 0 25 -1.75137388 1
gene 1 11 14 0.2431231696 0 28 0.2431231696 1
gene 1 9 13 0.9021117297 0 40 0.9021117297 1
gene 1 5 13 1.38077685 0 41 1.38077685 1
gene 1 10 14 2.23929312 0 46 2.23929312 1
gene 1 1 13 -0.9287730002 0 74 -0.9287730002 1
gene 1 13 13 0.1306051832 1 130 0.1306051832 1
gene 1 7 24 -0.367583594 0 137 -0.367583594 1
gene 1 24 12 0.05716318 0 138 0.05716318 1
gene 1 12 12 -0.284615657 1 152 -0.284615657 0
gene 1 24 24 -0.4506607193 1 158 -0.4506607193 1
gene 1 10 24 -0.3682166661 0 340 -0.3682166661 1
genomeend 21436
/* Novelty: 10.41200924 Fitness: 157.2877808 Generation: 88 Indiv: 21686 */
/* Point: 119.8469391 131.6825867 119.8469391 131.6825867 */

/* Organism #20178 Fitness: 10.41200924 Error: 0 */
genomestart 20178
trait 1 1 1 0.4905690234 0 0.6764810648 0.04401534682 0.7198937197 0.7280905276 
node 1 1 1 3
node 2 1 1 1
node 3 1 1 1
node 4 1 1 1
node 5 1 1 1
node 6 1 1 1
node 7 1 1 1
node 8 1 1 1
node 9 1 1 1
node 10 1 1 1
node 11 1 1 1
node 12 1 0 0
node 13 1 0 2
node 14 1 0 2
node 24 1 0 0
gene 1 1 12 0.676561403 0 1 0.676561403 1
gene 1 2 12 0.4904823306 0 2 0.4904823306 1
gene 1 3 12 -2.815046528 0 3 -2.815046528 1
gene 1 4 12 -0.6105445798 0 4 -0.6105445798 1
gene 1 5 12 1.095556506 0 5 1.095556506 1
gene 1 6 12 -0.3999210133 0 6 -0.3999210133 1
gene 1 7 12 -0.1083488241 0 7 -0.1083488241 1
gene 1 8 12 0.436661564 0 8 0.436661564 1
gene 1 9 12 -0.8641526178 0 9 -0.8641526178 1
gene 1 10 12 -0.5841360633 0 10 -0.5841360633 1
gene 1 11 12 -0.4847612629 0 11 -0.4847612629 1
gene 1 12 13 0.33816215 0 12 0.33816215 0
gene 1 12 14 0.7900826826 0 13 0.7900826826 1
gene 1 3 13 1.220103088 0 14 1.220103088 1
gene 1 6 13 0.1687704384 0 20 0.1687704384 1
gene 1 6 14 -1.75137388 0 25 -1.75137388 1
gene 1 11 14 0.2431231696 0 28 0.2431231696 1
gene 1 9 13 0.9021117297 0 40 0.9021117297 1
gene 1 5 13 1.38077685 0 41 1.38077685 1
gene 1 10 14 2.23929312 0 46 2.23929312 1
gene 1 1 13 -0.9287730002 0 74 -0.9287730002 1
gene 1 13 13 0.1306051832 1 130 0.1306051832 1
gene 1 7 24 -0.367583594 0 137 -0.367583594 1
gene 1 24 12 0.05716318 0 138 0.05716318 1
gene 1 12 12 -0.284615657 1 152 -0.284615657 0
gene 1 24 24 -0.4506607193 1 158 -0.4506607193 1
gene 1 10 24 -0.3682166661 0 340 -0.3682166661 1
genomeend 20178
/* Novelty: 10.41200924 Fitness: 157.2877808 Generation: 88 Indiv: 20428 */
/* Point: 119.8469391 131.6825867 119.8469391 131.6825867 */

/* Organism #17966 Fitness: 10.05643654 Error: 0 */
genomestart 17966
trait 1 0.9507519003 0.5254180497 0.287219784 0.08748587927 0.6866040172 0.03667945569 0.5801650881 0.3688527625 
node 1 1 1 3
node 2 1 1 1
node 3 1 1 1
node 4 1 1 1
node 5 1 1 1
node 6 1 1 1
node 7 1 1 1
node 8 1 1 1
node 9 1 1 1
node 10 1 1 1
node 11 1 1 1
node 12 1 0 0
node 13 1 0 2
node 14 1 0 2
node 24 1 0 0
gene 1 1 12 0.6460946269 0 1 0.6460946269 1
gene 1 2 12 0.3155683181 0 2 0.3155683181 1
gene 1 3 12 -2.757544833 0 3 -2.757544833 1
gene 1 4 12 -0.6968626736 0 4 -0.6968626736 1
gene 1 5 12 0.9714542462 0 5 0.9714542462 1
gene 1 6 12 -0.4488931534 0 6 -0.4488931534 1
gene 1 7 12 -0.09602064435 0 7 -0.09602064435 1
gene 1 8 12 0.4044802543 0 8 0.4044802543 1
gene 1 9 12 -0.7502424121 0 9 -0.7502424121 1
gene 1 10 12 -0.6050076127 0 10 -0.6050076127 1
gene 1 11 12 -0.5446777176 0 11 -0.5446777176 1
gene 1 12 13 0.1714650108 0 12 0.1714650108 1
gene 1 12 14 0.7668371393 0 13 0.7668371393 1
gene 1 3 13 1.107764105 0 14 1.107764105 1
gene 1 6 13 0.007108702141 0 20 0.007108702141 1
gene 1 6 14 -1.83807069 0 25 -1.83807069 1
gene 1 11 14 0.06157254116 0 28 0.06157254116 1
gene 1 9 13 0.7887521848 0 40 0.7887521848 1
gene 1 5 13 1.235653051 0 41 1.235653051 1
gene 1 10 14 2.343067667 0 46 2.343067667 1
gene 1 1 13 -0.8211974058 0 74 -0.8211974058 1
gene 1 13 13 0.1392048544 1 130 0.1392048544 1
gene 1 7 24 -0.2091823652 0 137 -0.2091823652 1
gene 1 24 12 0.05716318 0 138 0.05716318 1
gene 1 12 12 -0.3730621153 1 152 -0.3730621153 1
gene 1 24 24 -0.3198853202 1 158 -0.3198853202 1
gene 1 10 24 -0.3682166661 0 340 -0.3682166661 1
genomeend 17966
/* Novelty: 10.05643654 Fitness: 216.1133423 Generation: 88 Indiv: 18216 */
/* Point: 76.78689575 90.28892517 76.78689575 90.28892517 */

/* Organism #17648 Fitness: 10.01747227 Error: 0 */
genomestart 17648
trait 1 0.7694016796 0.4833812555 0.08007936109 0.1344508619 0.571789029 0.07115166173 0.7345678218 0.0009640036454 
node 1 1 1 3
node 2 1 1 1
node 3 1 1 1
node 4 1 1 1
node 5 1 1 1
node 6 1 1 1
node 7 1 1 1
node 8 1 1 1
node 9 1 1 1
node 10 1 1 1
node 11 1 1 1
node 12 1 0 0
node 13 1 0 2
node 14 1 0 2
node 24 1 0 0
gene 1 1 12 0.794593065 0 1 0.794593065 1
gene 1 2 12 0.7152915637 0 2 0.7152915637 1
gene 1 3 12 -2.345518122 0 3 -2.345518122 1
gene 1 4 12 -0.6261167991 0 4 -0.6261167991 1
gene 1 5 12 0.8473519863 0 5 0.8473519863 1
gene 1 6 12 -0.1033264242 0 6 -0.1033264242 1
gene 1 7 12 -0.8084114968 0 7 -0.8084114968 0
gene 1 8 12 0.3356450138 0 8 0.3356450138 1
gene 1 9 12 -1.154060945 0 9 -1.154060945 1
gene 1 10 12 -0.5564672145 0 10 -0.5564672145 1
gene 1 11 12 -0.1067623029 0 11 -0.1067623029 1
gene 1 12 13 -1.467199329 0 12 -1.467199329 0
gene 1 12 14 0.7218126509 0 13 0.7218126509 1
gene 1 3 13 1.196934587 0 14 1.196934587 1
gene 1 6 13 -0.1545530341 0 20 -0.1545530341 1
gene 1 6 14 -1.42605323 0 25 -1.42605323 1
gene 1 11 14 -0.2151771131 0 28 -0.2151771131 1
gene 1 9 13 0.6999926444 0 40 0.6999926444 1
gene 1 5 13 1.090529251 0 41 1.090529251 1
gene 1 4 13 0.8864088598 0 43 0 1
gene 1 10 14 2.446842213 0 46 2.446842213 1
gene 1 1 13 -0.7136218115 0 74 -0.7136218115 1
gene 1 13 13 -0.04047101268 1 130 -0.04047101268 1
gene 1 7 24 -0.09638126348 0 137 -0.09638126348 1
gene 1 24 12 0.05716318 0 138 0.05716318 1
gene 1 12 12 -0.4386765652 1 152 -0.4386765652 1
gene 1 24 24 -0.9199200113 1 158 -0.9199200113 1
gene 1 10 24 -0.9793513967 0 340 -0.9793513967 1
gene 1 24 13 -0.6689861965 0 378 -0.6689861965 1
genomeend 17648
/* Novelty: 10.01747227 Fitness: 216.2586823 Generation: 88 Indiv: 17898 */
/* Point: 77.66074371 89.53691864 77.66074371 89.53691864 */

/* Organism #18812 Fitness: 9.743802071 Error: 0 */
genomestart 18812
trait 1 0.4706518403 0.2119981944 0.1423144065 0.05386701424 0.224938815 0.1666690742 0.7897974532 0.004118924667 
node 1 1 1 3
node 2 1 1 1
node 3 1 1 1
node 4 1 1 1
node 5 1 1 1
node 6 1 1 1
node 7 1 1 1
node 8 1 1 1
node 9 1 1 1
node 10 1 1 1
node 11 1 1 1
node 12 1 0 0
node 13 1 0 2
node 14 1 0 2
node 24 1 0 0
gene 1 1 12 0.9735582792 0 1 0.9735582792 1
gene 1 2 12 0.003980133964 0 2 0.003980133964 1
gene 1 3 12 -2.543205655 0 3 -2.543205655 1
gene 1 4 12 -0.3456515664 0 4 -0.3456515664 1
gene 1 5 12 0.8473519863 0 5 0.8473519863 1
gene 1 6 12 0.291212445 0 6 0.291212445 1
gene 1 7 12 -0.6017729692 0 7 -0.6017729692 0
gene 1 8 12 0.298991083 0 8 0.298991083 1
gene 1 9 12 -1.130514298 0 9 -1.130514298 1
gene 1 10 12 -0.07437712591 0 10 -0.07437712591 1
gene 1 11 12 0.416399709 0 11 0.416399709 1
gene 1 12 13 -2.93916653 0 12 -2.93916653 0
gene 1 12 14 0.7218126509 0 13 0.7218126509 1
gene 1 3 13 1.355722504 0 14 1.355722504 1
gene 1 6 13 0.2123436315 0 20 0.2123436315 1
gene 1 6 14 -1.51015264 0 25 -1.51015264 1
gene 1 11 14 -0.2151771131 0 28 -0.2151771131 1
gene 1 9 13 0.7245926488 0 40 0.7245926488 1
gene 1 4 13 0.8864088598 0 43 0 1
gene 1 10 14 1.916611273 0 46 1.916611273 1
gene 1 13 13 -0.04047101268 1 130 -0.04047101268 1
gene 1 7 24 -0.1419813906 0 137 -0.1419813906 1
gene 1 24 12 0.05716318 0 138 0.05716318 1
gene 1 12 12 -0.2723513202 1 152 -0.2723513202 1
gene 1 24 24 -0.2028305669 1 158 -0.2028305669 1
gene 1 24 13 -0.6689861965 0 378 -0.6689861965 1
genomeend 18812
/* Novelty: 9.743802071 Fitness: 225.2550659 Generation: 88 Indiv: 19062 */
/* Point: 99.05195618 50.91501236 99.05195618 50.91501236 */

/* Organism #20301 Fitness: 9.640966415 Error: 0 */
genomestart 20301
trait 1 0.7353259201 0 0.316441715 0.02693350712 0.151610582 0.1053422105 0.7548455864 1 
node 1 1 1 3
node 2 1 1 1
node 3 1 1 1
node 4 1 1 1
node 5 1 1 1
node 6 1 1 1
node 7 1 1 1
node 8 1 1 1
node 9 1 1 1
node 10 1 1 1
node 11 1 1 1
node 12 1 0 0
node 13 1 0 2
node 14 1 0 2
node 24 1 0 0
gene 1 1 12 1.216690075 0 1 1.216690075 1
gene 1 2 12 0.2207132275 0 2 0.2207132275 1
gene 1 3 12 -2.771602827 0 3 -2.771602827 1
gene 1 4 12 -0.7209779706 0 4 -0.7209779706 1
gene 1 5 12 1.273890821 0 5 1.273890821 1
gene 1 6 12 0.2529856959 0 6 0.2529856959 1
gene 1 7 12 -0.346961231 0 7 -0.346961231 0
gene 1 8 12 0.3426771459 0 8 0.3426771459 1
gene 1 9 12 -1.077764521 0 9 -1.077764521 1
gene 1 10 12 -0.1680787681 0 10 -0.1680787681 1
gene 1 11 12 0.2854547001 0 11 0.2854547001 1
gene 1 12 13 -1.368039349 0 12 -1.368039349 0
gene 1 12 14 0.6539616282 0 13 0.6539616282 1
gene 1 3 13 0.9626743655 0 14 0.9626743655 1
gene 1 6 13 -0.02450648342 0 20 -0.02450648342 1
gene 1 6 14 -1.355240382 0 25 -1.355240382 1
gene 1 11 14 0.2149376303 0 28 0.2149376303 1
gene 1 9 13 0.959959952 0 40 0.959959952 1
gene 1 5 13 2.169540739 0 41 2.169540739 1
gene 1 4 13 0.8864088598 0 43 0 1
gene 1 10 14 1.86021115 0 46 1.86021115 1
gene 1 1 13 -1.152411935 0 74 -1.152411935 1
gene 1 13 13 0.3358172973 1 130 0.3358172973 1
gene 1 7 24 -0.1489687619 0 137 -0.1489687619 1
gene 1 24 12 -0.2888632463 0 138 -0.2888632463 1
gene 1 12 12 -0.4815020225 1 152 -0.4815020225 1
gene 1 24 24 0.07304172962 1 158 0.07304172962 1
gene 1 10 24 -0.3682166661 0 340 -0.3682166661 1
gene 1 24 13 -0.6689861965 0 378 -0.6689861965 1
genomeend 20301
/* Novelty: 9.640966415 Fitness: 212.872467 Generation: 88 Indiv: 20551 */
/* Point: 64.00717926 100.6333313 64.00717926 100.6333313 */

/* Organism #21607 Fitness: 9.640966415 Error: 0 */
genomestart 21607
trait 1 0.7353259201 0 0.316441715 0.02693350712 0.151610582 0.1053422105 0.7548455864 1 
node 1 1 1 3
node 2 1 1 1
node 3 1 1 1
node 4 1 1 1
node 5 1 1 1
node 6 1 1 1
node 7 1 1 1
node 8 1 1 1
node 9 1 1 1
node 10 1 1 1
node 11 1 1 1
node 12 1 0 0
node 13 1 0 2
node 14 1 0 2
node 24 1 0 0
gene 1 1 12 1.216690075 0 1 1.216690075 1
gene 1 2 12 0.2207132275 0 2 0.2207132275 1
gene 1 3 12 -2.771602827 0 3 -2.771602827 1
gene 1 4 12 -0.7209779706 0 4 -0.7209779706 1
gene 1 5 12 1.273890821 0 5 1.273890821 1
gene 1 6 12 0.2529856959 0 6 0.2529856959 1
gene 1 7 12 -0.346961231 0 7 -0.346961231 0
gene 1 8 12 0.3426771459 0 8 0.3426771459 1
gene 1 9 12 -1.077764521 0 9 -1.077764521 1
gene 1 10 12 -0.1680787681 0 10 -0.1680787681 1
gene 1 11 12 0.2854547001 0 11 0.2854547001 1
gene 1 12 13 -1.368039349 0 12 -1.368039349 0
gene 1 12 14 0.6539616282 0 13 0.6539616282 1
gene 1 3 13 0.9626743655 0 14 0.9626743655 1
gene 1 6 13 -0.02450648342 0 20 -0.02450648342 1
gene 1 6 14 -1.355240382 0 25 -1.355240382 1
gene 1 11 14 0.2149376303 0 28 0.2149376303 1
gene 1 9 13 0.959959952 0 40 0.959959952 1
gene 1 5 13 2.169540739 0 41 2.169540739 1
gene 1 4 13 0.8864088598 0 43 0 1
gene 1 10 14 1.86021115 0 46 1.86021115 1
gene 1 1 13 -1.152411935 0 74 -1.152411935 1
gene 1 13 13 0.3358172973 1 130 0.3358172973 1
gene 1 7 24 -0.1489687619 0 137 -0.1489687619 1
gene 1 24 12 -0.2888632463 0 138 -0.2888632463 1
gene 1 12 12 -0.4815020225 1 152 -0.4815020225 1
gene 1 24 24 0.07304172962 1 158 0.07304172962 1
gene 1 10 24 -0.3682166661 0 340 -0.3682166661 1
gene 1 24 13 -0.6689861965 0 378 -0.6689861965 1
genomeend 21607
/* Novelty: 9.640966415 Fitness: 212.872467 Generation: 88 Indiv: 21857 */
/* Point: 64.00717926 100.6333313 64.00717926 100.6333313 */

/* Organism #19770 Fitness: 9.524588585 Error: 0 */
genomestart 19770
trait 1 0.7525987189 0.2948025661 0.07542122139 0.1346896603 0.523147192 0.07738392805 0.6585137482 0.001446005468 
node 1 1 1 3
node 2 1 1 1
node 3 1 1 1
node 4 1 1 1
node 5 1 1 1
node 6 1 1 1
node 7 1 1 1
node 8 1 1 1
node 9 1 1 1
node 10 1 1 1
node 11 1 1 1
node 12 1 0 0
node 13 1 0 2
node 14 1 0 2
node 24 1 0 0
gene 1 1 12 0.9735582792 0 1 0.9735582792 1
gene 1 2 12 0.7152915637 0 2 0.7152915637 1
gene 1 3 12 -1.990993106 0 3 -1.990993106 1
gene 1 4 12 -0.6261167991 0 4 -0.6261167991 1
gene 1 5 12 0.8473519863 0 5 0.8473519863 1
gene 1 6 12 -0.1033264242 0 6 -0.1033264242 1
gene 1 7 12 -0.8084114968 0 7 -0.8084114968 0
gene 1 8 12 0.298991083 0 8 0.298991083 1
gene 1 9 12 -1.130514298 0 9 -1.130514298 1
gene 1 10 12 -0.4870552669 0 10 -0.4870552669 1
gene 1 11 12 0.416399709 0 11 0.416399709 1
gene 1 12 13 -2.93916653 0 12 -2.93916653 0
gene 1 12 14 0.7218126509 0 13 0.7218126509 1
gene 1 3 13 0.9954251224 0 14 0.9954251224 1
gene 1 6 13 -0.1545530341 0 20 -0.1545530341 1
gene 1 6 14 -1.51015264 0 25 -1.51015264 1
gene 1 11 14 -0.2151771131 0 28 -0.2151771131 1
gene 1 9 13 0.7245926488 0 40 0.7245926488 1
gene 1 5 13 1.090529251 0 41 1.090529251 1
gene 1 4 13 0.8864088598 0 43 0 1
gene 1 10 14 2.446842213 0 46 2.446842213 1
gene 1 1 13 -0.7136218115 0 74 -0.7136218115 1
gene 1 13 13 -0.04047101268 1 130 -0.04047101268 1
gene 1 7 24 -0.1419813906 0 137 -0.1419813906 1
gene 1 24 12 0.05716318 0 138 0.05716318 1
gene 1 12 12 -0.2723513202 1 152 -0.2723513202 0
gene 1 24 24 -0.9199200113 1 158 -0.9199200113 1
gene 1 10 24 -0.9793513967 0 340 -0.9793513967 1
gene 1 24 13 -0.6689861965 0 378 -0.6689861965 1
genomeend 19770
/* Novelty: 9.524588585 Fitness: 211.2732391 Generation: 88 Indiv: 20020 */
/* Point: 65.7011261 101.6594696 65.7011261 101.6594696 */

/* Organism #19623 Fitness: 9.33695507 Error: 0 */
genomestart 19623
trait 1 0.7525987189 0.2948025661 0.07542122139 0.1346896603 0.523147192 0.07738392805 0.6585137482 0.001446005468 
node 1 1 1 3
node 2 1 1 1
node 3 1 1 1
node 4 1 1 1
node 5 1 1 1
node 6 1 1 1
node 7 1 1 1
node 8 1 1 1
node 9 1 1 1
node 10 1 1 1
node 11 1 1 1
node 12 1 0 0
node 13 1 0 2
node 14 1 0 2
node 24 1 0 0
gene 1 1 12 0.794593065 0 1 0.794593065 1
gene 1 2 12 0.7152915637 0 2 0.7152915637 1
gene 1 3 12 -2.345518122 0 3 -2.345518122 1
gene 1 4 12 -0.6261167991 0 4 -0.6261167991 1
gene 1 5 12 0.8473519863 0 5 0.8473519863 1
gene 1 6 12 0.291212445 0 6 0.291212445 1
gene 1 7 12 -0.8084114968 0 7 -0.8084114968 1
gene 1 8 12 0.298991083 0 8 0.298991083 1
gene 1 9 12 -1.154060945 0 9 -1.154060945 1
gene 1 10 12 -0.5564672145 0 10 -0.5564672145 1
gene 1 11 12 -0.1067623029 0 11 -0.1067623029 1
gene 1 12 13 -1.467199329 0 12 -1.467199329 0
gene 1 12 14 0.7218126509 0 13 0.7218126509 1
gene 1 3 13 1.196934587 0 14 1.196934587 1
gene 1 6 13 -0.1545530341 0 20 -0.1545530341 1
gene 1 6 14 -1.51015264 0 25 -1.51015264 1
gene 1 11 14 -0.2151771131 0 28 -0.2151771131 1
gene 1 9 13 0.7245926488 0 40 0.7245926488 1
gene 1 5 13 1.090529251 0 41 1.090529251 1
gene 1 4 13 0.8864088598 0 43 0 1
gene 1 10 14 2.446842213 0 46 2.446842213 1
gene 1 1 13 -0.7136218115 0 74 -0.7136218115 1
gene 1 13 13 -0.04047101268 1 130 -0.04047101268 1
gene 1 7 24 -0.09638126348 0 137 -0.09638126348 1
gene 1 24 12 0.05716318 0 138 0.05716318 1
gene 1 12 12 -0.2723513202 1 152 -0.2723513202 0
gene 1 24 24 -0.9199200113 1 158 -0.9199200113 1
gene 1 10 24 -0.9793513967 0 340 -0.9793513967 1
gene 1 24 13 -0.6689861965 0 378 -0.6689861965 1
genomeend 19623
/* Novelty: 9.33695507 Fitness: 140.9105072 Generation: 88 Indiv: 19873 */
/* Point: 144.8716431 131.0977783 144.8716431 131.0977783 */

/* Organism #21610 Fitness: 9.330041885 Error: 0 */
genomestart 21610
trait 1 1 0 0 0.215970252 0.7243812362 0 0.3749267653 0 
node 1 1 1 3
node 2 1 1 1
node 3 1 1 1
node 4 1 1 1
node 5 1 1 1
node 6 1 1 1
node 7 1 1 1
