
/* Species #1 : (Size 16) (AF 0) (Age 1)  */


/* Organism #124314 Fitness: 261.048 Error: 0 */
genomestart 124314
trait 1 0.7972530206 0.3184428418 0.5396653166 0.5725284619 0.763578308 0.4151273579 0.6747240976 0.4805839822 
node 1 1 1 3
node 2 1 1 1
node 3 1 1 1
node 4 1 1 1
node 5 1 1 1
node 6 1 1 1
node 7 1 1 1
node 8 1 1 1
node 9 1 1 1
node 10 1 1 1
node 11 1 1 1
node 12 1 0 0
node 13 1 0 2
node 14 1 0 2
gene 1 1 12 -2.920508092 0 1 -2.920508092 1
gene 1 2 12 0.5661802294 0 2 0.5661802294 1
gene 1 3 12 0.710073566 0 3 0.710073566 1
gene 1 4 12 0.4337653895 0 4 0.4337653895 1
gene 1 5 12 0.8817669127 0 5 0.8817669127 1
gene 1 6 12 0.6863144293 0 6 0.6863144293 1
gene 1 7 12 -2.22391729 0 7 -2.22391729 1
gene 1 8 12 1.016851126 0 8 1.016851126 1
gene 1 9 12 2.293765551 0 9 2.293765551 1
gene 1 10 12 1.9341903 0 10 1.9341903 1
gene 1 11 12 0.409195863 0 11 0.409195863 0
gene 1 12 13 -0.150849522 0 12 -0.150849522 1
gene 1 12 14 -0.7871796403 0 13 -0.7871796403 1
gene 1 11 14 0.5655536631 0 20 0.1484773816 1
gene 1 11 13 -0.6617488894 0 21 -0.5971257632 0
gene 1 8 13 0.1353699081 0 23 0.1353699081 0
gene 1 4 14 1.056169152 0 26 1.056169152 1
gene 1 1 13 0.7159301359 0 31 0.7159301359 1
gene 1 9 13 0.7842672182 0 36 0 0
genomeend 124314
/* Novelty: 0 Fitness: 261.0482178 Generation: 0 Indiv: 124564 */
/* Point: 27.72274017 58.81367493 27.72274017 58.81367493 */

/* Organism #124350 Fitness: 261.0482178 Error: 0 */
genomestart 124350
trait 1 1 0.2590938795 0.908868028 0.4644995118 0.7540484503 0 0.6732969734 1 
node 1 1 1 3
node 2 1 1 1
node 3 1 1 1
node 4 1 1 1
node 5 1 1 1
node 6 1 1 1
node 7 1 1 1
node 8 1 1 1
node 9 1 1 1
node 10 1 1 1
node 11 1 1 1
node 12 1 0 0
node 13 1 0 2
node 14 1 0 2
gene 1 1 12 -2.920508092 0 1 -2.920508092 1
gene 1 2 12 0.5661802294 0 2 0.5661802294 1
gene 1 3 12 0.710073566 0 3 0.710073566 1
gene 1 4 12 0.4337653895 0 4 0.4337653895 1
gene 1 5 12 0.8817669127 0 5 0.8817669127 1
gene 1 6 12 0.6863144293 0 6 0.6863144293 1
gene 1 7 12 -2.22391729 0 7 -2.22391729 1
gene 1 8 12 1.016851126 0 8 1.016851126 1
gene 1 9 12 2.293765551 0 9 2.293765551 1
gene 1 10 12 1.9341903 0 10 1.9341903 1
gene 1 11 12 0.409195863 0 11 0.409195863 0
gene 1 12 13 -0.150849522 0 12 -0.150849522 1
gene 1 12 14 -0.7871796403 0 13 -0.7871796403 1
gene 1 11 14 0.5655536631 0 20 0.1484773816 1
gene 1 11 13 -0.6617488894 0 21 -0.5971257632 0
gene 1 8 13 0.1353699081 0 23 0.1353699081 0
gene 1 4 14 1.056169152 0 26 1.056169152 1
gene 1 1 13 0.7159301359 0 31 0.7159301359 1
gene 1 9 13 0.7842672182 0 36 0 0
genomeend 124350
/* Novelty: 0 Fitness: 261.0482178 Generation: 0 Indiv: 124600 */
/* Point: 27.72274017 58.81367493 27.72274017 58.81367493 */

/* Organism #124429 Fitness: 261.0482178 Error: 0 */
genomestart 124429
trait 1 0.8148021333 0.2369633786 0.5130976441 0.5791014724 0.7338601523 0.3838501618 0.6708507458 0.4456313729 
node 1 1 1 3
node 2 1 1 1
node 3 1 1 1
node 4 1 1 1
node 5 1 1 1
node 6 1 1 1
node 7 1 1 1
node 8 1 1 1
node 9 1 1 1
node 10 1 1 1
node 11 1 1 1
node 12 1 0 0
node 13 1 0 2
node 14 1 0 2
gene 1 1 12 -2.920508092 0 1 -2.920508092 1
gene 1 2 12 0.5661802294 0 2 0.5661802294 1
gene 1 3 12 0.710073566 0 3 0.710073566 1
gene 1 4 12 0.4337653895 0 4 0.4337653895 1
gene 1 5 12 0.8817669127 0 5 0.8817669127 1
gene 1 6 12 0.6863144293 0 6 0.6863144293 1
gene 1 7 12 -2.22391729 0 7 -2.22391729 1
gene 1 8 12 1.016851126 0 8 1.016851126 1
gene 1 9 12 2.293765551 0 9 2.293765551 1
gene 1 10 12 1.9341903 0 10 1.9341903 1
gene 1 11 12 0.409195863 0 11 0.409195863 0
gene 1 12 13 -0.150849522 0 12 -0.150849522 1
gene 1 12 14 -0.7871796403 0 13 -0.7871796403 1
gene 1 11 14 0.5655536631 0 20 0.1484773816 1
gene 1 11 13 -0.6617488894 0 21 -0.5971257632 0
gene 1 8 13 0.1353699081 0 23 0.1353699081 0
gene 1 4 14 1.056169152 0 26 1.056169152 1
gene 1 1 13 0.7159301359 0 31 0.7159301359 1
gene 1 9 13 0.7842672182 0 36 0 0
genomeend 124429
/* Novelty: 0 Fitness: 261.0482178 Generation: 0 Indiv: 124679 */
/* Point: 27.72274017 58.81367493 27.72274017 58.81367493 */

/* Organism #124471 Fitness: 261.0482178 Error: 0 */
genomestart 124471
trait 1 0.7879779667 0.1875596261 0.3558538753 0.63581792 0.7091546987 0.3097632446 0.7152697731 0.3352821136 
node 1 1 1 3
node 2 1 1 1
node 3 1 1 1
node 4 1 1 1
node 5 1 1 1
node 6 1 1 1
node 7 1 1 1
node 8 1 1 1
node 9 1 1 1
node 10 1 1 1
node 11 1 1 1
node 12 1 0 0
node 13 1 0 2
node 14 1 0 2
gene 1 1 12 -2.920508092 0 1 -2.920508092 1
gene 1 2 12 0.5661802294 0 2 0.5661802294 1
gene 1 3 12 0.710073566 0 3 0.710073566 1
gene 1 4 12 0.4337653895 0 4 0.4337653895 1
gene 1 5 12 0.8817669127 0 5 0.8817669127 1
gene 1 6 12 0.6863144293 0 6 0.6863144293 1
gene 1 7 12 -2.22391729 0 7 -2.22391729 1
gene 1 8 12 1.016851126 0 8 1.016851126 1
gene 1 9 12 2.293765551 0 9 2.293765551 1
gene 1 10 12 1.9341903 0 10 1.9341903 1
gene 1 11 12 0.409195863 0 11 0.409195863 0
gene 1 12 13 -0.150849522 0 12 -0.150849522 1
gene 1 12 14 -0.7871796403 0 13 -0.7871796403 1
gene 1 11 14 0.5655536631 0 20 0.1484773816 1
gene 1 11 13 -0.6617488894 0 21 -0.5971257632 1
gene 1 8 13 0.1353699081 0 23 0.1353699081 0
gene 1 4 14 1.056169152 0 26 1.056169152 1
gene 1 1 13 0.7159301359 0 31 0.7159301359 1
gene 1 9 13 0.7842672182 0 36 0 0
genomeend 124471
/* Novelty: 0 Fitness: 261.0482178 Generation: 0 Indiv: 124721 */
/* Point: 27.72274017 58.81367493 27.72274017 58.81367493 */

/* Organism #124520 Fitness: 261.0482178 Error: 0 */
genomestart 124520
trait 1 1 0.1568621943 0.1308690627 0.6146765165 0.3992751257 1 0 0.3544001017 
node 1 1 1 3
node 2 1 1 1
node 3 1 1 1
node 4 1 1 1
node 5 1 1 1
node 6 1 1 1
node 7 1 1 1
node 8 1 1 1
node 9 1 1 1
node 10 1 1 1
node 11 1 1 1
node 12 1 0 0
node 13 1 0 2
node 14 1 0 2
gene 1 1 12 -2.920508092 0 1 -2.920508092 1
gene 1 2 12 0.5661802294 0 2 0.5661802294 1
gene 1 3 12 0.710073566 0 3 0.710073566 1
gene 1 4 12 0.4337653895 0 4 0.4337653895 1
gene 1 5 12 0.8817669127 0 5 0.8817669127 1
gene 1 6 12 0.6863144293 0 6 0.6863144293 1
gene 1 7 12 -2.22391729 0 7 -2.22391729 1
gene 1 8 12 1.016851126 0 8 1.016851126 1
gene 1 9 12 2.293765551 0 9 2.293765551 1
gene 1 10 12 1.9341903 0 10 1.9341903 1
gene 1 11 12 0.409195863 0 11 0.409195863 0
gene 1 12 13 -0.150849522 0 12 -0.150849522 1
gene 1 12 14 -0.7871796403 0 13 -0.7871796403 1
gene 1 11 14 0.5655536631 0 20 0.1484773816 1
gene 1 11 13 -0.6617488894 0 21 -0.5971257632 0
gene 1 8 13 0.1353699081 0 23 0.1353699081 0
gene 1 4 14 1.056169152 0 26 1.056169152 1
gene 1 1 13 0.7159301359 0 31 0.7159301359 1
gene 1 9 13 0.7842672182 0 36 0 0
genomeend 124520
/* Novelty: 0 Fitness: 261.0482178 Generation: 0 Indiv: 124770 */
/* Point: 27.72274017 58.81367493 27.72274017 58.81367493 */

/* Organism #124560 Fitness: 261.0482178 Error: 0 */
genomestart 124560
trait 1 0.8800672143 0.2178311872 0.3251566808 0.5346714397 0.7078468453 0.291070455 0.60543211 0.2342118605 
node 1 1 1 3
node 2 1 1 1
node 3 1 1 1
node 4 1 1 1
node 5 1 1 1
node 6 1 1 1
node 7 1 1 1
node 8 1 1 1
node 9 1 1 1
node 10 1 1 1
node 11 1 1 1
node 12 1 0 0
node 13 1 0 2
node 14 1 0 2
gene 1 1 12 -2.920508092 0 1 -2.920508092 1
gene 1 2 12 0.5661802294 0 2 0.5661802294 1
gene 1 3 12 0.710073566 0 3 0.710073566 1
gene 1 4 12 0.4337653895 0 4 0.4337653895 1
gene 1 5 12 0.8817669127 0 5 0.8817669127 1
gene 1 6 12 0.6863144293 0 6 0.6863144293 1
gene 1 7 12 -2.22391729 0 7 -2.22391729 1
gene 1 8 12 1.016851126 0 8 1.016851126 1
gene 1 9 12 2.293765551 0 9 2.293765551 1
gene 1 10 12 1.9341903 0 10 1.9341903 1
gene 1 11 12 0.409195863 0 11 0.409195863 0
gene 1 12 13 -0.150849522 0 12 -0.150849522 1
gene 1 12 14 -0.7871796403 0 13 -0.7871796403 1
gene 1 11 14 0.5655536631 0 20 0.1484773816 1
gene 1 11 13 -0.6617488894 0 21 -0.5971257632 0
gene 1 8 13 0.1353699081 0 23 0.1353699081 0
gene 1 4 14 1.056169152 0 26 1.056169152 1
gene 1 1 13 0.7159301359 0 31 0.7159301359 1
gene 1 9 13 0.7842672182 0 36 0 0
genomeend 124560
/* Novelty: 0 Fitness: 261.0482178 Generation: 0 Indiv: 124810 */
/* Point: 27.72274017 58.81367493 27.72274017 58.81367493 */

/* Organism #124651 Fitness: 261.0482178 Error: 0 */
genomestart 124651
trait 1 0.8156403977 0.2248259075 0.3773961245 0.5829805712 0.72868907 0.3305658393 0.6627971692 0.3272165563 
node 1 1 1 3
node 2 1 1 1
node 3 1 1 1
node 4 1 1 1
node 5 1 1 1
node 6 1 1 1
node 7 1 1 1
node 8 1 1 1
node 9 1 1 1
node 10 1 1 1
node 11 1 1 1
node 12 1 0 0
node 13 1 0 2
node 14 1 0 2
gene 1 1 12 -2.920508092 0 1 -2.920508092 1
gene 1 2 12 0.5661802294 0 2 0.5661802294 1
gene 1 3 12 0.710073566 0 3 0.710073566 1
gene 1 4 12 0.4337653895 0 4 0.4337653895 1
gene 1 5 12 0.8817669127 0 5 0.8817669127 1
gene 1 6 12 0.6863144293 0 6 0.6863144293 1
gene 1 7 12 -2.22391729 0 7 -2.22391729 1
gene 1 8 12 1.016851126 0 8 1.016851126 1
gene 1 9 12 2.293765551 0 9 2.293765551 1
gene 1 10 12 1.9341903 0 10 1.9341903 1
gene 1 11 12 0.409195863 0 11 0.409195863 0
gene 1 12 13 -0.150849522 0 12 -0.150849522 1
gene 1 12 14 -0.7871796403 0 13 -0.7871796403 1
gene 1 11 14 0.5655536631 0 20 0.1484773816 1
gene 1 11 13 -0.6617488894 0 21 -0.5971257632 1
gene 1 8 13 0.1353699081 0 23 0.1353699081 0
gene 1 4 14 1.056169152 0 26 1.056169152 1
gene 1 1 13 0.7159301359 0 31 0.7159301359 1
gene 1 9 13 0.7842672182 0 36 0 1
genomeend 124651
/* Novelty: 0 Fitness: 261.0482178 Generation: 0 Indiv: 124901 */
/* Point: 27.72274017 58.81367493 27.72274017 58.81367493 */

/* Organism #124683 Fitness: 261.0482178 Error: 0 */
genomestart 124683
trait 1 0.5640158617 0.2639069601 0.6835247938 0 0.7217804519 1 0.6268256498 0 
node 1 1 1 3
node 2 1 1 1
node 3 1 1 1
node 4 1 1 1
node 5 1 1 1
node 6 1 1 1
node 7 1 1 1
node 8 1 1 1
node 9 1 1 1
node 10 1 1 1
node 11 1 1 1
node 12 1 0 0
node 13 1 0 2
node 14 1 0 2
gene 1 1 12 -2.920508092 0 1 -2.920508092 1
gene 1 2 12 0.5661802294 0 2 0.5661802294 1
gene 1 3 12 0.710073566 0 3 0.710073566 1
gene 1 4 12 0.4337653895 0 4 0.4337653895 1
gene 1 5 12 0.8817669127 0 5 0.8817669127 1
gene 1 6 12 0.6863144293 0 6 0.6863144293 1
gene 1 7 12 -2.22391729 0 7 -2.22391729 1
gene 1 8 12 1.016851126 0 8 1.016851126 1
gene 1 9 12 2.293765551 0 9 2.293765551 1
gene 1 10 12 1.9341903 0 10 1.9341903 1
gene 1 11 12 0.409195863 0 11 0.409195863 0
gene 1 12 13 -0.150849522 0 12 -0.150849522 1
gene 1 12 14 -0.7871796403 0 13 -0.7871796403 1
gene 1 11 14 0.5655536631 0 20 0.1484773816 1
gene 1 11 13 -0.6617488894 0 21 -0.5971257632 0
gene 1 8 13 0.1353699081 0 23 0.1353699081 0
gene 1 4 14 1.056169152 0 26 1.056169152 1
gene 1 1 13 0.7159301359 0 31 0.7159301359 1
gene 1 9 13 0.7842672182 0 36 0 0
genomeend 124683
/* Novelty: 0 Fitness: 261.0482178 Generation: 0 Indiv: 124933 */
/* Point: 27.72274017 58.81367493 27.72274017 58.81367493 */

/* Organism #124699 Fitness: 261.0482178 Error: 0 */
genomestart 124699
trait 1 0.8156403977 0.2248259075 0.3773961245 0.5829805712 0.72868907 0.3305658393 0.6627971692 0.3272165563 
node 1 1 1 3
node 2 1 1 1
node 3 1 1 1
node 4 1 1 1
node 5 1 1 1
node 6 1 1 1
node 7 1 1 1
node 8 1 1 1
node 9 1 1 1
node 10 1 1 1
node 11 1 1 1
node 12 1 0 0
node 13 1 0 2
node 14 1 0 2
gene 1 1 12 -2.920508092 0 1 -2.920508092 1
gene 1 2 12 0.5661802294 0 2 0.5661802294 1
gene 1 3 12 0.710073566 0 3 0.710073566 1
gene 1 4 12 0.4337653895 0 4 0.4337653895 1
gene 1 5 12 0.8817669127 0 5 0.8817669127 1
gene 1 6 12 0.6863144293 0 6 0.6863144293 1
gene 1 7 12 -2.22391729 0 7 -2.22391729 1
gene 1 8 12 1.016851126 0 8 1.016851126 1
gene 1 9 12 2.293765551 0 9 2.293765551 1
gene 1 10 12 1.9341903 0 10 1.9341903 1
gene 1 11 12 0.409195863 0 11 0.409195863 0
gene 1 12 13 -0.150849522 0 12 -0.150849522 1
gene 1 12 14 -0.7871796403 0 13 -0.7871796403 1
gene 1 11 14 0.5655536631 0 20 0.1484773816 1
gene 1 11 13 -0.6617488894 0 21 -0.5971257632 1
gene 1 8 13 0.1353699081 0 23 0.1353699081 1
gene 1 4 14 1.056169152 0 26 1.056169152 1
gene 1 1 13 0.7159301359 0 31 0.7159301359 1
gene 1 9 13 0.7842672182 0 36 0 1
genomeend 124699
/* Novelty: 0 Fitness: 261.0482178 Generation: 0 Indiv: 124949 */
/* Point: 27.72274017 58.81367493 27.72274017 58.81367493 */

/* Organism #124731 Fitness: 261.0482178 Error: 0 */
genomestart 124731
trait 1 0.8515869275 0.206889074 0.3067946682 0.5604778851 0.7217804519 0.3068260315 0.6268256498 0.2388039442 
node 1 1 1 3
node 2 1 1 1
node 3 1 1 1
node 4 1 1 1
node 5 1 1 1
node 6 1 1 1
node 7 1 1 1
node 8 1 1 1
node 9 1 1 1
node 10 1 1 1
node 11 1 1 1
node 12 1 0 0
node 13 1 0 2
node 14 1 0 2
gene 1 1 12 -2.920508092 0 1 -2.920508092 1
gene 1 2 12 0.5661802294 0 2 0.5661802294 1
gene 1 3 12 0.710073566 0 3 0.710073566 1
gene 1 4 12 0.4337653895 0 4 0.4337653895 1
gene 1 5 12 0.8817669127 0 5 0.8817669127 1
gene 1 6 12 0.6863144293 0 6 0.6863144293 1
gene 1 7 12 -2.22391729 0 7 -2.22391729 1
gene 1 8 12 1.016851126 0 8 1.016851126 1
gene 1 9 12 2.293765551 0 9 2.293765551 1
gene 1 10 12 1.9341903 0 10 1.9341903 1
gene 1 11 12 0.409195863 0 11 0.409195863 0
gene 1 12 13 -0.150849522 0 12 -0.150849522 1
gene 1 12 14 -0.7871796403 0 13 -0.7871796403 1
gene 1 11 14 0.5655536631 0 20 0.1484773816 1
gene 1 11 13 -0.6617488894 0 21 -0.5971257632 0
gene 1 8 13 0.1353699081 0 23 0.1353699081 0
gene 1 4 14 1.056169152 0 26 1.056169152 1
gene 1 1 13 0.7159301359 0 31 0.7159301359 1
gene 1 9 13 0.7842672182 0 36 0 0
genomeend 124731
/* Novelty: 0 Fitness: 261.0482178 Generation: 0 Indiv: 124981 */
/* Point: 27.72274017 58.81367493 27.72274017 58.81367493 */

/* Organism #124796 Fitness: 261.0482178 Error: 0 */
genomestart 124796
trait 1 0.8228513693 0.3401168074 0.3587961271 0.6074769502 0.7433914918 0.4073822425 0.6804189558 0.3241125195 
node 1 1 1 3
node 2 1 1 1
node 3 1 1 1
node 4 1 1 1
node 5 1 1 1
node 6 1 1 1
node 7 1 1 1
node 8 1 1 1
node 9 1 1 1
node 10 1 1 1
node 11 1 1 1
node 12 1 0 0
node 13 1 0 2
node 14 1 0 2
gene 1 1 12 -2.920508092 0 1 -2.920508092 1
gene 1 2 12 0.5661802294 0 2 0.5661802294 1
gene 1 3 12 0.710073566 0 3 0.710073566 1
gene 1 4 12 0.4337653895 0 4 0.4337653895 1
gene 1 5 12 0.8817669127 0 5 0.8817669127 1
gene 1 6 12 0.6863144293 0 6 0.6863144293 1
gene 1 7 12 -2.22391729 0 7 -2.22391729 1
gene 1 8 12 1.016851126 0 8 1.016851126 1
gene 1 9 12 2.293765551 0 9 2.293765551 1
gene 1 10 12 1.9341903 0 10 1.9341903 1
gene 1 11 12 0.409195863 0 11 0.409195863 0
gene 1 12 13 -0.150849522 0 12 -0.150849522 1
gene 1 12 14 -0.7871796403 0 13 -0.7871796403 1
gene 1 11 14 0.5655536631 0 20 0.1484773816 1
gene 1 11 13 -0.6617488894 0 21 -0.5971257632 0
gene 1 8 13 0.1353699081 0 23 0.1353699081 0
gene 1 4 14 1.056169152 0 26 1.056169152 1
gene 1 1 13 0.7159301359 0 31 0.7159301359 1
gene 1 9 13 0.7842672182 0 36 0 0
genomeend 124796
/* Novelty: 0 Fitness: 261.0482178 Generation: 0 Indiv: 125046 */
/* Point: 27.72274017 58.81367493 27.72274017 58.81367493 */

/* Organism #124806 Fitness: 261.0482178 Error: 0 */
genomestart 124806
trait 1 0.8965054 0.517383077 0 0.6025927088 1 0.5067317128 0.6753216771 0.3511898478 
node 1 1 1 3
node 2 1 1 1
node 3 1 1 1
node 4 1 1 1
node 5 1 1 1
node 6 1 1 1
node 7 1 1 1
node 8 1 1 1
node 9 1 1 1
node 10 1 1 1
node 11 1 1 1
node 12 1 0 0
node 13 1 0 2
node 14 1 0 2
gene 1 1 12 -2.920508092 0 1 -2.920508092 1
gene 1 2 12 0.5661802294 0 2 0.5661802294 1
gene 1 3 12 0.710073566 0 3 0.710073566 1
gene 1 4 12 0.4337653895 0 4 0.4337653895 1
gene 1 5 12 0.8817669127 0 5 0.8817669127 1
gene 1 6 12 0.6863144293 0 6 0.6863144293 1
gene 1 7 12 -2.22391729 0 7 -2.22391729 1
gene 1 8 12 1.016851126 0 8 1.016851126 1
gene 1 9 12 2.293765551 0 9 2.293765551 1
gene 1 10 12 1.9341903 0 10 1.9341903 1
gene 1 11 12 0.409195863 0 11 0.409195863 0
gene 1 12 13 -0.150849522 0 12 -0.150849522 1
gene 1 12 14 -0.7871796403 0 13 -0.7871796403 1
gene 1 11 14 0.5655536631 0 20 0.1484773816 1
gene 1 11 13 -0.6617488894 0 21 -0.5971257632 0
gene 1 8 13 0.1353699081 0 23 0.1353699081 0
gene 1 4 14 1.056169152 0 26 1.056169152 1
gene 1 1 13 0.7159301359 0 31 0.7159301359 1
gene 1 9 13 0.7842672182 0 36 0 0
genomeend 124806
/* Novelty: 0 Fitness: 261.0482178 Generation: 0 Indiv: 125056 */
/* Point: 27.72274017 58.81367493 27.72274017 58.81367493 */

/* Organism #124874 Fitness: 261.0482178 Error: 0 */
genomestart 124874
trait 1 0.8598060203 0.3566650189 0.1442163278 0.5944385196 0.8678570292 0.4146566604 0.6617704333 0.2972929378 
node 1 1 1 3
node 2 1 1 1
node 3 1 1 1
node 4 1 1 1
node 5 1 1 1
node 6 1 1 1
node 7 1 1 1
node 8 1 1 1
node 9 1 1 1
node 10 1 1 1
node 11 1 1 1
node 12 1 0 0
node 13 1 0 2
node 14 1 0 2
gene 1 1 12 -2.920508092 0 1 -2.920508092 1
gene 1 2 12 0.5661802294 0 2 0.5661802294 1
gene 1 3 12 0.710073566 0 3 0.710073566 1
gene 1 4 12 0.4337653895 0 4 0.4337653895 1
gene 1 5 12 0.8817669127 0 5 0.8817669127 1
gene 1 6 12 0.6863144293 0 6 0.6863144293 1
gene 1 7 12 -2.22391729 0 7 -2.22391729 1
gene 1 8 12 1.016851126 0 8 1.016851126 1
gene 1 9 12 2.293765551 0 9 2.293765551 1
gene 1 10 12 1.9341903 0 10 1.9341903 1
gene 1 11 12 0.409195863 0 11 0.409195863 0
gene 1 12 13 -0.150849522 0 12 -0.150849522 1
gene 1 12 14 -0.7871796403 0 13 -0.7871796403 1
gene 1 11 14 0.5655536631 0 20 0.1484773816 1
gene 1 11 13 -0.6617488894 0 21 -0.5971257632 0
gene 1 8 13 0.1353699081 0 23 0.1353699081 0
gene 1 4 14 1.056169152 0 26 1.056169152 1
gene 1 1 13 0.7159301359 0 31 0.7159301359 1
gene 1 9 13 0.7842672182 0 36 0 0
genomeend 124874
/* Novelty: 0 Fitness: 261.0482178 Generation: 0 Indiv: 125124 */
/* Point: 27.72274017 58.81367493 27.72274017 58.81367493 */

/* Organism #124937 Fitness: 261.0482178 Error: 0 */
genomestart 124937
trait 1 0.7972530206 0.3184428418 0.5396653166 0.5725284619 0.763578308 0.4151273579 0.6747240976 0.4805839822 
node 1 1 1 3
node 2 1 1 1
node 3 1 1 1
node 4 1 1 1
node 5 1 1 1
node 6 1 1 1
node 7 1 1 1
node 8 1 1 1
node 9 1 1 1
node 10 1 1 1
node 11 1 1 1
node 12 1 0 0
node 13 1 0 2
node 14 1 0 2
gene 1 1 12 -2.920508092 0 1 -2.920508092 1
gene 1 2 12 0.5661802294 0 2 0.5661802294 1
gene 1 3 12 0.710073566 0 3 0.710073566 1
gene 1 4 12 0.4337653895 0 4 0.4337653895 1
gene 1 5 12 0.8817669127 0 5 0.8817669127 1
gene 1 6 12 0.6863144293 0 6 0.6863144293 1
gene 1 7 12 -2.22391729 0 7 -2.22391729 1
gene 1 8 12 1.016851126 0 8 1.016851126 1
gene 1 9 12 2.293765551 0 9 2.293765551 1
gene 1 10 12 1.9341903 0 10 1.9341903 1
gene 1 11 12 0.409195863 0 11 0.409195863 0
gene 1 12 13 -0.150849522 0 12 -0.150849522 1
gene 1 12 14 -0.7871796403 0 13 -0.7871796403 1
gene 1 11 14 0.5655536631 0 20 0.1484773816 1
gene 1 11 13 -0.6617488894 0 21 -0.5971257632 0
gene 1 8 13 0.1353699081 0 23 0.1353699081 0
gene 1 4 14 1.056169152 0 26 1.056169152 1
gene 1 1 13 0.7159301359 0 31 0.7159301359 1
gene 1 9 13 0.7842672182 0 36 0 0
genomeend 124937
/* Novelty: 0 Fitness: 261.0482178 Generation: 0 Indiv: 125187 */
/* Point: 27.72274017 58.81367493 27.72274017 58.81367493 */

/* Organism #124942 Fitness: 261.0482178 Error: 0 */
genomestart 124942
trait 1 1 0.2079780369 0.5198685453 0.5395880141 0.576661788 0.5 0.3366484867 0.6772000509 
node 1 1 1 3
node 2 1 1 1
node 3 1 1 1
node 4 1 1 1
node 5 1 1 1
node 6 1 1 1
node 7 1 1 1
node 8 1 1 1
node 9 1 1 1
node 10 1 1 1
node 11 1 1 1
node 12 1 0 0
node 13 1 0 2
node 14 1 0 2
gene 1 1 12 -2.920508092 0 1 -2.920508092 1
gene 1 2 12 0.5661802294 0 2 0.5661802294 1
gene 1 3 12 0.710073566 0 3 0.710073566 1
gene 1 4 12 0.4337653895 0 4 0.4337653895 1
gene 1 5 12 0.8817669127 0 5 0.8817669127 1
gene 1 6 12 0.6863144293 0 6 0.6863144293 1
gene 1 7 12 -2.22391729 0 7 -2.22391729 1
gene 1 8 12 1.016851126 0 8 1.016851126 1
gene 1 9 12 2.293765551 0 9 2.293765551 1
gene 1 10 12 1.9341903 0 10 1.9341903 1
gene 1 11 12 0.409195863 0 11 0.409195863 0
gene 1 12 13 -0.150849522 0 12 -0.150849522 1
gene 1 12 14 -0.7871796403 0 13 -0.7871796403 1
gene 1 11 14 0.5655536631 0 20 0.1484773816 1
gene 1 11 13 -0.6617488894 0 21 -0.5971257632 0
gene 1 8 13 0.1353699081 0 23 0.1353699081 1
gene 1 4 14 1.056169152 0 26 1.056169152 1
gene 1 1 13 0.7159301359 0 31 0.7159301359 1
gene 1 9 13 0.7842672182 0 36 0 1
genomeend 124942
/* Novelty: 0 Fitness: 261.0482178 Generation: 0 Indiv: 125192 */
/* Point: 27.72274017 58.81367493 27.72274017 58.81367493 */

/* Organism #124989 Fitness: 261.0482178 Error: 0 */
genomestart 124989
trait 1 0.7972530206 0.3184428418 0.5396653166 0.5725284619 0.763578308 0.4151273579 0.6747240976 0.4805839822 
node 1 1 1 3
node 2 1 1 1
node 3 1 1 1
node 4 1 1 1
node 5 1 1 1
node 6 1 1 1
node 7 1 1 1
node 8 1 1 1
node 9 1 1 1
node 10 1 1 1
node 11 1 1 1
node 12 1 0 0
node 13 1 0 2
node 14 1 0 2
gene 1 1 12 -2.920508092 0 1 -2.920508092 1
gene 1 2 12 0.5661802294 0 2 0.5661802294 1
gene 1 3 12 0.710073566 0 3 0.710073566 1
gene 1 4 12 0.4337653895 0 4 0.4337653895 1
gene 1 5 12 0.8817669127 0 5 0.8817669127 1
gene 1 6 12 0.6863144293 0 6 0.6863144293 1
gene 1 7 12 -2.22391729 0 7 -2.22391729 1
gene 1 8 12 1.016851126 0 8 1.016851126 1
gene 1 9 12 2.293765551 0 9 2.293765551 1
gene 1 10 12 1.9341903 0 10 1.9341903 1
gene 1 11 12 0.409195863 0 11 0.409195863 0
gene 1 12 13 -0.150849522 0 12 -0.150849522 1
gene 1 12 14 -0.7871796403 0 13 -0.7871796403 1
gene 1 11 14 0.5655536631 0 20 0.1484773816 1
gene 1 11 13 -0.6617488894 0 21 -0.5971257632 0
gene 1 8 13 0.1353699081 0 23 0.1353699081 0
gene 1 4 14 1.056169152 0 26 1.056169152 1
gene 1 1 13 0.7159301359 0 31 0.7159301359 1
gene 1 9 13 0.7842672182 0 36 0 0
genomeend 124989
/* Novelty: 0 Fitness: 261.0482178 Generation: 0 Indiv: 125239 */
/* Point: 27.72274017 58.81367493 27.72274017 58.81367493 */

/* Species #47 : (Size 15) (AF 0) (Age 1)  */


/* Organism #124120 Fitness: 261.0304565 Error: 0 */
genomestart 124120
trait 1 0.2053279662 0.7702292607 0.4313474812 0.6876828466 0.08375352073 0.4616485274 0.6808498239 0.1415722852 
node 1 1 1 3
node 2 1 1 1
node 3 1 1 1
node 4 1 1 1
node 5 1 1 1
node 6 1 1 1
node 7 1 1 1
node 8 1 1 1
node 9 1 1 1
node 10 1 1 1
node 11 1 1 1
node 12 1 0 0
node 13 1 0 2
node 14 1 0 2
node 15 1 0 0
node 36 1 0 0
node 88 1 0 0
node 159 1 0 0
gene 1 1 12 0.09395876866 0 1 0.09395876866 1
gene 1 2 12 -0.2659481338 0 2 -0.2659481338 1
gene 1 3 12 -1.223953997 0 3 -1.223953997 1
gene 1 4 12 0.0436704565 0 4 0.0436704565 1
gene 1 5 12 1.485626944 0 5 1.485626944 1
gene 1 6 12 1.225119787 0 6 1.225119787 1
gene 1 7 12 0.6234501745 0 7 0.6234501745 1
gene 1 8 12 -2.411388883 0 8 -2.411388883 1
gene 1 9 12 -2.405743192 0 9 -2.405743192 1
gene 1 10 12 -0.08285962324 0 10 -0.08285962324 1
gene 1 11 12 -0.6692245263 0 11 -0.6692245263 0
gene 1 12 13 0.8675116729 0 12 0.8675116729 1
gene 1 12 14 -0.7953545991 0 13 -0.7953545991 0
gene 1 7 13 0.6212954752 0 15 0.6212954752 0
gene 1 10 13 0.07072654854 0 17 0.07072654854 1
gene 1 8 15 0.4841554931 0 18 0.4841554931 1
gene 1 15 12 1.611151248 0 19 1.611151248 1
gene 1 11 13 -0.2584925048 0 21 0 1
gene 1 8 13 -0.1686669032 0 23 -0.1686669032 1
gene 1 14 13 -1.882354954 0 24 -1.882354954 0
gene 1 14 14 0.5409234837 1 93 0.5409234837 0
gene 1 14 15 0.8088147593 0 172 0.8088147593 0
gene 1 14 36 1 0 260 0 1
gene 1 36 13 -0.5647064861 0 261 0 1
gene 1 3 15 0.3239245051 0 295 0.3239245051 1
gene 1 11 15 0.5029986368 0 297 0.5029986368 0
gene 1 12 12 -0.2371678141 1 306 -0.2371678141 1
gene 1 7 15 0.2444698723 0 589 0.2444698723 1
gene 1 14 88 1 0 1199 0 0
gene 1 88 15 0.2426444278 0 1200 0 1
gene 1 88 13 0.2809133186 0 1335 0.2809133186 0
gene 1 88 88 0.3212605008 1 1347 0.3212605008 0
gene 1 88 12 -0.2618033808 0 1448 -0.2618033808 0
gene 1 13 13 -0.001386518125 1 1676 -0.001386518125 1
gene 1 88 14 0.3275872335 1 1712 0.3275872335 0
gene 1 36 36 0.9187515485 1 2177 0.9187515485 1
gene 1 36 14 -0.7488510044 1 2202 -0.7488510044 1
gene 1 88 36 -0.4015093881 0 2212 -0.4015093881 1
gene 1 36 15 0.02026303998 0 2311 0 0
gene 1 36 88 0.1393073728 1 2396 0.1393073728 1
gene 1 88 159 1 0 2861 0 1
gene 1 159 13 0.08427399559 0 2862 0 1
genomeend 124120
/* Novelty: 0 Fitness: 261.0304565 Generation: 0 Indiv: 124370 */
/* Point: 27.42336082 58.80505753 27.42336082 58.80505753 */

/* Organism #124128 Fitness: 261.0304565 Error: 0 */
genomestart 124128
trait 1 1 0.4384890125 1 0 0 0.6137328328 0.6665464164 0.2351167758 
node 1 1 1 3
node 2 1 1 1
node 3 1 1 1
node 4 1 1 1
node 5 1 1 1
node 6 1 1 1
node 7 1 1 1
node 8 1 1 1
node 9 1 1 1
node 10 1 1 1
node 11 1 1 1
node 12 1 0 0
node 13 1 0 2
node 14 1 0 2
node 15 1 0 0
node 36 1 0 0
node 88 1 0 0
node 159 1 0 0
gene 1 1 12 0.09395876866 0 1 0.09395876866 1
gene 1 2 12 -0.2659481338 0 2 -0.2659481338 1
gene 1 3 12 -1.223953997 0 3 -1.223953997 1
gene 1 4 12 0.0436704565 0 4 0.0436704565 1
gene 1 5 12 1.485626944 0 5 1.485626944 1
gene 1 6 12 1.225119787 0 6 1.225119787 1
gene 1 7 12 0.6234501745 0 7 0.6234501745 1
gene 1 8 12 -2.411388883 0 8 -2.411388883 1
gene 1 9 12 -2.405743192 0 9 -2.405743192 1
gene 1 10 12 -0.08285962324 0 10 -0.08285962324 1
gene 1 11 12 -0.6692245263 0 11 -0.6692245263 0
gene 1 12 13 0.8675116729 0 12 0.8675116729 1
gene 1 12 14 -0.7953545991 0 13 -0.7953545991 0
gene 1 7 13 0.6212954752 0 15 0.6212954752 0
gene 1 10 13 0.07072654854 0 17 0.07072654854 1
gene 1 8 15 0.4841554931 0 18 0.4841554931 1
gene 1 15 12 1.611151248 0 19 1.611151248 1
gene 1 11 13 -0.2584925048 0 21 0 1
gene 1 8 13 -0.1686669032 0 23 -0.1686669032 1
gene 1 14 13 -1.882354954 0 24 -1.882354954 0
gene 1 14 14 0.5409234837 1 93 0.5409234837 0
gene 1 14 15 0.8088147593 0 172 0.8088147593 0
gene 1 14 36 1 0 260 0 1
gene 1 36 13 -0.5647064861 0 261 0 1
gene 1 3 15 0.3239245051 0 295 0.3239245051 1
gene 1 11 15 0.5029986368 0 297 0.5029986368 0
gene 1 12 12 -0.2371678141 1 306 -0.2371678141 1
gene 1 7 15 0.2444698723 0 589 0.2444698723 0
gene 1 14 88 1 0 1199 0 0
gene 1 88 15 0.2426444278 0 1200 0 0
gene 1 88 13 0.2809133186 0 1335 0.2809133186 0
gene 1 88 88 0.3212605008 1 1347 0.3212605008 0
gene 1 88 12 -0.2618033808 0 1448 -0.2618033808 0
gene 1 13 13 -0.001386518125 1 1676 -0.001386518125 1
gene 1 88 14 0.3275872335 1 1712 0.1637936168 0
gene 1 36 36 0.9187515485 1 2177 0.9187515485 1
gene 1 36 14 -0.7488510044 1 2202 -0.7488510044 1
gene 1 88 36 -0.4015093881 0 2212 -0.4015093881 0
gene 1 36 15 0.02026303998 0 2311 0 0
gene 1 36 88 0.1393073728 1 2396 0.1393073728 1
gene 1 88 159 1 0 2861 0 1
gene 1 159 13 0.08427399559 0 2862 0 1
genomeend 124128
/* Novelty: 0 Fitness: 261.0304565 Generation: 0 Indiv: 124378 */
/* Point: 27.42336082 58.80505753 27.42336082 58.80505753 */

/* Organism #124288 Fitness: 261.0304565 Error: 0 */
genomestart 124288
trait 1 0.3112606177 0.8840655356 0.0824646928 0.3268702268 0.04977995157 0.7526046602 0.5580432906 0.363829722 
node 1 1 1 3
node 2 1 1 1
node 3 1 1 1
node 4 1 1 1
node 5 1 1 1
node 6 1 1 1
node 7 1 1 1
node 8 1 1 1
node 9 1 1 1
node 10 1 1 1
node 11 1 1 1
node 12 1 0 0
node 13 1 0 2
node 14 1 0 2
node 15 1 0 0
node 36 1 0 0
node 88 1 0 0
gene 1 1 12 0.09395876866 0 1 0.09395876866 1
gene 1 2 12 -0.2659481338 0 2 -0.2659481338 1
gene 1 3 12 -1.223953997 0 3 -1.223953997 1
gene 1 4 12 0.0436704565 0 4 0.0436704565 1
gene 1 5 12 1.485626944 0 5 1.485626944 1
gene 1 6 12 1.225119787 0 6 1.225119787 1
gene 1 7 12 0.6234501745 0 7 0.6234501745 1
gene 1 8 12 -2.411388883 0 8 -2.411388883 1
gene 1 9 12 -2.405743192 0 9 -2.405743192 1
gene 1 10 12 -0.08285962324 0 10 -0.08285962324 1
gene 1 11 12 -0.6692245263 0 11 -0.6692245263 0
gene 1 12 13 0.8675116729 0 12 0.8675116729 1
gene 1 12 14 -0.7953545991 0 13 -0.7953545991 0
gene 1 7 13 0.6212954752 0 15 0.6212954752 0
gene 1 10 13 0.07072654854 0 17 0.07072654854 1
gene 1 8 15 0.4841554931 0 18 0.4841554931 1
gene 1 15 12 1.611151248 0 19 1.611151248 1
gene 1 11 13 -0.2584925048 0 21 0 1
gene 1 8 13 -0.1686669032 0 23 -0.1686669032 1
gene 1 14 13 -1.882354954 0 24 -1.882354954 0
gene 1 14 14 0.5409234837 1 93 0.5409234837 0
gene 1 14 15 0.8088147593 0 172 0.8088147593 0
gene 1 14 36 1 0 260 0 1
gene 1 36 13 -0.5647064861 0 261 0 1
gene 1 3 15 0.3239245051 0 295 0.3239245051 1
gene 1 11 15 0.5029986368 0 297 0.5029986368 0
gene 1 12 12 -0.2371678141 1 306 -0.2371678141 1
gene 1 7 15 0.2444698723 0 589 0.2444698723 0
gene 1 14 88 1 0 1199 0 0
gene 1 88 15 0.2426444278 0 1200 0 0
gene 1 88 13 0.2809133186 0 1335 0.2809133186 0
gene 1 88 88 0.3212605008 1 1347 0.3212605008 0
gene 1 88 12 -0.2618033808 0 1448 -0.2618033808 1
gene 1 13 13 -0.001386518125 1 1676 -0.001386518125 1
gene 1 88 14 0.3275872335 1 1712 0.3275872335 0
gene 1 36 36 0.9187515485 1 2177 0.9187515485 1
gene 1 36 14 -0.7488510044 1 2202 -0.7488510044 1
gene 1 88 36 -0.4015093881 0 2212 -0.4015093881 0
gene 1 36 15 0.02026303998 0 2311 0 0
gene 1 36 88 0.1393073728 1 2396 0.1393073728 1
genomeend 124288
/* Novelty: 0 Fitness: 261.0304565 Generation: 0 Indiv: 124538 */
/* Point: 27.42336082 58.80505753 27.42336082 58.80505753 */

/* Organism #124318 Fitness: 261.0304565 Error: 0 */
genomestart 124318
trait 1 0.3146055511 0.8690278932 0.1688279586 0.471502402 0.09767430598 0.6320834263 0.5915225978 0.3550312085 
node 1 1 1 3
node 2 1 1 1
node 3 1 1 1
node 4 1 1 1
node 5 1 1 1
node 6 1 1 1
node 7 1 1 1
node 8 1 1 1
node 9 1 1 1
node 10 1 1 1
node 11 1 1 1
node 12 1 0 0
node 13 1 0 2
node 14 1 0 2
node 15 1 0 0
node 36 1 0 0
node 88 1 0 0
gene 1 1 12 0.09395876866 0 1 0.09395876866 1
gene 1 2 12 -0.2659481338 0 2 -0.2659481338 1
gene 1 3 12 -1.223953997 0 3 -1.223953997 1
gene 1 4 12 0.0436704565 0 4 0.0436704565 1
gene 1 5 12 1.485626944 0 5 1.485626944 1
gene 1 6 12 1.225119787 0 6 1.225119787 1
gene 1 7 12 0.6234501745 0 7 0.6234501745 1
gene 1 8 12 -2.411388883 0 8 -2.411388883 1
gene 1 9 12 -2.405743192 0 9 -2.405743192 1
gene 1 10 12 -0.08285962324 0 10 -0.08285962324 1
gene 1 11 12 -0.6692245263 0 11 -0.6692245263 0
gene 1 12 13 0.8675116729 0 12 0.8675116729 1
gene 1 12 14 -0.7953545991 0 13 -0.7953545991 0
gene 1 7 13 0.6212954752 0 15 0.6212954752 0
gene 1 10 13 0.07072654854 0 17 0.07072654854 1
gene 1 8 15 0.4841554931 0 18 0.4841554931 1
gene 1 15 12 1.611151248 0 19 1.611151248 1
gene 1 11 13 -0.2584925048 0 21 0 1
gene 1 8 13 -0.1686669032 0 23 -0.1686669032 1
gene 1 14 13 -1.882354954 0 24 -1.882354954 0
gene 1 14 14 0.5409234837 1 93 0.5409234837 0
gene 1 14 15 0.8088147593 0 172 0.8088147593 0
gene 1 14 36 1 0 260 0 1
gene 1 36 13 -0.5647064861 0 261 0 1
gene 1 3 15 0.3239245051 0 295 0.3239245051 1
gene 1 11 15 0.5029986368 0 297 0.5029986368 0
gene 1 12 12 -0.2371678141 1 306 -0.2371678141 1
gene 1 7 15 0.2444698723 0 589 0.2444698723 0
gene 1 14 88 1 0 1199 0 0
gene 1 88 15 0.2426444278 0 1200 0 0
gene 1 88 13 0.2809133186 0 1335 0.2809133186 0
gene 1 88 88 0.3212605008 1 1347 0.3212605008 0
gene 1 88 12 -0.2618033808 0 1448 -0.2618033808 0
gene 1 13 13 -0.001386518125 1 1676 -0.001386518125 1
gene 1 88 14 0.3275872335 1 1712 0.3275872335 0
gene 1 36 36 0.9187515485 1 2177 0.9187515485 1
gene 1 36 14 -0.7488510044 1 2202 -0.7488510044 1
gene 1 88 36 -0.4015093881 0 2212 -0.4015093881 0
gene 1 36 15 0.02026303998 0 2311 0 0
gene 1 36 88 0.1393073728 1 2396 0.1393073728 1
genomeend 124318
/* Novelty: 0 Fitness: 261.0304565 Generation: 0 Indiv: 124568 */
/* Point: 27.42336082 58.80505753 27.42336082 58.80505753 */

/* Organism #124344 Fitness: 261.0304565 Error: 0 */
genomestart 124344
trait 1 0.2796759802 0.5209381418 0.2222609234 0.5144177664 0.4697158034 0.6128928703 0.3282406096 0.2920359065 
node 1 1 1 3
node 2 1 1 1
node 3 1 1 1
node 4 1 1 1
node 5 1 1 1
node 6 1 1 1
node 7 1 1 1
node 8 1 1 1
node 9 1 1 1
node 10 1 1 1
node 11 1 1 1
node 12 1 0 0
node 13 1 0 2
node 14 1 0 2
node 15 1 0 0
node 36 1 0 0
node 88 1 0 0
node 159 1 0 0
gene 1 1 12 0.09395876866 0 1 0.09395876866 1
gene 1 2 12 -0.2659481338 0 2 -0.2659481338 1
gene 1 3 12 -1.223953997 0 3 -1.223953997 1
gene 1 4 12 0.0436704565 0 4 0.0436704565 1
gene 1 5 12 1.485626944 0 5 1.485626944 1
gene 1 6 12 1.225119787 0 6 1.225119787 1
gene 1 7 12 0.6234501745 0 7 0.6234501745 1
gene 1 8 12 -2.411388883 0 8 -2.411388883 1
gene 1 9 12 -2.405743192 0 9 -2.405743192 1
gene 1 10 12 -0.08285962324 0 10 -0.08285962324 1
gene 1 11 12 -0.6692245263 0 11 -0.6692245263 0
gene 1 12 13 0.8675116729 0 12 0.8675116729 1
gene 1 12 14 -0.7953545991 0 13 -0.7953545991 0
gene 1 7 13 0.6212954752 0 15 0.6212954752 0
gene 1 10 13 0.07072654854 0 17 0.07072654854 1
gene 1 8 15 0.4841554931 0 18 0.4841554931 1
gene 1 15 12 1.611151248 0 19 1.611151248 1
gene 1 11 13 -0.2584925048 0 21 0 1
gene 1 8 13 -0.1686669032 0 23 -0.1686669032 1
gene 1 14 13 -1.882354954 0 24 -1.882354954 1
gene 1 14 14 0.5409234837 1 93 0.5409234837 0
gene 1 14 15 0.8088147593 0 172 0.8088147593 0
gene 1 14 36 1 0 260 0 1
gene 1 36 13 -0.5647064861 0 261 0 1
gene 1 3 15 0.3239245051 0 295 0.3239245051 1
gene 1 11 15 0.5029986368 0 297 0.5029986368 0
gene 1 12 12 -0.2371678141 1 306 -0.2371678141 1
gene 1 7 15 0.2444698723 0 589 0.2444698723 0
gene 1 14 88 1 0 1199 0 0
gene 1 88 15 0.2426444278 0 1200 0 0
gene 1 88 13 0.2809133186 0 1335 0.2809133186 0
gene 1 88 88 0.3212605008 1 1347 0.3212605008 0
gene 1 88 12 -0.2618033808 0 1448 -0.2618033808 1
gene 1 13 13 -0.001386518125 1 1676 -0.001386518125 1
gene 1 88 14 0.3275872335 1 1712 0.1637936168 0
gene 1 36 36 0.9187515485 1 2177 0.9187515485 1
gene 1 36 14 -0.7488510044 1 2202 -0.7488510044 1
gene 1 88 36 -0.4015093881 0 2212 -0.4015093881 0
gene 1 36 15 0.02026303998 0 2311 0 1
gene 1 36 88 0.1393073728 1 2396 0.1393073728 1
gene 1 88 159 1 0 2861 0 1
gene 1 159 13 0.08427399559 0 2862 0 1
genomeend 124344
/* Novelty: 0 Fitness: 261.0304565 Generation: 0 Indiv: 124594 */
/* Point: 27.42336082 58.80505753 27.42336082 58.80505753 */

/* Organism #124378 Fitness: 261.0304565 Error: 0 */
genomestart 124378
trait 1 0.3179504845 0.8539902507 0.2551912244 0.6161345772 0.1455686604 0.5115621924 0.6250019051 0.346232695 
node 1 1 1 3
node 2 1 1 1
node 3 1 1 1
node 4 1 1 1
node 5 1 1 1
node 6 1 1 1
node 7 1 1 1
node 8 1 1 1
node 9 1 1 1
node 10 1 1 1
node 11 1 1 1
node 12 1 0 0
node 13 1 0 2
node 14 1 0 2
node 15 1 0 0
node 36 1 0 0
node 88 1 0 0
gene 1 1 12 0.09395876866 0 1 0.09395876866 1
gene 1 2 12 -0.2659481338 0 2 -0.2659481338 1
gene 1 3 12 -1.223953997 0 3 -1.223953997 1
gene 1 4 12 0.0436704565 0 4 0.0436704565 1
gene 1 5 12 1.485626944 0 5 1.485626944 1
gene 1 6 12 1.225119787 0 6 1.225119787 1
gene 1 7 12 0.6234501745 0 7 0.6234501745 1
gene 1 8 12 -2.411388883 0 8 -2.411388883 1
gene 1 9 12 -2.405743192 0 9 -2.405743192 1
gene 1 10 12 -0.08285962324 0 10 -0.08285962324 1
gene 1 11 12 -0.6692245263 0 11 -0.6692245263 1
gene 1 12 13 0.8675116729 0 12 0.8675116729 1
gene 1 12 14 -0.7953545991 0 13 -0.7953545991 0
gene 1 7 13 0.6212954752 0 15 0.6212954752 0
gene 1 10 13 0.07072654854 0 17 0.07072654854 1
gene 1 8 15 0.4841554931 0 18 0.4841554931 1
gene 1 15 12 1.611151248 0 19 1.611151248 1
gene 1 11 13 -0.2584925048 0 21 0 1
gene 1 8 13 -0.1686669032 0 23 -0.1686669032 1
gene 1 14 13 -1.882354954 0 24 -1.882354954 0
gene 1 14 14 0.5409234837 1 93 0.5409234837 0
gene 1 14 15 0.8088147593 0 172 0.8088147593 0
gene 1 14 36 1 0 260 0 1
gene 1 36 13 -0.5647064861 0 261 0 1
gene 1 3 15 0.3239245051 0 295 0.3239245051 1
gene 1 11 15 0.5029986368 0 297 0.5029986368 0
gene 1 12 12 -0.2371678141 1 306 -0.2371678141 1
gene 1 7 15 0.2444698723 0 589 0.2444698723 0
gene 1 14 88 1 0 1199 0 0
gene 1 88 15 0.2426444278 0 1200 0 0
gene 1 88 13 0.2809133186 0 1335 0.2809133186 0
gene 1 88 88 0.3212605008 1 1347 0.3212605008 0
gene 1 88 12 -0.2618033808 0 1448 -0.2618033808 0
gene 1 13 13 -0.001386518125 1 1676 -0.001386518125 1
gene 1 88 14 0.3275872335 1 1712 0.3275872335 0
gene 1 36 36 0.9187515485 1 2177 0.9187515485 1
gene 1 36 14 -0.7488510044 1 2202 -0.7488510044 1
gene 1 88 36 -0.4015093881 0 2212 -0.4015093881 0
gene 1 36 15 0.02026303998 0 2311 0 0
gene 1 36 88 0.1393073728 1 2396 0.1393073728 1
genomeend 124378
/* Novelty: 0 Fitness: 261.0304565 Generation: 0 Indiv: 124628 */
/* Point: 27.42336082 58.80505753 27.42336082 58.80505753 */

/* Organism #124399 Fitness: 261.0304565 Error: 0 */
genomestart 124399
trait 1 0.3145786832 0.8651619476 0.1721720695 0.4644957581 0.09646695725 0.6287963011 0.5839926084 0.3620586655 
node 1 1 1 3
node 2 1 1 1
node 3 1 1 1
node 4 1 1 1
node 5 1 1 1
node 6 1 1 1
node 7 1 1 1
node 8 1 1 1
node 9 1 1 1
node 10 1 1 1
node 11 1 1 1
node 12 1 0 0
node 13 1 0 2
node 14 1 0 2
node 15 1 0 0
node 36 1 0 0
node 88 1 0 0
gene 1 1 12 0.09395876866 0 1 0.09395876866 1
gene 1 2 12 -0.2659481338 0 2 -0.2659481338 1
gene 1 3 12 -1.223953997 0 3 -1.223953997 1
gene 1 4 12 0.0436704565 0 4 0.0436704565 1
gene 1 5 12 1.485626944 0 5 1.485626944 1
gene 1 6 12 1.225119787 0 6 1.225119787 1
gene 1 7 12 0.6234501745 0 7 0.6234501745 1
gene 1 8 12 -2.411388883 0 8 -2.411388883 1
gene 1 9 12 -2.405743192 0 9 -2.405743192 1
gene 1 10 12 -0.08285962324 0 10 -0.08285962324 1
gene 1 11 12 -0.6692245263 0 11 -0.6692245263 0
gene 1 12 13 0.8675116729 0 12 0.8675116729 1
gene 1 12 14 -0.7953545991 0 13 -0.7953545991 0
gene 1 7 13 0.6212954752 0 15 0.6212954752 0
gene 1 10 13 0.07072654854 0 17 0.07072654854 1
gene 1 8 15 0.4841554931 0 18 0.4841554931 1
gene 1 15 12 1.611151248 0 19 1.611151248 1
gene 1 11 13 -0.2584925048 0 21 0 1
gene 1 8 13 -0.1686669032 0 23 -0.1686669032 1
gene 1 14 13 -1.882354954 0 24 -1.882354954 0
gene 1 14 14 0.5409234837 1 93 0.5409234837 0
gene 1 14 15 0.8088147593 0 172 0.8088147593 0
gene 1 14 36 1 0 260 0 1
gene 1 36 13 -0.5647064861 0 261 0 1
gene 1 3 15 0.3239245051 0 295 0.3239245051 1
gene 1 11 15 0.5029986368 0 297 0.5029986368 0
gene 1 12 12 -0.2371678141 1 306 -0.2371678141 1
gene 1 7 15 0.2444698723 0 589 0.2444698723 0
gene 1 14 88 1 0 1199 0 0
gene 1 88 15 0.2426444278 0 1200 0 0
gene 1 88 13 0.2809133186 0 1335 0.2809133186 0
gene 1 88 88 0.3212605008 1 1347 0.3212605008 0
gene 1 88 12 -0.2618033808 0 1448 -0.2618033808 0
gene 1 13 13 -0.001386518125 1 1676 -0.001386518125 1
gene 1 88 14 0.3275872335 1 1712 0.3275872335 0
gene 1 36 36 0.9187515485 1 2177 0.9187515485 1
gene 1 36 14 -0.7488510044 1 2202 -0.7488510044 1
gene 1 88 36 -0.4015093881 0 2212 -0.4015093881 0
gene 1 36 15 0.02026303998 0 2311 0 0
gene 1 36 88 0.1393073728 1 2396 0.1393073728 1
genomeend 124399
/* Novelty: 0 Fitness: 261.0304565 Generation: 0 Indiv: 124649 */
/* Point: 27.42336082 58.80505753 27.42336082 58.80505753 */

/* Organism #124402 Fitness: 261.0304565 Error: 0 */
genomestart 124402
trait 1 0.305539577 0.3838573019 0.1891283632 0.5115748934 0.6747605289 0.6222602261 0.1641203048 0.3381876109 
node 1 1 1 3
node 2 1 1 1
node 3 1 1 1
node 4 1 1 1
node 5 1 1 1
node 6 1 1 1
node 7 1 1 1
node 8 1 1 1
node 9 1 1 1
node 10 1 1 1
node 11 1 1 1
node 12 1 0 0
node 13 1 0 2
node 14 1 0 2
node 15 1 0 0
node 36 1 0 0
node 88 1 0 0
node 159 1 0 0
gene 1 1 12 0.09395876866 0 1 0.09395876866 1
gene 1 2 12 -0.2659481338 0 2 -0.2659481338 1
gene 1 3 12 -1.223953997 0 3 -1.223953997 1
gene 1 4 12 0.0436704565 0 4 0.0436704565 1
gene 1 5 12 1.485626944 0 5 1.485626944 1
gene 1 6 12 1.225119787 0 6 1.225119787 1
gene 1 7 12 0.6234501745 0 7 0.6234501745 1
gene 1 8 12 -2.411388883 0 8 -2.411388883 1
gene 1 9 12 -2.405743192 0 9 -2.405743192 1
gene 1 10 12 -0.08285962324 0 10 -0.08285962324 1
gene 1 11 12 -0.6692245263 0 11 -0.6692245263 1
gene 1 12 13 0.8675116729 0 12 0.8675116729 1
gene 1 12 14 -0.7953545991 0 13 -0.7953545991 0
gene 1 7 13 0.6212954752 0 15 0.6212954752 0
gene 1 10 13 0.07072654854 0 17 0.07072654854 1
gene 1 8 15 0.4841554931 0 18 0.4841554931 1
gene 1 15 12 1.611151248 0 19 1.611151248 1
gene 1 11 13 -0.2584925048 0 21 0 1
gene 1 8 13 -0.1686669032 0 23 -0.1686669032 1
gene 1 14 13 -1.882354954 0 24 -1.882354954 1
gene 1 14 14 0.5409234837 1 93 0.5409234837 1
gene 1 14 15 0.8088147593 0 172 0.8088147593 1
gene 1 14 36 1 0 260 0 1
gene 1 36 13 -0.5647064861 0 261 0 1
gene 1 3 15 0.3239245051 0 295 0.3239245051 1
gene 1 11 15 0.5029986368 0 297 0.5029986368 0
gene 1 12 12 -0.2371678141 1 306 -0.2371678141 1
gene 1 7 15 0.2444698723 0 589 0.2444698723 0
gene 1 14 88 1 0 1199 0 1
gene 1 88 15 0.2426444278 0 1200 0 0
gene 1 88 13 0.2809133186 0 1335 0.2809133186 1
gene 1 88 88 0.3212605008 1 1347 0.3212605008 1
gene 1 88 12 -0.2618033808 0 1448 -0.2618033808 1
gene 1 13 13 -0.001386518125 1 1676 -0.001386518125 1
gene 1 88 14 0.3275872335 1 1712 0.1637936168 0
gene 1 36 36 0.9187515485 1 2177 0.9187515485 1
gene 1 36 14 -0.7488510044 1 2202 -0.7488510044 1
gene 1 88 36 -0.4015093881 0 2212 -0.4015093881 1
gene 1 36 15 0.02026303998 0 2311 0 0
gene 1 36 88 0.1393073728 1 2396 0.1393073728 1
gene 1 88 159 1 0 2861 0 1
gene 1 159 13 0.08427399559 0 2862 0 1
genomeend 124402
/* Novelty: 0 Fitness: 261.0304565 Generation: 0 Indiv: 124652 */
/* Point: 27.42336082 58.80505753 27.42336082 58.80505753 */

/* Organism #124457 Fitness: 261.0304565 Error: 0 */
genomestart 124457
trait 1 0.3112068819 0.8763336444 0.08915291473 0.3128569389 0.04736525409 0.7460304098 0.5429833118 0.377884636 
node 1 1 1 3
node 2 1 1 1
node 3 1 1 1
node 4 1 1 1
node 5 1 1 1
node 6 1 1 1
node 7 1 1 1
node 8 1 1 1
node 9 1 1 1
node 10 1 1 1
node 11 1 1 1
node 12 1 0 0
node 13 1 0 2
node 14 1 0 2
node 15 1 0 0
node 36 1 0 0
node 88 1 0 0
gene 1 1 12 0.09395876866 0 1 0.09395876866 1
gene 1 2 12 -0.2659481338 0 2 -0.2659481338 1
gene 1 3 12 -1.223953997 0 3 -1.223953997 1
gene 1 4 12 0.0436704565 0 4 0.0436704565 1
gene 1 5 12 1.485626944 0 5 1.485626944 1
gene 1 6 12 1.225119787 0 6 1.225119787 1
gene 1 7 12 0.6234501745 0 7 0.6234501745 1
gene 1 8 12 -2.411388883 0 8 -2.411388883 1
gene 1 9 12 -2.405743192 0 9 -2.405743192 1
gene 1 10 12 -0.08285962324 0 10 -0.08285962324 1
gene 1 11 12 -0.6692245263 0 11 -0.6692245263 0
gene 1 12 13 0.8675116729 0 12 0.8675116729 1
gene 1 12 14 -0.7953545991 0 13 -0.7953545991 0
gene 1 7 13 0.6212954752 0 15 0.6212954752 1
gene 1 10 13 0.07072654854 0 17 0.07072654854 1
gene 1 8 15 0.4841554931 0 18 0.4841554931 1
gene 1 15 12 1.611151248 0 19 1.611151248 1
gene 1 11 13 -0.2584925048 0 21 0 1
gene 1 8 13 -0.1686669032 0 23 -0.1686669032 1
gene 1 14 13 -1.882354954 0 24 -1.882354954 0
gene 1 14 14 0.5409234837 1 93 0.5409234837 0
gene 1 14 15 0.8088147593 0 172 0.8088147593 0
gene 1 14 36 1 0 260 0 1
gene 1 36 13 -0.5647064861 0 261 0 1
gene 1 3 15 0.3239245051 0 295 0.3239245051 1
gene 1 11 15 0.5029986368 0 297 0.5029986368 0
gene 1 12 12 -0.2371678141 1 306 -0.2371678141 1
gene 1 7 15 0.2444698723 0 589 0.2444698723 0
gene 1 14 88 1 0 1199 0 0
gene 1 88 15 0.2426444278 0 1200 0 0
gene 1 88 13 0.2809133186 0 1335 0.2809133186 0
gene 1 88 88 0.3212605008 1 1347 0.3212605008 0
gene 1 88 12 -0.2618033808 0 1448 -0.2618033808 0
gene 1 13 13 -0.001386518125 1 1676 -0.001386518125 1
gene 1 88 14 0.3275872335 1 1712 0.3275872335 0
gene 1 36 36 0.9187515485 1 2177 0.9187515485 1
gene 1 36 14 -0.7488510044 1 2202 -0.7488510044 1
gene 1 88 36 -0.4015093881 0 2212 -0.4015093881 1
gene 1 36 15 0.02026303998 0 2311 0 0
gene 1 36 88 0.1393073728 1 2396 0.1393073728 1
genomeend 124457
/* Novelty: 0 Fitness: 261.0304565 Generation: 0 Indiv: 124707 */
/* Point: 27.42336082 58.80505753 27.42336082 58.80505753 */

/* Organism #124501 Fitness: 261.0304565 Error: 0 */
genomestart 124501
trait 1 0.2954414311 0.6986358931 0.1557069191 0.4136373526 0.2585405288 0.6794616401 0.4356119607 0.3349602712 
node 1 1 1 3
node 2 1 1 1
node 3 1 1 1
node 4 1 1 1
node 5 1 1 1
node 6 1 1 1
node 7 1 1 1
node 8 1 1 1
node 9 1 1 1
node 10 1 1 1
node 11 1 1 1
node 12 1 0 0
node 13 1 0 2
node 14 1 0 2
node 15 1 0 0
node 36 1 0 0
node 88 1 0 0
node 159 1 0 0
gene 1 1 12 0.09395876866 0 1 0.09395876866 1
gene 1 2 12 -0.2659481338 0 2 -0.2659481338 1
gene 1 3 12 -1.223953997 0 3 -1.223953997 1
gene 1 4 12 0.0436704565 0 4 0.0436704565 1
gene 1 5 12 1.485626944 0 5 1.485626944 1
gene 1 6 12 1.225119787 0 6 1.225119787 1
gene 1 7 12 0.6234501745 0 7 0.6234501745 1
gene 1 8 12 -2.411388883 0 8 -2.411388883 1
gene 1 9 12 -2.405743192 0 9 -2.405743192 1
gene 1 10 12 -0.08285962324 0 10 -0.08285962324 1
gene 1 11 12 -0.6692245263 0 11 -0.6692245263 0
gene 1 12 13 0.8675116729 0 12 0.8675116729 1
gene 1 12 14 -0.7953545991 0 13 -0.7953545991 0
gene 1 7 13 0.6212954752 0 15 0.6212954752 1
gene 1 10 13 0.07072654854 0 17 0.07072654854 1
gene 1 8 15 0.4841554931 0 18 0.4841554931 1
gene 1 15 12 1.611151248 0 19 1.611151248 1
gene 1 11 13 -0.2584925048 0 21 0 1
gene 1 8 13 -0.1686669032 0 23 -0.1686669032 1
gene 1 14 13 -1.882354954 0 24 -1.882354954 0
gene 1 14 14 0.5409234837 1 93 0.5409234837 0
gene 1 14 15 0.8088147593 0 172 0.8088147593 0
gene 1 14 36 1 0 260 0 1
gene 1 36 13 -0.5647064861 0 261 0 1
gene 1 3 15 0.3239245051 0 295 0.3239245051 1
gene 1 11 15 0.5029986368 0 297 0.5029986368 0
gene 1 12 12 -0.2371678141 1 306 -0.2371678141 1
gene 1 7 15 0.2444698723 0 589 0.2444698723 0
gene 1 14 88 1 0 1199 0 0
gene 1 88 15 0.2426444278 0 1200 0 0
gene 1 88 13 0.2809133186 0 1335 0.2809133186 0
gene 1 88 88 0.3212605008 1 1347 0.3212605008 0
gene 1 88 12 -0.2618033808 0 1448 -0.2618033808 0
gene 1 13 13 -0.001386518125 1 1676 -0.001386518125 1
gene 1 88 14 0.3275872335 1 1712 0.3275872335 0
gene 1 36 36 0.9187515485 1 2177 0.9187515485 1
gene 1 36 14 -0.7488510044 1 2202 -0.7488510044 1
gene 1 88 36 -0.4015093881 0 2212 -0.4015093881 0
gene 1 36 15 0.02026303998 0 2311 0 0
gene 1 36 88 0.1393073728 1 2396 0.1393073728 1
gene 1 88 159 1 0 2861 0 1
gene 1 159 13 0.08427399559 0 2862 0 1
genomeend 124501
/* Novelty: 0 Fitness: 261.0304565 Generation: 0 Indiv: 124751 */
/* Point: 27.42336082 58.80505753 27.42336082 58.80505753 */

/* Organism #124512 Fitness: 261.0304565 Error: 0 */
genomestart 124512
trait 1 0.2506548469 1 0.302798315 0.6025619536 0.06712106288 0.5528106281 0.6790876626 0 
node 1 1 1 3
node 2 1 1 1
node 3 1 1 1
node 4 1 1 1
node 5 1 1 1
node 6 1 1 1
node 7 1 1 1
node 8 1 1 1
node 9 1 1 1
node 10 1 1 1
node 11 1 1 1
node 12 1 0 0
node 13 1 0 2
node 14 1 0 2
node 15 1 0 0
node 36 1 0 0
node 88 1 0 0
node 159 1 0 0
gene 1 1 12 0.09395876866 0 1 0.09395876866 1
gene 1 2 12 -0.2659481338 0 2 -0.2659481338 1
gene 1 3 12 -1.223953997 0 3 -1.223953997 1
gene 1 4 12 0.0436704565 0 4 0.0436704565 1
gene 1 5 12 1.485626944 0 5 1.485626944 1
gene 1 6 12 1.225119787 0 6 1.225119787 1
gene 1 7 12 0.6234501745 0 7 0.6234501745 1
gene 1 8 12 -2.411388883 0 8 -2.411388883 1
gene 1 9 12 -2.405743192 0 9 -2.405743192 1
gene 1 10 12 -0.08285962324 0 10 -0.08285962324 1
gene 1 11 12 -0.6692245263 0 11 -0.6692245263 0
gene 1 12 13 0.8675116729 0 12 0.8675116729 1
gene 1 12 14 -0.7953545991 0 13 -0.7953545991 0
gene 1 7 13 0.6212954752 0 15 0.6212954752 0
gene 1 10 13 0.07072654854 0 17 0.07072654854 1
gene 1 8 15 0.4841554931 0 18 0.4841554931 1
gene 1 15 12 1.611151248 0 19 1.611151248 1
gene 1 11 13 -0.2584925048 0 21 0 1
gene 1 8 13 -0.1686669032 0 23 -0.1686669032 1
gene 1 14 13 -1.882354954 0 24 -1.882354954 0
gene 1 14 14 0.5409234837 1 93 0.5409234837 0
gene 1 14 15 0.8088147593 0 172 0.8088147593 0
gene 1 14 36 1 0 260 0 1
gene 1 36 13 -0.5647064861 0 261 0 1
gene 1 3 15 0.3239245051 0 295 0.3239245051 1
gene 1 11 15 0.5029986368 0 297 0.5029986368 0
gene 1 12 12 -0.2371678141 1 306 -0.2371678141 1
gene 1 7 15 0.2444698723 0 589 0.2444698723 0
gene 1 14 88 1 0 1199 0 0
gene 1 88 15 0.2426444278 0 1200 0 0
gene 1 88 13 0.2809133186 0 1335 0.2809133186 0
gene 1 88 88 0.3212605008 1 1347 0.3212605008 0
gene 1 88 12 -0.2618033808 0 1448 -0.2618033808 0
gene 1 13 13 -0.001386518125 1 1676 -0.001386518125 1
gene 1 88 14 0.3275872335 1 1712 0.3275872335 0
gene 1 36 36 0.9187515485 1 2177 0.9187515485 1
gene 1 36 14 -0.7488510044 1 2202 -0.7488510044 1
gene 1 88 36 -0.4015093881 0 2212 -0.4015093881 0
gene 1 36 15 0.02026303998 0 2311 0 0
gene 1 36 88 0.1393073728 1 2396 0.1393073728 1
gene 1 88 159 1 0 2861 0 1
gene 1 159 13 0.08427399559 0 2862 0 1
genomeend 124512
/* Novelty: 0 Fitness: 261.0304565 Generation: 0 Indiv: 124762 */
/* Point: 27.42336082 58.80505753 27.42336082 58.80505753 */

/* Organism #124531 Fitness: 261.0304565 Error: 0 */
genomestart 124531
trait 1 0.3009200315 0.8464318885 0.4317011127 0.7376879981 0.1545731695 0.4047541354 0.6443724009 0.2685560183 
node 1 1 1 3
node 2 1 1 1
node 3 1 1 1
node 4 1 1 1
node 5 1 1 1
node 6 1 1 1
node 7 1 1 1
node 8 1 1 1
node 9 1 1 1
node 10 1 1 1
node 11 1 1 1
node 12 1 0 0
node 13 1 0 2
node 14 1 0 2
node 15 1 0 0
node 36 1 0 0
node 88 1 0 0
node 159 1 0 0
gene 1 1 12 0.09395876866 0 1 0.09395876866 1
gene 1 2 12 -0.2659481338 0 2 -0.2659481338 1
gene 1 3 12 -1.223953997 0 3 -1.223953997 1
gene 1 4 12 0.0436704565 0 4 0.0436704565 1
gene 1 5 12 1.485626944 0 5 1.485626944 1
gene 1 6 12 1.225119787 0 6 1.225119787 1
gene 1 7 12 0.6234501745 0 7 0.6234501745 1
gene 1 8 12 -2.411388883 0 8 -2.411388883 1
gene 1 9 12 -2.405743192 0 9 -2.405743192 1
gene 1 10 12 -0.08285962324 0 10 -0.08285962324 1
gene 1 11 12 -0.6692245263 0 11 -0.6692245263 0
gene 1 12 13 0.8675116729 0 12 0.8675116729 1
gene 1 12 14 -0.7953545991 0 13 -0.7953545991 0
gene 1 7 13 0.6212954752 0 15 0.6212954752 0
gene 1 10 13 0.07072654854 0 17 0.07072654854 1
gene 1 8 15 0.4841554931 0 18 0.4841554931 1
gene 1 15 12 1.611151248 0 19 1.611151248 1
gene 1 11 13 -0.2584925048 0 21 0 1
gene 1 8 13 -0.1686669032 0 23 -0.1686669032 1
gene 1 14 13 -1.882354954 0 24 -1.882354954 0
gene 1 14 14 0.5409234837 1 93 0.5409234837 0
gene 1 14 15 0.8088147593 0 172 0.8088147593 0
gene 1 14 36 1 0 260 0 1
gene 1 36 13 -0.5647064861 0 261 0 1
gene 1 3 15 0.3239245051 0 295 0.3239245051 1
gene 1 11 15 0.5029986368 0 297 0.5029986368 0
gene 1 12 12 -0.2371678141 1 306 -0.2371678141 1
gene 1 7 15 0.2444698723 0 589 0.2444698723 0
gene 1 14 88 1 0 1199 0 0
gene 1 88 15 0.2426444278 0 1200 0 0
gene 1 88 13 0.2809133186 0 1335 0.2809133186 0
gene 1 88 88 0.3212605008 1 1347 0.3212605008 0
gene 1 88 12 -0.2618033808 0 1448 -0.2618033808 0
gene 1 13 13 -0.001386518125 1 1676 -0.001386518125 1
gene 1 88 14 0.3275872335 1 1712 0.3275872335 0
gene 1 36 36 0.9187515485 1 2177 0.9187515485 1
gene 1 36 14 -0.7488510044 1 2202 -0.7488510044 1
gene 1 88 36 -0.4015093881 0 2212 -0.4015093881 0
gene 1 36 15 0.02026303998 0 2311 0 0
gene 1 36 88 0.1393073728 1 2396 0.1393073728 1
gene 1 88 159 1 0 2861 0 1
gene 1 159 13 0.08427399559 0 2862 0 1
genomeend 124531
/* Novelty: 0 Fitness: 261.0304565 Generation: 0 Indiv: 124781 */
/* Point: 27.42336082 58.80505753 27.42336082 58.80505753 */

/* Organism #124605 Fitness: 261.0304565 Error: 0 */
genomestart 124605
trait 1 1 0.4384890125 1 0 0 0.6137328328 0.6665464164 0.2351167758 
node 1 1 1 3
node 2 1 1 1
node 3 1 1 1
node 4 1 1 1
node 5 1 1 1
node 6 1 1 1
node 7 1 1 1
node 8 1 1 1
node 9 1 1 1
node 10 1 1 1
node 11 1 1 1
node 12 1 0 0
node 13 1 0 2
node 14 1 0 2
node 15 1 0 0
node 36 1 0 0
node 88 1 0 0
node 159 1 0 0
gene 1 1 12 0.09395876866 0 1 0.09395876866 1
gene 1 2 12 -0.2659481338 0 2 -0.2659481338 1
gene 1 3 12 -1.223953997 0 3 -1.223953997 1
gene 1 4 12 0.0436704565 0 4 0.0436704565 1
gene 1 5 12 1.485626944 0 5 1.485626944 1
gene 1 6 12 1.225119787 0 6 1.225119787 1
gene 1 7 12 0.6234501745 0 7 0.6234501745 1
gene 1 8 12 -2.411388883 0 8 -2.411388883 1
gene 1 9 12 -2.405743192 0 9 -2.405743192 1
gene 1 10 12 -0.08285962324 0 10 -0.08285962324 1
gene 1 11 12 -0.6692245263 0 11 -0.6692245263 0
gene 1 12 13 0.8675116729 0 12 0.8675116729 1
gene 1 12 14 -0.7953545991 0 13 -0.7953545991 0
gene 1 7 13 0.6212954752 0 15 0.6212954752 0
gene 1 10 13 0.07072654854 0 17 0.07072654854 1
gene 1 8 15 0.4841554931 0 18 0.4841554931 1
gene 1 15 12 1.611151248 0 19 1.611151248 1
gene 1 11 13 -0.2584925048 0 21 0 1
gene 1 8 13 -0.1686669032 0 23 -0.1686669032 1
gene 1 14 13 -1.882354954 0 24 -1.882354954 0
gene 1 14 14 0.5409234837 1 93 0.5409234837 0
gene 1 14 15 0.8088147593 0 172 0.8088147593 0
gene 1 14 36 1 0 260 0 1
gene 1 36 13 -0.5647064861 0 261 0 1
gene 1 3 15 0.3239245051 0 295 0.3239245051 1
gene 1 11 15 0.5029986368 0 297 0.5029986368 0
gene 1 12 12 -0.2371678141 1 306 -0.2371678141 1
gene 1 7 15 0.2444698723 0 589 0.2444698723 0
gene 1 14 88 1 0 1199 0 1
gene 1 88 15 0.2426444278 0 1200 0 0
gene 1 88 13 0.2809133186 0 1335 0.2809133186 0
gene 1 88 88 0.3212605008 1 1347 0.3212605008 0
gene 1 88 12 -0.2618033808 0 1448 -0.2618033808 0
gene 1 13 13 -0.001386518125 1 1676 -0.001386518125 1
gene 1 88 14 0.3275872335 1 1712 0.1637936168 0
gene 1 36 36 0.9187515485 1 2177 0.9187515485 1
gene 1 36 14 -0.7488510044 1 2202 -0.7488510044 1
gene 1 88 36 -0.4015093881 0 2212 -0.4015093881 1
gene 1 36 15 0.02026303998 0 2311 0 0
gene 1 36 88 0.1393073728 1 2396 0.1393073728 1
gene 1 88 159 1 0 2861 0 1
gene 1 159 13 0.08427399559 0 2862 0 1
genomeend 124605
/* Novelty: 0 Fitness: 261.0304565 Generation: 0 Indiv: 124855 */
/* Point: 27.42336082 58.80505753 27.42336082 58.80505753 */

/* Organism #124721 Fitness: 261.0304565 Error: 0 */
genomestart 124721
trait 1 0.6026639831 0.6043591366 0.7156737406 0.3438414233 0.04187676036 0.5376906801 0.6736981202 0.1883445305 
node 1 1 1 3
node 2 1 1 1
node 3 1 1 1
node 4 1 1 1
node 5 1 1 1
node 6 1 1 1
node 7 1 1 1
node 8 1 1 1
node 9 1 1 1
node 10 1 1 1
node 11 1 1 1
node 12 1 0 0
node 13 1 0 2
node 14 1 0 2
node 15 1 0 0
node 36 1 0 0
node 88 1 0 0
node 159 1 0 0
gene 1 1 12 0.09395876866 0 1 0.09395876866 1
gene 1 2 12 -0.2659481338 0 2 -0.2659481338 1
gene 1 3 12 -1.223953997 0 3 -1.223953997 1
gene 1 4 12 0.0436704565 0 4 0.0436704565 1
gene 1 5 12 1.485626944 0 5 1.485626944 1
gene 1 6 12 1.225119787 0 6 1.225119787 1
gene 1 7 12 0.6234501745 0 7 0.6234501745 1
gene 1 8 12 -2.411388883 0 8 -2.411388883 1
gene 1 9 12 -2.405743192 0 9 -2.405743192 1
gene 1 10 12 -0.08285962324 0 10 -0.08285962324 1
gene 1 11 12 -0.6692245263 0 11 -0.6692245263 0
gene 1 12 13 0.8675116729 0 12 0.8675116729 1
gene 1 12 14 -0.7953545991 0 13 -0.7953545991 0
gene 1 7 13 0.6212954752 0 15 0.6212954752 0
gene 1 10 13 0.07072654854 0 17 0.07072654854 1
gene 1 8 15 0.4841554931 0 18 0.4841554931 1
gene 1 15 12 1.611151248 0 19 1.611151248 1
gene 1 11 13 -0.2584925048 0 21 0 1
gene 1 8 13 -0.1686669032 0 23 -0.1686669032 1
gene 1 14 13 -1.882354954 0 24 -1.882354954 0
gene 1 14 14 0.5409234837 1 93 0.5409234837 0
gene 1 14 15 0.8088147593 0 172 0.8088147593 0
gene 1 14 36 1 0 260 0 1
gene 1 36 13 -0.5647064861 0 261 0 1
gene 1 3 15 0.3239245051 0 295 0.3239245051 1
gene 1 11 15 0.5029986368 0 297 0.5029986368 0
gene 1 12 12 -0.2371678141 1 306 -0.2371678141 1
gene 1 7 15 0.2444698723 0 589 0.2444698723 0
gene 1 14 88 1 0 1199 0 0
gene 1 88 15 0.2426444278 0 1200 0 0
gene 1 88 13 0.2809133186 0 1335 0.2809133186 0
gene 1 88 88 0.3212605008 1 1347 0.3212605008 0
gene 1 88 12 -0.2618033808 0 1448 -0.2618033808 0
gene 1 13 13 -0.001386518125 1 1676 -0.001386518125 1
gene 1 88 14 0.3275872335 1 1712 0.1637936168 0
gene 1 36 36 0.9187515485 1 2177 0.9187515485 1
gene 1 36 14 -0.7488510044 1 2202 -0.7488510044 1
gene 1 88 36 -0.4015093881 0 2212 -0.4015093881 0
gene 1 36 15 0.02026303998 0 2311 0 0
gene 1 36 88 0.1393073728 1 2396 0.1393073728 1
gene 1 88 159 1 0 2861 0 1
gene 1 159 13 0.08427399559 0 2862 0 1
genomeend 124721
/* Novelty: 0 Fitness: 261.0304565 Generation: 0 Indiv: 124971 */
/* Point: 27.42336082 58.80505753 27.42336082 58.80505753 */

/* Organism #124895 Fitness: 261.0304565 Error: 0 */
genomestart 124895
trait 1 0.3009200315 0.8464318885 0.4317011127 0.7376879981 0.1545731695 0.4047541354 0.6443724009 0.2685560183 
node 1 1 1 3
node 2 1 1 1
node 3 1 1 1
node 4 1 1 1
node 5 1 1 1
node 6 1 1 1
node 7 1 1 1
node 8 1 1 1
node 9 1 1 1
node 10 1 1 1
node 11 1 1 1
node 12 1 0 0
node 13 1 0 2
node 14 1 0 2
node 15 1 0 0
node 36 1 0 0
node 88 1 0 0
node 159 1 0 0
gene 1 1 12 0.09395876866 0 1 0.09395876866 1
gene 1 2 12 -0.2659481338 0 2 -0.2659481338 1
gene 1 3 12 -1.223953997 0 3 -1.223953997 1
gene 1 4 12 0.0436704565 0 4 0.0436704565 1
gene 1 5 12 1.485626944 0 5 1.485626944 1
gene 1 6 12 1.225119787 0 6 1.225119787 1
gene 1 7 12 0.6234501745 0 7 0.6234501745 1
gene 1 8 12 -2.411388883 0 8 -2.411388883 1
gene 1 9 12 -2.405743192 0 9 -2.405743192 1
gene 1 10 12 -0.08285962324 0 10 -0.08285962324 1
gene 1 11 12 -0.6692245263 0 11 -0.6692245263 0
gene 1 12 13 0.8675116729 0 12 0.8675116729 1
gene 1 12 14 -0.7953545991 0 13 -0.7953545991 0
gene 1 7 13 0.6212954752 0 15 0.6212954752 0
gene 1 10 13 0.07072654854 0 17 0.07072654854 1
gene 1 8 15 0.4841554931 0 18 0.4841554931 1
gene 1 15 12 1.611151248 0 19 1.611151248 1
gene 1 11 13 -0.2584925048 0 21 0 1
gene 1 8 13 -0.1686669032 0 23 -0.1686669032 1
gene 1 14 13 -1.882354954 0 24 -1.882354954 0
gene 1 14 14 0.5409234837 1 93 0.5409234837 0
gene 1 14 15 0.8088147593 0 172 0.8088147593 0
gene 1 14 36 1 0 260 0 1
gene 1 36 13 -0.5647064861 0 261 0 1
gene 1 3 15 0.3239245051 0 295 0.3239245051 1
gene 1 11 15 0.5029986368 0 297 0.5029986368 0
gene 1 12 12 -0.2371678141 1 306 -0.2371678141 1
gene 1 7 15 0.2444698723 0 589 0.2444698723 0
gene 1 14 88 1 0 1199 0 0
gene 1 88 15 0.2426444278 0 1200 0 0
gene 1 88 13 0.2809133186 0 1335 0.2809133186 0
gene 1 88 88 0.3212605008 1 1347 0.3212605008 0
gene 1 88 12 -0.2618033808 0 1448 -0.2618033808 0
gene 1 13 13 -0.001386518125 1 1676 -0.001386518125 1
gene 1 88 14 0.3275872335 1 1712 0.3275872335 0
gene 1 36 36 0.9187515485 1 2177 0.9187515485 1
gene 1 36 14 -0.7488510044 1 2202 -0.7488510044 1
gene 1 88 36 -0.4015093881 0 2212 -0.4015093881 0
gene 1 36 15 0.02026303998 0 2311 0 0
gene 1 36 88 0.1393073728 1 2396 0.1393073728 1
gene 1 88 159 1 0 2861 0 1
gene 1 159 13 0.08427399559 0 2862 0 1
gene 1 159 159 -0.2136923919 1 2995 -0.2136923919 1
genomeend 124895
/* Novelty: 0 Fitness: 261.0304565 Generation: 0 Indiv: 125145 */
/* Point: 27.42336082 58.80505753 27.42336082 58.80505753 */

/* Species #73 : (Size 16) (AF 0) (Age 1)  */


/* Organism #123709 Fitness: 261.0425415 Error: 0 */
genomestart 123709
trait 1 0.3490344096 0.2278653212 0.635676459 0.6759525087 0.6632315284 0.2871455303 0.2300375197 0.506945594 
node 1 1 1 3
node 2 1 1 1
node 3 1 1 1
node 4 1 1 1
node 5 1 1 1
node 6 1 1 1
node 7 1 1 1
node 8 1 1 1
node 9 1 1 1
node 10 1 1 1
node 11 1 1 1
node 12 1 0 0
node 13 1 0 2
node 14 1 0 2
node 27 1 0 0
node 35 1 0 0
node 89 1 0 0
node 105 1 0 0
node 152 1 0 0
gene 1 1 12 -0.8486797683 0 1 -0.8486797683 1
gene 1 2 12 0.04423398378 0 2 0.04423398378 0
gene 1 3 12 -0.07799061941 0 3 -0.07799061941 1
gene 1 4 12 1.474864329 0 4 1.474864329 1
gene 1 5 12 0.08675887763 0 5 0.08675887763 1
gene 1 6 12 -0.6552315216 0 6 -0.6552315216 1
gene 1 7 12 -0.9524618291 0 7 -0.9524618291 0
gene 1 8 12 -0.5607534936 0 8 -0.5607534936 0
gene 1 9 12 1.49259852 0 9 1.49259852 1
gene 1 10 12 -1.089954711 0 10 -1.089954711 1
gene 1 11 12 -0.892585725 0 11 -0.892585725 1
gene 1 12 13 -0.0753449269 0 12 -0.0753449269 1
gene 1 12 14 -1.32845853 0 13 -1.32845853 1
gene 1 7 14 1.637653237 0 14 1.637653237 1
gene 1 7 13 -0.7638452145 0 15 0 1
gene 1 11 14 0.9662581724 0 20 0 0
gene 1 11 13 -0.2584925048 0 21 0 1
gene 1 14 14 -2.34784768 1 22 -2.34784768 1
gene 1 8 13 0.2192951637 0 23 0 0
gene 1 1 13 0.4308916694 0 31 0.4308916694 1
gene 1 3 14 0.5677249237 0 33 0.5677249237 1
gene 1 10 14 1.096542551 0 38 1.096542551 1
gene 1 5 13 -0.6076027936 0 41 -0.6076027936 1
gene 1 4 13 -0.9732285951 0 52 -0.9732285951 1
gene 1 6 14 0.9728506221 0 53 0 1
gene 1 6 13 -0.09728767709 0 69 -0.09728767709 1
gene 1 8 14 0.339243925 0 81 0.339243925 0
gene 1 4 27 -0.4627281586 0 105 -0.4627281586 1
gene 1 27 13 1.516821912 0 106 1.516821912 1
gene 1 7 27 -0.3536470203 0 120 0 1
gene 1 11 27 -0.1810337619 0 156 -0.1810337619 1
gene 1 8 27 0.7619359781 0 228 0 1
gene 1 2 35 1 0 248 1 1
gene 1 35 12 -0.09142202624 0 249 0 1
gene 1 27 35 0.1374281366 0 303 0 1
gene 1 4 35 -0.4801794568 0 343 0 1
gene 1 9 35 0.1245034226 0 361 0.1245034226 1
gene 1 7 35 0.1427019188 0 364 0.1427019188 0
gene 1 6 35 -0.945541312 0 412 0 1
gene 1 11 35 -0.6633067055 0 440 -0.6633067055 0
gene 1 8 35 0.02744377545 0 451 0 0
gene 1 35 35 0.1692449363 1 466 0.1692449363 0
gene 1 13 35 0.3407195277 1 498 0.3407195277 0
gene 1 1 35 0.7378599154 0 558 0.7378599154 1
gene 1 14 35 -0.4420158106 1 771 -0.4420158106 1
gene 1 10 35 0.2026721431 0 788 0 0
gene 1 5 35 0.5491782052 0 921 0.5491782052 1
gene 1 12 12 -0.07606447166 1 1065 -0.07606447166 1
gene 1 8 89 1 0 1215 0 0
gene 1 89 35 0.008233132636 0 1216 0 1
gene 1 6 89 -0.6017597949 0 1243 -0.6017597949 0
gene 1 89 89 -0.1750864145 1 1287 -0.1750864145 1
gene 1 11 89 0.7183580393 0 1313 0.7183580393 1
gene 1 2 89 0.7064515025 0 1340 0.7064515025 0
gene 1 9 89 -0.3999134802 0 1359 -0.3999134802 0
gene 1 12 89 0.1675205138 1 1429 0.1675205138 1
gene 1 7 89 0.3082614659 0 1483 0.3082614659 0
gene 1 5 89 -0.9366881679 0 1528 0 1
gene 1 1 89 -0.341238408 0 1537 -0.341238408 1
gene 1 27 89 0.3194503022 0 1601 0 1
gene 1 2 105 1 0 1671 0 1
gene 1 105 35 0.3 0 1672 0 1
gene 1 4 89 0.7591484006 0 1722 0 0
gene 1 10 89 -0.6840900409 0 1805 0 0
gene 1 3 89 0.3811186773 0 1848 0.3811186773 1
gene 1 13 89 -0.700695719 1 1919 -0.700695719 0
gene 1 13 27 5.583465102e-05 1 2120 5.583465102e-05 1
gene 1 35 89 0.4177219884 1 2142 0.4177219884 1
gene 1 14 12 0.01217011037 1 2452 0.01217011037 1
gene 1 4 105 -0.4738421535 0 2762 -0.4738421535 1
gene 1 12 35 0.403237669 1 2790 0.403237669 1
gene 1 2 152 1 0 2800 0 1
gene 1 152 105 0.3 0 2801 0 1
gene 1 10 105 -0.9848616826 0 2856 -0.9848616826 1
gene 1 7 105 -0.8949998351 0 2872 -0.8949998351 1
genomeend 123709
/* Novelty: 0 Fitness: 261.0425415 Generation: 0 Indiv: 123959 */
/* Point: 27.38393784 58.78926468 27.38393784 58.78926468 */

/* Organism #124031 Fitness: 261.0425415 Error: 0 */
genomestart 124031
trait 1 0.3475519 0.8810905205 1 0.6903917639 1 0.0703951969 0 0.5134700905 
node 1 1 1 3
node 2 1 1 1
node 3 1 1 1
node 4 1 1 1
node 5 1 1 1
node 6 1 1 1
node 7 1 1 1
node 8 1 1 1
node 9 1 1 1
node 10 1 1 1
node 11 1 1 1
node 12 1 0 0
node 13 1 0 2
node 14 1 0 2
node 27 1 0 0
node 35 1 0 0
node 89 1 0 0
node 105 1 0 0
node 152 1 0 0
gene 1 1 12 -0.8486797683 0 1 -0.8486797683 1
gene 1 2 12 0.04423398378 0 2 0.04423398378 0
gene 1 3 12 -0.07799061941 0 3 -0.07799061941 1
gene 1 4 12 1.474864329 0 4 1.474864329 1
gene 1 5 12 0.08675887763 0 5 0.08675887763 1
gene 1 6 12 -0.6552315216 0 6 -0.6552315216 1
gene 1 7 12 -0.9524618291 0 7 -0.9524618291 0
gene 1 8 12 -0.5607534936 0 8 -0.5607534936 1
gene 1 9 12 1.49259852 0 9 1.49259852 1
gene 1 10 12 -1.089954711 0 10 -1.089954711 1
gene 1 11 12 -0.892585725 0 11 -0.892585725 1
gene 1 12 13 -0.0753449269 0 12 -0.0753449269 1
gene 1 12 14 -1.32845853 0 13 -1.32845853 1
gene 1 7 14 1.637653237 0 14 1.637653237 1
gene 1 7 13 -0.7638452145 0 15 0 1
gene 1 11 14 0.9662581724 0 20 0 0
gene 1 11 13 -0.2584925048 0 21 0 1
gene 1 14 14 -2.34784768 1 22 -2.34784768 1
gene 1 8 13 0.2192951637 0 23 0 0
gene 1 1 13 0.4308916694 0 31 0.4308916694 1
gene 1 3 14 0.5677249237 0 33 0.5677249237 1
gene 1 10 14 1.096542551 0 38 1.096542551 1
gene 1 5 13 -0.6076027936 0 41 -0.6076027936 1
gene 1 4 13 -0.9732285951 0 52 -0.9732285951 1
gene 1 6 14 0.9728506221 0 53 0 1
gene 1 6 13 -0.09728767709 0 69 -0.09728767709 1
gene 1 8 14 0.339243925 0 81 0.339243925 0
gene 1 4 27 -0.4627281586 0 105 -0.4627281586 1
gene 1 27 13 1.516821912 0 106 1.516821912 1
gene 1 7 27 -0.3536470203 0 120 0 1
gene 1 11 27 -0.1810337619 0 156 -0.1810337619 0
gene 1 8 27 0.7619359781 0 228 0 1
gene 1 2 35 1 0 248 1 1
gene 1 35 12 -0.09142202624 0 249 0 1
gene 1 27 35 0.1374281366 0 303 0 1
gene 1 4 35 -0.4801794568 0 343 0 1
gene 1 9 35 0.1245034226 0 361 0.1245034226 1
gene 1 7 35 0.1427019188 0 364 0.1427019188 0
gene 1 6 35 -0.945541312 0 412 0 1
gene 1 11 35 -0.6633067055 0 440 -0.6633067055 0
gene 1 8 35 0.02744377545 0 451 0 0
gene 1 35 35 0.1692449363 1 466 0.1692449363 0
gene 1 13 35 0.3407195277 1 498 0.3407195277 0
gene 1 1 35 0.7378599154 0 558 0.7378599154 1
gene 1 14 35 -0.4420158106 1 771 -0.4420158106 1
gene 1 10 35 0.2026721431 0 788 0 0
gene 1 5 35 0.5491782052 0 921 0.5491782052 1
gene 1 12 12 -0.07606447166 1 1065 -0.07606447166 1
gene 1 8 89 1 0 1215 0 1
gene 1 89 35 0.008233132636 0 1216 0 1
gene 1 6 89 -0.6017597949 0 1243 -0.6017597949 0
gene 1 89 89 -0.1750864145 1 1287 -0.1750864145 1
gene 1 11 89 0.7183580393 0 1313 0.7183580393 1
gene 1 2 89 0.7064515025 0 1340 0.7064515025 1
gene 1 9 89 -0.3999134802 0 1359 -0.3999134802 1
gene 1 12 89 0.1675205138 1 1429 0.1675205138 1
gene 1 7 89 0.3082614659 0 1483 0.3082614659 1
gene 1 5 89 -0.9366881679 0 1528 0 1
gene 1 1 89 -0.341238408 0 1537 -0.341238408 1
gene 1 27 89 0.3194503022 0 1601 0 1
gene 1 2 105 1 0 1671 0 1
gene 1 105 35 0.3 0 1672 0 1
gene 1 4 89 0.7591484006 0 1722 0 0
gene 1 10 89 -0.6840900409 0 1805 0 1
gene 1 3 89 0.3811186773 0 1848 0.3811186773 1
gene 1 13 89 -0.700695719 1 1919 -0.700695719 0
gene 1 13 27 5.583465102e-05 1 2120 5.583465102e-05 1
gene 1 35 89 0.4177219884 1 2142 0.4177219884 1
gene 1 14 12 0.01217011037 1 2452 0.01217011037 1
gene 1 4 105 -0.4738421535 0 2762 -0.4738421535 1
gene 1 12 35 0.403237669 1 2790 0.403237669 1
gene 1 2 152 1 0 2800 0 1
gene 1 152 105 0.3 0 2801 0 1
gene 1 10 105 -0.9848616826 0 2856 -0.9848616826 1
gene 1 7 105 -0.8949998351 0 2872 -0.8949998351 1
genomeend 124031
/* Novelty: 0 Fitness: 261.0425415 Generation: 0 Indiv: 124281 */
/* Point: 27.38393784 58.78926468 27.38393784 58.78926468 */

/* Organism #124035 Fitness: 261.0425415 Error: 0 */
genomestart 124035
trait 1 0.3482392614 0.5606837809 0.8114513462 0.6903518108 0.8347956752 0.1782344362 0.09755591641 0.5165327999 
node 1 1 1 3
node 2 1 1 1
node 3 1 1 1
node 4 1 1 1
node 5 1 1 1
node 6 1 1 1
node 7 1 1 1
node 8 1 1 1
node 9 1 1 1
node 10 1 1 1
node 11 1 1 1
node 12 1 0 0
node 13 1 0 2
node 14 1 0 2
node 27 1 0 0
node 35 1 0 0
node 89 1 0 0
node 105 1 0 0
node 152 1 0 0
gene 1 1 12 -0.8486797683 0 1 -0.8486797683 1
gene 1 2 12 0.04423398378 0 2 0.04423398378 0
gene 1 3 12 -0.07799061941 0 3 -0.07799061941 1
gene 1 4 12 1.474864329 0 4 1.474864329 1
gene 1 5 12 0.08675887763 0 5 0.08675887763 1
gene 1 6 12 -0.6552315216 0 6 -0.6552315216 1
gene 1 7 12 -0.9524618291 0 7 -0.9524618291 0
gene 1 8 12 -0.5607534936 0 8 -0.5607534936 0
gene 1 9 12 1.49259852 0 9 1.49259852 1
gene 1 10 12 -1.089954711 0 10 -1.089954711 1
gene 1 11 12 -0.892585725 0 11 -0.892585725 1
gene 1 12 13 -0.0753449269 0 12 -0.0753449269 1
gene 1 12 14 -1.32845853 0 13 -1.32845853 1
gene 1 7 14 1.637653237 0 14 1.637653237 1
gene 1 7 13 -0.7638452145 0 15 0 1
gene 1 11 14 0.9662581724 0 20 0 0
gene 1 11 13 -0.2584925048 0 21 0 1
gene 1 14 14 -2.34784768 1 22 -2.34784768 1
gene 1 8 13 0.2192951637 0 23 0 0
gene 1 1 13 0.4308916694 0 31 0.4308916694 1
gene 1 3 14 0.5677249237 0 33 0.5677249237 1
gene 1 10 14 1.096542551 0 38 1.096542551 1
gene 1 5 13 -0.6076027936 0 41 -0.6076027936 1
gene 1 4 13 -0.9732285951 0 52 -0.9732285951 1
gene 1 6 14 0.9728506221 0 53 0 1
gene 1 6 13 -0.09728767709 0 69 -0.09728767709 1
gene 1 8 14 0.339243925 0 81 0.339243925 0
gene 1 4 27 -0.4627281586 0 105 -0.4627281586 1
gene 1 27 13 1.516821912 0 106 1.516821912 1
gene 1 7 27 -0.3536470203 0 120 0 1
gene 1 11 27 -0.1810337619 0 156 -0.1810337619 0
gene 1 8 27 0.7619359781 0 228 0 1
gene 1 2 35 1 0 248 1 1
gene 1 35 12 -0.09142202624 0 249 0 1
gene 1 27 35 0.1374281366 0 303 0 1
gene 1 4 35 -0.4801794568 0 343 0 1
gene 1 9 35 0.1245034226 0 361 0.1245034226 1
gene 1 7 35 0.1427019188 0 364 0.1427019188 0
gene 1 6 35 -0.945541312 0 412 0 1
gene 1 11 35 -0.6633067055 0 440 -0.6633067055 0
gene 1 8 35 0.02744377545 0 451 0 0
gene 1 35 35 0.1692449363 1 466 0.1692449363 0
gene 1 13 35 0.3407195277 1 498 0.3407195277 0
gene 1 1 35 0.7378599154 0 558 0.7378599154 1
gene 1 14 35 -0.4420158106 1 771 -0.4420158106 1
gene 1 10 35 0.2026721431 0 788 0 0
gene 1 5 35 0.5491782052 0 921 0.5491782052 1
gene 1 12 12 -0.07606447166 1 1065 -0.07606447166 1
gene 1 8 89 1 0 1215 0 0
gene 1 89 35 0.008233132636 0 1216 0 1
gene 1 6 89 -0.6017597949 0 1243 -0.6017597949 0
gene 1 89 89 -0.1750864145 1 1287 -0.1750864145 0
gene 1 11 89 0.7183580393 0 1313 0.7183580393 1
gene 1 2 89 0.7064515025 0 1340 0.7064515025 0
gene 1 9 89 -0.3999134802 0 1359 -0.3999134802 0
gene 1 12 89 0.1675205138 1 1429 0.1675205138 1
gene 1 7 89 0.3082614659 0 1483 0.3082614659 0
gene 1 5 89 -0.9366881679 0 1528 0 1
gene 1 1 89 -0.341238408 0 1537 -0.341238408 1
gene 1 27 89 0.3194503022 0 1601 0 1
gene 1 2 105 1 0 1671 0 1
gene 1 105 35 0.3 0 1672 0 1
gene 1 4 89 0.7591484006 0 1722 0 0
gene 1 10 89 -0.6840900409 0 1805 0 0
gene 1 3 89 0.3811186773 0 1848 0.3811186773 1
gene 1 13 89 -0.700695719 1 1919 -0.700695719 0
gene 1 13 27 5.583465102e-05 1 2120 5.583465102e-05 1
gene 1 35 89 0.4177219884 1 2142 0.4177219884 1
gene 1 14 12 0.01217011037 1 2452 0.01217011037 1
gene 1 4 105 -0.4738421535 0 2762 -0.4738421535 1
gene 1 12 35 0.403237669 1 2790 0.403237669 1
gene 1 2 152 1 0 2800 0 1
gene 1 152 105 0.3 0 2801 0 1
gene 1 10 105 -0.9848616826 0 2856 -0.9848616826 1
gene 1 7 105 -0.8949998351 0 2872 -0.8949998351 1
genomeend 124035
/* Novelty: 0 Fitness: 261.0425415 Generation: 0 Indiv: 124285 */
/* Point: 27.38393784 58.78926468 27.38393784 58.78926468 */

/* Organism #124686 Fitness: 261.0425415 Error: 0 */
genomestart 124686
trait 1 0 0.5544779208 0.1647769687 0.6831721363 0.2135796251 0.6536197188 0.1150187598 0.5102078422 
node 1 1 1 3
node 2 1 1 1
node 3 1 1 1
node 4 1 1 1
node 5 1 1 1
node 6 1 1 1
node 7 1 1 1
node 8 1 1 1
node 9 1 1 1
node 10 1 1 1
node 11 1 1 1
node 12 1 0 0
node 13 1 0 2
node 14 1 0 2
node 27 1 0 0
node 35 1 0 0
node 89 1 0 0
node 105 1 0 0
node 152 1 0 0
gene 1 1 12 -0.8486797683 0 1 -0.8486797683 1
gene 1 2 12 0.04423398378 0 2 0.04423398378 0
gene 1 3 12 -0.07799061941 0 3 -0.07799061941 1
gene 1 4 12 1.474864329 0 4 1.474864329 1
gene 1 5 12 0.08675887763 0 5 0.08675887763 1
gene 1 6 12 -0.6552315216 0 6 -0.6552315216 1
gene 1 7 12 -0.9524618291 0 7 -0.9524618291 0
gene 1 8 12 -0.5607534936 0 8 -0.5607534936 0
gene 1 9 12 1.49259852 0 9 1.49259852 1
gene 1 10 12 -1.089954711 0 10 -1.089954711 1
gene 1 11 12 -0.892585725 0 11 -0.892585725 1
gene 1 12 13 -0.0753449269 0 12 -0.0753449269 1
gene 1 12 14 -1.32845853 0 13 -1.32845853 1
gene 1 7 14 1.637653237 0 14 1.637653237 1
gene 1 7 13 -0.7638452145 0 15 0 1
gene 1 11 14 0.9662581724 0 20 0 0
gene 1 11 13 -0.2584925048 0 21 0 1
gene 1 14 14 -2.34784768 1 22 -2.34784768 1
gene 1 8 13 0.2192951637 0 23 0 0
gene 1 1 13 0.4308916694 0 31 0.4308916694 1
gene 1 3 14 0.5677249237 0 33 0.5677249237 1
gene 1 10 14 1.096542551 0 38 1.096542551 1
gene 1 5 13 -0.6076027936 0 41 -0.6076027936 1
gene 1 4 13 -0.9732285951 0 52 -0.9732285951 1
gene 1 6 14 0.9728506221 0 53 0 1
gene 1 6 13 -0.09728767709 0 69 -0.09728767709 1
gene 1 8 14 0.339243925 0 81 0.339243925 0
gene 1 4 27 -0.4627281586 0 105 -0.4627281586 1
gene 1 27 13 1.516821912 0 106 1.516821912 1
gene 1 7 27 -0.3536470203 0 120 0 1
gene 1 11 27 -0.1810337619 0 156 -0.1810337619 0
gene 1 8 27 0.7619359781 0 228 0 1
gene 1 2 35 1 0 248 1 1
gene 1 35 12 -0.09142202624 0 249 0 1
gene 1 27 35 0.1374281366 0 303 0 1
gene 1 4 35 -0.4801794568 0 343 0 1
gene 1 9 35 0.1245034226 0 361 0.1245034226 1
gene 1 7 35 0.1427019188 0 364 0.1427019188 0
gene 1 6 35 -0.945541312 0 412 0 1
gene 1 11 35 -0.6633067055 0 440 -0.6633067055 1
gene 1 8 35 0.02744377545 0 451 0 1
gene 1 35 35 0.1692449363 1 466 0.1692449363 0
gene 1 13 35 0.3407195277 1 498 0.3407195277 0
gene 1 1 35 0.7378599154 0 558 0.7378599154 1
gene 1 14 35 -0.4420158106 1 771 -0.4420158106 1
gene 1 10 35 0.2026721431 0 788 0 1
gene 1 5 35 0.5491782052 0 921 0.5491782052 1
gene 1 12 12 -0.07606447166 1 1065 -0.07606447166 1
gene 1 8 89 1 0 1215 0 0
gene 1 89 35 0.008233132636 0 1216 0 1
gene 1 6 89 -0.6017597949 0 1243 -0.6017597949 0
gene 1 89 89 -0.1750864145 1 1287 -0.1750864145 1
gene 1 11 89 0.7183580393 0 1313 0.7183580393 1
gene 1 2 89 0.7064515025 0 1340 0.7064515025 0
gene 1 9 89 -0.3999134802 0 1359 -0.3999134802 1
gene 1 12 89 0.1675205138 1 1429 0.1675205138 1
gene 1 7 89 0.3082614659 0 1483 0.3082614659 0
gene 1 5 89 -0.9366881679 0 1528 0 1
gene 1 1 89 -0.341238408 0 1537 -0.341238408 1
gene 1 27 89 0.3194503022 0 1601 0 1
gene 1 2 105 1 0 1671 0 1
gene 1 105 35 0.3 0 1672 0 1
gene 1 4 89 0.7591484006 0 1722 0 0
gene 1 10 89 -0.6840900409 0 1805 0 0
gene 1 3 89 0.3811186773 0 1848 0.3811186773 1
gene 1 13 89 -0.700695719 1 1919 -0.700695719 0
gene 1 13 27 5.583465102e-05 1 2120 5.583465102e-05 1
gene 1 35 89 0.4177219884 1 2142 0.4177219884 1
gene 1 14 12 0.01217011037 1 2452 0.01217011037 1
gene 1 4 105 -0.4738421535 0 2762 -0.4738421535 1
gene 1 12 35 0.403237669 1 2790 0.403237669 1
gene 1 2 152 1 0 2800 0 1
gene 1 152 105 0.3 0 2801 0 1
gene 1 10 105 -0.9848616826 0 2856 -0.9848616826 1
gene 1 7 105 -0.8949998351 0 2872 -0.8949998351 1
genomeend 124686
/* Novelty: 0 Fitness: 261.0425415 Generation: 0 Indiv: 124936 */
/* Point: 27.38411331 58.78929901 27.38411331 58.78929901 */

/* Organism #124043 Fitness: 261.042511 Error: 0 */
genomestart 124043
trait 1 0.3491130409 0.393763751 0.7239827232 0.6807322995 0.7515068354 0.2327339784 0.165400391 0.511672684 
node 1 1 1 3
node 2 1 1 1
node 3 1 1 1
node 4 1 1 1
node 5 1 1 1
node 6 1 1 1
node 7 1 1 1
node 8 1 1 1
node 9 1 1 1
node 10 1 1 1
node 11 1 1 1
node 12 1 0 0
node 13 1 0 2
node 14 1 0 2
node 27 1 0 0
node 35 1 0 0
node 89 1 0 0
node 105 1 0 0
node 152 1 0 0
gene 1 1 12 -0.8486797683 0 1 -0.8486797683 1
gene 1 2 12 0.04423398378 0 2 0.04423398378 0
gene 1 3 12 -0.07799061941 0 3 -0.07799061941 1
gene 1 4 12 1.474864329 0 4 1.474864329 1
gene 1 5 12 0.08675887763 0 5 0.08675887763 1
gene 1 6 12 -0.6552315216 0 6 -0.6552315216 1
gene 1 7 12 -0.9524618291 0 7 -0.9524618291 0
gene 1 8 12 -0.5607534936 0 8 -0.5607534936 0
gene 1 9 12 1.49259852 0 9 1.49259852 1
gene 1 10 12 -1.089954711 0 10 -1.089954711 1
gene 1 11 12 -0.892585725 0 11 -0.892585725 1
gene 1 12 13 -0.0753449269 0 12 -0.0753449269 1
gene 1 12 14 -1.32845853 0 13 -1.32845853 1
gene 1 7 14 1.637653237 0 14 1.637653237 1
gene 1 7 13 -0.7638452145 0 15 0 1
gene 1 11 14 0.9662581724 0 20 0 0
gene 1 11 13 -0.2584925048 0 21 0 1
gene 1 14 14 -2.34784768 1 22 -2.34784768 1
gene 1 8 13 0.2192951637 0 23 0 0
gene 1 1 13 0.4308916694 0 31 0.4308916694 1
gene 1 3 14 0.5677249237 0 33 0.5677249237 1
gene 1 10 14 1.096542551 0 38 1.096542551 1
gene 1 5 13 -0.6076027936 0 41 -0.6076027936 1
gene 1 4 13 -0.9732285951 0 52 -0.9732285951 1
gene 1 6 14 0.9728506221 0 53 0 1
gene 1 6 13 -0.09728767709 0 69 -0.09728767709 1
gene 1 8 14 0.339243925 0 81 0.339243925 0
gene 1 4 27 -0.4627281586 0 105 -0.4627281586 1
gene 1 27 13 1.516821912 0 106 1.516821912 1
gene 1 7 27 -0.3536470203 0 120 0 1
gene 1 11 27 -0.1810337619 0 156 -0.1810337619 0
gene 1 8 27 0.7619359781 0 228 0 1
gene 1 2 35 1 0 248 1 1
gene 1 35 12 -0.09142202624 0 249 0 1
gene 1 27 35 0.1374281366 0 303 0 1
gene 1 4 35 -0.4801794568 0 343 0 1
gene 1 9 35 0.1245034226 0 361 0.1245034226 1
gene 1 7 35 0.1427019188 0 364 0.1427019188 0
gene 1 6 35 -0.945541312 0 412 0 1
gene 1 11 35 -0.6633067055 0 440 -0.6633067055 1
gene 1 8 35 0.02744377545 0 451 0 0
gene 1 35 35 0.1692449363 1 466 0.1692449363 1
gene 1 13 35 0.3407195277 1 498 0.3407195277 0
gene 1 1 35 0.7378599154 0 558 0.7378599154 1
gene 1 14 35 -0.4420158106 1 771 -0.4420158106 0
gene 1 10 35 0.2026721431 0 788 0 0
gene 1 5 35 0.5491782052 0 921 0.5491782052 1
gene 1 12 12 -0.07606447166 1 1065 -0.07606447166 1
gene 1 8 89 1 0 1215 0 0
gene 1 89 35 0.008233132636 0 1216 0 1
gene 1 6 89 -0.6017597949 0 1243 -0.6017597949 0
gene 1 89 89 -0.1750864145 1 1287 -0.1750864145 1
gene 1 11 89 0.7183580393 0 1313 0.7183580393 1
gene 1 2 89 0.7064515025 0 1340 0.7064515025 0
gene 1 9 89 -0.3999134802 0 1359 -0.3999134802 1
gene 1 12 89 0.1675205138 1 1429 0.1675205138 1
gene 1 7 89 0.3082614659 0 1483 0.3082614659 0
gene 1 5 89 -0.9366881679 0 1528 0 1
gene 1 1 89 -0.341238408 0 1537 -0.341238408 1
gene 1 27 89 0.3194503022 0 1601 0 1
gene 1 2 105 1 0 1671 0 1
gene 1 105 35 0.3 0 1672 0 1
gene 1 4 89 0.7591484006 0 1722 0 0
gene 1 10 89 -0.6840900409 0 1805 0 0
gene 1 3 89 0.3811186773 0 1848 0.3811186773 1
gene 1 13 89 -0.700695719 1 1919 -0.700695719 1
gene 1 13 27 5.583465102e-05 1 2120 5.583465102e-05 1
gene 1 35 89 0.4177219884 1 2142 0.4177219884 1
gene 1 14 12 0.01217011037 1 2452 0.01217011037 1
gene 1 4 105 -0.4738421535 0 2762 -0.4738421535 1
gene 1 12 35 0.403237669 1 2790 0.403237669 1
gene 1 2 152 1 0 2800 0 1
gene 1 152 105 0.3 0 2801 0 1
gene 1 10 105 -0.9848616826 0 2856 -0.9848616826 1
gene 1 7 105 -0.8949998351 0 2872 -0.8949998351 1
genomeend 124043
/* Novelty: 0 Fitness: 261.042511 Generation: 0 Indiv: 124293 */
/* Point: 27.38417053 58.78933716 27.38417053 58.78933716 */

/* Organism #124201 Fitness: 261.042511 Error: 0 */
genomestart 124201
trait 1 0.3500407138 0.220637861 0.6429009836 0.6639331137 0.6650380846 0.2877694479 0.2507077089 0.5004876104 
node 1 1 1 3
node 2 1 1 1
node 3 1 1 1
node 4 1 1 1
node 5 1 1 1
node 6 1 1 1
node 7 1 1 1
node 8 1 1 1
node 9 1 1 1
node 10 1 1 1
node 11 1 1 1
node 12 1 0 0
node 13 1 0 2
node 14 1 0 2
node 27 1 0 0
node 35 1 0 0
node 89 1 0 0
node 105 1 0 0
node 152 1 0 0
gene 1 1 12 -0.8486797683 0 1 -0.8486797683 1
gene 1 2 12 0.04423398378 0 2 0.04423398378 0
gene 1 3 12 -0.07799061941 0 3 -0.07799061941 1
gene 1 4 12 1.474864329 0 4 1.474864329 1
gene 1 5 12 0.08675887763 0 5 0.08675887763 1
gene 1 6 12 -0.6552315216 0 6 -0.6552315216 1
gene 1 7 12 -0.9524618291 0 7 -0.9524618291 1
gene 1 8 12 -0.5607534936 0 8 -0.5607534936 0
gene 1 9 12 1.49259852 0 9 1.49259852 1
gene 1 10 12 -1.089954711 0 10 -1.089954711 1
gene 1 11 12 -0.892585725 0 11 -0.892585725 1
gene 1 12 13 -0.0753449269 0 12 -0.0753449269 1
gene 1 12 14 -1.32845853 0 13 -1.32845853 1
gene 1 7 14 1.637653237 0 14 1.637653237 1
gene 1 7 13 -0.7638452145 0 15 0 1
gene 1 11 14 0.9662581724 0 20 0 0
gene 1 11 13 -0.2584925048 0 21 0 1
gene 1 14 14 -2.34784768 1 22 -2.34784768 1
gene 1 8 13 0.2192951637 0 23 0 0
gene 1 1 13 0.4308916694 0 31 0.4308916694 1
gene 1 3 14 0.5677249237 0 33 0.5677249237 1
gene 1 10 14 1.096542551 0 38 1.096542551 1
gene 1 5 13 -0.6076027936 0 41 -0.6076027936 1
gene 1 4 13 -0.9732285951 0 52 -0.9732285951 1
gene 1 6 14 0.9728506221 0 53 0 1
gene 1 6 13 -0.09728767709 0 69 -0.09728767709 1
gene 1 8 14 0.339243925 0 81 0.339243925 0
gene 1 4 27 -0.4627281586 0 105 -0.4627281586 1
gene 1 27 13 1.516821912 0 106 1.516821912 1
gene 1 7 27 -0.3536470203 0 120 0 1
gene 1 11 27 -0.1810337619 0 156 -0.1810337619 0
gene 1 8 27 0.7619359781 0 228 0 1
gene 1 2 35 1 0 248 1 1
gene 1 35 12 -0.09142202624 0 249 0 1
gene 1 27 35 0.1374281366 0 303 0 1
gene 1 4 35 -0.4801794568 0 343 0 0
gene 1 9 35 0.1245034226 0 361 0.1245034226 1
gene 1 7 35 0.1427019188 0 364 0.1427019188 0
gene 1 6 35 -0.945541312 0 412 0 1
gene 1 11 35 -0.6633067055 0 440 -0.6633067055 0
gene 1 8 35 0.02744377545 0 451 0 0
gene 1 35 35 0.1692449363 1 466 0.1692449363 0
gene 1 13 35 0.3407195277 1 498 0.3407195277 0
gene 1 1 35 0.7378599154 0 558 0.7378599154 1
gene 1 14 35 -0.4420158106 1 771 -0.4420158106 0
gene 1 10 35 0.2026721431 0 788 0 0
gene 1 5 35 0.5491782052 0 921 0.5491782052 1
gene 1 12 12 -0.07606447166 1 1065 -0.07606447166 1
gene 1 8 89 1 0 1215 0 0
gene 1 89 35 0.008233132636 0 1216 0 1
gene 1 6 89 -0.6017597949 0 1243 -0.6017597949 0
gene 1 89 89 -0.1750864145 1 1287 -0.1750864145 0
gene 1 11 89 0.7183580393 0 1313 0.7183580393 1
gene 1 2 89 0.7064515025 0 1340 0.7064515025 0
gene 1 9 89 -0.3999134802 0 1359 -0.3999134802 0
gene 1 12 89 0.1675205138 1 1429 0.1675205138 1
gene 1 7 89 0.3082614659 0 1483 0.3082614659 0
gene 1 5 89 -0.9366881679 0 1528 0 1
gene 1 1 89 -0.341238408 0 1537 -0.341238408 1
gene 1 27 89 0.3194503022 0 1601 0 1
gene 1 2 105 1 0 1671 0 1
gene 1 105 35 0.3 0 1672 0 1
gene 1 4 89 0.7591484006 0 1722 0 0
gene 1 10 89 -0.6840900409 0 1805 0 0
gene 1 3 89 0.3811186773 0 1848 0.3811186773 1
gene 1 13 89 -0.700695719 1 1919 -0.700695719 0
gene 1 13 27 5.583465102e-05 1 2120 5.583465102e-05 1
gene 1 35 89 0.4177219884 1 2142 0.4177219884 1
gene 1 14 12 0.01217011037 1 2452 0.01217011037 1
gene 1 4 105 -0.4738421535 0 2762 -0.4738421535 1
gene 1 12 35 0.403237669 1 2790 0.403237669 1
gene 1 2 152 1 0 2800 0 1
gene 1 152 105 0.3 0 2801 0 1
gene 1 10 105 -0.9848616826 0 2856 -0.9848616826 1
gene 1 7 105 -0.8949998351 0 2872 -0.8949998351 0
genomeend 124201
/* Novelty: 0 Fitness: 261.042511 Generation: 0 Indiv: 124451 */
/* Point: 27.38416672 58.78933716 27.38416672 58.78933716 */

/* Organism #124215 Fitness: 261.042511 Error: 0 */
genomestart 124215
trait 1 0.349510615 0.2273545211 0.6360952796 0.6735326485 0.2623988507 0 0.2316411926 0.506879081 
node 1 1 1 3
node 2 1 1 1
node 3 1 1 1
node 4 1 1 1
node 5 1 1 1
node 6 1 1 1
node 7 1 1 1
node 8 1 1 1
node 9 1 1 1
node 10 1 1 1
node 11 1 1 1
node 12 1 0 0
node 13 1 0 2
node 14 1 0 2
node 27 1 0 0
node 35 1 0 0
node 89 1 0 0
node 105 1 0 0
node 152 1 0 0
gene 1 1 12 -0.8486797683 0 1 -0.8486797683 1
gene 1 2 12 0.04423398378 0 2 0.04423398378 0
gene 1 3 12 -0.07799061941 0 3 -0.07799061941 1
gene 1 4 12 1.474864329 0 4 1.474864329 1
gene 1 5 12 0.08675887763 0 5 0.08675887763 1
gene 1 6 12 -0.6552315216 0 6 -0.6552315216 1
gene 1 7 12 -0.9524618291 0 7 -0.9524618291 0
gene 1 8 12 -0.5607534936 0 8 -0.5607534936 0
gene 1 9 12 1.49259852 0 9 1.49259852 1
gene 1 10 12 -1.089954711 0 10 -1.089954711 1
gene 1 11 12 -0.892585725 0 11 -0.892585725 1
gene 1 12 13 -0.0753449269 0 12 -0.0753449269 1
gene 1 12 14 -1.32845853 0 13 -1.32845853 1
gene 1 7 14 1.637653237 0 14 1.637653237 1
gene 1 7 13 -0.7638452145 0 15 0 1
gene 1 11 14 0.9662581724 0 20 0 0
gene 1 11 13 -0.2584925048 0 21 0 1
gene 1 14 14 -2.34784768 1 22 -2.34784768 1
gene 1 8 13 0.2192951637 0 23 0 0
gene 1 1 13 0.4308916694 0 31 0.4308916694 1
gene 1 3 14 0.5677249237 0 33 0.5677249237 1
gene 1 10 14 1.096542551 0 38 1.096542551 1
gene 1 5 13 -0.6076027936 0 41 -0.6076027936 1
gene 1 4 13 -0.9732285951 0 52 -0.9732285951 1
gene 1 6 14 0.9728506221 0 53 0 1
gene 1 6 13 -0.09728767709 0 69 -0.09728767709 1
gene 1 8 14 0.339243925 0 81 0.339243925 0
gene 1 4 27 -0.4627281586 0 105 -0.4627281586 1
gene 1 27 13 1.516821912 0 106 1.516821912 1
gene 1 7 27 -0.3536470203 0 120 0 1
gene 1 11 27 -0.1810337619 0 156 -0.1810337619 0
gene 1 8 27 0.7619359781 0 228 0 1
gene 1 2 35 1 0 248 1 1
gene 1 35 12 -0.09142202624 0 249 0 1
gene 1 27 35 0.1374281366 0 303 0 1
gene 1 4 35 -0.4801794568 0 343 0 0
gene 1 9 35 0.1245034226 0 361 0.1245034226 1
gene 1 7 35 0.1427019188 0 364 0.1427019188 0
gene 1 6 35 -0.945541312 0 412 0 1
gene 1 11 35 -0.6633067055 0 440 -0.6633067055 0
gene 1 8 35 0.02744377545 0 451 0 0
gene 1 35 35 0.1692449363 1 466 0.1692449363 0
gene 1 13 35 0.3407195277 1 498 0.3407195277 0
gene 1 1 35 0.7378599154 0 558 0.7378599154 1
gene 1 14 35 -0.4420158106 1 771 -0.4420158106 0
gene 1 10 35 0.2026721431 0 788 0 0
gene 1 5 35 0.5491782052 0 921 0.5491782052 1
gene 1 12 12 -0.07606447166 1 1065 -0.07606447166 1
gene 1 8 89 1 0 1215 0 0
gene 1 89 35 0.008233132636 0 1216 0 1
gene 1 6 89 -0.6017597949 0 1243 -0.6017597949 0
gene 1 89 89 -0.1750864145 1 1287 -0.1750864145 0
gene 1 11 89 0.7183580393 0 1313 0.7183580393 1
gene 1 2 89 0.7064515025 0 1340 0.7064515025 0
gene 1 9 89 -0.3999134802 0 1359 -0.3999134802 0
gene 1 12 89 0.1675205138 1 1429 0.1675205138 1
gene 1 7 89 0.3082614659 0 1483 0.3082614659 0
gene 1 5 89 -0.9366881679 0 1528 0 1
gene 1 1 89 -0.341238408 0 1537 -0.341238408 1
gene 1 27 89 0.3194503022 0 1601 0 1
gene 1 2 105 1 0 1671 0 1
gene 1 105 35 0.3 0 1672 0 1
gene 1 4 89 0.7591484006 0 1722 0 0
gene 1 10 89 -0.6840900409 0 1805 0 0
gene 1 3 89 0.3811186773 0 1848 0.3811186773 1
gene 1 13 89 -0.700695719 1 1919 -0.700695719 0
gene 1 13 27 5.583465102e-05 1 2120 5.583465102e-05 1
gene 1 35 89 0.4177219884 1 2142 0.4177219884 1
gene 1 14 12 0.01217011037 1 2452 0.01217011037 1
gene 1 4 105 -0.4738421535 0 2762 -0.4738421535 1
gene 1 12 35 0.403237669 1 2790 0.403237669 1
gene 1 2 152 1 0 2800 0 1
gene 1 152 105 0.3 0 2801 0 1
gene 1 10 105 -0.9848616826 0 2856 -0.9848616826 1
gene 1 7 105 -0.8949998351 0 2872 -0.8949998351 1
genomeend 124215
/* Novelty: 0 Fitness: 261.042511 Generation: 0 Indiv: 124465 */
/* Point: 27.38416672 58.78933716 27.38416672 58.78933716 */

/* Organism #124386 Fitness: 261.042511 Error: 0 */
genomestart 124386
trait 1 0.3499868204 0.2268437211 0.6365141003 0.6711127882 0.6682179956 0.2872335205 0.2332448655 0.5068125681 
node 1 1 1 3
node 2 1 1 1
node 3 1 1 1
node 4 1 1 1
node 5 1 1 1
node 6 1 1 1
node 7 1 1 1
node 8 1 1 1
node 9 1 1 1
node 10 1 1 1
node 11 1 1 1
node 12 1 0 0
node 13 1 0 2
node 14 1 0 2
node 27 1 0 0
node 35 1 0 0
node 89 1 0 0
node 105 1 0 0
node 152 1 0 0
gene 1 1 12 -0.8486797683 0 1 -0.8486797683 1
gene 1 2 12 0.04423398378 0 2 0.04423398378 0
gene 1 3 12 -0.07799061941 0 3 -0.07799061941 1
gene 1 4 12 1.474864329 0 4 1.474864329 1
gene 1 5 12 0.08675887763 0 5 0.08675887763 1
gene 1 6 12 -0.6552315216 0 6 -0.6552315216 1
gene 1 7 12 -0.9524618291 0 7 -0.9524618291 1
gene 1 8 12 -0.5607534936 0 8 -0.5607534936 0
gene 1 9 12 1.49259852 0 9 1.49259852 1
gene 1 10 12 -1.089954711 0 10 -1.089954711 1
gene 1 11 12 -0.892585725 0 11 -0.892585725 1
gene 1 12 13 -0.0753449269 0 12 -0.0753449269 1
gene 1 12 14 -1.32845853 0 13 -1.32845853 1
gene 1 7 14 1.637653237 0 14 1.637653237 1
gene 1 7 13 -0.7638452145 0 15 0 1
gene 1 11 14 0.9662581724 0 20 0 0
gene 1 11 13 -0.2584925048 0 21 0 1
gene 1 14 14 -2.34784768 1 22 -2.34784768 1
gene 1 8 13 0.2192951637 0 23 0 0
gene 1 1 13 0.4308916694 0 31 0.4308916694 1
gene 1 3 14 0.5677249237 0 33 0.5677249237 1
gene 1 10 14 1.096542551 0 38 1.096542551 1
gene 1 5 13 -0.6076027936 0 41 -0.6076027936 1
gene 1 4 13 -0.9732285951 0 52 -0.9732285951 1
gene 1 6 14 0.9728506221 0 53 0 1
gene 1 6 13 -0.09728767709 0 69 -0.09728767709 1
gene 1 8 14 0.339243925 0 81 0.339243925 0
gene 1 4 27 -0.4627281586 0 105 -0.4627281586 1
gene 1 27 13 1.516821912 0 106 1.516821912 1
gene 1 7 27 -0.3536470203 0 120 0 1
gene 1 11 27 -0.1810337619 0 156 -0.1810337619 0
gene 1 8 27 0.7619359781 0 228 0 1
gene 1 2 35 1 0 248 1 1
gene 1 35 12 -0.09142202624 0 249 0 1
gene 1 27 35 0.1374281366 0 303 0 1
gene 1 4 35 -0.4801794568 0 343 0 0
gene 1 9 35 0.1245034226 0 361 0.1245034226 1
gene 1 7 35 0.1427019188 0 364 0.1427019188 0
gene 1 6 35 -0.945541312 0 412 0 1
gene 1 11 35 -0.6633067055 0 440 -0.6633067055 0
gene 1 8 35 0.02744377545 0 451 0 0
gene 1 35 35 0.1692449363 1 466 0.1692449363 0
gene 1 13 35 0.3407195277 1 498 0.3407195277 0
gene 1 1 35 0.7378599154 0 558 0.7378599154 1
gene 1 14 35 -0.4420158106 1 771 -0.4420158106 0
gene 1 10 35 0.2026721431 0 788 0 0
gene 1 5 35 0.5491782052 0 921 0.5491782052 1
gene 1 12 12 -0.07606447166 1 1065 -0.07606447166 1
gene 1 8 89 1 0 1215 0 0
gene 1 89 35 0.008233132636 0 1216 0 1
gene 1 6 89 -0.6017597949 0 1243 -0.6017597949 0
gene 1 89 89 -0.1750864145 1 1287 -0.1750864145 0
gene 1 11 89 0.7183580393 0 1313 0.7183580393 1
gene 1 2 89 0.7064515025 0 1340 0.7064515025 0
gene 1 9 89 -0.3999134802 0 1359 -0.3999134802 0
gene 1 12 89 0.1675205138 1 1429 0.1675205138 1
gene 1 7 89 0.3082614659 0 1483 0.3082614659 1
gene 1 5 89 -0.9366881679 0 1528 0 1
gene 1 1 89 -0.341238408 0 1537 -0.341238408 1
gene 1 27 89 0.3194503022 0 1601 0 1
gene 1 2 105 1 0 1671 0 1
gene 1 105 35 0.3 0 1672 0 1
gene 1 4 89 0.7591484006 0 1722 0 0
gene 1 10 89 -0.6840900409 0 1805 0 0
gene 1 3 89 0.3811186773 0 1848 0.3811186773 1
gene 1 13 89 -0.700695719 1 1919 -0.700695719 0
gene 1 13 27 5.583465102e-05 1 2120 5.583465102e-05 1
gene 1 35 89 0.4177219884 1 2142 0.4177219884 1
gene 1 14 12 0.01217011037 1 2452 0.01217011037 1
gene 1 4 105 -0.4738421535 0 2762 -0.4738421535 1
gene 1 12 35 0.403237669 1 2790 0.403237669 1
gene 1 2 152 1 0 2800 0 1
gene 1 152 105 0.3 0 2801 0 1
gene 1 10 105 -0.9848616826 0 2856 -0.9848616826 1
gene 1 7 105 -0.8949998351 0 2872 -0.8949998351 1
genomeend 124386
/* Novelty: 0 Fitness: 261.042511 Generation: 0 Indiv: 124636 */
/* Point: 27.38416672 58.78933716 27.38416672 58.78933716 */

/* Organism #124395 Fitness: 261.042511 Error: 0 */
genomestart 124395
trait 1 0.3499868204 0.2268437211 0.6365141003 0.6711127882 0.6682179956 0.2872335205 0.2332448655 0.5068125681 
node 1 1 1 3
node 2 1 1 1
node 3 1 1 1
node 4 1 1 1
node 5 1 1 1
node 6 1 1 1
node 7 1 1 1
node 8 1 1 1
node 9 1 1 1
node 10 1 1 1
node 11 1 1 1
node 12 1 0 0
node 13 1 0 2
node 14 1 0 2
node 27 1 0 0
node 35 1 0 0
node 89 1 0 0
node 105 1 0 0
node 152 1 0 0
gene 1 1 12 -0.8486797683 0 1 -0.8486797683 1
gene 1 2 12 0.04423398378 0 2 0.04423398378 0
gene 1 3 12 -0.07799061941 0 3 -0.07799061941 1
gene 1 4 12 1.474864329 0 4 1.474864329 1
gene 1 5 12 0.08675887763 0 5 0.08675887763 1
gene 1 6 12 -0.6552315216 0 6 -0.6552315216 1
gene 1 7 12 -0.9524618291 0 7 -0.9524618291 0
gene 1 8 12 -0.5607534936 0 8 -0.5607534936 0
gene 1 9 12 1.49259852 0 9 1.49259852 1
gene 1 10 12 -1.089954711 0 10 -1.089954711 1
gene 1 11 12 -0.892585725 0 11 -0.892585725 1
gene 1 12 13 -0.0753449269 0 12 -0.0753449269 1
gene 1 12 14 -1.32845853 0 13 -1.32845853 1
gene 1 7 14 1.637653237 0 14 1.637653237 1
gene 1 7 13 -0.7638452145 0 15 0 1
gene 1 11 14 0.9662581724 0 20 0 0
gene 1 11 13 -0.2584925048 0 21 0 1
gene 1 14 14 -2.34784768 1 22 -2.34784768 1
gene 1 8 13 0.2192951637 0 23 0 0
gene 1 1 13 0.4308916694 0 31 0.4308916694 1
gene 1 3 14 0.5677249237 0 33 0.5677249237 1
gene 1 10 14 1.096542551 0 38 1.096542551 1
gene 1 5 13 -0.6076027936 0 41 -0.6076027936 1
gene 1 4 13 -0.9732285951 0 52 -0.9732285951 1
gene 1 6 14 0.9728506221 0 53 0 1
gene 1 6 13 -0.09728767709 0 69 -0.09728767709 1
gene 1 8 14 0.339243925 0 81 0.339243925 0
gene 1 4 27 -0.4627281586 0 105 -0.4627281586 1
gene 1 27 13 1.516821912 0 106 1.516821912 1
gene 1 7 27 -0.3536470203 0 120 0 1
gene 1 11 27 -0.1810337619 0 156 -0.1810337619 0
gene 1 8 27 0.7619359781 0 228 0 1
gene 1 2 35 1 0 248 1 1
gene 1 35 12 -0.09142202624 0 249 0 1
gene 1 27 35 0.1374281366 0 303 0 1
gene 1 4 35 -0.4801794568 0 343 0 0
gene 1 9 35 0.1245034226 0 361 0.1245034226 1
gene 1 7 35 0.1427019188 0 364 0.1427019188 0
gene 1 6 35 -0.945541312 0 412 0 1
gene 1 11 35 -0.6633067055 0 440 -0.6633067055 0
gene 1 8 35 0.02744377545 0 451 0 0
gene 1 35 35 0.1692449363 1 466 0.1692449363 0
gene 1 13 35 0.3407195277 1 498 0.3407195277 0
gene 1 1 35 0.7378599154 0 558 0.7378599154 1
gene 1 14 35 -0.4420158106 1 771 -0.4420158106 0
gene 1 10 35 0.2026721431 0 788 0 0
gene 1 5 35 0.5491782052 0 921 0.5491782052 1
gene 1 12 12 -0.07606447166 1 1065 -0.07606447166 1
gene 1 8 89 1 0 1215 0 0
gene 1 89 35 0.008233132636 0 1216 0 1
gene 1 6 89 -0.6017597949 0 1243 -0.6017597949 0
gene 1 89 89 -0.1750864145 1 1287 -0.1750864145 0
gene 1 11 89 0.7183580393 0 1313 0.7183580393 1
gene 1 2 89 0.7064515025 0 1340 0.7064515025 0
gene 1 9 89 -0.3999134802 0 1359 -0.3999134802 0
gene 1 12 89 0.1675205138 1 1429 0.1675205138 1
gene 1 7 89 0.3082614659 0 1483 0.3082614659 0
gene 1 5 89 -0.9366881679 0 1528 0 1
gene 1 1 89 -0.341238408 0 1537 -0.341238408 1
gene 1 27 89 0.3194503022 0 1601 0 1
gene 1 2 105 1 0 1671 0 1
gene 1 105 35 0.3 0 1672 0 1
gene 1 4 89 0.7591484006 0 1722 0 0
gene 1 10 89 -0.6840900409 0 1805 0 0
gene 1 3 89 0.3811186773 0 1848 0.3811186773 1
gene 1 13 89 -0.700695719 1 1919 -0.700695719 0
gene 1 13 27 5.583465102e-05 1 2120 5.583465102e-05 1
gene 1 35 89 0.4177219884 1 2142 0.4177219884 1
gene 1 14 12 0.01217011037 1 2452 0.01217011037 1
gene 1 4 105 -0.4738421535 0 2762 -0.4738421535 1
gene 1 12 35 0.403237669 1 2790 0.403237669 1
gene 1 2 152 1 0 2800 0 1
gene 1 152 105 0.3 0 2801 0 1
gene 1 10 105 -0.9848616826 0 2856 -0.9848616826 1
gene 1 7 105 -0.8949998351 0 2872 -0.8949998351 1
genomeend 124395
/* Novelty: 0 Fitness: 261.042511 Generation: 0 Indiv: 124645 */
/* Point: 27.38416672 58.78933716 27.38416672 58.78933716 */

/* Organism #124440 Fitness: 261.042511 Error: 0 */
genomestart 124440
trait 1 0.3491130409 0.393763751 0.7239827232 0.6807322995 0.7515068354 0.2327339784 0.165400391 0.511672684 
node 1 1 1 3
node 2 1 1 1
node 3 1 1 1
node 4 1 1 1
node 5 1 1 1
node 6 1 1 1
node 7 1 1 1
node 8 1 1 1
node 9 1 1 1
node 10 1 1 1
node 11 1 1 1
node 12 1 0 0
node 13 1 0 2
node 14 1 0 2
node 27 1 0 0
node 35 1 0 0
node 89 1 0 0
node 105 1 0 0
node 152 1 0 0
gene 1 1 12 -0.8486797683 0 1 -0.8486797683 1
gene 1 2 12 0.04423398378 0 2 0.04423398378 0
gene 1 3 12 -0.07799061941 0 3 -0.07799061941 1
gene 1 4 12 1.474864329 0 4 1.474864329 1
gene 1 5 12 0.08675887763 0 5 0.08675887763 1
gene 1 6 12 -0.6552315216 0 6 -0.6552315216 1
gene 1 7 12 -0.9524618291 0 7 -0.9524618291 0
gene 1 8 12 -0.5607534936 0 8 -0.5607534936 0
gene 1 9 12 1.49259852 0 9 1.49259852 1
gene 1 10 12 -1.089954711 0 10 -1.089954711 1
gene 1 11 12 -0.892585725 0 11 -0.892585725 1
gene 1 12 13 -0.0753449269 0 12 -0.0753449269 1
gene 1 12 14 -1.32845853 0 13 -1.32845853 1
gene 1 7 14 1.637653237 0 14 1.637653237 1
gene 1 7 13 -0.7638452145 0 15 0 1
gene 1 11 14 0.9662581724 0 20 0 1
gene 1 11 13 -0.2584925048 0 21 0 1
gene 1 14 14 -2.34784768 1 22 -2.34784768 1
gene 1 8 13 0.2192951637 0 23 0 0
gene 1 1 13 0.4308916694 0 31 0.4308916694 1
gene 1 3 14 0.5677249237 0 33 0.5677249237 1
gene 1 10 14 1.096542551 0 38 1.096542551 1
gene 1 5 13 -0.6076027936 0 41 -0.6076027936 1
gene 1 4 13 -0.9732285951 0 52 -0.9732285951 1
gene 1 6 14 0.9728506221 0 53 0 1
gene 1 6 13 -0.09728767709 0 69 -0.09728767709 1
gene 1 8 14 0.339243925 0 81 0.339243925 1
gene 1 4 27 -0.4627281586 0 105 -0.4627281586 1
gene 1 27 13 1.516821912 0 106 1.516821912 1
gene 1 7 27 -0.3536470203 0 120 0 1
gene 1 11 27 -0.1810337619 0 156 -0.1810337619 0
gene 1 8 27 0.7619359781 0 228 0 1
gene 1 2 35 1 0 248 1 1
gene 1 35 12 -0.09142202624 0 249 0 1
gene 1 27 35 0.1374281366 0 303 0 1
gene 1 4 35 -0.4801794568 0 343 0 0
gene 1 9 35 0.1245034226 0 361 0.1245034226 1
gene 1 7 35 0.1427019188 0 364 0.1427019188 0
gene 1 6 35 -0.945541312 0 412 0 1
gene 1 11 35 -0.6633067055 0 440 -0.6633067055 0
gene 1 8 35 0.02744377545 0 451 0 0
gene 1 35 35 0.1692449363 1 466 0.1692449363 0
gene 1 13 35 0.3407195277 1 498 0.3407195277 0
gene 1 1 35 0.7378599154 0 558 0.7378599154 1
gene 1 14 35 -0.4420158106 1 771 -0.4420158106 1
gene 1 10 35 0.2026721431 0 788 0 0
gene 1 5 35 0.5491782052 0 921 0.5491782052 1
gene 1 12 12 -0.07606447166 1 1065 -0.07606447166 1
gene 1 8 89 1 0 1215 0 0
gene 1 89 35 0.008233132636 0 1216 0 1
gene 1 6 89 -0.6017597949 0 1243 -0.6017597949 0
gene 1 89 89 -0.1750864145 1 1287 -0.1750864145 0
gene 1 11 89 0.7183580393 0 1313 0.7183580393 1
gene 1 2 89 0.7064515025 0 1340 0.7064515025 0
gene 1 9 89 -0.3999134802 0 1359 -0.3999134802 1
gene 1 12 89 0.1675205138 1 1429 0.1675205138 1
gene 1 7 89 0.3082614659 0 1483 0.3082614659 0
gene 1 5 89 -0.9366881679 0 1528 0 1
gene 1 1 89 -0.341238408 0 1537 -0.341238408 1
gene 1 27 89 0.3194503022 0 1601 0 1
gene 1 2 105 1 0 1671 0 1
gene 1 105 35 0.3 0 1672 0 1
gene 1 4 89 0.7591484006 0 1722 0 0
gene 1 10 89 -0.6840900409 0 1805 0 1
gene 1 3 89 0.3811186773 0 1848 0.3811186773 1
gene 1 13 89 -0.700695719 1 1919 -0.700695719 0
gene 1 13 27 5.583465102e-05 1 2120 5.583465102e-05 1
gene 1 35 89 0.4177219884 1 2142 0.4177219884 1
gene 1 14 12 0.01217011037 1 2452 0.01217011037 1
gene 1 4 105 -0.4738421535 0 2762 -0.4738421535 1
gene 1 12 35 0.403237669 1 2790 0.403237669 1
gene 1 2 152 1 0 2800 0 1
gene 1 152 105 0.3 0 2801 0 1
gene 1 10 105 -0.9848616826 0 2856 -0.9848616826 1
gene 1 7 105 -0.8949998351 0 2872 -0.8949998351 1
genomeend 124440
/* Novelty: 1.875 Fitness: 261.042511 Generation: 0 Indiv: 124690 */
/* Point: 27.38411903 58.7893219 27.38411903 58.7893219 */

/* Organism #124478 Fitness: 261.042511 Error: 0 */
genomestart 124478
trait 1 0.3475519 0.5583470509 0.8140165568 0.6903917639 0.8294658693 0.1784364073 0.1038818287 0.5134700905 
node 1 1 1 3
node 2 1 1 1
node 3 1 1 1
node 4 1 1 1
node 5 1 1 1
node 6 1 1 1
node 7 1 1 1
node 8 1 1 1
node 9 1 1 1
node 10 1 1 1
node 11 1 1 1
node 12 1 0 0
node 13 1 0 2
node 14 1 0 2
node 27 1 0 0
node 35 1 0 0
node 89 1 0 0
node 105 1 0 0
node 152 1 0 0
gene 1 1 12 -0.8486797683 0 1 -0.8486797683 1
gene 1 2 12 0.04423398378 0 2 0.04423398378 0
gene 1 3 12 -0.07799061941 0 3 -0.07799061941 1
gene 1 4 12 1.474864329 0 4 1.474864329 1
gene 1 5 12 0.08675887763 0 5 0.08675887763 1
gene 1 6 12 -0.6552315216 0 6 -0.6552315216 1
gene 1 7 12 -0.9524618291 0 7 -0.9524618291 0
gene 1 8 12 -0.5607534936 0 8 -0.5607534936 0
gene 1 9 12 1.49259852 0 9 1.49259852 1
gene 1 10 12 -1.089954711 0 10 -1.089954711 1
gene 1 11 12 -0.892585725 0 11 -0.892585725 1
gene 1 12 13 -0.0753449269 0 12 -0.0753449269 1
gene 1 12 14 -1.32845853 0 13 -1.32845853 1
gene 1 7 14 1.637653237 0 14 1.637653237 1
gene 1 7 13 -0.7638452145 0 15 0 1
gene 1 11 14 0.9662581724 0 20 0 0
gene 1 11 13 -0.2584925048 0 21 0 1
gene 1 14 14 -2.34784768 1 22 -2.34784768 1
gene 1 8 13 0.2192951637 0 23 0 0
gene 1 1 13 0.4308916694 0 31 0.4308916694 1
gene 1 3 14 0.5677249237 0 33 0.5677249237 1
gene 1 10 14 1.096542551 0 38 1.096542551 1
gene 1 5 13 -0.6076027936 0 41 -0.6076027936 1
gene 1 4 13 -0.9732285951 0 52 -0.9732285951 1
gene 1 6 14 0.9728506221 0 53 0 1
gene 1 6 13 -0.09728767709 0 69 -0.09728767709 1
gene 1 8 14 0.339243925 0 81 0.339243925 0
gene 1 4 27 -0.4627281586 0 105 -0.4627281586 1
gene 1 27 13 1.516821912 0 106 1.516821912 1
gene 1 7 27 -0.3536470203 0 120 0 1
gene 1 11 27 -0.1810337619 0 156 -0.1810337619 0
gene 1 8 27 0.7619359781 0 228 0 1
gene 1 2 35 1 0 248 1 1
gene 1 35 12 -0.09142202624 0 249 0 1
gene 1 27 35 0.1374281366 0 303 0 1
gene 1 4 35 -0.4801794568 0 343 0 0
gene 1 9 35 0.1245034226 0 361 0.1245034226 1
gene 1 7 35 0.1427019188 0 364 0.1427019188 0
gene 1 6 35 -0.945541312 0 412 0 1
gene 1 11 35 -0.6633067055 0 440 -0.6633067055 0
gene 1 8 35 0.02744377545 0 451 0 0
gene 1 35 35 0.1692449363 1 466 0.1692449363 0
gene 1 13 35 0.3407195277 1 498 0.3407195277 0
gene 1 1 35 0.7378599154 0 558 0.7378599154 1
gene 1 14 35 -0.4420158106 1 771 -0.4420158106 1
gene 1 10 35 0.2026721431 0 788 0 0
gene 1 5 35 0.5491782052 0 921 0.5491782052 1
gene 1 12 12 -0.07606447166 1 1065 -0.07606447166 1
gene 1 8 89 1 0 1215 0 0
gene 1 89 35 0.008233132636 0 1216 0 1
gene 1 6 89 -0.6017597949 0 1243 -0.6017597949 0
gene 1 89 89 -0.1750864145 1 1287 -0.1750864145 0
gene 1 11 89 0.7183580393 0 1313 0.7183580393 1
gene 1 2 89 0.7064515025 0 1340 0.7064515025 0
gene 1 9 89 -0.3999134802 0 1359 -0.3999134802 0
gene 1 12 89 0.1675205138 1 1429 0.1675205138 1
gene 1 7 89 0.3082614659 0 1483 0.3082614659 0
gene 1 5 89 -0.9366881679 0 1528 0 1
gene 1 1 89 -0.341238408 0 1537 -0.341238408 1
gene 1 27 89 0.3194503022 0 1601 0 1
gene 1 2 105 1 0 1671 0 1
gene 1 105 35 0.3 0 1672 0 1
gene 1 4 89 0.7591484006 0 1722 0 0
gene 1 10 89 -0.6840900409 0 1805 0 1
gene 1 3 89 0.3811186773 0 1848 0.3811186773 1
gene 1 13 89 -0.700695719 1 1919 -0.700695719 0
gene 1 13 27 5.583465102e-05 1 2120 5.583465102e-05 1
gene 1 35 89 0.4177219884 1 2142 0.4177219884 1
gene 1 14 12 0.01217011037 1 2452 0.01217011037 1
gene 1 4 105 -0.4738421535 0 2762 -0.4738421535 1
gene 1 12 35 0.403237669 1 2790 0.403237669 1
gene 1 2 152 1 0 2800 0 1
gene 1 152 105 0.3 0 2801 0 1
gene 1 10 105 -0.9848616826 0 2856 -0.9848616826 1
gene 1 7 105 -0.8949998351 0 2872 -0.8949998351 1
genomeend 124478
/* Novelty: 0 Fitness: 261.042511 Generation: 0 Indiv: 124728 */
/* Point: 27.38411903 58.7893219 27.38411903 58.7893219 */

/* Organism #124544 Fitness: 261.042511 Error: 0 */
genomestart 124544
trait 1 0.3478955807 0.3981436811 0.7197422299 0.6903717873 0.7468637069 0.2323560269 0.1526597869 0.5150014452 
node 1 1 1 3
node 2 1 1 1
node 3 1 1 1
node 4 1 1 1
node 5 1 1 1
node 6 1 1 1
node 7 1 1 1
node 8 1 1 1
node 9 1 1 1
node 10 1 1 1
node 11 1 1 1
node 12 1 0 0
node 13 1 0 2
node 14 1 0 2
node 27 1 0 0
node 35 1 0 0
node 89 1 0 0
node 105 1 0 0
node 152 1 0 0
gene 1 1 12 -0.8486797683 0 1 -0.8486797683 1
gene 1 2 12 0.04423398378 0 2 0.04423398378 0
gene 1 3 12 -0.07799061941 0 3 -0.07799061941 1
gene 1 4 12 1.474864329 0 4 1.474864329 1
gene 1 5 12 0.08675887763 0 5 0.08675887763 1
gene 1 6 12 -0.6552315216 0 6 -0.6552315216 1
gene 1 7 12 -0.9524618291 0 7 -0.9524618291 0
gene 1 8 12 -0.5607534936 0 8 -0.5607534936 0
gene 1 9 12 1.49259852 0 9 1.49259852 1
gene 1 10 12 -1.089954711 0 10 -1.089954711 1
