
/* Species #1 : (Size 17) (AF 0) (Age 1)  */


/* Organism #55140 Fitness: 10.2474 Error: 0 */
genomestart 55140
trait 1 0.2597495997 0.4248602296 0.5949292102 0.01839317654 0.5986003814 0.01902863036 0.1902791741 0.7303457357 
node 1 1 1 3
node 2 1 1 1
node 3 1 1 1
node 4 1 1 1
node 5 1 1 1
node 6 1 1 1
node 7 1 1 1
node 8 1 1 1
node 9 1 1 1
node 10 1 1 1
node 11 1 1 1
node 12 1 0 0
node 13 1 0 2
node 14 1 0 2
node 23 1 0 0
gene 1 1 12 -0.5351879546 0 1 -0.5351879546 1
gene 1 2 12 -0.3286944968 0 2 -0.3286944968 1
gene 1 3 12 -0.2738053183 0 3 -0.2738053183 1
gene 1 4 12 -1.166862864 0 4 -1.166862864 1
gene 1 5 12 1.24336275 0 5 1.24336275 1
gene 1 6 12 0.7577716996 0 6 0.7577716996 1
gene 1 7 12 -0.4504201936 0 7 -0.4504201936 1
gene 1 8 12 -0.1707450973 0 8 -0.1707450973 1
gene 1 9 12 -1.25753855 0 9 -1.25753855 1
gene 1 10 12 0.40575285 0 10 0.40575285 1
gene 1 11 12 0.8030736255 0 11 0.8030736255 1
gene 1 12 13 1.006056929 0 12 1.006056929 1
gene 1 12 14 0.3816471979 0 13 0.3816471979 1
gene 1 3 13 -1.653171163 0 14 -1.653171163 1
gene 1 10 13 0.1538276487 0 15 0.1538276487 1
gene 1 8 14 0.5906339457 0 17 0.5906339457 1
gene 1 9 14 0.3581691565 0 19 0.3569054552 1
gene 1 11 13 0.7228649449 0 24 0.7228649449 1
gene 1 6 14 1.212870774 0 25 1.212870774 1
gene 1 2 13 -0.3381953902 0 26 0.01035628864 1
gene 1 8 13 -0.6357970325 0 29 0 1
gene 1 7 14 0.202073541 0 30 0.202073541 1
gene 1 4 14 0.5810831533 0 32 0.5810831533 1
gene 1 13 14 -0.891304175 0 33 -0.891304175 1
gene 1 5 13 1.544992397 0 41 1.544992397 1
gene 1 10 14 0.02927618959 0 46 0.02927618959 1
gene 1 3 14 -0.1423011441 0 52 0 1
gene 1 12 23 0.890199702 0 119 0.390199702 1
gene 1 23 14 0.3214269125 0 120 0.3214269125 1
gene 1 14 14 0.5861243627 1 160 0.5861243627 1
gene 1 7 23 -1.018241491 0 163 -1.018241491 0
gene 1 5 23 -0.932695337 0 182 -0.932695337 1
gene 1 9 23 0.09942064625 0 187 0 1
gene 1 4 23 0.5475876861 0 189 0.1953198869 1
gene 1 12 12 0.00411545234 1 253 0.00411545234 1
gene 1 6 23 0.5970476175 0 294 0 1
gene 1 11 23 -1.005878704 0 363 -1.005878704 1
gene 1 23 23 -0.162701216 1 408 -0.162701216 1
gene 1 2 23 0.3801200829 0 432 0 1
gene 1 13 23 -0.4875396979 0 471 -0.1842041006 1
gene 1 13 13 0.515612656 1 745 0.515612656 1
genomeend 55140
/* Novelty: 5.127914429 Fitness: 128.9262238 Generation: 251 Indiv: 55390 */
/* Point: 179.1810303 105.4904633 179.1810303 105.4904633 */

/* Organism #50421 Fitness: 10.24737167 Error: 0 */
genomestart 50421
trait 1 0.2597495997 0.4248602296 0.5949292102 0.01839317654 0.5986003814 0.01902863036 0.1902791741 0.7303457357 
node 1 1 1 3
node 2 1 1 1
node 3 1 1 1
node 4 1 1 1
node 5 1 1 1
node 6 1 1 1
node 7 1 1 1
node 8 1 1 1
node 9 1 1 1
node 10 1 1 1
node 11 1 1 1
node 12 1 0 0
node 13 1 0 2
node 14 1 0 2
node 23 1 0 0
gene 1 1 12 -0.5351879546 0 1 -0.5351879546 1
gene 1 2 12 -0.3286944968 0 2 -0.3286944968 1
gene 1 3 12 -0.2738053183 0 3 -0.2738053183 1
gene 1 4 12 -1.166862864 0 4 -1.166862864 1
gene 1 5 12 1.24336275 0 5 1.24336275 1
gene 1 6 12 0.7577716996 0 6 0.7577716996 1
gene 1 7 12 -0.4504201936 0 7 -0.4504201936 1
gene 1 8 12 -0.1707450973 0 8 -0.1707450973 1
gene 1 9 12 -1.25753855 0 9 -1.25753855 1
gene 1 10 12 0.40575285 0 10 0.40575285 1
gene 1 11 12 0.8030736255 0 11 0.8030736255 1
gene 1 12 13 1.006056929 0 12 1.006056929 1
gene 1 12 14 0.3816471979 0 13 0.3816471979 1
gene 1 3 13 -1.653171163 0 14 -1.653171163 1
gene 1 10 13 0.1538276487 0 15 0.1538276487 1
gene 1 8 14 0.5906339457 0 17 0.5906339457 1
gene 1 9 14 0.3581691565 0 19 0.3569054552 1
gene 1 11 13 0.7228649449 0 24 0.7228649449 1
gene 1 6 14 1.212870774 0 25 1.212870774 1
gene 1 2 13 -0.3381953902 0 26 0.01035628864 1
gene 1 8 13 -0.6357970325 0 29 0 1
gene 1 7 14 0.202073541 0 30 0.202073541 1
gene 1 4 14 0.5810831533 0 32 0.5810831533 1
gene 1 13 14 -0.891304175 0 33 -0.891304175 1
gene 1 5 13 1.544992397 0 41 1.544992397 1
gene 1 10 14 0.02927618959 0 46 0.02927618959 1
gene 1 3 14 -0.1423011441 0 52 0 1
gene 1 12 23 0.890199702 0 119 0.390199702 1
gene 1 23 14 0.3214269125 0 120 0.3214269125 1
gene 1 14 14 0.5861243627 1 160 0.5861243627 1
gene 1 7 23 -1.018241491 0 163 -1.018241491 1
gene 1 5 23 -0.932695337 0 182 -0.932695337 1
gene 1 9 23 0.09942064625 0 187 0 1
gene 1 4 23 0.5475876861 0 189 0.1953198869 1
gene 1 12 12 0.00411545234 1 253 0.00411545234 1
gene 1 6 23 0.5970476175 0 294 0 1
gene 1 11 23 -1.005878704 0 363 -1.005878704 1
gene 1 23 23 -0.162701216 1 408 -0.162701216 1
gene 1 2 23 0.3801200829 0 432 0 1
gene 1 13 23 -0.4875396979 0 471 -0.1842041006 1
gene 1 13 13 0.515612656 1 745 0.515612656 1
genomeend 50421
/* Novelty: 5.127914429 Fitness: 128.9262238 Generation: 251 Indiv: 50671 */
/* Point: 179.1810303 105.4904633 179.1810303 105.4904633 */

/* Organism #60062 Fitness: 10.17823315 Error: 0 */
genomestart 60062
trait 1 0.2594421924 0.07474741515 0 0.01830999438 0 0.01122756909 0.1080571451 0.6304550873 
node 1 1 1 3
node 2 1 1 1
node 3 1 1 1
node 4 1 1 1
node 5 1 1 1
node 6 1 1 1
node 7 1 1 1
node 8 1 1 1
node 9 1 1 1
node 10 1 1 1
node 11 1 1 1
node 12 1 0 0
node 13 1 0 2
node 14 1 0 2
node 23 1 0 0
gene 1 1 12 -0.2567592034 0 1 -0.2567592034 1
gene 1 2 12 -0.4774586773 0 2 -0.4774586773 1
gene 1 3 12 -0.2047401628 0 3 -0.2047401628 1
gene 1 4 12 -1.338867834 0 4 -1.338867834 1
gene 1 5 12 1.81505041 0 5 1.81505041 1
gene 1 6 12 0.434251584 0 6 0.434251584 1
gene 1 7 12 -0.2445751865 0 7 -0.2445751865 1
gene 1 8 12 -0.1798096323 0 8 -0.1798096323 1
gene 1 9 12 -1.027012181 0 9 -1.027012181 1
gene 1 10 12 0.3003314576 0 10 0.3003314576 1
gene 1 11 12 0.5222456794 0 11 0.5222456794 1
gene 1 12 13 1.187968565 0 12 1.187968565 1
gene 1 12 14 0.0756144253 0 13 0.0756144253 1
gene 1 3 13 -1.548772809 0 14 -1.548772809 1
gene 1 10 13 0.00930267943 0 15 0.00930267943 1
gene 1 8 14 0.3752622028 0 17 0.3752622028 1
gene 1 9 14 0.3581691565 0 19 0.3569054552 1
gene 1 11 13 0.6610277864 0 24 0.6610277864 1
gene 1 6 14 0.9259101706 0 25 0.9259101706 1
gene 1 2 13 -0.3081206974 0 26 0.01553443296 1
gene 1 7 14 0.2077836995 0 30 0.2077836995 1
gene 1 4 14 0.9275658761 0 32 0.9275658761 1
gene 1 13 14 -0.891304175 0 33 -0.891304175 1
gene 1 5 13 0.7510467701 0 41 0.1146205184 1
gene 1 10 14 0.02927618959 0 46 0.02927618959 1
gene 1 3 14 -0.1423011441 0 52 0 1
gene 1 12 23 1 0 119 0 1
gene 1 23 14 0.6792466545 0 120 0.6792466545 1
gene 1 14 14 0.8774831844 1 160 0.8774831844 1
gene 1 7 23 -0.7300387469 0 163 -0.7300387469 0
gene 1 5 23 -1.609427538 0 182 -1.609427538 1
gene 1 9 23 0.09942064625 0 187 0 1
gene 1 4 23 0.5440999541 0 189 -0.1101116729 1
gene 1 3 23 0.2164701364 0 192 0 1
gene 1 12 12 -0.3626284691 1 253 -0.3626284691 1
gene 1 6 23 0.5970476175 0 294 0 1
gene 1 11 23 -0.9953077068 0 363 -0.9953077068 1
gene 1 23 23 0.3211608937 1 408 0.3211608937 1
gene 1 13 23 -0.6933385081 0 471 -0.1300009703 1
gene 1 13 13 0.515612656 1 745 0.515612656 1
genomeend 60062
/* Novelty: 1.898744583 Fitness: 177.5540161 Generation: 251 Indiv: 60312 */
/* Point: 152.4734497 35.40193558 152.4734497 35.40193558 */

/* Organism #40575 Fitness: 10.17823315 Error: 0 */
genomestart 40575
trait 1 0.2594421924 0.07474741515 0 0.01830999438 0 0.01122756909 0.1080571451 0.6304550873 
node 1 1 1 3
node 2 1 1 1
node 3 1 1 1
node 4 1 1 1
node 5 1 1 1
node 6 1 1 1
node 7 1 1 1
node 8 1 1 1
node 9 1 1 1
node 10 1 1 1
node 11 1 1 1
node 12 1 0 0
node 13 1 0 2
node 14 1 0 2
node 23 1 0 0
gene 1 1 12 -0.2567592034 0 1 -0.2567592034 1
gene 1 2 12 -0.4774586773 0 2 -0.4774586773 1
gene 1 3 12 -0.2047401628 0 3 -0.2047401628 1
gene 1 4 12 -1.338867834 0 4 -1.338867834 1
gene 1 5 12 1.81505041 0 5 1.81505041 1
gene 1 6 12 0.434251584 0 6 0.434251584 1
gene 1 7 12 -0.2445751865 0 7 -0.2445751865 1
gene 1 8 12 -0.1798096323 0 8 -0.1798096323 1
gene 1 9 12 -1.027012181 0 9 -1.027012181 1
gene 1 10 12 0.3003314576 0 10 0.3003314576 1
gene 1 11 12 0.5222456794 0 11 0.5222456794 1
gene 1 12 13 1.187968565 0 12 1.187968565 1
gene 1 12 14 0.0756144253 0 13 0.0756144253 1
gene 1 3 13 -1.548772809 0 14 -1.548772809 1
gene 1 10 13 0.00930267943 0 15 0.00930267943 1
gene 1 8 14 0.3752622028 0 17 0.3752622028 1
gene 1 9 14 0.3581691565 0 19 0.3569054552 1
gene 1 11 13 0.6610277864 0 24 0.6610277864 1
gene 1 6 14 0.9259101706 0 25 0.9259101706 1
gene 1 2 13 -0.3081206974 0 26 0.01553443296 1
gene 1 7 14 0.2077836995 0 30 0.2077836995 1
gene 1 4 14 0.9275658761 0 32 0.9275658761 1
gene 1 13 14 -0.891304175 0 33 -0.891304175 1
gene 1 5 13 0.7510467701 0 41 0.1146205184 1
gene 1 10 14 0.02927618959 0 46 0.02927618959 1
gene 1 3 14 -0.1423011441 0 52 0 1
gene 1 12 23 1 0 119 0 1
gene 1 23 14 0.6792466545 0 120 0.6792466545 1
gene 1 14 14 0.8774831844 1 160 0.8774831844 1
gene 1 7 23 -0.7300387469 0 163 -0.7300387469 0
gene 1 5 23 -1.609427538 0 182 -1.609427538 1
gene 1 9 23 0.09942064625 0 187 0 1
gene 1 4 23 0.5440999541 0 189 -0.1101116729 1
gene 1 3 23 0.2164701364 0 192 0 1
gene 1 12 12 -0.3626284691 1 253 -0.3626284691 1
gene 1 6 23 0.5970476175 0 294 0 1
gene 1 11 23 -0.9953077068 0 363 -0.9953077068 1
gene 1 23 23 0.3211608937 1 408 0.3211608937 1
gene 1 13 23 -0.6933385081 0 471 -0.1300009703 1
gene 1 13 13 0.515612656 1 745 0.515612656 1
genomeend 40575
/* Novelty: 1.898744583 Fitness: 177.5540161 Generation: 251 Indiv: 40825 */
/* Point: 152.4734497 35.40193558 152.4734497 35.40193558 */

/* Organism #59966 Fitness: 10.16853714 Error: 0 */
genomestart 59966
trait 1 0.2597495997 0.4248602296 0.5949292102 0.01839317654 0.5986003814 0.01902863036 0.1902791741 0.7303457357 
node 1 1 1 3
node 2 1 1 1
node 3 1 1 1
node 4 1 1 1
node 5 1 1 1
node 6 1 1 1
node 7 1 1 1
node 8 1 1 1
node 9 1 1 1
node 10 1 1 1
node 11 1 1 1
node 12 1 0 0
node 13 1 0 2
node 14 1 0 2
node 23 1 0 0
gene 1 1 12 -0.5351879546 0 1 -0.5351879546 1
gene 1 2 12 -0.3286944968 0 2 -0.3286944968 1
gene 1 3 12 -0.2738053183 0 3 -0.2738053183 1
gene 1 4 12 -1.166862864 0 4 -1.166862864 1
gene 1 5 12 1.24336275 0 5 1.24336275 1
gene 1 6 12 0.7577716996 0 6 0.7577716996 1
gene 1 7 12 -0.4504201936 0 7 -0.4504201936 1
gene 1 8 12 -0.1707450973 0 8 -0.1707450973 1
gene 1 9 12 -1.25753855 0 9 -1.25753855 1
gene 1 10 12 0.40575285 0 10 0.40575285 1
gene 1 11 12 0.8030736255 0 11 0.8030736255 1
gene 1 12 13 1.006056929 0 12 1.006056929 1
gene 1 12 14 0.3816471979 0 13 0.3816471979 1
gene 1 3 13 -1.653171163 0 14 -1.653171163 1
gene 1 10 13 0.1538276487 0 15 0.1538276487 1
gene 1 2 14 -0.7360287987 0 16 0 1
gene 1 8 14 0.5906339457 0 17 0.5906339457 1
gene 1 9 14 0.3581691565 0 19 0.3569054552 1
gene 1 11 13 0.7228649449 0 24 0.7228649449 1
gene 1 6 14 1.212870774 0 25 1.212870774 1
gene 1 2 13 -0.3381953902 0 26 0.01035628864 1
gene 1 8 13 -0.6357970325 0 29 0 1
gene 1 7 14 0.202073541 0 30 0.202073541 1
gene 1 4 14 0.5810831533 0 32 0.5810831533 1
gene 1 13 14 -0.891304175 0 33 -0.891304175 1
gene 1 5 13 1.544992397 0 41 1.544992397 1
gene 1 10 14 0.02927618959 0 46 0.02927618959 1
gene 1 3 14 -0.1423011441 0 52 0 1
gene 1 12 23 0.890199702 0 119 0.390199702 1
gene 1 23 14 0.3214269125 0 120 0.3214269125 1
gene 1 14 14 0.5861243627 1 160 0.5861243627 1
gene 1 7 23 -1.018241491 0 163 -1.018241491 1
gene 1 5 23 -0.932695337 0 182 -0.932695337 1
gene 1 9 23 0.09942064625 0 187 0 1
gene 1 4 23 0.5475876861 0 189 0.1953198869 1
gene 1 12 12 0.00411545234 1 253 0.00411545234 1
gene 1 6 23 0.5970476175 0 294 0 1
gene 1 11 23 -1.005878704 0 363 -1.005878704 1
gene 1 23 23 -0.162701216 1 408 -0.162701216 1
gene 1 2 23 0.3801200829 0 432 0 1
gene 1 13 23 -0.4875396979 0 471 -0.1842041006 1
gene 1 13 13 0.515612656 1 745 0.515612656 1
genomeend 59966
/* Novelty: 5.63061142 Fitness: 132.00354 Generation: 251 Indiv: 60216 */
/* Point: 176.201355 104.4948196 176.201355 104.4948196 */

/* Organism #53224 Fitness: 9.970010757 Error: 0 */
genomestart 53224
trait 1 0.9911141462 0.4121434243 0.1752100312 0.01861353827 0 0 0.4114998687 0.3445728639 
node 1 1 1 3
node 2 1 1 1
node 3 1 1 1
node 4 1 1 1
node 5 1 1 1
node 6 1 1 1
node 7 1 1 1
node 8 1 1 1
node 9 1 1 1
node 10 1 1 1
node 11 1 1 1
node 12 1 0 0
node 13 1 0 2
node 14 1 0 2
node 23 1 0 0
gene 1 1 12 -0.4986005456 0 1 -0.4986005456 1
gene 1 2 12 -0.2904488283 0 2 -0.2904488283 1
gene 1 3 12 -0.326304245 0 3 -0.326304245 1
gene 1 4 12 -1.609435958 0 4 -1.609435958 1
gene 1 5 12 0.6634761661 0 5 0.6634761661 1
gene 1 6 12 0.1236413062 0 6 0.1236413062 1
gene 1 7 12 -0.9698371893 0 7 -0.9698371893 1
gene 1 8 12 0.6823703213 0 8 0.6823703213 1
gene 1 9 12 0.7535384185 0 9 0.7535384185 1
gene 1 10 12 -0.1366489784 0 10 -0.1366489784 1
gene 1 11 12 0.4023256502 0 11 0.4023256502 1
gene 1 12 13 1.248306166 0 12 1.248306166 1
gene 1 12 14 -0.04614337201 0 13 -0.04614337201 1
gene 1 3 13 -1.678393334 0 14 -1.678393334 1
gene 1 10 13 0.2653586865 0 15 0.2653586865 1
gene 1 8 14 0.06980802041 0 17 0.06980802041 1
gene 1 9 14 -0.5293620671 0 19 -0.5293620671 1
gene 1 11 13 0.561181915 0 24 0.561181915 1
gene 1 6 14 1.953477368 0 25 1.953477368 1
gene 1 2 13 0.1916594742 0 26 0.1916594742 1
gene 1 8 13 -0.0770955468 0 29 -0.0770955468 1
gene 1 7 14 0.8113735607 0 30 0.8113735607 1
gene 1 4 14 0.2137920932 0 32 0.2137920932 1
gene 1 13 14 -0.9736437569 0 33 -0.9736437569 1
gene 1 5 13 0.7631575948 0 41 0.7631575948 1
gene 1 10 14 -0.3528953442 0 46 -0.3528953442 1
gene 1 3 14 0.4108858547 0 52 0.4108858547 1
gene 1 12 23 0.8696894135 0 119 0.8696894135 1
gene 1 23 14 -0.09793450917 0 120 -0.09793450917 1
gene 1 14 14 1.244125946 1 160 1.244125946 1
gene 1 7 23 -0.720897615 0 163 -0.720897615 0
gene 1 5 23 -1.076489827 0 182 -1.076489827 1
gene 1 9 23 -0.6722593672 0 187 -0.6722593672 1
gene 1 4 23 0.5491670145 0 189 0.5491670145 1
gene 1 12 12 -0.1534386501 1 253 -0.1534386501 1
gene 1 6 23 0.174562927 0 294 0.174562927 1
gene 1 8 23 0.6513613885 0 313 0 1
gene 1 11 23 -1.147383138 0 363 -1.147383138 1
gene 1 23 23 0.9817204334 1 408 0.9817204334 1
gene 1 2 23 0.3801200829 0 432 0.3801200829 1
gene 1 13 23 0.06862645213 0 471 0.06862645213 1
gene 1 13 13 0.2120351463 1 745 0.2120351463 1
genomeend 53224
/* Novelty: 1.045806885 Fitness: 179.480072 Generation: 251 Indiv: 53474 */
/* Point: 133.9887085 82.59693909 133.9887085 82.59693909 */

/* Organism #55254 Fitness: 9.965924263 Error: 0 */
genomestart 55254
trait 1 0.2595958961 0.1798949798 0.1173475995 0.01835158546 0.1507694596 0.01362138433 0.09845931182 0.6354580341 
node 1 1 1 3
node 2 1 1 1
node 3 1 1 1
node 4 1 1 1
node 5 1 1 1
node 6 1 1 1
node 7 1 1 1
node 8 1 1 1
node 9 1 1 1
node 10 1 1 1
node 11 1 1 1
node 12 1 0 0
node 13 1 0 2
node 14 1 0 2
node 23 1 0 0
gene 1 1 12 -0.2567592034 0 1 -0.2567592034 1
gene 1 2 12 -0.3446000934 0 2 -0.3446000934 1
gene 1 3 12 -0.2047401628 0 3 -0.2047401628 1
gene 1 4 12 -1.338867834 0 4 -1.338867834 1
gene 1 5 12 1.81505041 0 5 1.81505041 1
gene 1 6 12 0.7577716996 0 6 0.7577716996 1
gene 1 7 12 -0.4683057285 0 7 -0.4683057285 1
gene 1 8 12 -0.1707450973 0 8 -0.1707450973 1
gene 1 9 12 -1.142275366 0 9 -1.142275366 1
gene 1 10 12 0.4018198426 0 10 0.4018198426 1
gene 1 11 12 0.8030736255 0 11 0.8030736255 1
gene 1 12 13 1.187968565 0 12 1.187968565 1
gene 1 12 14 0.3804037255 0 13 0.3804037255 1
gene 1 3 13 -1.649452946 0 14 -1.649452946 1
gene 1 10 13 0.00930267943 0 15 0.00930267943 1
gene 1 8 14 0.3752622028 0 17 0.3752622028 1
gene 1 9 14 0.3581691565 0 19 0.3569054552 1
gene 1 11 13 0.6610277864 0 24 0.6610277864 1
gene 1 6 14 1.212870774 0 25 1.212870774 1
gene 1 2 13 -0.6570917041 0 26 -0.4952641389 1
gene 1 7 14 0.1230348966 0 30 0.1230348966 1
gene 1 4 14 0.9275658761 0 32 0.9275658761 1
gene 1 13 14 -0.891304175 0 33 -0.891304175 1
gene 1 5 13 1.148019584 0 41 0.8298064577 1
gene 1 10 14 0.3066241569 0 46 0.3066241569 1
gene 1 3 14 -0.1423011441 0 52 0 1
gene 1 12 23 1 0 119 0 1
gene 1 23 14 0.6792466545 0 120 0.6792466545 1
gene 1 14 14 0.8774831844 1 160 0.8774831844 1
gene 1 7 23 -1.018241491 0 163 -1.018241491 0
gene 1 5 23 -1.609427538 0 182 -1.609427538 1
gene 1 9 23 0.09942064625 0 187 0 1
gene 1 4 23 0.5040737549 0 189 0.1769679414 1
gene 1 3 23 0.2164701364 0 192 0 1
gene 1 12 12 -0.3626284691 1 253 -0.3626284691 1
gene 1 6 23 0.5970476175 0 294 0 1
gene 1 11 23 -0.9953077068 0 363 -0.9953077068 1
gene 1 23 23 0.3211608937 1 408 0.3211608937 1
gene 1 13 23 -0.6933385081 0 471 -0.1300009703 1
gene 1 13 13 0.515612656 1 745 0.515612656 1
genomeend 55254
/* Novelty: 4.52217865 Fitness: 169.6980591 Generation: 251 Indiv: 55504 */
/* Point: 160.8427734 30.92941284 160.8427734 30.92941284 */

/* Organism #52376 Fitness: 9.963794708 Error: 0 */
genomestart 52376
trait 1 0.625601 0.4485409084 0.3337394677 0.01855352221 0.3008111615 0.01038797733 0.2519898044 0.5044813797 
node 1 1 1 3
node 2 1 1 1
node 3 1 1 1
node 4 1 1 1
node 5 1 1 1
node 6 1 1 1
node 7 1 1 1
node 8 1 1 1
node 9 1 1 1
node 10 1 1 1
node 11 1 1 1
node 12 1 0 0
node 13 1 0 2
node 14 1 0 2
node 23 1 0 0
gene 1 1 12 -0.6561086257 0 1 -0.6561086257 1
gene 1 2 12 -0.2510951689 0 2 -0.2510951689 1
gene 1 3 12 -0.3345873594 0 3 -0.3345873594 1
gene 1 4 12 -1.321549853 0 4 -1.321549853 1
gene 1 5 12 0.9534194579 0 5 0.9534194579 1
gene 1 6 12 0.8230095324 0 6 0.8230095324 1
gene 1 7 12 -1.046532657 0 7 -1.046532657 1
gene 1 8 12 0.2843633661 0 8 0.2843633661 1
gene 1 9 12 -0.2520000659 0 9 -0.2520000659 1
gene 1 10 12 0.1833296247 0 10 0.1833296247 1
gene 1 11 12 0.5881937529 0 11 0.5881937529 1
gene 1 12 13 1.322737333 0 12 1.322737333 1
gene 1 12 14 0.3650837919 0 13 0.3650837919 1
gene 1 3 13 -1.618842604 0 14 -1.618842604 1
gene 1 10 13 0.2818556522 0 15 0.2818556522 1
gene 1 8 14 0.3197319957 0 17 0.3197319957 1
gene 1 9 14 -0.4240865065 0 19 -0.4240865065 1
gene 1 11 13 0.4567603534 0 24 0.4567603534 1
gene 1 6 14 1.726654373 0 25 1.726654373 1
gene 1 2 13 -0.4072016183 0 26 -0.4072016183 1
gene 1 7 13 0.2351934666 0 27 0.2351934666 1
gene 1 8 13 -0.1285492253 0 29 -0.1285492253 1
gene 1 7 14 0.4248298272 0 30 0.4248298272 1
gene 1 4 14 0.2363015787 0 32 0.2363015787 1
gene 1 13 14 -0.8214514559 0 33 -0.8214514559 1
gene 1 5 13 0.7406231025 0 41 0.7406231025 1
gene 1 10 14 0.11553839 0 46 0.11553839 1
gene 1 3 14 0.1872850379 0 52 0.1872850379 1
gene 1 12 23 0.8250444088 0 119 0.8250444088 1
gene 1 23 14 -0.06716366928 0 120 -0.06716366928 1
gene 1 14 14 1.13607013 1 160 1.13607013 1
gene 1 7 23 -0.8304918272 0 163 -0.8304918272 1
gene 1 5 23 -0.6662264816 0 182 -0.6662264816 1
gene 1 9 23 -0.5989056689 0 187 -0.5989056689 1
gene 1 4 23 0.5066072851 0 189 0.5066072851 1
gene 1 12 12 0.1087103619 1 253 0.1087103619 1
gene 1 6 23 0.3858052723 0 294 0.3858052723 1
gene 1 8 23 0.6513613885 0 313 0 1
gene 1 11 23 -1.1148952 0 363 -1.1148952 1
gene 1 23 23 0.4095096087 1 408 0.4095096087 1
gene 1 2 23 0.3801200829 0 432 0.3801200829 1
gene 1 13 23 -0.1065572177 0 471 -0.1065572177 1
gene 1 13 13 0.5326400635 1 745 0.5326400635 1
genomeend 52376
/* Novelty: 4.952162743 Fitness: 264.5613098 Generation: 251 Indiv: 52626 */
/* Point: 66.43086243 20.74509621 66.43086243 20.74509621 */

/* Organism #53336 Fitness: 9.901263237 Error: 0 */
genomestart 53336
trait 1 0.2603037821 0.4121434243 0.6524184456 0.01861353827 0.5914337158 0.02058782685 0.2521772362 0.7618510412 
node 1 1 1 3
node 2 1 1 1
node 3 1 1 1
node 4 1 1 1
node 5 1 1 1
node 6 1 1 1
node 7 1 1 1
node 8 1 1 1
node 9 1 1 1
node 10 1 1 1
node 11 1 1 1
node 12 1 0 0
node 13 1 0 2
node 14 1 0 2
node 23 1 0 0
gene 1 1 12 -0.4986005456 0 1 -0.4986005456 1
gene 1 2 12 -0.44029418 0 2 -0.44029418 1
gene 1 3 12 -0.0944284911 0 3 -0.0944284911 1
gene 1 4 12 -1.243967922 0 4 -1.243967922 1
gene 1 5 12 1.49354074 0 5 1.49354074 1
gene 1 6 12 0.6113479115 0 6 0.6113479115 1
gene 1 7 12 -0.6353228536 0 7 -0.6353228536 1
gene 1 8 12 -0.03698666517 0 8 -0.03698666517 1
gene 1 9 12 -1.050309475 0 9 -1.050309475 1
gene 1 10 12 0.2665392609 0 10 0.2665392609 1
gene 1 11 12 0.715096942 0 11 0.715096942 1
gene 1 12 13 1.248306166 0 12 1.248306166 1
gene 1 12 14 0.3158740654 0 13 0.3158740654 1
gene 1 3 13 -1.754646372 0 14 -1.754646372 1
gene 1 10 13 -0.01664644641 0 15 -0.01664644641 1
gene 1 8 14 0.7187371838 0 17 0.7187371838 1
gene 1 9 14 0.06400641913 0 19 0.06321660577 1
gene 1 11 13 0.561181915 0 24 0.561181915 1
gene 1 6 14 1.296830609 0 25 1.296830609 1
gene 1 2 13 -0.4927807812 0 26 -0.2780480505 1
gene 1 8 13 -0.6357970325 0 29 0 1
gene 1 7 14 0.3169260688 0 30 0.3169260688 1
gene 1 4 14 0.5346579427 0 32 0.5346579427 1
gene 1 13 14 -0.9736437569 0 33 -0.9736437569 1
gene 1 5 13 1.163434325 0 41 1.083881044 1
gene 1 10 14 0.2565207104 0 46 0.2565207104 1
gene 1 3 14 -0.1261897463 0 52 -0.01946388819 1
gene 1 12 23 0.8696894135 0 119 0.4946894135 1
gene 1 23 14 0.3030106177 0 120 0.3030106177 1
gene 1 14 14 0.8292962795 1 160 0.8292962795 1
gene 1 7 23 -0.8162695069 0 163 -0.8162695069 0
gene 1 5 23 -1.076489827 0 182 -1.076489827 1
gene 1 9 23 0.09942064625 0 187 0.02485516156 1
gene 1 4 23 0.2995319326 0 189 0.0416215796 1
gene 1 12 12 -0.02446938638 1 253 -0.02446938638 1
gene 1 6 23 0.5970476175 0 294 0 1
gene 1 11 23 -1.137793827 0 363 -1.137793827 1
gene 1 23 23 0.2131576825 1 408 0.2131576825 1
gene 1 2 23 0.3801200829 0 432 0 1
gene 1 13 23 -0.7013337226 0 471 -0.4792487317 1
gene 1 13 13 0.5811459628 1 745 0.5811459628 1
genomeend 53336
/* Novelty: 2.200958252 Fitness: 192.4575195 Generation: 251 Indiv: 53586 */
/* Point: 133.6400604 52.09990311 133.6400604 52.09990311 */

/* Organism #52034 Fitness: 9.887803078 Error: 0 */
genomestart 52034
trait 1 0.2600878538 0.4849383924 0.4922689041 0.01849350614 0.6016223231 0.02077595466 0.0924797401 0.6643898954 
node 1 1 1 3
node 2 1 1 1
node 3 1 1 1
node 4 1 1 1
node 5 1 1 1
node 6 1 1 1
node 7 1 1 1
node 8 1 1 1
node 9 1 1 1
node 10 1 1 1
node 11 1 1 1
node 12 1 0 0
node 13 1 0 2
node 14 1 0 2
node 23 1 0 0
gene 1 1 12 -0.8136167058 0 1 -0.8136167058 1
gene 1 2 12 -0.2117415095 0 2 -0.2117415095 1
gene 1 3 12 -0.3428704738 0 3 -0.3428704738 1
gene 1 4 12 -1.033663747 0 4 -1.033663747 1
gene 1 5 12 1.24336275 0 5 1.24336275 1
gene 1 6 12 1.522377759 0 6 1.522377759 1
gene 1 7 12 -1.123228125 0 7 -1.123228125 1
gene 1 8 12 -0.113643589 0 8 -0.113643589 1
gene 1 9 12 -1.25753855 0 9 -1.25753855 1
gene 1 10 12 0.5033082277 0 10 0.5033082277 1
gene 1 11 12 0.7740618556 0 11 0.7740618556 1
gene 1 12 13 1.397168499 0 12 1.397168499 1
gene 1 12 14 0.7763109557 0 13 0.7763109557 1
gene 1 3 13 -1.559291874 0 14 -1.559291874 1
gene 1 10 13 0.2983526179 0 15 0.2983526179 1
gene 1 8 14 0.5696559711 0 17 0.5696559711 1
gene 1 9 14 -0.318810946 0 19 -0.318810946 1
gene 1 11 13 0.3523387918 0 24 0.3523387918 1
gene 1 6 14 1.499831378 0 25 1.499831378 1
gene 1 2 13 -1.006062711 0 26 -1.006062711 1
gene 1 7 13 0.2351934666 0 27 0.2351934666 1
gene 1 8 13 -0.1800029038 0 29 -0.1800029038 1
gene 1 7 14 0.03828609364 0 30 0.03828609364 1
gene 1 4 14 0.2588110643 0 32 0.2588110643 1
gene 1 13 14 -0.6692591549 0 33 -0.6692591549 1
gene 1 5 13 0.7180886103 0 41 0.7180886103 1
gene 1 10 14 0.5839721243 0 46 0.5839721243 1
gene 1 3 14 -0.03631577894 0 52 -0.03631577894 1
gene 1 12 23 0.780399404 0 119 0.780399404 1
gene 1 23 14 -0.0363928294 0 120 -0.0363928294 1
gene 1 14 14 1.028014313 1 160 1.028014313 1
gene 1 7 23 -0.9400860394 0 163 -0.9400860394 0
gene 1 5 23 -0.2559631364 0 182 -0.2559631364 1
gene 1 9 23 -0.5255519705 0 187 -0.5255519705 1
gene 1 4 23 0.4640475557 0 189 0.4640475557 1
gene 1 12 12 0.3708593738 1 253 0.3708593738 1
gene 1 6 23 0.5970476175 0 294 0.5970476175 1
gene 1 11 23 -1.082407263 0 363 -1.082407263 1
gene 1 23 23 -0.162701216 1 408 -0.162701216 1
gene 1 2 23 0.3801200829 0 432 0.3801200829 1
gene 1 13 23 -0.2817408876 0 471 -0.2817408876 1
gene 1 13 13 0.8532449807 1 745 0.8532449807 1
genomeend 52034
/* Novelty: 4.74198246 Fitness: 264.014679 Generation: 251 Indiv: 52284 */
/* Point: 66.95392609 21.50303459 66.95392609 21.50303459 */

/* Organism #39232 Fitness: 9.883532524 Error: 0 */
genomestart 39232
trait 1 0.2600570069 0.4953376736 0.4693903982 0.01847635869 0.6030778384 0.02080283006 0.0696658121 0.6504668746 
node 1 1 1 3
node 2 1 1 1
node 3 1 1 1
node 4 1 1 1
node 5 1 1 1
node 6 1 1 1
node 7 1 1 1
node 8 1 1 1
node 9 1 1 1
node 10 1 1 1
node 11 1 1 1
node 12 1 0 0
node 13 1 0 2
node 14 1 0 2
node 23 1 0 0
gene 1 1 12 -0.8136167058 0 1 -0.8136167058 1
gene 1 2 12 -0.2117415095 0 2 -0.2117415095 1
gene 1 3 12 -0.3428704738 0 3 -0.3428704738 1
gene 1 4 12 -1.244218128 0 4 -1.244218128 1
gene 1 5 12 1.24336275 0 5 1.24336275 1
gene 1 6 12 1.081291815 0 6 1.081291815 1
gene 1 7 12 -0.6920362704 0 7 -0.6920362704 1
gene 1 8 12 -0.1616805622 0 8 -0.1616805622 1
gene 1 9 12 -1.25753855 0 9 -1.25753855 1
gene 1 10 12 0.5033082277 0 10 0.5033082277 1
gene 1 11 12 1.083901572 0 11 1.083901572 1
gene 1 12 13 0.8241452941 0 12 0.8241452941 1
gene 1 12 14 0.6851930258 0 13 0.6851930258 1
gene 1 3 13 -1.750133082 0 14 -1.750133082 1
gene 1 10 13 0.2983526179 0 15 0.2983526179 1
gene 1 8 14 0.8181249245 0 17 0.8181249245 1
gene 1 9 14 -0.318810946 0 19 -0.318810946 1
gene 1 11 13 0.3523387918 0 24 0.3523387918 1
gene 1 6 14 1.499831378 0 25 1.499831378 1
gene 1 2 13 -1.006062711 0 26 -1.006062711 1
gene 1 7 13 0.520192147 0 27 0 1
gene 1 7 14 0.03828609364 0 30 0.03828609364 1
gene 1 4 14 0.2588110643 0 32 0.2588110643 1
gene 1 13 14 -0.6692591549 0 33 -0.6692591549 1
gene 1 5 13 1.544992397 0 41 1.544992397 1
gene 1 10 14 0.5839721243 0 46 0.5839721243 1
gene 1 12 23 0.780399404 0 119 0.780399404 1
gene 1 23 14 -0.0363928294 0 120 -0.0363928294 1
gene 1 14 14 0.294765541 1 160 0.294765541 1
gene 1 7 23 -1.306444235 0 163 -1.306444235 1
gene 1 5 23 -0.2559631364 0 182 -0.2559631364 1
gene 1 9 23 0.09942064625 0 187 0 1
gene 1 4 23 0.4640475557 0 189 0.4640475557 1
gene 1 12 12 0.3708593738 1 253 0.3708593738 1
gene 1 11 23 -1.027020699 0 363 -1.027020699 1
gene 1 23 23 -0.162701216 1 408 -0.162701216 1
gene 1 13 23 -0.2817408876 0 471 -0.2817408876 1
genomeend 39232
/* Novelty: 5.344333649 Fitness: 171.4836273 Generation: 251 Indiv: 39482 */
/* Point: 159.2839203 27.72624969 159.2839203 27.72624969 */

/* Organism #54417 Fitness: 9.699497223 Error: 0 */
genomestart 54417
trait 1 0.4428906973 0.4511407287 0.4473219448 0.01854923534 0.4490334693 0.01554165289 0.2064556643 0.6053201688 
node 1 1 1 3
node 2 1 1 1
node 3 1 1 1
node 4 1 1 1
node 5 1 1 1
node 6 1 1 1
node 7 1 1 1
node 8 1 1 1
node 9 1 1 1
node 10 1 1 1
node 11 1 1 1
node 12 1 0 0
node 13 1 0 2
node 14 1 0 2
node 23 1 0 0
gene 1 1 12 -0.5773545857 0 1 -0.5773545857 1
gene 1 2 12 -0.3456946745 0 2 -0.3456946745 1
gene 1 3 12 -0.2145079252 0 3 -0.2145079252 1
gene 1 4 12 -1.282758887 0 4 -1.282758887 1
gene 1 5 12 1.223480099 0 5 1.223480099 1
gene 1 6 12 0.717178722 0 6 0.717178722 1
gene 1 7 12 -0.8409277553 0 7 -0.8409277553 1
gene 1 8 12 0.06134140196 0 8 0.06134140196 1
gene 1 9 12 -0.6511547706 0 9 -0.6511547706 1
gene 1 10 12 0.3433189262 0 10 0.3433189262 1
gene 1 11 12 0.8360476622 0 11 0.8360476622 1
gene 1 12 13 1.28552175 0 12 1.28552175 1
gene 1 12 14 0.3404789286 0 13 0.3404789286 1
gene 1 3 13 -1.686744488 0 14 -1.686744488 1
gene 1 10 13 0.1326046029 0 15 0.1326046029 1
gene 1 8 14 0.5689284601 0 17 0.5689284601 1
gene 1 9 14 -0.3714487263 0 19 -0.3714487263 1
gene 1 11 13 0.4045495726 0 24 0.4045495726 1
gene 1 6 14 1.511742491 0 25 1.511742491 1
gene 1 2 13 -0.7066321645 0 26 -0.7066321645 1
gene 1 7 13 0.3776928068 0 27 0.1175967333 1
gene 1 8 13 -0.3821731289 0 29 -0.06427461266 1
gene 1 7 14 0.370877948 0 30 0.370877948 1
gene 1 4 14 0.2475563215 0 32 0.2475563215 1
gene 1 13 14 -0.8975476064 0 33 -0.8975476064 1
gene 1 5 13 0.9520287138 0 41 0.9122520731 1
gene 1 10 14 0.3497552572 0 46 0.3497552572 1
gene 1 3 14 0.0305476458 0 52 0.08391057485 1
gene 1 12 23 0.8473669111 0 119 0.6598669111 1
gene 1 23 14 -0.05177824934 0 120 -0.05177824934 1
gene 1 14 14 0.9826832045 1 160 0.9826832045 1
gene 1 7 23 -0.8233806671 0 163 -0.8233806671 0
gene 1 5 23 -0.461094809 0 182 -0.461094809 1
gene 1 9 23 -0.2497425113 0 187 -0.2870252537 1
gene 1 4 23 0.4030696089 0 189 0.2741144324 1
gene 1 12 12 0.2397848678 1 253 0.2397848678 1
gene 1 6 23 0.4914264449 0 294 0.1929026361 1
gene 1 8 23 0.6513613885 0 313 0 1
gene 1 11 23 -1.126344514 0 363 -1.126344514 1
gene 1 23 23 0.3113336456 1 408 0.3113336456 1
gene 1 2 23 0.3801200829 0 432 0.1900600415 1
gene 1 13 23 -0.4039454701 0 471 -0.2929029747 1
gene 1 13 13 0.5568930132 1 745 0.5568930132 1
genomeend 54417
/* Novelty: 0.5566072464 Fitness: 257.8978577 Generation: 251 Indiv: 54667 */
/* Point: 72.67669678 14.02972984 72.67669678 14.02972984 */

/* Organism #52988 Fitness: 9.997887611 Error: 0 */
genomestart 52988
trait 1 0.2601803945 0.4537405489 0.5609044219 0.01854494848 0.5972557771 0.02069532846 0.1609215241 0.7061589579 
node 1 1 1 3
node 2 1 1 1
node 3 1 1 1
node 4 1 1 1
node 5 1 1 1
node 6 1 1 1
node 7 1 1 1
node 8 1 1 1
node 9 1 1 1
node 10 1 1 1
node 11 1 1 1
node 12 1 0 0
node 13 1 0 2
node 14 1 0 2
node 23 1 0 0
gene 1 1 12 -0.4986005456 0 1 -0.4986005456 1
gene 1 2 12 -0.44029418 0 2 -0.44029418 1
gene 1 3 12 -0.0944284911 0 3 -0.0944284911 1
gene 1 4 12 -1.243967922 0 4 -1.243967922 1
gene 1 5 12 1.49354074 0 5 1.49354074 1
gene 1 6 12 0.6113479115 0 6 0.6113479115 1
gene 1 7 12 -0.6353228536 0 7 -0.6353228536 1
gene 1 8 12 -0.1616805622 0 8 -0.1616805622 1
gene 1 9 12 -1.050309475 0 9 -1.050309475 1
gene 1 10 12 0.5033082277 0 10 0.5033082277 1
gene 1 11 12 1.083901572 0 11 1.083901572 1
gene 1 12 13 1.248306166 0 12 1.248306166 1
gene 1 12 14 0.3158740654 0 13 0.3158740654 1
gene 1 3 13 -1.754646372 0 14 -1.754646372 1
gene 1 10 13 -0.01664644641 0 15 -0.01664644641 1
gene 1 8 14 0.8181249245 0 17 0.8181249245 1
gene 1 9 14 -0.318810946 0 19 -0.318810946 1
gene 1 11 13 0.3523387918 0 24 0.3523387918 1
gene 1 6 14 1.296830609 0 25 1.296830609 1
gene 1 2 13 -1.006062711 0 26 -1.006062711 1
gene 1 7 13 0.520192147 0 27 0 1
gene 1 8 13 -0.6357970325 0 29 0 1
gene 1 7 14 0.3169260688 0 30 0.3169260688 1
gene 1 4 14 0.2588110643 0 32 0.2588110643 1
gene 1 13 14 -0.9736437569 0 33 -0.9736437569 1
gene 1 5 13 1.163434325 0 41 1.083881044 1
gene 1 10 14 0.5839721243 0 46 0.5839721243 1
gene 1 3 14 -0.1261897463 0 52 -0.01946388819 1
gene 1 12 23 0.8696894135 0 119 0.4946894135 1
gene 1 23 14 -0.0363928294 0 120 -0.0363928294 1
gene 1 14 14 0.8292962795 1 160 0.8292962795 1
gene 1 7 23 -0.8162695069 0 163 -0.8162695069 0
gene 1 5 23 -0.2559631364 0 182 -0.2559631364 1
gene 1 9 23 0.09942064625 0 187 0.02485516156 1
gene 1 4 23 0.2995319326 0 189 0.0416215796 1
gene 1 12 12 0.3708593738 1 253 0.3708593738 1
gene 1 6 23 0.5970476175 0 294 0 1
gene 1 11 23 -1.137793827 0 363 -1.137793827 1
gene 1 23 23 0.2131576825 1 408 0.2131576825 1
gene 1 2 23 0.3801200829 0 432 0 1
gene 1 13 23 -0.7013337226 0 471 -0.4792487317 1
gene 1 13 13 0.5811459628 1 745 0.5811459628 1
genomeend 52988
/* Novelty: 0 Fitness: 240.963562 Generation: 251 Indiv: 53238 */
/* Point: 89.748909 14.18043613 89.748909 14.18043613 */

/* Organism #46004 Fitness: 9.997887611 Error: 0 */
genomestart 46004
trait 1 0.2601803945 0.4537405489 0.5609044219 0.01854494848 0.5972557771 0.02069532846 0.1609215241 0.7061589579 
node 1 1 1 3
node 2 1 1 1
node 3 1 1 1
node 4 1 1 1
node 5 1 1 1
node 6 1 1 1
node 7 1 1 1
node 8 1 1 1
node 9 1 1 1
node 10 1 1 1
node 11 1 1 1
node 12 1 0 0
node 13 1 0 2
node 14 1 0 2
node 23 1 0 0
gene 1 1 12 -0.4986005456 0 1 -0.4986005456 1
gene 1 2 12 -0.44029418 0 2 -0.44029418 1
gene 1 3 12 -0.0944284911 0 3 -0.0944284911 1
gene 1 4 12 -1.243967922 0 4 -1.243967922 1
gene 1 5 12 1.49354074 0 5 1.49354074 1
gene 1 6 12 0.6113479115 0 6 0.6113479115 1
gene 1 7 12 -0.6353228536 0 7 -0.6353228536 1
gene 1 8 12 -0.1616805622 0 8 -0.1616805622 1
gene 1 9 12 -1.050309475 0 9 -1.050309475 1
gene 1 10 12 0.5033082277 0 10 0.5033082277 1
gene 1 11 12 1.083901572 0 11 1.083901572 1
gene 1 12 13 1.248306166 0 12 1.248306166 1
gene 1 12 14 0.3158740654 0 13 0.3158740654 1
gene 1 3 13 -1.754646372 0 14 -1.754646372 1
gene 1 10 13 -0.01664644641 0 15 -0.01664644641 1
gene 1 8 14 0.8181249245 0 17 0.8181249245 1
gene 1 9 14 -0.318810946 0 19 -0.318810946 1
gene 1 11 13 0.3523387918 0 24 0.3523387918 1
gene 1 6 14 1.296830609 0 25 1.296830609 1
gene 1 2 13 -1.006062711 0 26 -1.006062711 1
gene 1 7 13 0.520192147 0 27 0 1
gene 1 8 13 -0.6357970325 0 29 0 1
gene 1 7 14 0.3169260688 0 30 0.3169260688 1
gene 1 4 14 0.2588110643 0 32 0.2588110643 1
gene 1 13 14 -0.9736437569 0 33 -0.9736437569 1
gene 1 5 13 1.163434325 0 41 1.083881044 1
gene 1 10 14 0.5839721243 0 46 0.5839721243 1
gene 1 3 14 -0.1261897463 0 52 -0.01946388819 1
gene 1 12 23 0.8696894135 0 119 0.4946894135 1
gene 1 23 14 -0.0363928294 0 120 -0.0363928294 1
gene 1 14 14 0.8292962795 1 160 0.8292962795 1
gene 1 7 23 -0.8162695069 0 163 -0.8162695069 0
gene 1 5 23 -0.2559631364 0 182 -0.2559631364 1
gene 1 9 23 0.09942064625 0 187 0.02485516156 1
gene 1 4 23 0.2995319326 0 189 0.0416215796 1
gene 1 12 12 0.3708593738 1 253 0.3708593738 1
gene 1 6 23 0.5970476175 0 294 0 1
gene 1 11 23 -1.137793827 0 363 -1.137793827 1
gene 1 23 23 0.2131576825 1 408 0.2131576825 1
gene 1 2 23 0.3801200829 0 432 0 1
gene 1 13 23 -0.7013337226 0 471 -0.4792487317 1
gene 1 13 13 0.5811459628 1 745 0.5811459628 1
genomeend 46004
/* Novelty: 0 Fitness: 240.963562 Generation: 251 Indiv: 46254 */
/* Point: 89.748909 14.18043613 89.748909 14.18043613 */

/* Organism #55622 Fitness: 9.604547501 Error: 0 */
genomestart 55622
trait 1 0.2597495997 0.2850425444 0.2346951991 0.01839317654 0.3015389192 0.01601519957 0.08886147858 0.6404609809 
node 1 1 1 3
node 2 1 1 1
node 3 1 1 1
node 4 1 1 1
node 5 1 1 1
node 6 1 1 1
node 7 1 1 1
node 8 1 1 1
node 9 1 1 1
node 10 1 1 1
node 11 1 1 1
node 12 1 0 0
node 13 1 0 2
node 14 1 0 2
node 23 1 0 0
gene 1 1 12 -0.2567592034 0 1 -0.2567592034 1
gene 1 2 12 -0.2117415095 0 2 -0.2117415095 1
gene 1 3 12 -0.2047401628 0 3 -0.2047401628 1
gene 1 4 12 -1.338867834 0 4 -1.338867834 1
gene 1 5 12 1.81505041 0 5 1.81505041 1
gene 1 6 12 1.081291815 0 6 1.081291815 1
gene 1 7 12 -0.6920362704 0 7 -0.6920362704 1
gene 1 8 12 -0.1616805622 0 8 -0.1616805622 1
gene 1 9 12 -1.25753855 0 9 -1.25753855 1
gene 1 10 12 0.5033082277 0 10 0.5033082277 1
gene 1 11 12 1.083901572 0 11 1.083901572 1
gene 1 12 13 1.187968565 0 12 1.187968565 1
gene 1 12 14 0.6851930258 0 13 0.6851930258 1
gene 1 3 13 -1.750133082 0 14 -1.750133082 1
gene 1 10 13 0.00930267943 0 15 0.00930267943 1
gene 1 8 14 0.3752622028 0 17 0.3752622028 1
gene 1 9 14 0.3581691565 0 19 0.3569054552 1
gene 1 11 13 0.6610277864 0 24 0.6610277864 1
gene 1 6 14 1.499831378 0 25 1.499831378 1
gene 1 2 13 -1.006062711 0 26 -1.006062711 1
gene 1 7 14 0.03828609364 0 30 0.03828609364 1
gene 1 4 14 0.9275658761 0 32 0.9275658761 1
gene 1 13 14 -0.891304175 0 33 -0.891304175 1
gene 1 5 13 1.544992397 0 41 1.544992397 1
gene 1 10 14 0.5839721243 0 46 0.5839721243 1
gene 1 3 14 -0.1423011441 0 52 0 1
gene 1 12 23 1 0 119 0 1
gene 1 23 14 0.6792466545 0 120 0.6792466545 1
gene 1 14 14 0.8774831844 1 160 0.8774831844 1
gene 1 7 23 -1.306444235 0 163 -1.306444235 1
gene 1 5 23 -1.609427538 0 182 -1.609427538 1
gene 1 9 23 0.09942064625 0 187 0 1
gene 1 4 23 0.4640475557 0 189 0.4640475557 1
gene 1 3 23 0.2164701364 0 192 0 1
gene 1 12 12 -0.3626284691 1 253 -0.3626284691 1
gene 1 6 23 0.5970476175 0 294 0 1
gene 1 11 23 -0.9953077068 0 363 -0.9953077068 1
gene 1 23 23 0.3211608937 1 408 0.3211608937 1
gene 1 13 23 -0.6933385081 0 471 -0.1300009703 1
gene 1 13 13 0.515612656 1 745 0.515612656 1
genomeend 55622
/* Novelty: 4.410312653 Fitness: 183.2490234 Generation: 251 Indiv: 55872 */
/* Point: 142.9031372 53.29382324 142.9031372 53.29382324 */

/* Organism #60109 Fitness: 9.604547501 Error: 0 */
genomestart 60109
trait 1 0.2597495997 0.2850425444 0.2346951991 0.01839317654 0.3015389192 0.01601519957 0.08886147858 0.6404609809 
node 1 1 1 3
node 2 1 1 1
node 3 1 1 1
node 4 1 1 1
node 5 1 1 1
node 6 1 1 1
node 7 1 1 1
node 8 1 1 1
node 9 1 1 1
node 10 1 1 1
node 11 1 1 1
node 12 1 0 0
node 13 1 0 2
node 14 1 0 2
node 23 1 0 0
gene 1 1 12 -0.2567592034 0 1 -0.2567592034 1
gene 1 2 12 -0.2117415095 0 2 -0.2117415095 1
gene 1 3 12 -0.2047401628 0 3 -0.2047401628 1
gene 1 4 12 -1.338867834 0 4 -1.338867834 1
gene 1 5 12 1.81505041 0 5 1.81505041 1
gene 1 6 12 1.081291815 0 6 1.081291815 1
gene 1 7 12 -0.6920362704 0 7 -0.6920362704 1
gene 1 8 12 -0.1616805622 0 8 -0.1616805622 1
gene 1 9 12 -1.25753855 0 9 -1.25753855 1
gene 1 10 12 0.5033082277 0 10 0.5033082277 1
gene 1 11 12 1.083901572 0 11 1.083901572 1
gene 1 12 13 1.187968565 0 12 1.187968565 1
gene 1 12 14 0.6851930258 0 13 0.6851930258 1
gene 1 3 13 -1.750133082 0 14 -1.750133082 1
gene 1 10 13 0.00930267943 0 15 0.00930267943 1
gene 1 8 14 0.3752622028 0 17 0.3752622028 1
gene 1 9 14 0.3581691565 0 19 0.3569054552 1
gene 1 11 13 0.6610277864 0 24 0.6610277864 1
gene 1 6 14 1.499831378 0 25 1.499831378 1
gene 1 2 13 -1.006062711 0 26 -1.006062711 1
gene 1 7 14 0.03828609364 0 30 0.03828609364 1
gene 1 4 14 0.9275658761 0 32 0.9275658761 1
gene 1 13 14 -0.891304175 0 33 -0.891304175 1
gene 1 5 13 1.544992397 0 41 1.544992397 1
gene 1 10 14 0.5839721243 0 46 0.5839721243 1
gene 1 3 14 -0.1423011441 0 52 0 1
gene 1 12 23 1 0 119 0 1
gene 1 23 14 0.6792466545 0 120 0.6792466545 1
gene 1 14 14 0.8774831844 1 160 0.8774831844 1
gene 1 7 23 -1.306444235 0 163 -1.306444235 1
gene 1 5 23 -1.609427538 0 182 -1.609427538 1
gene 1 9 23 0.09942064625 0 187 0 1
gene 1 4 23 0.4640475557 0 189 0.4640475557 1
gene 1 3 23 0.2164701364 0 192 0 1
gene 1 12 12 -0.3626284691 1 253 -0.3626284691 1
gene 1 6 23 0.5970476175 0 294 0 1
gene 1 11 23 -0.9953077068 0 363 -0.9953077068 1
gene 1 23 23 0.3211608937 1 408 0.3211608937 1
gene 1 13 23 -0.6933385081 0 471 -0.1300009703 1
gene 1 13 13 0.515612656 1 745 0.515612656 1
genomeend 60109
/* Novelty: 4.410312653 Fitness: 183.2490234 Generation: 251 Indiv: 60359 */
/* Point: 142.9031372 53.29382324 142.9031372 53.29382324 */

/* Organism #55568 Fitness: 9.503391266 Error: 0 */
genomestart 55568
trait 1 1 0 0.4693903982 0.8119199988 0.03883758877 0.02080283006 0.2045709213 0.6504668746 
node 1 1 1 3
node 2 1 1 1
node 3 1 1 1
node 4 1 1 1
node 5 1 1 1
node 6 1 1 1
node 7 1 1 1
node 8 1 1 1
node 9 1 1 1
node 10 1 1 1
node 11 1 1 1
node 12 1 0 0
node 13 1 0 2
node 14 1 0 2
node 23 1 0 0
gene 1 1 12 -0.8136167058 0 1 -0.8136167058 1
gene 1 2 12 -0.2117415095 0 2 -0.2117415095 1
gene 1 3 12 -0.3428704738 0 3 -0.3428704738 1
gene 1 4 12 -1.244218128 0 4 -1.244218128 1
gene 1 5 12 1.24336275 0 5 1.24336275 1
gene 1 6 12 1.081291815 0 6 1.081291815 1
gene 1 7 12 -0.6920362704 0 7 -0.6920362704 1
gene 1 8 12 -0.1616805622 0 8 -0.1616805622 1
gene 1 9 12 -1.25753855 0 9 -1.25753855 1
gene 1 10 12 0.5033082277 0 10 0.5033082277 1
gene 1 11 12 1.083901572 0 11 1.083901572 1
gene 1 12 13 0.8241452941 0 12 0.8241452941 1
gene 1 12 14 0.6851930258 0 13 0.6851930258 1
gene 1 3 13 -1.750133082 0 14 -1.750133082 1
gene 1 10 13 0.2983526179 0 15 0.2983526179 1
gene 1 8 14 0.8181249245 0 17 0.8181249245 1
gene 1 9 14 -0.318810946 0 19 -0.318810946 1
gene 1 11 13 0.3523387918 0 24 0.3523387918 1
gene 1 6 14 1.499831378 0 25 1.499831378 1
gene 1 2 13 -1.006062711 0 26 -1.006062711 1
gene 1 7 14 0.03828609364 0 30 0.03828609364 1
gene 1 4 14 0.2588110643 0 32 0.2588110643 1
gene 1 13 14 -0.6692591549 0 33 -0.6692591549 1
gene 1 5 13 1.544992397 0 41 1.544992397 1
gene 1 10 14 0.5839721243 0 46 0.5839721243 1
gene 1 12 23 0.780399404 0 119 0.780399404 1
gene 1 23 14 -0.0363928294 0 120 -0.0363928294 1
gene 1 14 14 0.294765541 1 160 0.294765541 1
gene 1 7 23 -1.306444235 0 163 -1.306444235 1
gene 1 5 23 -0.2559631364 0 182 -0.2559631364 1
gene 1 9 23 0.09942064625 0 187 0 1
gene 1 4 23 0.4640475557 0 189 0.4640475557 1
gene 1 12 12 0.3708593738 1 253 0.3708593738 1
gene 1 11 23 -1.027020699 0 363 -1.027020699 1
gene 1 23 23 -0.162701216 1 408 -0.162701216 1
gene 1 13 23 -0.2817408876 0 471 -0.2817408876 1
genomeend 55568
/* Novelty: 6.128990173 Fitness: 261.5256348 Generation: 251 Indiv: 55818 */
/* Point: 60.14142609 45.12080002 60.14142609 45.12080002 */

/* Species #3 : (Size 16) (AF 0) (Age 1)  */


/* Organism #57479 Fitness: 9.964822769 Error: 0 */
genomestart 57479
trait 1 0.1796601046 0.03353188509 0.3932231216 0.1703146803 0.501033925 0.01334530459 0.170217811 0.004842720235 
node 1 1 1 3
node 2 1 1 1
node 3 1 1 1
node 4 1 1 1
node 5 1 1 1
node 6 1 1 1
node 7 1 1 1
node 8 1 1 1
node 9 1 1 1
node 10 1 1 1
node 11 1 1 1
node 12 1 0 0
node 13 1 0 2
node 14 1 0 2
node 15 1 0 0
gene 1 1 12 -0.5984786179 0 1 -0.5984786179 1
gene 1 2 12 0.6720352537 0 2 0.6720352537 1
gene 1 3 12 0.1005234362 0 3 0.1005234362 1
gene 1 4 12 0.926160197 0 4 0.926160197 1
gene 1 5 12 0.6177107504 0 5 0.6177107504 1
gene 1 6 12 -0.4356443791 0 6 -0.4356443791 1
gene 1 7 12 -0.3440089793 0 7 -0.3440089793 1
gene 1 8 12 -0.286761593 0 8 -0.286761593 0
gene 1 9 12 0.6668114732 0 9 0.6668114732 1
gene 1 10 12 -1.464829533 0 10 -1.464829533 1
gene 1 11 12 -0.09486110426 0 11 -0.09486110426 1
gene 1 12 13 -0.5592148895 0 12 -0.5592148895 1
gene 1 12 14 0.9810287343 0 13 0.9810287343 1
gene 1 3 13 0.357904427 0 14 0.357904427 1
gene 1 8 14 0.5301249343 0 17 0.5301249343 1
gene 1 9 14 0.9339819421 0 19 0.9339819421 1
gene 1 13 13 -0.26950912 1 21 -0.26950912 1
gene 1 11 13 -0.4449989935 0 24 -0.3668241169 1
gene 1 2 13 -1.015006706 0 26 -1.015006706 1
gene 1 11 14 -0.2220880397 0 28 0.0136088752 1
gene 1 12 15 0.2343769988 0 37 0.2343769988 1
gene 1 15 13 0.3119631843 0 38 0.3119631843 1
gene 1 5 13 1.714423728 0 41 1.714423728 1
gene 1 10 15 0.3988911649 0 49 0.2813352147 1
gene 1 2 15 0.3068559076 0 77 0.3068559076 0
gene 1 6 15 0.6151123195 0 84 0.3971414988 1
gene 1 15 15 -0.7010441698 1 114 -0.7010441698 1
gene 1 14 15 -0.8516224329 0 125 -0.8516224329 1
gene 1 7 15 -0.6282914087 0 132 -0.5608847597 1
gene 1 9 15 -0.7654505334 0 134 0 1
gene 1 4 15 0.739855585 0 191 0 1
gene 1 8 15 0.4414617077 0 281 0 1
gene 1 12 12 -0.2355749736 1 311 -0.2355749736 1
genomeend 57479
/* Novelty: 3.249427795 Fitness: 150.8713531 Generation: 251 Indiv: 57729 */
/* Point: 161.9013824 91.44354248 161.9013824 91.44354248 */

/* Organism #56979 Fitness: 9.898015022 Error: 0 */
genomestart 56979
trait 1 0.8292181552 0.3400067358 1 0 0.3285257792 0.01474784258 0 0 
node 1 1 1 3
node 2 1 1 1
node 3 1 1 1
node 4 1 1 1
node 5 1 1 1
node 6 1 1 1
node 7 1 1 1
node 8 1 1 1
node 9 1 1 1
node 10 1 1 1
node 11 1 1 1
node 12 1 0 0
node 13 1 0 2
node 14 1 0 2
node 15 1 0 0
gene 1 1 12 -0.6814748059 0 1 -0.6814748059 1
gene 1 2 12 0.7493294146 0 2 0.7493294146 1
gene 1 3 12 0.3946660077 0 3 0.3946660077 1
gene 1 4 12 0.9593643707 0 4 0.9593643707 1
gene 1 5 12 0.7759104284 0 5 0.7759104284 1
gene 1 6 12 -0.2531799985 0 6 -0.2531799985 1
gene 1 7 12 -0.5437303958 0 7 -0.5437303958 1
gene 1 8 12 -0.06381704915 0 8 -0.06381704915 1
gene 1 9 12 0.552611115 0 9 0.552611115 1
gene 1 10 12 -1.662230304 0 10 -1.662230304 1
gene 1 11 12 -0.1702817776 0 11 -0.1702817776 1
gene 1 12 13 -0.5559623114 0 12 -0.5559623114 0
gene 1 12 14 1.035973349 0 13 1.035973349 1
gene 1 3 13 0.3470067421 0 14 0.3470067421 1
gene 1 8 14 0.8984723057 0 17 0.8984723057 1
gene 1 9 14 0.7463112422 0 19 0.7463112422 1
gene 1 13 13 -0.2896980905 1 21 -0.2896980905 1
gene 1 11 13 -0.3126995062 0 24 0 1
gene 1 2 13 -0.9407065943 0 26 -0.9407065943 1
gene 1 11 14 -0.4713938299 0 28 0 1
gene 1 12 15 0.5526044256 0 37 0.5526044256 1
gene 1 15 13 0.1982950824 0 38 0.1982950824 1
gene 1 5 13 1.627593875 0 41 1.627593875 1
gene 1 10 15 0.9404476015 0 49 0 1
gene 1 2 15 0.564802017 0 77 0.564802017 0
gene 1 6 15 0.8718832828 0 84 0.8718832828 1
gene 1 15 15 -0.6193193234 1 114 -0.6193193234 1
gene 1 14 15 -0.5036003211 0 125 -0.5036003211 1
gene 1 7 15 -0.9800342474 0 132 -0.9800342474 1
gene 1 12 12 -0.2587561724 1 311 -0.2587561724 1
genomeend 56979
/* Novelty: 3.002006531 Fitness: 169.9282684 Generation: 251 Indiv: 57229 */
/* Point: 150.5322418 71.29034424 150.5322418 71.29034424 */

/* Organism #57240 Fitness: 9.898015022 Error: 0 */
genomestart 57240
trait 1 0.8292181552 0.3400067358 1 0 0.3285257792 0.01474784258 0 0 
node 1 1 1 3
node 2 1 1 1
node 3 1 1 1
node 4 1 1 1
node 5 1 1 1
node 6 1 1 1
node 7 1 1 1
node 8 1 1 1
node 9 1 1 1
node 10 1 1 1
node 11 1 1 1
node 12 1 0 0
node 13 1 0 2
node 14 1 0 2
node 15 1 0 0
gene 1 1 12 -0.6814748059 0 1 -0.6814748059 1
gene 1 2 12 0.7493294146 0 2 0.7493294146 1
gene 1 3 12 0.3946660077 0 3 0.3946660077 1
gene 1 4 12 0.9593643707 0 4 0.9593643707 1
gene 1 5 12 0.7759104284 0 5 0.7759104284 1
gene 1 6 12 -0.2531799985 0 6 -0.2531799985 1
gene 1 7 12 -0.5437303958 0 7 -0.5437303958 1
gene 1 8 12 -0.06381704915 0 8 -0.06381704915 1
gene 1 9 12 0.552611115 0 9 0.552611115 1
gene 1 10 12 -1.662230304 0 10 -1.662230304 1
gene 1 11 12 -0.1702817776 0 11 -0.1702817776 1
gene 1 12 13 -0.5559623114 0 12 -0.5559623114 0
gene 1 12 14 1.035973349 0 13 1.035973349 1
gene 1 3 13 0.3470067421 0 14 0.3470067421 1
gene 1 8 14 0.8984723057 0 17 0.8984723057 1
gene 1 9 14 0.7463112422 0 19 0.7463112422 1
gene 1 13 13 -0.2896980905 1 21 -0.2896980905 1
gene 1 11 13 -0.3126995062 0 24 0 1
gene 1 2 13 -0.9407065943 0 26 -0.9407065943 1
gene 1 11 14 -0.4713938299 0 28 0 1
gene 1 12 15 0.5526044256 0 37 0.5526044256 1
gene 1 15 13 0.1982950824 0 38 0.1982950824 1
gene 1 5 13 1.627593875 0 41 1.627593875 1
gene 1 10 15 0.9404476015 0 49 0 1
gene 1 2 15 0.564802017 0 77 0.564802017 0
gene 1 6 15 0.8718832828 0 84 0.8718832828 1
gene 1 15 15 -0.6193193234 1 114 -0.6193193234 1
gene 1 14 15 -0.5036003211 0 125 -0.5036003211 1
gene 1 7 15 -0.9800342474 0 132 -0.9800342474 1
gene 1 12 12 -0.2587561724 1 311 -0.2587561724 1
genomeend 57240
/* Novelty: 3.002006531 Fitness: 169.9282684 Generation: 251 Indiv: 57490 */
/* Point: 150.5322418 71.29034424 150.5322418 71.29034424 */

/* Organism #54487 Fitness: 9.898015022 Error: 0 */
genomestart 54487
trait 1 0.8292181552 0.3400067358 1 0 0.3285257792 0.01474784258 0 0 
node 1 1 1 3
node 2 1 1 1
node 3 1 1 1
node 4 1 1 1
node 5 1 1 1
node 6 1 1 1
node 7 1 1 1
node 8 1 1 1
node 9 1 1 1
node 10 1 1 1
node 11 1 1 1
node 12 1 0 0
node 13 1 0 2
node 14 1 0 2
node 15 1 0 0
gene 1 1 12 -0.6814748059 0 1 -0.6814748059 1
gene 1 2 12 0.7493294146 0 2 0.7493294146 1
gene 1 3 12 0.3946660077 0 3 0.3946660077 1
gene 1 4 12 0.9593643707 0 4 0.9593643707 1
gene 1 5 12 0.7759104284 0 5 0.7759104284 1
gene 1 6 12 -0.2531799985 0 6 -0.2531799985 1
gene 1 7 12 -0.5437303958 0 7 -0.5437303958 1
gene 1 8 12 -0.06381704915 0 8 -0.06381704915 1
gene 1 9 12 0.552611115 0 9 0.552611115 1
gene 1 10 12 -1.662230304 0 10 -1.662230304 1
gene 1 11 12 -0.1702817776 0 11 -0.1702817776 1
gene 1 12 13 -0.5559623114 0 12 -0.5559623114 0
gene 1 12 14 1.035973349 0 13 1.035973349 1
gene 1 3 13 0.3470067421 0 14 0.3470067421 1
gene 1 8 14 0.8984723057 0 17 0.8984723057 1
gene 1 9 14 0.7463112422 0 19 0.7463112422 1
gene 1 13 13 -0.2896980905 1 21 -0.2896980905 1
gene 1 11 13 -0.3126995062 0 24 0 1
gene 1 2 13 -0.9407065943 0 26 -0.9407065943 1
gene 1 11 14 -0.4713938299 0 28 0 1
gene 1 12 15 0.5526044256 0 37 0.5526044256 1
gene 1 15 13 0.1982950824 0 38 0.1982950824 1
gene 1 5 13 1.627593875 0 41 1.627593875 1
gene 1 10 15 0.9404476015 0 49 0 1
gene 1 2 15 0.564802017 0 77 0.564802017 0
gene 1 6 15 0.8718832828 0 84 0.8718832828 1
gene 1 15 15 -0.6193193234 1 114 -0.6193193234 1
gene 1 14 15 -0.5036003211 0 125 -0.5036003211 1
gene 1 7 15 -0.9800342474 0 132 -0.9800342474 1
gene 1 12 12 -0.2587561724 1 311 -0.2587561724 1
genomeend 54487
/* Novelty: 3.002006531 Fitness: 169.9282684 Generation: 251 Indiv: 54737 */
/* Point: 150.5322418 71.29034424 150.5322418 71.29034424 */

/* Organism #54537 Fitness: 9.834227562 Error: 0 */
genomestart 54537
trait 1 0.3489504243 0.1341275403 0.4945964797 0 0.5319694099 0.0105113987 0.1227704925 0 
node 1 1 1 3
node 2 1 1 1
node 3 1 1 1
node 4 1 1 1
node 5 1 1 1
node 6 1 1 1
node 7 1 1 1
node 8 1 1 1
node 9 1 1 1
node 10 1 1 1
node 11 1 1 1
node 12 1 0 0
node 13 1 0 2
node 14 1 0 2
node 15 1 0 0
gene 1 1 12 -0.1477482234 0 1 -0.1477482234 1
gene 1 2 12 0.6720352537 0 2 0.6720352537 1
gene 1 3 12 0.1005234362 0 3 0.1005234362 1
gene 1 4 12 1.416559933 0 4 1.416559933 1
gene 1 5 12 1.103116135 0 5 1.103116135 1
gene 1 6 12 -0.8911144127 0 6 -0.8911144127 1
gene 1 7 12 -0.3440089793 0 7 -0.3440089793 1
gene 1 8 12 -0.3134582417 0 8 -0.3134582417 0
gene 1 9 12 0.8715677774 0 9 0.8715677774 1
gene 1 10 12 -1.17688012 0 10 -1.17688012 1
gene 1 11 12 -0.3288192095 0 11 -0.3288192095 1
gene 1 12 13 -0.2467239232 0 12 -0.2467239232 0
gene 1 12 14 1.02912735 0 13 1.02912735 1
gene 1 3 13 0.2102786054 0 14 0.2102786054 1
gene 1 8 14 0.4847778959 0 17 0.4847778959 1
gene 1 9 14 0.9838661856 0 19 0.9838661856 1
gene 1 13 13 -0.01998044437 1 21 -0.01998044437 1
gene 1 11 13 -0.4449989935 0 24 -0.3668241169 1
gene 1 2 13 -1.356751766 0 26 -1.356751766 1
gene 1 11 14 -0.1801073538 0 28 -0.06225889634 1
gene 1 12 15 0.2343769988 0 37 0.2343769988 1
gene 1 15 13 0.5435457249 0 38 0.5435457249 1
gene 1 5 13 1.589241149 0 41 1.589241149 1
gene 1 10 15 0.3988911649 0 49 0.2813352147 1
gene 1 2 15 0.3877935062 0 77 0.3877935062 1
gene 1 6 15 0.4630784442 0 84 0.3540930338 1
gene 1 15 15 -0.7010441698 1 114 -0.7010441698 1
gene 1 14 15 -0.4581922544 0 125 -0.4581922544 1
gene 1 7 15 -0.9638704548 0 132 -0.8964638058 1
gene 1 4 15 0.739855585 0 191 0 1
gene 1 8 15 0.4414617077 0 281 0 1
gene 1 12 12 -0.4683765126 1 311 -0.4683765126 1
genomeend 54537
/* Novelty: 1.125995636 Fitness: 156.8390198 Generation: 251 Indiv: 54787 */
/* Point: 142.2698364 110.0782394 142.2698364 110.0782394 */

/* Organism #61919 Fitness: 9.830108643 Error: 0 */
genomestart 61919
trait 1 0.3489504243 0.1341275403 0.4945964797 0 0.5319694099 0.0105113987 0.1227704925 0 
node 1 1 1 3
node 2 1 1 1
node 3 1 1 1
node 4 1 1 1
node 5 1 1 1
node 6 1 1 1
node 7 1 1 1
node 8 1 1 1
node 9 1 1 1
node 10 1 1 1
node 11 1 1 1
node 12 1 0 0
node 13 1 0 2
node 14 1 0 2
node 15 1 0 0
gene 1 1 12 -0.1477482234 0 1 -0.1477482234 1
gene 1 2 12 0.6720352537 0 2 0.6720352537 1
gene 1 3 12 0.1005234362 0 3 0.1005234362 1
gene 1 4 12 1.416559933 0 4 1.416559933 1
gene 1 5 12 1.103116135 0 5 1.103116135 1
gene 1 6 12 -0.8911144127 0 6 -0.8911144127 1
gene 1 7 12 -0.3440089793 0 7 -0.3440089793 1
gene 1 8 12 -0.3134582417 0 8 -0.3134582417 0
gene 1 9 12 0.8715677774 0 9 0.8715677774 1
gene 1 10 12 -1.17688012 0 10 -1.17688012 1
gene 1 11 12 -0.3288192095 0 11 -0.3288192095 1
gene 1 12 13 -0.2467239232 0 12 -0.2467239232 0
gene 1 12 14 1.02912735 0 13 1.02912735 1
gene 1 3 13 0.2102786054 0 14 0.2102786054 1
gene 1 8 14 0.4847778959 0 17 0.4847778959 1
gene 1 9 14 0.9838661856 0 19 0.9838661856 1
gene 1 13 13 -0.01998044437 1 21 -0.01998044437 1
gene 1 11 13 -0.4449989935 0 24 -0.3668241169 1
gene 1 2 13 -1.356751766 0 26 -1.356751766 1
gene 1 11 14 -0.1801073538 0 28 -0.06225889634 1
gene 1 12 15 0.2343769988 0 37 0.2343769988 1
gene 1 15 13 0.5435457249 0 38 0.5435457249 1
gene 1 5 13 1.589241149 0 41 1.589241149 1
gene 1 10 15 0.3988911649 0 49 0.2813352147 1
gene 1 3 14 -0.1423011441 0 52 0 1
gene 1 2 15 0.3877935062 0 77 0.3877935062 1
gene 1 6 15 0.4630784442 0 84 0.3540930338 1
gene 1 15 15 -0.7010441698 1 114 -0.7010441698 1
gene 1 14 15 -0.4581922544 0 125 -0.4581922544 1
gene 1 7 15 -0.9638704548 0 132 -0.8964638058 1
gene 1 4 15 0.739855585 0 191 0 1
gene 1 8 15 0.4414617077 0 281 0 1
gene 1 12 12 -0.4683765126 1 311 -0.4683765126 1
genomeend 61919
/* Novelty: 0.8769073486 Fitness: 157.8641052 Generation: 251 Indiv: 62169 */
/* Point: 141.4319916 109.4840088 141.4319916 109.4840088 */

/* Organism #55570 Fitness: 9.660467148 Error: 0 */
genomestart 55570
trait 1 0.2331889109 0.06706377017 0.4295043117 0.1122172461 0.5136573197 0.01249224983 0.1569469279 0.003206535665 
node 1 1 1 3
node 2 1 1 1
node 3 1 1 1
node 4 1 1 1
node 5 1 1 1
node 6 1 1 1
node 7 1 1 1
node 8 1 1 1
node 9 1 1 1
node 10 1 1 1
node 11 1 1 1
node 12 1 0 0
node 13 1 0 2
node 14 1 0 2
node 15 1 0 0
gene 1 1 12 -0.1477482234 0 1 -0.1477482234 1
gene 1 2 12 0.6720352537 0 2 0.6720352537 1
gene 1 3 12 0.1005234362 0 3 0.1005234362 1
gene 1 4 12 1.416559933 0 4 1.416559933 1
gene 1 5 12 0.6177107504 0 5 0.6177107504 1
gene 1 6 12 -0.6354183029 0 6 -0.6354183029 1
gene 1 7 12 -0.3440089793 0 7 -0.3440089793 1
gene 1 8 12 -0.3134582417 0 8 -0.3134582417 0
gene 1 9 12 0.8996687746 0 9 0.8996687746 1
gene 1 10 12 -1.17688012 0 10 -1.17688012 1
gene 1 11 12 0.03994827597 0 11 0.03994827597 1
gene 1 12 13 -0.2510001856 0 12 -0.2510001856 1
gene 1 12 14 1.104698273 0 13 1.104698273 1
gene 1 3 13 0.2102786054 0 14 0.2102786054 1
gene 1 8 14 0.5396981072 0 17 0.5396981072 1
gene 1 9 14 0.9838661856 0 19 0.9838661856 1
gene 1 13 13 -0.01998044437 1 21 -0.01998044437 1
gene 1 11 13 -0.4449989935 0 24 -0.3668241169 1
gene 1 2 13 -1.275057096 0 26 -1.275057096 1
gene 1 11 14 -0.1801073538 0 28 -0.06225889634 1
gene 1 12 15 0.2343769988 0 37 0.2343769988 1
gene 1 15 13 0.5435457249 0 38 0.5435457249 1
gene 1 5 13 1.714423728 0 41 1.714423728 1
gene 1 10 15 0.3988911649 0 49 0.2813352147 1
gene 1 2 15 0.3877935062 0 77 0.3877935062 0
gene 1 6 15 0.2277840286 0 84 0.1187986182 1
gene 1 15 15 -0.6601817466 1 114 -0.6601817466 1
gene 1 14 15 -0.8516224329 0 125 -0.8516224329 1
gene 1 7 15 -0.6282914087 0 132 -0.5608847597 1
gene 1 9 15 -0.7654505334 0 134 0 1
gene 1 4 15 0.739855585 0 191 0 1
gene 1 8 15 0.4414617077 0 281 0 1
gene 1 12 12 -0.4683765126 1 311 -0.4683765126 1
genomeend 55570
/* Novelty: 1.28792572 Fitness: 180.0128479 Generation: 251 Indiv: 55820 */
/* Point: 131.8344727 85.03326416 131.8344727 85.03326416 */

/* Organism #55052 Fitness: 9.660467148 Error: 0 */
genomestart 55052
trait 1 0.2331889109 0.06706377017 0.4295043117 0.1122172461 0.5136573197 0.01249224983 0.1569469279 0.003206535665 
node 1 1 1 3
node 2 1 1 1
node 3 1 1 1
node 4 1 1 1
node 5 1 1 1
node 6 1 1 1
node 7 1 1 1
node 8 1 1 1
node 9 1 1 1
node 10 1 1 1
node 11 1 1 1
node 12 1 0 0
node 13 1 0 2
node 14 1 0 2
node 15 1 0 0
gene 1 1 12 -0.1477482234 0 1 -0.1477482234 1
gene 1 2 12 0.6720352537 0 2 0.6720352537 1
gene 1 3 12 0.1005234362 0 3 0.1005234362 1
gene 1 4 12 1.416559933 0 4 1.416559933 1
gene 1 5 12 0.6177107504 0 5 0.6177107504 1
gene 1 6 12 -0.6354183029 0 6 -0.6354183029 1
gene 1 7 12 -0.3440089793 0 7 -0.3440089793 1
gene 1 8 12 -0.3134582417 0 8 -0.3134582417 0
gene 1 9 12 0.8996687746 0 9 0.8996687746 1
gene 1 10 12 -1.17688012 0 10 -1.17688012 1
gene 1 11 12 0.03994827597 0 11 0.03994827597 1
gene 1 12 13 -0.2510001856 0 12 -0.2510001856 1
gene 1 12 14 1.104698273 0 13 1.104698273 1
gene 1 3 13 0.2102786054 0 14 0.2102786054 1
gene 1 8 14 0.5396981072 0 17 0.5396981072 1
gene 1 9 14 0.9838661856 0 19 0.9838661856 1
gene 1 13 13 -0.01998044437 1 21 -0.01998044437 1
gene 1 11 13 -0.4449989935 0 24 -0.3668241169 1
gene 1 2 13 -1.275057096 0 26 -1.275057096 1
gene 1 11 14 -0.1801073538 0 28 -0.06225889634 1
gene 1 12 15 0.2343769988 0 37 0.2343769988 1
gene 1 15 13 0.5435457249 0 38 0.5435457249 1
gene 1 5 13 1.714423728 0 41 1.714423728 1
gene 1 10 15 0.3988911649 0 49 0.2813352147 1
gene 1 2 15 0.3877935062 0 77 0.3877935062 0
gene 1 6 15 0.2277840286 0 84 0.1187986182 1
gene 1 15 15 -0.6601817466 1 114 -0.6601817466 1
gene 1 14 15 -0.8516224329 0 125 -0.8516224329 1
gene 1 7 15 -0.6282914087 0 132 -0.5608847597 1
gene 1 9 15 -0.7654505334 0 134 0 1
gene 1 4 15 0.739855585 0 191 0 1
gene 1 8 15 0.4414617077 0 281 0 1
gene 1 12 12 -0.4683765126 1 311 -0.4683765126 1
genomeend 55052
/* Novelty: 1.28792572 Fitness: 180.0128479 Generation: 251 Indiv: 55302 */
/* Point: 131.8344727 85.03326416 131.8344727 85.03326416 */

/* Organism #57825 Fitness: 9.596381187 Error: 0 */
genomestart 57825
trait 1 0.4733227763 0.1700033679 0.6822060718 0.1122172461 0.4119355043 0.01461047178 0.09556168164 0.003206535665 
node 1 1 1 3
node 2 1 1 1
node 3 1 1 1
node 4 1 1 1
node 5 1 1 1
node 6 1 1 1
node 7 1 1 1
node 8 1 1 1
node 9 1 1 1
node 10 1 1 1
node 11 1 1 1
node 12 1 0 0
node 13 1 0 2
node 14 1 0 2
node 15 1 0 0
gene 1 1 12 -0.6814748059 0 1 -0.6814748059 1
gene 1 2 12 1.130782362 0 2 1.130782362 1
gene 1 3 12 0.1195494806 0 3 0.1195494806 1
gene 1 4 12 1.156642513 0 4 1.156642513 1
gene 1 5 12 0.7759104284 0 5 0.7759104284 1
gene 1 6 12 -0.6354183029 0 6 -0.6354183029 1
gene 1 7 12 -0.1062584148 0 7 -0.1062584148 1
gene 1 8 12 -0.310503255 0 8 -0.310503255 0
gene 1 9 12 0.552611115 0 9 0.552611115 1
gene 1 10 12 -1.662230304 0 10 -1.662230304 1
gene 1 11 12 0.03994827597 0 11 0.03994827597 1
gene 1 12 13 -0.2510001856 0 12 -0.2510001856 0
gene 1 12 14 1.035973349 0 13 1.035973349 1
gene 1 3 13 0.3470067421 0 14 0.3470067421 1
gene 1 8 14 0.8984723057 0 17 0.8984723057 1
gene 1 9 14 0.7463112422 0 19 0.7463112422 1
gene 1 13 13 -0.1988477231 1 21 -0.1988477231 1
gene 1 11 13 -0.3126995062 0 24 0 1
gene 1 2 13 -1.275057096 0 26 -1.275057096 1
gene 1 11 14 -0.4713938299 0 28 0 1
gene 1 12 15 0.4519394004 0 37 0.4519394004 1
gene 1 15 13 0.1982950824 0 38 0.1982950824 1
gene 1 5 13 1.627593875 0 41 1.627593875 1
gene 1 10 15 0.7844652928 0 49 0.6669093426 1
gene 1 2 15 0.2643647252 0 77 0.2643647252 0
gene 1 6 15 0.2277840286 0 84 0.1187986182 1
gene 1 15 15 -0.6601817466 1 114 -0.6601817466 1
gene 1 14 15 -0.8516224329 0 125 -0.8516224329 1
gene 1 7 15 -0.9800342474 0 132 -0.9800342474 1
gene 1 4 15 0.739855585 0 191 0 1
gene 1 12 12 -0.1544407779 1 311 -0.1544407779 1
genomeend 57825
/* Novelty: 5.573131561 Fitness: 131.2497711 Generation: 251 Indiv: 58075 */
/* Point: 165.6914062 121.6605301 165.6914062 121.6605301 */

/* Organism #39923 Fitness: 9.550457954 Error: 0 */
genomestart 39923
trait 1 0.1261312984 0 0.3569419315 0.2284121146 0.4884105304 0.01419835935 0.1834886941 0.006478904805 
node 1 1 1 3
node 2 1 1 1
node 3 1 1 1
node 4 1 1 1
node 5 1 1 1
node 6 1 1 1
node 7 1 1 1
node 8 1 1 1
node 9 1 1 1
node 10 1 1 1
node 11 1 1 1
node 12 1 0 0
node 13 1 0 2
node 14 1 0 2
node 15 1 0 0
gene 1 1 12 -0.5984786179 0 1 -0.5984786179 1
gene 1 2 12 0.9636724398 0 2 0.9636724398 1
gene 1 3 12 0.3895116281 0 3 0.3895116281 1
gene 1 4 12 0.926160197 0 4 0.926160197 1
gene 1 5 12 0.8686114847 0 5 0.8686114847 1
gene 1 6 12 -0.4356443791 0 6 -0.4356443791 1
gene 1 7 12 -0.3846374278 0 7 -0.3846374278 1
gene 1 8 12 -0.286761593 0 8 -0.286761593 0
gene 1 9 12 0.6668114732 0 9 0.6668114732 1
gene 1 10 12 -1.464829533 0 10 -1.464829533 1
gene 1 11 12 -0.09486110426 0 11 -0.09486110426 1
gene 1 12 13 -0.5592148895 0 12 -0.5592148895 1
gene 1 12 14 0.9810287343 0 13 0.9810287343 1
gene 1 3 13 0.357904427 0 14 0.357904427 1
gene 1 8 14 0.5301249343 0 17 0.5301249343 1
gene 1 9 14 0.9339819421 0 19 0.9339819421 1
gene 1 13 13 -0.26950912 1 21 -0.26950912 1
gene 1 11 13 -0.4443225211 0 24 -0.287972768 1
gene 1 2 13 -1.015006706 0 26 -1.015006706 1
gene 1 11 14 -0.2220880397 0 28 0.0136088752 1
gene 1 12 15 0.6051232987 0 37 0.6051232987 1
gene 1 15 13 0.3119631843 0 38 0.3119631843 1
gene 1 5 13 1.662325816 0 41 1.662325816 1
gene 1 10 15 0.5007938733 0 49 0.2656819729 1
gene 1 2 15 0.3068559076 0 77 0.3068559076 1
gene 1 6 15 0.6151123195 0 84 0.3971414988 1
gene 1 15 15 -0.7010441698 1 114 -0.7010441698 1
gene 1 14 15 -0.7439899469 0 125 -0.7439899469 1
gene 1 7 15 -0.6371251583 0 132 -0.5023118603 1
gene 1 4 15 0.739855585 0 191 0 1
gene 1 12 12 -0.2355749736 1 311 -0.2355749736 1
genomeend 39923
/* Novelty: 1.883781433 Fitness: 112.0497742 Generation: 251 Indiv: 40173 */
/* Point: 183.186264 130.293396 183.186264 130.293396 */

/* Organism #57143 Fitness: 9.502223969 Error: 0 */
genomestart 57143
trait 1 0.1174273974 0 0.3644121436 0.9100032023 0 0.01447310097 0.1911233633 0.006413071331 
node 1 1 1 3
node 2 1 1 1
node 3 1 1 1
node 4 1 1 1
node 5 1 1 1
node 6 1 1 1
node 7 1 1 1
node 8 1 1 1
node 9 1 1 1
node 10 1 1 1
node 11 1 1 1
node 12 1 0 0
node 13 1 0 2
node 14 1 0 2
node 15 1 0 0
gene 1 1 12 -0.3976719544 0 1 -0.3976719544 1
gene 1 2 12 1.130782362 0 2 1.130782362 1
gene 1 3 12 0.1195494806 0 3 0.1195494806 1
gene 1 4 12 1.156642513 0 4 1.156642513 1
gene 1 5 12 0.6177107504 0 5 0.6177107504 1
gene 1 6 12 -0.6354183029 0 6 -0.6354183029 1
gene 1 7 12 -0.1062584148 0 7 -0.1062584148 1
gene 1 8 12 -0.310503255 0 8 -0.310503255 0
gene 1 9 12 0.8996687746 0 9 0.8996687746 1
gene 1 10 12 -1.557384778 0 10 -1.557384778 1
gene 1 11 12 0.03994827597 0 11 0.03994827597 1
gene 1 12 13 -0.2510001856 0 12 -0.2510001856 1
gene 1 12 14 1.104698273 0 13 1.104698273 1
gene 1 3 13 0.5189718147 0 14 0.5189718147 1
gene 1 8 14 0.5396981072 0 17 0.5396981072 1
gene 1 9 14 1.215744346 0 19 1.215744346 1
gene 1 13 13 -0.1988477231 1 21 -0.1988477231 1
gene 1 11 13 -0.6868189079 0 24 -0.6086440314 1
gene 1 2 13 -1.275057096 0 26 -1.275057096 1
gene 1 11 14 -0.4271187544 0 28 -0.309270297 1
gene 1 12 15 0.4519394004 0 37 0.4519394004 1
gene 1 15 13 0.3957229952 0 38 0.3957229952 1
gene 1 5 13 1.714423728 0 41 1.714423728 1
gene 1 10 15 0.7844652928 0 49 0.6669093426 1
gene 1 2 15 0.2643647252 0 77 0.2643647252 0
gene 1 6 15 0.2277840286 0 84 0.1187986182 1
gene 1 15 15 -0.6601817466 1 114 -0.6601817466 1
gene 1 14 15 -0.8516224329 0 125 -0.8516224329 1
gene 1 7 15 -0.6282914087 0 132 -0.5608847597 1
gene 1 4 15 0.739855585 0 191 0 1
gene 1 12 12 -0.1544407779 1 311 -0.1544407779 1
genomeend 57143
/* Novelty: 2.506599426 Fitness: 135.6437531 Generation: 251 Indiv: 57393 */
/* Point: 162.118988 119.099884 162.118988 119.099884 */

/* Organism #53258 Fitness: 9.502223969 Error: 0 */
genomestart 53258
trait 1 0.1174273974 0 0.3644121436 0.2244344921 0.4953452294 0.01447310097 0.1911233633 0.006413071331 
node 1 1 1 3
node 2 1 1 1
node 3 1 1 1
node 4 1 1 1
node 5 1 1 1
node 6 1 1 1
node 7 1 1 1
node 8 1 1 1
node 9 1 1 1
node 10 1 1 1
node 11 1 1 1
node 12 1 0 0
node 13 1 0 2
node 14 1 0 2
node 15 1 0 0
gene 1 1 12 -0.3976719544 0 1 -0.3976719544 1
gene 1 2 12 1.130782362 0 2 1.130782362 1
gene 1 3 12 0.1195494806 0 3 0.1195494806 1
gene 1 4 12 1.156642513 0 4 1.156642513 1
gene 1 5 12 0.6177107504 0 5 0.6177107504 1
gene 1 6 12 -0.6354183029 0 6 -0.6354183029 1
gene 1 7 12 -0.1062584148 0 7 -0.1062584148 1
gene 1 8 12 -0.310503255 0 8 -0.310503255 0
gene 1 9 12 0.8996687746 0 9 0.8996687746 1
gene 1 10 12 -1.557384778 0 10 -1.557384778 1
gene 1 11 12 0.03994827597 0 11 0.03994827597 1
gene 1 12 13 -0.2510001856 0 12 -0.2510001856 1
gene 1 12 14 1.104698273 0 13 1.104698273 1
gene 1 3 13 0.5189718147 0 14 0.5189718147 1
gene 1 8 14 0.5396981072 0 17 0.5396981072 1
gene 1 9 14 1.215744346 0 19 1.215744346 1
gene 1 13 13 -0.1988477231 1 21 -0.1988477231 1
gene 1 11 13 -0.6868189079 0 24 -0.6086440314 1
gene 1 2 13 -1.275057096 0 26 -1.275057096 1
gene 1 11 14 -0.4271187544 0 28 -0.309270297 1
gene 1 12 15 0.4519394004 0 37 0.4519394004 1
gene 1 15 13 0.3957229952 0 38 0.3957229952 1
gene 1 5 13 1.714423728 0 41 1.714423728 1
gene 1 10 15 0.7844652928 0 49 0.6669093426 1
gene 1 2 15 0.2643647252 0 77 0.2643647252 0
gene 1 6 15 0.2277840286 0 84 0.1187986182 1
gene 1 15 15 -0.6601817466 1 114 -0.6601817466 1
gene 1 14 15 -0.8516224329 0 125 -0.8516224329 1
gene 1 7 15 -0.6282914087 0 132 -0.5608847597 1
gene 1 4 15 0.739855585 0 191 0 1
gene 1 12 12 -0.1544407779 1 311 -0.1544407779 1
genomeend 53258
/* Novelty: 2.506599426 Fitness: 135.6437531 Generation: 251 Indiv: 53508 */
/* Point: 162.118988 119.099884 162.118988 119.099884 */

/* Organism #57730 Fitness: 9.502223969 Error: 0 */
genomestart 57730
trait 1 0.1174273974 0 0.3644121436 0.9100032023 0 0.01447310097 0.1911233633 0.006413071331 
node 1 1 1 3
node 2 1 1 1
node 3 1 1 1
node 4 1 1 1
node 5 1 1 1
node 6 1 1 1
node 7 1 1 1
node 8 1 1 1
node 9 1 1 1
node 10 1 1 1
node 11 1 1 1
node 12 1 0 0
node 13 1 0 2
node 14 1 0 2
node 15 1 0 0
gene 1 1 12 -0.3976719544 0 1 -0.3976719544 1
gene 1 2 12 1.130782362 0 2 1.130782362 1
gene 1 3 12 0.1195494806 0 3 0.1195494806 1
gene 1 4 12 1.156642513 0 4 1.156642513 1
gene 1 5 12 0.6177107504 0 5 0.6177107504 1
gene 1 6 12 -0.6354183029 0 6 -0.6354183029 1
gene 1 7 12 -0.1062584148 0 7 -0.1062584148 1
gene 1 8 12 -0.310503255 0 8 -0.310503255 0
gene 1 9 12 0.8996687746 0 9 0.8996687746 1
gene 1 10 12 -1.557384778 0 10 -1.557384778 1
gene 1 11 12 0.03994827597 0 11 0.03994827597 1
gene 1 12 13 -0.2510001856 0 12 -0.2510001856 1
gene 1 12 14 1.104698273 0 13 1.104698273 1
gene 1 3 13 0.5189718147 0 14 0.5189718147 1
gene 1 8 14 0.5396981072 0 17 0.5396981072 1
gene 1 9 14 1.215744346 0 19 1.215744346 1
gene 1 13 13 -0.1988477231 1 21 -0.1988477231 1
gene 1 11 13 -0.6868189079 0 24 -0.6086440314 1
gene 1 2 13 -1.275057096 0 26 -1.275057096 1
gene 1 11 14 -0.4271187544 0 28 -0.309270297 1
gene 1 12 15 0.4519394004 0 37 0.4519394004 1
gene 1 15 13 0.3957229952 0 38 0.3957229952 1
gene 1 5 13 1.714423728 0 41 1.714423728 1
gene 1 10 15 0.7844652928 0 49 0.6669093426 1
gene 1 2 15 0.2643647252 0 77 0.2643647252 0
gene 1 6 15 0.2277840286 0 84 0.1187986182 1
gene 1 15 15 -0.6601817466 1 114 -0.6601817466 1
gene 1 14 15 -0.8516224329 0 125 -0.8516224329 1
gene 1 7 15 -0.6282914087 0 132 -0.5608847597 1
gene 1 4 15 0.739855585 0 191 0 1
gene 1 12 12 -0.1544407779 1 311 -0.1544407779 1
genomeend 57730
/* Novelty: 2.506599426 Fitness: 135.6437531 Generation: 251 Indiv: 57980 */
/* Point: 162.118988 119.099884 162.118988 119.099884 */

/* Organism #49121 Fitness: 9.428190231 Error: 0 */
genomestart 49121
trait 1 0.1261312984 0 0.3569419315 0.2284121146 0.4884105304 0.01419835935 0.1834886941 0.006478904805 
node 1 1 1 3
node 2 1 1 1
node 3 1 1 1
node 4 1 1 1
node 5 1 1 1
node 6 1 1 1
node 7 1 1 1
node 8 1 1 1
node 9 1 1 1
node 10 1 1 1
node 11 1 1 1
node 12 1 0 0
node 13 1 0 2
node 14 1 0 2
node 15 1 0 0
gene 1 1 12 -0.5984786179 0 1 -0.5984786179 1
gene 1 2 12 0.9636724398 0 2 0.9636724398 1
gene 1 3 12 0.3895116281 0 3 0.3895116281 1
gene 1 4 12 0.926160197 0 4 0.926160197 1
gene 1 5 12 0.8686114847 0 5 0.8686114847 1
gene 1 6 12 -0.4356443791 0 6 -0.4356443791 1
gene 1 7 12 -0.3846374278 0 7 -0.3846374278 1
gene 1 8 12 -0.286761593 0 8 -0.286761593 0
gene 1 9 12 0.6668114732 0 9 0.6668114732 1
gene 1 10 12 -1.464829533 0 10 -1.464829533 1
gene 1 11 12 -0.09486110426 0 11 -0.09486110426 1
gene 1 12 13 -0.5592148895 0 12 -0.5592148895 1
gene 1 12 14 0.9810287343 0 13 0.9810287343 1
gene 1 3 13 0.357904427 0 14 0.357904427 1
gene 1 8 14 0.5301249343 0 17 0.5301249343 1
gene 1 9 14 0.9339819421 0 19 0.9339819421 1
gene 1 13 13 -0.26950912 1 21 -0.26950912 1
gene 1 11 13 -0.4443225211 0 24 -0.287972768 1
gene 1 2 13 -1.015006706 0 26 -1.015006706 1
gene 1 11 14 -0.2220880397 0 28 0.0136088752 1
gene 1 12 15 0.6051232987 0 37 0.6051232987 1
gene 1 15 13 0.3119631843 0 38 0.3119631843 1
gene 1 5 13 1.662325816 0 41 1.662325816 1
gene 1 10 15 0.5007938733 0 49 0.2656819729 1
gene 1 3 15 -0.8685906231 0 68 0 1
gene 1 2 15 0.3068559076 0 77 0.3068559076 1
gene 1 6 15 0.6151123195 0 84 0.3971414988 1
gene 1 15 15 -0.7010441698 1 114 -0.7010441698 1
gene 1 14 15 -0.7439899469 0 125 -0.7439899469 1
gene 1 7 15 -0.6371251583 0 132 -0.5023118603 1
gene 1 4 15 0.739855585 0 191 0 1
gene 1 12 12 -0.2355749736 1 311 -0.2355749736 1
genomeend 49121
/* Novelty: 2.779983521 Fitness: 110.7503662 Generation: 251 Indiv: 49371 */
/* Point: 183.7213287 131.7659149 183.7213287 131.7659149 */

/* Organism #53095 Fitness: 9.428190231 Error: 0 */
genomestart 53095
trait 1 0.1261312984 0 0.3569419315 0.2284121146 0.4884105304 0.01419835935 0.1834886941 0.006478904805 
node 1 1 1 3
node 2 1 1 1
node 3 1 1 1
node 4 1 1 1
node 5 1 1 1
node 6 1 1 1
node 7 1 1 1
node 8 1 1 1
node 9 1 1 1
node 10 1 1 1
node 11 1 1 1
node 12 1 0 0
node 13 1 0 2
node 14 1 0 2
node 15 1 0 0
gene 1 1 12 -0.5984786179 0 1 -0.5984786179 1
gene 1 2 12 0.9636724398 0 2 0.9636724398 1
gene 1 3 12 0.3895116281 0 3 0.3895116281 1
gene 1 4 12 0.926160197 0 4 0.926160197 1
gene 1 5 12 0.8686114847 0 5 0.8686114847 1
gene 1 6 12 -0.4356443791 0 6 -0.4356443791 1
gene 1 7 12 -0.3846374278 0 7 -0.3846374278 1
gene 1 8 12 -0.286761593 0 8 -0.286761593 0
gene 1 9 12 0.6668114732 0 9 0.6668114732 1
gene 1 10 12 -1.464829533 0 10 -1.464829533 1
gene 1 11 12 -0.09486110426 0 11 -0.09486110426 1
gene 1 12 13 -0.5592148895 0 12 -0.5592148895 1
gene 1 12 14 0.9810287343 0 13 0.9810287343 1
gene 1 3 13 0.357904427 0 14 0.357904427 1
gene 1 8 14 0.5301249343 0 17 0.5301249343 1
gene 1 9 14 0.9339819421 0 19 0.9339819421 1
gene 1 13 13 -0.26950912 1 21 -0.26950912 1
gene 1 11 13 -0.4443225211 0 24 -0.287972768 1
gene 1 2 13 -1.015006706 0 26 -1.015006706 1
gene 1 11 14 -0.2220880397 0 28 0.0136088752 1
gene 1 12 15 0.6051232987 0 37 0.6051232987 1
gene 1 15 13 0.3119631843 0 38 0.3119631843 1
gene 1 5 13 1.662325816 0 41 1.662325816 1
gene 1 10 15 0.5007938733 0 49 0.2656819729 1
gene 1 3 15 -0.8685906231 0 68 0 1
gene 1 2 15 0.3068559076 0 77 0.3068559076 1
gene 1 6 15 0.6151123195 0 84 0.3971414988 1
gene 1 15 15 -0.7010441698 1 114 -0.7010441698 1
gene 1 14 15 -0.7439899469 0 125 -0.7439899469 1
gene 1 7 15 -0.6371251583 0 132 -0.5023118603 1
gene 1 4 15 0.739855585 0 191 0 1
gene 1 12 12 -0.2355749736 1 311 -0.2355749736 1
genomeend 53095
/* Novelty: 2.779983521 Fitness: 110.7503662 Generation: 251 Indiv: 53345 */
/* Point: 183.7213287 131.7659149 183.7213287 131.7659149 */

/* Organism #58590 Fitness: 9.428190231 Error: 0 */
genomestart 58590
trait 1 0.1261312984 0 0.3569419315 0.2284121146 0.4884105304 0.01419835935 0.1834886941 0.006478904805 
node 1 1 1 3
node 2 1 1 1
node 3 1 1 1
node 4 1 1 1
node 5 1 1 1
node 6 1 1 1
node 7 1 1 1
node 8 1 1 1
node 9 1 1 1
node 10 1 1 1
node 11 1 1 1
node 12 1 0 0
node 13 1 0 2
node 14 1 0 2
node 15 1 0 0
gene 1 1 12 -0.5984786179 0 1 -0.5984786179 1
gene 1 2 12 0.9636724398 0 2 0.9636724398 1
gene 1 3 12 0.3895116281 0 3 0.3895116281 1
gene 1 4 12 0.926160197 0 4 0.926160197 1
gene 1 5 12 0.8686114847 0 5 0.8686114847 1
gene 1 6 12 -0.4356443791 0 6 -0.4356443791 1
gene 1 7 12 -0.3846374278 0 7 -0.3846374278 1
gene 1 8 12 -0.286761593 0 8 -0.286761593 0
gene 1 9 12 0.6668114732 0 9 0.6668114732 1
gene 1 10 12 -1.464829533 0 10 -1.464829533 1
gene 1 11 12 -0.09486110426 0 11 -0.09486110426 1
gene 1 12 13 -0.5592148895 0 12 -0.5592148895 1
gene 1 12 14 0.9810287343 0 13 0.9810287343 1
gene 1 3 13 0.357904427 0 14 0.357904427 1
gene 1 8 14 0.5301249343 0 17 0.5301249343 1
gene 1 9 14 0.9339819421 0 19 0.9339819421 1
gene 1 13 13 -0.26950912 1 21 -0.26950912 1
gene 1 11 13 -0.4443225211 0 24 -0.287972768 1
gene 1 2 13 -1.015006706 0 26 -1.015006706 1
gene 1 11 14 -0.2220880397 0 28 0.0136088752 1
gene 1 12 15 0.6051232987 0 37 0.6051232987 1
gene 1 15 13 0.3119631843 0 38 0.3119631843 1
gene 1 5 13 1.662325816 0 41 1.662325816 1
gene 1 10 15 0.5007938733 0 49 0.2656819729 1
gene 1 3 15 -0.8685906231 0 68 0 1
gene 1 2 15 0.3068559076 0 77 0.3068559076 1
gene 1 6 15 0.6151123195 0 84 0.3971414988 1
gene 1 15 15 -0.7010441698 1 114 -0.7010441698 1
gene 1 14 15 -0.7439899469 0 125 -0.7439899469 1
gene 1 7 15 -0.6371251583 0 132 -0.5023118603 1
gene 1 4 15 0.739855585 0 191 0 1
gene 1 12 12 -0.2355749736 1 311 -0.2355749736 1
genomeend 58590
/* Novelty: 2.779983521 Fitness: 110.7503662 Generation: 251 Indiv: 58840 */
/* Point: 183.7213287 131.7659149 183.7213287 131.7659149 */

/* Species #66 : (Size 16) (AF 0) (Age 1)  */


/* Organism #61869 Fitness: 10.31093216 Error: 0 */
genomestart 61869
trait 1 0.5391015832 1 0.4905690234 0.315085977 0.4178379493 0.04401534682 0.7198937197 0.7280905276 
node 1 1 1 3
node 2 1 1 1
node 3 1 1 1
node 4 1 1 1
node 5 1 1 1
node 6 1 1 1
node 7 1 1 1
node 8 1 1 1
node 9 1 1 1
node 10 1 1 1
node 11 1 1 1
node 12 1 0 0
node 13 1 0 2
node 14 1 0 2
node 24 1 0 0
gene 1 1 12 1.459821871 0 1 1.459821871 1
gene 1 2 12 0.4374463211 0 2 0.4374463211 1
gene 1 3 12 -3 0 3 -3 1
gene 1 4 12 -1.096304375 0 4 -1.096304375 1
gene 1 5 12 1.700429656 0 5 1.700429656 1
gene 1 6 12 0.2147589468 0 6 0.2147589468 1
gene 1 7 12 -0.09214949273 0 7 -0.09214949273 1
gene 1 8 12 0.3863632088 0 8 0.3863632088 1
gene 1 9 12 -1.025014744 0 9 -1.025014744 1
gene 1 10 12 -0.2617804102 0 10 -0.2617804102 1
gene 1 11 12 0.1545096912 0 11 0.1545096912 1
gene 1 12 13 0.203087831 0 12 0.203087831 1
gene 1 12 14 0.5861106055 0 13 0.5861106055 1
gene 1 3 13 0.5696262273 0 14 0.5696262273 1
gene 1 6 13 -0.2613565984 0 20 -0.2613565984 0
gene 1 6 14 -1.200328124 0 25 -1.200328124 1
gene 1 11 14 0.6450523736 0 28 0.6450523736 1
gene 1 9 13 1.195327255 0 40 1.195327255 1
gene 1 5 13 2.169540739 0 41 2.169540739 1
gene 1 10 14 1.803811028 0 46 1.803811028 1
gene 1 1 13 -1.152411935 0 74 -1.152411935 1
gene 1 13 13 0.7121056072 1 130 0.7121056072 1
gene 1 7 24 -0.1559561332 0 137 -0.1559561332 1
gene 1 24 12 -0.6348896727 0 138 -0.6348896727 1
gene 1 12 12 -0.6906527248 1 152 -0.6906527248 0
gene 1 24 24 0.3489140262 1 158 0.3489140262 1
gene 1 10 24 -0.3682166661 0 340 -0.3682166661 1
genomeend 61869
/* Novelty: 0.4717063904 Fitness: 202.7330627 Generation: 251 Indiv: 62119 */
/* Point: 126.0164642 40.80213547 126.0164642 40.80213547 */

/* Organism #55063 Fitness: 10.25788403 Error: 0 */
genomestart 55063
trait 1 0.6818371353 1 0.3243949405 0.3668619545 0.30623439 0 0.2044068193 1 
node 1 1 1 3
node 2 1 1 1
node 3 1 1 1
node 4 1 1 1
node 5 1 1 1
node 6 1 1 1
node 7 1 1 1
node 8 1 1 1
node 9 1 1 1
node 10 1 1 1
node 11 1 1 1
node 12 1 0 0
node 13 1 0 2
node 14 1 0 2
node 24 1 0 0
gene 1 1 12 1.459821871 0 1 1.459821871 1
gene 1 2 12 0.4680023956 0 2 0.4680023956 1
gene 1 3 12 -2.558560475 0 3 -2.558560475 1
gene 1 4 12 -1.096304375 0 4 -1.096304375 1
gene 1 5 12 1.060621404 0 5 1.060621404 1
gene 1 6 12 0.07482963586 0 6 0.07482963586 1
gene 1 7 12 -0.09214949273 0 7 -0.09214949273 1
gene 1 8 12 0.3863632088 0 8 0.3863632088 1
gene 1 9 12 -1.115912733 0 9 -1.115912733 1
gene 1 10 12 -0.2617804102 0 10 -0.2617804102 1
gene 1 11 12 0.1545096912 0 11 0.1545096912 1
gene 1 12 13 0.203087831 0 12 0.203087831 1
gene 1 12 14 0.6878871395 0 13 0.6878871395 1
gene 1 3 13 1.079804476 0 14 1.079804476 1
gene 1 6 13 -0.08952975878 0 20 -0.08952975878 1
gene 1 11 13 -0.3126995062 0 24 0 1
gene 1 6 14 -1.390646806 0 25 -1.390646806 1
gene 1 11 14 0.6450523736 0 28 0.6450523736 1
gene 1 9 13 1.195327255 0 40 1.195327255 1
gene 1 5 13 1.630034995 0 41 1.630034995 1
gene 1 4 13 0.8864088598 0 43 0 1
gene 1 10 14 2.153526682 0 46 2.153526682 1
gene 1 1 13 -0.9330168732 0 74 -0.9330168732 0
gene 1 13 13 0.1476731423 1 130 0.1476731423 1
gene 1 7 24 -0.1559561332 0 137 -0.1559561332 1
gene 1 24 12 -0.6348896727 0 138 -0.6348896727 1
gene 1 12 12 -0.6906527248 1 152 -0.6906527248 0
gene 1 24 24 0.3489140262 1 158 0.3489140262 1
gene 1 10 24 -0.6737840314 0 340 -0.6737840314 1
gene 1 24 13 -0.6689861965 0 378 -0.6689861965 1
genomeend 55063
/* Novelty: 3.16147995 Fitness: 224.876297 Generation: 251 Indiv: 55313 */
/* Point: 99.31739807 51.24586487 99.31739807 51.24586487 */

/* Organism #39034 Fitness: 10.0277319 Error: 0 */
genomestart 39034
trait 1 0.5391015832 1 0.4905690234 0.315085977 0.4178379493 0.04401534682 0.7198937197 0.7280905276 
node 1 1 1 3
node 2 1 1 1
node 3 1 1 1
node 4 1 1 1
node 5 1 1 1
node 6 1 1 1
node 7 1 1 1
node 8 1 1 1
node 9 1 1 1
node 10 1 1 1
node 11 1 1 1
node 12 1 0 0
node 13 1 0 2
node 14 1 0 2
node 24 1 0 0
gene 1 1 12 1.459821871 0 1 1.459821871 1
gene 1 2 12 0.4374463211 0 2 0.4374463211 1
gene 1 3 12 -3 0 3 -3 1
gene 1 4 12 -1.096304375 0 4 -1.096304375 1
gene 1 5 12 1.700429656 0 5 1.700429656 1
gene 1 6 12 0.2147589468 0 6 0.2147589468 1
gene 1 7 12 -0.09214949273 0 7 -0.09214949273 1
gene 1 8 12 0.3863632088 0 8 0.3863632088 1
gene 1 9 12 -1.025014744 0 9 -1.025014744 1
gene 1 10 12 -0.2617804102 0 10 -0.2617804102 1
gene 1 11 12 0.1545096912 0 11 0.1545096912 1
gene 1 12 13 0.203087831 0 12 0.203087831 1
gene 1 12 14 0.5861106055 0 13 0.5861106055 1
gene 1 3 13 0.5696262273 0 14 0.5696262273 1
gene 1 6 13 -0.2613565984 0 20 -0.2613565984 1
gene 1 6 14 -1.200328124 0 25 -1.200328124 1
gene 1 11 14 0.6450523736 0 28 0.6450523736 1
gene 1 9 13 1.195327255 0 40 1.195327255 1
gene 1 5 13 2.169540739 0 41 2.169540739 1
gene 1 10 14 1.803811028 0 46 1.803811028 1
gene 1 1 13 -1.152411935 0 74 -1.152411935 1
gene 1 13 13 0.7121056072 1 130 0.7121056072 1
gene 1 7 24 -0.1559561332 0 137 -0.1559561332 1
gene 1 24 12 -0.6348896727 0 138 -0.6348896727 1
gene 1 12 12 -0.6906527248 1 152 -0.6906527248 0
gene 1 24 24 0.3489140262 1 158 0.3489140262 1
gene 1 10 24 -0.3682166661 0 340 -0.3682166661 1
genomeend 39034
/* Novelty: 3.357751846 Fitness: 212.3925476 Generation: 251 Indiv: 39284 */
/* Point: 115.1939621 44.21654129 115.1939621 44.21654129 */

/* Organism #42701 Fitness: 10.0277319 Error: 0 */
genomestart 42701
trait 1 0.5391015832 1 0.4905690234 0.315085977 0.4178379493 0.04401534682 0.7198937197 0.7280905276 
node 1 1 1 3
node 2 1 1 1
node 3 1 1 1
node 4 1 1 1
node 5 1 1 1
node 6 1 1 1
node 7 1 1 1
node 8 1 1 1
node 9 1 1 1
node 10 1 1 1
node 11 1 1 1
node 12 1 0 0
node 13 1 0 2
node 14 1 0 2
node 24 1 0 0
gene 1 1 12 1.459821871 0 1 1.459821871 1
gene 1 2 12 0.4374463211 0 2 0.4374463211 1
gene 1 3 12 -3 0 3 -3 1
gene 1 4 12 -1.096304375 0 4 -1.096304375 1
gene 1 5 12 1.700429656 0 5 1.700429656 1
gene 1 6 12 0.2147589468 0 6 0.2147589468 1
gene 1 7 12 -0.09214949273 0 7 -0.09214949273 1
gene 1 8 12 0.3863632088 0 8 0.3863632088 1
gene 1 9 12 -1.025014744 0 9 -1.025014744 1
gene 1 10 12 -0.2617804102 0 10 -0.2617804102 1
gene 1 11 12 0.1545096912 0 11 0.1545096912 1
gene 1 12 13 0.203087831 0 12 0.203087831 1
gene 1 12 14 0.5861106055 0 13 0.5861106055 1
gene 1 3 13 0.5696262273 0 14 0.5696262273 1
gene 1 6 13 -0.2613565984 0 20 -0.2613565984 1
gene 1 6 14 -1.200328124 0 25 -1.200328124 1
gene 1 11 14 0.6450523736 0 28 0.6450523736 1
gene 1 9 13 1.195327255 0 40 1.195327255 1
gene 1 5 13 2.169540739 0 41 2.169540739 1
gene 1 10 14 1.803811028 0 46 1.803811028 1
gene 1 1 13 -1.152411935 0 74 -1.152411935 1
gene 1 13 13 0.7121056072 1 130 0.7121056072 1
gene 1 7 24 -0.1559561332 0 137 -0.1559561332 1
gene 1 24 12 -0.6348896727 0 138 -0.6348896727 1
gene 1 12 12 -0.6906527248 1 152 -0.6906527248 0
gene 1 24 24 0.3489140262 1 158 0.3489140262 1
gene 1 10 24 -0.3682166661 0 340 -0.3682166661 1
genomeend 42701
/* Novelty: 3.357751846 Fitness: 212.3925476 Generation: 251 Indiv: 42951 */
/* Point: 115.1939621 44.21654129 115.1939621 44.21654129 */

/* Organism #53048 Fitness: 10.00802422 Error: 0 */
genomestart 53048
trait 1 0.8245726873 0.01501328041 0.1582208575 0.01346675356 0.1946308307 0.05267110524 0.7447067041 0.8157855025 
node 1 1 1 3
node 2 1 1 1
node 3 1 1 1
node 4 1 1 1
node 5 1 1 1
node 6 1 1 1
node 7 1 1 1
node 8 1 1 1
node 9 1 1 1
node 10 1 1 1
node 11 1 1 1
node 12 1 0 0
node 13 1 0 2
node 14 1 0 2
node 24 1 0 0
gene 1 1 12 1.00564157 0 1 1.00564157 1
gene 1 2 12 0.4680023956 0 2 0.4680023956 1
gene 1 3 12 -2.558560475 0 3 -2.558560475 1
gene 1 4 12 -0.6735473849 0 4 -0.6735473849 1
gene 1 5 12 1.060621404 0 5 1.060621404 1
gene 1 6 12 0.07482963586 0 6 0.07482963586 1
gene 1 7 12 -0.5776863639 0 7 -0.5776863639 0
gene 1 8 12 0.3391610798 0 8 0.3391610798 1
gene 1 9 12 -1.115912733 0 9 -1.115912733 1
gene 1 10 12 -0.3622729913 0 10 -0.3622729913 1
gene 1 11 12 0.08934619861 0 11 0.08934619861 1
gene 1 12 13 -1.417619339 0 12 -1.417619339 0
gene 1 12 14 0.6878871395 0 13 0.6878871395 1
gene 1 3 13 1.079804476 0 14 1.079804476 1
gene 1 6 13 -0.08952975878 0 20 -0.08952975878 1
gene 1 6 14 -1.390646806 0 25 -1.390646806 1
gene 1 11 14 -0.0001197414106 0 28 -0.0001197414106 1
gene 1 9 13 0.8299762982 0 40 0.8299762982 1
gene 1 5 13 1.630034995 0 41 1.630034995 1
gene 1 4 13 0.8864088598 0 43 0 1
gene 1 10 14 2.153526682 0 46 2.153526682 1
gene 1 1 13 -0.9330168732 0 74 -0.9330168732 1
gene 1 13 13 0.1476731423 1 130 0.1476731423 1
gene 1 7 24 -0.1226750127 0 137 -0.1226750127 1
gene 1 24 12 -0.1158500332 0 138 -0.1158500332 1
gene 1 12 12 -0.4600892938 1 152 -0.4600892938 1
gene 1 24 24 -0.4234391408 1 158 -0.4234391408 1
gene 1 10 24 -0.6737840314 0 340 -0.6737840314 1
gene 1 24 13 -0.6689861965 0 378 -0.6689861965 1
genomeend 53048
/* Novelty: 1.239458084 Fitness: 228.8992157 Generation: 251 Indiv: 53298 */
/* Point: 95.06523895 50.83774948 95.06523895 50.83774948 */

/* Organism #54740 Fitness: 10.00500393 Error: 0 */
genomestart 54740
trait 1 0.7095606173 0 0.278874807 0 0.2010215962 0 0.7466745222 0.8969308794 
node 1 1 1 3
node 2 1 1 1
node 3 1 1 1
node 4 1 1 1
node 5 1 1 1
node 6 1 1 1
node 7 1 1 1
node 8 1 1 1
node 9 1 1 1
node 10 1 1 1
node 11 1 1 1
node 12 1 0 0
node 13 1 0 2
node 14 1 0 2
node 24 1 0 0
gene 1 1 12 1.111165823 0 1 1.111165823 1
gene 1 2 12 0.3443578116 0 2 0.3443578116 1
gene 1 3 12 -2.665081651 0 3 -2.665081651 1
gene 1 4 12 -0.8029519252 0 4 -0.8029519252 1
gene 1 5 12 1.167256112 0 5 1.167256112 1
gene 1 6 12 0.1639076659 0 6 0.1639076659 1
gene 1 7 12 -0.4623237974 0 7 -0.4623237974 0
gene 1 8 12 0.3409191129 0 8 0.3409191129 1
gene 1 9 12 -1.096838627 0 9 -1.096838627 1
gene 1 10 12 -0.2651758797 0 10 -0.2651758797 1
gene 1 11 12 0.2036913225 0 11 0.2036913225 0
gene 1 12 13 -1.392829344 0 12 -1.392829344 0
gene 1 12 14 0.6454802504 0 13 0.6454802504 1
gene 1 3 13 0.8936948586 0 14 0.8936948586 1
gene 1 6 13 -0.0570181211 0 20 -0.0570181211 1
gene 1 6 14 -1.372943594 0 25 -1.372943594 1
gene 1 11 14 0.1074089444 0 28 0.1074089444 1
gene 1 9 13 0.9863058644 0 40 0.9863058644 1
gene 1 5 13 1.899787867 0 41 1.899787867 1
gene 1 4 13 0.8864088598 0 43 0 1
gene 1 10 14 2.006868916 0 46 2.006868916 1
gene 1 1 13 -1.042714404 0 74 -1.042714404 1
gene 1 13 13 0.382853336 1 130 0.382853336 1
gene 1 7 24 -0.1441421674 0 137 -0.1441421674 1
gene 1 24 12 -0.2023566398 0 138 -0.2023566398 1
gene 1 12 12 -0.4707956582 1 152 -0.4707956582 1
gene 1 24 24 -0.1751987056 1 158 -0.1751987056 1
gene 1 8 24 -0.8224074891 0 164 0 1
gene 1 10 24 -0.4446085074 0 340 -0.4446085074 1
gene 1 24 13 -0.6689861965 0 378 -0.6689861965 1
genomeend 54740
/* Novelty: 4.65234375 Fitness: 153.4043579 Generation: 251 Indiv: 54990 */
/* Point: 157.054245 94.83721924 157.054245 94.83721924 */

/* Organism #57438 Fitness: 10.00500393 Error: 0 */
genomestart 57438
trait 1 0.7095606173 0 0.278874807 0 0.2010215962 0 0.7466745222 0.8969308794 
node 1 1 1 3
node 2 1 1 1
node 3 1 1 1
node 4 1 1 1
node 5 1 1 1
node 6 1 1 1
node 7 1 1 1
node 8 1 1 1
node 9 1 1 1
node 10 1 1 1
node 11 1 1 1
node 12 1 0 0
node 13 1 0 2
node 14 1 0 2
node 24 1 0 0
gene 1 1 12 1.111165823 0 1 1.111165823 1
gene 1 2 12 0.3443578116 0 2 0.3443578116 1
gene 1 3 12 -2.665081651 0 3 -2.665081651 1
gene 1 4 12 -0.8029519252 0 4 -0.8029519252 1
gene 1 5 12 1.167256112 0 5 1.167256112 1
gene 1 6 12 0.1639076659 0 6 0.1639076659 1
gene 1 7 12 -0.4623237974 0 7 -0.4623237974 0
gene 1 8 12 0.3409191129 0 8 0.3409191129 1
gene 1 9 12 -1.096838627 0 9 -1.096838627 1
gene 1 10 12 -0.2651758797 0 10 -0.2651758797 1
gene 1 11 12 0.2036913225 0 11 0.2036913225 0
gene 1 12 13 -1.392829344 0 12 -1.392829344 0
gene 1 12 14 0.6454802504 0 13 0.6454802504 1
gene 1 3 13 0.8936948586 0 14 0.8936948586 1
gene 1 6 13 -0.0570181211 0 20 -0.0570181211 1
gene 1 6 14 -1.372943594 0 25 -1.372943594 1
gene 1 11 14 0.1074089444 0 28 0.1074089444 1
gene 1 9 13 0.9863058644 0 40 0.9863058644 1
gene 1 5 13 1.899787867 0 41 1.899787867 1
gene 1 4 13 0.8864088598 0 43 0 1
gene 1 10 14 2.006868916 0 46 2.006868916 1
gene 1 1 13 -1.042714404 0 74 -1.042714404 1
gene 1 13 13 0.382853336 1 130 0.382853336 1
gene 1 7 24 -0.1441421674 0 137 -0.1441421674 1
gene 1 24 12 -0.2023566398 0 138 -0.2023566398 1
gene 1 12 12 -0.4707956582 1 152 -0.4707956582 1
gene 1 24 24 -0.1751987056 1 158 -0.1751987056 1
gene 1 8 24 -0.8224074891 0 164 0 1
gene 1 10 24 -0.4446085074 0 340 -0.4446085074 1
gene 1 24 13 -0.6689861965 0 378 -0.6689861965 1
genomeend 57438
/* Novelty: 4.65234375 Fitness: 153.4043579 Generation: 251 Indiv: 57688 */
/* Point: 157.054245 94.83721924 157.054245 94.83721924 */

/* Organism #42234 Fitness: 9.817555428 Error: 0 */
genomestart 42234
trait 1 0.6818371353 0.5075066402 0.3243949405 0.1642763653 0.30623439 0.04834322603 0.7323002119 0.771938015 
node 1 1 1 3
node 2 1 1 1
node 3 1 1 1
node 4 1 1 1
node 5 1 1 1
node 6 1 1 1
node 7 1 1 1
node 8 1 1 1
node 9 1 1 1
node 10 1 1 1
node 11 1 1 1
node 12 1 0 0
node 13 1 0 2
node 14 1 0 2
node 24 1 0 0
gene 1 1 12 1.232731721 0 1 1.232731721 1
gene 1 2 12 0.4527243584 0 2 0.4527243584 1
gene 1 3 12 -2.779280237 0 3 -2.779280237 1
gene 1 4 12 -0.8849258798 0 4 -0.8849258798 1
gene 1 5 12 1.38052553 0 5 1.38052553 1
gene 1 6 12 0.1447942913 0 6 0.1447942913 1
gene 1 7 12 -0.3349179283 0 7 -0.3349179283 0
gene 1 8 12 0.3627621443 0 8 0.3627621443 1
gene 1 9 12 -1.070463739 0 9 -1.070463739 1
gene 1 10 12 -0.3120267007 0 10 -0.3120267007 1
gene 1 11 12 0.1219279449 0 11 0.1219279449 1
gene 1 12 13 -0.6072657541 0 12 -0.6072657541 0
gene 1 12 14 0.6369988725 0 13 0.6369988725 1
gene 1 3 13 0.8247153517 0 14 0.8247153517 1
gene 1 6 13 -0.1754431786 0 20 -0.1754431786 1
gene 1 6 14 -1.295487465 0 25 -1.295487465 1
gene 1 11 14 0.3224663161 0 28 0.3224663161 1
gene 1 9 13 1.012651777 0 40 1.012651777 1
gene 1 5 13 1.899787867 0 41 1.899787867 1
gene 1 4 13 0.8864088598 0 43 0 1
gene 1 10 14 1.978668855 0 46 1.978668855 1
gene 1 1 13 -1.042714404 0 74 -1.042714404 1
gene 1 13 13 0.4298893748 1 130 0.4298893748 1
gene 1 7 24 -0.1393155729 0 137 -0.1393155729 1
gene 1 24 12 -0.3753698529 0 138 -0.3753698529 1
gene 1 12 12 -0.5753710093 1 152 -0.5753710093 0
gene 1 24 24 -0.03726255734 1 158 -0.03726255734 1
gene 1 8 24 -0.8224074891 0 164 0 1
gene 1 10 24 -0.5210003487 0 340 -0.5210003487 1
gene 1 24 13 -0.6689861965 0 378 -0.6689861965 1
genomeend 42234
/* Novelty: 1.919578552 Fitness: 243.9049683 Generation: 251 Indiv: 42484 */
/* Point: 71.87180328 58.42067337 71.87180328 58.42067337 */

/* Organism #43524 Fitness: 9.810038567 Error: 0 */
genomestart 43524
trait 1 0.7085815277 0.2537533201 0.3204183277 0.0956049362 0.228922486 0.07684271826 0.7435728992 0.8859690075 
node 1 1 1 3
node 2 1 1 1
node 3 1 1 1
node 4 1 1 1
node 5 1 1 1
node 6 1 1 1
node 7 1 1 1
node 8 1 1 1
node 9 1 1 1
node 10 1 1 1
node 11 1 1 1
node 12 1 0 0
node 13 1 0 2
node 14 1 0 2
node 24 1 0 0
gene 1 1 12 1.232731721 0 1 1.232731721 1
gene 1 2 12 0.4527243584 0 2 0.4527243584 1
gene 1 3 12 -2.771602827 0 3 -2.771602827 1
gene 1 4 12 -0.7209779706 0 4 -0.7209779706 1
gene 1 5 12 1.273890821 0 5 1.273890821 1
gene 1 6 12 0.2529856959 0 6 0.2529856959 1
gene 1 7 12 -0.3349179283 0 7 -0.3349179283 0
gene 1 8 12 0.3426771459 0 8 0.3426771459 1
gene 1 9 12 -1.077764521 0 9 -1.077764521 1
gene 1 10 12 -0.3120267007 0 10 -0.3120267007 1
gene 1 11 12 0.1219279449 0 11 0.1219279449 1
gene 1 12 13 -0.6072657541 0 12 -0.6072657541 0
gene 1 12 14 0.6369988725 0 13 0.6369988725 1
gene 1 3 13 0.9626743655 0 14 0.9626743655 1
gene 1 6 13 -0.02450648342 0 20 -0.02450648342 1
gene 1 6 14 -1.295487465 0 25 -1.295487465 1
gene 1 11 14 0.3224663161 0 28 0.3224663161 1
gene 1 9 13 1.012651777 0 40 1.012651777 1
gene 1 5 13 1.899787867 0 41 1.899787867 1
gene 1 4 13 0.8864088598 0 43 0 1
gene 1 10 14 1.86021115 0 46 1.86021115 1
gene 1 1 13 -1.042714404 0 74 -1.042714404 1
gene 1 13 13 0.4298893748 1 130 0.4298893748 1
gene 1 7 24 -0.1489687619 0 137 -0.1489687619 1
gene 1 24 12 -0.3753698529 0 138 -0.3753698529 1
gene 1 12 12 -0.4815020225 1 152 -0.4815020225 0
gene 1 24 24 -0.03726255734 1 158 -0.03726255734 1
gene 1 8 24 -0.8224074891 0 164 0 1
gene 1 10 24 -0.5210003487 0 340 -0.5210003487 1
gene 1 24 13 -0.6689861965 0 378 -0.6689861965 1
genomeend 43524
/* Novelty: 3.802682877 Fitness: 242.2193298 Generation: 251 Indiv: 43774 */
/* Point: 74.84733582 57.62999725 74.84733582 57.62999725 */

/* Organism #49152 Fitness: 9.810038567 Error: 0 */
genomestart 49152
trait 1 0.7085815277 0.2537533201 0.3204183277 0.0956049362 0.228922486 0.07684271826 0.7435728992 0.8859690075 
node 1 1 1 3
node 2 1 1 1
node 3 1 1 1
node 4 1 1 1
node 5 1 1 1
node 6 1 1 1
node 7 1 1 1
node 8 1 1 1
node 9 1 1 1
node 10 1 1 1
node 11 1 1 1
node 12 1 0 0
node 13 1 0 2
node 14 1 0 2
node 24 1 0 0
gene 1 1 12 1.232731721 0 1 1.232731721 1
gene 1 2 12 0.4527243584 0 2 0.4527243584 1
gene 1 3 12 -2.771602827 0 3 -2.771602827 1
gene 1 4 12 -0.7209779706 0 4 -0.7209779706 1
gene 1 5 12 1.273890821 0 5 1.273890821 1
gene 1 6 12 0.2529856959 0 6 0.2529856959 1
gene 1 7 12 -0.3349179283 0 7 -0.3349179283 0
gene 1 8 12 0.3426771459 0 8 0.3426771459 1
gene 1 9 12 -1.077764521 0 9 -1.077764521 1
gene 1 10 12 -0.3120267007 0 10 -0.3120267007 1
gene 1 11 12 0.1219279449 0 11 0.1219279449 1
gene 1 12 13 -0.6072657541 0 12 -0.6072657541 0
gene 1 12 14 0.6369988725 0 13 0.6369988725 1
gene 1 3 13 0.9626743655 0 14 0.9626743655 1
gene 1 6 13 -0.02450648342 0 20 -0.02450648342 1
gene 1 6 14 -1.295487465 0 25 -1.295487465 1
gene 1 11 14 0.3224663161 0 28 0.3224663161 1
gene 1 9 13 1.012651777 0 40 1.012651777 1
gene 1 5 13 1.899787867 0 41 1.899787867 1
gene 1 4 13 0.8864088598 0 43 0 1
gene 1 10 14 1.86021115 0 46 1.86021115 1
gene 1 1 13 -1.042714404 0 74 -1.042714404 1
gene 1 13 13 0.4298893748 1 130 0.4298893748 1
gene 1 7 24 -0.1489687619 0 137 -0.1489687619 1
gene 1 24 12 -0.3753698529 0 138 -0.3753698529 1
gene 1 12 12 -0.4815020225 1 152 -0.4815020225 0
gene 1 24 24 -0.03726255734 1 158 -0.03726255734 1
gene 1 8 24 -0.8224074891 0 164 0 1
gene 1 10 24 -0.5210003487 0 340 -0.5210003487 1
gene 1 24 13 -0.6689861965 0 378 -0.6689861965 1
genomeend 49152
/* Novelty: 3.802682877 Fitness: 242.2193298 Generation: 251 Indiv: 49402 */
/* Point: 74.84733582 57.62999725 74.84733582 57.62999725 */

/* Organism #46808 Fitness: 9.581468582 Error: 0 */
genomestart 46808
trait 1 0.7264234717 0.1921916501 0.2996465673 0.07675373473 0.2149720411 0.07738370316 0.7451237107 0.8914499434 
node 1 1 1 3
node 2 1 1 1
node 3 1 1 1
node 4 1 1 1
node 5 1 1 1
node 6 1 1 1
node 7 1 1 1
node 8 1 1 1
node 9 1 1 1
node 10 1 1 1
node 11 1 1 1
node 12 1 0 0
node 13 1 0 2
node 14 1 0 2
node 24 1 0 0
gene 1 1 12 1.171948772 0 1 1.171948772 1
gene 1 2 12 0.398541085 0 2 0.398541085 1
gene 1 3 12 -2.718342239 0 3 -2.718342239 1
gene 1 4 12 -0.7619649479 0 4 -0.7619649479 1
gene 1 5 12 1.220573467 0 5 1.220573467 1
gene 1 6 12 0.2084466809 0 6 0.2084466809 1
gene 1 7 12 -0.3986208629 0 7 -0.3986208629 0
gene 1 8 12 0.3417981294 0 8 0.3417981294 1
gene 1 9 12 -1.087301574 0 9 -1.087301574 1
gene 1 10 12 -0.2886012902 0 10 -0.2886012902 1
gene 1 11 12 0.1628096337 0 11 0.1628096337 1
gene 1 12 13 -1.000047549 0 12 -1.000047549 0
gene 1 12 14 0.6412395614 0 13 0.6412395614 1
gene 1 3 13 0.9281846121 0 14 0.9281846121 1
gene 1 6 13 -0.04076230226 0 20 -0.04076230226 1
gene 1 6 14 -1.33421553 0 25 -1.33421553 1
gene 1 11 14 0.2149376303 0 28 0.2149376303 1
gene 1 9 13 0.9994788206 0 40 0.9994788206 1
gene 1 5 13 1.899787867 0 41 1.899787867 1
gene 1 4 13 0.8864088598 0 43 0 1
gene 1 10 14 1.933540033 0 46 1.933540033 1
gene 1 1 13 -1.042714404 0 74 -1.042714404 1
gene 1 13 13 0.4063713554 1 130 0.4063713554 1
gene 1 7 24 -0.1465554647 0 137 -0.1465554647 1
gene 1 24 12 -0.2888632463 0 138 -0.2888632463 1
gene 1 12 12 -0.4761488403 1 152 -0.4761488403 0
gene 1 24 24 -0.1062306315 1 158 -0.1062306315 1
gene 1 8 24 -0.8224074891 0 164 0 1
gene 1 10 24 -0.4828044281 0 340 -0.4828044281 1
gene 1 24 13 -0.6689861965 0 378 -0.6689861965 1
genomeend 46808
/* Novelty: 1.446861267 Fitness: 225.1563721 Generation: 251 Indiv: 47058 */
/* Point: 88.11437988 68.36853027 88.11437988 68.36853027 */

/* Organism #49632 Fitness: 9.581468582 Error: 0 */
genomestart 49632
trait 1 0.7264234717 0.1921916501 0.2996465673 0.07675373473 0.2149720411 0.07738370316 0.7451237107 0.8914499434 
node 1 1 1 3
node 2 1 1 1
node 3 1 1 1
node 4 1 1 1
node 5 1 1 1
node 6 1 1 1
node 7 1 1 1
node 8 1 1 1
node 9 1 1 1
node 10 1 1 1
node 11 1 1 1
node 12 1 0 0
node 13 1 0 2
node 14 1 0 2
node 24 1 0 0
gene 1 1 12 1.171948772 0 1 1.171948772 1
gene 1 2 12 0.398541085 0 2 0.398541085 1
gene 1 3 12 -2.718342239 0 3 -2.718342239 1
gene 1 4 12 -0.7619649479 0 4 -0.7619649479 1
gene 1 5 12 1.220573467 0 5 1.220573467 1
gene 1 6 12 0.2084466809 0 6 0.2084466809 1
gene 1 7 12 -0.3986208629 0 7 -0.3986208629 0
gene 1 8 12 0.3417981294 0 8 0.3417981294 1
gene 1 9 12 -1.087301574 0 9 -1.087301574 1
gene 1 10 12 -0.2886012902 0 10 -0.2886012902 1
gene 1 11 12 0.1628096337 0 11 0.1628096337 1
gene 1 12 13 -1.000047549 0 12 -1.000047549 0
gene 1 12 14 0.6412395614 0 13 0.6412395614 1
gene 1 3 13 0.9281846121 0 14 0.9281846121 1
gene 1 6 13 -0.04076230226 0 20 -0.04076230226 1
gene 1 6 14 -1.33421553 0 25 -1.33421553 1
gene 1 11 14 0.2149376303 0 28 0.2149376303 1
gene 1 9 13 0.9994788206 0 40 0.9994788206 1
gene 1 5 13 1.899787867 0 41 1.899787867 1
gene 1 4 13 0.8864088598 0 43 0 1
gene 1 10 14 1.933540033 0 46 1.933540033 1
gene 1 1 13 -1.042714404 0 74 -1.042714404 1
gene 1 13 13 0.4063713554 1 130 0.4063713554 1
gene 1 7 24 -0.1465554647 0 137 -0.1465554647 1
gene 1 24 12 -0.2888632463 0 138 -0.2888632463 1
gene 1 12 12 -0.4761488403 1 152 -0.4761488403 0
gene 1 24 24 -0.1062306315 1 158 -0.1062306315 1
gene 1 8 24 -0.8224074891 0 164 0 1
gene 1 10 24 -0.4828044281 0 340 -0.4828044281 1
gene 1 24 13 -0.6689861965 0 378 -0.6689861965 1
genomeend 49632
/* Novelty: 1.446861267 Fitness: 225.1563721 Generation: 251 Indiv: 49882 */
/* Point: 88.11437988 68.36853027 88.11437988 68.36853027 */

/* Organism #45914 Fitness: 9.581468582 Error: 0 */
genomestart 45914
trait 1 0.7264234717 0.1921916501 0.2996465673 0.07675373473 0.2149720411 0.07738370316 0.7451237107 0.8914499434 
node 1 1 1 3
node 2 1 1 1
node 3 1 1 1
node 4 1 1 1
node 5 1 1 1
node 6 1 1 1
node 7 1 1 1
node 8 1 1 1
node 9 1 1 1
node 10 1 1 1
node 11 1 1 1
node 12 1 0 0
node 13 1 0 2
node 14 1 0 2
node 24 1 0 0
gene 1 1 12 1.171948772 0 1 1.171948772 1
gene 1 2 12 0.398541085 0 2 0.398541085 1
gene 1 3 12 -2.718342239 0 3 -2.718342239 1
gene 1 4 12 -0.7619649479 0 4 -0.7619649479 1
gene 1 5 12 1.220573467 0 5 1.220573467 1
gene 1 6 12 0.2084466809 0 6 0.2084466809 1
gene 1 7 12 -0.3986208629 0 7 -0.3986208629 0
gene 1 8 12 0.3417981294 0 8 0.3417981294 1
gene 1 9 12 -1.087301574 0 9 -1.087301574 1
gene 1 10 12 -0.2886012902 0 10 -0.2886012902 1
gene 1 11 12 0.1628096337 0 11 0.1628096337 1
gene 1 12 13 -1.000047549 0 12 -1.000047549 0
gene 1 12 14 0.6412395614 0 13 0.6412395614 1
gene 1 3 13 0.9281846121 0 14 0.9281846121 1
gene 1 6 13 -0.04076230226 0 20 -0.04076230226 1
gene 1 6 14 -1.33421553 0 25 -1.33421553 1
gene 1 11 14 0.2149376303 0 28 0.2149376303 1
gene 1 9 13 0.9994788206 0 40 0.9994788206 1
gene 1 5 13 1.899787867 0 41 1.899787867 1
gene 1 4 13 0.8864088598 0 43 0 1
gene 1 10 14 1.933540033 0 46 1.933540033 1
gene 1 1 13 -1.042714404 0 74 -1.042714404 1
gene 1 13 13 0.4063713554 1 130 0.4063713554 1
gene 1 7 24 -0.1465554647 0 137 -0.1465554647 1
gene 1 24 12 -0.2888632463 0 138 -0.2888632463 1
gene 1 12 12 -0.4761488403 1 152 -0.4761488403 0
gene 1 24 24 -0.1062306315 1 158 -0.1062306315 1
gene 1 8 24 -0.8224074891 0 164 0 1
gene 1 10 24 -0.4828044281 0 340 -0.4828044281 1
gene 1 24 13 -0.6689861965 0 378 -0.6689861965 1
genomeend 45914
/* Novelty: 1.446861267 Fitness: 225.1563721 Generation: 251 Indiv: 46164 */
/* Point: 88.11437988 68.36853027 88.11437988 68.36853027 */

/* Organism #50139 Fitness: 9.499224663 Error: 0 */
genomestart 50139
trait 1 0.7085815277 0.2537533201 0.3204183277 0.0956049362 0.228922486 0.07684271826 0.7435728992 0.8859690075 
node 1 1 1 3
node 2 1 1 1
node 3 1 1 1
node 4 1 1 1
node 5 1 1 1
node 6 1 1 1
node 7 1 1 1
node 8 1 1 1
node 9 1 1 1
node 10 1 1 1
node 11 1 1 1
node 12 1 0 0
node 13 1 0 2
node 14 1 0 2
node 24 1 0 0
gene 1 1 12 1.232731721 0 1 1.232731721 1
gene 1 2 12 0.4527243584 0 2 0.4527243584 1
gene 1 3 12 -2.771602827 0 3 -2.771602827 1
gene 1 4 12 -0.7209779706 0 4 -0.7209779706 1
gene 1 5 12 1.273890821 0 5 1.273890821 1
gene 1 6 12 0.2529856959 0 6 0.2529856959 1
gene 1 7 12 -0.3349179283 0 7 -0.3349179283 0
gene 1 8 12 0.3426771459 0 8 0.3426771459 1
gene 1 9 12 -1.077764521 0 9 -1.077764521 1
gene 1 10 12 -0.3120267007 0 10 -0.3120267007 1
gene 1 11 12 0.1219279449 0 11 0.1219279449 1
gene 1 12 13 -0.6072657541 0 12 -0.6072657541 0
gene 1 12 14 0.6369988725 0 13 0.6369988725 1
gene 1 3 13 0.9626743655 0 14 0.9626743655 1
gene 1 6 13 -0.02450648342 0 20 -0.02450648342 1
gene 1 6 14 -1.295487465 0 25 -1.295487465 1
gene 1 11 14 0.3224663161 0 28 0.3224663161 1
gene 1 9 13 1.012651777 0 40 1.012651777 1
gene 1 5 13 1.899787867 0 41 1.899787867 1
gene 1 4 13 0.8864088598 0 43 0 1
gene 1 10 14 1.86021115 0 46 1.86021115 1
gene 1 1 13 -1.042714404 0 74 -1.042714404 1
gene 1 13 13 0.4298893748 1 130 0.4298893748 1
gene 1 7 24 -0.1489687619 0 137 -0.1489687619 1
gene 1 24 12 -0.3753698529 0 138 -0.3753698529 1
gene 1 12 12 -0.4815020225 1 152 -0.4815020225 0
gene 1 24 24 -0.03726255734 1 158 -0.03726255734 1
gene 1 8 24 -0.8224074891 0 164 0 1
gene 1 10 24 -0.5210003487 0 340 -0.5210003487 1
gene 1 24 13 -0.6689861965 0 378 -0.6689861965 1
gene 1 2 24 0.3647457447 0 404 0 1
genomeend 50139
/* Novelty: 3.743942261 Fitness: 212.0995178 Generation: 251 Indiv: 50389 */
/* Point: 65.49816895 100.8478317 65.49816895 100.8478317 */

/* Organism #48689 Fitness: 9.499224663 Error: 0 */
genomestart 48689
trait 1 0.7085815277 0.2537533201 0.3204183277 0.0956049362 0.228922486 0.07684271826 0.7435728992 0.8859690075 
node 1 1 1 3
node 2 1 1 1
node 3 1 1 1
node 4 1 1 1
node 5 1 1 1
node 6 1 1 1
node 7 1 1 1
node 8 1 1 1
node 9 1 1 1
node 10 1 1 1
node 11 1 1 1
node 12 1 0 0
node 13 1 0 2
node 14 1 0 2
node 24 1 0 0
gene 1 1 12 1.232731721 0 1 1.232731721 1
gene 1 2 12 0.4527243584 0 2 0.4527243584 1
gene 1 3 12 -2.771602827 0 3 -2.771602827 1
gene 1 4 12 -0.7209779706 0 4 -0.7209779706 1
gene 1 5 12 1.273890821 0 5 1.273890821 1
gene 1 6 12 0.2529856959 0 6 0.2529856959 1
gene 1 7 12 -0.3349179283 0 7 -0.3349179283 0
gene 1 8 12 0.3426771459 0 8 0.3426771459 1
gene 1 9 12 -1.077764521 0 9 -1.077764521 1
gene 1 10 12 -0.3120267007 0 10 -0.3120267007 1
gene 1 11 12 0.1219279449 0 11 0.1219279449 1
gene 1 12 13 -0.6072657541 0 12 -0.6072657541 0
gene 1 12 14 0.6369988725 0 13 0.6369988725 1
gene 1 3 13 0.9626743655 0 14 0.9626743655 1
gene 1 6 13 -0.02450648342 0 20 -0.02450648342 1
gene 1 6 14 -1.295487465 0 25 -1.295487465 1
gene 1 11 14 0.3224663161 0 28 0.3224663161 1
gene 1 9 13 1.012651777 0 40 1.012651777 1
gene 1 5 13 1.899787867 0 41 1.899787867 1
gene 1 4 13 0.8864088598 0 43 0 1
gene 1 10 14 1.86021115 0 46 1.86021115 1
gene 1 1 13 -1.042714404 0 74 -1.042714404 1
gene 1 13 13 0.4298893748 1 130 0.4298893748 1
gene 1 7 24 -0.1489687619 0 137 -0.1489687619 1
gene 1 24 12 -0.3753698529 0 138 -0.3753698529 1
gene 1 12 12 -0.4815020225 1 152 -0.4815020225 0
gene 1 24 24 -0.03726255734 1 158 -0.03726255734 1
gene 1 8 24 -0.8224074891 0 164 0 1
gene 1 10 24 -0.5210003487 0 340 -0.5210003487 1
gene 1 24 13 -0.6689861965 0 378 -0.6689861965 1
gene 1 2 24 0.3647457447 0 404 0 1
genomeend 48689
/* Novelty: 3.743942261 Fitness: 212.0995178 Generation: 251 Indiv: 48939 */
/* Point: 65.49816895 100.8478317 65.49816895 100.8478317 */

/* Organism #39428 Fitness: 9.469203949 Error: 0 */
genomestart 39428
trait 1 0.2339874548 0 0 0.02693350712 0.3525198502 0.8072053493 0.7548455864 1 
node 1 1 1 3
node 2 1 1 1
node 3 1 1 1
node 4 1 1 1
node 5 1 1 1
node 6 1 1 1
node 7 1 1 1
node 8 1 1 1
node 9 1 1 1
node 10 1 1 1
node 11 1 1 1
node 12 1 0 0
node 13 1 0 2
node 14 1 0 2
node 24 1 0 0
gene 1 1 12 1.216690075 0 1 1.216690075 1
gene 1 2 12 0.2207132275 0 2 0.2207132275 1
gene 1 3 12 -2.771602827 0 3 -2.771602827 1
gene 1 4 12 -0.7209779706 0 4 -0.7209779706 1
gene 1 5 12 1.273890821 0 5 1.273890821 1
gene 1 6 12 0.2529856959 0 6 0.2529856959 1
gene 1 7 12 -0.346961231 0 7 -0.346961231 0
gene 1 8 12 0.3426771459 0 8 0.3426771459 1
gene 1 9 12 -1.077764521 0 9 -1.077764521 1
gene 1 10 12 -0.1680787681 0 10 -0.1680787681 1
gene 1 11 12 0.2854547001 0 11 0.2854547001 0
gene 1 12 13 -1.368039349 0 12 -1.368039349 0
