
/* Species #1 : (Size 16) (AF 0) (Age 1)  */


/* Organism #49432 Fitness: 261.048 Error: 0 */
genomestart 49432
trait 1 0.727788573 0.5245856864 0.2737116583 0.490814109 0.2064534738 0.4345718128 0.3316828484 0.8062000913 
node 1 1 1 3
node 2 1 1 1
node 3 1 1 1
node 4 1 1 1
node 5 1 1 1
node 6 1 1 1
node 7 1 1 1
node 8 1 1 1
node 9 1 1 1
node 10 1 1 1
node 11 1 1 1
node 12 1 0 0
node 13 1 0 2
node 14 1 0 2
gene 1 1 12 -2.920508092 0 1 -2.920508092 1
gene 1 2 12 0.5661802294 0 2 0.5661802294 1
gene 1 3 12 0.710073566 0 3 0.710073566 1
gene 1 4 12 0.4337653895 0 4 0.4337653895 1
gene 1 5 12 0.8817669127 0 5 0.8817669127 1
gene 1 6 12 0.6863144293 0 6 0.6863144293 1
gene 1 7 12 -2.22391729 0 7 -2.22391729 1
gene 1 8 12 1.016851126 0 8 1.016851126 1
gene 1 9 12 2.293765551 0 9 2.293765551 1
gene 1 10 12 1.9341903 0 10 1.9341903 1
gene 1 11 12 0.409195863 0 11 0.409195863 0
gene 1 12 13 -0.150849522 0 12 -0.150849522 1
gene 1 12 14 -0.7871796403 0 13 -0.7871796403 1
gene 1 11 14 0.5655536631 0 20 0.1484773816 1
gene 1 11 13 -0.6617488894 0 21 -0.5971257632 1
gene 1 8 13 0.1353699081 0 23 0.1353699081 0
gene 1 4 14 1.056169152 0 26 1.056169152 1
gene 1 1 13 0.7159301359 0 31 0.7159301359 1
gene 1 9 13 0.7842672182 0 36 0 1
genomeend 49432
/* Novelty: 0 Fitness: 261.0482178 Generation: 0 Indiv: 49682 */
/* Point: 27.72274017 58.81367493 27.72274017 58.81367493 */

/* Organism #49453 Fitness: 261.0482178 Error: 0 */
genomestart 49453
trait 1 0.7062335265 0.5433151851 1 0 0.2049053097 0.4278427017 0.9625739962 1 
node 1 1 1 3
node 2 1 1 1
node 3 1 1 1
node 4 1 1 1
node 5 1 1 1
node 6 1 1 1
node 7 1 1 1
node 8 1 1 1
node 9 1 1 1
node 10 1 1 1
node 11 1 1 1
node 12 1 0 0
node 13 1 0 2
node 14 1 0 2
gene 1 1 12 -2.920508092 0 1 -2.920508092 1
gene 1 2 12 0.5661802294 0 2 0.5661802294 1
gene 1 3 12 0.710073566 0 3 0.710073566 1
gene 1 4 12 0.4337653895 0 4 0.4337653895 1
gene 1 5 12 0.8817669127 0 5 0.8817669127 1
gene 1 6 12 0.6863144293 0 6 0.6863144293 1
gene 1 7 12 -2.22391729 0 7 -2.22391729 1
gene 1 8 12 1.016851126 0 8 1.016851126 1
gene 1 9 12 2.293765551 0 9 2.293765551 1
gene 1 10 12 1.9341903 0 10 1.9341903 1
gene 1 11 12 0.409195863 0 11 0.409195863 1
gene 1 12 13 -0.150849522 0 12 -0.150849522 1
gene 1 12 14 -0.7871796403 0 13 -0.7871796403 1
gene 1 11 14 0.5655536631 0 20 0.1484773816 1
gene 1 11 13 -0.6617488894 0 21 -0.5971257632 1
gene 1 8 13 0.1353699081 0 23 0.1353699081 0
gene 1 4 14 1.056169152 0 26 1.056169152 1
gene 1 1 13 0.7159301359 0 31 0.7159301359 1
gene 1 9 13 0.7842672182 0 36 0 1
genomeend 49453
/* Novelty: 0 Fitness: 261.0482178 Generation: 0 Indiv: 49703 */
/* Point: 27.72274017 58.81367493 27.72274017 58.81367493 */

/* Organism #49473 Fitness: 261.0482178 Error: 0 */
genomestart 49473
trait 1 0.7129933606 0.3039196914 0.2874234871 0.399228403 0.5143492196 0.7334041321 0.3246918017 0.8276646399 
node 1 1 1 3
node 2 1 1 1
node 3 1 1 1
node 4 1 1 1
node 5 1 1 1
node 6 1 1 1
node 7 1 1 1
node 8 1 1 1
node 9 1 1 1
node 10 1 1 1
node 11 1 1 1
node 12 1 0 0
node 13 1 0 2
node 14 1 0 2
gene 1 1 12 -2.920508092 0 1 -2.920508092 1
gene 1 2 12 0.5661802294 0 2 0.5661802294 1
gene 1 3 12 0.710073566 0 3 0.710073566 1
gene 1 4 12 0.4337653895 0 4 0.4337653895 1
gene 1 5 12 0.8817669127 0 5 0.8817669127 1
gene 1 6 12 0.6863144293 0 6 0.6863144293 1
gene 1 7 12 -2.22391729 0 7 -2.22391729 1
gene 1 8 12 1.016851126 0 8 1.016851126 1
gene 1 9 12 2.293765551 0 9 2.293765551 1
gene 1 10 12 1.9341903 0 10 1.9341903 1
gene 1 11 12 0.409195863 0 11 0.409195863 0
gene 1 12 13 -0.150849522 0 12 -0.150849522 1
gene 1 12 14 -0.7871796403 0 13 -0.7871796403 1
gene 1 11 14 0.5655536631 0 20 0.1484773816 1
gene 1 11 13 -0.6617488894 0 21 -0.5971257632 1
gene 1 8 13 0.1353699081 0 23 0.1353699081 0
gene 1 4 14 1.056169152 0 26 1.056169152 1
gene 1 1 13 0.7159301359 0 31 0.7159301359 1
gene 1 9 13 0.7842672182 0 36 0 1
genomeend 49473
/* Novelty: 0 Fitness: 261.0482178 Generation: 0 Indiv: 49723 */
/* Point: 27.72274017 58.81367493 27.72274017 58.81367493 */

/* Organism #49474 Fitness: 261.0482178 Error: 0 */
genomestart 49474
trait 1 0.6958680808 0.511534282 0.30241239 0.4699932261 0.2085138671 0.4760263426 0.3317170011 0.776984665 
node 1 1 1 3
node 2 1 1 1
node 3 1 1 1
node 4 1 1 1
node 5 1 1 1
node 6 1 1 1
node 7 1 1 1
node 8 1 1 1
node 9 1 1 1
node 10 1 1 1
node 11 1 1 1
node 12 1 0 0
node 13 1 0 2
node 14 1 0 2
gene 1 1 12 -2.920508092 0 1 -2.920508092 1
gene 1 2 12 0.5661802294 0 2 0.5661802294 1
gene 1 3 12 0.710073566 0 3 0.710073566 1
gene 1 4 12 0.4337653895 0 4 0.4337653895 1
gene 1 5 12 0.8817669127 0 5 0.8817669127 1
gene 1 6 12 0.6863144293 0 6 0.6863144293 1
gene 1 7 12 -2.22391729 0 7 -2.22391729 1
gene 1 8 12 1.016851126 0 8 1.016851126 1
gene 1 9 12 2.293765551 0 9 2.293765551 1
gene 1 10 12 1.9341903 0 10 1.9341903 1
gene 1 11 12 0.409195863 0 11 0.409195863 0
gene 1 12 13 -0.150849522 0 12 -0.150849522 1
gene 1 12 14 -0.7871796403 0 13 -0.7871796403 1
gene 1 11 14 0.5655536631 0 20 0.1484773816 1
gene 1 11 13 -0.6617488894 0 21 -0.5971257632 0
gene 1 8 13 0.1353699081 0 23 0.1353699081 0
gene 1 4 14 1.056169152 0 26 1.056169152 1
gene 1 1 13 0.7159301359 0 31 0.7159301359 1
gene 1 9 13 0.7842672182 0 36 0 1
genomeend 49474
/* Novelty: 0 Fitness: 261.0482178 Generation: 0 Indiv: 49724 */
/* Point: 27.72274017 58.81367493 27.72274017 58.81367493 */

/* Organism #49499 Fitness: 261.0482178 Error: 0 */
genomestart 49499
trait 1 0.7115705419 0.4337936672 0.2935539344 0.5511371344 0.2180797267 0.4762347154 0.3349174292 0.8114081005 
node 1 1 1 3
node 2 1 1 1
node 3 1 1 1
node 4 1 1 1
node 5 1 1 1
node 6 1 1 1
node 7 1 1 1
node 8 1 1 1
node 9 1 1 1
node 10 1 1 1
node 11 1 1 1
node 12 1 0 0
node 13 1 0 2
node 14 1 0 2
gene 1 1 12 -2.920508092 0 1 -2.920508092 1
gene 1 2 12 0.5661802294 0 2 0.5661802294 1
gene 1 3 12 0.710073566 0 3 0.710073566 1
gene 1 4 12 0.4337653895 0 4 0.4337653895 1
gene 1 5 12 0.8817669127 0 5 0.8817669127 1
gene 1 6 12 0.6863144293 0 6 0.6863144293 1
gene 1 7 12 -2.22391729 0 7 -2.22391729 1
gene 1 8 12 1.016851126 0 8 1.016851126 1
gene 1 9 12 2.293765551 0 9 2.293765551 1
gene 1 10 12 1.9341903 0 10 1.9341903 1
gene 1 11 12 0.409195863 0 11 0.409195863 0
gene 1 12 13 -0.150849522 0 12 -0.150849522 1
gene 1 12 14 -0.7871796403 0 13 -0.7871796403 1
gene 1 11 14 0.5655536631 0 20 0.1484773816 1
gene 1 11 13 -0.6617488894 0 21 -0.5971257632 1
gene 1 8 13 0.1353699081 0 23 0.1353699081 0
gene 1 4 14 1.056169152 0 26 1.056169152 1
gene 1 1 13 0.7159301359 0 31 0.7159301359 1
gene 1 9 13 0.7842672182 0 36 0 1
genomeend 49499
/* Novelty: 0 Fitness: 261.0482178 Generation: 0 Indiv: 49749 */
/* Point: 27.72274017 58.81367493 27.72274017 58.81367493 */

/* Organism #49552 Fitness: 261.0482178 Error: 0 */
genomestart 49552
trait 1 0.6849959415 0.4500317134 0.277611058 0.5171584393 0.2186828266 0.4521962058 0.3318117936 0.8180627389 
node 1 1 1 3
node 2 1 1 1
node 3 1 1 1
node 4 1 1 1
node 5 1 1 1
node 6 1 1 1
node 7 1 1 1
node 8 1 1 1
node 9 1 1 1
node 10 1 1 1
node 11 1 1 1
node 12 1 0 0
node 13 1 0 2
node 14 1 0 2
gene 1 1 12 -2.920508092 0 1 -2.920508092 1
gene 1 2 12 0.5661802294 0 2 0.5661802294 1
gene 1 3 12 0.710073566 0 3 0.710073566 1
gene 1 4 12 0.4337653895 0 4 0.4337653895 1
gene 1 5 12 0.8817669127 0 5 0.8817669127 1
gene 1 6 12 0.6863144293 0 6 0.6863144293 1
gene 1 7 12 -2.22391729 0 7 -2.22391729 1
gene 1 8 12 1.016851126 0 8 1.016851126 1
gene 1 9 12 2.293765551 0 9 2.293765551 1
gene 1 10 12 1.9341903 0 10 1.9341903 1
gene 1 11 12 0.409195863 0 11 0.409195863 1
gene 1 12 13 -0.150849522 0 12 -0.150849522 1
gene 1 12 14 -0.7871796403 0 13 -0.7871796403 1
gene 1 11 14 0.5655536631 0 20 0.1484773816 1
gene 1 11 13 -0.6617488894 0 21 -0.5971257632 0
gene 1 8 13 0.1353699081 0 23 0.1353699081 0
gene 1 4 14 1.056169152 0 26 1.056169152 1
gene 1 1 13 0.7159301359 0 31 0.7159301359 1
gene 1 9 13 0.7842672182 0 36 0 1
genomeend 49552
/* Novelty: 0 Fitness: 261.0482178 Generation: 0 Indiv: 49802 */
/* Point: 27.72274017 58.81367493 27.72274017 58.81367493 */

/* Organism #49571 Fitness: 261.0482178 Error: 0 */
genomestart 49571
trait 1 0.6451973818 0.6003115861 0.2873233569 0.3576373913 0.2309385559 0.4798398014 0.349287212 0.7463899101 
node 1 1 1 3
node 2 1 1 1
node 3 1 1 1
node 4 1 1 1
node 5 1 1 1
node 6 1 1 1
node 7 1 1 1
node 8 1 1 1
node 9 1 1 1
node 10 1 1 1
node 11 1 1 1
node 12 1 0 0
node 13 1 0 2
node 14 1 0 2
gene 1 1 12 -2.920508092 0 1 -2.920508092 1
gene 1 2 12 0.5661802294 0 2 0.5661802294 1
gene 1 3 12 0.710073566 0 3 0.710073566 1
gene 1 4 12 0.4337653895 0 4 0.4337653895 1
gene 1 5 12 0.8817669127 0 5 0.8817669127 1
gene 1 6 12 0.6863144293 0 6 0.6863144293 1
gene 1 7 12 -2.22391729 0 7 -2.22391729 1
gene 1 8 12 1.016851126 0 8 1.016851126 1
gene 1 9 12 2.293765551 0 9 2.293765551 1
gene 1 10 12 1.9341903 0 10 1.9341903 1
gene 1 11 12 0.409195863 0 11 0.409195863 0
gene 1 12 13 -0.150849522 0 12 -0.150849522 1
gene 1 12 14 -0.7871796403 0 13 -0.7871796403 1
gene 1 11 14 0.5655536631 0 20 0.1484773816 1
gene 1 11 13 -0.6617488894 0 21 -0.5971257632 1
gene 1 8 13 0.1353699081 0 23 0.1353699081 0
gene 1 4 14 1.056169152 0 26 1.056169152 1
gene 1 1 13 0.7159301359 0 31 0.7159301359 1
gene 1 9 13 0.7842672182 0 36 0 1
genomeend 49571
/* Novelty: 0 Fitness: 261.0482178 Generation: 0 Indiv: 49821 */
/* Point: 27.72274017 58.81367493 27.72274017 58.81367493 */

/* Organism #49594 Fitness: 261.0482178 Error: 0 */
genomestart 49594
trait 1 0.8669815038 0.5719823857 0 1 0.1640313275 0.9140723426 0.1858823919 0.8700404743 
node 1 1 1 3
node 2 1 1 1
node 3 1 1 1
node 4 1 1 1
node 5 1 1 1
node 6 1 1 1
node 7 1 1 1
node 8 1 1 1
node 9 1 1 1
node 10 1 1 1
node 11 1 1 1
node 12 1 0 0
node 13 1 0 2
node 14 1 0 2
gene 1 1 12 -2.920508092 0 1 -2.920508092 1
gene 1 2 12 0.5661802294 0 2 0.5661802294 1
gene 1 3 12 0.710073566 0 3 0.710073566 1
gene 1 4 12 0.4337653895 0 4 0.4337653895 1
gene 1 5 12 0.8817669127 0 5 0.8817669127 1
gene 1 6 12 0.6863144293 0 6 0.6863144293 1
gene 1 7 12 -2.22391729 0 7 -2.22391729 1
gene 1 8 12 1.016851126 0 8 1.016851126 1
gene 1 9 12 2.293765551 0 9 2.293765551 1
gene 1 10 12 1.9341903 0 10 1.9341903 1
gene 1 11 12 0.409195863 0 11 0.409195863 0
gene 1 12 13 -0.150849522 0 12 -0.150849522 1
gene 1 12 14 -0.7871796403 0 13 -0.7871796403 1
gene 1 11 14 0.5655536631 0 20 0.1484773816 1
gene 1 11 13 -0.6617488894 0 21 -0.5971257632 0
gene 1 8 13 0.1353699081 0 23 0.1353699081 0
gene 1 4 14 1.056169152 0 26 1.056169152 1
gene 1 1 13 0.7159301359 0 31 0.7159301359 1
gene 1 9 13 0.7842672182 0 36 0 1
genomeend 49594
/* Novelty: 0 Fitness: 261.0482178 Generation: 0 Indiv: 49844 */
/* Point: 27.72274017 58.81367493 27.72274017 58.81367493 */

/* Organism #49684 Fitness: 261.0482178 Error: 0 */
genomestart 49684
trait 1 0.7286005755 0 0.1339438272 0.6774032034 0.1062966885 0.419027592 0.3228736413 0.8668859936 
node 1 1 1 3
node 2 1 1 1
node 3 1 1 1
node 4 1 1 1
node 5 1 1 1
node 6 1 1 1
node 7 1 1 1
node 8 1 1 1
node 9 1 1 1
node 10 1 1 1
node 11 1 1 1
node 12 1 0 0
node 13 1 0 2
node 14 1 0 2
gene 1 1 12 -2.920508092 0 1 -2.920508092 1
gene 1 2 12 0.5661802294 0 2 0.5661802294 1
gene 1 3 12 0.710073566 0 3 0.710073566 1
gene 1 4 12 0.4337653895 0 4 0.4337653895 1
gene 1 5 12 0.8817669127 0 5 0.8817669127 1
gene 1 6 12 0.6863144293 0 6 0.6863144293 1
gene 1 7 12 -2.22391729 0 7 -2.22391729 1
gene 1 8 12 1.016851126 0 8 1.016851126 1
gene 1 9 12 2.293765551 0 9 2.293765551 1
gene 1 10 12 1.9341903 0 10 1.9341903 1
gene 1 11 12 0.409195863 0 11 0.409195863 0
gene 1 12 13 -0.150849522 0 12 -0.150849522 1
gene 1 12 14 -0.7871796403 0 13 -0.7871796403 1
gene 1 11 14 0.5655536631 0 20 0.1484773816 1
gene 1 11 13 -0.6617488894 0 21 -0.5971257632 0
gene 1 8 13 0.1353699081 0 23 0.1353699081 0
gene 1 4 14 1.056169152 0 26 1.056169152 1
gene 1 1 13 0.7159301359 0 31 0.7159301359 1
gene 1 9 13 0.7842672182 0 36 0 1
genomeend 49684
/* Novelty: 0 Fitness: 261.0482178 Generation: 0 Indiv: 49934 */
/* Point: 27.72274017 58.81367493 27.72274017 58.81367493 */

/* Organism #49723 Fitness: 261.0482178 Error: 0 */
genomestart 49723
trait 1 0.6737663476 0.5862473613 0.2963479734 0.3897894124 0.209836704 0.467625937 0.3357677373 0.7538579636 
node 1 1 1 3
node 2 1 1 1
node 3 1 1 1
node 4 1 1 1
node 5 1 1 1
node 6 1 1 1
node 7 1 1 1
node 8 1 1 1
node 9 1 1 1
node 10 1 1 1
node 11 1 1 1
node 12 1 0 0
node 13 1 0 2
node 14 1 0 2
gene 1 1 12 -2.920508092 0 1 -2.920508092 1
gene 1 2 12 0.5661802294 0 2 0.5661802294 1
gene 1 3 12 0.710073566 0 3 0.710073566 1
gene 1 4 12 0.4337653895 0 4 0.4337653895 1
gene 1 5 12 0.8817669127 0 5 0.8817669127 1
gene 1 6 12 0.6863144293 0 6 0.6863144293 1
gene 1 7 12 -2.22391729 0 7 -2.22391729 1
gene 1 8 12 1.016851126 0 8 1.016851126 1
gene 1 9 12 2.293765551 0 9 2.293765551 1
gene 1 10 12 1.9341903 0 10 1.9341903 1
gene 1 11 12 0.409195863 0 11 0.409195863 1
gene 1 12 13 -0.150849522 0 12 -0.150849522 1
gene 1 12 14 -0.7871796403 0 13 -0.7871796403 1
gene 1 11 14 0.5655536631 0 20 0.1484773816 1
gene 1 11 13 -0.6617488894 0 21 -0.5971257632 1
gene 1 8 13 0.1353699081 0 23 0.1353699081 0
gene 1 4 14 1.056169152 0 26 1.056169152 1
gene 1 1 13 0.7159301359 0 31 0.7159301359 1
gene 1 9 13 0.7842672182 0 36 0 1
genomeend 49723
/* Novelty: 0 Fitness: 261.0482178 Generation: 0 Indiv: 49973 */
/* Point: 27.72274017 58.81367493 27.72274017 58.81367493 */

/* Organism #49798 Fitness: 261.0482178 Error: 0 */
genomestart 49798
trait 1 0.7062466161 0.487525206 0.2657843111 0.5031865095 0.2048597546 0.4195132867 0.3245667032 0.8235252992 
node 1 1 1 3
node 2 1 1 1
node 3 1 1 1
node 4 1 1 1
node 5 1 1 1
node 6 1 1 1
node 7 1 1 1
node 8 1 1 1
node 9 1 1 1
node 10 1 1 1
node 11 1 1 1
node 12 1 0 0
node 13 1 0 2
node 14 1 0 2
gene 1 1 12 -2.920508092 0 1 -2.920508092 1
gene 1 2 12 0.5661802294 0 2 0.5661802294 1
gene 1 3 12 0.710073566 0 3 0.710073566 1
gene 1 4 12 0.4337653895 0 4 0.4337653895 1
gene 1 5 12 0.8817669127 0 5 0.8817669127 1
gene 1 6 12 0.6863144293 0 6 0.6863144293 1
gene 1 7 12 -2.22391729 0 7 -2.22391729 1
gene 1 8 12 1.016851126 0 8 1.016851126 1
gene 1 9 12 2.293765551 0 9 2.293765551 1
gene 1 10 12 1.9341903 0 10 1.9341903 1
gene 1 11 12 0.409195863 0 11 0.409195863 0
gene 1 12 13 -0.150849522 0 12 -0.150849522 1
gene 1 12 14 -0.7871796403 0 13 -0.7871796403 1
gene 1 11 14 0.5655536631 0 20 0.1484773816 1
gene 1 11 13 -0.6617488894 0 21 -0.5971257632 1
gene 1 8 13 0.1353699081 0 23 0.1353699081 0
gene 1 4 14 1.056169152 0 26 1.056169152 1
gene 1 1 13 0.7159301359 0 31 0.7159301359 1
gene 1 9 13 0.7842672182 0 36 0 1
genomeend 49798
/* Novelty: 0 Fitness: 261.0482178 Generation: 0 Indiv: 50048 */
/* Point: 27.72274017 58.81367493 27.72274017 58.81367493 */

/* Organism #49832 Fitness: 261.0482178 Error: 0 */
genomestart 49832
trait 1 0.707743652 0.5441214074 0.2686907607 0.4568103309 0.2048729429 0.424522888 0.3293831847 0.8009729901 
node 1 1 1 3
node 2 1 1 1
node 3 1 1 1
node 4 1 1 1
node 5 1 1 1
node 6 1 1 1
node 7 1 1 1
node 8 1 1 1
node 9 1 1 1
node 10 1 1 1
node 11 1 1 1
node 12 1 0 0
node 13 1 0 2
node 14 1 0 2
gene 1 1 12 -2.920508092 0 1 -2.920508092 1
gene 1 2 12 0.5661802294 0 2 0.5661802294 1
gene 1 3 12 0.710073566 0 3 0.710073566 1
gene 1 4 12 0.4337653895 0 4 0.4337653895 1
gene 1 5 12 0.8817669127 0 5 0.8817669127 1
gene 1 6 12 0.6863144293 0 6 0.6863144293 1
gene 1 7 12 -2.22391729 0 7 -2.22391729 1
gene 1 8 12 1.016851126 0 8 1.016851126 1
gene 1 9 12 2.293765551 0 9 2.293765551 1
gene 1 10 12 1.9341903 0 10 1.9341903 1
gene 1 11 12 0.409195863 0 11 0.409195863 0
gene 1 12 13 -0.150849522 0 12 -0.150849522 1
gene 1 12 14 -0.7871796403 0 13 -0.7871796403 1
gene 1 11 14 0.5655536631 0 20 0.1484773816 1
gene 1 11 13 -0.6617488894 0 21 -0.5971257632 1
gene 1 8 13 0.1353699081 0 23 0.1353699081 0
gene 1 4 14 1.056169152 0 26 1.056169152 1
gene 1 1 13 0.7159301359 0 31 0.7159301359 1
gene 1 9 13 0.7842672182 0 36 0 1
genomeend 49832
/* Novelty: 0 Fitness: 261.0482178 Generation: 0 Indiv: 50082 */
/* Point: 27.72274017 58.81367493 27.72274017 58.81367493 */

/* Organism #49844 Fitness: 261.0482178 Error: 0 */
genomestart 49844
trait 1 0.7701832596 0.8461564235 0.6481739867 0.1948947062 0.1991978713 0.4477343193 1 0 
node 1 1 1 3
node 2 1 1 1
node 3 1 1 1
node 4 1 1 1
node 5 1 1 1
node 6 1 1 1
node 7 1 1 1
node 8 1 1 1
node 9 1 1 1
node 10 1 1 1
node 11 1 1 1
node 12 1 0 0
node 13 1 0 2
node 14 1 0 2
gene 1 1 12 -2.920508092 0 1 -2.920508092 1
gene 1 2 12 0.5661802294 0 2 0.5661802294 1
gene 1 3 12 0.710073566 0 3 0.710073566 1
gene 1 4 12 0.4337653895 0 4 0.4337653895 1
gene 1 5 12 0.8817669127 0 5 0.8817669127 1
gene 1 6 12 0.6863144293 0 6 0.6863144293 1
gene 1 7 12 -2.22391729 0 7 -2.22391729 1
gene 1 8 12 1.016851126 0 8 1.016851126 1
gene 1 9 12 2.293765551 0 9 2.293765551 1
gene 1 10 12 1.9341903 0 10 1.9341903 1
gene 1 11 12 0.409195863 0 11 0.409195863 1
gene 1 12 13 -0.150849522 0 12 -0.150849522 1
gene 1 12 14 -0.7871796403 0 13 -0.7871796403 1
gene 1 11 14 0.5655536631 0 20 0.1484773816 1
gene 1 11 13 -0.6617488894 0 21 -0.5971257632 1
gene 1 8 13 0.1353699081 0 23 0.1353699081 0
gene 1 4 14 1.056169152 0 26 1.056169152 1
gene 1 1 13 0.7159301359 0 31 0.7159301359 1
gene 1 9 13 0.7842672182 0 36 0 1
genomeend 49844
/* Novelty: 0 Fitness: 261.0482178 Generation: 0 Indiv: 50094 */
/* Point: 27.72274017 58.81367493 27.72274017 58.81367493 */

/* Organism #49914 Fitness: 261.0482178 Error: 0 */
genomestart 49914
trait 1 0.6933798541 0.4450835263 0.2918857303 0.3945089077 0.3620929618 0.6005150345 0.3302297695 0.7907613017 
node 1 1 1 3
node 2 1 1 1
node 3 1 1 1
node 4 1 1 1
node 5 1 1 1
node 6 1 1 1
node 7 1 1 1
node 8 1 1 1
node 9 1 1 1
node 10 1 1 1
node 11 1 1 1
node 12 1 0 0
node 13 1 0 2
node 14 1 0 2
gene 1 1 12 -2.920508092 0 1 -2.920508092 1
gene 1 2 12 0.5661802294 0 2 0.5661802294 1
gene 1 3 12 0.710073566 0 3 0.710073566 1
gene 1 4 12 0.4337653895 0 4 0.4337653895 1
gene 1 5 12 0.8817669127 0 5 0.8817669127 1
gene 1 6 12 0.6863144293 0 6 0.6863144293 1
gene 1 7 12 -2.22391729 0 7 -2.22391729 1
gene 1 8 12 1.016851126 0 8 1.016851126 1
gene 1 9 12 2.293765551 0 9 2.293765551 1
gene 1 10 12 1.9341903 0 10 1.9341903 1
gene 1 11 12 0.409195863 0 11 0.409195863 0
gene 1 12 13 -0.150849522 0 12 -0.150849522 1
gene 1 12 14 -0.7871796403 0 13 -0.7871796403 1
gene 1 11 14 0.5655536631 0 20 0.1484773816 1
gene 1 11 13 -0.6617488894 0 21 -0.5971257632 1
gene 1 8 13 0.1353699081 0 23 0.1353699081 1
gene 1 4 14 1.056169152 0 26 1.056169152 1
gene 1 1 13 0.7159301359 0 31 0.7159301359 1
gene 1 9 13 0.7842672182 0 36 0 1
genomeend 49914
/* Novelty: 0 Fitness: 261.0482178 Generation: 0 Indiv: 50164 */
/* Point: 27.72274017 58.81367493 27.72274017 58.81367493 */

/* Organism #49959 Fitness: 261.0482178 Error: 0 */
genomestart 49959
trait 1 0.7122819513 0.3688566793 0.2904887108 0.4751827687 0.3662144732 0.6048194237 0.3298046154 0.8195363702 
node 1 1 1 3
node 2 1 1 1
node 3 1 1 1
node 4 1 1 1
node 5 1 1 1
node 6 1 1 1
node 7 1 1 1
node 8 1 1 1
node 9 1 1 1
node 10 1 1 1
node 11 1 1 1
node 12 1 0 0
node 13 1 0 2
node 14 1 0 2
gene 1 1 12 -2.920508092 0 1 -2.920508092 1
gene 1 2 12 0.5661802294 0 2 0.5661802294 1
gene 1 3 12 0.710073566 0 3 0.710073566 1
gene 1 4 12 0.4337653895 0 4 0.4337653895 1
gene 1 5 12 0.8817669127 0 5 0.8817669127 1
gene 1 6 12 0.6863144293 0 6 0.6863144293 1
gene 1 7 12 -2.22391729 0 7 -2.22391729 1
gene 1 8 12 1.016851126 0 8 1.016851126 1
gene 1 9 12 2.293765551 0 9 2.293765551 1
gene 1 10 12 1.9341903 0 10 1.9341903 1
gene 1 11 12 0.409195863 0 11 0.409195863 0
gene 1 12 13 -0.150849522 0 12 -0.150849522 1
gene 1 12 14 -0.7871796403 0 13 -0.7871796403 1
gene 1 11 14 0.5655536631 0 20 0.1484773816 1
gene 1 11 13 -0.6617488894 0 21 -0.5971257632 1
gene 1 8 13 0.1353699081 0 23 0.1353699081 0
gene 1 4 14 1.056169152 0 26 1.056169152 1
gene 1 1 13 0.7159301359 0 31 0.7159301359 1
gene 1 9 13 0.7842672182 0 36 0 1
genomeend 49959
/* Novelty: 0 Fitness: 261.0482178 Generation: 0 Indiv: 50209 */
/* Point: 27.72274017 58.81367493 27.72274017 58.81367493 */

/* Organism #49967 Fitness: 261.0482178 Error: 0 */
genomestart 49967
trait 1 0.7010508037 0.5274247336 0.651206195 0.2349966131 0.2067095884 0.4519345221 0.6471454987 0.8884923325 
node 1 1 1 3
node 2 1 1 1
node 3 1 1 1
node 4 1 1 1
node 5 1 1 1
node 6 1 1 1
node 7 1 1 1
node 8 1 1 1
node 9 1 1 1
node 10 1 1 1
node 11 1 1 1
node 12 1 0 0
node 13 1 0 2
node 14 1 0 2
gene 1 1 12 -2.920508092 0 1 -2.920508092 1
gene 1 2 12 0.5661802294 0 2 0.5661802294 1
gene 1 3 12 0.710073566 0 3 0.710073566 1
gene 1 4 12 0.4337653895 0 4 0.4337653895 1
gene 1 5 12 0.8817669127 0 5 0.8817669127 1
gene 1 6 12 0.6863144293 0 6 0.6863144293 1
gene 1 7 12 -2.22391729 0 7 -2.22391729 1
gene 1 8 12 1.016851126 0 8 1.016851126 1
gene 1 9 12 2.293765551 0 9 2.293765551 1
gene 1 10 12 1.9341903 0 10 1.9341903 1
gene 1 11 12 0.409195863 0 11 0.409195863 1
gene 1 12 13 -0.150849522 0 12 -0.150849522 1
gene 1 12 14 -0.7871796403 0 13 -0.7871796403 1
gene 1 11 14 0.5655536631 0 20 0.1484773816 1
gene 1 11 13 -0.6617488894 0 21 -0.5971257632 0
gene 1 8 13 0.1353699081 0 23 0.1353699081 0
gene 1 4 14 1.056169152 0 26 1.056169152 1
gene 1 1 13 0.7159301359 0 31 0.7159301359 1
gene 1 9 13 0.7842672182 0 36 0 1
genomeend 49967
/* Novelty: 0 Fitness: 261.0482178 Generation: 0 Indiv: 50217 */
/* Point: 27.72274017 58.81367493 27.72274017 58.81367493 */

/* Species #3 : (Size 15) (AF 0) (Age 1)  */


/* Organism #49351 Fitness: 261.0142212 Error: 0 */
genomestart 49351
trait 1 0.303581072 0.103071843 0.5713099161 0.3297133569 0.02827381958 0.2798642595 0.8779672592 0.2500850225 
node 1 1 1 3
node 2 1 1 1
node 3 1 1 1
node 4 1 1 1
node 5 1 1 1
node 6 1 1 1
node 7 1 1 1
node 8 1 1 1
node 9 1 1 1
node 10 1 1 1
node 11 1 1 1
node 12 1 0 0
node 13 1 0 2
node 14 1 0 2
gene 1 1 12 0.8801766008 0 1 0.8801766008 1
gene 1 2 12 -0.3287139424 0 2 -0.3287139424 1
gene 1 3 12 0.3626464164 0 3 0.3626464164 1
gene 1 4 12 -0.3328106617 0 4 -0.3328106617 1
gene 1 5 12 -0.6681003891 0 5 -0.6681003891 1
gene 1 6 12 -0.5891046493 0 6 -0.5891046493 1
gene 1 7 12 -1.7983552 0 7 -1.7983552 1
gene 1 8 12 1.463289095 0 8 1.463289095 1
gene 1 9 12 0.8477356817 0 9 0.8477356817 0
gene 1 10 12 -0.2677108989 0 10 -0.2677108989 1
gene 1 11 12 -0.5370283338 0 11 -0.5370283338 1
gene 1 12 13 2.166958706 0 12 2.166958706 1
gene 1 12 14 -2.345971511 0 13 -2.345971511 1
gene 1 11 14 0.9662581724 0 20 0 0
gene 1 11 13 -0.2736725681 0 21 -0.2736725681 1
gene 1 14 14 1.211728773 1 22 1.211728773 1
gene 1 8 13 0.9222652222 0 23 0.9222652222 1
gene 1 12 12 0.8705805902 1 25 0.8705805902 1
gene 1 9 14 0.5929345948 0 28 0 1
gene 1 9 13 0.7842672182 0 36 0.7842672182 1
gene 1 10 14 0.5741981288 0 38 0.5741981288 0
gene 1 13 13 -1.476732742 1 74 -1.476732742 1
gene 1 14 12 0.3127930893 1 177 0.3127930893 1
genomeend 49351
/* Novelty: 0 Fitness: 261.0142212 Generation: 0 Indiv: 49601 */
/* Point: 27.58848953 58.8362236 27.58848953 58.8362236 */

/* Organism #49352 Fitness: 261.0142212 Error: 0 */
genomestart 49352
trait 1 0.2597430275 0.09974161148 0.5802191317 0.3313906197 0.02545790229 0.2723978387 0.8892592852 0.2145405565 
node 1 1 1 3
node 2 1 1 1
node 3 1 1 1
node 4 1 1 1
node 5 1 1 1
node 6 1 1 1
node 7 1 1 1
node 8 1 1 1
node 9 1 1 1
node 10 1 1 1
node 11 1 1 1
node 12 1 0 0
node 13 1 0 2
node 14 1 0 2
gene 1 1 12 0.8801766008 0 1 0.8801766008 1
gene 1 2 12 -0.3287139424 0 2 -0.3287139424 1
gene 1 3 12 0.3626464164 0 3 0.3626464164 1
gene 1 4 12 -0.3328106617 0 4 -0.3328106617 1
gene 1 5 12 -0.6681003891 0 5 -0.6681003891 1
gene 1 6 12 -0.5891046493 0 6 -0.5891046493 1
gene 1 7 12 -1.7983552 0 7 -1.7983552 1
gene 1 8 12 1.463289095 0 8 1.463289095 1
gene 1 9 12 0.8477356817 0 9 0.8477356817 0
gene 1 10 12 -0.2677108989 0 10 -0.2677108989 1
gene 1 11 12 -0.5370283338 0 11 -0.5370283338 1
gene 1 12 13 2.166958706 0 12 2.166958706 1
gene 1 12 14 -2.345971511 0 13 -2.345971511 1
gene 1 11 14 0.9662581724 0 20 0 1
gene 1 11 13 -0.2736725681 0 21 -0.2736725681 0
gene 1 14 14 1.211728773 1 22 1.211728773 1
gene 1 8 13 0.9222652222 0 23 0.9222652222 1
gene 1 12 12 0.8705805902 1 25 0.8705805902 1
gene 1 9 14 0.5929345948 0 28 0 0
gene 1 9 13 0.7842672182 0 36 0.7842672182 1
gene 1 10 14 0.5741981288 0 38 0.5741981288 0
gene 1 13 13 -1.476732742 1 74 -1.476732742 1
gene 1 14 12 0.3127930893 1 177 0.3127930893 1
genomeend 49352
/* Novelty: 0 Fitness: 261.0142212 Generation: 0 Indiv: 49602 */
/* Point: 27.58848953 58.8362236 27.58848953 58.8362236 */

/* Organism #49398 Fitness: 261.0142212 Error: 0 */
genomestart 49398
trait 1 0.5291628806 0.1366248397 0.5061552033 0.5151407949 0.01762071683 0.3692282378 0.6872990582 0.237680317 
node 1 1 1 3
node 2 1 1 1
node 3 1 1 1
node 4 1 1 1
node 5 1 1 1
node 6 1 1 1
node 7 1 1 1
node 8 1 1 1
node 9 1 1 1
node 10 1 1 1
node 11 1 1 1
node 12 1 0 0
node 13 1 0 2
node 14 1 0 2
gene 1 1 12 0.8801766008 0 1 0.8801766008 1
gene 1 2 12 -0.3287139424 0 2 -0.3287139424 1
gene 1 3 12 0.3626464164 0 3 0.3626464164 1
gene 1 4 12 -0.3328106617 0 4 -0.3328106617 1
gene 1 5 12 -0.6681003891 0 5 -0.6681003891 1
gene 1 6 12 -0.5891046493 0 6 -0.5891046493 1
gene 1 7 12 -1.7983552 0 7 -1.7983552 1
gene 1 8 12 1.463289095 0 8 1.463289095 1
gene 1 9 12 0.8477356817 0 9 0.8477356817 0
gene 1 10 12 -0.2677108989 0 10 -0.2677108989 1
gene 1 11 12 -0.5370283338 0 11 -0.5370283338 0
gene 1 12 13 2.166958706 0 12 2.166958706 1
gene 1 12 14 -2.345971511 0 13 -2.345971511 1
gene 1 11 14 0.9662581724 0 20 0 0
gene 1 11 13 -0.2736725681 0 21 -0.2736725681 0
gene 1 14 14 1.211728773 1 22 1.211728773 1
gene 1 8 13 0.9222652222 0 23 0.9222652222 1
gene 1 12 12 0.8705805902 1 25 0.8705805902 1
gene 1 9 14 0.5929345948 0 28 0 0
gene 1 9 13 0.7842672182 0 36 0.7842672182 1
gene 1 10 14 0.5741981288 0 38 0.5741981288 0
gene 1 13 13 -1.476732742 1 74 -1.476732742 1
gene 1 14 12 0.3127930893 1 177 0.3127930893 1
genomeend 49398
/* Novelty: 0 Fitness: 261.0142212 Generation: 0 Indiv: 49648 */
/* Point: 27.58848953 58.8362236 27.58848953 58.8362236 */

/* Organism #49427 Fitness: 261.0142212 Error: 0 */
genomestart 49427
trait 1 0.09341605204 0 1 0.499171326 0.02336363354 0.8057434248 0 0.2042310872 
node 1 1 1 3
node 2 1 1 1
node 3 1 1 1
node 4 1 1 1
node 5 1 1 1
node 6 1 1 1
node 7 1 1 1
node 8 1 1 1
node 9 1 1 1
node 10 1 1 1
node 11 1 1 1
node 12 1 0 0
node 13 1 0 2
node 14 1 0 2
gene 1 1 12 0.8801766008 0 1 0.8801766008 1
gene 1 2 12 -0.3287139424 0 2 -0.3287139424 1
gene 1 3 12 0.3626464164 0 3 0.3626464164 1
gene 1 4 12 -0.3328106617 0 4 -0.3328106617 1
gene 1 5 12 -0.6681003891 0 5 -0.6681003891 1
gene 1 6 12 -0.5891046493 0 6 -0.5891046493 1
gene 1 7 12 -1.7983552 0 7 -1.7983552 1
gene 1 8 12 1.463289095 0 8 1.463289095 1
gene 1 9 12 0.8477356817 0 9 0.8477356817 1
gene 1 10 12 -0.2677108989 0 10 -0.2677108989 1
gene 1 11 12 -0.5370283338 0 11 -0.5370283338 0
gene 1 12 13 2.166958706 0 12 2.166958706 1
gene 1 12 14 -2.345971511 0 13 -2.345971511 1
gene 1 11 14 0.9662581724 0 20 0 0
gene 1 11 13 -0.2736725681 0 21 -0.2736725681 0
gene 1 14 14 1.211728773 1 22 1.211728773 1
gene 1 8 13 0.9222652222 0 23 0.9222652222 1
gene 1 12 12 0.8705805902 1 25 0.8705805902 1
gene 1 9 14 0.5929345948 0 28 0 0
gene 1 9 13 0.7842672182 0 36 0.7842672182 1
gene 1 10 14 0.5741981288 0 38 0.5741981288 0
gene 1 13 13 -1.476732742 1 74 -1.476732742 1
gene 1 14 12 0.3127930893 1 177 0.3127930893 1
genomeend 49427
/* Novelty: 0 Fitness: 261.0142212 Generation: 0 Indiv: 49677 */
/* Point: 27.58848953 58.8362236 27.58848953 58.8362236 */

/* Organism #49444 Fitness: 261.0142212 Error: 0 */
genomestart 49444
trait 1 0.6294759185 0.1749045784 0.5928072937 0.5311102637 0.01187780013 0.4631246563 0.7336127255 0.2711295468 
node 1 1 1 3
node 2 1 1 1
node 3 1 1 1
node 4 1 1 1
node 5 1 1 1
node 6 1 1 1
node 7 1 1 1
node 8 1 1 1
node 9 1 1 1
node 10 1 1 1
node 11 1 1 1
node 12 1 0 0
node 13 1 0 2
node 14 1 0 2
gene 1 1 12 0.8801766008 0 1 0.8801766008 1
gene 1 2 12 -0.3287139424 0 2 -0.3287139424 1
gene 1 3 12 0.3626464164 0 3 0.3626464164 1
gene 1 4 12 -0.3328106617 0 4 -0.3328106617 1
gene 1 5 12 -0.6681003891 0 5 -0.6681003891 1
gene 1 6 12 -0.5891046493 0 6 -0.5891046493 1
gene 1 7 12 -1.7983552 0 7 -1.7983552 1
gene 1 8 12 1.463289095 0 8 1.463289095 1
gene 1 9 12 0.8477356817 0 9 0.8477356817 1
gene 1 10 12 -0.2677108989 0 10 -0.2677108989 1
gene 1 11 12 -0.5370283338 0 11 -0.5370283338 1
gene 1 12 13 2.166958706 0 12 2.166958706 1
gene 1 12 14 -2.345971511 0 13 -2.345971511 1
gene 1 11 14 0.9662581724 0 20 0 1
gene 1 11 13 -0.2736725681 0 21 -0.2736725681 0
gene 1 14 14 1.211728773 1 22 1.211728773 1
gene 1 8 13 0.9222652222 0 23 0.9222652222 1
gene 1 12 12 0.8705805902 1 25 0.8705805902 1
gene 1 9 14 0.5929345948 0 28 0 0
gene 1 9 13 0.7842672182 0 36 0.7842672182 1
gene 1 10 14 0.5741981288 0 38 0.5741981288 0
gene 1 13 13 -1.476732742 1 74 -1.476732742 1
gene 1 14 12 0.3127930893 1 177 0.3127930893 1
genomeend 49444
/* Novelty: 0 Fitness: 261.0142212 Generation: 0 Indiv: 49694 */
/* Point: 27.58848953 58.8362236 27.58848953 58.8362236 */

/* Organism #49487 Fitness: 261.0142212 Error: 0 */
genomestart 49487
trait 1 0.5018203318 0.1090541579 0.5256538068 0.5185053754 0.002862585976 0.3462952746 0.3611176715 0.3648216214 
node 1 1 1 3
node 2 1 1 1
node 3 1 1 1
node 4 1 1 1
node 5 1 1 1
node 6 1 1 1
node 7 1 1 1
node 8 1 1 1
node 9 1 1 1
node 10 1 1 1
node 11 1 1 1
node 12 1 0 0
node 13 1 0 2
node 14 1 0 2
gene 1 1 12 0.8801766008 0 1 0.8801766008 1
gene 1 2 12 -0.3287139424 0 2 -0.3287139424 1
gene 1 3 12 0.3626464164 0 3 0.3626464164 1
gene 1 4 12 -0.3328106617 0 4 -0.3328106617 1
gene 1 5 12 -0.6681003891 0 5 -0.6681003891 1
gene 1 6 12 -0.5891046493 0 6 -0.5891046493 1
gene 1 7 12 -1.7983552 0 7 -1.7983552 1
gene 1 8 12 1.463289095 0 8 1.463289095 1
gene 1 9 12 0.8477356817 0 9 0.8477356817 1
gene 1 10 12 -0.2677108989 0 10 -0.2677108989 1
gene 1 11 12 -0.5370283338 0 11 -0.5370283338 0
gene 1 12 13 2.166958706 0 12 2.166958706 1
gene 1 12 14 -2.345971511 0 13 -2.345971511 1
gene 1 11 14 0.9662581724 0 20 0 0
gene 1 11 13 -0.2736725681 0 21 -0.2736725681 0
gene 1 14 14 1.211728773 1 22 1.211728773 1
gene 1 8 13 0.9222652222 0 23 0.9222652222 1
gene 1 12 12 0.8705805902 1 25 0.8705805902 1
gene 1 9 14 0.5929345948 0 28 0 0
gene 1 9 13 0.7842672182 0 36 0.7842672182 1
gene 1 10 14 0.5741981288 0 38 0.5741981288 0
gene 1 13 13 -1.476732742 1 74 -1.476732742 1
gene 1 14 12 0.3127930893 1 177 0.3127930893 1
genomeend 49487
/* Novelty: 0 Fitness: 261.0142212 Generation: 0 Indiv: 49737 */
/* Point: 27.58848953 58.8362236 27.58848953 58.8362236 */

/* Organism #49657 Fitness: 261.0142212 Error: 0 */
genomestart 49657
trait 1 0.2510685245 0.04206285897 0.4553334477 0.5010266613 0 0.2779474719 0 0.3449741771 
node 1 1 1 3
node 2 1 1 1
node 3 1 1 1
node 4 1 1 1
node 5 1 1 1
node 6 1 1 1
node 7 1 1 1
node 8 1 1 1
node 9 1 1 1
node 10 1 1 1
node 11 1 1 1
node 12 1 0 0
node 13 1 0 2
node 14 1 0 2
gene 1 1 12 0.8801766008 0 1 0.8801766008 1
gene 1 2 12 -0.3287139424 0 2 -0.3287139424 1
gene 1 3 12 0.3626464164 0 3 0.3626464164 1
gene 1 4 12 -0.3328106617 0 4 -0.3328106617 1
gene 1 5 12 -0.6681003891 0 5 -0.6681003891 1
gene 1 6 12 -0.5891046493 0 6 -0.5891046493 1
gene 1 7 12 -1.7983552 0 7 -1.7983552 1
gene 1 8 12 1.463289095 0 8 1.463289095 1
gene 1 9 12 0.8477356817 0 9 0.8477356817 0
gene 1 10 12 -0.2677108989 0 10 -0.2677108989 1
gene 1 11 12 -0.5370283338 0 11 -0.5370283338 0
gene 1 12 13 2.166958706 0 12 2.166958706 1
gene 1 12 14 -2.345971511 0 13 -2.345971511 1
gene 1 11 14 0.9662581724 0 20 0 0
gene 1 11 13 -0.2736725681 0 21 -0.2736725681 0
gene 1 14 14 1.211728773 1 22 1.211728773 1
gene 1 8 13 0.9222652222 0 23 0.9222652222 1
gene 1 12 12 0.8705805902 1 25 0.8705805902 1
gene 1 9 14 0.5929345948 0 28 0 0
gene 1 9 13 0.7842672182 0 36 0.7842672182 1
gene 1 10 14 0.5741981288 0 38 0.5741981288 0
gene 1 13 13 -1.476732742 1 74 -1.476732742 1
gene 1 14 12 0.3127930893 1 177 0.3127930893 1
genomeend 49657
/* Novelty: 0 Fitness: 261.0142212 Generation: 0 Indiv: 49907 */
/* Point: 27.58848953 58.8362236 27.58848953 58.8362236 */

/* Organism #49724 Fitness: 261.0142212 Error: 0 */
genomestart 49724
trait 1 0.6294759185 0.1749045784 0.5928072937 0.5311102637 0.01187780013 0.4631246563 0.7336127255 0.2711295468 
node 1 1 1 3
node 2 1 1 1
node 3 1 1 1
node 4 1 1 1
node 5 1 1 1
node 6 1 1 1
node 7 1 1 1
node 8 1 1 1
node 9 1 1 1
node 10 1 1 1
node 11 1 1 1
node 12 1 0 0
node 13 1 0 2
node 14 1 0 2
gene 1 1 12 0.8801766008 0 1 0.8801766008 1
gene 1 2 12 -0.3287139424 0 2 -0.3287139424 1
gene 1 3 12 0.3626464164 0 3 0.3626464164 1
gene 1 4 12 -0.3328106617 0 4 -0.3328106617 1
gene 1 5 12 -0.6681003891 0 5 -0.6681003891 1
gene 1 6 12 -0.5891046493 0 6 -0.5891046493 1
gene 1 7 12 -1.7983552 0 7 -1.7983552 1
gene 1 8 12 1.463289095 0 8 1.463289095 1
gene 1 9 12 0.8477356817 0 9 0.8477356817 0
gene 1 10 12 -0.2677108989 0 10 -0.2677108989 1
gene 1 11 12 -0.5370283338 0 11 -0.5370283338 1
gene 1 12 13 2.166958706 0 12 2.166958706 1
gene 1 12 14 -2.345971511 0 13 -2.345971511 1
gene 1 11 14 0.9662581724 0 20 0 0
gene 1 11 13 -0.2736725681 0 21 -0.2736725681 0
gene 1 14 14 1.211728773 1 22 1.211728773 1
gene 1 8 13 0.9222652222 0 23 0.9222652222 1
gene 1 12 12 0.8705805902 1 25 0.8705805902 1
gene 1 9 14 0.5929345948 0 28 0 0
gene 1 9 13 0.7842672182 0 36 0.7842672182 1
gene 1 10 14 0.5741981288 0 38 0.5741981288 0
gene 1 13 13 -1.476732742 1 74 -1.476732742 1
gene 1 14 12 0.3127930893 1 177 0.3127930893 1
genomeend 49724
/* Novelty: 0 Fitness: 261.0142212 Generation: 0 Indiv: 49974 */
/* Point: 27.58848953 58.8362236 27.58848953 58.8362236 */

/* Organism #49740 Fitness: 261.0142212 Error: 0 */
genomestart 49740
trait 1 0.3123920402 0.05076404344 0.4445028683 0.4995664106 0.02406319377 0.2680882889 0.3416688083 0.2862031887 
node 1 1 1 3
node 2 1 1 1
node 3 1 1 1
node 4 1 1 1
node 5 1 1 1
node 6 1 1 1
node 7 1 1 1
node 8 1 1 1
node 9 1 1 1
node 10 1 1 1
node 11 1 1 1
node 12 1 0 0
node 13 1 0 2
node 14 1 0 2
gene 1 1 12 0.8801766008 0 1 0.8801766008 1
gene 1 2 12 -0.3287139424 0 2 -0.3287139424 1
gene 1 3 12 0.3626464164 0 3 0.3626464164 1
gene 1 4 12 -0.3328106617 0 4 -0.3328106617 1
gene 1 5 12 -0.6681003891 0 5 -0.6681003891 1
gene 1 6 12 -0.5891046493 0 6 -0.5891046493 1
gene 1 7 12 -1.7983552 0 7 -1.7983552 1
gene 1 8 12 1.463289095 0 8 1.463289095 1
gene 1 9 12 0.8477356817 0 9 0.8477356817 0
gene 1 10 12 -0.2677108989 0 10 -0.2677108989 1
gene 1 11 12 -0.5370283338 0 11 -0.5370283338 0
gene 1 12 13 2.166958706 0 12 2.166958706 1
gene 1 12 14 -2.345971511 0 13 -2.345971511 1
gene 1 11 14 0.9662581724 0 20 0 0
gene 1 11 13 -0.2736725681 0 21 -0.2736725681 0
gene 1 14 14 1.211728773 1 22 1.211728773 1
gene 1 8 13 0.9222652222 0 23 0.9222652222 1
gene 1 12 12 0.8705805902 1 25 0.8705805902 1
gene 1 9 14 0.5929345948 0 28 0 0
gene 1 9 13 0.7842672182 0 36 0.7842672182 1
gene 1 10 14 0.5741981288 0 38 0.5741981288 0
gene 1 13 13 -1.476732742 1 74 -1.476732742 1
gene 1 14 12 0.3127930893 1 177 0.3127930893 1
genomeend 49740
/* Novelty: 0 Fitness: 261.0142212 Generation: 0 Indiv: 49990 */
/* Point: 27.58848953 58.8362236 27.58848953 58.8362236 */

/* Organism #49747 Fitness: 261.0142212 Error: 0 */
genomestart 49747
trait 1 0.2510685245 0.04206285897 0.4553334477 0.5010266613 0 0.2779474719 0 0.3449741771 
node 1 1 1 3
node 2 1 1 1
node 3 1 1 1
node 4 1 1 1
node 5 1 1 1
node 6 1 1 1
node 7 1 1 1
node 8 1 1 1
node 9 1 1 1
node 10 1 1 1
node 11 1 1 1
node 12 1 0 0
node 13 1 0 2
node 14 1 0 2
gene 1 1 12 0.8801766008 0 1 0.8801766008 1
gene 1 2 12 -0.3287139424 0 2 -0.3287139424 1
gene 1 3 12 0.3626464164 0 3 0.3626464164 1
gene 1 4 12 -0.3328106617 0 4 -0.3328106617 1
gene 1 5 12 -0.6681003891 0 5 -0.6681003891 1
gene 1 6 12 -0.5891046493 0 6 -0.5891046493 1
gene 1 7 12 -1.7983552 0 7 -1.7983552 1
gene 1 8 12 1.463289095 0 8 1.463289095 1
gene 1 9 12 0.8477356817 0 9 0.8477356817 0
gene 1 10 12 -0.2677108989 0 10 -0.2677108989 1
gene 1 11 12 -0.5370283338 0 11 -0.5370283338 0
gene 1 12 13 2.166958706 0 12 2.166958706 1
gene 1 12 14 -2.345971511 0 13 -2.345971511 1
gene 1 11 14 0.9662581724 0 20 0 0
gene 1 11 13 -0.2736725681 0 21 -0.2736725681 0
gene 1 14 14 1.211728773 1 22 1.211728773 1
gene 1 8 13 0.9222652222 0 23 0.9222652222 1
gene 1 12 12 0.8705805902 1 25 0.8705805902 1
gene 1 9 14 0.5929345948 0 28 0 0
gene 1 9 13 0.7842672182 0 36 0.7842672182 1
gene 1 10 14 0.5741981288 0 38 0.5741981288 0
gene 1 13 13 -1.476732742 1 74 -1.476732742 1
gene 1 14 12 0.3127930893 1 177 0.3127930893 1
genomeend 49747
/* Novelty: 0 Fitness: 261.0142212 Generation: 0 Indiv: 49997 */
/* Point: 27.58848953 58.8362236 27.58848953 58.8362236 */

/* Organism #49749 Fitness: 261.0142212 Error: 0 */
genomestart 49749
trait 1 0.4667262929 0.07647132438 0.543582421 0.4977043334 0.06925012172 0.2080315894 0.7535294011 0.1786776504 
node 1 1 1 3
node 2 1 1 1
node 3 1 1 1
node 4 1 1 1
node 5 1 1 1
node 6 1 1 1
node 7 1 1 1
node 8 1 1 1
node 9 1 1 1
node 10 1 1 1
node 11 1 1 1
node 12 1 0 0
node 13 1 0 2
node 14 1 0 2
gene 1 1 12 0.8801766008 0 1 0.8801766008 1
gene 1 2 12 -0.3287139424 0 2 -0.3287139424 1
gene 1 3 12 0.3626464164 0 3 0.3626464164 1
gene 1 4 12 -0.3328106617 0 4 -0.3328106617 1
gene 1 5 12 -0.6681003891 0 5 -0.6681003891 1
gene 1 6 12 -0.5891046493 0 6 -0.5891046493 1
gene 1 7 12 -1.7983552 0 7 -1.7983552 1
gene 1 8 12 1.463289095 0 8 1.463289095 1
gene 1 9 12 0.8477356817 0 9 0.8477356817 0
gene 1 10 12 -0.2677108989 0 10 -0.2677108989 1
gene 1 11 12 -0.5370283338 0 11 -0.5370283338 1
gene 1 12 13 2.166958706 0 12 2.166958706 1
gene 1 12 14 -2.345971511 0 13 -2.345971511 1
gene 1 11 14 0.9662581724 0 20 0 0
gene 1 11 13 -0.2736725681 0 21 -0.2736725681 0
gene 1 14 14 1.211728773 1 22 1.211728773 1
gene 1 8 13 0.9222652222 0 23 0.9222652222 1
gene 1 12 12 0.8705805902 1 25 0.8705805902 1
gene 1 9 14 0.5929345948 0 28 0 0
gene 1 9 13 0.7842672182 0 36 0.7842672182 1
gene 1 10 14 0.5741981288 0 38 0.5741981288 0
gene 1 13 13 -1.476732742 1 74 -1.476732742 1
gene 1 14 12 0.3127930893 1 177 0.3127930893 1
genomeend 49749
/* Novelty: 0 Fitness: 261.0142212 Generation: 0 Indiv: 49999 */
/* Point: 27.58848953 58.8362236 27.58848953 58.8362236 */

/* Organism #49811 Fitness: 261.0142212 Error: 0 */
genomestart 49811
trait 1 0.303581072 0.103071843 0.5713099161 0.3297133569 0.02827381958 0.2798642595 0.8779672592 0.2500850225 
node 1 1 1 3
node 2 1 1 1
node 3 1 1 1
node 4 1 1 1
node 5 1 1 1
node 6 1 1 1
node 7 1 1 1
node 8 1 1 1
node 9 1 1 1
node 10 1 1 1
node 11 1 1 1
node 12 1 0 0
node 13 1 0 2
node 14 1 0 2
gene 1 1 12 0.8801766008 0 1 0.8801766008 1
gene 1 2 12 -0.3287139424 0 2 -0.3287139424 1
gene 1 3 12 0.3626464164 0 3 0.3626464164 1
gene 1 4 12 -0.3328106617 0 4 -0.3328106617 1
gene 1 5 12 -0.6681003891 0 5 -0.6681003891 1
gene 1 6 12 -0.5891046493 0 6 -0.5891046493 1
gene 1 7 12 -1.7983552 0 7 -1.7983552 1
gene 1 8 12 1.463289095 0 8 1.463289095 1
gene 1 9 12 0.8477356817 0 9 0.8477356817 0
gene 1 10 12 -0.2677108989 0 10 -0.2677108989 1
gene 1 11 12 -0.5370283338 0 11 -0.5370283338 0
gene 1 12 13 2.166958706 0 12 2.166958706 1
gene 1 12 14 -2.345971511 0 13 -2.345971511 1
gene 1 11 14 0.9662581724 0 20 0 0
gene 1 11 13 -0.2736725681 0 21 -0.2736725681 0
gene 1 14 14 1.211728773 1 22 1.211728773 1
gene 1 8 13 0.9222652222 0 23 0.9222652222 1
gene 1 12 12 0.8705805902 1 25 0.8705805902 1
gene 1 9 14 0.5929345948 0 28 0 0
gene 1 9 13 0.7842672182 0 36 0.7842672182 1
gene 1 10 14 0.5741981288 0 38 0.5741981288 0
gene 1 13 13 -1.476732742 1 74 -1.476732742 1
gene 1 14 12 0.3127930893 1 177 0.3127930893 1
genomeend 49811
/* Novelty: 0 Fitness: 261.0142212 Generation: 0 Indiv: 50061 */
/* Point: 27.58848953 58.8362236 27.58848953 58.8362236 */

/* Organism #49830 Fitness: 261.0142212 Error: 0 */
genomestart 49830
trait 1 0.4667262929 0.07647132438 0.543582421 0.4977043334 0.06925012172 0.2080315894 0.7535294011 0.1786776504 
node 1 1 1 3
node 2 1 1 1
node 3 1 1 1
node 4 1 1 1
node 5 1 1 1
node 6 1 1 1
node 7 1 1 1
node 8 1 1 1
node 9 1 1 1
node 10 1 1 1
node 11 1 1 1
node 12 1 0 0
node 13 1 0 2
node 14 1 0 2
gene 1 1 12 0.8801766008 0 1 0.8801766008 1
gene 1 2 12 -0.3287139424 0 2 -0.3287139424 1
gene 1 3 12 0.3626464164 0 3 0.3626464164 1
gene 1 4 12 -0.3328106617 0 4 -0.3328106617 1
gene 1 5 12 -0.6681003891 0 5 -0.6681003891 1
gene 1 6 12 -0.5891046493 0 6 -0.5891046493 1
gene 1 7 12 -1.7983552 0 7 -1.7983552 1
gene 1 8 12 1.463289095 0 8 1.463289095 1
gene 1 9 12 0.8477356817 0 9 0.8477356817 0
gene 1 10 12 -0.2677108989 0 10 -0.2677108989 1
gene 1 11 12 -0.5370283338 0 11 -0.5370283338 0
gene 1 12 13 2.166958706 0 12 2.166958706 1
gene 1 12 14 -2.345971511 0 13 -2.345971511 1
gene 1 11 14 0.9662581724 0 20 0 1
gene 1 11 13 -0.2736725681 0 21 -0.2736725681 0
gene 1 14 14 1.211728773 1 22 1.211728773 1
gene 1 8 13 0.9222652222 0 23 0.9222652222 1
gene 1 12 12 0.8705805902 1 25 0.8705805902 1
gene 1 9 14 0.5929345948 0 28 0 0
gene 1 9 13 0.7842672182 0 36 0.7842672182 1
gene 1 10 14 0.5741981288 0 38 0.5741981288 0
gene 1 13 13 -1.476732742 1 74 -1.476732742 1
gene 1 14 12 0.3127930893 1 177 0.3127930893 1
genomeend 49830
/* Novelty: 0 Fitness: 261.0142212 Generation: 0 Indiv: 50080 */
/* Point: 27.58848953 58.8362236 27.58848953 58.8362236 */

/* Organism #49850 Fitness: 261.0142212 Error: 0 */
genomestart 49850
trait 1 0.303581072 0.103071843 0.5713099161 0.3297133569 0.02827381958 0.2798642595 0.8779672592 0.2500850225 
node 1 1 1 3
node 2 1 1 1
node 3 1 1 1
node 4 1 1 1
node 5 1 1 1
node 6 1 1 1
node 7 1 1 1
node 8 1 1 1
node 9 1 1 1
node 10 1 1 1
node 11 1 1 1
node 12 1 0 0
node 13 1 0 2
node 14 1 0 2
gene 1 1 12 0.8801766008 0 1 0.8801766008 1
gene 1 2 12 -0.3287139424 0 2 -0.3287139424 1
gene 1 3 12 0.3626464164 0 3 0.3626464164 1
gene 1 4 12 -0.3328106617 0 4 -0.3328106617 1
gene 1 5 12 -0.6681003891 0 5 -0.6681003891 1
gene 1 6 12 -0.5891046493 0 6 -0.5891046493 1
gene 1 7 12 -1.7983552 0 7 -1.7983552 1
gene 1 8 12 1.463289095 0 8 1.463289095 1
gene 1 9 12 0.8477356817 0 9 0.8477356817 0
gene 1 10 12 -0.2677108989 0 10 -0.2677108989 1
gene 1 11 12 -0.5370283338 0 11 -0.5370283338 1
gene 1 12 13 2.166958706 0 12 2.166958706 1
gene 1 12 14 -2.345971511 0 13 -2.345971511 1
gene 1 11 14 0.9662581724 0 20 0 0
gene 1 11 13 -0.2736725681 0 21 -0.2736725681 1
gene 1 14 14 1.211728773 1 22 1.211728773 1
gene 1 8 13 0.9222652222 0 23 0.9222652222 1
gene 1 12 12 0.8705805902 1 25 0.8705805902 1
gene 1 9 14 0.5929345948 0 28 0 1
gene 1 9 13 0.7842672182 0 36 0.7842672182 1
gene 1 10 14 0.5741981288 0 38 0.5741981288 0
gene 1 13 13 -1.476732742 1 74 -1.476732742 1
gene 1 14 12 0.3127930893 1 177 0.3127930893 1
genomeend 49850
/* Novelty: 0 Fitness: 261.0142212 Generation: 0 Indiv: 50100 */
/* Point: 27.58848953 58.8362236 27.58848953 58.8362236 */

/* Organism #49966 Fitness: 261.0142212 Error: 0 */
genomestart 49966
trait 1 0.2597430275 0.09974161148 0.5802191317 0.3313906197 0.02545790229 0.2723978387 0.8892592852 0.2145405565 
node 1 1 1 3
node 2 1 1 1
node 3 1 1 1
node 4 1 1 1
node 5 1 1 1
node 6 1 1 1
node 7 1 1 1
node 8 1 1 1
node 9 1 1 1
node 10 1 1 1
node 11 1 1 1
node 12 1 0 0
node 13 1 0 2
node 14 1 0 2
gene 1 1 12 0.8801766008 0 1 0.8801766008 1
gene 1 2 12 -0.3287139424 0 2 -0.3287139424 1
gene 1 3 12 0.3626464164 0 3 0.3626464164 1
gene 1 4 12 -0.3328106617 0 4 -0.3328106617 1
gene 1 5 12 -0.6681003891 0 5 -0.6681003891 1
gene 1 6 12 -0.5891046493 0 6 -0.5891046493 1
gene 1 7 12 -1.7983552 0 7 -1.7983552 1
gene 1 8 12 1.463289095 0 8 1.463289095 1
gene 1 9 12 0.8477356817 0 9 0.8477356817 0
gene 1 10 12 -0.2677108989 0 10 -0.2677108989 1
gene 1 11 12 -0.5370283338 0 11 -0.5370283338 1
gene 1 12 13 2.166958706 0 12 2.166958706 1
gene 1 12 14 -2.345971511 0 13 -2.345971511 1
gene 1 11 14 0.9662581724 0 20 0 1
gene 1 11 13 -0.2736725681 0 21 -0.2736725681 0
gene 1 14 14 1.211728773 1 22 1.211728773 1
gene 1 8 13 0.9222652222 0 23 0.9222652222 1
gene 1 12 12 0.8705805902 1 25 0.8705805902 1
gene 1 9 14 0.5929345948 0 28 0 0
gene 1 9 13 0.7842672182 0 36 0.7842672182 1
gene 1 10 14 0.5741981288 0 38 0.5741981288 0
gene 1 13 13 -1.476732742 1 74 -1.476732742 1
gene 1 14 12 0.3127930893 1 177 0.3127930893 1
genomeend 49966
/* Novelty: 0 Fitness: 261.0142212 Generation: 0 Indiv: 50216 */
/* Point: 27.58848953 58.8362236 27.58848953 58.8362236 */

/* Species #4 : (Size 15) (AF 0) (Age 1)  */


/* Organism #48826 Fitness: 260.9750366 Error: 0 */
genomestart 48826
trait 1 0.3689198484 0.4738529092 0.2507566325 0.493920127 0.4484515891 0.351765825 0.4502839236 0.2427606287 
node 1 1 1 3
node 2 1 1 1
node 3 1 1 1
node 4 1 1 1
node 5 1 1 1
node 6 1 1 1
node 7 1 1 1
node 8 1 1 1
node 9 1 1 1
node 10 1 1 1
node 11 1 1 1
node 12 1 0 0
node 13 1 0 2
node 14 1 0 2
node 19 1 0 0
node 25 1 0 0
node 53 1 0 0
gene 1 1 12 0.1402567506 0 1 0.1402567506 1
gene 1 2 12 -0.7164208591 0 2 -0.7164208591 1
gene 1 3 12 -0.8703487004 0 3 -0.8703487004 1
gene 1 4 12 -0.9492427834 0 4 -0.9492427834 1
gene 1 5 12 0.003127472942 0 5 0.003127472942 1
gene 1 6 12 0.6630948763 0 6 0.6630948763 0
gene 1 7 12 -0.1399672703 0 7 -0.1399672703 1
gene 1 8 12 -1.473551419 0 8 -1.473551419 1
gene 1 9 12 -0.7100574565 0 9 -0.7100574565 1
gene 1 10 12 0.3871480862 0 10 0.3871480862 1
gene 1 11 12 0.8912487738 0 11 0.8912487738 0
gene 1 12 13 0.3101497369 0 12 0.3101497369 1
gene 1 12 14 -0.3700978653 0 13 -0.3700978653 1
gene 1 11 14 0.9662581724 0 20 0 1
gene 1 11 13 -0.2584925048 0 21 0 0
gene 1 10 19 0.3426929159 0 50 0.3426929159 1
gene 1 19 12 0.07867938256 0 51 0.07867938256 1
gene 1 5 14 0.01787209512 0 60 0.01787209512 1
gene 1 12 12 0.1294627682 1 73 0.1294627682 1
gene 1 6 25 0.7394092194 0 91 0.7394092194 1
gene 1 25 12 0.03826884808 0 92 0.03826884808 1
gene 1 8 19 -0.7399530521 0 101 0 1
gene 1 6 19 -0.406014261 0 113 0 0
gene 1 4 19 0.1913574946 0 132 0.1913574946 1
gene 1 3 19 -0.7320855977 0 231 -0.7320855977 1
gene 1 9 25 0.0473545748 0 236 0 1
gene 1 11 25 0.921749271 0 526 0 1
gene 1 6 53 1 0 652 0 1
gene 1 53 19 -0.1218042783 0 653 0 1
gene 1 9 53 -0.1781597599 0 683 -0.1781597599 1
gene 1 11 53 -0.8954316182 0 744 -0.8954316182 0
gene 1 53 53 0.5168385694 1 861 0.5168385694 1
genomeend 48826
/* Novelty: 0 Fitness: 260.9750366 Generation: 0 Indiv: 49076 */
/* Point: 28.73694229 58.95928955 28.73694229 58.95928955 */

/* Organism #48908 Fitness: 260.9750366 Error: 0 */
genomestart 48908
trait 1 0.4374969324 0.4308045108 0.2467244894 0.4436806021 0.40152329 0.4200885309 0.5814255289 0.146325674 
node 1 1 1 3
node 2 1 1 1
node 3 1 1 1
node 4 1 1 1
node 5 1 1 1
node 6 1 1 1
node 7 1 1 1
node 8 1 1 1
node 9 1 1 1
node 10 1 1 1
node 11 1 1 1
node 12 1 0 0
node 13 1 0 2
node 14 1 0 2
node 19 1 0 0
node 25 1 0 0
node 53 1 0 0
gene 1 1 12 0.1402567506 0 1 0.1402567506 1
gene 1 2 12 -0.7164208591 0 2 -0.7164208591 1
gene 1 3 12 -0.8703487004 0 3 -0.8703487004 1
gene 1 4 12 -0.9492427834 0 4 -0.9492427834 1
gene 1 5 12 0.003127472942 0 5 0.003127472942 1
gene 1 6 12 0.6630948763 0 6 0.6630948763 0
gene 1 7 12 -0.1399672703 0 7 -0.1399672703 1
gene 1 8 12 -1.473551419 0 8 -1.473551419 1
gene 1 9 12 -0.7100574565 0 9 -0.7100574565 1
gene 1 10 12 0.3871480862 0 10 0.3871480862 1
gene 1 11 12 0.8912487738 0 11 0.8912487738 0
gene 1 12 13 0.3101497369 0 12 0.3101497369 1
gene 1 12 14 -0.3700978653 0 13 -0.3700978653 1
gene 1 11 14 0.9662581724 0 20 0 1
gene 1 11 13 -0.2584925048 0 21 0 0
gene 1 10 19 0.3426929159 0 50 0.3426929159 1
gene 1 19 12 0.07867938256 0 51 0.07867938256 1
gene 1 5 14 0.01787209512 0 60 0.01787209512 1
gene 1 12 12 0.1294627682 1 73 0.1294627682 1
gene 1 6 25 0.7394092194 0 91 0.7394092194 1
gene 1 25 12 0.03826884808 0 92 0.03826884808 1
gene 1 8 19 -0.7399530521 0 101 0 1
gene 1 6 19 -0.406014261 0 113 0 0
gene 1 4 19 0.1913574946 0 132 0.1913574946 1
gene 1 3 19 -0.7320855977 0 231 -0.7320855977 1
gene 1 9 25 0.0473545748 0 236 0 1
gene 1 11 25 0.921749271 0 526 0 1
gene 1 6 53 1 0 652 0 1
gene 1 53 19 -0.1218042783 0 653 0 1
gene 1 9 53 -0.1781597599 0 683 -0.1781597599 1
gene 1 11 53 -0.8954316182 0 744 -0.8954316182 0
gene 1 53 53 0.5168385694 1 861 0.5168385694 1
genomeend 48908
/* Novelty: 0 Fitness: 260.9750366 Generation: 0 Indiv: 49158 */
/* Point: 28.73694229 58.95928955 28.73694229 58.95928955 */

/* Organism #48934 Fitness: 260.9750366 Error: 0 */
genomestart 48934
trait 1 0.4533045159 0.4642865984 0.2265314812 0.3894583389 0.3621583309 0.4690211001 0.4239162056 0.2956720135 
node 1 1 1 3
node 2 1 1 1
node 3 1 1 1
node 4 1 1 1
node 5 1 1 1
node 6 1 1 1
node 7 1 1 1
node 8 1 1 1
node 9 1 1 1
node 10 1 1 1
node 11 1 1 1
node 12 1 0 0
node 13 1 0 2
node 14 1 0 2
node 19 1 0 0
node 25 1 0 0
node 53 1 0 0
gene 1 1 12 0.1402567506 0 1 0.1402567506 1
gene 1 2 12 -0.7164208591 0 2 -0.7164208591 1
gene 1 3 12 -0.8703487004 0 3 -0.8703487004 1
gene 1 4 12 -0.9492427834 0 4 -0.9492427834 1
gene 1 5 12 0.003127472942 0 5 0.003127472942 1
gene 1 6 12 0.6630948763 0 6 0.6630948763 0
gene 1 7 12 -0.1399672703 0 7 -0.1399672703 1
gene 1 8 12 -1.473551419 0 8 -1.473551419 1
gene 1 9 12 -0.7100574565 0 9 -0.7100574565 1
gene 1 10 12 0.3871480862 0 10 0.3871480862 1
gene 1 11 12 0.8912487738 0 11 0.8912487738 0
gene 1 12 13 0.3101497369 0 12 0.3101497369 1
gene 1 12 14 -0.3700978653 0 13 -0.3700978653 1
gene 1 11 14 0.9662581724 0 20 0 1
gene 1 11 13 -0.2584925048 0 21 0 0
gene 1 10 19 0.3426929159 0 50 0.3426929159 1
gene 1 19 12 0.07867938256 0 51 0.07867938256 1
gene 1 5 14 0.01787209512 0 60 0.01787209512 1
gene 1 12 12 0.1294627682 1 73 0.1294627682 1
gene 1 6 25 0.7394092194 0 91 0.7394092194 1
gene 1 25 12 0.03826884808 0 92 0.03826884808 1
gene 1 8 19 -0.7399530521 0 101 0 1
gene 1 6 19 -0.406014261 0 113 0 0
gene 1 4 19 0.1913574946 0 132 0.1913574946 1
gene 1 3 19 -0.7320855977 0 231 -0.7320855977 1
gene 1 9 25 0.0473545748 0 236 0 1
gene 1 11 25 0.921749271 0 526 0 1
gene 1 6 53 1 0 652 0 1
gene 1 53 19 -0.1218042783 0 653 0 1
gene 1 9 53 -0.1781597599 0 683 -0.1781597599 1
gene 1 11 53 -0.8954316182 0 744 -0.8954316182 0
gene 1 53 53 0.5168385694 1 861 0.5168385694 1
genomeend 48934
/* Novelty: 0 Fitness: 260.9750366 Generation: 0 Indiv: 49184 */
/* Point: 28.73694229 58.95928955 28.73694229 58.95928955 */

/* Organism #49115 Fitness: 260.9750366 Error: 0 */
genomestart 49115
trait 1 0.2971561849 0.4642865984 0.287379905 0.5882365459 0.5341145689 0.2326266531 0.510098628 0.1290603773 
node 1 1 1 3
node 2 1 1 1
node 3 1 1 1
node 4 1 1 1
node 5 1 1 1
node 6 1 1 1
node 7 1 1 1
node 8 1 1 1
node 9 1 1 1
node 10 1 1 1
node 11 1 1 1
node 12 1 0 0
node 13 1 0 2
node 14 1 0 2
node 19 1 0 0
node 25 1 0 0
node 53 1 0 0
gene 1 1 12 0.1402567506 0 1 0.1402567506 1
gene 1 2 12 -0.7164208591 0 2 -0.7164208591 1
gene 1 3 12 -0.8703487004 0 3 -0.8703487004 1
gene 1 4 12 -0.9492427834 0 4 -0.9492427834 1
gene 1 5 12 0.003127472942 0 5 0.003127472942 1
gene 1 6 12 0.6630948763 0 6 0.6630948763 0
gene 1 7 12 -0.1399672703 0 7 -0.1399672703 1
gene 1 8 12 -1.473551419 0 8 -1.473551419 1
gene 1 9 12 -0.7100574565 0 9 -0.7100574565 1
gene 1 10 12 0.3871480862 0 10 0.3871480862 1
gene 1 11 12 0.8912487738 0 11 0.8912487738 1
gene 1 12 13 0.3101497369 0 12 0.3101497369 1
gene 1 12 14 -0.3700978653 0 13 -0.3700978653 1
gene 1 11 14 0.9662581724 0 20 0 1
gene 1 11 13 -0.2584925048 0 21 0 0
gene 1 10 19 0.3426929159 0 50 0.3426929159 1
gene 1 19 12 0.07867938256 0 51 0.07867938256 1
gene 1 5 14 0.01787209512 0 60 0.01787209512 1
gene 1 12 12 0.1294627682 1 73 0.1294627682 1
gene 1 6 25 0.7394092194 0 91 0.7394092194 1
gene 1 25 12 0.03826884808 0 92 0.03826884808 1
gene 1 8 19 -0.7399530521 0 101 0 1
gene 1 6 19 -0.406014261 0 113 0 0
gene 1 4 19 0.1913574946 0 132 0.1913574946 1
gene 1 3 19 -0.7320855977 0 231 -0.7320855977 1
gene 1 9 25 0.0473545748 0 236 0 1
gene 1 11 25 0.921749271 0 526 0 1
gene 1 6 53 1 0 652 0 1
gene 1 53 19 -0.1218042783 0 653 0 1
gene 1 9 53 -0.1781597599 0 683 -0.1781597599 1
gene 1 11 53 -0.8954316182 0 744 -0.8954316182 0
gene 1 53 53 0.5168385694 1 861 0.5168385694 1
genomeend 49115
/* Novelty: 0 Fitness: 260.9750366 Generation: 0 Indiv: 49365 */
/* Point: 28.73694229 58.95928955 28.73694229 58.95928955 */

/* Organism #49193 Fitness: 260.9750366 Error: 0 */
genomestart 49193
trait 1 0.7179189483 0.4499371323 0.1535175517 0.2094279576 0.6969182203 0.3782015141 0.4022098976 0.2414477151 
node 1 1 1 3
node 2 1 1 1
node 3 1 1 1
node 4 1 1 1
node 5 1 1 1
node 6 1 1 1
node 7 1 1 1
node 8 1 1 1
node 9 1 1 1
node 10 1 1 1
node 11 1 1 1
node 12 1 0 0
node 13 1 0 2
node 14 1 0 2
node 19 1 0 0
node 25 1 0 0
node 53 1 0 0
gene 1 1 12 0.1402567506 0 1 0.1402567506 1
gene 1 2 12 -0.7164208591 0 2 -0.7164208591 1
gene 1 3 12 -0.8703487004 0 3 -0.8703487004 1
gene 1 4 12 -0.9492427834 0 4 -0.9492427834 1
gene 1 5 12 0.003127472942 0 5 0.003127472942 1
gene 1 6 12 0.6630948763 0 6 0.6630948763 0
gene 1 7 12 -0.1399672703 0 7 -0.1399672703 1
gene 1 8 12 -1.473551419 0 8 -1.473551419 1
gene 1 9 12 -0.7100574565 0 9 -0.7100574565 1
gene 1 10 12 0.3871480862 0 10 0.3871480862 1
gene 1 11 12 0.8912487738 0 11 0.8912487738 0
gene 1 12 13 0.3101497369 0 12 0.3101497369 1
gene 1 12 14 -0.3700978653 0 13 -0.3700978653 1
gene 1 11 14 0.9662581724 0 20 0 1
gene 1 11 13 -0.2584925048 0 21 0 0
gene 1 10 19 0.3426929159 0 50 0.3426929159 1
gene 1 19 12 0.07867938256 0 51 0.07867938256 1
gene 1 5 14 0.01787209512 0 60 0.01787209512 1
gene 1 12 12 0.1294627682 1 73 0.1294627682 1
gene 1 6 25 0.7394092194 0 91 0.7394092194 1
gene 1 25 12 0.03826884808 0 92 0.03826884808 1
gene 1 8 19 -0.7399530521 0 101 0 1
gene 1 6 19 -0.406014261 0 113 0 0
gene 1 4 19 0.1913574946 0 132 0.1913574946 1
gene 1 3 19 -0.7320855977 0 231 -0.7320855977 1
gene 1 9 25 0.0473545748 0 236 0 1
gene 1 11 25 0.921749271 0 526 0 1
gene 1 6 53 1 0 652 0 1
gene 1 53 19 -0.1218042783 0 653 0 1
gene 1 9 53 -0.1781597599 0 683 -0.1781597599 1
gene 1 11 53 -0.8954316182 0 744 -0.8954316182 0
gene 1 53 53 0.5168385694 1 861 0.5168385694 1
genomeend 49193
/* Novelty: 0 Fitness: 260.9750366 Generation: 0 Indiv: 49443 */
/* Point: 28.73694229 58.95928955 28.73694229 58.95928955 */

/* Organism #49229 Fitness: 260.9750366 Error: 0 */
genomestart 49229
trait 1 0.6644204443 0.4666781761 0.1321988895 0.2636573737 0.7436862061 0.3813080498 0.3897555301 0.285398223 
node 1 1 1 3
node 2 1 1 1
node 3 1 1 1
node 4 1 1 1
node 5 1 1 1
node 6 1 1 1
node 7 1 1 1
node 8 1 1 1
node 9 1 1 1
node 10 1 1 1
node 11 1 1 1
node 12 1 0 0
node 13 1 0 2
node 14 1 0 2
node 19 1 0 0
node 25 1 0 0
node 53 1 0 0
gene 1 1 12 0.1402567506 0 1 0.1402567506 1
gene 1 2 12 -0.7164208591 0 2 -0.7164208591 1
gene 1 3 12 -0.8703487004 0 3 -0.8703487004 1
gene 1 4 12 -0.9492427834 0 4 -0.9492427834 1
gene 1 5 12 0.003127472942 0 5 0.003127472942 1
gene 1 6 12 0.6630948763 0 6 0.6630948763 0
gene 1 7 12 -0.1399672703 0 7 -0.1399672703 1
gene 1 8 12 -1.473551419 0 8 -1.473551419 1
gene 1 9 12 -0.7100574565 0 9 -0.7100574565 1
gene 1 10 12 0.3871480862 0 10 0.3871480862 1
gene 1 11 12 0.8912487738 0 11 0.8912487738 1
gene 1 12 13 0.3101497369 0 12 0.3101497369 1
gene 1 12 14 -0.3700978653 0 13 -0.3700978653 1
gene 1 11 14 0.9662581724 0 20 0 1
gene 1 11 13 -0.2584925048 0 21 0 1
gene 1 10 19 0.3426929159 0 50 0.3426929159 1
gene 1 19 12 0.07867938256 0 51 0.07867938256 1
gene 1 5 14 0.01787209512 0 60 0.01787209512 1
gene 1 12 12 0.1294627682 1 73 0.1294627682 1
gene 1 6 25 0.7394092194 0 91 0.7394092194 1
gene 1 25 12 0.03826884808 0 92 0.03826884808 1
gene 1 8 19 -0.7399530521 0 101 0 1
gene 1 6 19 -0.406014261 0 113 0 0
gene 1 4 19 0.1913574946 0 132 0.1913574946 1
gene 1 3 19 -0.7320855977 0 231 -0.7320855977 1
gene 1 9 25 0.0473545748 0 236 0 1
gene 1 11 25 0.921749271 0 526 0 1
gene 1 6 53 1 0 652 0 1
gene 1 53 19 -0.1218042783 0 653 0 1
gene 1 9 53 -0.1781597599 0 683 -0.1781597599 1
gene 1 11 53 -0.8954316182 0 744 -0.8954316182 0
gene 1 53 53 0.5168385694 1 861 0.5168385694 1
genomeend 49229
/* Novelty: 0 Fitness: 260.9750366 Generation: 0 Indiv: 49479 */
/* Point: 28.73694229 58.95928955 28.73694229 58.95928955 */

/* Organism #49284 Fitness: 260.9750366 Error: 0 */
genomestart 49284
trait 1 0.2971561849 0.2168322 1 0.5882365459 1 0.3204915243 0.510098628 0.1290603773 
node 1 1 1 3
node 2 1 1 1
node 3 1 1 1
node 4 1 1 1
node 5 1 1 1
node 6 1 1 1
node 7 1 1 1
node 8 1 1 1
node 9 1 1 1
node 10 1 1 1
node 11 1 1 1
node 12 1 0 0
node 13 1 0 2
node 14 1 0 2
node 19 1 0 0
node 25 1 0 0
node 53 1 0 0
gene 1 1 12 0.1402567506 0 1 0.1402567506 1
gene 1 2 12 -0.7164208591 0 2 -0.7164208591 1
gene 1 3 12 -0.8703487004 0 3 -0.8703487004 1
gene 1 4 12 -0.9492427834 0 4 -0.9492427834 1
gene 1 5 12 0.003127472942 0 5 0.003127472942 1
gene 1 6 12 0.6630948763 0 6 0.6630948763 0
gene 1 7 12 -0.1399672703 0 7 -0.1399672703 1
gene 1 8 12 -1.473551419 0 8 -1.473551419 1
gene 1 9 12 -0.7100574565 0 9 -0.7100574565 1
gene 1 10 12 0.3871480862 0 10 0.3871480862 1
gene 1 11 12 0.8912487738 0 11 0.8912487738 1
gene 1 12 13 0.3101497369 0 12 0.3101497369 1
gene 1 12 14 -0.3700978653 0 13 -0.3700978653 1
gene 1 11 14 0.9662581724 0 20 0 1
gene 1 11 13 -0.2584925048 0 21 0 0
gene 1 10 19 0.3426929159 0 50 0.3426929159 1
gene 1 19 12 0.07867938256 0 51 0.07867938256 1
gene 1 5 14 0.01787209512 0 60 0.01787209512 1
gene 1 12 12 0.1294627682 1 73 0.1294627682 1
gene 1 6 25 0.7394092194 0 91 0.7394092194 1
gene 1 25 12 0.03826884808 0 92 0.03826884808 1
gene 1 8 19 -0.7399530521 0 101 0 1
gene 1 6 19 -0.406014261 0 113 0 0
gene 1 4 19 0.1913574946 0 132 0.1913574946 1
gene 1 3 19 -0.7320855977 0 231 -0.7320855977 1
gene 1 9 25 0.0473545748 0 236 0 1
gene 1 11 25 0.921749271 0 526 0 1
gene 1 6 53 1 0 652 0 1
gene 1 53 19 -0.1218042783 0 653 0 1
gene 1 9 53 -0.1781597599 0 683 -0.1781597599 1
gene 1 11 53 -0.8954316182 0 744 -0.8954316182 0
gene 1 53 53 0.5168385694 1 861 0.5168385694 1
genomeend 49284
/* Novelty: 0 Fitness: 260.9750366 Generation: 0 Indiv: 49534 */
/* Point: 28.73694229 58.95928955 28.73694229 58.95928955 */

/* Organism #49464 Fitness: 260.9750366 Error: 0 */
genomestart 49464
trait 1 0.4074220381 0.4331960885 0.2733323961 0.4669788592 0.4342785576 0.3621578242 0.5092410101 0.1509208718 
node 1 1 1 3
node 2 1 1 1
node 3 1 1 1
node 4 1 1 1
node 5 1 1 1
node 6 1 1 1
node 7 1 1 1
node 8 1 1 1
node 9 1 1 1
node 10 1 1 1
node 11 1 1 1
node 12 1 0 0
node 13 1 0 2
node 14 1 0 2
node 19 1 0 0
node 25 1 0 0
node 53 1 0 0
gene 1 1 12 0.1402567506 0 1 0.1402567506 1
gene 1 2 12 -0.7164208591 0 2 -0.7164208591 1
gene 1 3 12 -0.8703487004 0 3 -0.8703487004 1
gene 1 4 12 -0.9492427834 0 4 -0.9492427834 1
gene 1 5 12 0.003127472942 0 5 0.003127472942 1
gene 1 6 12 0.6630948763 0 6 0.6630948763 0
gene 1 7 12 -0.1399672703 0 7 -0.1399672703 1
gene 1 8 12 -1.473551419 0 8 -1.473551419 1
gene 1 9 12 -0.7100574565 0 9 -0.7100574565 1
gene 1 10 12 0.3871480862 0 10 0.3871480862 1
gene 1 11 12 0.8912487738 0 11 0.8912487738 0
gene 1 12 13 0.3101497369 0 12 0.3101497369 1
gene 1 12 14 -0.3700978653 0 13 -0.3700978653 1
gene 1 11 14 0.9662581724 0 20 0 1
gene 1 11 13 -0.2584925048 0 21 0 0
gene 1 10 19 0.3426929159 0 50 0.3426929159 1
gene 1 19 12 0.07867938256 0 51 0.07867938256 1
gene 1 5 14 0.01787209512 0 60 0.01787209512 1
gene 1 12 12 0.1294627682 1 73 0.1294627682 1
gene 1 6 25 0.7394092194 0 91 0.7394092194 1
gene 1 25 12 0.03826884808 0 92 0.03826884808 1
gene 1 8 19 -0.7399530521 0 101 0 1
gene 1 6 19 -0.406014261 0 113 0 0
gene 1 4 19 0.1913574946 0 132 0.1913574946 1
gene 1 3 19 -0.7320855977 0 231 -0.7320855977 1
gene 1 9 25 0.0473545748 0 236 0 1
gene 1 11 25 0.921749271 0 526 0 1
gene 1 6 53 1 0 652 0 1
gene 1 53 19 -0.1218042783 0 653 0 1
gene 1 9 53 -0.1781597599 0 683 -0.1781597599 1
gene 1 11 53 -0.8954316182 0 744 -0.8954316182 0
gene 1 53 53 0.5168385694 1 861 0.5168385694 1
genomeend 49464
/* Novelty: 0 Fitness: 260.9750366 Generation: 0 Indiv: 49714 */
/* Point: 28.73694229 58.95928955 28.73694229 58.95928955 */

/* Organism #49466 Fitness: 260.9750366 Error: 0 */
genomestart 49466
trait 1 0.7479260359 0.7369264546 0.1099209298 0.2048072076 0.6751845925 0.2316129959 0.1692460843 0.2051451702 
node 1 1 1 3
node 2 1 1 1
node 3 1 1 1
node 4 1 1 1
node 5 1 1 1
node 6 1 1 1
node 7 1 1 1
node 8 1 1 1
node 9 1 1 1
node 10 1 1 1
node 11 1 1 1
node 12 1 0 0
node 13 1 0 2
node 14 1 0 2
node 19 1 0 0
node 25 1 0 0
node 53 1 0 0
gene 1 1 12 0.1402567506 0 1 0.1402567506 1
gene 1 2 12 -0.7164208591 0 2 -0.7164208591 1
gene 1 3 12 -0.8703487004 0 3 -0.8703487004 1
gene 1 4 12 -0.9492427834 0 4 -0.9492427834 1
gene 1 5 12 0.003127472942 0 5 0.003127472942 1
gene 1 6 12 0.6630948763 0 6 0.6630948763 0
gene 1 7 12 -0.1399672703 0 7 -0.1399672703 1
gene 1 8 12 -1.473551419 0 8 -1.473551419 1
gene 1 9 12 -0.7100574565 0 9 -0.7100574565 1
gene 1 10 12 0.3871480862 0 10 0.3871480862 1
gene 1 11 12 0.8912487738 0 11 0.8912487738 0
gene 1 12 13 0.3101497369 0 12 0.3101497369 1
gene 1 12 14 -0.3700978653 0 13 -0.3700978653 1
gene 1 11 14 0.9662581724 0 20 0 1
gene 1 11 13 -0.2584925048 0 21 0 0
gene 1 10 19 0.3426929159 0 50 0.3426929159 1
gene 1 19 12 0.07867938256 0 51 0.07867938256 1
gene 1 5 14 0.01787209512 0 60 0.01787209512 1
gene 1 12 12 0.1294627682 1 73 0.1294627682 1
gene 1 6 25 0.7394092194 0 91 0.7394092194 1
gene 1 25 12 0.03826884808 0 92 0.03826884808 1
gene 1 8 19 -0.7399530521 0 101 0 1
gene 1 6 19 -0.406014261 0 113 0 0
gene 1 4 19 0.1913574946 0 132 0.1913574946 1
gene 1 3 19 -0.7320855977 0 231 -0.7320855977 1
gene 1 9 25 0.0473545748 0 236 0 1
gene 1 11 25 0.921749271 0 526 0 1
gene 1 6 53 1 0 652 0 1
gene 1 53 19 -0.1218042783 0 653 0 1
gene 1 9 53 -0.1781597599 0 683 -0.1781597599 1
gene 1 11 53 -0.8954316182 0 744 -0.8954316182 0
gene 1 53 53 0.5168385694 1 861 0.5168385694 1
genomeend 49466
/* Novelty: 0 Fitness: 260.9750366 Generation: 0 Indiv: 49716 */
/* Point: 28.73694229 58.95928955 28.73694229 58.95928955 */

/* Organism #49497 Fitness: 260.9750366 Error: 0 */
genomestart 49497
trait 1 0.5060740164 0 0.2426923463 0.3934410771 1 0.4884112368 0.7125671342 0.04989071928 
node 1 1 1 3
node 2 1 1 1
node 3 1 1 1
node 4 1 1 1
node 5 1 1 1
node 6 1 1 1
node 7 1 1 1
node 8 1 1 1
node 9 1 1 1
node 10 1 1 1
node 11 1 1 1
node 12 1 0 0
node 13 1 0 2
node 14 1 0 2
node 19 1 0 0
node 25 1 0 0
node 53 1 0 0
gene 1 1 12 0.1402567506 0 1 0.1402567506 1
gene 1 2 12 -0.7164208591 0 2 -0.7164208591 1
gene 1 3 12 -0.8703487004 0 3 -0.8703487004 1
gene 1 4 12 -0.9492427834 0 4 -0.9492427834 1
gene 1 5 12 0.003127472942 0 5 0.003127472942 1
gene 1 6 12 0.6630948763 0 6 0.6630948763 0
gene 1 7 12 -0.1399672703 0 7 -0.1399672703 1
gene 1 8 12 -1.473551419 0 8 -1.473551419 1
gene 1 9 12 -0.7100574565 0 9 -0.7100574565 1
gene 1 10 12 0.3871480862 0 10 0.3871480862 1
gene 1 11 12 0.8912487738 0 11 0.8912487738 0
gene 1 12 13 0.3101497369 0 12 0.3101497369 1
gene 1 12 14 -0.3700978653 0 13 -0.3700978653 1
gene 1 11 14 0.9662581724 0 20 0 1
gene 1 11 13 -0.2584925048 0 21 0 1
gene 1 10 19 0.3426929159 0 50 0.3426929159 1
gene 1 19 12 0.07867938256 0 51 0.07867938256 1
gene 1 5 14 0.01787209512 0 60 0.01787209512 1
gene 1 12 12 0.1294627682 1 73 0.1294627682 1
gene 1 6 25 0.7394092194 0 91 0.7394092194 1
gene 1 25 12 0.03826884808 0 92 0.03826884808 1
gene 1 8 19 -0.7399530521 0 101 0 1
gene 1 6 19 -0.406014261 0 113 0 0
gene 1 4 19 0.1913574946 0 132 0.1913574946 1
gene 1 3 19 -0.7320855977 0 231 -0.7320855977 1
gene 1 9 25 0.0473545748 0 236 0 1
gene 1 11 25 0.921749271 0 526 0 1
gene 1 6 53 1 0 652 0 1
gene 1 53 19 -0.1218042783 0 653 0 1
gene 1 9 53 -0.1781597599 0 683 -0.1781597599 1
gene 1 11 53 -0.8954316182 0 744 -0.8954316182 0
gene 1 53 53 0.5168385694 1 861 0.5168385694 1
genomeend 49497
/* Novelty: 0 Fitness: 260.9750366 Generation: 0 Indiv: 49747 */
/* Point: 28.73694229 58.95928955 28.73694229 58.95928955 */

/* Organism #49792 Fitness: 260.9750366 Error: 0 */
genomestart 49792
trait 1 0.5060740164 0.6938780562 0.2291175457 0.3974844116 0.354594991 0.2668018049 0.3512344864 0.05054717611 
node 1 1 1 3
node 2 1 1 1
node 3 1 1 1
node 4 1 1 1
node 5 1 1 1
node 6 1 1 1
node 7 1 1 1
node 8 1 1 1
node 9 1 1 1
node 10 1 1 1
node 11 1 1 1
node 12 1 0 0
node 13 1 0 2
node 14 1 0 2
node 19 1 0 0
node 25 1 0 0
node 53 1 0 0
gene 1 1 12 0.1402567506 0 1 0.1402567506 1
gene 1 2 12 -0.7164208591 0 2 -0.7164208591 1
gene 1 3 12 -0.8703487004 0 3 -0.8703487004 1
gene 1 4 12 -0.9492427834 0 4 -0.9492427834 1
gene 1 5 12 0.003127472942 0 5 0.003127472942 1
gene 1 6 12 0.6630948763 0 6 0.6630948763 0
gene 1 7 12 -0.1399672703 0 7 -0.1399672703 1
gene 1 8 12 -1.473551419 0 8 -1.473551419 1
gene 1 9 12 -0.7100574565 0 9 -0.7100574565 1
gene 1 10 12 0.3871480862 0 10 0.3871480862 1
gene 1 11 12 0.8912487738 0 11 0.8912487738 0
gene 1 12 13 0.3101497369 0 12 0.3101497369 1
gene 1 12 14 -0.3700978653 0 13 -0.3700978653 1
gene 1 11 14 0.9662581724 0 20 0 1
gene 1 11 13 -0.2584925048 0 21 0 1
gene 1 10 19 0.3426929159 0 50 0.3426929159 1
gene 1 19 12 0.07867938256 0 51 0.07867938256 1
gene 1 5 14 0.01787209512 0 60 0.01787209512 1
gene 1 12 12 0.1294627682 1 73 0.1294627682 1
gene 1 6 25 0.7394092194 0 91 0.7394092194 1
gene 1 25 12 0.03826884808 0 92 0.03826884808 1
gene 1 8 19 -0.7399530521 0 101 0 1
gene 1 6 19 -0.406014261 0 113 0 0
gene 1 4 19 0.1913574946 0 132 0.1913574946 1
gene 1 3 19 -0.7320855977 0 231 -0.7320855977 1
gene 1 9 25 0.0473545748 0 236 0 1
gene 1 11 25 0.921749271 0 526 0 1
gene 1 6 53 1 0 652 0 1
gene 1 53 19 -0.1218042783 0 653 0 1
gene 1 9 53 -0.1781597599 0 683 -0.1781597599 1
gene 1 11 53 -0.8954316182 0 744 -0.8954316182 0
gene 1 53 53 0.5168385694 1 861 0.5168385694 1
genomeend 49792
/* Novelty: 0 Fitness: 260.9750366 Generation: 0 Indiv: 50042 */
/* Point: 28.73694229 58.95928955 28.73694229 58.95928955 */

/* Organism #49874 Fitness: 260.9750366 Error: 0 */
genomestart 49874
trait 1 0.5060740164 0.6938780562 0.2291175457 0.3974844116 0.354594991 0.2668018049 0.3512344864 0.05054717611 
node 1 1 1 3
node 2 1 1 1
node 3 1 1 1
node 4 1 1 1
node 5 1 1 1
node 6 1 1 1
node 7 1 1 1
node 8 1 1 1
node 9 1 1 1
node 10 1 1 1
node 11 1 1 1
node 12 1 0 0
node 13 1 0 2
node 14 1 0 2
node 19 1 0 0
node 25 1 0 0
node 53 1 0 0
gene 1 1 12 0.1402567506 0 1 0.1402567506 1
gene 1 2 12 -0.7164208591 0 2 -0.7164208591 1
gene 1 3 12 -0.8703487004 0 3 -0.8703487004 1
gene 1 4 12 -0.9492427834 0 4 -0.9492427834 1
gene 1 5 12 0.003127472942 0 5 0.003127472942 1
gene 1 6 12 0.6630948763 0 6 0.6630948763 0
gene 1 7 12 -0.1399672703 0 7 -0.1399672703 1
gene 1 8 12 -1.473551419 0 8 -1.473551419 1
gene 1 9 12 -0.7100574565 0 9 -0.7100574565 1
gene 1 10 12 0.3871480862 0 10 0.3871480862 1
gene 1 11 12 0.8912487738 0 11 0.8912487738 0
gene 1 12 13 0.3101497369 0 12 0.3101497369 1
gene 1 12 14 -0.3700978653 0 13 -0.3700978653 1
gene 1 11 14 0.9662581724 0 20 0 1
gene 1 11 13 -0.2584925048 0 21 0 1
gene 1 10 19 0.3426929159 0 50 0.3426929159 1
gene 1 19 12 0.07867938256 0 51 0.07867938256 1
gene 1 5 14 0.01787209512 0 60 0.01787209512 1
gene 1 12 12 0.1294627682 1 73 0.1294627682 1
gene 1 6 25 0.7394092194 0 91 0.7394092194 1
gene 1 25 12 0.03826884808 0 92 0.03826884808 1
gene 1 8 19 -0.7399530521 0 101 0 1
gene 1 6 19 -0.406014261 0 113 0 0
gene 1 4 19 0.1913574946 0 132 0.1913574946 1
gene 1 3 19 -0.7320855977 0 231 -0.7320855977 1
gene 1 9 25 0.0473545748 0 236 0 1
gene 1 11 25 0.921749271 0 526 0 1
gene 1 6 53 1 0 652 0 1
gene 1 53 19 -0.1218042783 0 653 0 1
gene 1 9 53 -0.1781597599 0 683 -0.1781597599 1
gene 1 11 53 -0.8954316182 0 744 -0.8954316182 0
gene 1 53 53 0.5168385694 1 861 0.5168385694 1
genomeend 49874
/* Novelty: 0 Fitness: 260.9750366 Generation: 0 Indiv: 50124 */
/* Point: 28.73694229 58.95928955 28.73694229 58.95928955 */

/* Organism #49905 Fitness: 260.9750366 Error: 0 */
genomestart 49905
trait 1 0.3689198484 0.4738529092 0.2507566325 0.493920127 0.4484515891 0.351765825 0.4502839236 0.2427606287 
node 1 1 1 3
node 2 1 1 1
node 3 1 1 1
node 4 1 1 1
node 5 1 1 1
node 6 1 1 1
node 7 1 1 1
node 8 1 1 1
node 9 1 1 1
node 10 1 1 1
node 11 1 1 1
node 12 1 0 0
node 13 1 0 2
node 14 1 0 2
node 19 1 0 0
node 25 1 0 0
node 53 1 0 0
gene 1 1 12 0.1402567506 0 1 0.1402567506 1
gene 1 2 12 -0.7164208591 0 2 -0.7164208591 1
gene 1 3 12 -0.8703487004 0 3 -0.8703487004 1
gene 1 4 12 -0.9492427834 0 4 -0.9492427834 1
gene 1 5 12 0.003127472942 0 5 0.003127472942 1
gene 1 6 12 0.6630948763 0 6 0.6630948763 0
gene 1 7 12 -0.1399672703 0 7 -0.1399672703 1
gene 1 8 12 -1.473551419 0 8 -1.473551419 1
gene 1 9 12 -0.7100574565 0 9 -0.7100574565 1
gene 1 10 12 0.3871480862 0 10 0.3871480862 1
gene 1 11 12 0.8912487738 0 11 0.8912487738 0
gene 1 12 13 0.3101497369 0 12 0.3101497369 1
gene 1 12 14 -0.3700978653 0 13 -0.3700978653 1
gene 1 11 14 0.9662581724 0 20 0 1
gene 1 11 13 -0.2584925048 0 21 0 0
gene 1 10 19 0.3426929159 0 50 0.3426929159 1
gene 1 19 12 0.07867938256 0 51 0.07867938256 1
gene 1 5 14 0.01787209512 0 60 0.01787209512 1
gene 1 12 12 0.1294627682 1 73 0.1294627682 1
gene 1 6 25 0.7394092194 0 91 0.7394092194 1
gene 1 25 12 0.03826884808 0 92 0.03826884808 1
gene 1 8 19 -0.7399530521 0 101 0 1
gene 1 6 19 -0.406014261 0 113 0 0
gene 1 4 19 0.1913574946 0 132 0.1913574946 1
gene 1 3 19 -0.7320855977 0 231 -0.7320855977 1
gene 1 9 25 0.0473545748 0 236 0 1
gene 1 11 25 0.921749271 0 526 0 1
gene 1 6 53 1 0 652 0 1
gene 1 53 19 -0.1218042783 0 653 0 1
gene 1 9 53 -0.1781597599 0 683 -0.1781597599 1
gene 1 11 53 -0.8954316182 0 744 -0.8954316182 0
gene 1 53 53 0.5168385694 1 861 0.5168385694 1
genomeend 49905
/* Novelty: 0 Fitness: 260.9750366 Generation: 0 Indiv: 50155 */
/* Point: 28.73694229 58.95928955 28.73694229 58.95928955 */

/* Organism #49908 Fitness: 260.9750366 Error: 0 */
genomestart 49908
trait 1 0.4454007242 0.4475455546 0.2366279853 0.4165694705 0.3818408105 0.4445548155 0.5026708673 0.2209988437 
node 1 1 1 3
node 2 1 1 1
node 3 1 1 1
node 4 1 1 1
node 5 1 1 1
node 6 1 1 1
node 7 1 1 1
node 8 1 1 1
node 9 1 1 1
node 10 1 1 1
node 11 1 1 1
node 12 1 0 0
node 13 1 0 2
node 14 1 0 2
node 19 1 0 0
node 25 1 0 0
node 53 1 0 0
gene 1 1 12 0.1402567506 0 1 0.1402567506 1
gene 1 2 12 -0.7164208591 0 2 -0.7164208591 1
gene 1 3 12 -0.8703487004 0 3 -0.8703487004 1
gene 1 4 12 -0.9492427834 0 4 -0.9492427834 1
gene 1 5 12 0.003127472942 0 5 0.003127472942 1
gene 1 6 12 0.6630948763 0 6 0.6630948763 0
gene 1 7 12 -0.1399672703 0 7 -0.1399672703 1
gene 1 8 12 -1.473551419 0 8 -1.473551419 1
gene 1 9 12 -0.7100574565 0 9 -0.7100574565 1
gene 1 10 12 0.3871480862 0 10 0.3871480862 1
gene 1 11 12 0.8912487738 0 11 0.8912487738 0
gene 1 12 13 0.3101497369 0 12 0.3101497369 1
gene 1 12 14 -0.3700978653 0 13 -0.3700978653 1
gene 1 11 14 0.9662581724 0 20 0 1
gene 1 11 13 -0.2584925048 0 21 0 0
gene 1 10 19 0.3426929159 0 50 0.3426929159 1
gene 1 19 12 0.07867938256 0 51 0.07867938256 1
gene 1 5 14 0.01787209512 0 60 0.01787209512 1
gene 1 12 12 0.1294627682 1 73 0.1294627682 1
gene 1 6 25 0.7394092194 0 91 0.7394092194 1
gene 1 25 12 0.03826884808 0 92 0.03826884808 1
gene 1 8 19 -0.7399530521 0 101 0 1
gene 1 6 19 -0.406014261 0 113 0 0
gene 1 4 19 0.1913574946 0 132 0.1913574946 1
gene 1 3 19 -0.7320855977 0 231 -0.7320855977 1
gene 1 9 25 0.0473545748 0 236 0 1
gene 1 11 25 0.921749271 0 526 0 1
gene 1 6 53 1 0 652 0 1
gene 1 53 19 -0.1218042783 0 653 0 1
gene 1 9 53 -0.1781597599 0 683 -0.1781597599 1
gene 1 11 53 -0.8954316182 0 744 -0.8954316182 0
gene 1 53 53 0.5168385694 1 861 0.5168385694 1
genomeend 49908
/* Novelty: 0 Fitness: 260.9750366 Generation: 0 Indiv: 50158 */
/* Point: 28.73694229 58.95928955 28.73694229 58.95928955 */

/* Organism #49962 Fitness: 260.9750366 Error: 0 */
genomestart 49962
trait 1 0.4032083904 0.45232871 0.2487405609 0.4688003646 0.4249874395 0.385927178 0.5158547262 0.1945431514 
node 1 1 1 3
node 2 1 1 1
node 3 1 1 1
node 4 1 1 1
node 5 1 1 1
node 6 1 1 1
node 7 1 1 1
node 8 1 1 1
node 9 1 1 1
node 10 1 1 1
node 11 1 1 1
node 12 1 0 0
node 13 1 0 2
node 14 1 0 2
node 19 1 0 0
node 25 1 0 0
node 53 1 0 0
gene 1 1 12 0.1402567506 0 1 0.1402567506 1
gene 1 2 12 -0.7164208591 0 2 -0.7164208591 1
gene 1 3 12 -0.8703487004 0 3 -0.8703487004 1
gene 1 4 12 -0.9492427834 0 4 -0.9492427834 1
gene 1 5 12 0.003127472942 0 5 0.003127472942 1
gene 1 6 12 0.6630948763 0 6 0.6630948763 0
gene 1 7 12 -0.1399672703 0 7 -0.1399672703 1
gene 1 8 12 -1.473551419 0 8 -1.473551419 1
gene 1 9 12 -0.7100574565 0 9 -0.7100574565 1
gene 1 10 12 0.3871480862 0 10 0.3871480862 1
gene 1 11 12 0.8912487738 0 11 0.8912487738 0
gene 1 12 13 0.3101497369 0 12 0.3101497369 1
gene 1 12 14 -0.3700978653 0 13 -0.3700978653 1
gene 1 11 14 0.9662581724 0 20 0 1
gene 1 11 13 -0.2584925048 0 21 0 0
gene 1 10 19 0.3426929159 0 50 0.3426929159 1
gene 1 19 12 0.07867938256 0 51 0.07867938256 1
gene 1 5 14 0.01787209512 0 60 0.01787209512 1
gene 1 12 12 0.1294627682 1 73 0.1294627682 1
gene 1 6 25 0.7394092194 0 91 0.7394092194 1
gene 1 25 12 0.03826884808 0 92 0.03826884808 1
gene 1 8 19 -0.7399530521 0 101 0 1
gene 1 6 19 -0.406014261 0 113 0 0
gene 1 4 19 0.1913574946 0 132 0.1913574946 1
gene 1 3 19 -0.7320855977 0 231 -0.7320855977 1
gene 1 9 25 0.0473545748 0 236 0 1
gene 1 11 25 0.921749271 0 526 0 1
gene 1 6 53 1 0 652 0 1
gene 1 53 19 -0.1218042783 0 653 0 1
gene 1 9 53 -0.1781597599 0 683 -0.1781597599 1
gene 1 11 53 -0.8954316182 0 744 -0.8954316182 0
gene 1 53 53 0.5168385694 1 861 0.5168385694 1
genomeend 49962
/* Novelty: 0 Fitness: 260.9750366 Generation: 0 Indiv: 50212 */
/* Point: 28.73694229 58.95928955 28.73694229 58.95928955 */

/* Species #42 : (Size 16) (AF 0) (Age 1)  */


/* Organism #48985 Fitness: 261.0466003 Error: 0 */
genomestart 48985
trait 1 0.3772145492 0.2888909679 0.1525556573 0.4540945105 0.1577473005 0.5610943275 0.5709330987 0.1987642489 
node 1 1 1 3
node 2 1 1 1
node 3 1 1 1
node 4 1 1 1
node 5 1 1 1
node 6 1 1 1
node 7 1 1 1
node 8 1 1 1
node 9 1 1 1
node 10 1 1 1
node 11 1 1 1
node 12 1 0 0
node 13 1 0 2
node 14 1 0 2
gene 1 1 12 -0.2539780141 0 1 -0.2539780141 1
gene 1 2 12 -0.07741587818 0 2 -0.07741587818 1
gene 1 3 12 0.7140804282 0 3 0.7140804282 1
gene 1 4 12 -1.681474232 0 4 -1.681474232 1
gene 1 5 12 -0.5754349734 0 5 -0.5754349734 0
gene 1 6 12 -0.3086733689 0 6 -0.3086733689 1
gene 1 7 12 -1.347089842 0 7 -1.347089842 0
gene 1 8 12 0.3071800803 0 8 0.3071800803 1
gene 1 9 12 1.356286511 0 9 1.356286511 1
gene 1 10 12 1.722529438 0 10 1.722529438 1
gene 1 11 12 0.5124090324 0 11 0.5124090324 0
gene 1 12 13 1.469119354 0 12 1.469119354 1
gene 1 12 14 -1.383852405 0 13 -1.383852405 1
gene 1 7 14 -0.5953873261 0 14 -0.5953873261 0
gene 1 7 13 -0.1159027572 0 15 -0.1159027572 1
gene 1 11 14 0.4378709635 0 20 0.4378709635 0
gene 1 11 13 0.2037385715 0 21 0.2037385715 0
gene 1 14 14 1.342536374 1 22 1.342536374 1
gene 1 1 13 -0.4616346507 0 31 -0.4616346507 1
gene 1 3 14 -1.113324792 0 33 -1.113324792 0
gene 1 5 13 -1.009985463 0 41 -1.009985463 1
gene 1 8 14 -0.4785523743 0 81 -0.4785523743 1
genomeend 48985
/* Novelty: 0 Fitness: 261.0466003 Generation: 0 Indiv: 49235 */
/* Point: 28.2267437 58.85454941 28.2267437 58.85454941 */

/* Organism #49035 Fitness: 261.0466003 Error: 0 */
genomestart 49035
trait 1 0.6189583433 0.2235255037 0.1305492859 0.4097249977 0.2411804654 0.4136667415 0.6506384802 0.3995322784 
node 1 1 1 3
node 2 1 1 1
node 3 1 1 1
node 4 1 1 1
node 5 1 1 1
node 6 1 1 1
node 7 1 1 1
node 8 1 1 1
node 9 1 1 1
node 10 1 1 1
node 11 1 1 1
node 12 1 0 0
node 13 1 0 2
node 14 1 0 2
gene 1 1 12 -0.2539780141 0 1 -0.2539780141 1
gene 1 2 12 -0.07741587818 0 2 -0.07741587818 1
gene 1 3 12 0.7140804282 0 3 0.7140804282 1
gene 1 4 12 -1.681474232 0 4 -1.681474232 1
gene 1 5 12 -0.5754349734 0 5 -0.5754349734 0
gene 1 6 12 -0.3086733689 0 6 -0.3086733689 1
gene 1 7 12 -1.347089842 0 7 -1.347089842 0
gene 1 8 12 0.3071800803 0 8 0.3071800803 1
gene 1 9 12 1.356286511 0 9 1.356286511 1
gene 1 10 12 1.722529438 0 10 1.722529438 1
gene 1 11 12 0.5124090324 0 11 0.5124090324 1
gene 1 12 13 1.469119354 0 12 1.469119354 1
gene 1 12 14 -1.383852405 0 13 -1.383852405 1
gene 1 7 14 -0.5953873261 0 14 -0.5953873261 0
gene 1 7 13 -0.1159027572 0 15 -0.1159027572 1
gene 1 11 14 0.4378709635 0 20 0.4378709635 0
gene 1 11 13 0.2037385715 0 21 0.2037385715 0
gene 1 14 14 1.342536374 1 22 1.342536374 1
gene 1 1 13 -0.4616346507 0 31 -0.4616346507 1
gene 1 3 14 -1.113324792 0 33 -1.113324792 0
gene 1 5 13 -1.009985463 0 41 -1.009985463 1
gene 1 8 14 -0.4785523743 0 81 -0.4785523743 1
genomeend 49035
/* Novelty: 0 Fitness: 261.0466003 Generation: 0 Indiv: 49285 */
/* Point: 28.2267437 58.85454941 28.2267437 58.85454941 */

/* Organism #49048 Fitness: 261.0466003 Error: 0 */
genomestart 49048
trait 1 0.7185134436 0.186199788 0.1544490914 0.3612756832 0.3265375897 0.2097250258 0.8372878727 0.6135657099 
node 1 1 1 3
node 2 1 1 1
node 3 1 1 1
node 4 1 1 1
node 5 1 1 1
node 6 1 1 1
node 7 1 1 1
node 8 1 1 1
node 9 1 1 1
node 10 1 1 1
node 11 1 1 1
node 12 1 0 0
node 13 1 0 2
node 14 1 0 2
gene 1 1 12 -0.2539780141 0 1 -0.2539780141 1
gene 1 2 12 -0.07741587818 0 2 -0.07741587818 1
gene 1 3 12 0.7140804282 0 3 0.7140804282 1
gene 1 4 12 -1.681474232 0 4 -1.681474232 1
gene 1 5 12 -0.5754349734 0 5 -0.5754349734 0
gene 1 6 12 -0.3086733689 0 6 -0.3086733689 1
gene 1 7 12 -1.347089842 0 7 -1.347089842 0
gene 1 8 12 0.3071800803 0 8 0.3071800803 1
gene 1 9 12 1.356286511 0 9 1.356286511 1
gene 1 10 12 1.722529438 0 10 1.722529438 1
gene 1 11 12 0.5124090324 0 11 0.5124090324 0
gene 1 12 13 1.469119354 0 12 1.469119354 1
gene 1 12 14 -1.383852405 0 13 -1.383852405 1
gene 1 7 14 -0.5953873261 0 14 -0.5953873261 1
gene 1 7 13 -0.1159027572 0 15 -0.1159027572 1
gene 1 11 14 0.4378709635 0 20 0.4378709635 0
gene 1 11 13 0.2037385715 0 21 0.2037385715 1
gene 1 14 14 1.342536374 1 22 1.342536374 1
gene 1 1 13 -0.4616346507 0 31 -0.4616346507 1
gene 1 3 14 -1.113324792 0 33 -1.113324792 0
gene 1 5 13 -1.009985463 0 41 -1.009985463 1
gene 1 8 14 -0.4785523743 0 81 -0.4785523743 1
genomeend 49048
/* Novelty: 0 Fitness: 261.0466003 Generation: 0 Indiv: 49298 */
/* Point: 28.2267437 58.85454941 28.2267437 58.85454941 */

/* Organism #49098 Fitness: 261.0466003 Error: 0 */
genomestart 49098
trait 1 0.6189583433 0.2235255037 0.1305492859 0.4097249977 0.2411804654 0.4136667415 0.6506384802 0.3995322784 
node 1 1 1 3
node 2 1 1 1
node 3 1 1 1
node 4 1 1 1
node 5 1 1 1
node 6 1 1 1
node 7 1 1 1
node 8 1 1 1
node 9 1 1 1
node 10 1 1 1
node 11 1 1 1
node 12 1 0 0
node 13 1 0 2
node 14 1 0 2
gene 1 1 12 -0.2539780141 0 1 -0.2539780141 1
gene 1 2 12 -0.07741587818 0 2 -0.07741587818 1
gene 1 3 12 0.7140804282 0 3 0.7140804282 1
gene 1 4 12 -1.681474232 0 4 -1.681474232 1
gene 1 5 12 -0.5754349734 0 5 -0.5754349734 0
gene 1 6 12 -0.3086733689 0 6 -0.3086733689 1
gene 1 7 12 -1.347089842 0 7 -1.347089842 0
gene 1 8 12 0.3071800803 0 8 0.3071800803 1
gene 1 9 12 1.356286511 0 9 1.356286511 1
gene 1 10 12 1.722529438 0 10 1.722529438 1
gene 1 11 12 0.5124090324 0 11 0.5124090324 0
gene 1 12 13 1.469119354 0 12 1.469119354 1
gene 1 12 14 -1.383852405 0 13 -1.383852405 1
gene 1 7 14 -0.5953873261 0 14 -0.5953873261 0
gene 1 7 13 -0.1159027572 0 15 -0.1159027572 1
gene 1 11 14 0.4378709635 0 20 0.4378709635 0
gene 1 11 13 0.2037385715 0 21 0.2037385715 0
gene 1 14 14 1.342536374 1 22 1.342536374 1
gene 1 1 13 -0.4616346507 0 31 -0.4616346507 1
gene 1 3 14 -1.113324792 0 33 -1.113324792 0
gene 1 5 13 -1.009985463 0 41 -1.009985463 1
gene 1 8 14 -0.4785523743 0 81 -0.4785523743 1
genomeend 49098
/* Novelty: 0 Fitness: 261.0466003 Generation: 0 Indiv: 49348 */
/* Point: 28.2267437 58.85454941 28.2267437 58.85454941 */

/* Organism #49307 Fitness: 261.0466003 Error: 0 */
genomestart 49307
trait 1 0.3827570779 0.6014834274 0.6192500611 0.5666059563 0.1605573351 0.2350879823 0.5020065667 0.1450811949 
node 1 1 1 3
node 2 1 1 1
node 3 1 1 1
node 4 1 1 1
node 5 1 1 1
node 6 1 1 1
node 7 1 1 1
node 8 1 1 1
node 9 1 1 1
node 10 1 1 1
node 11 1 1 1
node 12 1 0 0
node 13 1 0 2
node 14 1 0 2
gene 1 1 12 -0.2539780141 0 1 -0.2539780141 1
gene 1 2 12 -0.07741587818 0 2 -0.07741587818 1
gene 1 3 12 0.7140804282 0 3 0.7140804282 1
gene 1 4 12 -1.681474232 0 4 -1.681474232 1
gene 1 5 12 -0.5754349734 0 5 -0.5754349734 0
gene 1 6 12 -0.3086733689 0 6 -0.3086733689 1
gene 1 7 12 -1.347089842 0 7 -1.347089842 0
gene 1 8 12 0.3071800803 0 8 0.3071800803 1
gene 1 9 12 1.356286511 0 9 1.356286511 1
gene 1 10 12 1.722529438 0 10 1.722529438 1
gene 1 11 12 0.5124090324 0 11 0.5124090324 0
gene 1 12 13 1.469119354 0 12 1.469119354 1
gene 1 12 14 -1.383852405 0 13 -1.383852405 1
gene 1 7 14 -0.5953873261 0 14 -0.5953873261 0
gene 1 7 13 -0.1159027572 0 15 -0.1159027572 1
gene 1 11 14 0.4378709635 0 20 0.4378709635 1
gene 1 11 13 0.2037385715 0 21 0.2037385715 0
gene 1 14 14 1.342536374 1 22 1.342536374 1
gene 1 1 13 -0.4616346507 0 31 -0.4616346507 1
gene 1 3 14 -1.113324792 0 33 -1.113324792 0
gene 1 5 13 -1.009985463 0 41 -1.009985463 1
gene 1 8 14 -0.4785523743 0 81 -0.4785523743 1
genomeend 49307
/* Novelty: 0 Fitness: 261.0466003 Generation: 0 Indiv: 49557 */
/* Point: 28.2267437 58.85454941 28.2267437 58.85454941 */

/* Organism #49355 Fitness: 261.0466003 Error: 0 */
genomestart 49355
trait 1 0 0.5943978962 0 0.7246545637 0.3211146701 0.09481131349 0.9959347696 0.3068683172 
node 1 1 1 3
node 2 1 1 1
node 3 1 1 1
node 4 1 1 1
node 5 1 1 1
node 6 1 1 1
node 7 1 1 1
node 8 1 1 1
node 9 1 1 1
node 10 1 1 1
node 11 1 1 1
node 12 1 0 0
node 13 1 0 2
node 14 1 0 2
gene 1 1 12 -0.2539780141 0 1 -0.2539780141 1
gene 1 2 12 -0.07741587818 0 2 -0.07741587818 1
gene 1 3 12 0.7140804282 0 3 0.7140804282 1
gene 1 4 12 -1.681474232 0 4 -1.681474232 1
gene 1 5 12 -0.5754349734 0 5 -0.5754349734 0
gene 1 6 12 -0.3086733689 0 6 -0.3086733689 1
gene 1 7 12 -1.347089842 0 7 -1.347089842 0
gene 1 8 12 0.3071800803 0 8 0.3071800803 1
gene 1 9 12 1.356286511 0 9 1.356286511 1
gene 1 10 12 1.722529438 0 10 1.722529438 1
gene 1 11 12 0.5124090324 0 11 0.5124090324 0
gene 1 12 13 1.469119354 0 12 1.469119354 1
gene 1 12 14 -1.383852405 0 13 -1.383852405 1
gene 1 7 14 -0.5953873261 0 14 -0.5953873261 0
gene 1 7 13 -0.1159027572 0 15 -0.1159027572 1
gene 1 11 14 0.4378709635 0 20 0.4378709635 1
gene 1 11 13 0.2037385715 0 21 0.2037385715 1
gene 1 14 14 1.342536374 1 22 1.342536374 1
gene 1 1 13 -0.4616346507 0 31 -0.4616346507 1
gene 1 3 14 -1.113324792 0 33 -1.113324792 0
gene 1 5 13 -1.009985463 0 41 -1.009985463 1
gene 1 8 14 -0.4785523743 0 81 -0.4785523743 1
genomeend 49355
/* Novelty: 0 Fitness: 261.0466003 Generation: 0 Indiv: 49605 */
/* Point: 28.2267437 58.85454941 28.2267437 58.85454941 */

/* Organism #49376 Fitness: 261.0466003 Error: 0 */
genomestart 49376
trait 1 0.6044602749 0.5162465094 0.558487283 0.3854215414 0.1644523461 0.1458362108 0.6210241008 0.3139045719 
node 1 1 1 3
node 2 1 1 1
node 3 1 1 1
node 4 1 1 1
node 5 1 1 1
node 6 1 1 1
node 7 1 1 1
node 8 1 1 1
node 9 1 1 1
node 10 1 1 1
node 11 1 1 1
node 12 1 0 0
node 13 1 0 2
node 14 1 0 2
gene 1 1 12 -0.2539780141 0 1 -0.2539780141 1
gene 1 2 12 -0.07741587818 0 2 -0.07741587818 1
gene 1 3 12 0.7140804282 0 3 0.7140804282 1
gene 1 4 12 -1.681474232 0 4 -1.681474232 1
gene 1 5 12 -0.5754349734 0 5 -0.5754349734 0
gene 1 6 12 -0.3086733689 0 6 -0.3086733689 1
gene 1 7 12 -1.347089842 0 7 -1.347089842 0
gene 1 8 12 0.3071800803 0 8 0.3071800803 1
gene 1 9 12 1.356286511 0 9 1.356286511 1
gene 1 10 12 1.722529438 0 10 1.722529438 1
gene 1 11 12 0.5124090324 0 11 0.5124090324 0
gene 1 12 13 1.469119354 0 12 1.469119354 1
gene 1 12 14 -1.383852405 0 13 -1.383852405 1
gene 1 7 14 -0.5953873261 0 14 -0.5953873261 0
gene 1 7 13 -0.1159027572 0 15 -0.1159027572 1
gene 1 11 14 0.4378709635 0 20 0.4378709635 0
gene 1 11 13 0.2037385715 0 21 0.2037385715 0
gene 1 14 14 1.342536374 1 22 1.342536374 1
gene 1 1 13 -0.4616346507 0 31 -0.4616346507 1
gene 1 3 14 -1.113324792 0 33 -1.113324792 0
gene 1 5 13 -1.009985463 0 41 -1.009985463 1
gene 1 8 14 -0.4785523743 0 81 -0.4785523743 1
genomeend 49376
/* Novelty: 0 Fitness: 261.0466003 Generation: 0 Indiv: 49626 */
/* Point: 28.2267437 58.85454941 28.2267437 58.85454941 */

/* Organism #49397 Fitness: 261.0466003 Error: 0 */
genomestart 49397
trait 1 0.6567792216 0.2250552199 0.1612364513 0.3849953151 0.2826754764 0.2707221857 0.7852242578 0.4994272773 
node 1 1 1 3
node 2 1 1 1
node 3 1 1 1
node 4 1 1 1
node 5 1 1 1
node 6 1 1 1
node 7 1 1 1
node 8 1 1 1
node 9 1 1 1
node 10 1 1 1
node 11 1 1 1
node 12 1 0 0
node 13 1 0 2
node 14 1 0 2
gene 1 1 12 -0.2539780141 0 1 -0.2539780141 1
gene 1 2 12 -0.07741587818 0 2 -0.07741587818 1
gene 1 3 12 0.7140804282 0 3 0.7140804282 1
gene 1 4 12 -1.681474232 0 4 -1.681474232 1
gene 1 5 12 -0.5754349734 0 5 -0.5754349734 0
gene 1 6 12 -0.3086733689 0 6 -0.3086733689 1
gene 1 7 12 -1.347089842 0 7 -1.347089842 0
gene 1 8 12 0.3071800803 0 8 0.3071800803 1
gene 1 9 12 1.356286511 0 9 1.356286511 1
gene 1 10 12 1.722529438 0 10 1.722529438 1
gene 1 11 12 0.5124090324 0 11 0.5124090324 1
gene 1 12 13 1.469119354 0 12 1.469119354 1
gene 1 12 14 -1.383852405 0 13 -1.383852405 1
gene 1 7 14 -0.5953873261 0 14 -0.5953873261 0
gene 1 7 13 -0.1159027572 0 15 -0.1159027572 1
gene 1 11 14 0.4378709635 0 20 0.4378709635 0
gene 1 11 13 0.2037385715 0 21 0.2037385715 0
gene 1 14 14 1.342536374 1 22 1.342536374 1
gene 1 1 13 -0.4616346507 0 31 -0.4616346507 1
gene 1 3 14 -1.113324792 0 33 -1.113324792 0
gene 1 5 13 -1.009985463 0 41 -1.009985463 1
gene 1 8 14 -0.4785523743 0 81 -0.4785523743 1
genomeend 49397
/* Novelty: 0 Fitness: 261.0466003 Generation: 0 Indiv: 49647 */
/* Point: 28.2267437 58.85454941 28.2267437 58.85454941 */

/* Organism #49417 Fitness: 261.0466003 Error: 0 */
genomestart 49417
trait 1 0.7185134436 0.186199788 0.1544490914 0.3612756832 0.3265375897 0.2097250258 0.8372878727 0.6135657099 
node 1 1 1 3
node 2 1 1 1
node 3 1 1 1
node 4 1 1 1
node 5 1 1 1
node 6 1 1 1
node 7 1 1 1
node 8 1 1 1
node 9 1 1 1
node 10 1 1 1
node 11 1 1 1
node 12 1 0 0
node 13 1 0 2
node 14 1 0 2
gene 1 1 12 -0.2539780141 0 1 -0.2539780141 1
gene 1 2 12 -0.07741587818 0 2 -0.07741587818 1
gene 1 3 12 0.7140804282 0 3 0.7140804282 1
gene 1 4 12 -1.681474232 0 4 -1.681474232 1
gene 1 5 12 -0.5754349734 0 5 -0.5754349734 0
gene 1 6 12 -0.3086733689 0 6 -0.3086733689 1
gene 1 7 12 -1.347089842 0 7 -1.347089842 0
gene 1 8 12 0.3071800803 0 8 0.3071800803 1
gene 1 9 12 1.356286511 0 9 1.356286511 1
gene 1 10 12 1.722529438 0 10 1.722529438 1
gene 1 11 12 0.5124090324 0 11 0.5124090324 0
gene 1 12 13 1.469119354 0 12 1.469119354 1
gene 1 12 14 -1.383852405 0 13 -1.383852405 1
gene 1 7 14 -0.5953873261 0 14 -0.5953873261 1
gene 1 7 13 -0.1159027572 0 15 -0.1159027572 1
gene 1 11 14 0.4378709635 0 20 0.4378709635 1
gene 1 11 13 0.2037385715 0 21 0.2037385715 1
gene 1 14 14 1.342536374 1 22 1.342536374 1
gene 1 1 13 -0.4616346507 0 31 -0.4616346507 1
gene 1 3 14 -1.113324792 0 33 -1.113324792 0
gene 1 5 13 -1.009985463 0 41 -1.009985463 1
gene 1 8 14 -0.4785523743 0 81 -0.4785523743 1
genomeend 49417
/* Novelty: 0 Fitness: 261.0466003 Generation: 0 Indiv: 49667 */
/* Point: 28.2267437 58.85454941 28.2267437 58.85454941 */

/* Organism #49437 Fitness: 261.0466003 Error: 0 */
genomestart 49437
trait 1 0.5950449996 0.2639106517 0.1680238112 0.4087149471 0.238813363 0.3317193457 0.7331606429 0.3852888446 
node 1 1 1 3
node 2 1 1 1
node 3 1 1 1
node 4 1 1 1
node 5 1 1 1
node 6 1 1 1
node 7 1 1 1
node 8 1 1 1
node 9 1 1 1
node 10 1 1 1
node 11 1 1 1
node 12 1 0 0
node 13 1 0 2
node 14 1 0 2
gene 1 1 12 -0.2539780141 0 1 -0.2539780141 1
gene 1 2 12 -0.07741587818 0 2 -0.07741587818 1
gene 1 3 12 0.7140804282 0 3 0.7140804282 1
gene 1 4 12 -1.681474232 0 4 -1.681474232 1
gene 1 5 12 -0.5754349734 0 5 -0.5754349734 0
gene 1 6 12 -0.3086733689 0 6 -0.3086733689 1
gene 1 7 12 -1.347089842 0 7 -1.347089842 0
gene 1 8 12 0.3071800803 0 8 0.3071800803 1
gene 1 9 12 1.356286511 0 9 1.356286511 1
gene 1 10 12 1.722529438 0 10 1.722529438 1
gene 1 11 12 0.5124090324 0 11 0.5124090324 0
gene 1 12 13 1.469119354 0 12 1.469119354 1
gene 1 12 14 -1.383852405 0 13 -1.383852405 1
gene 1 7 14 -0.5953873261 0 14 -0.5953873261 1
gene 1 7 13 -0.1159027572 0 15 -0.1159027572 1
gene 1 11 14 0.4378709635 0 20 0.4378709635 0
gene 1 11 13 0.2037385715 0 21 0.2037385715 0
gene 1 14 14 1.342536374 1 22 1.342536374 1
gene 1 1 13 -0.4616346507 0 31 -0.4616346507 1
gene 1 3 14 -1.113324792 0 33 -1.113324792 0
gene 1 5 13 -1.009985463 0 41 -1.009985463 1
gene 1 8 14 -0.4785523743 0 81 -0.4785523743 1
genomeend 49437
/* Novelty: 0 Fitness: 261.0466003 Generation: 0 Indiv: 49687 */
/* Point: 28.2267437 58.85454941 28.2267437 58.85454941 */

/* Organism #49544 Fitness: 261.0466003 Error: 0 */
genomestart 49544
trait 1 0.5950449996 0.2639106517 0.1680238112 0.4087149471 0.238813363 0.3317193457 0.7331606429 0.3852888446 
node 1 1 1 3
node 2 1 1 1
node 3 1 1 1
node 4 1 1 1
node 5 1 1 1
node 6 1 1 1
node 7 1 1 1
node 8 1 1 1
node 9 1 1 1
node 10 1 1 1
node 11 1 1 1
node 12 1 0 0
node 13 1 0 2
node 14 1 0 2
gene 1 1 12 -0.2539780141 0 1 -0.2539780141 1
gene 1 2 12 -0.07741587818 0 2 -0.07741587818 1
gene 1 3 12 0.7140804282 0 3 0.7140804282 1
gene 1 4 12 -1.681474232 0 4 -1.681474232 1
gene 1 5 12 -0.5754349734 0 5 -0.5754349734 0
gene 1 6 12 -0.3086733689 0 6 -0.3086733689 1
gene 1 7 12 -1.347089842 0 7 -1.347089842 0
gene 1 8 12 0.3071800803 0 8 0.3071800803 1
gene 1 9 12 1.356286511 0 9 1.356286511 1
gene 1 10 12 1.722529438 0 10 1.722529438 1
gene 1 11 12 0.5124090324 0 11 0.5124090324 1
gene 1 12 13 1.469119354 0 12 1.469119354 1
gene 1 12 14 -1.383852405 0 13 -1.383852405 1
gene 1 7 14 -0.5953873261 0 14 -0.5953873261 0
gene 1 7 13 -0.1159027572 0 15 -0.1159027572 1
gene 1 11 14 0.4378709635 0 20 0.4378709635 0
gene 1 11 13 0.2037385715 0 21 0.2037385715 0
gene 1 14 14 1.342536374 1 22 1.342536374 1
gene 1 1 13 -0.4616346507 0 31 -0.4616346507 1
gene 1 3 14 -1.113324792 0 33 -1.113324792 0
gene 1 5 13 -1.009985463 0 41 -1.009985463 1
gene 1 8 14 -0.4785523743 0 81 -0.4785523743 1
genomeend 49544
/* Novelty: 0 Fitness: 261.0466003 Generation: 0 Indiv: 49794 */
/* Point: 28.2267437 58.85454941 28.2267437 58.85454941 */

/* Organism #49649 Fitness: 261.0466003 Error: 0 */
genomestart 49649
trait 1 0.4246254202 0.3115968684 0.2179632401 0.4875816527 0.3834980293 0.3942024526 0.4946445292 0.2342387852 
node 1 1 1 3
node 2 1 1 1
node 3 1 1 1
node 4 1 1 1
node 5 1 1 1
node 6 1 1 1
node 7 1 1 1
node 8 1 1 1
node 9 1 1 1
node 10 1 1 1
node 11 1 1 1
node 12 1 0 0
node 13 1 0 2
node 14 1 0 2
gene 1 1 12 -0.2539780141 0 1 -0.2539780141 1
gene 1 2 12 -0.07741587818 0 2 -0.07741587818 1
gene 1 3 12 0.7140804282 0 3 0.7140804282 1
gene 1 4 12 -1.681474232 0 4 -1.681474232 1
gene 1 5 12 -0.5754349734 0 5 -0.5754349734 0
gene 1 6 12 -0.3086733689 0 6 -0.3086733689 1
gene 1 7 12 -1.347089842 0 7 -1.347089842 1
gene 1 8 12 0.3071800803 0 8 0.3071800803 1
gene 1 9 12 1.356286511 0 9 1.356286511 1
gene 1 10 12 1.722529438 0 10 1.722529438 1
gene 1 11 12 0.5124090324 0 11 0.5124090324 0
gene 1 12 13 1.469119354 0 12 1.469119354 1
gene 1 12 14 -1.383852405 0 13 -1.383852405 1
gene 1 7 14 -0.5953873261 0 14 -0.5953873261 0
gene 1 7 13 -0.1159027572 0 15 -0.1159027572 1
gene 1 11 14 0.4378709635 0 20 0.4378709635 0
gene 1 11 13 0.2037385715 0 21 0.2037385715 0
gene 1 14 14 1.342536374 1 22 1.342536374 1
gene 1 1 13 -0.4616346507 0 31 -0.4616346507 1
gene 1 3 14 -1.113324792 0 33 -1.113324792 0
gene 1 5 13 -1.009985463 0 41 -1.009985463 1
gene 1 8 14 -0.4785523743 0 81 -0.4785523743 1
genomeend 49649
/* Novelty: 0 Fitness: 261.0466003 Generation: 0 Indiv: 49899 */
/* Point: 28.2267437 58.85454941 28.2267437 58.85454941 */

/* Organism #49660 Fitness: 261.0466003 Error: 0 */
genomestart 49660
trait 1 0.4246254202 0.3115968684 0.2179632401 0.4875816527 0.3834980293 0.3942024526 0.4946445292 0.2342387852 
node 1 1 1 3
node 2 1 1 1
node 3 1 1 1
node 4 1 1 1
node 5 1 1 1
node 6 1 1 1
node 7 1 1 1
node 8 1 1 1
node 9 1 1 1
node 10 1 1 1
node 11 1 1 1
node 12 1 0 0
node 13 1 0 2
node 14 1 0 2
gene 1 1 12 -0.2539780141 0 1 -0.2539780141 1
gene 1 2 12 -0.07741587818 0 2 -0.07741587818 1
gene 1 3 12 0.7140804282 0 3 0.7140804282 1
gene 1 4 12 -1.681474232 0 4 -1.681474232 1
gene 1 5 12 -0.5754349734 0 5 -0.5754349734 0
gene 1 6 12 -0.3086733689 0 6 -0.3086733689 1
gene 1 7 12 -1.347089842 0 7 -1.347089842 1
gene 1 8 12 0.3071800803 0 8 0.3071800803 1
gene 1 9 12 1.356286511 0 9 1.356286511 1
gene 1 10 12 1.722529438 0 10 1.722529438 1
gene 1 11 12 0.5124090324 0 11 0.5124090324 0
gene 1 12 13 1.469119354 0 12 1.469119354 1
gene 1 12 14 -1.383852405 0 13 -1.383852405 1
gene 1 7 14 -0.5953873261 0 14 -0.5953873261 1
gene 1 7 13 -0.1159027572 0 15 -0.1159027572 1
gene 1 11 14 0.4378709635 0 20 0.4378709635 0
gene 1 11 13 0.2037385715 0 21 0.2037385715 0
gene 1 14 14 1.342536374 1 22 1.342536374 1
gene 1 1 13 -0.4616346507 0 31 -0.4616346507 1
gene 1 3 14 -1.113324792 0 33 -1.113324792 0
gene 1 5 13 -1.009985463 0 41 -1.009985463 1
gene 1 8 14 -0.4785523743 0 81 -0.4785523743 1
genomeend 49660
/* Novelty: 0 Fitness: 261.0466003 Generation: 0 Indiv: 49910 */
/* Point: 28.2267437 58.85454941 28.2267437 58.85454941 */

/* Organism #49827 Fitness: 261.0466003 Error: 0 */
genomestart 49827
trait 1 0.4980864463 0.5904447381 0.511863494 0.4319097541 0.1994638829 0.4873805345 1 1 
node 1 1 1 3
node 2 1 1 1
node 3 1 1 1
node 4 1 1 1
node 5 1 1 1
node 6 1 1 1
node 7 1 1 1
node 8 1 1 1
node 9 1 1 1
node 10 1 1 1
node 11 1 1 1
node 12 1 0 0
node 13 1 0 2
node 14 1 0 2
gene 1 1 12 -0.2539780141 0 1 -0.2539780141 1
gene 1 2 12 -0.07741587818 0 2 -0.07741587818 1
gene 1 3 12 0.7140804282 0 3 0.7140804282 1
gene 1 4 12 -1.681474232 0 4 -1.681474232 1
gene 1 5 12 -0.5754349734 0 5 -0.5754349734 0
gene 1 6 12 -0.3086733689 0 6 -0.3086733689 1
gene 1 7 12 -1.347089842 0 7 -1.347089842 0
gene 1 8 12 0.3071800803 0 8 0.3071800803 1
gene 1 9 12 1.356286511 0 9 1.356286511 1
gene 1 10 12 1.722529438 0 10 1.722529438 1
gene 1 11 12 0.5124090324 0 11 0.5124090324 0
gene 1 12 13 1.469119354 0 12 1.469119354 1
gene 1 12 14 -1.383852405 0 13 -1.383852405 1
gene 1 7 14 -0.5953873261 0 14 -0.5953873261 0
gene 1 7 13 -0.1159027572 0 15 -0.1159027572 1
gene 1 11 14 0.4378709635 0 20 0.4378709635 0
gene 1 11 13 0.2037385715 0 21 0.2037385715 0
gene 1 14 14 1.342536374 1 22 1.342536374 1
gene 1 1 13 -0.4616346507 0 31 -0.4616346507 1
gene 1 3 14 -1.113324792 0 33 -1.113324792 0
gene 1 5 13 -1.009985463 0 41 -1.009985463 1
gene 1 8 14 -0.4785523743 0 81 -0.4785523743 1
genomeend 49827
/* Novelty: 0 Fitness: 261.0466003 Generation: 0 Indiv: 50077 */
/* Point: 28.2267437 58.85454941 28.2267437 58.85454941 */

/* Organism #49869 Fitness: 261.0466003 Error: 0 */
genomestart 49869
trait 1 0.7185134436 0.186199788 0.1544490914 0.3612756832 0.3265375897 0.2097250258 0.8372878727 0.6135657099 
node 1 1 1 3
node 2 1 1 1
node 3 1 1 1
node 4 1 1 1
node 5 1 1 1
node 6 1 1 1
node 7 1 1 1
node 8 1 1 1
node 9 1 1 1
node 10 1 1 1
node 11 1 1 1
node 12 1 0 0
node 13 1 0 2
node 14 1 0 2
gene 1 1 12 -0.2539780141 0 1 -0.2539780141 1
gene 1 2 12 -0.07741587818 0 2 -0.07741587818 1
gene 1 3 12 0.7140804282 0 3 0.7140804282 1
gene 1 4 12 -1.681474232 0 4 -1.681474232 1
gene 1 5 12 -0.5754349734 0 5 -0.5754349734 0
gene 1 6 12 -0.3086733689 0 6 -0.3086733689 1
gene 1 7 12 -1.347089842 0 7 -1.347089842 0
gene 1 8 12 0.3071800803 0 8 0.3071800803 1
gene 1 9 12 1.356286511 0 9 1.356286511 1
gene 1 10 12 1.722529438 0 10 1.722529438 1
gene 1 11 12 0.5124090324 0 11 0.5124090324 0
gene 1 12 13 1.469119354 0 12 1.469119354 1
gene 1 12 14 -1.383852405 0 13 -1.383852405 1
gene 1 7 14 -0.5953873261 0 14 -0.5953873261 1
gene 1 7 13 -0.1159027572 0 15 -0.1159027572 1
gene 1 11 14 0.4378709635 0 20 0.4378709635 0
gene 1 11 13 0.2037385715 0 21 0.2037385715 1
gene 1 14 14 1.342536374 1 22 1.342536374 1
gene 1 1 13 -0.4616346507 0 31 -0.4616346507 1
gene 1 3 14 -1.113324792 0 33 -1.113324792 0
gene 1 5 13 -1.009985463 0 41 -1.009985463 1
gene 1 8 14 -0.4785523743 0 81 -0.4785523743 1
genomeend 49869
/* Novelty: 0 Fitness: 261.0466003 Generation: 0 Indiv: 50119 */
/* Point: 28.2267437 58.85454941 28.2267437 58.85454941 */

/* Organism #49974 Fitness: 261.0466003 Error: 0 */
genomestart 49974
trait 1 0.5008577106 0.2683431206 0.1776790767 0.488165477 0.3019420208 0.416596849 0.5763225235 0.3262061326 
node 1 1 1 3
node 2 1 1 1
node 3 1 1 1
node 4 1 1 1
node 5 1 1 1
node 6 1 1 1
node 7 1 1 1
node 8 1 1 1
node 9 1 1 1
node 10 1 1 1
node 11 1 1 1
node 12 1 0 0
node 13 1 0 2
node 14 1 0 2
gene 1 1 12 -0.2539780141 0 1 -0.2539780141 1
gene 1 2 12 -0.07741587818 0 2 -0.07741587818 1
gene 1 3 12 0.7140804282 0 3 0.7140804282 1
gene 1 4 12 -1.681474232 0 4 -1.681474232 1
gene 1 5 12 -0.5754349734 0 5 -0.5754349734 0
gene 1 6 12 -0.3086733689 0 6 -0.3086733689 1
gene 1 7 12 -1.347089842 0 7 -1.347089842 0
gene 1 8 12 0.3071800803 0 8 0.3071800803 1
gene 1 9 12 1.356286511 0 9 1.356286511 1
gene 1 10 12 1.722529438 0 10 1.722529438 1
gene 1 11 12 0.5124090324 0 11 0.5124090324 0
gene 1 12 13 1.469119354 0 12 1.469119354 1
gene 1 12 14 -1.383852405 0 13 -1.383852405 1
gene 1 7 14 -0.5953873261 0 14 -0.5953873261 0
gene 1 7 13 -0.1159027572 0 15 -0.1159027572 1
gene 1 11 14 0.4378709635 0 20 0.4378709635 0
gene 1 11 13 0.2037385715 0 21 0.2037385715 0
gene 1 14 14 1.342536374 1 22 1.342536374 1
gene 1 1 13 -0.4616346507 0 31 -0.4616346507 1
gene 1 3 14 -1.113324792 0 33 -1.113324792 0
gene 1 5 13 -1.009985463 0 41 -1.009985463 1
gene 1 8 14 -0.4785523743 0 81 -0.4785523743 1
genomeend 49974
/* Novelty: 0 Fitness: 261.0466003 Generation: 0 Indiv: 50224 */
/* Point: 28.2267437 58.85454941 28.2267437 58.85454941 */

/* Species #47 : (Size 16) (AF 0) (Age 1)  */


/* Organism #49001 Fitness: 261.0304565 Error: 0 */
genomestart 49001
trait 1 0.4241947926 0.5937985898 0.5557988661 0.26266398 0.2435735505 0.3635586538 0.2923514168 0.4645771727 
node 1 1 1 3
node 2 1 1 1
node 3 1 1 1
node 4 1 1 1
node 5 1 1 1
node 6 1 1 1
node 7 1 1 1
node 8 1 1 1
node 9 1 1 1
node 10 1 1 1
node 11 1 1 1
node 12 1 0 0
node 13 1 0 2
node 14 1 0 2
node 15 1 0 0
gene 1 1 12 0.09395876866 0 1 0.09395876866 1
gene 1 2 12 -0.2659481338 0 2 -0.2659481338 1
gene 1 3 12 -1.223953997 0 3 -1.223953997 1
gene 1 4 12 0.0436704565 0 4 0.0436704565 1
gene 1 5 12 1.485626944 0 5 1.485626944 1
gene 1 6 12 1.225119787 0 6 1.225119787 1
gene 1 7 12 0.6234501745 0 7 0.6234501745 1
gene 1 8 12 -2.411388883 0 8 -2.411388883 1
gene 1 9 12 -2.405743192 0 9 -2.405743192 1
gene 1 10 12 -0.08285962324 0 10 -0.08285962324 1
gene 1 11 12 -0.6692245263 0 11 -0.6692245263 1
gene 1 12 13 0.8675116729 0 12 0.8675116729 1
gene 1 12 14 -0.7953545991 0 13 -0.7953545991 0
gene 1 7 13 0.6212954752 0 15 0.6212954752 0
gene 1 10 13 0.07072654854 0 17 0.07072654854 1
gene 1 8 15 0.4841554931 0 18 0.4841554931 1
gene 1 15 12 1.611151248 0 19 1.611151248 1
gene 1 11 13 -0.2584925048 0 21 0 1
gene 1 8 13 -0.1686669032 0 23 -0.1686669032 1
gene 1 14 13 -1.882354954 0 24 -1.882354954 1
gene 1 14 14 0.5409234837 1 93 0.5409234837 1
gene 1 14 15 0.8088147593 0 172 0.8088147593 0
gene 1 3 15 0.3239245051 0 295 0.3239245051 1
gene 1 11 15 0.5029986368 0 297 0.5029986368 0
gene 1 12 12 -0.2371678141 1 306 -0.2371678141 1
gene 1 7 15 0.2444698723 0 589 0.2444698723 0
genomeend 49001
/* Novelty: 0 Fitness: 261.0304565 Generation: 0 Indiv: 49251 */
/* Point: 27.42336082 58.80505753 27.42336082 58.80505753 */

/* Organism #49005 Fitness: 261.0304565 Error: 0 */
genomestart 49005
trait 1 0.559963253 0.3225040557 0.5623770147 0.6843074161 0.09941423976 0.6621885233 0.3446124745 0.6967689951 
node 1 1 1 3
node 2 1 1 1
node 3 1 1 1
node 4 1 1 1
node 5 1 1 1
node 6 1 1 1
node 7 1 1 1
node 8 1 1 1
node 9 1 1 1
node 10 1 1 1
node 11 1 1 1
node 12 1 0 0
node 13 1 0 2
node 14 1 0 2
node 15 1 0 0
gene 1 1 12 0.09395876866 0 1 0.09395876866 1
gene 1 2 12 -0.2659481338 0 2 -0.2659481338 1
gene 1 3 12 -1.223953997 0 3 -1.223953997 1
gene 1 4 12 0.0436704565 0 4 0.0436704565 1
gene 1 5 12 1.485626944 0 5 1.485626944 1
gene 1 6 12 1.225119787 0 6 1.225119787 1
