
/* Species #1 : (Size 16) (AF 0) (Age 1)  */


/* Organism #125584 Fitness: 9.14074 Error: 0 */
genomestart 125584
trait 1 0.7214453486 0.5484092839 0.4687413658 0.01856531108 0.2824412983 0.007770826447 0.2577167154 0.5401333426 
node 1 1 1 3
node 2 1 1 1
node 3 1 1 1
node 4 1 1 1
node 5 1 1 1
node 6 1 1 1
node 7 1 1 1
node 8 1 1 1
node 9 1 1 1
node 10 1 1 1
node 11 1 1 1
node 12 1 0 0
node 13 1 0 2
node 14 1 0 2
node 23 1 0 0
gene 1 1 12 -0.7845289824 0 1 -0.7845289824 1
gene 1 2 12 -0.6384624404 0 2 -0.6384624404 1
gene 1 3 12 -0.6046626012 0 3 -0.6046626012 1
gene 1 4 12 -1.055845686 0 4 -1.055845686 1
gene 1 5 12 1.459677508 0 5 1.459677508 1
gene 1 6 12 0.8082951979 0 6 0.8082951979 1
gene 1 7 12 -0.630172891 0 7 -0.630172891 1
gene 1 8 12 0.5987032253 0 8 0.5987032253 1
gene 1 9 12 -0.5753811206 0 9 -0.5753811206 1
gene 1 10 12 -0.06576849341 0 10 -0.06576849341 1
gene 1 11 12 0.8205714976 0 11 0.8205714976 1
gene 1 12 13 1.058398343 0 12 1.058398343 1
gene 1 12 14 0.4193876298 0 13 0.4193876298 1
gene 1 3 13 -2.016975975 0 14 -2.016975975 1
gene 1 10 13 0.443887538 0 15 0.443887538 1
gene 1 8 14 0.7164447295 0 17 0.7164447295 1
gene 1 9 14 -0.1696927845 0 19 -0.1696927845 1
gene 1 11 13 0.8347365752 0 24 0.8347365752 1
gene 1 6 14 1.286834397 0 25 1.286834397 1
gene 1 2 13 -0.2511879823 0 26 -0.2511879823 1
gene 1 7 13 0.6131936237 0 27 0.483145587 1
gene 1 8 13 -0.2693864971 0 29 -0.110437239 1
gene 1 7 14 0.7392952144 0 30 0.7392952144 1
gene 1 4 14 0.1876526016 0 32 0.1876526016 1
gene 1 13 14 -0.8018854335 0 33 -0.8018854335 1
gene 1 5 13 0.8645393887 0 41 0.8446510683 1
gene 1 10 14 0.09152685697 0 46 0.09152685697 1
gene 1 3 14 0.1874989548 0 52 0.2141804193 1
gene 1 12 23 0.8265606881 0 119 0.7328106881 1
gene 1 23 14 -0.286796387 0 120 -0.286796387 1
gene 1 14 14 1.145341252 1 160 1.145341252 1
gene 1 7 23 -0.4014563448 0 163 -0.4014563448 0
gene 1 5 23 -0.9135521798 0 182 -0.9135521798 1
gene 1 9 23 -0.424512769 0 187 -0.4431541402 1
gene 1 4 23 0.1579722358 0 189 0.09349464754 1
gene 1 12 12 0.1414789884 1 253 0.1414789884 1
gene 1 6 23 0.004857167522 0 294 -0.1444047368 1
gene 1 8 23 0.3453176671 0 313 0.01963697291 1
gene 1 11 23 -0.2488192774 0 363 -0.2488192774 1
gene 1 23 23 0.4672800011 1 408 0.4672800011 1
gene 1 2 23 0.2197097165 0 432 0.1246796957 1
gene 1 13 23 -0.2858024896 0 471 -0.2302812419 1
gene 1 13 13 0.2043275906 1 745 0.2043275906 1
gene 1 14 23 0.5545012809 1 2562 0.5545012809 1
genomeend 125584
/* Novelty: 3.667976379 Fitness: 177.8658752 Generation: 551 Indiv: 125834 */
/* Point: 151.0340118 42.55172348 151.0340118 42.55172348 */

/* Organism #123778 Fitness: 9.139083862 Error: 0 */
genomestart 123778
trait 1 0.7214453486 0.5484092839 0.4687413658 0.01856531108 0.2824412983 0.007770826447 0.2577167154 0.5401333426 
node 1 1 1 3
node 2 1 1 1
node 3 1 1 1
node 4 1 1 1
node 5 1 1 1
node 6 1 1 1
node 7 1 1 1
node 8 1 1 1
node 9 1 1 1
node 10 1 1 1
node 11 1 1 1
node 12 1 0 0
node 13 1 0 2
node 14 1 0 2
node 23 1 0 0
gene 1 1 12 -0.7845289824 0 1 -0.7845289824 1
gene 1 2 12 -0.6384624404 0 2 -0.6384624404 1
gene 1 3 12 -0.6046626012 0 3 -0.6046626012 1
gene 1 4 12 -1.055845686 0 4 -1.055845686 1
gene 1 5 12 1.459677508 0 5 1.459677508 1
gene 1 6 12 0.8082951979 0 6 0.8082951979 1
gene 1 7 12 -0.630172891 0 7 -0.630172891 1
gene 1 8 12 0.5987032253 0 8 0.5987032253 1
gene 1 9 12 -0.5753811206 0 9 -0.5753811206 1
gene 1 10 12 -0.06576849341 0 10 -0.06576849341 1
gene 1 11 12 0.8205714976 0 11 0.8205714976 1
gene 1 12 13 1.058398343 0 12 1.058398343 1
gene 1 12 14 0.4193876298 0 13 0.4193876298 1
gene 1 3 13 -2.016975975 0 14 -2.016975975 1
gene 1 10 13 0.443887538 0 15 0.443887538 1
gene 1 8 14 0.7164447295 0 17 0.7164447295 1
gene 1 9 14 -0.1696927845 0 19 -0.1696927845 1
gene 1 11 13 0.8347365752 0 24 0.8347365752 1
gene 1 6 14 1.286834397 0 25 1.286834397 1
gene 1 2 13 -0.2511879823 0 26 -0.2511879823 1
gene 1 7 13 0.6131936237 0 27 0.483145587 1
gene 1 8 13 -0.2693864971 0 29 -0.110437239 1
gene 1 7 14 0.7392952144 0 30 0.7392952144 1
gene 1 4 14 0.1876526016 0 32 0.1876526016 1
gene 1 13 14 -0.8018854335 0 33 -0.8018854335 1
gene 1 5 13 0.8645393887 0 41 0.8446510683 1
gene 1 10 14 0.09152685697 0 46 0.09152685697 1
gene 1 3 14 0.1874989548 0 52 0.2141804193 1
gene 1 12 23 0.8265606881 0 119 0.7328106881 1
gene 1 23 14 -0.286796387 0 120 -0.286796387 1
gene 1 14 14 1.145341252 1 160 1.145341252 1
gene 1 7 23 -0.4014563448 0 163 -0.4014563448 0
gene 1 5 23 -0.9135521798 0 182 -0.9135521798 1
gene 1 9 23 -0.424512769 0 187 -0.4431541402 1
gene 1 4 23 0.1579722358 0 189 0.09349464754 1
gene 1 12 12 0.1414789884 1 253 0.1414789884 1
gene 1 6 23 0.004857167522 0 294 -0.1444047368 1
gene 1 8 23 0.3453176671 0 313 0.01963697291 1
gene 1 11 23 -0.2488192774 0 363 -0.2488192774 1
gene 1 23 23 0.4672800011 1 408 0.4672800011 1
gene 1 2 23 0.2197097165 0 432 0.1246796957 1
gene 1 13 23 -0.2858024896 0 471 -0.2302812419 1
gene 1 13 13 0.2043275906 1 745 0.2043275906 1
genomeend 123778
/* Novelty: 3.660421371 Fitness: 177.8738098 Generation: 551 Indiv: 124028 */
/* Point: 151.0275726 42.54305267 151.0275726 42.54305267 */

/* Organism #133116 Fitness: 8.832379341 Error: 0 */
genomestart 133116
trait 1 0.6254318729 0.418501827 0.3850696207 0.0185033574 0.2993001907 0.009514315181 0.3008895214 0.5374592998 
node 1 1 1 3
node 2 1 1 1
node 3 1 1 1
node 4 1 1 1
node 5 1 1 1
node 6 1 1 1
node 7 1 1 1
node 8 1 1 1
node 9 1 1 1
node 10 1 1 1
node 11 1 1 1
node 12 1 0 0
node 13 1 0 2
node 14 1 0 2
node 23 1 0 0
gene 1 1 12 -0.34813484 0 1 -0.34813484 1
gene 1 2 12 -0.2904488283 0 2 -0.2904488283 1
gene 1 3 12 0.08779947527 0 3 0.08779947527 1
gene 1 4 12 0.7788606282 0 4 0.7788606282 1
gene 1 5 12 1.253904016 0 5 1.253904016 1
gene 1 6 12 0.9369771579 0 6 0.9369771579 1
gene 1 7 12 -1.226886716 0 7 -1.226886716 1
gene 1 8 12 0.3823708624 0 8 0.3823708624 1
gene 1 9 12 -1.350136326 0 9 -1.350136326 1
gene 1 10 12 -0.6099104236 0 10 -0.6099104236 1
gene 1 11 12 -0.4545854597 0 11 -0.4545854597 1
gene 1 12 13 0.9483919794 0 12 0.9483919794 1
gene 1 12 14 -0.04033532443 0 13 -0.04033532443 1
gene 1 3 13 0.2680866373 0 14 0.2680866373 1
gene 1 10 13 -0.4868998344 0 15 -0.4868998344 1
gene 1 2 14 -0.810445834 0 16 -0.810445834 1
gene 1 8 14 0.439114168 0 17 0.439114168 1
gene 1 9 14 0.006399887803 0 19 0.006399887803 1
gene 1 11 13 -0.2305095905 0 24 -0.2305095905 1
gene 1 6 14 2.368669569 0 25 2.368669569 1
gene 1 2 13 0.1916594742 0 26 0.1916594742 1
gene 1 8 13 -0.0573211158 0 29 -0.0573211158 1
gene 1 7 14 0.6873260638 0 30 0.6873260638 1
gene 1 4 14 0.2881995463 0 32 0.2881995463 1
gene 1 13 14 -0.7835866259 0 33 -0.7835866259 1
gene 1 5 13 1.486480104 0 41 1.486480104 1
gene 1 10 14 0.02682733947 0 46 0.02682733947 1
gene 1 3 14 -0.3740951051 0 52 -0.3740951051 1
gene 1 12 23 1.050506984 0 119 1.050506984 1
gene 1 23 14 -0.7599361703 0 120 -0.7599361703 1
gene 1 14 14 0.9819875821 1 160 0.9819875821 1
gene 1 7 23 -1.786522284 0 163 -1.786522284 1
gene 1 5 23 -0.932695337 0 182 -0.932695337 1
gene 1 9 23 0.7727609008 0 187 0.7727609008 1
gene 1 4 23 -0.6115639995 0 189 -0.6115639995 1
gene 1 12 12 0.6115706044 1 253 0.6115706044 1
gene 1 6 23 0.7490337907 0 294 0.7490337907 1
gene 1 8 23 0.6420841598 0 313 0.6420841598 1
gene 1 11 23 -1.630826367 0 363 -1.630826367 1
gene 1 23 23 0.9146384831 1 408 0.9146384831 1
gene 1 2 23 0.3801200829 0 432 0.3801200829 1
gene 1 13 23 -0.4503923495 0 471 -0.4503923495 1
gene 1 13 13 0.137538984 1 745 0.137538984 1
genomeend 133116
/* Novelty: 2.622993469 Fitness: 243.292038 Generation: 551 Indiv: 133366 */
/* Point: 37.57060242 76.32601166 37.57060242 76.32601166 */

/* Organism #113825 Fitness: 8.784326553 Error: 0 */
genomestart 113825
trait 1 0.2597495997 0.4248602296 0.5949292102 0.01839317654 0.5986003814 0.01902863036 0.1902791741 0.7303457357 
node 1 1 1 3
node 2 1 1 1
node 3 1 1 1
node 4 1 1 1
node 5 1 1 1
node 6 1 1 1
node 7 1 1 1
node 8 1 1 1
node 9 1 1 1
node 10 1 1 1
node 11 1 1 1
node 12 1 0 0
node 13 1 0 2
node 14 1 0 2
node 23 1 0 0
gene 1 1 12 -0.5351879546 0 1 -0.5351879546 1
gene 1 2 12 -0.3286944968 0 2 -0.3286944968 1
gene 1 3 12 -0.2738053183 0 3 -0.2738053183 1
gene 1 4 12 -1.166862864 0 4 -1.166862864 1
gene 1 5 12 1.24336275 0 5 1.24336275 1
gene 1 6 12 0.7577716996 0 6 0.7577716996 1
gene 1 7 12 -0.4504201936 0 7 -0.4504201936 1
gene 1 8 12 -0.1707450973 0 8 -0.1707450973 1
gene 1 9 12 -1.25753855 0 9 -1.25753855 1
gene 1 10 12 0.40575285 0 10 0.40575285 1
gene 1 11 12 0.8030736255 0 11 0.8030736255 1
gene 1 12 13 1.006056929 0 12 1.006056929 1
gene 1 12 14 0.3816471979 0 13 0.3816471979 1
gene 1 3 13 -1.653171163 0 14 -1.653171163 1
gene 1 10 13 0.1538276487 0 15 0.1538276487 1
gene 1 2 14 -0.7360287987 0 16 0 1
gene 1 8 14 0.5906339457 0 17 0.5906339457 1
gene 1 9 14 0.3581691565 0 19 0.3569054552 1
gene 1 11 13 0.7228649449 0 24 0.7228649449 1
gene 1 6 14 1.212870774 0 25 1.212870774 1
gene 1 2 13 -0.3381953902 0 26 0.01035628864 1
gene 1 8 13 -0.6357970325 0 29 0 1
gene 1 7 14 0.202073541 0 30 0.202073541 1
gene 1 4 14 0.5810831533 0 32 0.5810831533 1
gene 1 13 14 -0.891304175 0 33 -0.891304175 1
gene 1 5 13 1.544992397 0 41 1.544992397 1
gene 1 10 14 0.02927618959 0 46 0.02927618959 1
gene 1 3 14 -0.1423011441 0 52 0 1
gene 1 12 23 0.890199702 0 119 0.390199702 1
gene 1 23 14 0.3214269125 0 120 0.3214269125 1
gene 1 14 14 0.5861243627 1 160 0.5861243627 1
gene 1 7 23 -1.018241491 0 163 -1.018241491 1
gene 1 5 23 -0.932695337 0 182 -0.932695337 1
gene 1 9 23 0.09942064625 0 187 0 1
gene 1 4 23 0.5475876861 0 189 0.1953198869 1
gene 1 12 12 0.00411545234 1 253 0.00411545234 1
gene 1 6 23 0.5970476175 0 294 0 1
gene 1 11 23 -1.005878704 0 363 -1.005878704 1
gene 1 23 23 -0.162701216 1 408 -0.162701216 1
gene 1 2 23 0.3801200829 0 432 0 1
gene 1 13 23 -0.4875396979 0 471 -0.1842041006 1
gene 1 13 13 0.515612656 1 745 0.515612656 1
genomeend 113825
/* Novelty: 0 Fitness: 132.00354 Generation: 551 Indiv: 114075 */
/* Point: 176.201355 104.4948196 176.201355 104.4948196 */

/* Organism #81922 Fitness: 8.784326553 Error: 0 */
genomestart 81922
trait 1 0.2597495997 0.4248602296 0.5949292102 0.01839317654 0.5986003814 0.01902863036 0.1902791741 0.7303457357 
node 1 1 1 3
node 2 1 1 1
node 3 1 1 1
node 4 1 1 1
node 5 1 1 1
node 6 1 1 1
node 7 1 1 1
node 8 1 1 1
node 9 1 1 1
node 10 1 1 1
node 11 1 1 1
node 12 1 0 0
node 13 1 0 2
node 14 1 0 2
node 23 1 0 0
gene 1 1 12 -0.5351879546 0 1 -0.5351879546 1
gene 1 2 12 -0.3286944968 0 2 -0.3286944968 1
gene 1 3 12 -0.2738053183 0 3 -0.2738053183 1
gene 1 4 12 -1.166862864 0 4 -1.166862864 1
gene 1 5 12 1.24336275 0 5 1.24336275 1
gene 1 6 12 0.7577716996 0 6 0.7577716996 1
gene 1 7 12 -0.4504201936 0 7 -0.4504201936 1
gene 1 8 12 -0.1707450973 0 8 -0.1707450973 1
gene 1 9 12 -1.25753855 0 9 -1.25753855 1
gene 1 10 12 0.40575285 0 10 0.40575285 1
gene 1 11 12 0.8030736255 0 11 0.8030736255 1
gene 1 12 13 1.006056929 0 12 1.006056929 1
gene 1 12 14 0.3816471979 0 13 0.3816471979 1
gene 1 3 13 -1.653171163 0 14 -1.653171163 1
gene 1 10 13 0.1538276487 0 15 0.1538276487 1
gene 1 2 14 -0.7360287987 0 16 0 1
gene 1 8 14 0.5906339457 0 17 0.5906339457 1
gene 1 9 14 0.3581691565 0 19 0.3569054552 1
gene 1 11 13 0.7228649449 0 24 0.7228649449 1
gene 1 6 14 1.212870774 0 25 1.212870774 1
gene 1 2 13 -0.3381953902 0 26 0.01035628864 1
gene 1 8 13 -0.6357970325 0 29 0 1
gene 1 7 14 0.202073541 0 30 0.202073541 1
gene 1 4 14 0.5810831533 0 32 0.5810831533 1
gene 1 13 14 -0.891304175 0 33 -0.891304175 1
gene 1 5 13 1.544992397 0 41 1.544992397 1
gene 1 10 14 0.02927618959 0 46 0.02927618959 1
gene 1 3 14 -0.1423011441 0 52 0 1
gene 1 12 23 0.890199702 0 119 0.390199702 1
gene 1 23 14 0.3214269125 0 120 0.3214269125 1
gene 1 14 14 0.5861243627 1 160 0.5861243627 1
gene 1 7 23 -1.018241491 0 163 -1.018241491 1
gene 1 5 23 -0.932695337 0 182 -0.932695337 1
gene 1 9 23 0.09942064625 0 187 0 1
gene 1 4 23 0.5475876861 0 189 0.1953198869 1
gene 1 12 12 0.00411545234 1 253 0.00411545234 1
gene 1 6 23 0.5970476175 0 294 0 1
gene 1 11 23 -1.005878704 0 363 -1.005878704 1
gene 1 23 23 -0.162701216 1 408 -0.162701216 1
gene 1 2 23 0.3801200829 0 432 0 1
gene 1 13 23 -0.4875396979 0 471 -0.1842041006 1
gene 1 13 13 0.515612656 1 745 0.515612656 1
genomeend 81922
/* Novelty: 0 Fitness: 132.00354 Generation: 551 Indiv: 82172 */
/* Point: 176.201355 104.4948196 176.201355 104.4948196 */

/* Organism #113329 Fitness: 8.737661362 Error: 0 */
genomestart 113329
trait 1 0.9911141462 0.4121434243 0.1752100312 0.01861353827 0 0 0.4114998687 0.3445728639 
node 1 1 1 3
node 2 1 1 1
node 3 1 1 1
node 4 1 1 1
node 5 1 1 1
node 6 1 1 1
node 7 1 1 1
node 8 1 1 1
node 9 1 1 1
node 10 1 1 1
node 11 1 1 1
node 12 1 0 0
node 13 1 0 2
node 14 1 0 2
node 23 1 0 0
gene 1 1 12 -0.4986005456 0 1 -0.4986005456 1
gene 1 2 12 -0.2904488283 0 2 -0.2904488283 1
gene 1 3 12 -0.326304245 0 3 -0.326304245 1
gene 1 4 12 -1.609435958 0 4 -1.609435958 1
gene 1 5 12 0.6634761661 0 5 0.6634761661 1
gene 1 6 12 0.1236413062 0 6 0.1236413062 1
gene 1 7 12 -0.9698371893 0 7 -0.9698371893 1
gene 1 8 12 0.6823703213 0 8 0.6823703213 1
gene 1 9 12 0.7535384185 0 9 0.7535384185 1
gene 1 10 12 -0.1366489784 0 10 -0.1366489784 1
gene 1 11 12 0.4023256502 0 11 0.4023256502 1
gene 1 12 13 1.248306166 0 12 1.248306166 1
gene 1 12 14 -0.04614337201 0 13 -0.04614337201 1
gene 1 3 13 -1.678393334 0 14 -1.678393334 1
gene 1 10 13 0.2653586865 0 15 0.2653586865 1
gene 1 8 14 0.06980802041 0 17 0.06980802041 1
gene 1 9 14 -0.5293620671 0 19 -0.5293620671 1
gene 1 11 13 0.561181915 0 24 0.561181915 1
gene 1 6 14 1.953477368 0 25 1.953477368 1
gene 1 2 13 0.1916594742 0 26 0.1916594742 1
gene 1 8 13 -0.0770955468 0 29 -0.0770955468 1
gene 1 7 14 0.8113735607 0 30 0.8113735607 1
gene 1 4 14 0.2137920932 0 32 0.2137920932 1
gene 1 13 14 -0.9736437569 0 33 -0.9736437569 1
gene 1 5 13 0.7631575948 0 41 0.7631575948 1
gene 1 10 14 -0.3528953442 0 46 -0.3528953442 1
gene 1 3 14 0.4108858547 0 52 0.4108858547 1
gene 1 12 23 0.8696894135 0 119 0.8696894135 1
gene 1 23 14 -0.09793450917 0 120 -0.09793450917 1
gene 1 14 14 1.244125946 1 160 1.244125946 1
gene 1 7 23 -0.720897615 0 163 -0.720897615 0
gene 1 5 23 -1.076489827 0 182 -1.076489827 1
gene 1 9 23 -0.6722593672 0 187 -0.6722593672 1
gene 1 4 23 0.5491670145 0 189 0.5491670145 1
gene 1 12 12 -0.1534386501 1 253 -0.1534386501 1
gene 1 6 23 0.174562927 0 294 0.174562927 1
gene 1 8 23 0.6513613885 0 313 0 1
gene 1 11 23 -1.147383138 0 363 -1.147383138 1
gene 1 23 23 0.9817204334 1 408 0.9817204334 1
gene 1 2 23 0.3801200829 0 432 0.3801200829 1
gene 1 13 23 0.06862645213 0 471 0.06862645213 1
gene 1 13 13 0.2120351463 1 745 0.2120351463 1
genomeend 113329
/* Novelty: 1.045806885 Fitness: 179.480072 Generation: 551 Indiv: 113579 */
/* Point: 133.9887085 82.59693909 133.9887085 82.59693909 */

/* Organism #112336 Fitness: 8.737661362 Error: 0 */
genomestart 112336
trait 1 0.9911141462 0.4121434243 0.1752100312 0.01861353827 0 0 0.4114998687 0.3445728639 
node 1 1 1 3
node 2 1 1 1
node 3 1 1 1
node 4 1 1 1
node 5 1 1 1
node 6 1 1 1
node 7 1 1 1
node 8 1 1 1
node 9 1 1 1
node 10 1 1 1
node 11 1 1 1
node 12 1 0 0
node 13 1 0 2
node 14 1 0 2
node 23 1 0 0
gene 1 1 12 -0.4986005456 0 1 -0.4986005456 1
gene 1 2 12 -0.2904488283 0 2 -0.2904488283 1
gene 1 3 12 -0.326304245 0 3 -0.326304245 1
gene 1 4 12 -1.609435958 0 4 -1.609435958 1
gene 1 5 12 0.6634761661 0 5 0.6634761661 1
gene 1 6 12 0.1236413062 0 6 0.1236413062 1
gene 1 7 12 -0.9698371893 0 7 -0.9698371893 1
gene 1 8 12 0.6823703213 0 8 0.6823703213 1
gene 1 9 12 0.7535384185 0 9 0.7535384185 1
gene 1 10 12 -0.1366489784 0 10 -0.1366489784 1
gene 1 11 12 0.4023256502 0 11 0.4023256502 1
gene 1 12 13 1.248306166 0 12 1.248306166 1
gene 1 12 14 -0.04614337201 0 13 -0.04614337201 1
gene 1 3 13 -1.678393334 0 14 -1.678393334 1
gene 1 10 13 0.2653586865 0 15 0.2653586865 1
gene 1 8 14 0.06980802041 0 17 0.06980802041 1
gene 1 9 14 -0.5293620671 0 19 -0.5293620671 1
gene 1 11 13 0.561181915 0 24 0.561181915 1
gene 1 6 14 1.953477368 0 25 1.953477368 1
gene 1 2 13 0.1916594742 0 26 0.1916594742 1
gene 1 8 13 -0.0770955468 0 29 -0.0770955468 1
gene 1 7 14 0.8113735607 0 30 0.8113735607 1
gene 1 4 14 0.2137920932 0 32 0.2137920932 1
gene 1 13 14 -0.9736437569 0 33 -0.9736437569 1
gene 1 5 13 0.7631575948 0 41 0.7631575948 1
gene 1 10 14 -0.3528953442 0 46 -0.3528953442 1
gene 1 3 14 0.4108858547 0 52 0.4108858547 1
gene 1 12 23 0.8696894135 0 119 0.8696894135 1
gene 1 23 14 -0.09793450917 0 120 -0.09793450917 1
gene 1 14 14 1.244125946 1 160 1.244125946 1
gene 1 7 23 -0.720897615 0 163 -0.720897615 0
gene 1 5 23 -1.076489827 0 182 -1.076489827 1
gene 1 9 23 -0.6722593672 0 187 -0.6722593672 1
gene 1 4 23 0.5491670145 0 189 0.5491670145 1
gene 1 12 12 -0.1534386501 1 253 -0.1534386501 1
gene 1 6 23 0.174562927 0 294 0.174562927 1
gene 1 8 23 0.6513613885 0 313 0 1
gene 1 11 23 -1.147383138 0 363 -1.147383138 1
gene 1 23 23 0.9817204334 1 408 0.9817204334 1
gene 1 2 23 0.3801200829 0 432 0.3801200829 1
gene 1 13 23 0.06862645213 0 471 0.06862645213 1
gene 1 13 13 0.2120351463 1 745 0.2120351463 1
genomeend 112336
/* Novelty: 1.045806885 Fitness: 179.480072 Generation: 551 Indiv: 112586 */
/* Point: 133.9887085 82.59693909 133.9887085 82.59693909 */

/* Organism #114425 Fitness: 8.737661362 Error: 0 */
genomestart 114425
trait 1 0.9911141462 0.4121434243 0.1752100312 0.01861353827 0 0 0.4114998687 0.3445728639 
node 1 1 1 3
node 2 1 1 1
node 3 1 1 1
node 4 1 1 1
node 5 1 1 1
node 6 1 1 1
node 7 1 1 1
node 8 1 1 1
node 9 1 1 1
node 10 1 1 1
node 11 1 1 1
node 12 1 0 0
node 13 1 0 2
node 14 1 0 2
node 23 1 0 0
gene 1 1 12 -0.4986005456 0 1 -0.4986005456 1
gene 1 2 12 -0.2904488283 0 2 -0.2904488283 1
gene 1 3 12 -0.326304245 0 3 -0.326304245 1
gene 1 4 12 -1.609435958 0 4 -1.609435958 1
gene 1 5 12 0.6634761661 0 5 0.6634761661 1
gene 1 6 12 0.1236413062 0 6 0.1236413062 1
gene 1 7 12 -0.9698371893 0 7 -0.9698371893 1
gene 1 8 12 0.6823703213 0 8 0.6823703213 1
gene 1 9 12 0.7535384185 0 9 0.7535384185 1
gene 1 10 12 -0.1366489784 0 10 -0.1366489784 1
gene 1 11 12 0.4023256502 0 11 0.4023256502 1
gene 1 12 13 1.248306166 0 12 1.248306166 1
gene 1 12 14 -0.04614337201 0 13 -0.04614337201 1
gene 1 3 13 -1.678393334 0 14 -1.678393334 1
gene 1 10 13 0.2653586865 0 15 0.2653586865 1
gene 1 8 14 0.06980802041 0 17 0.06980802041 1
gene 1 9 14 -0.5293620671 0 19 -0.5293620671 1
gene 1 11 13 0.561181915 0 24 0.561181915 1
gene 1 6 14 1.953477368 0 25 1.953477368 1
gene 1 2 13 0.1916594742 0 26 0.1916594742 1
gene 1 8 13 -0.0770955468 0 29 -0.0770955468 1
gene 1 7 14 0.8113735607 0 30 0.8113735607 1
gene 1 4 14 0.2137920932 0 32 0.2137920932 1
gene 1 13 14 -0.9736437569 0 33 -0.9736437569 1
gene 1 5 13 0.7631575948 0 41 0.7631575948 1
gene 1 10 14 -0.3528953442 0 46 -0.3528953442 1
gene 1 3 14 0.4108858547 0 52 0.4108858547 1
gene 1 12 23 0.8696894135 0 119 0.8696894135 1
gene 1 23 14 -0.09793450917 0 120 -0.09793450917 1
gene 1 14 14 1.244125946 1 160 1.244125946 1
gene 1 7 23 -0.720897615 0 163 -0.720897615 0
gene 1 5 23 -1.076489827 0 182 -1.076489827 1
gene 1 9 23 -0.6722593672 0 187 -0.6722593672 1
gene 1 4 23 0.5491670145 0 189 0.5491670145 1
gene 1 12 12 -0.1534386501 1 253 -0.1534386501 1
gene 1 6 23 0.174562927 0 294 0.174562927 1
gene 1 8 23 0.6513613885 0 313 0 1
gene 1 11 23 -1.147383138 0 363 -1.147383138 1
gene 1 23 23 0.9817204334 1 408 0.9817204334 1
gene 1 2 23 0.3801200829 0 432 0.3801200829 1
gene 1 13 23 0.06862645213 0 471 0.06862645213 1
gene 1 13 13 0.2120351463 1 745 0.2120351463 1
gene 1 14 23 0.5749773204 1 2349 0.5749773204 1
genomeend 114425
/* Novelty: 1.045806885 Fitness: 179.480072 Generation: 551 Indiv: 114675 */
/* Point: 133.9887085 82.59693909 133.9887085 82.59693909 */

/* Organism #114349 Fitness: 8.679865837 Error: 0 */
genomestart 114349
trait 1 0.4883760107 0.428251153 0.4530975991 0.01848728167 0.411558558 0.0133997284 0.2496284703 0.602646126 
node 1 1 1 3
node 2 1 1 1
node 3 1 1 1
node 4 1 1 1
node 5 1 1 1
node 6 1 1 1
node 7 1 1 1
node 8 1 1 1
node 9 1 1 1
node 10 1 1 1
node 11 1 1 1
node 12 1 0 0
node 13 1 0 2
node 14 1 0 2
node 23 1 0 0
gene 1 1 12 -0.5351879546 0 1 -0.5351879546 1
gene 1 2 12 -0.3286944968 0 2 -0.3286944968 1
gene 1 3 12 -0.9948172772 0 3 -0.9948172772 1
gene 1 4 12 -1.166862864 0 4 -1.166862864 1
gene 1 5 12 1.695874917 0 5 1.695874917 1
gene 1 6 12 0.8994116738 0 6 0.8994116738 1
gene 1 7 12 -0.4194180267 0 7 -0.4194180267 1
gene 1 8 12 -0.1707450973 0 8 -0.1707450973 1
gene 1 9 12 -1.25753855 0 9 -1.25753855 1
gene 1 10 12 -0.474855913 0 10 -0.474855913 1
gene 1 11 12 0.805095333 0 11 0.805095333 1
gene 1 12 13 1.006056929 0 12 1.006056929 1
gene 1 12 14 0.3816471979 0 13 0.3816471979 1
gene 1 3 13 -2.347207463 0 14 -2.347207463 1
gene 1 10 13 0.7551704731 0 15 0.7551704731 1
gene 1 2 14 -0.7360287987 0 16 0 1
gene 1 8 14 0.5906339457 0 17 0.5906339457 1
gene 1 9 14 0.03206315718 0 19 0.03206315718 1
gene 1 11 13 0.7228649449 0 24 0.7228649449 1
gene 1 6 14 1.061926303 0 25 1.061926303 1
gene 1 2 13 -0.3381953902 0 26 0.01035628864 1
gene 1 7 13 0.8486944407 0 27 0.8486944407 1
gene 1 8 13 -0.6357970325 0 29 0 1
gene 1 7 14 1.107712481 0 30 1.107712481 1
gene 1 4 14 0.5810831533 0 32 0.5810831533 1
gene 1 13 14 -0.7062232607 0 33 -0.7062232607 1
gene 1 5 13 1.544992397 0 41 1.544992397 1
gene 1 10 14 0.02927618959 0 46 0.02927618959 1
gene 1 3 14 0.3444502637 0 52 0.3444502637 1
gene 1 12 23 0.805754465 0 119 0.805754465 1
gene 1 23 14 0.3214269125 0 120 0.3214269125 1
gene 1 14 14 0.5861243627 1 160 0.5861243627 1
gene 1 7 23 -1.018241491 0 163 -1.018241491 0
gene 1 5 23 -1.366009551 0 182 -1.366009551 1
gene 1 9 23 -0.5992830268 0 187 -0.5992830268 1
gene 1 4 23 -0.0871251373 0 189 -0.0871251373 1
gene 1 12 12 0.00411545234 1 253 0.00411545234 1
gene 1 6 23 -0.4817121098 0 294 -0.4817121098 1
gene 1 8 23 0.03927394582 0 313 0.03927394582 1
gene 1 11 23 0.6287059589 0 363 0.6287059589 1
gene 1 23 23 0.6232263567 1 408 0.6232263567 1
gene 1 2 23 0.3801200829 0 432 0 1
gene 1 13 23 -0.167659509 0 471 -0.167659509 1
gene 1 13 13 -0.1482378319 1 745 -0.1482378319 1
gene 1 14 12 -0.5830481935 1 2347 -0.5830481935 1
genomeend 114349
/* Novelty: 3.113814831 Fitness: 271.6128235 Generation: 551 Indiv: 114599 */
/* Point: 58.69526672 13.7707243 58.69526672 13.7707243 */

/* Organism #113709 Fitness: 8.659423828 Error: 0 */
genomestart 113709
trait 1 1 0.645677839 0.4901607868 0.01858138681 0.1158491272 0 0.3089777665 0.4749465164 
node 1 1 1 3
node 2 1 1 1
node 3 1 1 1
node 4 1 1 1
node 5 1 1 1
node 6 1 1 1
node 7 1 1 1
node 8 1 1 1
node 9 1 1 1
node 10 1 1 1
node 11 1 1 1
node 12 1 0 0
node 13 1 0 2
node 14 1 0 2
node 23 1 0 0
gene 1 1 12 -0.9917033792 0 1 -0.9917033792 1
gene 1 2 12 -0.9312302064 0 2 -0.9312302064 1
gene 1 3 12 -0.9948172772 0 3 -0.9948172772 1
gene 1 4 12 -0.8289324844 0 4 -0.8289324844 1
gene 1 5 12 1.695874917 0 5 1.695874917 1
gene 1 6 12 0.8994116738 0 6 0.8994116738 1
gene 1 7 12 -0.4194180267 0 7 -0.4194180267 1
gene 1 8 12 1.136065049 0 8 1.136065049 1
gene 1 9 12 -0.4996074705 0 9 -0.4996074705 1
gene 1 10 12 -0.474855913 0 10 -0.474855913 1
gene 1 11 12 0.805095333 0 11 0.805095333 1
gene 1 12 13 0.831274937 0 12 0.831274937 1
gene 1 12 14 0.498296331 0 13 0.498296331 1
gene 1 3 13 -2.347207463 0 14 -2.347207463 1
gene 1 10 13 0.7551704731 0 15 0.7551704731 1
gene 1 8 14 0.8639609988 0 17 0.8639609988 1
gene 1 9 14 0.03206315718 0 19 0.03206315718 1
gene 1 11 13 1.264923578 0 24 1.264923578 1
gene 1 6 14 1.061926303 0 25 1.061926303 1
gene 1 2 13 0.2042562 0 26 0.2042562 1
gene 1 7 13 0.8486944407 0 27 0.8486944407 1
gene 1 8 13 -0.1565998654 0 29 -0.1565998654 1
gene 1 7 14 1.107712481 0 30 1.107712481 1
gene 1 4 14 0.1277488817 0 32 0.1277488817 1
gene 1 13 14 -0.7062232607 0 33 -0.7062232607 1
gene 1 5 13 0.7770500635 0 41 0.7770500635 1
gene 1 10 14 -0.1667015432 0 46 -0.1667015432 1
gene 1 3 14 0.3444502637 0 52 0.3444502637 1
gene 1 12 23 0.805754465 0 119 0.805754465 1
gene 1 23 14 -0.5218145246 0 120 -0.5218145246 1
gene 1 14 14 1.307999299 1 160 1.307999299 1
gene 1 7 23 0.02046797755 0 163 0.02046797755 0
gene 1 5 23 -1.366009551 0 182 -1.366009551 1
gene 1 9 23 -0.5992830268 0 187 -0.5992830268 1
gene 1 4 23 -0.0871251373 0 189 -0.0871251373 1
gene 1 12 12 0.04317310887 1 253 0.04317310887 1
gene 1 6 23 -0.4817121098 0 294 -0.4817121098 1
gene 1 8 23 0.03927394582 0 313 0.03927394582 1
gene 1 11 23 0.6287059589 0 363 0.6287059589 1
gene 1 23 23 0.6232263567 1 408 0.6232263567 1
gene 1 2 23 0.05929935 0 432 0.05929935 1
gene 1 13 23 -0.167659509 0 471 -0.167659509 1
gene 1 13 13 -0.1482378319 1 745 -0.1482378319 1
gene 1 14 23 -0.1786540557 1 2338 -0.1786540557 1
genomeend 113709
/* Novelty: 3.284877777 Fitness: 149.3166656 Generation: 551 Indiv: 113959 */
/* Point: 179.5825806 45.07358551 179.5825806 45.07358551 */

/* Organism #94351 Fitness: 8.653076172 Error: 0 */
genomestart 94351
trait 1 0.8585012109 0.5386599578 0.4007133874 0.01858138681 0.1701829309 0.003885413223 0.3089777665 0.4749465164 
node 1 1 1 3
node 2 1 1 1
node 3 1 1 1
node 4 1 1 1
node 5 1 1 1
node 6 1 1 1
node 7 1 1 1
node 8 1 1 1
node 9 1 1 1
node 10 1 1 1
node 11 1 1 1
node 12 1 0 0
node 13 1 0 2
node 14 1 0 2
node 23 1 0 0
gene 1 1 12 -0.9917033792 0 1 -0.9917033792 1
gene 1 2 12 -0.9312302064 0 2 -0.9312302064 1
gene 1 3 12 -0.9948172772 0 3 -0.9948172772 1
gene 1 4 12 -0.8289324844 0 4 -0.8289324844 1
gene 1 5 12 1.695874917 0 5 1.695874917 1
gene 1 6 12 0.8994116738 0 6 0.8994116738 1
gene 1 7 12 -0.4194180267 0 7 -0.4194180267 1
gene 1 8 12 1.136065049 0 8 1.136065049 1
gene 1 9 12 -0.4996074705 0 9 -0.4996074705 1
gene 1 10 12 -0.474855913 0 10 -0.474855913 1
gene 1 11 12 0.805095333 0 11 0.805095333 1
gene 1 12 13 0.831274937 0 12 0.831274937 1
gene 1 12 14 0.498296331 0 13 0.498296331 1
gene 1 3 13 -2.347207463 0 14 -2.347207463 1
gene 1 10 13 0.7551704731 0 15 0.7551704731 1
gene 1 8 14 0.8639609988 0 17 0.8639609988 1
gene 1 9 14 0.03206315718 0 19 0.03206315718 1
gene 1 11 13 1.264923578 0 24 1.264923578 1
gene 1 6 14 1.061926303 0 25 1.061926303 1
gene 1 2 13 0.2042562 0 26 0.2042562 1
gene 1 7 13 0.8486944407 0 27 0.8486944407 1
gene 1 8 13 -0.1565998654 0 29 -0.1565998654 1
gene 1 7 14 1.107712481 0 30 1.107712481 1
gene 1 4 14 0.1277488817 0 32 0.1277488817 1
gene 1 13 14 -0.7062232607 0 33 -0.7062232607 1
gene 1 5 13 0.7770500635 0 41 0.7770500635 1
gene 1 10 14 -0.1667015432 0 46 -0.1667015432 1
gene 1 3 14 0.3444502637 0 52 0.3444502637 1
gene 1 12 23 0.805754465 0 119 0.805754465 1
gene 1 23 14 -0.5218145246 0 120 -0.5218145246 1
gene 1 14 14 1.307999299 1 160 1.307999299 1
gene 1 7 23 0.02046797755 0 163 0.02046797755 0
gene 1 5 23 -1.366009551 0 182 -1.366009551 1
gene 1 9 23 -0.5992830268 0 187 -0.5992830268 1
gene 1 4 23 -0.0871251373 0 189 -0.0871251373 1
gene 1 12 12 0.04317310887 1 253 0.04317310887 1
gene 1 6 23 -0.4817121098 0 294 -0.4817121098 1
gene 1 8 23 0.03927394582 0 313 0.03927394582 1
gene 1 11 23 0.6287059589 0 363 0.6287059589 1
gene 1 23 23 0.6232263567 1 408 0.6232263567 1
gene 1 2 23 0.05929935 0 432 0.05929935 1
gene 1 13 23 -0.167659509 0 471 -0.167659509 1
gene 1 13 13 -0.1482378319 1 745 -0.1482378319 1
genomeend 94351
/* Novelty: 3.25828743 Fitness: 149.2971649 Generation: 551 Indiv: 94601 */
/* Point: 179.5955658 45.11378098 179.5955658 45.11378098 */

/* Organism #109645 Fitness: 8.653076172 Error: 0 */
genomestart 109645
trait 1 1 0.645677839 0.4901607868 0.01858138681 0.1158491272 0 0.3089777665 0.4749465164 
node 1 1 1 3
node 2 1 1 1
node 3 1 1 1
node 4 1 1 1
node 5 1 1 1
node 6 1 1 1
node 7 1 1 1
node 8 1 1 1
node 9 1 1 1
node 10 1 1 1
node 11 1 1 1
node 12 1 0 0
node 13 1 0 2
node 14 1 0 2
node 23 1 0 0
gene 1 1 12 -0.9917033792 0 1 -0.9917033792 1
gene 1 2 12 -0.9312302064 0 2 -0.9312302064 1
gene 1 3 12 -0.9948172772 0 3 -0.9948172772 1
gene 1 4 12 -0.8289324844 0 4 -0.8289324844 1
gene 1 5 12 1.695874917 0 5 1.695874917 1
gene 1 6 12 0.8994116738 0 6 0.8994116738 1
gene 1 7 12 -0.4194180267 0 7 -0.4194180267 1
gene 1 8 12 1.136065049 0 8 1.136065049 1
gene 1 9 12 -0.4996074705 0 9 -0.4996074705 1
gene 1 10 12 -0.474855913 0 10 -0.474855913 1
gene 1 11 12 0.805095333 0 11 0.805095333 1
gene 1 12 13 0.831274937 0 12 0.831274937 1
gene 1 12 14 0.498296331 0 13 0.498296331 1
gene 1 3 13 -2.347207463 0 14 -2.347207463 1
gene 1 10 13 0.7551704731 0 15 0.7551704731 1
gene 1 8 14 0.8639609988 0 17 0.8639609988 1
gene 1 9 14 0.03206315718 0 19 0.03206315718 1
gene 1 11 13 1.264923578 0 24 1.264923578 1
gene 1 6 14 1.061926303 0 25 1.061926303 1
gene 1 2 13 0.2042562 0 26 0.2042562 1
gene 1 7 13 0.8486944407 0 27 0.8486944407 1
gene 1 8 13 -0.1565998654 0 29 -0.1565998654 1
gene 1 7 14 1.107712481 0 30 1.107712481 1
gene 1 4 14 0.1277488817 0 32 0.1277488817 1
gene 1 13 14 -0.7062232607 0 33 -0.7062232607 1
gene 1 5 13 0.7770500635 0 41 0.7770500635 1
gene 1 10 14 -0.1667015432 0 46 -0.1667015432 1
gene 1 3 14 0.3444502637 0 52 0.3444502637 1
gene 1 12 23 0.805754465 0 119 0.805754465 1
gene 1 23 14 -0.5218145246 0 120 -0.5218145246 1
gene 1 14 14 1.307999299 1 160 1.307999299 1
gene 1 7 23 0.02046797755 0 163 0.02046797755 0
gene 1 5 23 -1.366009551 0 182 -1.366009551 1
gene 1 9 23 -0.5992830268 0 187 -0.5992830268 1
gene 1 4 23 -0.0871251373 0 189 -0.0871251373 1
gene 1 12 12 0.04317310887 1 253 0.04317310887 1
gene 1 6 23 -0.4817121098 0 294 -0.4817121098 1
gene 1 8 23 0.03927394582 0 313 0.03927394582 1
gene 1 11 23 0.6287059589 0 363 0.6287059589 1
gene 1 23 23 0.6232263567 1 408 0.6232263567 1
gene 1 2 23 0.05929935 0 432 0.05929935 1
gene 1 13 23 -0.167659509 0 471 -0.167659509 1
gene 1 13 13 -0.1482378319 1 745 -0.1482378319 1
genomeend 109645
/* Novelty: 3.25828743 Fitness: 149.2971649 Generation: 551 Indiv: 109895 */
/* Point: 179.5955658 45.11378098 179.5955658 45.11378098 */

/* Organism #88380 Fitness: 8.47651577 Error: 0 */
genomestart 88380
trait 1 0.4428906973 0.4511407287 0.4473219448 0.01854923534 0.4490334693 0.01554165289 0.2064556643 0.6053201688 
node 1 1 1 3
node 2 1 1 1
node 3 1 1 1
node 4 1 1 1
node 5 1 1 1
node 6 1 1 1
node 7 1 1 1
node 8 1 1 1
node 9 1 1 1
node 10 1 1 1
node 11 1 1 1
node 12 1 0 0
node 13 1 0 2
node 14 1 0 2
node 23 1 0 0
gene 1 1 12 -0.5773545857 0 1 -0.5773545857 1
gene 1 2 12 -0.3456946745 0 2 -0.3456946745 1
gene 1 3 12 -0.2145079252 0 3 -0.2145079252 1
gene 1 4 12 -1.282758887 0 4 -1.282758887 1
gene 1 5 12 1.223480099 0 5 1.223480099 1
gene 1 6 12 0.717178722 0 6 0.717178722 1
gene 1 7 12 -0.8409277553 0 7 -0.8409277553 1
gene 1 8 12 0.06134140196 0 8 0.06134140196 1
gene 1 9 12 -0.6511547706 0 9 -0.6511547706 1
gene 1 10 12 0.3433189262 0 10 0.3433189262 1
gene 1 11 12 0.8360476622 0 11 0.8360476622 1
gene 1 12 13 1.28552175 0 12 1.28552175 1
gene 1 12 14 0.3404789286 0 13 0.3404789286 1
gene 1 3 13 -1.686744488 0 14 -1.686744488 1
gene 1 10 13 0.1326046029 0 15 0.1326046029 1
gene 1 8 14 0.5689284601 0 17 0.5689284601 1
gene 1 9 14 -0.3714487263 0 19 -0.3714487263 1
gene 1 11 13 0.4045495726 0 24 0.4045495726 1
gene 1 6 14 1.511742491 0 25 1.511742491 1
gene 1 2 13 -0.7066321645 0 26 -0.7066321645 1
gene 1 7 13 0.3776928068 0 27 0.1175967333 1
gene 1 8 13 -0.3821731289 0 29 -0.06427461266 1
gene 1 7 14 0.370877948 0 30 0.370877948 1
gene 1 4 14 0.2475563215 0 32 0.2475563215 1
gene 1 13 14 -0.8975476064 0 33 -0.8975476064 1
gene 1 5 13 0.9520287138 0 41 0.9122520731 1
gene 1 10 14 0.3497552572 0 46 0.3497552572 1
gene 1 3 14 0.0305476458 0 52 0.08391057485 1
gene 1 12 23 0.8473669111 0 119 0.6598669111 1
gene 1 23 14 -0.05177824934 0 120 -0.05177824934 1
gene 1 14 14 0.9826832045 1 160 0.9826832045 1
gene 1 7 23 -0.8233806671 0 163 -0.8233806671 1
gene 1 5 23 -0.461094809 0 182 -0.461094809 1
gene 1 9 23 -0.2497425113 0 187 -0.2870252537 1
gene 1 4 23 0.4030696089 0 189 0.2741144324 1
gene 1 12 12 0.2397848678 1 253 0.2397848678 1
gene 1 6 23 0.4914264449 0 294 0.1929026361 1
gene 1 8 23 0.6513613885 0 313 0 1
gene 1 11 23 -1.126344514 0 363 -1.126344514 1
gene 1 23 23 0.3113336456 1 408 0.3113336456 1
gene 1 2 23 0.3801200829 0 432 0.1900600415 1
gene 1 13 23 -0.4039454701 0 471 -0.2929029747 1
gene 1 13 13 0.5568930132 1 745 0.5568930132 1
genomeend 88380
/* Novelty: 0.5566072464 Fitness: 257.8978577 Generation: 551 Indiv: 88630 */
/* Point: 72.67669678 14.02972984 72.67669678 14.02972984 */

/* Organism #107433 Fitness: 8.351114273 Error: 0 */
genomestart 107433
trait 1 0.4883760107 0.428251153 0.4530975991 0.01848728167 0.411558558 0.0133997284 0.2496284703 0.602646126 
node 1 1 1 3
node 2 1 1 1
node 3 1 1 1
node 4 1 1 1
node 5 1 1 1
node 6 1 1 1
node 7 1 1 1
node 8 1 1 1
node 9 1 1 1
node 10 1 1 1
node 11 1 1 1
node 12 1 0 0
node 13 1 0 2
node 14 1 0 2
node 23 1 0 0
gene 1 1 12 -0.5351879546 0 1 -0.5351879546 1
gene 1 2 12 -0.3286944968 0 2 -0.3286944968 1
gene 1 3 12 -0.9948172772 0 3 -0.9948172772 1
gene 1 4 12 -1.166862864 0 4 -1.166862864 1
gene 1 5 12 1.695874917 0 5 1.695874917 1
gene 1 6 12 0.8994116738 0 6 0.8994116738 1
gene 1 7 12 -0.4194180267 0 7 -0.4194180267 1
gene 1 8 12 -0.1707450973 0 8 -0.1707450973 1
gene 1 9 12 -1.25753855 0 9 -1.25753855 1
gene 1 10 12 -0.474855913 0 10 -0.474855913 1
gene 1 11 12 0.805095333 0 11 0.805095333 1
gene 1 12 13 1.006056929 0 12 1.006056929 1
gene 1 12 14 0.3816471979 0 13 0.3816471979 1
gene 1 3 13 -2.347207463 0 14 -2.347207463 1
gene 1 10 13 0.7551704731 0 15 0.7551704731 1
gene 1 2 14 -0.7360287987 0 16 0 1
gene 1 8 14 0.5906339457 0 17 0.5906339457 1
gene 1 9 14 0.03206315718 0 19 0.03206315718 1
gene 1 11 13 0.7228649449 0 24 0.7228649449 1
gene 1 6 14 1.061926303 0 25 1.061926303 1
gene 1 2 13 -0.3381953902 0 26 0.01035628864 1
gene 1 7 13 0.8486944407 0 27 0.8486944407 1
gene 1 8 13 -0.6357970325 0 29 0 1
gene 1 7 14 1.107712481 0 30 1.107712481 1
gene 1 4 14 0.5810831533 0 32 0.5810831533 1
gene 1 13 14 -0.7062232607 0 33 -0.7062232607 1
gene 1 5 13 1.544992397 0 41 1.544992397 1
gene 1 10 14 0.02927618959 0 46 0.02927618959 1
gene 1 3 14 0.3444502637 0 52 0.3444502637 1
gene 1 12 23 0.805754465 0 119 0.805754465 1
gene 1 23 14 0.3214269125 0 120 0.3214269125 1
gene 1 14 14 0.5861243627 1 160 0.5861243627 1
gene 1 7 23 -1.018241491 0 163 -1.018241491 0
gene 1 5 23 -1.366009551 0 182 -1.366009551 1
gene 1 9 23 -0.5992830268 0 187 -0.5992830268 1
gene 1 4 23 -0.0871251373 0 189 -0.0871251373 1
gene 1 12 12 0.00411545234 1 253 0.00411545234 1
gene 1 6 23 -0.4817121098 0 294 -0.4817121098 1
gene 1 8 23 0.03927394582 0 313 0.03927394582 1
gene 1 11 23 0.6287059589 0 363 0.6287059589 1
gene 1 23 23 0.6232263567 1 408 0.6232263567 1
gene 1 2 23 0.3801200829 0 432 0 1
gene 1 13 23 -0.167659509 0 471 -0.167659509 1
gene 1 13 13 -0.1482378319 1 745 -0.1482378319 1
genomeend 107433
/* Novelty: 1.281813145 Fitness: 243.4003296 Generation: 551 Indiv: 107683 */
/* Point: 87.28887939 14.07683945 87.28887939 14.07683945 */

/* Organism #106053 Fitness: 8.351114273 Error: 0 */
genomestart 106053
trait 1 0.4883760107 0.428251153 0.4530975991 0.01848728167 0.411558558 0.0133997284 0.2496284703 0.602646126 
node 1 1 1 3
node 2 1 1 1
node 3 1 1 1
node 4 1 1 1
node 5 1 1 1
node 6 1 1 1
node 7 1 1 1
node 8 1 1 1
node 9 1 1 1
node 10 1 1 1
node 11 1 1 1
node 12 1 0 0
node 13 1 0 2
node 14 1 0 2
node 23 1 0 0
gene 1 1 12 -0.5351879546 0 1 -0.5351879546 1
gene 1 2 12 -0.3286944968 0 2 -0.3286944968 1
gene 1 3 12 -0.9948172772 0 3 -0.9948172772 1
gene 1 4 12 -1.166862864 0 4 -1.166862864 1
gene 1 5 12 1.695874917 0 5 1.695874917 1
gene 1 6 12 0.8994116738 0 6 0.8994116738 1
gene 1 7 12 -0.4194180267 0 7 -0.4194180267 1
gene 1 8 12 -0.1707450973 0 8 -0.1707450973 1
gene 1 9 12 -1.25753855 0 9 -1.25753855 1
gene 1 10 12 -0.474855913 0 10 -0.474855913 1
gene 1 11 12 0.805095333 0 11 0.805095333 1
gene 1 12 13 1.006056929 0 12 1.006056929 1
gene 1 12 14 0.3816471979 0 13 0.3816471979 1
gene 1 3 13 -2.347207463 0 14 -2.347207463 1
gene 1 10 13 0.7551704731 0 15 0.7551704731 1
gene 1 2 14 -0.7360287987 0 16 0 1
gene 1 8 14 0.5906339457 0 17 0.5906339457 1
gene 1 9 14 0.03206315718 0 19 0.03206315718 1
gene 1 11 13 0.7228649449 0 24 0.7228649449 1
gene 1 6 14 1.061926303 0 25 1.061926303 1
gene 1 2 13 -0.3381953902 0 26 0.01035628864 1
gene 1 7 13 0.8486944407 0 27 0.8486944407 1
gene 1 8 13 -0.6357970325 0 29 0 1
gene 1 7 14 1.107712481 0 30 1.107712481 1
gene 1 4 14 0.5810831533 0 32 0.5810831533 1
gene 1 13 14 -0.7062232607 0 33 -0.7062232607 1
gene 1 5 13 1.544992397 0 41 1.544992397 1
gene 1 10 14 0.02927618959 0 46 0.02927618959 1
gene 1 3 14 0.3444502637 0 52 0.3444502637 1
gene 1 12 23 0.805754465 0 119 0.805754465 1
gene 1 23 14 0.3214269125 0 120 0.3214269125 1
gene 1 14 14 0.5861243627 1 160 0.5861243627 1
gene 1 7 23 -1.018241491 0 163 -1.018241491 0
gene 1 5 23 -1.366009551 0 182 -1.366009551 1
gene 1 9 23 -0.5992830268 0 187 -0.5992830268 1
gene 1 4 23 -0.0871251373 0 189 -0.0871251373 1
gene 1 12 12 0.00411545234 1 253 0.00411545234 1
gene 1 6 23 -0.4817121098 0 294 -0.4817121098 1
gene 1 8 23 0.03927394582 0 313 0.03927394582 1
gene 1 11 23 0.6287059589 0 363 0.6287059589 1
gene 1 23 23 0.6232263567 1 408 0.6232263567 1
gene 1 2 23 0.3801200829 0 432 0 1
gene 1 13 23 -0.167659509 0 471 -0.167659509 1
gene 1 13 13 -0.1482378319 1 745 -0.1482378319 1
genomeend 106053
/* Novelty: 1.281813145 Fitness: 243.4003296 Generation: 551 Indiv: 106303 */
/* Point: 87.28887939 14.07683945 87.28887939 14.07683945 */

/* Organism #120917 Fitness: 8.351114273 Error: 0 */
genomestart 120917
trait 1 0.4883760107 0.428251153 0.4530975991 0.01848728167 0.411558558 0.0133997284 0.2496284703 0.602646126 
node 1 1 1 3
node 2 1 1 1
node 3 1 1 1
node 4 1 1 1
node 5 1 1 1
node 6 1 1 1
node 7 1 1 1
node 8 1 1 1
node 9 1 1 1
node 10 1 1 1
node 11 1 1 1
node 12 1 0 0
node 13 1 0 2
node 14 1 0 2
node 23 1 0 0
gene 1 1 12 -0.5351879546 0 1 -0.5351879546 1
gene 1 2 12 -0.3286944968 0 2 -0.3286944968 1
gene 1 3 12 -0.9948172772 0 3 -0.9948172772 1
gene 1 4 12 -1.166862864 0 4 -1.166862864 1
gene 1 5 12 1.695874917 0 5 1.695874917 1
gene 1 6 12 0.8994116738 0 6 0.8994116738 1
gene 1 7 12 -0.4194180267 0 7 -0.4194180267 1
gene 1 8 12 -0.1707450973 0 8 -0.1707450973 1
gene 1 9 12 -1.25753855 0 9 -1.25753855 1
gene 1 10 12 -0.474855913 0 10 -0.474855913 1
gene 1 11 12 0.805095333 0 11 0.805095333 1
gene 1 12 13 1.006056929 0 12 1.006056929 1
gene 1 12 14 0.3816471979 0 13 0.3816471979 1
gene 1 3 13 -2.347207463 0 14 -2.347207463 1
gene 1 10 13 0.7551704731 0 15 0.7551704731 1
gene 1 2 14 -0.7360287987 0 16 0 1
gene 1 8 14 0.5906339457 0 17 0.5906339457 1
gene 1 9 14 0.03206315718 0 19 0.03206315718 1
gene 1 11 13 0.7228649449 0 24 0.7228649449 1
gene 1 6 14 1.061926303 0 25 1.061926303 1
gene 1 2 13 -0.3381953902 0 26 0.01035628864 1
gene 1 7 13 0.8486944407 0 27 0.8486944407 1
gene 1 8 13 -0.6357970325 0 29 0 1
gene 1 7 14 1.107712481 0 30 1.107712481 1
gene 1 4 14 0.5810831533 0 32 0.5810831533 1
gene 1 13 14 -0.7062232607 0 33 -0.7062232607 1
gene 1 5 13 1.544992397 0 41 1.544992397 1
gene 1 10 14 0.02927618959 0 46 0.02927618959 1
gene 1 3 14 0.3444502637 0 52 0.3444502637 1
gene 1 12 23 0.805754465 0 119 0.805754465 1
gene 1 23 14 0.3214269125 0 120 0.3214269125 1
gene 1 14 14 0.5861243627 1 160 0.5861243627 1
gene 1 7 23 -1.018241491 0 163 -1.018241491 0
gene 1 5 23 -1.366009551 0 182 -1.366009551 1
gene 1 9 23 -0.5992830268 0 187 -0.5992830268 1
gene 1 4 23 -0.0871251373 0 189 -0.0871251373 1
gene 1 12 12 0.00411545234 1 253 0.00411545234 1
gene 1 6 23 -0.4817121098 0 294 -0.4817121098 1
gene 1 8 23 0.03927394582 0 313 0.03927394582 1
gene 1 11 23 0.6287059589 0 363 0.6287059589 1
gene 1 23 23 0.6232263567 1 408 0.6232263567 1
gene 1 2 23 0.3801200829 0 432 0 1
gene 1 13 23 -0.167659509 0 471 -0.167659509 1
gene 1 13 13 -0.1482378319 1 745 -0.1482378319 1
genomeend 120917
/* Novelty: 1.281813145 Fitness: 243.4003296 Generation: 551 Indiv: 121167 */
/* Point: 87.28887939 14.07683945 87.28887939 14.07683945 */

/* Species #3 : (Size 16) (AF 0) (Age 1)  */


/* Organism #112107 Fitness: 8.872293472 Error: 0 */
genomestart 112107
trait 1 0.7525965186 0.5278240495 0.2277585202 0.1487918522 0.2173119714 0.113452271 0.6688569673 0.8409118535 
node 1 1 1 3
node 2 1 1 1
node 3 1 1 1
node 4 1 1 1
node 5 1 1 1
node 6 1 1 1
node 7 1 1 1
node 8 1 1 1
node 9 1 1 1
node 10 1 1 1
node 11 1 1 1
node 12 1 0 0
node 13 1 0 2
node 14 1 0 2
node 24 1 0 0
gene 1 1 12 1.346276796 0 1 1.346276796 1
gene 1 2 12 0.3290797743 0 2 0.3290797743 1
gene 1 3 12 -2.885801414 0 3 -2.885801414 1
gene 1 4 12 -0.9086411726 0 4 -0.9086411726 1
gene 1 5 12 1.487160238 0 5 1.487160238 1
gene 1 6 12 0.2338723214 0 6 0.2338723214 1
gene 1 7 12 -0.2195553618 0 7 -0.2195553618 0
gene 1 8 12 0.3645201774 0 8 0.3645201774 1
gene 1 9 12 -1.051389633 0 9 -1.051389633 1
gene 1 10 12 -0.2869035555 0 10 -0.2869035555 1
gene 1 11 12 0.2199821956 0 11 0.2199821956 0
gene 1 12 13 -0.5824757592 0 12 -0.5824757592 0
gene 1 12 14 0.611554739 0 13 0.611554739 1
gene 1 3 13 0.7661502964 0 14 0.7661502964 1
gene 1 6 13 -0.1429315409 0 20 -0.1429315409 0
gene 1 6 14 -1.277784253 0 25 -1.277784253 1
gene 1 11 14 0.4299950019 0 28 0.4299950019 1
gene 1 5 14 -0.06686222324 0 31 0 1
gene 1 9 13 1.077643604 0 40 1.077643604 1
gene 1 5 13 2.169540739 0 41 2.169540739 1
gene 1 4 13 0.8864088598 0 43 0 1
gene 1 10 14 1.832011089 0 46 1.832011089 1
gene 1 1 13 -1.152411935 0 74 -1.152411935 1
gene 1 13 13 0.570997491 1 130 0.570997491 1
gene 1 7 24 -0.1524624475 0 137 -0.1524624475 1
gene 1 24 12 -0.4618764595 0 138 -0.4618764595 1
gene 1 12 12 -0.5860773736 1 152 -0.5860773736 0
gene 1 24 24 0.2109778779 1 158 0.2109778779 1
gene 1 8 24 -0.8224074891 0 164 0 1
gene 1 10 24 -0.4446085074 0 340 -0.4446085074 1
gene 1 24 13 -0.6689861965 0 378 -0.6689861965 1
genomeend 112107
/* Novelty: 3.200534821 Fitness: 139.1565857 Generation: 551 Indiv: 112357 */
/* Point: 181.1386108 77.69749451 181.1386108 77.69749451 */

/* Organism #108402 Fitness: 8.872293472 Error: 0 */
genomestart 108402
trait 1 0.7525965186 0.5278240495 0.2277585202 0.1487918522 0.2173119714 0.113452271 0.6688569673 0.8409118535 
node 1 1 1 3
node 2 1 1 1
node 3 1 1 1
node 4 1 1 1
node 5 1 1 1
node 6 1 1 1
node 7 1 1 1
node 8 1 1 1
node 9 1 1 1
node 10 1 1 1
node 11 1 1 1
node 12 1 0 0
node 13 1 0 2
node 14 1 0 2
node 24 1 0 0
gene 1 1 12 1.346276796 0 1 1.346276796 1
gene 1 2 12 0.3290797743 0 2 0.3290797743 1
gene 1 3 12 -2.885801414 0 3 -2.885801414 1
gene 1 4 12 -0.9086411726 0 4 -0.9086411726 1
gene 1 5 12 1.487160238 0 5 1.487160238 1
gene 1 6 12 0.2338723214 0 6 0.2338723214 1
gene 1 7 12 -0.2195553618 0 7 -0.2195553618 0
gene 1 8 12 0.3645201774 0 8 0.3645201774 1
gene 1 9 12 -1.051389633 0 9 -1.051389633 1
gene 1 10 12 -0.2869035555 0 10 -0.2869035555 1
gene 1 11 12 0.2199821956 0 11 0.2199821956 0
gene 1 12 13 -0.5824757592 0 12 -0.5824757592 0
gene 1 12 14 0.611554739 0 13 0.611554739 1
gene 1 3 13 0.7661502964 0 14 0.7661502964 1
gene 1 6 13 -0.1429315409 0 20 -0.1429315409 0
gene 1 6 14 -1.277784253 0 25 -1.277784253 1
gene 1 11 14 0.4299950019 0 28 0.4299950019 1
gene 1 5 14 -0.06686222324 0 31 0 1
gene 1 9 13 1.077643604 0 40 1.077643604 1
gene 1 5 13 2.169540739 0 41 2.169540739 1
gene 1 4 13 0.8864088598 0 43 0 1
gene 1 10 14 1.832011089 0 46 1.832011089 1
gene 1 1 13 -1.152411935 0 74 -1.152411935 1
gene 1 13 13 0.570997491 1 130 0.570997491 1
gene 1 7 24 -0.1524624475 0 137 -0.1524624475 1
gene 1 24 12 -0.4618764595 0 138 -0.4618764595 1
gene 1 12 12 -0.5860773736 1 152 -0.5860773736 0
gene 1 24 24 0.2109778779 1 158 0.2109778779 1
gene 1 8 24 -0.8224074891 0 164 0 1
gene 1 10 24 -0.4446085074 0 340 -0.4446085074 1
gene 1 24 13 -0.6689861965 0 378 -0.6689861965 1
genomeend 108402
/* Novelty: 3.200534821 Fitness: 139.1565857 Generation: 551 Indiv: 108652 */
/* Point: 181.1386108 77.69749451 181.1386108 77.69749451 */

/* Organism #77219 Fitness: 8.871837616 Error: 0 */
genomestart 77219
trait 1 0.5391015832 1 0.2953078765 0.2363144827 0.4178379493 0.03099572964 0.7198937197 0.7103314552 
node 1 1 1 3
node 2 1 1 1
node 3 1 1 1
node 4 1 1 1
node 5 1 1 1
node 6 1 1 1
node 7 1 1 1
node 8 1 1 1
node 9 1 1 1
node 10 1 1 1
node 11 1 1 1
node 12 1 0 0
node 13 1 0 2
node 14 1 0 2
node 24 1 0 0
gene 1 1 12 1.459821871 0 1 1.459821871 1
gene 1 2 12 0.4374463211 0 2 0.4374463211 1
gene 1 3 12 -3 0 3 -3 1
gene 1 4 12 -1.096304375 0 4 -1.096304375 1
gene 1 5 12 1.700429656 0 5 1.700429656 1
gene 1 6 12 0.2147589468 0 6 0.2147589468 1
gene 1 7 12 -0.09214949273 0 7 -0.09214949273 1
gene 1 8 12 0.3863632088 0 8 0.3863632088 1
gene 1 9 12 -1.025014744 0 9 -1.025014744 1
gene 1 10 12 -0.2617804102 0 10 -0.2617804102 1
gene 1 11 12 0.1545096912 0 11 0.1545096912 1
gene 1 12 13 0.203087831 0 12 0.203087831 1
gene 1 12 14 0.5861106055 0 13 0.5861106055 1
gene 1 3 13 0.5696262273 0 14 0.5696262273 1
gene 1 6 13 -0.2613565984 0 20 -0.2613565984 0
gene 1 6 14 -1.200328124 0 25 -1.200328124 1
gene 1 11 14 0.6450523736 0 28 0.6450523736 1
gene 1 9 13 1.195327255 0 40 1.195327255 1
gene 1 5 13 2.169540739 0 41 2.169540739 1
gene 1 10 14 1.803811028 0 46 1.803811028 1
gene 1 1 13 -1.152411935 0 74 -1.152411935 1
gene 1 13 13 0.7121056072 1 130 0.7121056072 1
gene 1 7 24 -0.1559561332 0 137 -0.1559561332 1
gene 1 24 12 -0.6348896727 0 138 -0.6348896727 1
gene 1 12 12 -0.6906527248 1 152 -0.6906527248 1
gene 1 24 24 0.3489140262 1 158 0.3489140262 1
gene 1 10 24 -0.3682166661 0 340 -0.3682166661 1
genomeend 77219
/* Novelty: 3.011236191 Fitness: 207.1861267 Generation: 551 Indiv: 77469 */
/* Point: 121.0869675 42.33280182 121.0869675 42.33280182 */

/* Organism #85823 Fitness: 8.871837616 Error: 0 */
genomestart 85823
trait 1 0.5391015832 1 0.2953078765 0.2363144827 0.4178379493 0.03099572964 0.7198937197 0.7103314552 
node 1 1 1 3
node 2 1 1 1
node 3 1 1 1
node 4 1 1 1
node 5 1 1 1
node 6 1 1 1
node 7 1 1 1
node 8 1 1 1
node 9 1 1 1
node 10 1 1 1
node 11 1 1 1
node 12 1 0 0
node 13 1 0 2
node 14 1 0 2
node 24 1 0 0
gene 1 1 12 1.459821871 0 1 1.459821871 1
gene 1 2 12 0.4374463211 0 2 0.4374463211 1
gene 1 3 12 -3 0 3 -3 1
gene 1 4 12 -1.096304375 0 4 -1.096304375 1
gene 1 5 12 1.700429656 0 5 1.700429656 1
gene 1 6 12 0.2147589468 0 6 0.2147589468 1
gene 1 7 12 -0.09214949273 0 7 -0.09214949273 1
gene 1 8 12 0.3863632088 0 8 0.3863632088 1
gene 1 9 12 -1.025014744 0 9 -1.025014744 1
gene 1 10 12 -0.2617804102 0 10 -0.2617804102 1
gene 1 11 12 0.1545096912 0 11 0.1545096912 1
gene 1 12 13 0.203087831 0 12 0.203087831 1
gene 1 12 14 0.5861106055 0 13 0.5861106055 1
gene 1 3 13 0.5696262273 0 14 0.5696262273 1
gene 1 6 13 -0.2613565984 0 20 -0.2613565984 0
gene 1 6 14 -1.200328124 0 25 -1.200328124 1
gene 1 11 14 0.6450523736 0 28 0.6450523736 1
gene 1 9 13 1.195327255 0 40 1.195327255 1
gene 1 5 13 2.169540739 0 41 2.169540739 1
gene 1 10 14 1.803811028 0 46 1.803811028 1
gene 1 1 13 -1.152411935 0 74 -1.152411935 1
gene 1 13 13 0.7121056072 1 130 0.7121056072 1
gene 1 7 24 -0.1559561332 0 137 -0.1559561332 1
gene 1 24 12 -0.6348896727 0 138 -0.6348896727 1
gene 1 12 12 -0.6906527248 1 152 -0.6906527248 1
gene 1 24 24 0.3489140262 1 158 0.3489140262 1
gene 1 10 24 -0.3682166661 0 340 -0.3682166661 1
genomeend 85823
/* Novelty: 3.011236191 Fitness: 207.1861267 Generation: 551 Indiv: 86073 */
/* Point: 121.0869675 42.33280182 121.0869675 42.33280182 */

/* Organism #77174 Fitness: 8.871837616 Error: 0 */
genomestart 77174
trait 1 0.5391015832 1 0.2953078765 0.2363144827 0.4178379493 0.03099572964 0.7198937197 0.7103314552 
node 1 1 1 3
node 2 1 1 1
node 3 1 1 1
node 4 1 1 1
node 5 1 1 1
node 6 1 1 1
node 7 1 1 1
node 8 1 1 1
node 9 1 1 1
node 10 1 1 1
node 11 1 1 1
node 12 1 0 0
node 13 1 0 2
node 14 1 0 2
node 24 1 0 0
gene 1 1 12 1.459821871 0 1 1.459821871 1
gene 1 2 12 0.4374463211 0 2 0.4374463211 1
gene 1 3 12 -3 0 3 -3 1
gene 1 4 12 -1.096304375 0 4 -1.096304375 1
gene 1 5 12 1.700429656 0 5 1.700429656 1
gene 1 6 12 0.2147589468 0 6 0.2147589468 1
gene 1 7 12 -0.09214949273 0 7 -0.09214949273 1
gene 1 8 12 0.3863632088 0 8 0.3863632088 1
gene 1 9 12 -1.025014744 0 9 -1.025014744 1
gene 1 10 12 -0.2617804102 0 10 -0.2617804102 1
gene 1 11 12 0.1545096912 0 11 0.1545096912 1
gene 1 12 13 0.203087831 0 12 0.203087831 1
gene 1 12 14 0.5861106055 0 13 0.5861106055 1
gene 1 3 13 0.5696262273 0 14 0.5696262273 1
gene 1 6 13 -0.2613565984 0 20 -0.2613565984 0
gene 1 6 14 -1.200328124 0 25 -1.200328124 1
gene 1 11 14 0.6450523736 0 28 0.6450523736 1
gene 1 9 13 1.195327255 0 40 1.195327255 1
gene 1 5 13 2.169540739 0 41 2.169540739 1
gene 1 10 14 1.803811028 0 46 1.803811028 1
gene 1 1 13 -1.152411935 0 74 -1.152411935 1
gene 1 13 13 0.7121056072 1 130 0.7121056072 1
gene 1 7 24 -0.1559561332 0 137 -0.1559561332 1
gene 1 24 12 -0.6348896727 0 138 -0.6348896727 1
gene 1 12 12 -0.6906527248 1 152 -0.6906527248 1
gene 1 24 24 0.3489140262 1 158 0.3489140262 1
gene 1 10 24 -0.3682166661 0 340 -0.3682166661 1
genomeend 77174
/* Novelty: 3.011236191 Fitness: 207.1861267 Generation: 551 Indiv: 77424 */
/* Point: 121.0869675 42.33280182 121.0869675 42.33280182 */

/* Organism #108696 Fitness: 8.871837616 Error: 0 */
genomestart 108696
trait 1 0.5391015832 1 0.2953078765 0.2363144827 0.4178379493 0.03099572964 0.7198937197 0.7103314552 
node 1 1 1 3
node 2 1 1 1
node 3 1 1 1
node 4 1 1 1
node 5 1 1 1
node 6 1 1 1
node 7 1 1 1
node 8 1 1 1
node 9 1 1 1
node 10 1 1 1
node 11 1 1 1
node 12 1 0 0
node 13 1 0 2
node 14 1 0 2
node 24 1 0 0
gene 1 1 12 1.459821871 0 1 1.459821871 1
gene 1 2 12 0.4374463211 0 2 0.4374463211 1
gene 1 3 12 -3 0 3 -3 1
gene 1 4 12 -1.096304375 0 4 -1.096304375 1
gene 1 5 12 1.700429656 0 5 1.700429656 1
gene 1 6 12 0.2147589468 0 6 0.2147589468 1
gene 1 7 12 -0.09214949273 0 7 -0.09214949273 1
gene 1 8 12 0.3863632088 0 8 0.3863632088 1
gene 1 9 12 -1.025014744 0 9 -1.025014744 1
gene 1 10 12 -0.2617804102 0 10 -0.2617804102 1
gene 1 11 12 0.1545096912 0 11 0.1545096912 1
gene 1 12 13 0.203087831 0 12 0.203087831 1
gene 1 12 14 0.5861106055 0 13 0.5861106055 1
gene 1 3 13 0.5696262273 0 14 0.5696262273 1
gene 1 6 13 -0.2613565984 0 20 -0.2613565984 0
gene 1 6 14 -1.200328124 0 25 -1.200328124 1
gene 1 11 14 0.6450523736 0 28 0.6450523736 1
gene 1 9 13 1.195327255 0 40 1.195327255 1
gene 1 5 13 2.169540739 0 41 2.169540739 1
gene 1 10 14 1.803811028 0 46 1.803811028 1
gene 1 1 13 -1.152411935 0 74 -1.152411935 1
gene 1 13 13 0.7121056072 1 130 0.7121056072 1
gene 1 7 24 -0.1559561332 0 137 -0.1559561332 1
gene 1 24 12 -0.6348896727 0 138 -0.6348896727 1
gene 1 12 12 -0.6906527248 1 152 -0.6906527248 1
gene 1 24 24 0.3489140262 1 158 0.3489140262 1
gene 1 10 24 -0.3682166661 0 340 -0.3682166661 1
genomeend 108696
/* Novelty: 3.011236191 Fitness: 207.1861267 Generation: 551 Indiv: 108946 */
/* Point: 121.0869675 42.33280182 121.0869675 42.33280182 */

/* Organism #111861 Fitness: 8.843156815 Error: 0 */
genomestart 111861
trait 1 1 0.1357995362 0.3204183277 0.0956049362 0.5503000224 0.03842135913 0 0.9429845038 
node 1 1 1 3
node 2 1 1 1
node 3 1 1 1
node 4 1 1 1
node 5 1 1 1
node 6 1 1 1
node 7 1 1 1
node 8 1 1 1
node 9 1 1 1
node 10 1 1 1
node 11 1 1 1
node 12 1 0 0
node 13 1 0 2
node 14 1 0 2
node 24 1 0 0
gene 1 1 12 1.232731721 0 1 1.232731721 1
gene 1 2 12 0.4527243584 0 2 0.4527243584 1
gene 1 3 12 -2.771602827 0 3 -2.771602827 1
gene 1 4 12 -0.7209779706 0 4 -0.7209779706 1
gene 1 5 12 1.273890821 0 5 1.273890821 1
gene 1 6 12 0.2529856959 0 6 0.2529856959 1
gene 1 7 12 -0.3349179283 0 7 -0.3349179283 0
gene 1 8 12 0.3426771459 0 8 0.3426771459 1
gene 1 9 12 -1.077764521 0 9 -1.077764521 1
gene 1 10 12 -0.3120267007 0 10 -0.3120267007 1
gene 1 11 12 0.1219279449 0 11 0.1219279449 1
gene 1 12 13 -0.6072657541 0 12 -0.6072657541 0
gene 1 12 14 0.6369988725 0 13 0.6369988725 1
gene 1 3 13 0.9626743655 0 14 0.9626743655 1
gene 1 6 13 -0.02450648342 0 20 -0.02450648342 1
gene 1 6 14 -1.295487465 0 25 -1.295487465 1
gene 1 11 14 0.3224663161 0 28 0.3224663161 1
gene 1 9 13 1.012651777 0 40 1.012651777 1
gene 1 5 13 1.899787867 0 41 1.899787867 1
gene 1 4 13 0.8864088598 0 43 0 1
gene 1 10 14 1.86021115 0 46 1.86021115 1
gene 1 1 13 -1.042714404 0 74 -1.042714404 1
gene 1 13 13 0.4298893748 1 130 0.4298893748 1
gene 1 7 24 -0.1489687619 0 137 -0.1489687619 1
gene 1 24 12 -0.3753698529 0 138 -0.3753698529 1
gene 1 12 12 -0.4815020225 1 152 -0.4815020225 0
gene 1 24 24 -0.03726255734 1 158 -0.03726255734 1
gene 1 8 24 -0.8224074891 0 164 0 1
gene 1 10 24 -0.5210003487 0 340 -0.5210003487 1
gene 1 24 13 -0.6689861965 0 378 -0.6689861965 1
genomeend 111861
/* Novelty: 2.300497055 Fitness: 242.2193298 Generation: 551 Indiv: 112111 */
/* Point: 74.84733582 57.62999725 74.84733582 57.62999725 */

/* Organism #98486 Fitness: 8.843156815 Error: 0 */
genomestart 98486
trait 1 0.7085815277 0.2537533201 0.3204183277 0.0956049362 0.5503000224 0.03842135913 0.7435728992 0.9429845038 
node 1 1 1 3
node 2 1 1 1
node 3 1 1 1
node 4 1 1 1
node 5 1 1 1
node 6 1 1 1
node 7 1 1 1
node 8 1 1 1
node 9 1 1 1
node 10 1 1 1
node 11 1 1 1
node 12 1 0 0
node 13 1 0 2
node 14 1 0 2
node 24 1 0 0
gene 1 1 12 1.232731721 0 1 1.232731721 1
gene 1 2 12 0.4527243584 0 2 0.4527243584 1
gene 1 3 12 -2.771602827 0 3 -2.771602827 1
gene 1 4 12 -0.7209779706 0 4 -0.7209779706 1
gene 1 5 12 1.273890821 0 5 1.273890821 1
gene 1 6 12 0.2529856959 0 6 0.2529856959 1
gene 1 7 12 -0.3349179283 0 7 -0.3349179283 0
gene 1 8 12 0.3426771459 0 8 0.3426771459 1
gene 1 9 12 -1.077764521 0 9 -1.077764521 1
gene 1 10 12 -0.3120267007 0 10 -0.3120267007 1
gene 1 11 12 0.1219279449 0 11 0.1219279449 1
gene 1 12 13 -0.6072657541 0 12 -0.6072657541 0
gene 1 12 14 0.6369988725 0 13 0.6369988725 1
gene 1 3 13 0.9626743655 0 14 0.9626743655 1
gene 1 6 13 -0.02450648342 0 20 -0.02450648342 1
gene 1 6 14 -1.295487465 0 25 -1.295487465 1
gene 1 11 14 0.3224663161 0 28 0.3224663161 1
gene 1 9 13 1.012651777 0 40 1.012651777 1
gene 1 5 13 1.899787867 0 41 1.899787867 1
gene 1 4 13 0.8864088598 0 43 0 1
gene 1 10 14 1.86021115 0 46 1.86021115 1
gene 1 1 13 -1.042714404 0 74 -1.042714404 1
gene 1 13 13 0.4298893748 1 130 0.4298893748 1
gene 1 7 24 -0.1489687619 0 137 -0.1489687619 1
gene 1 24 12 -0.3753698529 0 138 -0.3753698529 1
gene 1 12 12 -0.4815020225 1 152 -0.4815020225 0
gene 1 24 24 -0.03726255734 1 158 -0.03726255734 1
gene 1 8 24 -0.8224074891 0 164 0 1
gene 1 10 24 -0.5210003487 0 340 -0.5210003487 1
gene 1 24 13 -0.6689861965 0 378 -0.6689861965 1
genomeend 98486
/* Novelty: 2.300497055 Fitness: 242.2193298 Generation: 551 Indiv: 98736 */
/* Point: 74.84733582 57.62999725 74.84733582 57.62999725 */

/* Organism #121155 Fitness: 8.813522339 Error: 0 */
genomestart 121155
trait 1 0.7305890232 0.3907886848 0.274088424 0.1221983942 0.3838059969 0.07593681505 0.7062149332 0.8919481787 
node 1 1 1 3
node 2 1 1 1
node 3 1 1 1
node 4 1 1 1
node 5 1 1 1
node 6 1 1 1
node 7 1 1 1
node 8 1 1 1
node 9 1 1 1
node 10 1 1 1
node 11 1 1 1
node 12 1 0 0
node 13 1 0 2
node 14 1 0 2
node 24 1 0 0
gene 1 1 12 1.289504258 0 1 1.289504258 1
gene 1 2 12 0.3909020663 0 2 0.3909020663 1
gene 1 3 12 -2.828702121 0 3 -2.828702121 1
gene 1 4 12 -0.8148095716 0 4 -0.8148095716 1
gene 1 5 12 1.38052553 0 5 1.38052553 1
gene 1 6 12 0.2434290086 0 6 0.2434290086 1
gene 1 7 12 -0.2772366451 0 7 -0.2772366451 0
gene 1 8 12 0.3535986616 0 8 0.3535986616 1
gene 1 9 12 -1.064577077 0 9 -1.064577077 1
gene 1 10 12 -0.2994651281 0 10 -0.2994651281 1
gene 1 11 12 0.1709550703 0 11 0.1709550703 0
gene 1 12 13 -0.5948707567 0 12 -0.5948707567 0
gene 1 12 14 0.6242768058 0 13 0.6242768058 1
gene 1 3 13 0.864412331 0 14 0.864412331 1
gene 1 6 13 -0.08371901216 0 20 -0.08371901216 0
gene 1 6 14 -1.286635859 0 25 -1.286635859 1
gene 1 11 14 0.376230659 0 28 0.376230659 1
gene 1 5 14 -0.06686222324 0 31 0 1
gene 1 9 13 1.04514769 0 40 1.04514769 1
gene 1 5 13 2.034664303 0 41 2.034664303 1
gene 1 4 13 0.8864088598 0 43 0 1
gene 1 10 14 1.84611112 0 46 1.84611112 1
gene 1 1 13 -1.097563169 0 74 -1.097563169 1
gene 1 13 13 0.5004434329 1 130 0.5004434329 1
gene 1 7 24 -0.1507156047 0 137 -0.1507156047 1
gene 1 24 12 -0.4186231562 0 138 -0.4186231562 1
gene 1 12 12 -0.5337896981 1 152 -0.5337896981 0
gene 1 24 24 0.08685766028 1 158 0.08685766028 1
gene 1 8 24 -0.8224074891 0 164 0 1
gene 1 10 24 -0.4828044281 0 340 -0.4828044281 1
gene 1 24 13 -0.6689861965 0 378 -0.6689861965 1
genomeend 121155
/* Novelty: 1.284099579 Fitness: 150.9214478 Generation: 551 Indiv: 121405 */
/* Point: 164.9534302 85.42853546 164.9534302 85.42853546 */

/* Organism #121011 Fitness: 8.80383873 Error: 0 */
genomestart 121011
trait 1 0.5777006185 0.3220718688 0 0.8907868655 0.5343896815 0.6995005593 0.6099444879 0.4267303748 
node 1 1 1 3
node 2 1 1 1
node 3 1 1 1
node 4 1 1 1
node 5 1 1 1
node 6 1 1 1
node 7 1 1 1
node 8 1 1 1
node 9 1 1 1
node 10 1 1 1
node 11 1 1 1
node 12 1 0 0
node 13 1 0 2
node 14 1 0 2
node 24 1 0 0
gene 1 1 12 1.535962595 0 1 1.535962595 1
gene 1 2 12 0.2119182261 0 2 0.2119182261 1
gene 1 3 12 -3 0 3 -3 1
gene 1 4 12 -0.5937646792 0 4 -0.5937646792 1
gene 1 5 12 0.9563117119 0 5 0.9563117119 1
gene 1 6 12 -0.2288676307 0 6 -0.2288676307 1
gene 1 7 12 0.2975733178 0 7 0.2975733178 0
gene 1 8 12 0.8001974374 0 8 0.8001974374 1
gene 1 9 12 -1.702056476 0 9 -1.702056476 1
gene 1 10 12 -0.5701885072 0 10 -0.5701885072 1
gene 1 11 12 -0.2962311785 0 11 -0.2962311785 1
gene 1 12 13 -0.6312674487 0 12 -0.6312674487 0
gene 1 12 14 0.4520167539 0 13 0.4520167539 1
gene 1 3 13 0.3101050783 0 14 0.3101050783 1
gene 1 6 13 0.6751951158 0 20 0.6751951158 1
gene 1 11 13 0.004208884763 0 24 0.004208884763 1
gene 1 6 14 -1.150642263 0 25 -1.150642263 1
gene 1 11 14 0.5722382364 0 28 0.5722382364 1
gene 1 9 13 0.9482184371 0 40 0.9482184371 1
gene 1 5 13 1.264979247 0 41 1.264979247 1
gene 1 4 13 1.476324728 0 43 1.476324728 1
gene 1 10 14 1.797278998 0 46 1.797278998 1
gene 1 1 13 -0.6767062347 0 74 -0.6767062347 0
gene 1 13 13 0.9418576682 1 130 0.9418576682 1
gene 1 7 24 0.4757659128 0 137 0.4757659128 1
gene 1 24 12 -0.4778858981 0 138 -0.4778858981 1
gene 1 12 12 -0.2707847705 1 152 -0.2707847705 0
gene 1 24 24 -0.1062306315 1 158 -0.1062306315 1
gene 1 8 24 0.6929116379 0 164 0.6929116379 1
gene 1 10 24 -0.4828044281 0 340 -0.4828044281 1
gene 1 24 13 -0.6689861965 0 378 -0.6689861965 1
genomeend 121011
/* Novelty: 2.349658966 Fitness: 243.6009827 Generation: 551 Indiv: 121261 */
/* Point: 72.50138855 58.19009781 72.50138855 58.19009781 */

/* Organism #108514 Fitness: 8.744517326 Error: 0 */
genomestart 108514
trait 1 0.5429884462 0.09609582506 0.1498232837 0.07675373473 0.2149720411 0.07738370316 0.7451237107 0.8914499434 
node 1 1 1 3
node 2 1 1 1
node 3 1 1 1
node 4 1 1 1
node 5 1 1 1
node 6 1 1 1
node 7 1 1 1
node 8 1 1 1
node 9 1 1 1
node 10 1 1 1
node 11 1 1 1
node 12 1 0 0
node 13 1 0 2
node 14 1 0 2
node 24 1 0 0
gene 1 1 12 1.171948772 0 1 1.171948772 1
gene 1 2 12 0.398541085 0 2 0.398541085 1
gene 1 3 12 -2.718342239 0 3 -2.718342239 1
gene 1 4 12 -0.7619649479 0 4 -0.7619649479 1
gene 1 5 12 1.220573467 0 5 1.220573467 1
gene 1 6 12 0.2084466809 0 6 0.2084466809 1
gene 1 7 12 -0.3986208629 0 7 -0.3986208629 0
gene 1 8 12 0.3417981294 0 8 0.3417981294 1
gene 1 9 12 -1.087301574 0 9 -1.087301574 1
gene 1 10 12 -0.2886012902 0 10 -0.2886012902 1
gene 1 11 12 0.1628096337 0 11 0.1628096337 1
gene 1 12 13 -1.000047549 0 12 -1.000047549 0
gene 1 12 14 0.6412395614 0 13 0.6412395614 1
gene 1 3 13 0.9281846121 0 14 0.9281846121 1
gene 1 6 13 -0.04076230226 0 20 -0.04076230226 1
gene 1 6 14 -1.33421553 0 25 -1.33421553 1
gene 1 11 14 0.2149376303 0 28 0.2149376303 1
gene 1 9 13 0.9994788206 0 40 0.9994788206 1
gene 1 5 13 1.899787867 0 41 1.899787867 1
gene 1 4 13 0.8864088598 0 43 0 1
gene 1 10 14 1.933540033 0 46 1.933540033 1
gene 1 1 13 -1.042714404 0 74 -1.042714404 1
gene 1 13 13 0.4063713554 1 130 0.4063713554 1
gene 1 7 24 -0.1465554647 0 137 -0.1465554647 1
gene 1 24 12 -0.2888632463 0 138 -0.2888632463 1
gene 1 12 12 -0.4761488403 1 152 -0.4761488403 0
gene 1 24 24 -0.1062306315 1 158 -0.1062306315 1
gene 1 8 24 -0.8224074891 0 164 0 1
gene 1 10 24 -0.4828044281 0 340 -0.4828044281 1
gene 1 24 13 -0.6689861965 0 378 -0.6689861965 1
genomeend 108514
/* Novelty: 1.446861267 Fitness: 225.1563721 Generation: 551 Indiv: 108764 */
/* Point: 88.11437988 68.36853027 88.11437988 68.36853027 */

/* Organism #98299 Fitness: 8.744517326 Error: 0 */
genomestart 98299
trait 1 0.5429884462 0.09609582506 0.1498232837 0.07675373473 0.2149720411 0.07738370316 0.7451237107 0.8914499434 
node 1 1 1 3
node 2 1 1 1
node 3 1 1 1
node 4 1 1 1
node 5 1 1 1
node 6 1 1 1
node 7 1 1 1
node 8 1 1 1
node 9 1 1 1
node 10 1 1 1
node 11 1 1 1
node 12 1 0 0
node 13 1 0 2
node 14 1 0 2
node 24 1 0 0
gene 1 1 12 1.171948772 0 1 1.171948772 1
gene 1 2 12 0.398541085 0 2 0.398541085 1
gene 1 3 12 -2.718342239 0 3 -2.718342239 1
gene 1 4 12 -0.7619649479 0 4 -0.7619649479 1
gene 1 5 12 1.220573467 0 5 1.220573467 1
gene 1 6 12 0.2084466809 0 6 0.2084466809 1
gene 1 7 12 -0.3986208629 0 7 -0.3986208629 0
gene 1 8 12 0.3417981294 0 8 0.3417981294 1
gene 1 9 12 -1.087301574 0 9 -1.087301574 1
gene 1 10 12 -0.2886012902 0 10 -0.2886012902 1
gene 1 11 12 0.1628096337 0 11 0.1628096337 1
gene 1 12 13 -1.000047549 0 12 -1.000047549 0
gene 1 12 14 0.6412395614 0 13 0.6412395614 1
gene 1 3 13 0.9281846121 0 14 0.9281846121 1
gene 1 6 13 -0.04076230226 0 20 -0.04076230226 1
gene 1 6 14 -1.33421553 0 25 -1.33421553 1
gene 1 11 14 0.2149376303 0 28 0.2149376303 1
gene 1 9 13 0.9994788206 0 40 0.9994788206 1
gene 1 5 13 1.899787867 0 41 1.899787867 1
gene 1 4 13 0.8864088598 0 43 0 1
gene 1 10 14 1.933540033 0 46 1.933540033 1
gene 1 1 13 -1.042714404 0 74 -1.042714404 1
gene 1 13 13 0.4063713554 1 130 0.4063713554 1
gene 1 7 24 -0.1465554647 0 137 -0.1465554647 1
gene 1 24 12 -0.2888632463 0 138 -0.2888632463 1
gene 1 12 12 -0.4761488403 1 152 -0.4761488403 0
gene 1 24 24 -0.1062306315 1 158 -0.1062306315 1
gene 1 8 24 -0.8224074891 0 164 0 1
gene 1 10 24 -0.4828044281 0 340 -0.4828044281 1
gene 1 24 13 -0.6689861965 0 378 -0.6689861965 1
genomeend 98299
/* Novelty: 1.446861267 Fitness: 225.1563721 Generation: 551 Indiv: 98549 */
/* Point: 88.11437988 68.36853027 88.11437988 68.36853027 */

/* Organism #100495 Fitness: 8.744517326 Error: 0 */
genomestart 100495
trait 1 0.5429884462 0.09609582506 0.1498232837 0.07675373473 0.2149720411 0.07738370316 0.7451237107 0.8914499434 
node 1 1 1 3
node 2 1 1 1
node 3 1 1 1
node 4 1 1 1
node 5 1 1 1
node 6 1 1 1
node 7 1 1 1
node 8 1 1 1
node 9 1 1 1
node 10 1 1 1
node 11 1 1 1
node 12 1 0 0
node 13 1 0 2
node 14 1 0 2
node 24 1 0 0
gene 1 1 12 1.171948772 0 1 1.171948772 1
gene 1 2 12 0.398541085 0 2 0.398541085 1
gene 1 3 12 -2.718342239 0 3 -2.718342239 1
gene 1 4 12 -0.7619649479 0 4 -0.7619649479 1
gene 1 5 12 1.220573467 0 5 1.220573467 1
gene 1 6 12 0.2084466809 0 6 0.2084466809 1
gene 1 7 12 -0.3986208629 0 7 -0.3986208629 0
gene 1 8 12 0.3417981294 0 8 0.3417981294 1
gene 1 9 12 -1.087301574 0 9 -1.087301574 1
gene 1 10 12 -0.2886012902 0 10 -0.2886012902 1
gene 1 11 12 0.1628096337 0 11 0.1628096337 1
gene 1 12 13 -1.000047549 0 12 -1.000047549 0
gene 1 12 14 0.6412395614 0 13 0.6412395614 1
gene 1 3 13 0.9281846121 0 14 0.9281846121 1
gene 1 6 13 -0.04076230226 0 20 -0.04076230226 1
gene 1 6 14 -1.33421553 0 25 -1.33421553 1
gene 1 11 14 0.2149376303 0 28 0.2149376303 1
gene 1 9 13 0.9994788206 0 40 0.9994788206 1
gene 1 5 13 1.899787867 0 41 1.899787867 1
gene 1 4 13 0.8864088598 0 43 0 1
gene 1 10 14 1.933540033 0 46 1.933540033 1
gene 1 1 13 -1.042714404 0 74 -1.042714404 1
gene 1 13 13 0.4063713554 1 130 0.4063713554 1
gene 1 7 24 -0.1465554647 0 137 -0.1465554647 1
gene 1 24 12 -0.2888632463 0 138 -0.2888632463 1
gene 1 12 12 -0.4761488403 1 152 -0.4761488403 0
gene 1 24 24 -0.1062306315 1 158 -0.1062306315 1
gene 1 8 24 -0.8224074891 0 164 0 1
gene 1 10 24 -0.4828044281 0 340 -0.4828044281 1
gene 1 24 13 -0.6689861965 0 378 -0.6689861965 1
genomeend 100495
/* Novelty: 1.446861267 Fitness: 225.1563721 Generation: 551 Indiv: 100745 */
/* Point: 88.11437988 68.36853027 88.11437988 68.36853027 */

/* Organism #120390 Fitness: 8.73045826 Error: 0 */
genomestart 120390
trait 1 0.5603445324 0.2090838469 0.1716447408 0.1130172622 0.2263798347 0.7091735221 0.6775340993 0.9050187005 
node 1 1 1 3
node 2 1 1 1
node 3 1 1 1
node 4 1 1 1
node 5 1 1 1
node 6 1 1 1
node 7 1 1 1
node 8 1 1 1
node 9 1 1 1
node 10 1 1 1
node 11 1 1 1
node 12 1 0 0
node 13 1 0 2
node 14 1 0 2
node 24 1 0 0
gene 1 1 12 1.171948772 0 1 1.171948772 1
gene 1 2 12 0.2119182261 0 2 0.2119182261 1
gene 1 3 12 -3 0 3 -3 1
gene 1 4 12 -0.5937646792 0 4 -0.5937646792 1
gene 1 5 12 0.9563117119 0 5 0.9563117119 1
gene 1 6 12 -0.2288676307 0 6 -0.2288676307 1
gene 1 7 12 0.2975733178 0 7 0.2975733178 0
gene 1 8 12 0.8001974374 0 8 0.8001974374 1
gene 1 9 12 -1.087301574 0 9 -1.087301574 1
gene 1 10 12 -0.2886012902 0 10 -0.2886012902 1
gene 1 11 12 -0.2962311785 0 11 -0.2962311785 1
gene 1 12 13 -1.000047549 0 12 -1.000047549 0
gene 1 12 14 0.6412395614 0 13 0.6412395614 1
gene 1 3 13 0.9281846121 0 14 0.9281846121 1
gene 1 6 13 -0.04076230226 0 20 -0.04076230226 1
gene 1 11 13 0.004208884763 0 24 0.004208884763 1
gene 1 6 14 -1.150642263 0 25 -1.150642263 1
gene 1 11 14 0.2149376303 0 28 0.2149376303 1
gene 1 9 13 0.9994788206 0 40 0.9994788206 1
gene 1 5 13 1.264979247 0 41 1.264979247 1
gene 1 4 13 0.8864088598 0 43 0 1
gene 1 10 14 1.797278998 0 46 1.797278998 1
gene 1 1 13 -1.042714404 0 74 -1.042714404 1
gene 1 13 13 0.4063713554 1 130 0.4063713554 1
gene 1 7 24 -0.1465554647 0 137 -0.1465554647 1
gene 1 24 12 -0.4778858981 0 138 -0.4778858981 1
gene 1 12 12 -0.2707847705 1 152 -0.2707847705 0
gene 1 24 24 -0.1062306315 1 158 -0.1062306315 1
gene 1 8 24 -0.8224074891 0 164 0 1
gene 1 10 24 -0.4828044281 0 340 -0.4828044281 1
gene 1 24 13 -0.6689861965 0 378 -0.6689861965 1
genomeend 120390
/* Novelty: 0 Fitness: 194.3157654 Generation: 551 Indiv: 120640 */
/* Point: 83.74026489 111.5839691 83.74026489 111.5839691 */

/* Organism #120432 Fitness: 8.652937889 Error: 0 */
genomestart 120432
trait 1 0.7452869295 0.5480479125 0.2371091121 0.2218078446 0 0 0.474765265 0.9548562822 
node 1 1 1 3
node 2 1 1 1
node 3 1 1 1
node 4 1 1 1
node 5 1 1 1
node 6 1 1 1
node 7 1 1 1
node 8 1 1 1
node 9 1 1 1
node 10 1 1 1
node 11 1 1 1
node 12 1 0 0
node 13 1 0 2
node 14 1 0 2
node 24 1 0 0
gene 1 1 12 1.459821871 0 1 1.459821871 1
gene 1 2 12 0.398541085 0 2 0.398541085 1
gene 1 3 12 -2.718342239 0 3 -2.718342239 1
gene 1 4 12 -1.096304375 0 4 -1.096304375 1
gene 1 5 12 1.220573467 0 5 1.220573467 1
gene 1 6 12 0.2084466809 0 6 0.2084466809 1
gene 1 7 12 -0.09214949273 0 7 -0.09214949273 0
gene 1 8 12 0.3863632088 0 8 0.3863632088 1
gene 1 9 12 -1.087301574 0 9 -1.087301574 1
gene 1 10 12 -0.2617804102 0 10 -0.2617804102 1
gene 1 11 12 0.1628096337 0 11 0.1628096337 1
gene 1 12 13 -1.000047549 0 12 -1.000047549 0
gene 1 12 14 0.6412395614 0 13 0.6412395614 1
gene 1 3 13 1.079804476 0 14 1.079804476 1
gene 1 6 13 -0.04076230226 0 20 -0.04076230226 1
gene 1 11 13 -0.3126995062 0 24 0 1
gene 1 6 14 -1.33421553 0 25 -1.33421553 1
gene 1 11 14 0.2149376303 0 28 0.2149376303 1
gene 1 9 13 0.9994788206 0 40 0.9994788206 0
gene 1 5 13 1.899787867 0 41 1.899787867 1
gene 1 4 13 0.8864088598 0 43 0 1
gene 1 10 14 1.933540033 0 46 1.933540033 1
gene 1 1 13 -1.042714404 0 74 -1.042714404 0
gene 1 13 13 0.4063713554 1 130 0.4063713554 1
gene 1 7 24 -0.1559561332 0 137 -0.1559561332 1
gene 1 24 12 -0.6348896727 0 138 -0.6348896727 1
gene 1 12 12 -0.6906527248 1 152 -0.6906527248 0
gene 1 24 24 0.3489140262 1 158 0.3489140262 1
gene 1 8 24 -0.8224074891 0 164 0 1
gene 1 10 24 -0.4828044281 0 340 -0.4828044281 1
gene 1 24 13 -0.6689861965 0 378 -0.6689861965 1
genomeend 120432
/* Novelty: 1.553152084 Fitness: 226.5293274 Generation: 551 Indiv: 120682 */
/* Point: 98.10148621 49.92206192 98.10148621 49.92206192 */

/* Organism #123820 Fitness: 8.652937889 Error: 0 */
genomestart 123820
trait 1 0.7452869295 0.5480479125 0.2371091121 0.2218078446 0 0 0.474765265 0.9548562822 
node 1 1 1 3
node 2 1 1 1
node 3 1 1 1
node 4 1 1 1
node 5 1 1 1
node 6 1 1 1
node 7 1 1 1
node 8 1 1 1
node 9 1 1 1
node 10 1 1 1
node 11 1 1 1
node 12 1 0 0
node 13 1 0 2
node 14 1 0 2
node 24 1 0 0
gene 1 1 12 1.459821871 0 1 1.459821871 1
gene 1 2 12 0.398541085 0 2 0.398541085 1
gene 1 3 12 -2.718342239 0 3 -2.718342239 1
gene 1 4 12 -1.096304375 0 4 -1.096304375 1
gene 1 5 12 1.220573467 0 5 1.220573467 1
gene 1 6 12 0.2084466809 0 6 0.2084466809 1
gene 1 7 12 -0.09214949273 0 7 -0.09214949273 0
gene 1 8 12 0.3863632088 0 8 0.3863632088 1
gene 1 9 12 -1.087301574 0 9 -1.087301574 1
gene 1 10 12 -0.2617804102 0 10 -0.2617804102 1
gene 1 11 12 0.1628096337 0 11 0.1628096337 1
gene 1 12 13 -1.000047549 0 12 -1.000047549 0
gene 1 12 14 0.6412395614 0 13 0.6412395614 1
gene 1 3 13 1.079804476 0 14 1.079804476 1
gene 1 6 13 -0.04076230226 0 20 -0.04076230226 1
gene 1 11 13 -0.3126995062 0 24 0 1
gene 1 6 14 -1.33421553 0 25 -1.33421553 1
gene 1 11 14 0.2149376303 0 28 0.2149376303 1
gene 1 9 13 0.9994788206 0 40 0.9994788206 0
gene 1 5 13 1.899787867 0 41 1.899787867 1
gene 1 4 13 0.8864088598 0 43 0 1
gene 1 10 14 1.933540033 0 46 1.933540033 1
gene 1 1 13 -1.042714404 0 74 -1.042714404 0
gene 1 13 13 0.4063713554 1 130 0.4063713554 1
gene 1 7 24 -0.1559561332 0 137 -0.1559561332 1
gene 1 24 12 -0.6348896727 0 138 -0.6348896727 1
gene 1 12 12 -0.6906527248 1 152 -0.6906527248 0
gene 1 24 24 0.3489140262 1 158 0.3489140262 1
gene 1 8 24 -0.8224074891 0 164 0 1
gene 1 10 24 -0.4828044281 0 340 -0.4828044281 1
gene 1 24 13 -0.6689861965 0 378 -0.6689861965 1
genomeend 123820
/* Novelty: 1.553152084 Fitness: 226.5293274 Generation: 551 Indiv: 124070 */
/* Point: 98.10148621 49.92206192 98.10148621 49.92206192 */

/* Species #155 : (Size 16) (AF 0) (Age 1)  */


/* Organism #83272 Fitness: 9.178004265 Error: 0 */
genomestart 83272
trait 1 0.4243429756 0 0.1851937401 0.2838586647 0.7852117559 0.1178010017 0.2774218308 0.2865015295 
node 1 1 1 3
node 2 1 1 1
node 3 1 1 1
node 4 1 1 1
node 5 1 1 1
node 6 1 1 1
node 7 1 1 1
node 8 1 1 1
node 9 1 1 1
node 10 1 1 1
node 11 1 1 1
node 12 1 0 0
node 13 1 0 2
node 14 1 0 2
node 15 1 0 0
node 22 1 0 0
node 24 1 0 0
node 56 1 0 0
gene 1 1 12 1.450932301 0 1 1.450932301 1
gene 1 2 12 0.1066406217 0 2 0.1066406217 1
gene 1 3 12 -0.1233456754 0 3 -0.1233456754 0
gene 1 4 12 0.4089846193 0 4 0.4089846193 1
gene 1 5 12 -0.9758598006 0 5 -0.9758598006 0
gene 1 6 12 -1.193474761 0 6 -1.193474761 1
gene 1 7 12 -0.1813005899 0 7 -0.1813005899 0
gene 1 8 12 -0.07426136363 0 8 -0.07426136363 1
gene 1 9 12 -1.139096789 0 9 -1.139096789 0
gene 1 10 12 -0.09757513557 0 10 -0.09757513557 1
gene 1 11 12 -1.091455738 0 11 -1.091455738 1
gene 1 12 13 -0.5997407386 0 12 -0.5997407386 1
gene 1 12 14 0.3220501179 0 13 0.3220501179 1
gene 1 3 13 -0.9352103281 0 14 -0.9352103281 1
gene 1 10 13 0.1176425758 0 15 0.2343550783 1
gene 1 2 14 0.6051433212 0 16 0.6051433212 1
gene 1 9 14 -1.169175022 0 19 -1.169175022 0
gene 1 13 13 0.4157535027 1 21 0.4157535027 1
gene 1 11 13 -0.5044170287 0 24 -0.5044170287 0
gene 1 6 14 -0.1521348451 0 25 -0.1521348451 1
gene 1 2 13 -1.238766258 0 26 -1.238766258 1
gene 1 7 13 0.1709586631 0 27 0.1709586631 1
gene 1 11 14 -1.452029794 0 28 -1.452029794 1
gene 1 7 14 0.09548532269 0 30 0.09548532269 1
gene 1 5 14 0.1529143837 0 31 0.1529143837 1
gene 1 4 14 0.5987532432 0 32 0.5987532432 1
gene 1 12 15 0.8566786964 0 37 0.8566786964 1
gene 1 15 13 0.4787425004 0 38 0.4787425004 1
gene 1 5 13 0.07102787237 0 41 0.07102787237 0
gene 1 14 13 -0.1944789243 0 48 -0.1944789243 0
gene 1 10 15 -0.8729722415 0 49 -0.8729722415 1
gene 1 12 12 0.4342582346 1 72 0.4342582346 1
gene 1 2 15 0.1119366886 0 77 0.1119366886 1
gene 1 6 15 0.5008127062 0 84 0.5008127062 0
gene 1 5 22 2.105528502 0 117 2.105528502 1
gene 1 22 12 -0.685466498 0 118 -0.685466498 1
gene 1 15 15 -0.395847261 1 128 -0.395847261 1
gene 1 9 15 -0.4991384766 0 134 -0.4991384766 1
gene 1 7 24 1 0 137 0 1
gene 1 24 12 -0.0906033875 0 138 0 1
gene 1 4 15 -0.2252521857 0 191 -0.2252521857 0
gene 1 14 14 1.431791629 1 223 1.431791629 1
gene 1 1 15 0.4940003324 0 226 0.4940003324 1
gene 1 8 22 0.538852609 0 227 0 1
gene 1 3 22 -0.9415399357 0 254 0 1
gene 1 11 15 -0.2088286017 0 270 -0.2088286017 1
gene 1 14 12 -0.4529999122 1 273 -0.4529999122 1
gene 1 5 15 -1.186014231 0 278 -1.186014231 1
gene 1 22 13 1.462001772 0 279 1.462001772 1
gene 1 8 15 0.1931649 0 281 0.1931649 1
gene 1 22 14 -0.6109506854 0 330 0 1
gene 1 2 24 0.3647457447 0 404 0 1
gene 1 24 24 0.6137374302 1 570 0.6137374302 1
gene 1 14 56 1 0 589 0 1
gene 1 56 13 -0.05834367729 0 590 0 1
genomeend 83272
/* Novelty: 2.686164856 Fitness: 204.7632599 Generation: 551 Indiv: 83522 */
/* Point: 102.9768524 82.36481476 102.9768524 82.36481476 */

/* Organism #136844 Fitness: 9.169369698 Error: 0 */
genomestart 136844
trait 1 0.2289498159 0 0.5925968701 1 0.7893414003 1 0.2778702605 0.6432507648 
node 1 1 1 3
node 2 1 1 1
node 3 1 1 1
node 4 1 1 1
node 5 1 1 1
node 6 1 1 1
node 7 1 1 1
node 8 1 1 1
node 9 1 1 1
node 10 1 1 1
node 11 1 1 1
node 12 1 0 0
node 13 1 0 2
node 14 1 0 2
node 15 1 0 0
node 22 1 0 0
node 24 1 0 0
node 56 1 0 0
gene 1 1 12 1.450932301 0 1 1.450932301 1
gene 1 2 12 0.1066406217 0 2 0.1066406217 1
gene 1 3 12 -0.1233456754 0 3 -0.1233456754 0
gene 1 4 12 0.4089846193 0 4 0.4089846193 1
gene 1 5 12 -0.9758598006 0 5 -0.9758598006 0
gene 1 6 12 -1.193474761 0 6 -1.193474761 1
gene 1 7 12 -0.1813005899 0 7 -0.1813005899 0
gene 1 8 12 -0.07426136363 0 8 -0.07426136363 1
gene 1 9 12 -1.139096789 0 9 -1.139096789 0
gene 1 10 12 -0.09757513557 0 10 -0.09757513557 1
gene 1 11 12 -1.091455738 0 11 -1.091455738 1
gene 1 12 13 -0.5997407386 0 12 -0.5997407386 1
gene 1 12 14 0.3220501179 0 13 0.3220501179 1
gene 1 3 13 -0.9352103281 0 14 -0.9352103281 1
gene 1 10 13 0.1176425758 0 15 0.2343550783 1
gene 1 2 14 0.6051433212 0 16 0.6051433212 1
gene 1 9 14 -1.169175022 0 19 -1.169175022 0
gene 1 13 13 0.4157535027 1 21 0.4157535027 1
gene 1 11 13 -0.5044170287 0 24 -0.5044170287 0
gene 1 6 14 -0.1521348451 0 25 -0.1521348451 1
gene 1 2 13 -1.238766258 0 26 -1.238766258 1
gene 1 7 13 0.1709586631 0 27 0.1709586631 1
gene 1 11 14 -1.452029794 0 28 -1.452029794 1
gene 1 7 14 0.09548532269 0 30 0.09548532269 1
gene 1 5 14 0.1529143837 0 31 0.1529143837 1
gene 1 4 14 0.5987532432 0 32 0.5987532432 1
gene 1 12 15 0.8566786964 0 37 0.8566786964 1
gene 1 15 13 0.4787425004 0 38 0.4787425004 1
gene 1 5 13 0.07102787237 0 41 0.07102787237 0
gene 1 14 13 -0.1944789243 0 48 -0.1944789243 0
gene 1 10 15 -0.8729722415 0 49 -0.8729722415 1
gene 1 12 12 0.4342582346 1 72 0.4342582346 1
gene 1 2 15 0.1119366886 0 77 0.1119366886 1
gene 1 6 15 0.5008127062 0 84 0.5008127062 0
gene 1 5 22 2.105528502 0 117 2.105528502 1
gene 1 22 12 -0.685466498 0 118 -0.685466498 1
gene 1 15 15 -0.395847261 1 128 -0.395847261 1
gene 1 9 15 -0.4991384766 0 134 -0.4991384766 1
gene 1 7 24 1 0 137 0 1
gene 1 24 12 -0.0906033875 0 138 0 1
gene 1 8 24 -0.8224074891 0 164 0 1
gene 1 4 15 -0.2252521857 0 191 -0.2252521857 0
gene 1 14 14 1.431791629 1 223 1.431791629 1
gene 1 1 15 0.4940003324 0 226 0.4940003324 1
gene 1 8 22 0.538852609 0 227 0 1
gene 1 3 22 -0.9415399357 0 254 0 1
gene 1 11 15 -0.2088286017 0 270 -0.2088286017 1
gene 1 14 12 -0.4529999122 1 273 -0.4529999122 1
gene 1 5 15 -1.186014231 0 278 -1.186014231 1
gene 1 22 13 1.462001772 0 279 1.462001772 1
gene 1 8 15 0.1931649 0 281 0.1931649 1
gene 1 22 14 -0.6109506854 0 330 0 1
gene 1 2 24 0.3647457447 0 404 0 1
gene 1 24 24 0.6137374302 1 570 0.6137374302 1
gene 1 14 56 1 0 589 0 1
gene 1 56 13 -0.05834367729 0 590 0 1
genomeend 136844
/* Novelty: 2.702537537 Fitness: 204.7279968 Generation: 551 Indiv: 137094 */
/* Point: 103.0170517 82.37226868 103.0170517 82.37226868 */

/* Organism #111641 Fitness: 8.90847683 Error: 0 */
genomestart 111641
trait 1 0.4243429756 0 0.1851937401 0.2838586647 0.7852117559 0.1178010017 0.2774218308 0.2865015295 
node 1 1 1 3
node 2 1 1 1
node 3 1 1 1
node 4 1 1 1
node 5 1 1 1
node 6 1 1 1
node 7 1 1 1
node 8 1 1 1
node 9 1 1 1
node 10 1 1 1
node 11 1 1 1
node 12 1 0 0
node 13 1 0 2
node 14 1 0 2
node 15 1 0 0
node 22 1 0 0
node 24 1 0 0
node 56 1 0 0
gene 1 1 12 1.535593296 0 1 1.535593296 1
gene 1 2 12 0.1066406217 0 2 0.1066406217 1
gene 1 3 12 0.02054821701 0 3 0.02054821701 0
gene 1 4 12 0.3910803766 0 4 0.3910803766 1
gene 1 5 12 -0.9758598006 0 5 -0.9758598006 0
gene 1 6 12 -1.193474761 0 6 -1.193474761 1
gene 1 7 12 -0.1813005899 0 7 -0.1813005899 0
gene 1 8 12 -0.07426136363 0 8 -0.07426136363 1
gene 1 9 12 -1.139096789 0 9 -1.139096789 0
gene 1 10 12 -0.09757513557 0 10 -0.09757513557 1
gene 1 11 12 -1.091455738 0 11 -1.091455738 1
gene 1 12 13 -0.5997407386 0 12 -0.5997407386 1
gene 1 12 14 0.3220501179 0 13 0.3220501179 1
gene 1 3 13 -0.9352103281 0 14 -0.9352103281 1
gene 1 10 13 0.1176425758 0 15 0.2343550783 1
gene 1 2 14 0.6051433212 0 16 0.6051433212 1
gene 1 9 14 -1.169175022 0 19 -1.169175022 0
gene 1 13 13 0.4157535027 1 21 0.4157535027 1
gene 1 11 13 -0.5044170287 0 24 -0.5044170287 0
gene 1 6 14 -0.3767511176 0 25 -0.3767511176 1
gene 1 2 13 -1.238766258 0 26 -1.238766258 1
gene 1 7 13 0.1709586631 0 27 0.1709586631 1
gene 1 11 14 -1.452029794 0 28 -1.452029794 1
gene 1 7 14 0.09218262415 0 30 0.09218262415 1
gene 1 5 14 0.1529143837 0 31 0.1529143837 1
gene 1 4 14 0.5987532432 0 32 0.5987532432 1
gene 1 12 15 0.8617444618 0 37 0.8617444618 1
gene 1 15 13 0.4787425004 0 38 0.4787425004 1
gene 1 5 13 0.07102787237 0 41 0.07102787237 0
gene 1 14 13 -0.208228161 0 48 -0.208228161 0
gene 1 10 15 -0.8729722415 0 49 -0.8729722415 1
gene 1 12 12 0.4342582346 1 72 0.4342582346 1
gene 1 2 15 0.1119366886 0 77 0.1119366886 1
gene 1 6 15 0.5008127062 0 84 0.5008127062 0
gene 1 5 22 2.105528502 0 117 2.105528502 1
gene 1 22 12 -0.685466498 0 118 -0.685466498 1
gene 1 15 15 -0.395847261 1 128 -0.395847261 1
gene 1 9 15 -0.5709418846 0 134 -0.5709418846 1
gene 1 7 24 1 0 137 0 1
gene 1 24 12 -0.0906033875 0 138 0 1
gene 1 4 15 -0.2252521857 0 191 -0.2252521857 0
gene 1 14 14 1.431791629 1 223 1.431791629 1
gene 1 1 15 0.4940003324 0 226 0.4940003324 1
gene 1 8 22 0.4992651827 0 227 0.02776914985 1
gene 1 3 22 -0.9415399357 0 254 0 1
gene 1 11 15 -0.2295276242 0 270 -0.2295276242 1
gene 1 14 12 -0.4529999122 1 273 -0.4529999122 1
gene 1 5 15 -1.186014231 0 278 -1.186014231 1
gene 1 22 13 1.462001772 0 279 1.462001772 1
gene 1 8 15 0.1263686874 0 281 0.1263686874 1
gene 1 22 14 -0.6109506854 0 330 0 1
gene 1 2 24 0.3647457447 0 404 0 1
gene 1 24 24 0.6137374302 1 570 0.6137374302 1
gene 1 14 56 1 0 589 0 1
gene 1 56 13 -0.05834367729 0 590 0 1
genomeend 111641
/* Novelty: 0 Fitness: 197.6307068 Generation: 551 Indiv: 111891 */
/* Point: 107.7804489 87.70697784 107.7804489 87.70697784 */

/* Organism #118630 Fitness: 8.856492996 Error: 0 */
genomestart 118630
trait 1 0.297706893 0.4519771696 0.6944476526 0.4320474087 0.2944544084 0.4209517201 0.2779823679 0.7324380736 
node 1 1 1 3
node 2 1 1 1
node 3 1 1 1
node 4 1 1 1
node 5 1 1 1
node 6 1 1 1
node 7 1 1 1
node 8 1 1 1
node 9 1 1 1
node 10 1 1 1
node 11 1 1 1
node 12 1 0 0
node 13 1 0 2
node 14 1 0 2
node 15 1 0 0
node 22 1 0 0
node 24 1 0 0
node 56 1 0 0
gene 1 1 12 1.450932301 0 1 1.450932301 1
gene 1 2 12 0.1066406217 0 2 0.1066406217 0
gene 1 3 12 -0.1233456754 0 3 -0.1233456754 0
gene 1 4 12 0.3910803766 0 4 0.3910803766 1
gene 1 5 12 -0.9758598006 0 5 -0.9758598006 0
gene 1 6 12 -1.193474761 0 6 -1.193474761 0
gene 1 7 12 -0.1813005899 0 7 -0.1813005899 0
gene 1 8 12 0.0003370951863 0 8 0.0003370951863 1
gene 1 9 12 -1.139096789 0 9 -1.139096789 0
gene 1 10 12 -0.09757513557 0 10 -0.09757513557 1
gene 1 11 12 -1.091455738 0 11 -1.091455738 1
gene 1 12 13 -0.5997407386 0 12 -0.5997407386 1
gene 1 12 14 0.3220501179 0 13 0.3220501179 1
gene 1 3 13 -1.017151796 0 14 -1.017151796 1
gene 1 10 13 0.1176425758 0 15 0.2343550783 1
gene 1 2 14 0.6051433212 0 16 0.6051433212 1
gene 1 9 14 -1.169175022 0 19 -1.169175022 0
gene 1 13 13 0.4157535027 1 21 0.4157535027 1
gene 1 11 13 -0.5044170287 0 24 -0.5044170287 0
gene 1 6 14 -0.1521348451 0 25 -0.1521348451 1
gene 1 2 13 -1.238766258 0 26 -1.238766258 1
gene 1 7 13 0.1709586631 0 27 0.1709586631 1
gene 1 11 14 -1.452029794 0 28 -1.452029794 1
gene 1 7 14 0.09218262415 0 30 0.09218262415 1
gene 1 5 14 0.1529143837 0 31 0.1529143837 1
gene 1 4 14 0.5987532432 0 32 0.5987532432 1
gene 1 12 15 0.8617444618 0 37 0.8617444618 1
gene 1 15 13 0.5053186781 0 38 0.5053186781 1
gene 1 5 13 0.07102787237 0 41 0.07102787237 0
gene 1 14 13 -0.208228161 0 48 -0.208228161 0
gene 1 10 15 -0.8729722415 0 49 -0.8729722415 1
gene 1 12 12 0.4345364387 1 72 0.4345364387 1
gene 1 2 15 0.1119366886 0 77 0.1119366886 1
gene 1 6 15 0.5008127062 0 84 0.5008127062 0
gene 1 5 22 2.105528502 0 117 2.105528502 1
gene 1 22 12 -0.685466498 0 118 -0.685466498 1
gene 1 15 15 -0.395847261 1 128 -0.395847261 1
gene 1 9 15 -0.5709418846 0 134 -0.5709418846 1
gene 1 7 24 1 0 137 0 1
gene 1 24 12 -0.0906033875 0 138 0 1
gene 1 8 24 -0.8224074891 0 164 0 1
gene 1 4 15 -0.2252521857 0 191 -0.2252521857 0
gene 1 14 14 1.431791629 1 223 1.431791629 1
gene 1 1 15 0.4940003324 0 226 0.4940003324 1
gene 1 8 22 0.4992651827 0 227 0.02776914985 1
gene 1 3 22 -0.9415399357 0 254 0 1
gene 1 11 15 -0.2088286017 0 270 -0.2088286017 1
gene 1 14 12 -0.4529999122 1 273 -0.4529999122 1
gene 1 5 15 -1.186014231 0 278 -1.186014231 1
gene 1 22 13 1.462001772 0 279 1.462001772 1
gene 1 8 15 0.1931649 0 281 0.1931649 1
gene 1 22 14 -0.6109506854 0 330 0 1
gene 1 2 24 0.3647457447 0 404 0 1
gene 1 24 24 0.6137374302 1 570 0.6137374302 1
gene 1 14 56 1 0 589 0 1
gene 1 56 13 -0.05834367729 0 590 0 1
genomeend 118630
/* Novelty: 2.555980682 Fitness: 187.8398895 Generation: 551 Indiv: 118880 */
/* Point: 136.719986 57.4589653 136.719986 57.4589653 */

/* Organism #119507 Fitness: 8.856492996 Error: 0 */
genomestart 119507
trait 1 0.2597160682 0.5875703205 0.8472238263 0.4765040319 0.1472272042 0.5118969356 0.2781505291 0.8662190368 
node 1 1 1 3
node 2 1 1 1
node 3 1 1 1
node 4 1 1 1
node 5 1 1 1
node 6 1 1 1
node 7 1 1 1
node 8 1 1 1
node 9 1 1 1
node 10 1 1 1
node 11 1 1 1
node 12 1 0 0
node 13 1 0 2
node 14 1 0 2
node 15 1 0 0
node 22 1 0 0
node 24 1 0 0
node 56 1 0 0
gene 1 1 12 1.450932301 0 1 1.450932301 1
gene 1 2 12 0.1066406217 0 2 0.1066406217 0
gene 1 3 12 -0.1233456754 0 3 -0.1233456754 0
gene 1 4 12 0.3910803766 0 4 0.3910803766 1
gene 1 5 12 -0.9758598006 0 5 -0.9758598006 0
gene 1 6 12 -1.193474761 0 6 -1.193474761 0
gene 1 7 12 -0.1813005899 0 7 -0.1813005899 0
gene 1 8 12 0.0003370951863 0 8 0.0003370951863 1
gene 1 9 12 -1.139096789 0 9 -1.139096789 0
gene 1 10 12 -0.09757513557 0 10 -0.09757513557 1
gene 1 11 12 -1.091455738 0 11 -1.091455738 1
gene 1 12 13 -0.5997407386 0 12 -0.5997407386 1
gene 1 12 14 0.3220501179 0 13 0.3220501179 1
gene 1 3 13 -1.017151796 0 14 -1.017151796 1
gene 1 10 13 0.1176425758 0 15 0.2343550783 1
gene 1 2 14 0.6051433212 0 16 0.6051433212 1
gene 1 9 14 -1.169175022 0 19 -1.169175022 0
gene 1 13 13 0.4157535027 1 21 0.4157535027 1
gene 1 11 13 -0.5044170287 0 24 -0.5044170287 0
gene 1 6 14 -0.1521348451 0 25 -0.1521348451 1
gene 1 2 13 -1.238766258 0 26 -1.238766258 1
gene 1 7 13 0.1709586631 0 27 0.1709586631 1
gene 1 11 14 -1.452029794 0 28 -1.452029794 1
gene 1 7 14 0.09548532269 0 30 0.09548532269 1
gene 1 5 14 0.1529143837 0 31 0.1529143837 1
gene 1 4 14 0.5987532432 0 32 0.5987532432 1
gene 1 12 15 0.8617444618 0 37 0.8617444618 1
gene 1 15 13 0.5053186781 0 38 0.5053186781 1
gene 1 5 13 0.07102787237 0 41 0.07102787237 0
gene 1 14 13 -0.208228161 0 48 -0.208228161 0
gene 1 10 15 -0.8729722415 0 49 -0.8729722415 1
gene 1 12 12 0.4345364387 1 72 0.4345364387 1
gene 1 2 15 0.1119366886 0 77 0.1119366886 1
gene 1 6 15 0.5008127062 0 84 0.5008127062 0
gene 1 5 22 2.105528502 0 117 2.105528502 1
gene 1 22 12 -0.685466498 0 118 -0.685466498 1
gene 1 15 15 -0.395847261 1 128 -0.395847261 1
gene 1 9 15 -0.5709418846 0 134 -0.5709418846 1
gene 1 7 24 1 0 137 0 1
gene 1 24 12 -0.0906033875 0 138 0 1
gene 1 8 24 -0.8224074891 0 164 0 1
gene 1 4 15 -0.2252521857 0 191 -0.2252521857 0
gene 1 14 14 1.431791629 1 223 1.431791629 1
gene 1 1 15 0.4940003324 0 226 0.4940003324 1
gene 1 8 22 0.4992651827 0 227 0.02776914985 1
gene 1 3 22 -0.9415399357 0 254 0 1
gene 1 11 15 -0.2088286017 0 270 -0.2088286017 1
gene 1 14 12 -0.4529999122 1 273 -0.4529999122 1
gene 1 5 15 -1.186014231 0 278 -1.186014231 1
gene 1 22 13 1.462001772 0 279 1.462001772 1
gene 1 8 15 0.1931649 0 281 0.1931649 1
gene 1 22 14 -0.6109506854 0 330 0 1
gene 1 2 24 0.3647457447 0 404 0 1
gene 1 24 24 0.6137374302 1 570 0.6137374302 1
gene 1 14 56 1 0 589 0 1
gene 1 56 13 -0.05834367729 0 590 0 1
genomeend 119507
/* Novelty: 2.555980682 Fitness: 187.8398895 Generation: 551 Indiv: 119757 */
/* Point: 136.719986 57.4589653 136.719986 57.4589653 */

/* Organism #69765 Fitness: 8.820719719 Error: 0 */
genomestart 69765
trait 1 0.4243429756 0 0.1851937401 0.2838586647 0.7852117559 0.1178010017 0.2774218308 0.2865015295 
node 1 1 1 3
node 2 1 1 1
node 3 1 1 1
node 4 1 1 1
node 5 1 1 1
node 6 1 1 1
node 7 1 1 1
node 8 1 1 1
node 9 1 1 1
node 10 1 1 1
node 11 1 1 1
node 12 1 0 0
node 13 1 0 2
node 14 1 0 2
node 15 1 0 0
node 22 1 0 0
node 24 1 0 0
gene 1 1 12 1.535593296 0 1 1.535593296 1
gene 1 2 12 0.1066406217 0 2 0.1066406217 0
gene 1 3 12 0.02054821701 0 3 0.02054821701 0
gene 1 4 12 0.3910803766 0 4 0.3910803766 1
gene 1 5 12 -0.9758598006 0 5 -0.9758598006 0
gene 1 6 12 -1.193474761 0 6 -1.193474761 1
gene 1 7 12 -0.3020112917 0 7 -0.3020112917 0
gene 1 8 12 0.0003370951863 0 8 0.0003370951863 1
gene 1 9 12 -1.139096789 0 9 -1.139096789 0
gene 1 10 12 -0.09757513557 0 10 -0.09757513557 1
gene 1 11 12 -1.029278655 0 11 -1.029278655 1
gene 1 12 13 -0.5997407386 0 12 -0.5997407386 1
gene 1 12 14 0.3220501179 0 13 0.3220501179 1
gene 1 3 13 -0.9352103281 0 14 -0.9352103281 1
gene 1 10 13 0.1176425758 0 15 0.2343550783 1
gene 1 2 14 0.6051433212 0 16 0.6051433212 1
gene 1 9 14 -1.169175022 0 19 -1.169175022 0
gene 1 13 13 0.4157535027 1 21 0.4157535027 1
gene 1 11 13 -0.7213423306 0 24 -0.7213423306 0
gene 1 6 14 -0.3767511176 0 25 -0.3767511176 1
gene 1 2 13 -1.238766258 0 26 -1.238766258 1
gene 1 7 13 0.1709586631 0 27 0.1709586631 1
gene 1 11 14 -1.452029794 0 28 -1.452029794 1
gene 1 7 14 0.09218262415 0 30 0.09218262415 1
gene 1 5 14 0.2440857062 0 31 0.2440857062 1
gene 1 4 14 0.5987532432 0 32 0.5987532432 1
gene 1 12 15 0.8617444618 0 37 0.8617444618 1
gene 1 15 13 0.4787425004 0 38 0.4787425004 1
gene 1 5 13 -0.109368318 0 41 -0.109368318 0
gene 1 14 13 -0.208228161 0 48 -0.208228161 1
gene 1 10 15 -0.8729722415 0 49 -0.8729722415 1
gene 1 12 12 0.4342582346 1 72 0.4342582346 1
gene 1 2 15 0.1119366886 0 77 0.1119366886 1
gene 1 6 15 0.5008127062 0 84 0.5008127062 0
gene 1 5 22 2.105528502 0 117 2.105528502 1
gene 1 22 12 -0.685466498 0 118 -0.685466498 1
gene 1 15 15 -0.3094143868 1 128 -0.3094143868 1
gene 1 9 15 -0.5709418846 0 134 -0.5709418846 1
gene 1 7 24 1 0 137 0 1
gene 1 24 12 -0.0906033875 0 138 0 1
gene 1 4 15 -0.2252521857 0 191 -0.2252521857 0
gene 1 14 14 1.431791629 1 223 1.431791629 1
gene 1 1 15 0.4940003324 0 226 0.4940003324 1
gene 1 8 22 0.4992651827 0 227 0.02776914985 1
gene 1 3 22 -0.9415399357 0 254 0 1
gene 1 11 15 -0.2295276242 0 270 -0.2295276242 1
gene 1 14 12 -0.4529999122 1 273 -0.4529999122 1
gene 1 5 15 -1.186014231 0 278 -1.186014231 1
gene 1 22 13 1.383622809 0 279 1.383622809 1
gene 1 8 15 0.1263686874 0 281 0.1263686874 1
gene 1 22 14 -0.6109506854 0 330 0 1
gene 1 2 24 0.3647457447 0 404 0 1
gene 1 24 24 0.6137374302 1 570 0.6137374302 1
genomeend 69765
/* Novelty: 1.550008774 Fitness: 287.8876953 Generation: 551 Indiv: 70015 */
/* Point: 41.16287994 13.41032028 41.16287994 13.41032028 */

/* Organism #116866 Fitness: 8.791291237 Error: 0 */
genomestart 116866
trait 1 0.3230341095 0.3615817357 0.5925968701 0.4024096599 0.3926058779 0.3603215764 0.2778702605 0.6432507648 
node 1 1 1 3
node 2 1 1 1
node 3 1 1 1
node 4 1 1 1
node 5 1 1 1
node 6 1 1 1
node 7 1 1 1
node 8 1 1 1
node 9 1 1 1
node 10 1 1 1
node 11 1 1 1
node 12 1 0 0
node 13 1 0 2
node 14 1 0 2
node 15 1 0 0
node 22 1 0 0
node 24 1 0 0
node 56 1 0 0
gene 1 1 12 1.450932301 0 1 1.450932301 1
gene 1 2 12 0.1066406217 0 2 0.1066406217 0
gene 1 3 12 0.02054821701 0 3 0.02054821701 0
gene 1 4 12 0.4089846193 0 4 0.4089846193 1
gene 1 5 12 -0.9758598006 0 5 -0.9758598006 0
gene 1 6 12 -1.193474761 0 6 -1.193474761 0
gene 1 7 12 -0.1813005899 0 7 -0.1813005899 0
gene 1 8 12 -0.07426136363 0 8 -0.07426136363 1
gene 1 9 12 -1.139096789 0 9 -1.139096789 0
gene 1 10 12 -0.09757513557 0 10 -0.09757513557 1
gene 1 11 12 -1.091455738 0 11 -1.091455738 1
gene 1 12 13 -0.5997407386 0 12 -0.5997407386 1
gene 1 12 14 0.3220501179 0 13 0.3220501179 1
gene 1 3 13 -0.9352103281 0 14 -0.9352103281 1
gene 1 10 13 0.1176425758 0 15 0.2343550783 1
gene 1 2 14 0.6051433212 0 16 0.6051433212 1
gene 1 9 14 -1.169175022 0 19 -1.169175022 0
gene 1 13 13 0.4157535027 1 21 0.4157535027 1
gene 1 11 13 -0.7213423306 0 24 -0.7213423306 0
gene 1 6 14 -0.1521348451 0 25 -0.1521348451 1
gene 1 2 13 -1.238766258 0 26 -1.238766258 1
gene 1 7 13 0.1709586631 0 27 0.1709586631 1
gene 1 11 14 -1.452029794 0 28 -1.452029794 1
gene 1 7 14 0.09548532269 0 30 0.09548532269 1
gene 1 5 14 0.2440857062 0 31 0.2440857062 1
gene 1 4 14 0.5987532432 0 32 0.5987532432 1
gene 1 12 15 0.8617444618 0 37 0.8617444618 1
gene 1 15 13 0.5053186781 0 38 0.5053186781 1
gene 1 5 13 0.07102787237 0 41 0.07102787237 0
gene 1 14 13 -0.208228161 0 48 -0.208228161 0
gene 1 10 15 -0.8729722415 0 49 -0.8729722415 1
gene 1 12 12 0.4345364387 1 72 0.4345364387 1
gene 1 2 15 0.1119366886 0 77 0.1119366886 1
gene 1 6 15 0.5008127062 0 84 0.5008127062 0
gene 1 5 22 2.105528502 0 117 2.105528502 1
gene 1 22 12 -0.685466498 0 118 -0.685466498 1
gene 1 15 15 -0.395847261 1 128 -0.395847261 1
gene 1 9 15 -0.5709418846 0 134 -0.5709418846 1
gene 1 7 24 1 0 137 0 1
gene 1 24 12 -0.0906033875 0 138 0 1
gene 1 8 24 -0.8224074891 0 164 0 1
gene 1 4 15 -0.2252521857 0 191 -0.2252521857 0
gene 1 14 14 1.431791629 1 223 1.431791629 1
gene 1 1 15 0.4940003324 0 226 0.4940003324 1
gene 1 8 22 0.4992651827 0 227 0.02776914985 1
gene 1 3 22 -0.9415399357 0 254 0 1
gene 1 11 15 -0.2295276242 0 270 -0.2295276242 1
gene 1 14 12 -0.4529999122 1 273 -0.4529999122 1
gene 1 5 15 -1.186014231 0 278 -1.186014231 1
gene 1 22 13 1.462001772 0 279 1.462001772 1
gene 1 8 15 0.1263686874 0 281 0.1263686874 1
gene 1 22 14 -0.6109506854 0 330 0 1
gene 1 2 24 0.3647457447 0 404 0 1
gene 1 24 24 0.6137374302 1 570 0.6137374302 1
gene 1 14 56 1 0 589 0 1
gene 1 56 13 -0.05834367729 0 590 0 1
genomeend 116866
/* Novelty: 3.309524536 Fitness: 204.7306519 Generation: 551 Indiv: 117116 */
/* Point: 113.3908234 67.83306885 113.3908234 67.83306885 */

/* Organism #120462 Fitness: 8.727010727 Error: 0 */
genomestart 120462
trait 1 0.2723796764 0.3615817357 0.796298435 0.4546628154 0.3946707001 0.4815818638 0.2780944754 0.8216253824 
node 1 1 1 3
node 2 1 1 1
node 3 1 1 1
node 4 1 1 1
node 5 1 1 1
node 6 1 1 1
node 7 1 1 1
node 8 1 1 1
node 9 1 1 1
node 10 1 1 1
node 11 1 1 1
node 12 1 0 0
node 13 1 0 2
node 14 1 0 2
node 15 1 0 0
node 22 1 0 0
node 24 1 0 0
node 56 1 0 0
gene 1 1 12 1.450932301 0 1 1.450932301 1
gene 1 2 12 0.1066406217 0 2 0.1066406217 0
gene 1 3 12 -0.1233456754 0 3 -0.1233456754 0
gene 1 4 12 0.4089846193 0 4 0.4089846193 1
gene 1 5 12 -0.9758598006 0 5 -0.9758598006 0
gene 1 6 12 -1.193474761 0 6 -1.193474761 1
gene 1 7 12 -0.1813005899 0 7 -0.1813005899 0
gene 1 8 12 -0.07426136363 0 8 -0.07426136363 1
gene 1 9 12 -1.139096789 0 9 -1.139096789 0
gene 1 10 12 -0.09757513557 0 10 -0.09757513557 1
gene 1 11 12 -1.091455738 0 11 -1.091455738 1
gene 1 12 13 -0.5997407386 0 12 -0.5997407386 1
gene 1 12 14 0.3220501179 0 13 0.3220501179 1
gene 1 3 13 -0.9352103281 0 14 -0.9352103281 1
gene 1 10 13 0.1176425758 0 15 0.2343550783 1
gene 1 2 14 0.6051433212 0 16 0.6051433212 1
gene 1 9 14 -1.169175022 0 19 -1.169175022 0
gene 1 13 13 0.4157535027 1 21 0.4157535027 1
gene 1 11 13 -0.5044170287 0 24 -0.5044170287 0
gene 1 6 14 -0.1521348451 0 25 -0.1521348451 1
gene 1 2 13 -1.238766258 0 26 -1.238766258 1
gene 1 7 13 0.1709586631 0 27 0.1709586631 1
gene 1 11 14 -1.452029794 0 28 -1.452029794 1
gene 1 7 14 0.09548532269 0 30 0.09548532269 1
gene 1 5 14 0.1529143837 0 31 0.1529143837 1
gene 1 4 14 0.5987532432 0 32 0.5987532432 1
gene 1 12 15 0.8566786964 0 37 0.8566786964 1
gene 1 15 13 0.5053186781 0 38 0.5053186781 1
gene 1 5 13 0.07102787237 0 41 0.07102787237 0
gene 1 14 13 -0.1944789243 0 48 -0.1944789243 0
gene 1 10 15 -0.8729722415 0 49 -0.8729722415 1
gene 1 12 12 0.4342582346 1 72 0.4342582346 1
gene 1 2 15 0.1119366886 0 77 0.1119366886 1
gene 1 6 15 0.5008127062 0 84 0.5008127062 0
gene 1 5 22 2.105528502 0 117 2.105528502 1
gene 1 22 12 -0.685466498 0 118 -0.685466498 1
gene 1 15 15 -0.395847261 1 128 -0.395847261 1
gene 1 9 15 -0.5709418846 0 134 -0.5709418846 1
gene 1 7 24 1 0 137 0 1
gene 1 24 12 -0.0906033875 0 138 0 1
gene 1 8 24 -0.8224074891 0 164 0 1
gene 1 4 15 -0.2252521857 0 191 -0.2252521857 0
gene 1 14 14 1.431791629 1 223 1.431791629 1
gene 1 1 15 0.4940003324 0 226 0.4940003324 1
gene 1 8 22 0.538852609 0 227 0 1
gene 1 3 22 -0.9415399357 0 254 0 1
gene 1 11 15 -0.2088286017 0 270 -0.2088286017 1
gene 1 14 12 -0.4529999122 1 273 -0.4529999122 1
gene 1 5 15 -1.186014231 0 278 -1.186014231 1
gene 1 22 13 1.462001772 0 279 1.462001772 1
gene 1 8 15 0.1931649 0 281 0.1931649 1
gene 1 22 14 -0.6109506854 0 330 0 1
gene 1 2 24 0.3647457447 0 404 0 1
gene 1 24 24 0.6137374302 1 570 0.6137374302 1
gene 1 14 56 1 0 589 0 1
gene 1 56 13 -0.05834367729 0 590 0 1
genomeend 120462
/* Novelty: 2.041162491 Fitness: 192.5973663 Generation: 551 Indiv: 120712 */
/* Point: 131.3455505 58.2896347 131.3455505 58.2896347 */

/* Organism #93988 Fitness: 8.714253426 Error: 0 */
genomestart 93988
trait 1 0.4243182549 0 0.1852060294 0.2838746788 0.7686931781 0.1178583257 0.2773616328 0.2816734657 
node 1 1 1 3
node 2 1 1 1
node 3 1 1 1
node 4 1 1 1
node 5 1 1 1
node 6 1 1 1
node 7 1 1 1
node 8 1 1 1
node 9 1 1 1
node 10 1 1 1
node 11 1 1 1
node 12 1 0 0
node 13 1 0 2
node 14 1 0 2
node 15 1 0 0
node 22 1 0 0
node 24 1 0 0
gene 1 1 12 1.450932301 0 1 1.450932301 1
gene 1 2 12 0.1066406217 0 2 0.1066406217 0
gene 1 3 12 -0.1233456754 0 3 -0.1233456754 0
gene 1 4 12 0.4089846193 0 4 0.4089846193 1
gene 1 5 12 -0.9758598006 0 5 -0.9758598006 0
gene 1 6 12 -1.193474761 0 6 -1.193474761 1
gene 1 7 12 -0.3020112917 0 7 -0.3020112917 1
gene 1 8 12 0.0003370951863 0 8 0.0003370951863 1
gene 1 9 12 -1.139096789 0 9 -1.139096789 0
gene 1 10 12 -0.09757513557 0 10 -0.09757513557 1
gene 1 11 12 -1.091455738 0 11 -1.091455738 1
gene 1 12 13 -0.5997407386 0 12 -0.5997407386 1
gene 1 12 14 0.3220501179 0 13 0.3220501179 1
gene 1 3 13 -0.9352103281 0 14 -0.9352103281 1
gene 1 10 13 0.1176425758 0 15 0.2343550783 1
gene 1 2 14 0.6051433212 0 16 0.6051433212 1
gene 1 9 14 -1.169175022 0 19 -1.169175022 0
gene 1 13 13 0.4157535027 1 21 0.4157535027 1
gene 1 11 13 -0.7213423306 0 24 -0.7213423306 0
gene 1 6 14 -0.3767511176 0 25 -0.3767511176 1
gene 1 2 13 -1.238766258 0 26 -1.238766258 1
gene 1 7 13 0.1709586631 0 27 0.1709586631 1
gene 1 11 14 -1.452029794 0 28 -1.452029794 1
gene 1 7 14 0.08887992561 0 30 0.08887992561 1
gene 1 5 14 0.3352570288 0 31 0.3352570288 1
gene 1 4 14 0.5987532432 0 32 0.5987532432 1
gene 1 12 15 0.8566786964 0 37 0.8566786964 1
gene 1 15 13 0.4787425004 0 38 0.4787425004 1
gene 1 5 13 -0.109368318 0 41 -0.109368318 0
gene 1 14 13 -0.1944789243 0 48 -0.1944789243 1
gene 1 10 15 -0.8729722415 0 49 -0.8729722415 1
gene 1 12 12 0.4342582346 1 72 0.4342582346 1
gene 1 2 15 0.1119366886 0 77 0.1119366886 1
gene 1 6 15 0.5008127062 0 84 0.5008127062 0
gene 1 5 22 2.105528502 0 117 2.105528502 1
gene 1 22 12 -0.685466498 0 118 -0.685466498 1
gene 1 15 15 -0.395847261 1 128 -0.395847261 1
gene 1 9 15 -0.4991384766 0 134 -0.4991384766 1
gene 1 7 24 1 0 137 0 1
gene 1 24 12 -0.0906033875 0 138 0 1
gene 1 4 15 -0.2252521857 0 191 -0.2252521857 0
gene 1 14 14 1.431791629 1 223 1.431791629 1
gene 1 1 15 0.4940003324 0 226 0.4940003324 1
gene 1 8 22 0.538852609 0 227 0 1
gene 1 3 22 -0.9415399357 0 254 0 1
gene 1 11 15 -0.2088286017 0 270 -0.2088286017 1
gene 1 14 12 -0.4529999122 1 273 -0.4529999122 1
gene 1 5 15 -1.186014231 0 278 -1.186014231 1
gene 1 22 13 1.305243845 0 279 1.305243845 1
gene 1 8 15 0.1931649 0 281 0.1931649 1
gene 1 22 14 -0.6109506854 0 330 0 1
gene 1 2 24 0.3647457447 0 404 0 1
genomeend 93988
/* Novelty: 2.565490246 Fitness: 286.2440796 Generation: 551 Indiv: 94238 */
/* Point: 42.923069 13.13954639 42.923069 13.13954639 */

/* Organism #111872 Fitness: 8.714253426 Error: 0 */
genomestart 111872
trait 1 0.4243182549 0 0.1852060294 0.2838746788 0.7686931781 0.1178583257 0.2773616328 0.2816734657 
node 1 1 1 3
node 2 1 1 1
node 3 1 1 1
node 4 1 1 1
node 5 1 1 1
node 6 1 1 1
node 7 1 1 1
node 8 1 1 1
node 9 1 1 1
node 10 1 1 1
node 11 1 1 1
node 12 1 0 0
node 13 1 0 2
node 14 1 0 2
node 15 1 0 0
node 22 1 0 0
node 24 1 0 0
gene 1 1 12 1.450932301 0 1 1.450932301 1
gene 1 2 12 0.1066406217 0 2 0.1066406217 0
gene 1 3 12 -0.1233456754 0 3 -0.1233456754 0
gene 1 4 12 0.4089846193 0 4 0.4089846193 1
gene 1 5 12 -0.9758598006 0 5 -0.9758598006 0
gene 1 6 12 -1.193474761 0 6 -1.193474761 1
gene 1 7 12 -0.3020112917 0 7 -0.3020112917 1
gene 1 8 12 0.0003370951863 0 8 0.0003370951863 1
gene 1 9 12 -1.139096789 0 9 -1.139096789 0
gene 1 10 12 -0.09757513557 0 10 -0.09757513557 1
gene 1 11 12 -1.091455738 0 11 -1.091455738 1
gene 1 12 13 -0.5997407386 0 12 -0.5997407386 1
gene 1 12 14 0.3220501179 0 13 0.3220501179 1
gene 1 3 13 -0.9352103281 0 14 -0.9352103281 1
gene 1 10 13 0.1176425758 0 15 0.2343550783 1
gene 1 2 14 0.6051433212 0 16 0.6051433212 1
gene 1 9 14 -1.169175022 0 19 -1.169175022 0
gene 1 13 13 0.4157535027 1 21 0.4157535027 1
gene 1 11 13 -0.7213423306 0 24 -0.7213423306 0
gene 1 6 14 -0.3767511176 0 25 -0.3767511176 1
gene 1 2 13 -1.238766258 0 26 -1.238766258 1
gene 1 7 13 0.1709586631 0 27 0.1709586631 1
gene 1 11 14 -1.452029794 0 28 -1.452029794 1
gene 1 7 14 0.08887992561 0 30 0.08887992561 1
gene 1 5 14 0.3352570288 0 31 0.3352570288 1
gene 1 4 14 0.5987532432 0 32 0.5987532432 1
gene 1 12 15 0.8566786964 0 37 0.8566786964 1
gene 1 15 13 0.4787425004 0 38 0.4787425004 1
gene 1 5 13 -0.109368318 0 41 -0.109368318 0
gene 1 14 13 -0.1944789243 0 48 -0.1944789243 1
gene 1 10 15 -0.8729722415 0 49 -0.8729722415 1
gene 1 12 12 0.4342582346 1 72 0.4342582346 1
gene 1 2 15 0.1119366886 0 77 0.1119366886 1
gene 1 6 15 0.5008127062 0 84 0.5008127062 0
gene 1 5 22 2.105528502 0 117 2.105528502 1
gene 1 22 12 -0.685466498 0 118 -0.685466498 1
gene 1 15 15 -0.395847261 1 128 -0.395847261 1
gene 1 9 15 -0.4991384766 0 134 -0.4991384766 1
gene 1 7 24 1 0 137 0 1
gene 1 24 12 -0.0906033875 0 138 0 1
gene 1 4 15 -0.2252521857 0 191 -0.2252521857 0
gene 1 14 14 1.431791629 1 223 1.431791629 1
gene 1 1 15 0.4940003324 0 226 0.4940003324 1
gene 1 8 22 0.538852609 0 227 0 1
gene 1 3 22 -0.9415399357 0 254 0 1
gene 1 11 15 -0.2088286017 0 270 -0.2088286017 1
gene 1 14 12 -0.4529999122 1 273 -0.4529999122 1
gene 1 5 15 -1.186014231 0 278 -1.186014231 1
gene 1 22 13 1.305243845 0 279 1.305243845 1
gene 1 8 15 0.1931649 0 281 0.1931649 1
gene 1 22 14 -0.6109506854 0 330 0 1
gene 1 2 24 0.3647457447 0 404 0 1
genomeend 111872
/* Novelty: 2.565490246 Fitness: 286.2440796 Generation: 551 Indiv: 112122 */
/* Point: 42.923069 13.13954639 42.923069 13.13954639 */

/* Organism #120224 Fitness: 8.638907433 Error: 0 */
genomestart 120224
trait 1 0.2217252434 0.7231634714 1 0.520960655 0 0.6028421512 0.2783186902 1 
