genomestart 97066
trait 1 0.7815930028 0.4114165131 0.5787757468 0.134968932 0.3543669939 0.4696209211 0.3418972581 0.04233058479 
node 1 1 1 3
node 2 1 1 1
node 3 1 1 1
node 4 1 1 1
node 5 1 1 1
node 6 1 1 1
node 7 1 1 1
node 8 1 1 1
node 9 1 1 1
node 10 1 1 1
node 11 1 1 1
node 12 1 0 0
node 13 1 0 2
node 14 1 0 2
node 15 1 0 0
node 18 1 0 0
gene 1 1 12 0.4918924867 0 1 0.4918924867 1
gene 1 2 12 -0.7120879871 0 2 -0.7120879871 0
gene 1 3 12 -0.8287379092 0 3 -0.8287379092 1
gene 1 4 12 0.3971486798 0 4 0.3971486798 1
gene 1 5 12 1.083912871 0 5 1.083912871 1
gene 1 6 12 -0.2876166984 0 6 -0.2876166984 1
gene 1 7 12 1.716424641 0 7 1.716424641 1
gene 1 8 12 0.163195601 0 8 0.163195601 0
gene 1 9 12 1.562689524 0 9 1.562689524 1
gene 1 10 12 0.4858315138 0 10 0.4858315138 1
gene 1 11 12 0.2701023124 0 11 0.2701023124 0
gene 1 12 13 -0.5606626057 0 12 -0.5606626057 1
gene 1 12 14 1.224753299 0 13 1.224753299 1
gene 1 3 13 -0.2116791115 0 14 -0.2116791115 0
gene 1 10 13 0.7808127368 0 15 0.7808127368 1
gene 1 2 14 -0.1889729161 0 16 -0.1889729161 1
gene 1 8 14 0.3554936752 0 17 0.3554936752 1
gene 1 9 14 0.4446258349 0 19 0.4446258349 1
gene 1 13 13 0.1414736602 1 21 0.1414736602 1
gene 1 1 14 1.517370824 0 22 1.517370824 1
gene 1 11 13 -1.161584187 0 24 -1.161584187 1
gene 1 6 14 -2.375217364 0 25 -2.375217364 0
gene 1 2 13 -2.665488316 0 26 -2.665488316 1
gene 1 7 13 0.520192147 0 27 0 1
gene 1 11 14 -1.415195138 0 28 -1.415195138 1
gene 1 7 14 -1.216286414 0 30 -1.216286414 1
gene 1 5 14 1.2061047 0 31 1.2061047 1
gene 1 4 14 0.2721400589 0 32 0.2721400589 1
gene 1 12 15 0.03784544404 0 37 0.03784544404 0
gene 1 15 13 0.8934101901 0 38 0.8934101901 1
gene 1 5 13 1.197888055 0 41 1.197888055 1
gene 1 10 14 -0.5482460993 0 46 -0.5482460993 1
gene 1 10 15 0.3756471768 0 49 0.3756471768 1
gene 1 3 14 0.4329253111 0 52 0.4329253111 1
gene 1 3 15 0.1436624301 0 68 0.1436624301 1
gene 1 12 12 -1.290091761 1 72 -1.290091761 1
gene 1 2 15 0.7587657166 0 77 0.7587657166 1
gene 1 6 15 1.168329661 0 84 1.168329661 1
gene 1 8 18 1 0 85 0 1
gene 1 18 12 -0.5169700537 0 86 -0.5169700537 1
gene 1 15 14 -0.9602165787 0 124 -0.9602165787 1
gene 1 9 15 -1.087841445 0 134 -1.087841445 1
gene 1 14 14 0.3293756166 1 140 0.3293756166 1
gene 1 1 15 -0.4152301735 0 226 -0.4152301735 1
gene 1 8 15 1.213990797 0 281 1.213990797 1
gene 1 13 12 0.1483800976 1 416 0.1483800976 1
gene 1 15 12 0.2317004416 1 498 0.2317004416 1
gene 1 5 18 -0.8856055112 0 714 0 1
gene 1 15 18 -0.9322036961 0 1195 0 1
genomeend 97066
/* Novelty: 8.907474518 Fitness: 297.8602905 Generation: 389 Indiv: 97316 */
/* Point: 32.96779251 20.84029388 32.96779251 20.84029388 */
genomestart 130360
trait 1 1 0 0.4640677324 0.1468745136 0.7167797284 0.428537046 0.2591810666 0.0413494123 
node 1 1 1 3
node 2 1 1 1
node 3 1 1 1
node 4 1 1 1
node 5 1 1 1
node 6 1 1 1
node 7 1 1 1
node 8 1 1 1
node 9 1 1 1
node 10 1 1 1
node 11 1 1 1
node 12 1 0 0
node 13 1 0 2
node 14 1 0 2
node 15 1 0 0
node 18 1 0 0
gene 1 1 12 0.4183979013 0 1 0.4183979013 1
gene 1 2 12 -0.7120879871 0 2 -0.7120879871 0
gene 1 3 12 -0.9979369018 0 3 -0.9979369018 1
gene 1 4 12 0.4335329751 0 4 0.4335329751 1
gene 1 5 12 1.083912871 0 5 1.083912871 1
gene 1 6 12 -0.1804378844 0 6 -0.1804378844 1
gene 1 7 12 1.854862543 0 7 1.854862543 1
gene 1 8 12 0.163195601 0 8 0.163195601 1
gene 1 9 12 1.280464755 0 9 1.280464755 1
gene 1 10 12 0.1784624243 0 10 0.1784624243 1
gene 1 11 12 0.2701023124 0 11 0.2701023124 0
gene 1 12 13 -0.6626194892 0 12 -0.6626194892 1
gene 1 12 14 1.283521625 0 13 1.283521625 1
gene 1 3 13 -0.2116791115 0 14 -0.2116791115 0
gene 1 10 13 0.704945025 0 15 0.704945025 1
gene 1 2 14 -0.2977512395 0 16 -0.2977512395 1
gene 1 8 14 0.03373137826 0 17 0.03373137826 1
gene 1 9 14 0.5379522297 0 19 0.5379522297 1
gene 1 13 13 0.2405912242 1 21 0.2405912242 1
gene 1 1 14 1.517370824 0 22 1.517370824 1
gene 1 11 13 -1.161584187 0 24 -1.161584187 1
gene 1 6 14 -2.149342015 0 25 -2.149342015 1
gene 1 2 13 -2.665488316 0 26 -2.665488316 1
gene 1 7 13 0.520192147 0 27 0 1
gene 1 11 14 -1.243136502 0 28 -1.243136502 1
gene 1 7 14 -1.057223994 0 30 -1.057223994 1
gene 1 5 14 1.2061047 0 31 1.2061047 1
gene 1 4 14 0.6044541912 0 32 0.6044541912 1
gene 1 12 15 0.03784544404 0 37 0.03784544404 0
gene 1 15 13 0.8934101901 0 38 0.8934101901 1
gene 1 5 13 1.207779437 0 41 1.207779437 1
gene 1 10 14 -0.7199943378 0 46 -0.7199943378 1
gene 1 10 15 0.2069663926 0 49 0.2069663926 1
gene 1 3 14 0.1064234457 0 52 0.1064234457 1
gene 1 3 15 0.1436624301 0 68 0.1436624301 1
gene 1 12 12 -1.290091761 1 72 -1.290091761 1
gene 1 2 15 0.45960833 0 77 0.45960833 1
gene 1 6 15 1.168329661 0 84 1.168329661 1
gene 1 8 18 1 0 85 0 1
gene 1 18 12 -0.2340056867 0 86 -0.2584850268 1
gene 1 15 14 -0.831697681 0 124 -0.831697681 1
gene 1 9 15 -0.9358050193 0 134 -0.9358050193 1
gene 1 14 14 0.2508373255 1 140 0.2508373255 1
gene 1 1 15 -0.4152301735 0 226 -0.4152301735 1
gene 1 8 15 0.8709347429 0 281 0.8709347429 1
gene 1 13 12 0.1483800976 1 416 0.1483800976 1
gene 1 15 12 0.2317004416 1 498 0.2317004416 1
gene 1 5 18 -0.8856055112 0 714 0 1
gene 1 15 18 -0.9322036961 0 1195 0 1
genomeend 130360
/* Novelty: 8.078952789 Fitness: 297.7785339 Generation: 522 Indiv: 130610 */
/* Point: 31.79423714 22.07461739 31.79423714 22.07461739 */
genomestart 98122
trait 1 0.7624428079 0.4098179364 0.648969234 0.1468745136 0.3267522941 0.428537046 0.3570330695 0.0413494123 
node 1 1 1 3
node 2 1 1 1
node 3 1 1 1
node 4 1 1 1
node 5 1 1 1
node 6 1 1 1
node 7 1 1 1
node 8 1 1 1
node 9 1 1 1
node 10 1 1 1
node 11 1 1 1
node 12 1 0 0
node 13 1 0 2
node 14 1 0 2
node 15 1 0 0
node 18 1 0 0
gene 1 1 12 0.4183979013 0 1 0.4183979013 1
gene 1 2 12 -0.7120879871 0 2 -0.7120879871 0
gene 1 3 12 -0.9979369018 0 3 -0.9979369018 1
gene 1 4 12 0.4335329751 0 4 0.4335329751 1
gene 1 5 12 1.083912871 0 5 1.083912871 1
gene 1 6 12 -0.1804378844 0 6 -0.1804378844 1
gene 1 7 12 1.854862543 0 7 1.854862543 1
gene 1 8 12 0.163195601 0 8 0.163195601 1
gene 1 9 12 1.280464755 0 9 1.280464755 1
gene 1 10 12 0.1784624243 0 10 0.1784624243 1
gene 1 11 12 0.2701023124 0 11 0.2701023124 0
gene 1 12 13 -0.6626194892 0 12 -0.6626194892 1
gene 1 12 14 1.283521625 0 13 1.283521625 1
gene 1 3 13 -0.2116791115 0 14 -0.2116791115 0
gene 1 10 13 0.704945025 0 15 0.704945025 1
gene 1 2 14 -0.2977512395 0 16 -0.2977512395 1
gene 1 8 14 0.03373137826 0 17 0.03373137826 1
gene 1 9 14 0.5379522297 0 19 0.5379522297 1
gene 1 13 13 0.2405912242 1 21 0.2405912242 1
gene 1 1 14 1.517370824 0 22 1.517370824 1
gene 1 11 13 -1.161584187 0 24 -1.161584187 1
gene 1 6 14 -2.149342015 0 25 -2.149342015 1
gene 1 2 13 -2.665488316 0 26 -2.665488316 1
gene 1 7 13 0.520192147 0 27 0 1
gene 1 11 14 -1.243136502 0 28 -1.243136502 1
gene 1 7 14 -1.057223994 0 30 -1.057223994 1
gene 1 5 14 1.2061047 0 31 1.2061047 1
gene 1 4 14 0.6044541912 0 32 0.6044541912 1
gene 1 12 15 0.03784544404 0 37 0.03784544404 0
gene 1 15 13 0.8934101901 0 38 0.8934101901 1
gene 1 5 13 1.207779437 0 41 1.207779437 1
gene 1 10 14 -0.7199943378 0 46 -0.7199943378 1
gene 1 10 15 0.2069663926 0 49 0.2069663926 1
gene 1 3 14 0.1064234457 0 52 0.1064234457 1
gene 1 3 15 0.1436624301 0 68 0.1436624301 1
gene 1 12 12 -1.290091761 1 72 -1.290091761 1
gene 1 2 15 0.45960833 0 77 0.45960833 1
gene 1 6 15 1.168329661 0 84 1.168329661 1
gene 1 8 18 1 0 85 0 1
gene 1 18 12 -0.2340056867 0 86 -0.2584850268 1
gene 1 15 14 -0.831697681 0 124 -0.831697681 1
gene 1 9 15 -0.9358050193 0 134 -0.9358050193 1
gene 1 14 14 0.2508373255 1 140 0.2508373255 1
gene 1 1 15 -0.4152301735 0 226 -0.4152301735 1
gene 1 8 15 0.8709347429 0 281 0.8709347429 1
gene 1 13 12 0.1483800976 1 416 0.1483800976 1
gene 1 15 12 0.2317004416 1 498 0.2317004416 1
gene 1 5 18 -0.8856055112 0 714 0 1
gene 1 15 18 -0.9322036961 0 1195 0 1
genomeend 98122
/* Novelty: 8.902360916 Fitness: 297.7785339 Generation: 393 Indiv: 98372 */
/* Point: 31.79423714 22.07461739 31.79423714 22.07461739 */
genomestart 131587
trait 1 0.7624428079 0.4098179364 0.648969234 0.1468745136 0.3267522941 0.428537046 0.3570330695 0.0413494123 
node 1 1 1 3
node 2 1 1 1
node 3 1 1 1
node 4 1 1 1
node 5 1 1 1
node 6 1 1 1
node 7 1 1 1
node 8 1 1 1
node 9 1 1 1
node 10 1 1 1
node 11 1 1 1
node 12 1 0 0
node 13 1 0 2
node 14 1 0 2
node 15 1 0 0
node 18 1 0 0
gene 1 1 12 0.4183979013 0 1 0.4183979013 1
gene 1 2 12 -0.7120879871 0 2 -0.7120879871 0
gene 1 3 12 -0.9979369018 0 3 -0.9979369018 1
gene 1 4 12 0.4335329751 0 4 0.4335329751 1
gene 1 5 12 1.083912871 0 5 1.083912871 1
gene 1 6 12 -0.1804378844 0 6 -0.1804378844 1
gene 1 7 12 1.854862543 0 7 1.854862543 1
gene 1 8 12 0.163195601 0 8 0.163195601 1
gene 1 9 12 1.280464755 0 9 1.280464755 1
gene 1 10 12 0.1784624243 0 10 0.1784624243 1
gene 1 11 12 0.2701023124 0 11 0.2701023124 1
gene 1 12 13 -0.6626194892 0 12 -0.6626194892 1
gene 1 12 14 1.283521625 0 13 1.283521625 1
gene 1 3 13 -0.2116791115 0 14 -0.2116791115 0
gene 1 10 13 0.704945025 0 15 0.704945025 1
gene 1 2 14 -0.2977512395 0 16 -0.2977512395 1
gene 1 8 14 0.03373137826 0 17 0.03373137826 1
gene 1 9 14 0.5379522297 0 19 0.5379522297 1
gene 1 13 13 0.2405912242 1 21 0.2405912242 1
gene 1 1 14 1.517370824 0 22 1.517370824 1
gene 1 11 13 -1.161584187 0 24 -1.161584187 1
gene 1 6 14 -2.149342015 0 25 -2.149342015 1
gene 1 2 13 -2.665488316 0 26 -2.665488316 1
gene 1 7 13 0.520192147 0 27 0 1
gene 1 11 14 -1.243136502 0 28 -1.243136502 1
gene 1 7 14 -1.057223994 0 30 -1.057223994 1
gene 1 5 14 1.2061047 0 31 1.2061047 1
gene 1 4 14 0.6044541912 0 32 0.6044541912 1
gene 1 12 15 0.03784544404 0 37 0.03784544404 0
gene 1 15 13 0.8934101901 0 38 0.8934101901 1
gene 1 5 13 1.207779437 0 41 1.207779437 1
gene 1 10 14 -0.7199943378 0 46 -0.7199943378 1
gene 1 10 15 0.2069663926 0 49 0.2069663926 1
gene 1 3 14 0.1064234457 0 52 0.1064234457 1
gene 1 3 15 0.1436624301 0 68 0.1436624301 1
gene 1 12 12 -1.290091761 1 72 -1.290091761 1
gene 1 2 15 0.45960833 0 77 0.45960833 1
gene 1 6 15 1.168329661 0 84 1.168329661 1
gene 1 8 18 1 0 85 0 1
gene 1 18 12 -0.2340056867 0 86 -0.2584850268 1
gene 1 15 14 -0.831697681 0 124 -0.831697681 1
gene 1 9 15 -0.9358050193 0 134 -0.9358050193 1
gene 1 14 14 0.2508373255 1 140 0.2508373255 1
gene 1 1 15 -0.4152301735 0 226 -0.4152301735 1
gene 1 8 15 0.8709347429 0 281 0.8709347429 1
gene 1 13 12 0.1483800976 1 416 0.1483800976 1
gene 1 15 12 0.2317004416 1 498 0.2317004416 1
gene 1 5 18 -0.8856055112 0 714 0 1
gene 1 15 18 -0.9322036961 0 1195 0 1
genomeend 131587
/* Novelty: 8.078952789 Fitness: 297.7785339 Generation: 527 Indiv: 131837 */
/* Point: 31.79423714 22.07461739 31.79423714 22.07461739 */
genomestart 131688
trait 1 0.7624428079 0.4098179364 0.648969234 0.1468745136 0.3267522941 0.428537046 0.3570330695 0.0413494123 
node 1 1 1 3
node 2 1 1 1
node 3 1 1 1
node 4 1 1 1
node 5 1 1 1
node 6 1 1 1
node 7 1 1 1
node 8 1 1 1
node 9 1 1 1
node 10 1 1 1
node 11 1 1 1
node 12 1 0 0
node 13 1 0 2
node 14 1 0 2
node 15 1 0 0
node 18 1 0 0
gene 1 1 12 0.4183979013 0 1 0.4183979013 1
gene 1 2 12 -0.7120879871 0 2 -0.7120879871 0
gene 1 3 12 -0.9979369018 0 3 -0.9979369018 1
gene 1 4 12 0.4335329751 0 4 0.4335329751 1
gene 1 5 12 1.083912871 0 5 1.083912871 1
gene 1 6 12 -0.1804378844 0 6 -0.1804378844 1
gene 1 7 12 1.854862543 0 7 1.854862543 1
gene 1 8 12 0.163195601 0 8 0.163195601 1
gene 1 9 12 1.280464755 0 9 1.280464755 1
gene 1 10 12 0.1784624243 0 10 0.1784624243 1
gene 1 11 12 0.2701023124 0 11 0.2701023124 0
gene 1 12 13 -0.6626194892 0 12 -0.6626194892 1
gene 1 12 14 1.283521625 0 13 1.283521625 1
gene 1 3 13 -0.2116791115 0 14 -0.2116791115 0
gene 1 10 13 0.704945025 0 15 0.704945025 1
gene 1 2 14 -0.2977512395 0 16 -0.2977512395 1
gene 1 8 14 0.03373137826 0 17 0.03373137826 1
gene 1 9 14 0.5379522297 0 19 0.5379522297 1
gene 1 13 13 0.2405912242 1 21 0.2405912242 1
gene 1 1 14 1.517370824 0 22 1.517370824 1
gene 1 11 13 -1.161584187 0 24 -1.161584187 1
gene 1 6 14 -2.149342015 0 25 -2.149342015 1
gene 1 2 13 -2.665488316 0 26 -2.665488316 1
gene 1 7 13 0.520192147 0 27 0 1
gene 1 11 14 -1.243136502 0 28 -1.243136502 1
gene 1 7 14 -1.057223994 0 30 -1.057223994 1
gene 1 5 14 1.2061047 0 31 1.2061047 1
gene 1 4 14 0.6044541912 0 32 0.6044541912 1
gene 1 12 15 0.03784544404 0 37 0.03784544404 0
gene 1 15 13 0.8934101901 0 38 0.8934101901 1
gene 1 5 13 1.207779437 0 41 1.207779437 1
gene 1 10 14 -0.7199943378 0 46 -0.7199943378 1
gene 1 10 15 0.2069663926 0 49 0.2069663926 1
gene 1 3 14 0.1064234457 0 52 0.1064234457 1
gene 1 3 15 0.1436624301 0 68 0.1436624301 1
gene 1 12 12 -1.290091761 1 72 -1.290091761 1
gene 1 2 15 0.45960833 0 77 0.45960833 1
gene 1 6 15 1.168329661 0 84 1.168329661 1
gene 1 8 18 1 0 85 0 1
gene 1 18 12 -0.2340056867 0 86 -0.2584850268 1
gene 1 15 14 -0.831697681 0 124 -0.831697681 1
gene 1 9 15 -0.9358050193 0 134 -0.9358050193 1
gene 1 14 14 0.2508373255 1 140 0.2508373255 1
gene 1 1 15 -0.4152301735 0 226 -0.4152301735 1
gene 1 8 15 0.8709347429 0 281 0.8709347429 1
gene 1 13 12 0.1483800976 1 416 0.1483800976 1
gene 1 15 12 0.2317004416 1 498 0.2317004416 1
gene 1 5 18 -0.8856055112 0 714 0 1
gene 1 15 18 -0.9322036961 0 1195 0 1
genomeend 131688
/* Novelty: 8.078952789 Fitness: 297.7785339 Generation: 527 Indiv: 131938 */
/* Point: 31.79423714 22.07461739 31.79423714 22.07461739 */
