genomestart 36672
trait 1 0.4181380951 0 0.1882783576 0.2878782033 0.8036931379 0.1321893478 0.2623121418 0.2891110057 
node 1 1 1 3
node 2 1 1 1
node 3 1 1 1
node 4 1 1 1
node 5 1 1 1
node 6 1 1 1
node 7 1 1 1
node 8 1 1 1
node 9 1 1 1
node 10 1 1 1
node 11 1 1 1
node 12 1 0 0
node 13 1 0 2
node 14 1 0 2
node 15 1 0 0
node 22 1 0 0
node 24 1 0 0
gene 1 1 12 1.620254291 0 1 1.620254291 1
gene 1 2 12 0.1066406217 0 2 0.1066406217 0
gene 1 3 12 0.1644421094 0 3 0.1644421094 0
gene 1 4 12 0.2657506778 0 4 0.2657506778 1
gene 1 5 12 -0.9758598006 0 5 -0.9758598006 0
gene 1 6 12 -1.193474761 0 6 -1.193474761 1
gene 1 7 12 -0.3020112917 0 7 -0.3020112917 0
gene 1 8 12 0.0003370951863 0 8 0.0003370951863 1
gene 1 9 12 -1.518604168 0 9 -1.518604168 0
gene 1 10 12 -0.09757513557 0 10 -0.09757513557 1
gene 1 11 12 -0.8427474054 0 11 -0.8427474054 1
gene 1 12 13 -0.5997407386 0 12 -0.5997407386 1
gene 1 12 14 0.4012654622 0 13 0.4012654622 1
gene 1 3 13 -0.3932095731 0 14 -0.3932095731 1
gene 1 10 13 0.4687101567 0 15 0.4687101567 1
gene 1 2 14 0.6051433212 0 16 0.6051433212 1
gene 1 9 14 -1.169175022 0 19 -1.169175022 0
gene 1 13 13 0.4157535027 1 21 0.4157535027 1
gene 1 11 13 -0.5044170287 0 24 -0.5044170287 0
gene 1 6 14 0.07248142738 0 25 0.07248142738 1
gene 1 2 13 -1.142397771 0 26 -1.142397771 1
gene 1 7 13 0.1709586631 0 27 0.1709586631 1
gene 1 11 14 -1.452029794 0 28 -1.452029794 1
gene 1 7 14 0.09548532269 0 30 0.09548532269 1
gene 1 5 14 0.1529143837 0 31 0.1529143837 1
gene 1 4 14 0.5987532432 0 32 0.5987532432 1
gene 1 12 15 0.8668102272 0 37 0.8668102272 1
gene 1 15 13 0.5318948558 0 38 0.5318948558 1
gene 1 5 13 0.07102787237 0 41 0.07102787237 0
gene 1 14 13 -0.1703584717 0 48 -0.1703584717 1
gene 1 10 15 -1.038891829 0 49 -1.038891829 1
gene 1 3 15 -0.8685906231 0 68 0 1
gene 1 12 12 0.4348146429 1 72 0.4348146429 1
gene 1 2 15 0.1119366886 0 77 0.1119366886 1
gene 1 6 15 0.4634791022 0 84 0.4634791022 0
gene 1 5 22 2.105528502 0 117 2.105528502 1
gene 1 22 12 -0.685466498 0 118 -0.685466498 1
gene 1 15 15 -0.9661911228 1 128 -0.9661911228 1
gene 1 9 15 -0.7863521086 0 134 -0.7863521086 1
gene 1 7 24 1 0 137 0 1
gene 1 24 12 -0.0906033875 0 138 0 1
gene 1 4 15 -0.2252521857 0 191 -0.2252521857 0
gene 1 14 14 1.431791629 1 223 1.431791629 1
gene 1 1 15 0.7026009324 0 226 0.7026009324 1
gene 1 8 22 0.538852609 0 227 0 1
gene 1 3 22 -0.9415399357 0 254 0 1
gene 1 11 15 -0.2088286017 0 270 -0.2088286017 1
gene 1 14 12 -0.4529999122 1 273 -0.4529999122 1
gene 1 5 15 -1.186014231 0 278 -1.186014231 1
gene 1 22 13 0.9917279919 0 279 0.9917279919 1
gene 1 8 15 -0.07401995066 0 281 -0.07401995066 1
gene 1 22 14 -0.6109506854 0 330 0 1
gene 1 2 24 0.3647457447 0 404 0 1
gene 1 24 24 0.6137374302 1 570 0.6137374302 1
genomeend 36672
/* Novelty: 8.369338036 Fitness: 297.6816711 Generation: 147 Indiv: 36922 */
/* Point: 32.44861221 18.18996239 32.44861221 18.18996239 */
genomestart 80304
trait 1 0.4243553359 0 0.1851875955 0.2838506576 0.7934710447 0.1177723396 0.2774519297 0.2889155615 
node 1 1 1 3
node 2 1 1 1
node 3 1 1 1
node 4 1 1 1
node 5 1 1 1
node 6 1 1 1
node 7 1 1 1
node 8 1 1 1
node 9 1 1 1
node 10 1 1 1
node 11 1 1 1
node 12 1 0 0
node 13 1 0 2
node 14 1 0 2
node 15 1 0 0
node 22 1 0 0
node 24 1 0 0
node 56 1 0 0
gene 1 1 12 1.450932301 0 1 1.450932301 1
gene 1 2 12 0.1066406217 0 2 0.1066406217 0
gene 1 3 12 0.02054821701 0 3 0.02054821701 0
gene 1 4 12 0.4089846193 0 4 0.4089846193 1
gene 1 5 12 -0.9758598006 0 5 -0.9758598006 0
gene 1 6 12 -1.193474761 0 6 -1.193474761 1
gene 1 7 12 -0.1813005899 0 7 -0.1813005899 0
gene 1 8 12 -0.07426136363 0 8 -0.07426136363 1
gene 1 9 12 -1.139096789 0 9 -1.139096789 0
gene 1 10 12 -0.09757513557 0 10 -0.09757513557 1
gene 1 11 12 -1.029278655 0 11 -1.029278655 1
gene 1 12 13 -0.5997407386 0 12 -0.5997407386 1
gene 1 12 14 0.3220501179 0 13 0.3220501179 1
gene 1 3 13 -1.099093264 0 14 -1.099093264 1
gene 1 10 13 0.1176425758 0 15 0.2343550783 1
gene 1 2 14 0.6051433212 0 16 0.6051433212 1
gene 1 9 14 -1.169175022 0 19 -1.169175022 0
gene 1 13 13 0.4157535027 1 21 0.4157535027 1
gene 1 11 13 -0.7213423306 0 24 -0.7213423306 0
gene 1 6 14 -0.1521348451 0 25 -0.1521348451 1
gene 1 2 13 -1.238766258 0 26 -1.238766258 1
gene 1 7 13 0.1709586631 0 27 0.1709586631 1
gene 1 11 14 -1.452029794 0 28 -1.452029794 1
gene 1 7 14 0.09548532269 0 30 0.09548532269 1
gene 1 5 14 0.1529143837 0 31 0.1529143837 1
gene 1 4 14 0.5987532432 0 32 0.5987532432 1
gene 1 12 15 0.8617444618 0 37 0.8617444618 1
gene 1 15 13 0.5318948558 0 38 0.5318948558 1
gene 1 5 13 0.07102787237 0 41 0.07102787237 0
gene 1 14 13 -0.208228161 0 48 -0.208228161 0
gene 1 10 15 -0.8729722415 0 49 -0.8729722415 1
gene 1 12 12 0.4348146429 1 72 0.4348146429 1
gene 1 2 15 0.1119366886 0 77 0.1119366886 1
gene 1 6 15 0.5008127062 0 84 0.5008127062 0
gene 1 5 22 2.105528502 0 117 2.105528502 1
gene 1 22 12 -0.685466498 0 118 -0.685466498 1
gene 1 15 15 -0.3094143868 1 128 -0.3094143868 1
gene 1 9 15 -0.6427452926 0 134 -0.6427452926 1
gene 1 7 24 1 0 137 0 1
gene 1 24 12 -0.0906033875 0 138 0 1
gene 1 4 15 -0.2252521857 0 191 -0.2252521857 0
gene 1 14 14 1.431791629 1 223 1.431791629 1
gene 1 1 15 0.4940003324 0 226 0.4940003324 1
gene 1 8 22 0.4596777565 0 227 0.05553829971 1
gene 1 3 22 -0.9415399357 0 254 0 1
gene 1 11 15 -0.2295276242 0 270 -0.2295276242 1
gene 1 14 12 -0.4529999122 1 273 -0.4529999122 1
gene 1 5 15 -1.186014231 0 278 -1.186014231 1
gene 1 22 13 1.462001772 0 279 1.462001772 1
gene 1 8 15 0.1931649 0 281 0.1931649 1
gene 1 22 14 -0.6109506854 0 330 0 1
gene 1 2 24 0.3647457447 0 404 0 1
gene 1 24 24 0.6137374302 1 570 0.6137374302 1
gene 1 14 56 1 0 589 0 1
gene 1 56 13 -0.05834367729 0 590 0 1
genomeend 80304
/* Novelty: 8.052118301 Fitness: 297.4561157 Generation: 322 Indiv: 80554 */
/* Point: 32.4552536 17.91345978 32.4552536 17.91345978 */
genomestart 75546
trait 1 0.4243367954 0 0.1851968125 0.2838626682 0.7810821114 0.1178153327 0.2774067813 0.2852945136 
node 1 1 1 3
node 2 1 1 1
node 3 1 1 1
node 4 1 1 1
node 5 1 1 1
node 6 1 1 1
node 7 1 1 1
node 8 1 1 1
node 9 1 1 1
node 10 1 1 1
node 11 1 1 1
node 12 1 0 0
node 13 1 0 2
node 14 1 0 2
node 15 1 0 0
node 22 1 0 0
node 24 1 0 0
gene 1 1 12 1.493262799 0 1 1.493262799 1
gene 1 2 12 0.1066406217 0 2 0.1066406217 0
gene 1 3 12 -0.05139872918 0 3 -0.05139872918 1
gene 1 4 12 0.400032498 0 4 0.400032498 1
gene 1 5 12 -0.9758598006 0 5 -0.9758598006 0
gene 1 6 12 -1.193474761 0 6 -1.193474761 1
gene 1 7 12 -0.3020112917 0 7 -0.3020112917 0
gene 1 8 12 0.0003370951863 0 8 0.0003370951863 1
gene 1 9 12 -1.139096789 0 9 -1.139096789 0
gene 1 10 12 -0.09757513557 0 10 -0.09757513557 1
gene 1 11 12 -1.060367197 0 11 -1.060367197 1
gene 1 12 13 -0.5997407386 0 12 -0.5997407386 1
gene 1 12 14 0.3220501179 0 13 0.3220501179 1
gene 1 3 13 -0.9352103281 0 14 -0.9352103281 1
gene 1 10 13 0.1176425758 0 15 0.2343550783 1
gene 1 2 14 0.6051433212 0 16 0.6051433212 1
gene 1 9 14 -1.169175022 0 19 -1.169175022 0
gene 1 13 13 0.4157535027 1 21 0.4157535027 1
gene 1 11 13 -0.7213423306 0 24 -0.7213423306 0
gene 1 6 14 -0.3767511176 0 25 -0.3767511176 1
gene 1 2 13 -1.238766258 0 26 -1.238766258 1
gene 1 7 13 0.1709586631 0 27 0.1709586631 1
gene 1 11 14 -1.452029794 0 28 -1.452029794 1
gene 1 7 14 0.09053127488 0 30 0.09053127488 1
gene 1 5 14 0.2896713675 0 31 0.2896713675 1
gene 1 4 14 0.5987532432 0 32 0.5987532432 1
gene 1 12 15 0.8642773445 0 37 0.8642773445 1
gene 1 15 13 0.4787425004 0 38 0.4787425004 1
gene 1 5 13 -0.109368318 0 41 -0.109368318 0
gene 1 14 13 -0.2013535426 0 48 -0.2013535426 1
gene 1 10 15 -0.8729722415 0 49 -0.8729722415 1
gene 1 12 12 0.4342582346 1 72 0.4342582346 1
gene 1 2 15 0.1119366886 0 77 0.1119366886 1
gene 1 6 15 0.5008127062 0 84 0.5008127062 0
gene 1 5 22 2.105528502 0 117 2.105528502 1
gene 1 22 12 -0.685466498 0 118 -0.685466498 1
gene 1 15 15 -0.3526308239 1 128 -0.3526308239 1
gene 1 9 15 -0.6068435886 0 134 -0.6068435886 1
gene 1 7 24 1 0 137 0 1
gene 1 24 12 -0.0906033875 0 138 0 1
gene 1 4 15 -0.2252521857 0 191 -0.2252521857 0
gene 1 14 14 1.431791629 1 223 1.431791629 1
gene 1 1 15 0.4940003324 0 226 0.4940003324 1
gene 1 8 22 0.5190588959 0 227 0.01388457493 1
gene 1 3 22 -0.9415399357 0 254 0 1
gene 1 11 15 -0.2191781129 0 270 -0.2191781129 1
gene 1 14 12 -0.4529999122 1 273 -0.4529999122 1
gene 1 5 15 -1.186014231 0 278 -1.186014231 1
gene 1 22 13 1.42281229 0 279 1.42281229 1
gene 1 8 15 0.09297058102 0 281 0.09297058102 1
gene 1 22 14 -0.6109506854 0 330 0 1
gene 1 2 24 0.3647457447 0 404 0 1
gene 1 24 24 0.6137374302 1 570 0.6137374302 1
genomeend 75546
/* Novelty: 9.423508644 Fitness: 297.1659851 Generation: 303 Indiv: 75796 */
/* Point: 33.82802963 19.81588936 33.82802963 19.81588936 */
genomestart 40232
trait 1 0.4244171375 0 0.1851568722 0.2838106224 0.8347674891 0.1176290294 0.2776024247 0.3009857212 
node 1 1 1 3
node 2 1 1 1
node 3 1 1 1
node 4 1 1 1
node 5 1 1 1
node 6 1 1 1
node 7 1 1 1
node 8 1 1 1
node 9 1 1 1
node 10 1 1 1
node 11 1 1 1
node 12 1 0 0
node 13 1 0 2
node 14 1 0 2
node 15 1 0 0
node 22 1 0 0
node 24 1 0 0
gene 1 1 12 1.620254291 0 1 1.620254291 1
gene 1 2 12 0.1066406217 0 2 0.1066406217 1
gene 1 3 12 0.1644421094 0 3 0.1644421094 1
gene 1 4 12 0.3731761339 0 4 0.3731761339 1
gene 1 5 12 -0.9758598006 0 5 -0.9758598006 0
gene 1 6 12 -1.193474761 0 6 -1.193474761 1
gene 1 7 12 -0.1813005899 0 7 -0.1813005899 0
gene 1 8 12 -0.07426136363 0 8 -0.07426136363 1
gene 1 9 12 -1.518604168 0 9 -1.518604168 0
gene 1 10 12 -0.09757513557 0 10 -0.09757513557 1
gene 1 11 12 -0.9671015718 0 11 -0.9671015718 1
gene 1 12 13 -0.5997407386 0 12 -0.5997407386 1
gene 1 12 14 0.4012654622 0 13 0.4012654622 1
gene 1 3 13 -1.099093264 0 14 -1.099093264 1
gene 1 10 13 0.2931763662 0 15 0.3515326175 1
gene 1 2 14 0.6051433212 0 16 0.6051433212 1
gene 1 9 14 -1.169175022 0 19 -1.169175022 0
gene 1 13 13 0.4157535027 1 21 0.4157535027 1
gene 1 11 13 -0.5044170287 0 24 -0.5044170287 0
gene 1 6 14 -0.1521348451 0 25 -0.1521348451 1
gene 1 2 13 -1.238766258 0 26 -1.238766258 1
gene 1 7 13 0.1709586631 0 27 0.1709586631 1
gene 1 11 14 -1.452029794 0 28 -1.452029794 1
gene 1 7 14 0.09548532269 0 30 0.09548532269 1
gene 1 5 14 0.1529143837 0 31 0.1529143837 1
gene 1 4 14 0.5987532432 0 32 0.5987532432 1
gene 1 12 15 0.8668102272 0 37 0.8668102272 1
gene 1 15 13 0.5318948558 0 38 0.5318948558 1
gene 1 5 13 0.07102787237 0 41 0.07102787237 0
gene 1 14 13 -0.2219773976 0 48 -0.2219773976 1
gene 1 10 15 -0.8729722415 0 49 -0.8729722415 1
gene 1 12 12 0.4348146429 1 72 0.4348146429 1
gene 1 2 15 0.1119366886 0 77 0.1119366886 1
gene 1 6 15 0.5008127062 0 84 0.5008127062 1
gene 1 5 22 2.105528502 0 117 2.105528502 1
gene 1 22 12 -0.685466498 0 118 -0.685466498 1
gene 1 15 15 -0.2229815126 1 128 -0.2229815126 1
gene 1 9 15 -0.6427452926 0 134 -0.6427452926 1
gene 1 7 24 1 0 137 0 1
gene 1 24 12 -0.0906033875 0 138 0 1
gene 1 4 15 -0.2252521857 0 191 -0.2252521857 0
gene 1 14 14 1.431791629 1 223 1.431791629 1
gene 1 1 15 0.4940003324 0 226 0.4940003324 1
gene 1 8 22 0.4596777565 0 227 0.05553829971 1
gene 1 3 22 -0.9415399357 0 254 0 1
gene 1 11 15 -0.2502266466 0 270 -0.2502266466 1
gene 1 14 12 -0.4529999122 1 273 -0.4529999122 1
gene 1 5 15 -1.186014231 0 278 -1.186014231 1
gene 1 22 13 1.462001772 0 279 1.462001772 1
gene 1 8 15 0.05957247469 0 281 0.05957247469 1
gene 1 22 14 -0.6109506854 0 330 0 1
gene 1 2 24 0.3647457447 0 404 0 1
gene 1 5 24 0.7672361018 0 528 0 1
gene 1 24 24 0.6137374302 1 570 0.6137374302 1
genomeend 40232
/* Novelty: 9.376198769 Fitness: 297.1076355 Generation: 161 Indiv: 40482 */
/* Point: 33.87747955 19.70707512 33.87747955 19.70707512 */
genomestart 74919
trait 1 0.7432926131 0.4082193598 0.7191627213 0.2828832178 0.2991375943 0.3874531709 0.3721688809 0.02691215987 
node 1 1 1 3
node 2 1 1 1
node 3 1 1 1
node 4 1 1 1
node 5 1 1 1
node 6 1 1 1
node 7 1 1 1
node 8 1 1 1
node 9 1 1 1
node 10 1 1 1
node 11 1 1 1
node 12 1 0 0
node 13 1 0 2
node 14 1 0 2
node 15 1 0 0
node 18 1 0 0
gene 1 1 12 0.3449033158 0 1 0.3449033158 1
gene 1 2 12 -0.7120879871 0 2 -0.7120879871 0
gene 1 3 12 -1.167135894 0 3 -1.167135894 1
gene 1 4 12 0.4699172704 0 4 0.4699172704 1
gene 1 5 12 1.083912871 0 5 1.083912871 1
gene 1 6 12 -0.07325907034 0 6 -0.07325907034 1
gene 1 7 12 1.993300445 0 7 1.993300445 1
gene 1 8 12 0.163195601 0 8 0.163195601 0
gene 1 9 12 0.9982399851 0 9 0.9982399851 1
gene 1 10 12 -0.1289066651 0 10 -0.1289066651 1
gene 1 11 12 0.2701023124 0 11 0.2701023124 0
gene 1 12 13 -0.7645763727 0 12 -0.7645763727 1
gene 1 12 14 1.342289951 0 13 1.342289951 1
gene 1 3 13 -0.2116791115 0 14 -0.2116791115 0
gene 1 10 13 0.6290773132 0 15 0.6290773132 1
gene 1 2 14 -0.4065295629 0 16 -0.4065295629 1
gene 1 8 14 -0.2880309186 0 17 -0.2880309186 1
gene 1 9 14 0.6312786246 0 19 0.6312786246 1
gene 1 13 13 0.3397087883 1 21 0.3397087883 1
gene 1 1 14 1.517370824 0 22 1.517370824 1
gene 1 11 13 -1.161584187 0 24 -1.161584187 1
gene 1 6 14 -1.923466665 0 25 -1.923466665 0
gene 1 2 13 -2.665488316 0 26 -2.665488316 1
gene 1 11 14 -1.071077866 0 28 -1.071077866 1
gene 1 7 14 -0.8981615749 0 30 -0.8981615749 1
gene 1 5 14 1.2061047 0 31 1.2061047 1
gene 1 4 14 0.9367683235 0 32 0.9367683235 1
gene 1 12 15 0.03784544404 0 37 0.03784544404 0
gene 1 15 13 0.8934101901 0 38 0.8934101901 1
gene 1 5 13 1.217670819 0 41 1.217670819 1
gene 1 10 14 -0.8917425763 0 46 -0.8917425763 0
gene 1 10 15 0.03828560842 0 49 0.03828560842 1
gene 1 3 14 -0.2200784198 0 52 -0.2200784198 1
gene 1 3 15 0.1436624301 0 68 0.1436624301 1
gene 1 12 12 -1.290091761 1 72 -1.290091761 1
gene 1 2 15 0.1604509434 0 77 0.1604509434 1
gene 1 6 15 1.168329661 0 84 1.168329661 1
gene 1 8 18 1 0 85 0 1
gene 1 18 12 0.0489586803 0 86 0 1
gene 1 15 14 -0.7031787833 0 124 -0.7031787833 1
gene 1 9 15 -0.7837685936 0 134 -0.7837685936 1
gene 1 14 14 0.1722990345 1 140 0.1722990345 1
gene 1 1 15 -0.4152301735 0 226 -0.4152301735 1
gene 1 8 15 0.5278786887 0 281 0.5278786887 1
gene 1 13 12 0.1483800976 1 416 0.1483800976 1
gene 1 15 12 0.2317004416 1 498 0.2317004416 1
gene 1 9 18 0.9780050637 0 1071 0 1
genomeend 74919
/* Novelty: 9.071791649 Fitness: 297.0943909 Generation: 300 Indiv: 75169 */
/* Point: 32.78342438 22.29389381 32.78342438 22.29389381 */
