
/* Species #1 : (Size 16) (AF 0) (Age 1)  */


/* Organism #61788 Fitness: 261.048 Error: 0 */
genomestart 61788
trait 1 0.6605832105 0.4881146202 0.1260178678 0.5251585865 0.4545495936 0.3726641667 0.2207171348 0.7287982927 
node 1 1 1 3
node 2 1 1 1
node 3 1 1 1
node 4 1 1 1
node 5 1 1 1
node 6 1 1 1
node 7 1 1 1
node 8 1 1 1
node 9 1 1 1
node 10 1 1 1
node 11 1 1 1
node 12 1 0 0
node 13 1 0 2
node 14 1 0 2
gene 1 1 12 -2.920508092 0 1 -2.920508092 1
gene 1 2 12 0.5661802294 0 2 0.5661802294 1
gene 1 3 12 0.710073566 0 3 0.710073566 1
gene 1 4 12 0.4337653895 0 4 0.4337653895 1
gene 1 5 12 0.8817669127 0 5 0.8817669127 1
gene 1 6 12 0.6863144293 0 6 0.6863144293 1
gene 1 7 12 -2.22391729 0 7 -2.22391729 1
gene 1 8 12 1.016851126 0 8 1.016851126 1
gene 1 9 12 2.293765551 0 9 2.293765551 1
gene 1 10 12 1.9341903 0 10 1.9341903 1
gene 1 11 12 0.409195863 0 11 0.409195863 1
gene 1 12 13 -0.150849522 0 12 -0.150849522 1
gene 1 12 14 -0.7871796403 0 13 -0.7871796403 1
gene 1 11 14 0.5655536631 0 20 0.1484773816 1
gene 1 11 13 -0.6617488894 0 21 -0.5971257632 0
gene 1 8 13 0.1353699081 0 23 0.1353699081 0
gene 1 4 14 1.056169152 0 26 1.056169152 1
gene 1 1 13 0.7159301359 0 31 0.7159301359 1
gene 1 9 13 0.7842672182 0 36 0 0
genomeend 61788
/* Novelty: 0 Fitness: 261.0482178 Generation: 0 Indiv: 62038 */
/* Point: 27.72274017 58.81367493 27.72274017 58.81367493 */

/* Organism #61799 Fitness: 261.0482178 Error: 0 */
genomestart 61799
trait 1 0.6129561236 0.5052239536 0.1270459793 0.4697507607 0.4381762863 0.3932783853 0.2314889904 0.6793236605 
node 1 1 1 3
node 2 1 1 1
node 3 1 1 1
node 4 1 1 1
node 5 1 1 1
node 6 1 1 1
node 7 1 1 1
node 8 1 1 1
node 9 1 1 1
node 10 1 1 1
node 11 1 1 1
node 12 1 0 0
node 13 1 0 2
node 14 1 0 2
gene 1 1 12 -2.920508092 0 1 -2.920508092 1
gene 1 2 12 0.5661802294 0 2 0.5661802294 1
gene 1 3 12 0.710073566 0 3 0.710073566 1
gene 1 4 12 0.4337653895 0 4 0.4337653895 1
gene 1 5 12 0.8817669127 0 5 0.8817669127 1
gene 1 6 12 0.6863144293 0 6 0.6863144293 1
gene 1 7 12 -2.22391729 0 7 -2.22391729 1
gene 1 8 12 1.016851126 0 8 1.016851126 1
gene 1 9 12 2.293765551 0 9 2.293765551 1
gene 1 10 12 1.9341903 0 10 1.9341903 1
gene 1 11 12 0.409195863 0 11 0.409195863 0
gene 1 12 13 -0.150849522 0 12 -0.150849522 1
gene 1 12 14 -0.7871796403 0 13 -0.7871796403 1
gene 1 11 14 0.5655536631 0 20 0.1484773816 1
gene 1 11 13 -0.6617488894 0 21 -0.5971257632 0
gene 1 8 13 0.1353699081 0 23 0.1353699081 1
gene 1 4 14 1.056169152 0 26 1.056169152 1
gene 1 1 13 0.7159301359 0 31 0.7159301359 1
gene 1 9 13 0.7842672182 0 36 0 0
genomeend 61799
/* Novelty: 0 Fitness: 261.0482178 Generation: 0 Indiv: 62049 */
/* Point: 27.72274017 58.81367493 27.72274017 58.81367493 */

/* Organism #61807 Fitness: 261.0482178 Error: 0 */
genomestart 61807
trait 1 0.6073958136 0.4486459951 0.1380177693 0.4718968605 0.440607726 0.3634630628 0.2144751883 0.7217767562 
node 1 1 1 3
node 2 1 1 1
node 3 1 1 1
node 4 1 1 1
node 5 1 1 1
node 6 1 1 1
node 7 1 1 1
node 8 1 1 1
node 9 1 1 1
node 10 1 1 1
node 11 1 1 1
node 12 1 0 0
node 13 1 0 2
node 14 1 0 2
gene 1 1 12 -2.920508092 0 1 -2.920508092 1
gene 1 2 12 0.5661802294 0 2 0.5661802294 1
gene 1 3 12 0.710073566 0 3 0.710073566 1
gene 1 4 12 0.4337653895 0 4 0.4337653895 1
gene 1 5 12 0.8817669127 0 5 0.8817669127 1
gene 1 6 12 0.6863144293 0 6 0.6863144293 1
gene 1 7 12 -2.22391729 0 7 -2.22391729 1
gene 1 8 12 1.016851126 0 8 1.016851126 1
gene 1 9 12 2.293765551 0 9 2.293765551 1
gene 1 10 12 1.9341903 0 10 1.9341903 1
gene 1 11 12 0.409195863 0 11 0.409195863 1
gene 1 12 13 -0.150849522 0 12 -0.150849522 1
gene 1 12 14 -0.7871796403 0 13 -0.7871796403 1
gene 1 11 14 0.5655536631 0 20 0.1484773816 1
gene 1 11 13 -0.6617488894 0 21 -0.5971257632 0
gene 1 8 13 0.1353699081 0 23 0.1353699081 0
gene 1 4 14 1.056169152 0 26 1.056169152 1
gene 1 1 13 0.7159301359 0 31 0.7159301359 1
gene 1 9 13 0.7842672182 0 36 0 0
genomeend 61807
/* Novelty: 0 Fitness: 261.0482178 Generation: 0 Indiv: 62057 */
/* Point: 27.72274017 58.81367493 27.72274017 58.81367493 */

/* Organism #61977 Fitness: 261.0482178 Error: 0 */
genomestart 61977
trait 1 0.6290550039 0.5105661979 0.1374160862 0.4537000459 0.4346325698 0.4021645809 0.2450769645 0.7046847941 
node 1 1 1 3
node 2 1 1 1
node 3 1 1 1
node 4 1 1 1
node 5 1 1 1
node 6 1 1 1
node 7 1 1 1
node 8 1 1 1
node 9 1 1 1
node 10 1 1 1
node 11 1 1 1
node 12 1 0 0
node 13 1 0 2
node 14 1 0 2
gene 1 1 12 -2.920508092 0 1 -2.920508092 1
gene 1 2 12 0.5661802294 0 2 0.5661802294 1
gene 1 3 12 0.710073566 0 3 0.710073566 1
gene 1 4 12 0.4337653895 0 4 0.4337653895 1
gene 1 5 12 0.8817669127 0 5 0.8817669127 1
gene 1 6 12 0.6863144293 0 6 0.6863144293 1
gene 1 7 12 -2.22391729 0 7 -2.22391729 1
gene 1 8 12 1.016851126 0 8 1.016851126 1
gene 1 9 12 2.293765551 0 9 2.293765551 1
gene 1 10 12 1.9341903 0 10 1.9341903 1
gene 1 11 12 0.409195863 0 11 0.409195863 0
gene 1 12 13 -0.150849522 0 12 -0.150849522 1
gene 1 12 14 -0.7871796403 0 13 -0.7871796403 1
gene 1 11 14 0.5655536631 0 20 0.1484773816 1
gene 1 11 13 -0.6617488894 0 21 -0.5971257632 0
gene 1 8 13 0.1353699081 0 23 0.1353699081 0
gene 1 4 14 1.056169152 0 26 1.056169152 1
gene 1 1 13 0.7159301359 0 31 0.7159301359 1
gene 1 9 13 0.7842672182 0 36 0 1
genomeend 61977
/* Novelty: 0 Fitness: 261.0482178 Generation: 0 Indiv: 62227 */
/* Point: 27.72274017 58.81367493 27.72274017 58.81367493 */

/* Organism #61999 Fitness: 261.0482178 Error: 0 */
genomestart 61999
trait 1 0.6332777358 0.494305389 0.130607249 0.476685509 0.4388739199 0.3943654328 0.2312262008 0.7013726377 
node 1 1 1 3
node 2 1 1 1
node 3 1 1 1
node 4 1 1 1
node 5 1 1 1
node 6 1 1 1
node 7 1 1 1
node 8 1 1 1
node 9 1 1 1
node 10 1 1 1
node 11 1 1 1
node 12 1 0 0
node 13 1 0 2
node 14 1 0 2
gene 1 1 12 -2.920508092 0 1 -2.920508092 1
gene 1 2 12 0.5661802294 0 2 0.5661802294 1
gene 1 3 12 0.710073566 0 3 0.710073566 1
gene 1 4 12 0.4337653895 0 4 0.4337653895 1
gene 1 5 12 0.8817669127 0 5 0.8817669127 1
gene 1 6 12 0.6863144293 0 6 0.6863144293 1
gene 1 7 12 -2.22391729 0 7 -2.22391729 1
gene 1 8 12 1.016851126 0 8 1.016851126 1
gene 1 9 12 2.293765551 0 9 2.293765551 1
gene 1 10 12 1.9341903 0 10 1.9341903 1
gene 1 11 12 0.409195863 0 11 0.409195863 0
gene 1 12 13 -0.150849522 0 12 -0.150849522 1
gene 1 12 14 -0.7871796403 0 13 -0.7871796403 1
gene 1 11 14 0.5655536631 0 20 0.1484773816 1
gene 1 11 13 -0.6617488894 0 21 -0.5971257632 0
gene 1 8 13 0.1353699081 0 23 0.1353699081 0
gene 1 4 14 1.056169152 0 26 1.056169152 1
gene 1 1 13 0.7159301359 0 31 0.7159301359 1
gene 1 9 13 0.7842672182 0 36 0 1
genomeend 61999
/* Novelty: 0 Fitness: 261.0482178 Generation: 0 Indiv: 62249 */
/* Point: 27.72274017 58.81367493 27.72274017 58.81367493 */

/* Organism #62184 Fitness: 261.0482178 Error: 0 */
genomestart 62184
trait 1 0.6283943251 0.6142340372 0.1508664545 0.4226058208 0.430177873 0.4239665502 0.3010309044 0.703253338 
node 1 1 1 3
node 2 1 1 1
node 3 1 1 1
node 4 1 1 1
node 5 1 1 1
node 6 1 1 1
node 7 1 1 1
node 8 1 1 1
node 9 1 1 1
node 10 1 1 1
node 11 1 1 1
node 12 1 0 0
node 13 1 0 2
node 14 1 0 2
gene 1 1 12 -2.920508092 0 1 -2.920508092 1
gene 1 2 12 0.5661802294 0 2 0.5661802294 1
gene 1 3 12 0.710073566 0 3 0.710073566 1
gene 1 4 12 0.4337653895 0 4 0.4337653895 1
gene 1 5 12 0.8817669127 0 5 0.8817669127 1
gene 1 6 12 0.6863144293 0 6 0.6863144293 1
gene 1 7 12 -2.22391729 0 7 -2.22391729 1
gene 1 8 12 1.016851126 0 8 1.016851126 1
gene 1 9 12 2.293765551 0 9 2.293765551 1
gene 1 10 12 1.9341903 0 10 1.9341903 1
gene 1 11 12 0.409195863 0 11 0.409195863 1
gene 1 12 13 -0.150849522 0 12 -0.150849522 1
gene 1 12 14 -0.7871796403 0 13 -0.7871796403 1
gene 1 11 14 0.5655536631 0 20 0.1484773816 1
gene 1 11 13 -0.6617488894 0 21 -0.5971257632 0
gene 1 8 13 0.1353699081 0 23 0.1353699081 1
gene 1 4 14 1.056169152 0 26 1.056169152 1
gene 1 1 13 0.7159301359 0 31 0.7159301359 1
gene 1 9 13 0.7842672182 0 36 0 1
genomeend 62184
/* Novelty: 0 Fitness: 261.0482178 Generation: 0 Indiv: 62434 */
/* Point: 27.72274017 58.81367493 27.72274017 58.81367493 */

/* Organism #62187 Fitness: 261.0482178 Error: 0 */
genomestart 62187
trait 1 0.6153902811 0.5121035302 0.147693724 0.4336678158 0.4205333157 0.3616289467 0.3409043593 0.7335041224 
node 1 1 1 3
node 2 1 1 1
node 3 1 1 1
node 4 1 1 1
node 5 1 1 1
node 6 1 1 1
node 7 1 1 1
node 8 1 1 1
node 9 1 1 1
node 10 1 1 1
node 11 1 1 1
node 12 1 0 0
node 13 1 0 2
node 14 1 0 2
gene 1 1 12 -2.920508092 0 1 -2.920508092 1
gene 1 2 12 0.5661802294 0 2 0.5661802294 1
gene 1 3 12 0.710073566 0 3 0.710073566 1
gene 1 4 12 0.4337653895 0 4 0.4337653895 1
gene 1 5 12 0.8817669127 0 5 0.8817669127 1
gene 1 6 12 0.6863144293 0 6 0.6863144293 1
gene 1 7 12 -2.22391729 0 7 -2.22391729 1
gene 1 8 12 1.016851126 0 8 1.016851126 1
gene 1 9 12 2.293765551 0 9 2.293765551 1
gene 1 10 12 1.9341903 0 10 1.9341903 1
gene 1 11 12 0.409195863 0 11 0.409195863 1
gene 1 12 13 -0.150849522 0 12 -0.150849522 1
gene 1 12 14 -0.7871796403 0 13 -0.7871796403 1
gene 1 11 14 0.5655536631 0 20 0.1484773816 1
gene 1 11 13 -0.6617488894 0 21 -0.5971257632 0
gene 1 8 13 0.1353699081 0 23 0.1353699081 0
gene 1 4 14 1.056169152 0 26 1.056169152 1
gene 1 1 13 0.7159301359 0 31 0.7159301359 1
gene 1 9 13 0.7842672182 0 36 0 0
genomeend 62187
/* Novelty: 0 Fitness: 261.0482178 Generation: 0 Indiv: 62437 */
/* Point: 27.72274017 58.81367493 27.72274017 58.81367493 */

/* Organism #62197 Fitness: 261.0482178 Error: 0 */
genomestart 62197
trait 1 0.6297156826 0.4068983586 0.1239657179 0.484794271 0.4390872666 0.3803626117 0.1891230247 0.7061162501 
node 1 1 1 3
node 2 1 1 1
node 3 1 1 1
node 4 1 1 1
node 5 1 1 1
node 6 1 1 1
node 7 1 1 1
node 8 1 1 1
node 9 1 1 1
node 10 1 1 1
node 11 1 1 1
node 12 1 0 0
node 13 1 0 2
node 14 1 0 2
gene 1 1 12 -2.920508092 0 1 -2.920508092 1
gene 1 2 12 0.5661802294 0 2 0.5661802294 1
gene 1 3 12 0.710073566 0 3 0.710073566 1
gene 1 4 12 0.4337653895 0 4 0.4337653895 1
gene 1 5 12 0.8817669127 0 5 0.8817669127 1
gene 1 6 12 0.6863144293 0 6 0.6863144293 1
gene 1 7 12 -2.22391729 0 7 -2.22391729 1
gene 1 8 12 1.016851126 0 8 1.016851126 1
gene 1 9 12 2.293765551 0 9 2.293765551 1
gene 1 10 12 1.9341903 0 10 1.9341903 1
gene 1 11 12 0.409195863 0 11 0.409195863 1
gene 1 12 13 -0.150849522 0 12 -0.150849522 1
gene 1 12 14 -0.7871796403 0 13 -0.7871796403 1
gene 1 11 14 0.5655536631 0 20 0.1484773816 1
gene 1 11 13 -0.6617488894 0 21 -0.5971257632 1
gene 1 8 13 0.1353699081 0 23 0.1353699081 0
gene 1 4 14 1.056169152 0 26 1.056169152 1
gene 1 1 13 0.7159301359 0 31 0.7159301359 1
gene 1 9 13 0.7842672182 0 36 0 0
genomeend 62197
/* Novelty: 0 Fitness: 261.0482178 Generation: 0 Indiv: 62447 */
/* Point: 27.72274017 58.81367493 27.72274017 58.81367493 */

/* Organism #62198 Fitness: 261.0482178 Error: 0 */
genomestart 62198
trait 1 0.6095103435 0.584787084 0.1578040558 0.4285122869 0.410462065 0.3272969855 0.4649841665 0.7542676819 
node 1 1 1 3
node 2 1 1 1
node 3 1 1 1
node 4 1 1 1
node 5 1 1 1
node 6 1 1 1
node 7 1 1 1
node 8 1 1 1
node 9 1 1 1
node 10 1 1 1
node 11 1 1 1
node 12 1 0 0
node 13 1 0 2
node 14 1 0 2
gene 1 1 12 -2.920508092 0 1 -2.920508092 1
gene 1 2 12 0.5661802294 0 2 0.5661802294 1
gene 1 3 12 0.710073566 0 3 0.710073566 1
gene 1 4 12 0.4337653895 0 4 0.4337653895 1
gene 1 5 12 0.8817669127 0 5 0.8817669127 1
gene 1 6 12 0.6863144293 0 6 0.6863144293 1
gene 1 7 12 -2.22391729 0 7 -2.22391729 1
gene 1 8 12 1.016851126 0 8 1.016851126 1
gene 1 9 12 2.293765551 0 9 2.293765551 1
gene 1 10 12 1.9341903 0 10 1.9341903 1
gene 1 11 12 0.409195863 0 11 0.409195863 1
gene 1 12 13 -0.150849522 0 12 -0.150849522 1
gene 1 12 14 -0.7871796403 0 13 -0.7871796403 1
gene 1 11 14 0.5655536631 0 20 0.1484773816 1
gene 1 11 13 -0.6617488894 0 21 -0.5971257632 1
gene 1 8 13 0.1353699081 0 23 0.1353699081 0
gene 1 4 14 1.056169152 0 26 1.056169152 1
gene 1 1 13 0.7159301359 0 31 0.7159301359 1
gene 1 9 13 0.7842672182 0 36 0 0
genomeend 62198
/* Novelty: 0 Fitness: 261.0482178 Generation: 0 Indiv: 62448 */
/* Point: 27.72274017 58.81367493 27.72274017 58.81367493 */

/* Organism #62328 Fitness: 261.0482178 Error: 0 */
genomestart 62328
trait 1 0.5617472094 0.02665039093 0 0.0003203424781 0.4552702942 0.2874223434 0.7416238491 0.08043919954 
node 1 1 1 3
node 2 1 1 1
node 3 1 1 1
node 4 1 1 1
node 5 1 1 1
node 6 1 1 1
node 7 1 1 1
node 8 1 1 1
node 9 1 1 1
node 10 1 1 1
node 11 1 1 1
node 12 1 0 0
node 13 1 0 2
node 14 1 0 2
gene 1 1 12 -2.920508092 0 1 -2.920508092 1
gene 1 2 12 0.5661802294 0 2 0.5661802294 1
gene 1 3 12 0.710073566 0 3 0.710073566 1
gene 1 4 12 0.4337653895 0 4 0.4337653895 1
gene 1 5 12 0.8817669127 0 5 0.8817669127 1
gene 1 6 12 0.6863144293 0 6 0.6863144293 1
gene 1 7 12 -2.22391729 0 7 -2.22391729 1
gene 1 8 12 1.016851126 0 8 1.016851126 1
gene 1 9 12 2.293765551 0 9 2.293765551 1
gene 1 10 12 1.9341903 0 10 1.9341903 1
gene 1 11 12 0.409195863 0 11 0.409195863 0
gene 1 12 13 -0.150849522 0 12 -0.150849522 1
gene 1 12 14 -0.7871796403 0 13 -0.7871796403 1
gene 1 11 14 0.5655536631 0 20 0.1484773816 1
gene 1 11 13 -0.6617488894 0 21 -0.5971257632 0
gene 1 8 13 0.1353699081 0 23 0.1353699081 0
gene 1 4 14 1.056169152 0 26 1.056169152 1
gene 1 1 13 0.7159301359 0 31 0.7159301359 1
gene 1 9 13 0.7842672182 0 36 0 1
genomeend 62328
/* Novelty: 0 Fitness: 261.0482178 Generation: 0 Indiv: 62578 */
/* Point: 27.72274017 58.81367493 27.72274017 58.81367493 */

/* Organism #62364 Fitness: 261.0482178 Error: 0 */
genomestart 62364
trait 1 0.8638225063 0.7591786134 0.5567917945 0.2726733983 0.7292441509 0.3168297183 0.6146542225 0.72311433 
node 1 1 1 3
node 2 1 1 1
node 3 1 1 1
node 4 1 1 1
node 5 1 1 1
node 6 1 1 1
node 7 1 1 1
node 8 1 1 1
node 9 1 1 1
node 10 1 1 1
node 11 1 1 1
node 12 1 0 0
node 13 1 0 2
node 14 1 0 2
gene 1 1 12 -2.920508092 0 1 -2.920508092 1
gene 1 2 12 0.5661802294 0 2 0.5661802294 1
gene 1 3 12 0.710073566 0 3 0.710073566 1
gene 1 4 12 0.4337653895 0 4 0.4337653895 1
gene 1 5 12 0.8817669127 0 5 0.8817669127 1
gene 1 6 12 0.6863144293 0 6 0.6863144293 1
gene 1 7 12 -2.22391729 0 7 -2.22391729 1
gene 1 8 12 1.016851126 0 8 1.016851126 1
gene 1 9 12 2.293765551 0 9 2.293765551 1
gene 1 10 12 1.9341903 0 10 1.9341903 1
gene 1 11 12 0.409195863 0 11 0.409195863 0
gene 1 12 13 -0.150849522 0 12 -0.150849522 1
gene 1 12 14 -0.7871796403 0 13 -0.7871796403 1
gene 1 11 14 0.5655536631 0 20 0.1484773816 1
gene 1 11 13 -0.6617488894 0 21 -0.5971257632 0
gene 1 8 13 0.1353699081 0 23 0.1353699081 0
gene 1 4 14 1.056169152 0 26 1.056169152 1
gene 1 1 13 0.7159301359 0 31 0.7159301359 1
gene 1 9 13 0.7842672182 0 36 0 0
genomeend 62364
/* Novelty: 0 Fitness: 261.0482178 Generation: 0 Indiv: 62614 */
/* Point: 27.72274017 58.81367493 27.72274017 58.81367493 */

/* Organism #62369 Fitness: 261.0482178 Error: 0 */
genomestart 62369
trait 1 0.6544984449 0.653499364 0.2338816233 0.4283656412 0.5784044697 0.3515479509 0.3944101887 0.7527945979 
node 1 1 1 3
node 2 1 1 1
node 3 1 1 1
node 4 1 1 1
node 5 1 1 1
node 6 1 1 1
node 7 1 1 1
node 8 1 1 1
node 9 1 1 1
node 10 1 1 1
node 11 1 1 1
node 12 1 0 0
node 13 1 0 2
node 14 1 0 2
gene 1 1 12 -2.920508092 0 1 -2.920508092 1
gene 1 2 12 0.5661802294 0 2 0.5661802294 1
gene 1 3 12 0.710073566 0 3 0.710073566 1
gene 1 4 12 0.4337653895 0 4 0.4337653895 1
gene 1 5 12 0.8817669127 0 5 0.8817669127 1
gene 1 6 12 0.6863144293 0 6 0.6863144293 1
gene 1 7 12 -2.22391729 0 7 -2.22391729 1
gene 1 8 12 1.016851126 0 8 1.016851126 1
gene 1 9 12 2.293765551 0 9 2.293765551 1
gene 1 10 12 1.9341903 0 10 1.9341903 1
gene 1 11 12 0.409195863 0 11 0.409195863 0
gene 1 12 13 -0.150849522 0 12 -0.150849522 1
gene 1 12 14 -0.7871796403 0 13 -0.7871796403 1
gene 1 11 14 0.5655536631 0 20 0.1484773816 1
gene 1 11 13 -0.6617488894 0 21 -0.5971257632 1
gene 1 8 13 0.1353699081 0 23 0.1353699081 0
gene 1 4 14 1.056169152 0 26 1.056169152 1
gene 1 1 13 0.7159301359 0 31 0.7159301359 1
gene 1 9 13 0.7842672182 0 36 0 0
genomeend 62369
/* Novelty: 0 Fitness: 261.0482178 Generation: 0 Indiv: 62619 */
/* Point: 27.72274017 58.81367493 27.72274017 58.81367493 */

/* Organism #62391 Fitness: 261.0482178 Error: 0 */
genomestart 62391
trait 1 0.6023630295 0.5395596975 0.1399538724 0.4602605187 0.3551333826 0.3004319064 0.6157444952 0.7070804058 
node 1 1 1 3
node 2 1 1 1
node 3 1 1 1
node 4 1 1 1
node 5 1 1 1
node 6 1 1 1
node 7 1 1 1
node 8 1 1 1
node 9 1 1 1
node 10 1 1 1
node 11 1 1 1
node 12 1 0 0
node 13 1 0 2
node 14 1 0 2
gene 1 1 12 -2.920508092 0 1 -2.920508092 1
gene 1 2 12 0.5661802294 0 2 0.5661802294 1
gene 1 3 12 0.710073566 0 3 0.710073566 1
gene 1 4 12 0.4337653895 0 4 0.4337653895 1
gene 1 5 12 0.8817669127 0 5 0.8817669127 1
gene 1 6 12 0.6863144293 0 6 0.6863144293 1
gene 1 7 12 -2.22391729 0 7 -2.22391729 1
gene 1 8 12 1.016851126 0 8 1.016851126 1
gene 1 9 12 2.293765551 0 9 2.293765551 1
gene 1 10 12 1.9341903 0 10 1.9341903 1
gene 1 11 12 0.409195863 0 11 0.409195863 0
gene 1 12 13 -0.150849522 0 12 -0.150849522 1
gene 1 12 14 -0.7871796403 0 13 -0.7871796403 1
gene 1 11 14 0.5655536631 0 20 0.1484773816 1
gene 1 11 13 -0.6617488894 0 21 -0.5971257632 0
gene 1 8 13 0.1353699081 0 23 0.1353699081 1
gene 1 4 14 1.056169152 0 26 1.056169152 1
gene 1 1 13 0.7159301359 0 31 0.7159301359 1
gene 1 9 13 0.7842672182 0 36 0 0
genomeend 62391
/* Novelty: 0 Fitness: 261.0482178 Generation: 0 Indiv: 62641 */
/* Point: 27.72274017 58.81367493 27.72274017 58.81367493 */

/* Organism #62392 Fitness: 261.0482178 Error: 0 */
genomestart 62392
trait 1 0.7277962208 0.6665370274 0.35482678 0.3617218375 0.5006673149 0.2622075729 0.8073271112 0.7289757405 
node 1 1 1 3
node 2 1 1 1
node 3 1 1 1
node 4 1 1 1
node 5 1 1 1
node 6 1 1 1
node 7 1 1 1
node 8 1 1 1
node 9 1 1 1
node 10 1 1 1
node 11 1 1 1
node 12 1 0 0
node 13 1 0 2
node 14 1 0 2
gene 1 1 12 -2.920508092 0 1 -2.920508092 1
gene 1 2 12 0.5661802294 0 2 0.5661802294 1
gene 1 3 12 0.710073566 0 3 0.710073566 1
gene 1 4 12 0.4337653895 0 4 0.4337653895 1
gene 1 5 12 0.8817669127 0 5 0.8817669127 1
gene 1 6 12 0.6863144293 0 6 0.6863144293 1
gene 1 7 12 -2.22391729 0 7 -2.22391729 1
gene 1 8 12 1.016851126 0 8 1.016851126 1
gene 1 9 12 2.293765551 0 9 2.293765551 1
gene 1 10 12 1.9341903 0 10 1.9341903 1
gene 1 11 12 0.409195863 0 11 0.409195863 0
gene 1 12 13 -0.150849522 0 12 -0.150849522 1
gene 1 12 14 -0.7871796403 0 13 -0.7871796403 1
gene 1 11 14 0.5655536631 0 20 0.1484773816 1
gene 1 11 13 -0.6617488894 0 21 -0.5971257632 0
gene 1 8 13 0.1353699081 0 23 0.1353699081 0
gene 1 4 14 1.056169152 0 26 1.056169152 1
gene 1 1 13 0.7159301359 0 31 0.7159301359 1
gene 1 9 13 0.7842672182 0 36 0 1
genomeend 62392
/* Novelty: 0 Fitness: 261.0482178 Generation: 0 Indiv: 62642 */
/* Point: 27.72274017 58.81367493 27.72274017 58.81367493 */

/* Organism #62488 Fitness: 261.0482178 Error: 0 */
genomestart 62488
trait 1 0.6073958136 0.4486459951 0.1380177693 0.4718968605 0.440607726 0.3634630628 0.2144751883 0.7217767562 
node 1 1 1 3
node 2 1 1 1
node 3 1 1 1
node 4 1 1 1
node 5 1 1 1
node 6 1 1 1
node 7 1 1 1
node 8 1 1 1
node 9 1 1 1
node 10 1 1 1
node 11 1 1 1
node 12 1 0 0
node 13 1 0 2
node 14 1 0 2
gene 1 1 12 -2.920508092 0 1 -2.920508092 1
gene 1 2 12 0.5661802294 0 2 0.5661802294 1
gene 1 3 12 0.710073566 0 3 0.710073566 1
gene 1 4 12 0.4337653895 0 4 0.4337653895 1
gene 1 5 12 0.8817669127 0 5 0.8817669127 1
gene 1 6 12 0.6863144293 0 6 0.6863144293 1
gene 1 7 12 -2.22391729 0 7 -2.22391729 1
gene 1 8 12 1.016851126 0 8 1.016851126 1
gene 1 9 12 2.293765551 0 9 2.293765551 1
gene 1 10 12 1.9341903 0 10 1.9341903 1
gene 1 11 12 0.409195863 0 11 0.409195863 1
gene 1 12 13 -0.150849522 0 12 -0.150849522 1
gene 1 12 14 -0.7871796403 0 13 -0.7871796403 1
gene 1 11 14 0.5655536631 0 20 0.1484773816 1
gene 1 11 13 -0.6617488894 0 21 -0.5971257632 1
gene 1 8 13 0.1353699081 0 23 0.1353699081 0
gene 1 4 14 1.056169152 0 26 1.056169152 1
gene 1 1 13 0.7159301359 0 31 0.7159301359 1
gene 1 9 13 0.7842672182 0 36 0 0
genomeend 62488
/* Novelty: 0 Fitness: 261.0482178 Generation: 0 Indiv: 62738 */
/* Point: 27.72274017 58.81367493 27.72274017 58.81367493 */

/* Organism #62491 Fitness: 261.0482178 Error: 0 */
genomestart 62491
trait 1 0.6469304732 0.4912100046 0.1283125584 0.5009220477 0.4467117567 0.3835147998 0.2259716678 0.7150854652 
node 1 1 1 3
node 2 1 1 1
node 3 1 1 1
node 4 1 1 1
node 5 1 1 1
node 6 1 1 1
node 7 1 1 1
node 8 1 1 1
node 9 1 1 1
node 10 1 1 1
node 11 1 1 1
node 12 1 0 0
node 13 1 0 2
node 14 1 0 2
gene 1 1 12 -2.920508092 0 1 -2.920508092 1
gene 1 2 12 0.5661802294 0 2 0.5661802294 1
gene 1 3 12 0.710073566 0 3 0.710073566 1
gene 1 4 12 0.4337653895 0 4 0.4337653895 1
gene 1 5 12 0.8817669127 0 5 0.8817669127 1
gene 1 6 12 0.6863144293 0 6 0.6863144293 1
gene 1 7 12 -2.22391729 0 7 -2.22391729 1
gene 1 8 12 1.016851126 0 8 1.016851126 1
gene 1 9 12 2.293765551 0 9 2.293765551 1
gene 1 10 12 1.9341903 0 10 1.9341903 1
gene 1 11 12 0.409195863 0 11 0.409195863 0
gene 1 12 13 -0.150849522 0 12 -0.150849522 1
gene 1 12 14 -0.7871796403 0 13 -0.7871796403 1
gene 1 11 14 0.5655536631 0 20 0.1484773816 1
gene 1 11 13 -0.6617488894 0 21 -0.5971257632 0
gene 1 8 13 0.1353699081 0 23 0.1353699081 0
gene 1 4 14 1.056169152 0 26 1.056169152 1
gene 1 1 13 0.7159301359 0 31 0.7159301359 1
gene 1 9 13 0.7842672182 0 36 0 0
genomeend 62491
/* Novelty: 0 Fitness: 261.0482178 Generation: 0 Indiv: 62741 */
/* Point: 27.72274017 58.81367493 27.72274017 58.81367493 */

/* Species #3 : (Size 16) (AF 0) (Age 1)  */


/* Organism #61967 Fitness: 261.0363464 Error: 0 */
genomestart 61967
trait 1 0.7279672605 0.09338102351 0.5316537236 0.8817870748 0.2713900359 0.3159624127 0.7315850808 0.1956842557 
node 1 1 1 3
node 2 1 1 1
node 3 1 1 1
node 4 1 1 1
node 5 1 1 1
node 6 1 1 1
node 7 1 1 1
node 8 1 1 1
node 9 1 1 1
node 10 1 1 1
node 11 1 1 1
node 12 1 0 0
node 13 1 0 2
node 14 1 0 2
gene 1 1 12 0.1024230714 0 1 0.1024230714 1
gene 1 2 12 0.04489301417 0 2 0.04489301417 1
gene 1 3 12 -0.09846281824 0 3 -0.09846281824 1
gene 1 4 12 0.05713207724 0 4 0.05713207724 1
gene 1 5 12 -0.4894567765 0 5 -0.4894567765 1
gene 1 6 12 -0.9351919775 0 6 -0.9351919775 1
gene 1 7 12 -1.238431915 0 7 -1.238431915 1
gene 1 8 12 1.764279362 0 8 1.764279362 1
gene 1 9 12 0.2801913202 0 9 0.2801913202 0
gene 1 10 12 -0.2428363514 0 10 -0.2428363514 1
gene 1 11 12 -0.07383574847 0 11 -0.07383574847 1
gene 1 12 13 2.836559014 0 12 2.836559014 1
gene 1 12 14 -1.764154483 0 13 -1.764154483 1
gene 1 11 14 0.5986410554 0 20 0.5986410554 1
gene 1 11 13 -0.3062007841 0 21 -0.3062007841 0
gene 1 14 14 1.22844456 1 22 1.22844456 1
gene 1 8 13 1.33794372 0 23 1.33794372 1
gene 1 12 12 0.4130377064 1 25 0.4130377064 1
gene 1 9 14 -0.1522938705 0 28 -0.1522938705 0
gene 1 9 13 0.6148287739 0 36 0.6148287739 1
gene 1 10 14 0.5741981288 0 38 0.5741981288 0
gene 1 13 13 -1.476732742 1 74 -1.476732742 1
gene 1 14 12 1.105105262 1 177 1.105105262 1
genomeend 61967
/* Novelty: 0 Fitness: 261.0363464 Generation: 0 Indiv: 62217 */
/* Point: 28.10715103 58.85612869 28.10715103 58.85612869 */

/* Organism #62017 Fitness: 261.0363464 Error: 0 */
genomestart 62017
trait 1 0.7279672605 0.09338102351 0.5316537236 0.8817870748 0.2713900359 0.3159624127 0.7315850808 0.1956842557 
node 1 1 1 3
node 2 1 1 1
node 3 1 1 1
node 4 1 1 1
node 5 1 1 1
node 6 1 1 1
node 7 1 1 1
node 8 1 1 1
node 9 1 1 1
node 10 1 1 1
node 11 1 1 1
node 12 1 0 0
node 13 1 0 2
node 14 1 0 2
gene 1 1 12 0.1024230714 0 1 0.1024230714 1
gene 1 2 12 0.04489301417 0 2 0.04489301417 1
gene 1 3 12 -0.09846281824 0 3 -0.09846281824 1
gene 1 4 12 0.05713207724 0 4 0.05713207724 1
gene 1 5 12 -0.4894567765 0 5 -0.4894567765 1
gene 1 6 12 -0.9351919775 0 6 -0.9351919775 1
gene 1 7 12 -1.238431915 0 7 -1.238431915 1
gene 1 8 12 1.764279362 0 8 1.764279362 1
gene 1 9 12 0.2801913202 0 9 0.2801913202 1
gene 1 10 12 -0.2428363514 0 10 -0.2428363514 1
gene 1 11 12 -0.07383574847 0 11 -0.07383574847 1
gene 1 12 13 2.836559014 0 12 2.836559014 1
gene 1 12 14 -1.764154483 0 13 -1.764154483 1
gene 1 11 14 0.5986410554 0 20 0.5986410554 1
gene 1 11 13 -0.3062007841 0 21 -0.3062007841 1
gene 1 14 14 1.22844456 1 22 1.22844456 1
gene 1 8 13 1.33794372 0 23 1.33794372 1
gene 1 12 12 0.4130377064 1 25 0.4130377064 1
gene 1 9 14 -0.1522938705 0 28 -0.1522938705 0
gene 1 9 13 0.6148287739 0 36 0.6148287739 1
gene 1 10 14 0.5741981288 0 38 0.5741981288 0
gene 1 13 13 -1.476732742 1 74 -1.476732742 1
gene 1 14 12 1.105105262 1 177 1.105105262 1
genomeend 62017
/* Novelty: 0 Fitness: 261.0363464 Generation: 0 Indiv: 62267 */
/* Point: 28.10715103 58.85612869 28.10715103 58.85612869 */

/* Organism #62041 Fitness: 261.0363464 Error: 0 */
genomestart 62041
trait 1 0.7299149568 0.1539529346 0.5318962209 0.8459205224 0.2264755171 0.2812307241 0.7420438787 0.1741025941 
node 1 1 1 3
node 2 1 1 1
node 3 1 1 1
node 4 1 1 1
node 5 1 1 1
node 6 1 1 1
node 7 1 1 1
node 8 1 1 1
node 9 1 1 1
node 10 1 1 1
node 11 1 1 1
node 12 1 0 0
node 13 1 0 2
node 14 1 0 2
gene 1 1 12 0.1024230714 0 1 0.1024230714 1
gene 1 2 12 0.04489301417 0 2 0.04489301417 1
gene 1 3 12 -0.09846281824 0 3 -0.09846281824 1
gene 1 4 12 0.05713207724 0 4 0.05713207724 1
gene 1 5 12 -0.4894567765 0 5 -0.4894567765 1
gene 1 6 12 -0.9351919775 0 6 -0.9351919775 1
gene 1 7 12 -1.238431915 0 7 -1.238431915 1
gene 1 8 12 1.764279362 0 8 1.764279362 1
gene 1 9 12 0.2801913202 0 9 0.2801913202 0
gene 1 10 12 -0.2428363514 0 10 -0.2428363514 1
gene 1 11 12 -0.07383574847 0 11 -0.07383574847 1
gene 1 12 13 2.836559014 0 12 2.836559014 1
gene 1 12 14 -1.764154483 0 13 -1.764154483 1
gene 1 11 14 0.5986410554 0 20 0.5986410554 1
gene 1 11 13 -0.3062007841 0 21 -0.3062007841 0
gene 1 14 14 1.22844456 1 22 1.22844456 1
gene 1 8 13 1.33794372 0 23 1.33794372 1
gene 1 12 12 0.4130377064 1 25 0.4130377064 1
gene 1 9 14 -0.1522938705 0 28 -0.1522938705 0
gene 1 9 13 0.6148287739 0 36 0.6148287739 1
gene 1 10 14 0.5741981288 0 38 0.5741981288 0
gene 1 13 13 -1.476732742 1 74 -1.476732742 1
gene 1 14 12 1.105105262 1 177 1.105105262 1
genomeend 62041
/* Novelty: 0 Fitness: 261.0363464 Generation: 0 Indiv: 62291 */
/* Point: 28.10715103 58.85612869 28.10715103 58.85612869 */

/* Organism #62056 Fitness: 261.0363464 Error: 0 */
genomestart 62056
trait 1 0.4460106262 0.05447226372 0.5317749723 0.942442635 0.5207959866 0.1598003839 0.8692418604 0.1952431977 
node 1 1 1 3
node 2 1 1 1
node 3 1 1 1
node 4 1 1 1
node 5 1 1 1
node 6 1 1 1
node 7 1 1 1
node 8 1 1 1
node 9 1 1 1
node 10 1 1 1
node 11 1 1 1
node 12 1 0 0
node 13 1 0 2
node 14 1 0 2
gene 1 1 12 0.1024230714 0 1 0.1024230714 1
gene 1 2 12 0.04489301417 0 2 0.04489301417 1
gene 1 3 12 -0.09846281824 0 3 -0.09846281824 1
gene 1 4 12 0.05713207724 0 4 0.05713207724 1
gene 1 5 12 -0.4894567765 0 5 -0.4894567765 1
gene 1 6 12 -0.9351919775 0 6 -0.9351919775 1
gene 1 7 12 -1.238431915 0 7 -1.238431915 1
gene 1 8 12 1.764279362 0 8 1.764279362 1
gene 1 9 12 0.2801913202 0 9 0.2801913202 0
gene 1 10 12 -0.2428363514 0 10 -0.2428363514 1
gene 1 11 12 -0.07383574847 0 11 -0.07383574847 1
gene 1 12 13 2.836559014 0 12 2.836559014 1
gene 1 12 14 -1.764154483 0 13 -1.764154483 1
gene 1 11 14 0.5986410554 0 20 0.5986410554 1
gene 1 11 13 -0.3062007841 0 21 -0.3062007841 0
gene 1 14 14 1.22844456 1 22 1.22844456 1
gene 1 8 13 1.33794372 0 23 1.33794372 1
gene 1 12 12 0.4130377064 1 25 0.4130377064 1
gene 1 9 14 -0.1522938705 0 28 -0.1522938705 0
gene 1 9 13 0.6148287739 0 36 0.6148287739 1
gene 1 10 14 0.5741981288 0 38 0.5741981288 0
gene 1 13 13 -1.476732742 1 74 -1.476732742 1
gene 1 14 12 1.105105262 1 177 1.105105262 1
genomeend 62056
/* Novelty: 0 Fitness: 261.0363464 Generation: 0 Indiv: 62306 */
/* Point: 28.10715103 58.85612869 28.10715103 58.85612869 */

/* Organism #62061 Fitness: 261.0363464 Error: 0 */
genomestart 62061
trait 1 0.7305905068 0.1089445274 0.5316537236 0.88488527 0.2880259515 0.3196007678 0.7384837208 0.2163838013 
node 1 1 1 3
node 2 1 1 1
node 3 1 1 1
node 4 1 1 1
node 5 1 1 1
node 6 1 1 1
node 7 1 1 1
node 8 1 1 1
node 9 1 1 1
node 10 1 1 1
node 11 1 1 1
node 12 1 0 0
node 13 1 0 2
node 14 1 0 2
gene 1 1 12 0.1024230714 0 1 0.1024230714 1
gene 1 2 12 0.04489301417 0 2 0.04489301417 1
gene 1 3 12 -0.09846281824 0 3 -0.09846281824 1
gene 1 4 12 0.05713207724 0 4 0.05713207724 1
gene 1 5 12 -0.4894567765 0 5 -0.4894567765 1
gene 1 6 12 -0.9351919775 0 6 -0.9351919775 1
gene 1 7 12 -1.238431915 0 7 -1.238431915 1
gene 1 8 12 1.764279362 0 8 1.764279362 1
gene 1 9 12 0.2801913202 0 9 0.2801913202 0
gene 1 10 12 -0.2428363514 0 10 -0.2428363514 1
gene 1 11 12 -0.07383574847 0 11 -0.07383574847 1
gene 1 12 13 2.836559014 0 12 2.836559014 1
gene 1 12 14 -1.764154483 0 13 -1.764154483 1
gene 1 11 14 0.5986410554 0 20 0.5986410554 1
gene 1 11 13 -0.3062007841 0 21 -0.3062007841 0
gene 1 14 14 1.22844456 1 22 1.22844456 1
gene 1 8 13 1.33794372 0 23 1.33794372 1
gene 1 12 12 0.4130377064 1 25 0.4130377064 1
gene 1 9 14 -0.1522938705 0 28 -0.1522938705 0
gene 1 9 13 0.6148287739 0 36 0.6148287739 1
gene 1 10 14 0.5741981288 0 38 0.5741981288 0
gene 1 13 13 -1.476732742 1 74 -1.476732742 1
gene 1 14 12 1.105105262 1 177 1.105105262 1
genomeend 62061
/* Novelty: 0 Fitness: 261.0363464 Generation: 0 Indiv: 62311 */
/* Point: 28.10715103 58.85612869 28.10715103 58.85612869 */

/* Organism #62137 Fitness: 261.0363464 Error: 0 */
genomestart 62137
trait 1 0.7491584856 0.1735043118 0.4427959882 0.7186887963 0.3359134292 0.2297850416 0.7291596508 0.2070974036 
node 1 1 1 3
node 2 1 1 1
node 3 1 1 1
node 4 1 1 1
node 5 1 1 1
node 6 1 1 1
node 7 1 1 1
node 8 1 1 1
node 9 1 1 1
node 10 1 1 1
node 11 1 1 1
node 12 1 0 0
node 13 1 0 2
node 14 1 0 2
gene 1 1 12 0.1024230714 0 1 0.1024230714 1
gene 1 2 12 0.04489301417 0 2 0.04489301417 1
gene 1 3 12 -0.09846281824 0 3 -0.09846281824 1
gene 1 4 12 0.05713207724 0 4 0.05713207724 1
gene 1 5 12 -0.4894567765 0 5 -0.4894567765 1
gene 1 6 12 -0.9351919775 0 6 -0.9351919775 1
gene 1 7 12 -1.238431915 0 7 -1.238431915 1
gene 1 8 12 1.764279362 0 8 1.764279362 1
gene 1 9 12 0.2801913202 0 9 0.2801913202 0
gene 1 10 12 -0.2428363514 0 10 -0.2428363514 1
gene 1 11 12 -0.07383574847 0 11 -0.07383574847 1
gene 1 12 13 2.836559014 0 12 2.836559014 1
gene 1 12 14 -1.764154483 0 13 -1.764154483 1
gene 1 11 14 0.5986410554 0 20 0.5986410554 0
gene 1 11 13 -0.3062007841 0 21 -0.3062007841 0
gene 1 14 14 1.22844456 1 22 1.22844456 1
gene 1 8 13 1.33794372 0 23 1.33794372 1
gene 1 12 12 0.4130377064 1 25 0.4130377064 1
gene 1 9 14 -0.1522938705 0 28 -0.1522938705 0
gene 1 9 13 0.6148287739 0 36 0.6148287739 1
gene 1 10 14 0.5741981288 0 38 0.5741981288 0
gene 1 13 13 -1.476732742 1 74 -1.476732742 1
gene 1 14 12 1.105105262 1 177 1.105105262 1
genomeend 62137
/* Novelty: 0 Fitness: 261.0363464 Generation: 0 Indiv: 62387 */
/* Point: 28.10715103 58.85612869 28.10715103 58.85612869 */

/* Organism #62173 Fitness: 261.0363464 Error: 0 */
genomestart 62173
trait 1 0.7508078838 0.1587818602 0.4426747396 0.7397202677 0.3750066043 0.250789241 0.7308288919 0.23858778 
node 1 1 1 3
node 2 1 1 1
node 3 1 1 1
node 4 1 1 1
node 5 1 1 1
node 6 1 1 1
node 7 1 1 1
node 8 1 1 1
node 9 1 1 1
node 10 1 1 1
node 11 1 1 1
node 12 1 0 0
node 13 1 0 2
node 14 1 0 2
gene 1 1 12 0.1024230714 0 1 0.1024230714 1
gene 1 2 12 0.04489301417 0 2 0.04489301417 1
gene 1 3 12 -0.09846281824 0 3 -0.09846281824 1
gene 1 4 12 0.05713207724 0 4 0.05713207724 1
gene 1 5 12 -0.4894567765 0 5 -0.4894567765 1
gene 1 6 12 -0.9351919775 0 6 -0.9351919775 1
gene 1 7 12 -1.238431915 0 7 -1.238431915 1
gene 1 8 12 1.764279362 0 8 1.764279362 1
gene 1 9 12 0.2801913202 0 9 0.2801913202 0
gene 1 10 12 -0.2428363514 0 10 -0.2428363514 1
gene 1 11 12 -0.07383574847 0 11 -0.07383574847 1
gene 1 12 13 2.836559014 0 12 2.836559014 1
gene 1 12 14 -1.764154483 0 13 -1.764154483 1
gene 1 11 14 0.5986410554 0 20 0.5986410554 0
gene 1 11 13 -0.3062007841 0 21 -0.3062007841 1
gene 1 14 14 1.22844456 1 22 1.22844456 1
gene 1 8 13 1.33794372 0 23 1.33794372 1
gene 1 12 12 0.4130377064 1 25 0.4130377064 1
gene 1 9 14 -0.1522938705 0 28 -0.1522938705 0
gene 1 9 13 0.6148287739 0 36 0.6148287739 1
gene 1 10 14 0.5741981288 0 38 0.5741981288 0
gene 1 13 13 -1.476732742 1 74 -1.476732742 1
gene 1 14 12 1.105105262 1 177 1.105105262 1
genomeend 62173
/* Novelty: 0 Fitness: 261.0363464 Generation: 0 Indiv: 62423 */
/* Point: 28.10715103 58.85612869 28.10715103 58.85612869 */

/* Organism #62179 Fitness: 261.0363464 Error: 0 */
genomestart 62179
trait 1 0.7684020145 0.193055689 0.3536957555 0.5914570702 0.4453513414 0.1783393592 0.716275423 0.2400922131 
node 1 1 1 3
node 2 1 1 1
node 3 1 1 1
node 4 1 1 1
node 5 1 1 1
node 6 1 1 1
node 7 1 1 1
node 8 1 1 1
node 9 1 1 1
node 10 1 1 1
node 11 1 1 1
node 12 1 0 0
node 13 1 0 2
node 14 1 0 2
gene 1 1 12 0.1024230714 0 1 0.1024230714 1
gene 1 2 12 0.04489301417 0 2 0.04489301417 1
gene 1 3 12 -0.09846281824 0 3 -0.09846281824 1
gene 1 4 12 0.05713207724 0 4 0.05713207724 1
gene 1 5 12 -0.4894567765 0 5 -0.4894567765 1
gene 1 6 12 -0.9351919775 0 6 -0.9351919775 1
gene 1 7 12 -1.238431915 0 7 -1.238431915 1
gene 1 8 12 1.764279362 0 8 1.764279362 1
gene 1 9 12 0.2801913202 0 9 0.2801913202 1
gene 1 10 12 -0.2428363514 0 10 -0.2428363514 1
gene 1 11 12 -0.07383574847 0 11 -0.07383574847 1
gene 1 12 13 2.836559014 0 12 2.836559014 1
gene 1 12 14 -1.764154483 0 13 -1.764154483 1
gene 1 11 14 0.5986410554 0 20 0.5986410554 0
gene 1 11 13 -0.3062007841 0 21 -0.3062007841 0
gene 1 14 14 1.22844456 1 22 1.22844456 1
gene 1 8 13 1.33794372 0 23 1.33794372 1
gene 1 12 12 0.4130377064 1 25 0.4130377064 1
gene 1 9 14 -0.1522938705 0 28 -0.1522938705 0
gene 1 9 13 0.6148287739 0 36 0.6148287739 1
gene 1 10 14 0.5741981288 0 38 0.5741981288 0
gene 1 13 13 -1.476732742 1 74 -1.476732742 1
gene 1 14 12 1.105105262 1 177 1.105105262 1
genomeend 62179
/* Novelty: 0 Fitness: 261.0363464 Generation: 0 Indiv: 62429 */
/* Point: 28.10715103 58.85612869 28.10715103 58.85612869 */

/* Organism #62285 Fitness: 261.0363464 Error: 0 */
genomestart 62285
trait 1 0.6145510628 0.5482639223 0.4131161187 0.7123055141 0.4716074226 0.141094093 0.4290688558 0.2208971007 
node 1 1 1 3
node 2 1 1 1
node 3 1 1 1
node 4 1 1 1
node 5 1 1 1
node 6 1 1 1
node 7 1 1 1
node 8 1 1 1
node 9 1 1 1
node 10 1 1 1
node 11 1 1 1
node 12 1 0 0
node 13 1 0 2
node 14 1 0 2
gene 1 1 12 0.1024230714 0 1 0.1024230714 1
gene 1 2 12 0.04489301417 0 2 0.04489301417 1
gene 1 3 12 -0.09846281824 0 3 -0.09846281824 1
gene 1 4 12 0.05713207724 0 4 0.05713207724 1
gene 1 5 12 -0.4894567765 0 5 -0.4894567765 1
gene 1 6 12 -0.9351919775 0 6 -0.9351919775 1
gene 1 7 12 -1.238431915 0 7 -1.238431915 1
gene 1 8 12 1.764279362 0 8 1.764279362 1
gene 1 9 12 0.2801913202 0 9 0.2801913202 0
gene 1 10 12 -0.2428363514 0 10 -0.2428363514 1
gene 1 11 12 -0.07383574847 0 11 -0.07383574847 1
gene 1 12 13 2.836559014 0 12 2.836559014 1
gene 1 12 14 -1.764154483 0 13 -1.764154483 1
gene 1 11 14 0.5986410554 0 20 0.5986410554 0
gene 1 11 13 -0.3062007841 0 21 -0.3062007841 0
gene 1 14 14 1.22844456 1 22 1.22844456 1
gene 1 8 13 1.33794372 0 23 1.33794372 1
gene 1 12 12 0.4130377064 1 25 0.4130377064 1
gene 1 9 14 -0.1522938705 0 28 -0.1522938705 0
gene 1 9 13 0.6148287739 0 36 0.6148287739 1
gene 1 10 14 0.5741981288 0 38 0.5741981288 0
gene 1 13 13 -1.476732742 1 74 -1.476732742 1
gene 1 14 12 1.105105262 1 177 1.105105262 1
genomeend 62285
/* Novelty: 0 Fitness: 261.0363464 Generation: 0 Indiv: 62535 */
/* Point: 28.10715103 58.85612869 28.10715103 58.85612869 */

/* Organism #62309 Fitness: 261.0363464 Error: 0 */
genomestart 62309
trait 1 0.6213783525 0.1194888056 0.4575449864 0.7879101138 0.449614126 0.1787252459 0.7776294537 0.1841412083 
node 1 1 1 3
node 2 1 1 1
node 3 1 1 1
node 4 1 1 1
node 5 1 1 1
node 6 1 1 1
node 7 1 1 1
node 8 1 1 1
node 9 1 1 1
node 10 1 1 1
node 11 1 1 1
node 12 1 0 0
node 13 1 0 2
node 14 1 0 2
gene 1 1 12 0.1024230714 0 1 0.1024230714 1
gene 1 2 12 0.04489301417 0 2 0.04489301417 1
gene 1 3 12 -0.09846281824 0 3 -0.09846281824 1
gene 1 4 12 0.05713207724 0 4 0.05713207724 1
gene 1 5 12 -0.4894567765 0 5 -0.4894567765 1
gene 1 6 12 -0.9351919775 0 6 -0.9351919775 1
gene 1 7 12 -1.238431915 0 7 -1.238431915 1
gene 1 8 12 1.764279362 0 8 1.764279362 1
gene 1 9 12 0.2801913202 0 9 0.2801913202 0
gene 1 10 12 -0.2428363514 0 10 -0.2428363514 1
gene 1 11 12 -0.07383574847 0 11 -0.07383574847 1
gene 1 12 13 2.836559014 0 12 2.836559014 1
gene 1 12 14 -1.764154483 0 13 -1.764154483 1
gene 1 11 14 0.5986410554 0 20 0.5986410554 0
gene 1 11 13 -0.3062007841 0 21 -0.3062007841 0
gene 1 14 14 1.22844456 1 22 1.22844456 1
gene 1 8 13 1.33794372 0 23 1.33794372 1
gene 1 12 12 0.4130377064 1 25 0.4130377064 1
gene 1 9 14 -0.1522938705 0 28 -0.1522938705 0
gene 1 9 13 0.6148287739 0 36 0.6148287739 1
gene 1 10 14 0.5741981288 0 38 0.5741981288 0
gene 1 13 13 -1.476732742 1 74 -1.476732742 1
gene 1 14 12 1.105105262 1 177 1.105105262 1
genomeend 62309
/* Novelty: 0 Fitness: 261.0363464 Generation: 0 Indiv: 62559 */
/* Point: 28.10715103 58.85612869 28.10715103 58.85612869 */

/* Organism #62350 Fitness: 261.0363464 Error: 0 */
genomestart 62350
trait 1 0.783500322 0.160391502 0.4129342458 0.6927595062 0.3762580016 0.2286418914 0.6991844662 0.1956842557 
node 1 1 1 3
node 2 1 1 1
node 3 1 1 1
node 4 1 1 1
node 5 1 1 1
node 6 1 1 1
node 7 1 1 1
node 8 1 1 1
node 9 1 1 1
node 10 1 1 1
node 11 1 1 1
node 12 1 0 0
node 13 1 0 2
node 14 1 0 2
gene 1 1 12 0.1024230714 0 1 0.1024230714 1
gene 1 2 12 0.04489301417 0 2 0.04489301417 1
gene 1 3 12 -0.09846281824 0 3 -0.09846281824 1
gene 1 4 12 0.05713207724 0 4 0.05713207724 1
gene 1 5 12 -0.4894567765 0 5 -0.4894567765 1
gene 1 6 12 -0.9351919775 0 6 -0.9351919775 1
gene 1 7 12 -1.238431915 0 7 -1.238431915 1
gene 1 8 12 1.764279362 0 8 1.764279362 1
gene 1 9 12 0.2801913202 0 9 0.2801913202 1
gene 1 10 12 -0.2428363514 0 10 -0.2428363514 1
gene 1 11 12 -0.07383574847 0 11 -0.07383574847 1
gene 1 12 13 2.836559014 0 12 2.836559014 1
gene 1 12 14 -1.764154483 0 13 -1.764154483 1
gene 1 11 14 0.5986410554 0 20 0.5986410554 1
gene 1 11 13 -0.3062007841 0 21 -0.3062007841 0
gene 1 14 14 1.22844456 1 22 1.22844456 1
gene 1 8 13 1.33794372 0 23 1.33794372 1
gene 1 12 12 0.4130377064 1 25 0.4130377064 1
gene 1 9 14 -0.1522938705 0 28 -0.1522938705 1
gene 1 9 13 0.6148287739 0 36 0.6148287739 1
gene 1 10 14 0.5741981288 0 38 0.5741981288 0
gene 1 13 13 -1.476732742 1 74 -1.476732742 1
gene 1 14 12 1.105105262 1 177 1.105105262 1
genomeend 62350
/* Novelty: 0 Fitness: 261.0363464 Generation: 0 Indiv: 62600 */
/* Point: 28.10715103 58.85612869 28.10715103 58.85612869 */

/* Organism #62446 Fitness: 261.0363464 Error: 0 */
genomestart 62446
trait 1 0.7759511682 0.1767235955 0.3833150006 0.6421082882 0.4108046715 0.2034906253 0.7077299446 0.2178882344 
node 1 1 1 3
node 2 1 1 1
node 3 1 1 1
node 4 1 1 1
node 5 1 1 1
node 6 1 1 1
node 7 1 1 1
node 8 1 1 1
node 9 1 1 1
node 10 1 1 1
node 11 1 1 1
node 12 1 0 0
node 13 1 0 2
node 14 1 0 2
gene 1 1 12 0.1024230714 0 1 0.1024230714 1
gene 1 2 12 0.04489301417 0 2 0.04489301417 1
gene 1 3 12 -0.09846281824 0 3 -0.09846281824 1
gene 1 4 12 0.05713207724 0 4 0.05713207724 1
gene 1 5 12 -0.4894567765 0 5 -0.4894567765 1
gene 1 6 12 -0.9351919775 0 6 -0.9351919775 1
gene 1 7 12 -1.238431915 0 7 -1.238431915 1
gene 1 8 12 1.764279362 0 8 1.764279362 1
gene 1 9 12 0.2801913202 0 9 0.2801913202 1
gene 1 10 12 -0.2428363514 0 10 -0.2428363514 1
gene 1 11 12 -0.07383574847 0 11 -0.07383574847 1
gene 1 12 13 2.836559014 0 12 2.836559014 1
gene 1 12 14 -1.764154483 0 13 -1.764154483 1
gene 1 11 14 0.5986410554 0 20 0.5986410554 0
gene 1 11 13 -0.3062007841 0 21 -0.3062007841 0
gene 1 14 14 1.22844456 1 22 1.22844456 1
gene 1 8 13 1.33794372 0 23 1.33794372 1
gene 1 12 12 0.4130377064 1 25 0.4130377064 1
gene 1 9 14 -0.1522938705 0 28 -0.1522938705 0
gene 1 9 13 0.6148287739 0 36 0.6148287739 1
gene 1 10 14 0.5741981288 0 38 0.5741981288 0
gene 1 13 13 -1.476732742 1 74 -1.476732742 1
gene 1 14 12 1.105105262 1 177 1.105105262 1
genomeend 62446
/* Novelty: 0 Fitness: 261.0363464 Generation: 0 Indiv: 62696 */
/* Point: 28.10715103 58.85612869 28.10715103 58.85612869 */

/* Organism #62454 Fitness: 261.0363464 Error: 0 */
genomestart 62454
trait 1 0.731564355 0.139230483 0.5317749723 0.8669519938 0.2655686921 0.3022349234 0.7437131197 0.2055929705 
node 1 1 1 3
node 2 1 1 1
node 3 1 1 1
node 4 1 1 1
node 5 1 1 1
node 6 1 1 1
node 7 1 1 1
node 8 1 1 1
node 9 1 1 1
node 10 1 1 1
node 11 1 1 1
node 12 1 0 0
node 13 1 0 2
node 14 1 0 2
gene 1 1 12 0.1024230714 0 1 0.1024230714 1
gene 1 2 12 0.04489301417 0 2 0.04489301417 1
gene 1 3 12 -0.09846281824 0 3 -0.09846281824 1
gene 1 4 12 0.05713207724 0 4 0.05713207724 1
gene 1 5 12 -0.4894567765 0 5 -0.4894567765 1
gene 1 6 12 -0.9351919775 0 6 -0.9351919775 1
gene 1 7 12 -1.238431915 0 7 -1.238431915 1
gene 1 8 12 1.764279362 0 8 1.764279362 1
gene 1 9 12 0.2801913202 0 9 0.2801913202 0
gene 1 10 12 -0.2428363514 0 10 -0.2428363514 1
gene 1 11 12 -0.07383574847 0 11 -0.07383574847 1
gene 1 12 13 2.836559014 0 12 2.836559014 1
gene 1 12 14 -1.764154483 0 13 -1.764154483 1
gene 1 11 14 0.5986410554 0 20 0.5986410554 0
gene 1 11 13 -0.3062007841 0 21 -0.3062007841 1
gene 1 14 14 1.22844456 1 22 1.22844456 1
gene 1 8 13 1.33794372 0 23 1.33794372 1
gene 1 12 12 0.4130377064 1 25 0.4130377064 1
gene 1 9 14 -0.1522938705 0 28 -0.1522938705 0
gene 1 9 13 0.6148287739 0 36 0.6148287739 1
gene 1 10 14 0.5741981288 0 38 0.5741981288 0
gene 1 13 13 -1.476732742 1 74 -1.476732742 1
gene 1 14 12 1.105105262 1 177 1.105105262 1
genomeend 62454
/* Novelty: 0 Fitness: 261.0363464 Generation: 0 Indiv: 62704 */
/* Point: 28.10715103 58.85612869 28.10715103 58.85612869 */

/* Organism #62457 Fitness: 261.0363464 Error: 0 */
genomestart 62457
trait 1 0.7279672605 0.09338102351 0.5316537236 0.8817870748 0.2713900359 0.3159624127 0.7315850808 0.1956842557 
node 1 1 1 3
node 2 1 1 1
node 3 1 1 1
node 4 1 1 1
node 5 1 1 1
node 6 1 1 1
node 7 1 1 1
node 8 1 1 1
node 9 1 1 1
node 10 1 1 1
node 11 1 1 1
node 12 1 0 0
node 13 1 0 2
node 14 1 0 2
gene 1 1 12 0.1024230714 0 1 0.1024230714 1
gene 1 2 12 0.04489301417 0 2 0.04489301417 1
gene 1 3 12 -0.09846281824 0 3 -0.09846281824 1
gene 1 4 12 0.05713207724 0 4 0.05713207724 1
gene 1 5 12 -0.4894567765 0 5 -0.4894567765 1
gene 1 6 12 -0.9351919775 0 6 -0.9351919775 1
gene 1 7 12 -1.238431915 0 7 -1.238431915 1
gene 1 8 12 1.764279362 0 8 1.764279362 1
gene 1 9 12 0.2801913202 0 9 0.2801913202 1
gene 1 10 12 -0.2428363514 0 10 -0.2428363514 1
gene 1 11 12 -0.07383574847 0 11 -0.07383574847 1
gene 1 12 13 2.836559014 0 12 2.836559014 1
gene 1 12 14 -1.764154483 0 13 -1.764154483 1
gene 1 11 14 0.5986410554 0 20 0.5986410554 1
gene 1 11 13 -0.3062007841 0 21 -0.3062007841 1
gene 1 14 14 1.22844456 1 22 1.22844456 1
gene 1 8 13 1.33794372 0 23 1.33794372 1
gene 1 12 12 0.4130377064 1 25 0.4130377064 1
gene 1 9 14 -0.1522938705 0 28 -0.1522938705 0
gene 1 9 13 0.6148287739 0 36 0.6148287739 1
gene 1 10 14 0.5741981288 0 38 0.5741981288 0
gene 1 13 13 -1.476732742 1 74 -1.476732742 1
gene 1 14 12 1.105105262 1 177 1.105105262 1
genomeend 62457
/* Novelty: 0 Fitness: 261.0363464 Generation: 0 Indiv: 62707 */
/* Point: 28.10715103 58.85612869 28.10715103 58.85612869 */

/* Organism #62465 Fitness: 261.0363464 Error: 0 */
genomestart 62465
trait 1 0.7279672605 0.09338102351 0.5316537236 0.8817870748 0.2713900359 0.3159624127 0.7315850808 0.1956842557 
node 1 1 1 3
node 2 1 1 1
node 3 1 1 1
node 4 1 1 1
node 5 1 1 1
node 6 1 1 1
node 7 1 1 1
node 8 1 1 1
node 9 1 1 1
node 10 1 1 1
node 11 1 1 1
node 12 1 0 0
node 13 1 0 2
node 14 1 0 2
gene 1 1 12 0.1024230714 0 1 0.1024230714 1
gene 1 2 12 0.04489301417 0 2 0.04489301417 1
gene 1 3 12 -0.09846281824 0 3 -0.09846281824 1
gene 1 4 12 0.05713207724 0 4 0.05713207724 1
gene 1 5 12 -0.4894567765 0 5 -0.4894567765 1
gene 1 6 12 -0.9351919775 0 6 -0.9351919775 1
gene 1 7 12 -1.238431915 0 7 -1.238431915 1
gene 1 8 12 1.764279362 0 8 1.764279362 1
gene 1 9 12 0.2801913202 0 9 0.2801913202 0
gene 1 10 12 -0.2428363514 0 10 -0.2428363514 1
gene 1 11 12 -0.07383574847 0 11 -0.07383574847 1
gene 1 12 13 2.836559014 0 12 2.836559014 1
gene 1 12 14 -1.764154483 0 13 -1.764154483 1
gene 1 11 14 0.5986410554 0 20 0.5986410554 1
gene 1 11 13 -0.3062007841 0 21 -0.3062007841 0
gene 1 14 14 1.22844456 1 22 1.22844456 1
gene 1 8 13 1.33794372 0 23 1.33794372 1
gene 1 12 12 0.4130377064 1 25 0.4130377064 1
gene 1 9 14 -0.1522938705 0 28 -0.1522938705 0
gene 1 9 13 0.6148287739 0 36 0.6148287739 1
gene 1 10 14 0.5741981288 0 38 0.5741981288 0
gene 1 13 13 -1.476732742 1 74 -1.476732742 1
gene 1 14 12 1.105105262 1 177 1.105105262 1
genomeend 62465
/* Novelty: 0 Fitness: 261.0363464 Generation: 0 Indiv: 62715 */
/* Point: 28.10715103 58.85612869 28.10715103 58.85612869 */

/* Organism #62486 Fitness: 261.0363464 Error: 0 */
genomestart 62486
trait 1 0.7292788836 0.1011627755 0.5316537236 0.8833361724 0.2797079937 0.3177815902 0.7350344008 0.2060340285 
node 1 1 1 3
node 2 1 1 1
node 3 1 1 1
node 4 1 1 1
node 5 1 1 1
node 6 1 1 1
node 7 1 1 1
node 8 1 1 1
node 9 1 1 1
node 10 1 1 1
node 11 1 1 1
node 12 1 0 0
node 13 1 0 2
node 14 1 0 2
gene 1 1 12 0.1024230714 0 1 0.1024230714 1
gene 1 2 12 0.04489301417 0 2 0.04489301417 1
gene 1 3 12 -0.09846281824 0 3 -0.09846281824 1
gene 1 4 12 0.05713207724 0 4 0.05713207724 1
gene 1 5 12 -0.4894567765 0 5 -0.4894567765 1
gene 1 6 12 -0.9351919775 0 6 -0.9351919775 1
gene 1 7 12 -1.238431915 0 7 -1.238431915 1
gene 1 8 12 1.764279362 0 8 1.764279362 1
gene 1 9 12 0.2801913202 0 9 0.2801913202 0
gene 1 10 12 -0.2428363514 0 10 -0.2428363514 1
gene 1 11 12 -0.07383574847 0 11 -0.07383574847 1
gene 1 12 13 2.836559014 0 12 2.836559014 1
gene 1 12 14 -1.764154483 0 13 -1.764154483 1
gene 1 11 14 0.5986410554 0 20 0.5986410554 1
gene 1 11 13 -0.3062007841 0 21 -0.3062007841 0
gene 1 14 14 1.22844456 1 22 1.22844456 1
gene 1 8 13 1.33794372 0 23 1.33794372 1
gene 1 12 12 0.4130377064 1 25 0.4130377064 1
gene 1 9 14 -0.1522938705 0 28 -0.1522938705 0
gene 1 9 13 0.6148287739 0 36 0.6148287739 1
gene 1 10 14 0.5741981288 0 38 0.5741981288 0
gene 1 13 13 -1.476732742 1 74 -1.476732742 1
gene 1 14 12 1.105105262 1 177 1.105105262 1
genomeend 62486
/* Novelty: 0 Fitness: 261.0363464 Generation: 0 Indiv: 62736 */
/* Point: 28.10715103 58.85612869 28.10715103 58.85612869 */

/* Species #4 : (Size 15) (AF 0) (Age 1)  */


/* Organism #61851 Fitness: 260.9750366 Error: 0 */
genomestart 61851
trait 1 0.5208386657 0.4324330859 0 0 1 0.2446130637 0.657117473 0 
node 1 1 1 3
node 2 1 1 1
node 3 1 1 1
node 4 1 1 1
node 5 1 1 1
node 6 1 1 1
node 7 1 1 1
node 8 1 1 1
node 9 1 1 1
node 10 1 1 1
node 11 1 1 1
node 12 1 0 0
node 13 1 0 2
node 14 1 0 2
node 19 1 0 0
node 25 1 0 0
node 53 1 0 0
gene 1 1 12 0.1402567506 0 1 0.1402567506 1
gene 1 2 12 -0.7164208591 0 2 -0.7164208591 1
gene 1 3 12 -0.8703487004 0 3 -0.8703487004 1
gene 1 4 12 -0.9492427834 0 4 -0.9492427834 1
gene 1 5 12 0.003127472942 0 5 0.003127472942 1
gene 1 6 12 0.6630948763 0 6 0.6630948763 0
gene 1 7 12 -0.1399672703 0 7 -0.1399672703 1
gene 1 8 12 -1.473551419 0 8 -1.473551419 1
gene 1 9 12 -0.7100574565 0 9 -0.7100574565 1
gene 1 10 12 0.3871480862 0 10 0.3871480862 1
gene 1 11 12 0.8912487738 0 11 0.8912487738 1
gene 1 12 13 0.3101497369 0 12 0.3101497369 1
gene 1 12 14 -0.3700978653 0 13 -0.3700978653 1
gene 1 11 14 0.9662581724 0 20 0 1
gene 1 11 13 -0.2584925048 0 21 0 0
gene 1 10 19 0.3426929159 0 50 0.3426929159 1
gene 1 19 12 0.07867938256 0 51 0.07867938256 1
gene 1 5 14 0.01787209512 0 60 0.01787209512 1
gene 1 12 12 0.1294627682 1 73 0.1294627682 1
gene 1 6 25 0.7394092194 0 91 0.7394092194 1
gene 1 25 12 0.03826884808 0 92 0.03826884808 1
gene 1 8 19 -0.7399530521 0 101 0 1
gene 1 6 19 -0.406014261 0 113 0 0
gene 1 4 19 0.1913574946 0 132 0.1913574946 1
gene 1 3 19 -0.7320855977 0 231 -0.7320855977 1
gene 1 9 25 0.0473545748 0 236 0 1
gene 1 11 25 0.921749271 0 526 0 1
gene 1 6 53 1 0 652 0 1
gene 1 53 19 -0.1218042783 0 653 0 1
gene 1 9 53 -0.1781597599 0 683 -0.1781597599 1
gene 1 11 53 -0.8954316182 0 744 -0.8954316182 0
gene 1 8 53 0.08679178873 0 833 0 1
gene 1 53 53 0.5168385694 1 861 0.5168385694 1
genomeend 61851
/* Novelty: 0 Fitness: 260.9750366 Generation: 0 Indiv: 62101 */
/* Point: 28.73687363 58.95928574 28.73687363 58.95928574 */

/* Organism #61860 Fitness: 260.9750366 Error: 0 */
genomestart 61860
trait 1 0.2044054429 0.2031091098 0.6962998546 0.3969797509 0.4744753487 0.3697862946 0.588695729 0.3849055943 
node 1 1 1 3
node 2 1 1 1
node 3 1 1 1
node 4 1 1 1
node 5 1 1 1
node 6 1 1 1
node 7 1 1 1
node 8 1 1 1
node 9 1 1 1
node 10 1 1 1
node 11 1 1 1
node 12 1 0 0
node 13 1 0 2
node 14 1 0 2
node 19 1 0 0
node 25 1 0 0
node 53 1 0 0
gene 1 1 12 0.1402567506 0 1 0.1402567506 1
gene 1 2 12 -0.7164208591 0 2 -0.7164208591 1
gene 1 3 12 -0.8703487004 0 3 -0.8703487004 1
gene 1 4 12 -0.9492427834 0 4 -0.9492427834 1
gene 1 5 12 0.003127472942 0 5 0.003127472942 1
gene 1 6 12 0.6630948763 0 6 0.6630948763 0
gene 1 7 12 -0.1399672703 0 7 -0.1399672703 1
gene 1 8 12 -1.473551419 0 8 -1.473551419 1
gene 1 9 12 -0.7100574565 0 9 -0.7100574565 1
gene 1 10 12 0.3871480862 0 10 0.3871480862 1
gene 1 11 12 0.8912487738 0 11 0.8912487738 0
gene 1 12 13 0.3101497369 0 12 0.3101497369 1
gene 1 12 14 -0.3700978653 0 13 -0.3700978653 1
gene 1 11 14 0.9662581724 0 20 0 1
gene 1 11 13 -0.2584925048 0 21 0 0
gene 1 10 19 0.3426929159 0 50 0.3426929159 1
gene 1 19 12 0.07867938256 0 51 0.07867938256 1
gene 1 5 14 0.01787209512 0 60 0.01787209512 1
gene 1 12 12 0.1294627682 1 73 0.1294627682 1
gene 1 6 25 0.7394092194 0 91 0.7394092194 1
gene 1 25 12 0.03826884808 0 92 0.03826884808 1
gene 1 8 19 -0.7399530521 0 101 0 1
gene 1 6 19 -0.406014261 0 113 0 0
gene 1 4 19 0.1913574946 0 132 0.1913574946 1
gene 1 3 19 -0.7320855977 0 231 -0.7320855977 1
gene 1 9 25 0.0473545748 0 236 0 1
gene 1 11 25 0.921749271 0 526 0 1
gene 1 6 53 1 0 652 0 1
gene 1 53 19 -0.1218042783 0 653 0 1
gene 1 9 53 -0.1781597599 0 683 -0.1781597599 1
gene 1 11 53 -0.8954316182 0 744 -0.8954316182 0
gene 1 8 53 0.08679178873 0 833 0 1
gene 1 53 53 0.5168385694 1 861 0.5168385694 1
genomeend 61860
/* Novelty: 0 Fitness: 260.9750366 Generation: 0 Indiv: 62110 */
/* Point: 28.73687363 58.95928574 28.73687363 58.95928574 */

/* Organism #61873 Fitness: 260.9750366 Error: 0 */
genomestart 61873
trait 1 0.3595434505 0.3810605282 0.6977166085 0.4179479471 0.7359100293 0.3765419699 0.5989643818 0.3722263193 
node 1 1 1 3
node 2 1 1 1
node 3 1 1 1
node 4 1 1 1
node 5 1 1 1
node 6 1 1 1
node 7 1 1 1
node 8 1 1 1
node 9 1 1 1
node 10 1 1 1
node 11 1 1 1
node 12 1 0 0
node 13 1 0 2
node 14 1 0 2
node 19 1 0 0
node 25 1 0 0
node 53 1 0 0
gene 1 1 12 0.1402567506 0 1 0.1402567506 1
gene 1 2 12 -0.7164208591 0 2 -0.7164208591 1
gene 1 3 12 -0.8703487004 0 3 -0.8703487004 1
gene 1 4 12 -0.9492427834 0 4 -0.9492427834 1
gene 1 5 12 0.003127472942 0 5 0.003127472942 1
gene 1 6 12 0.6630948763 0 6 0.6630948763 0
gene 1 7 12 -0.1399672703 0 7 -0.1399672703 1
gene 1 8 12 -1.473551419 0 8 -1.473551419 1
gene 1 9 12 -0.7100574565 0 9 -0.7100574565 1
gene 1 10 12 0.3871480862 0 10 0.3871480862 1
gene 1 11 12 0.8912487738 0 11 0.8912487738 0
gene 1 12 13 0.3101497369 0 12 0.3101497369 1
gene 1 12 14 -0.3700978653 0 13 -0.3700978653 1
gene 1 11 14 0.9662581724 0 20 0 1
gene 1 11 13 -0.2584925048 0 21 0 0
gene 1 10 19 0.3426929159 0 50 0.3426929159 1
gene 1 19 12 0.07867938256 0 51 0.07867938256 1
gene 1 5 14 0.01787209512 0 60 0.01787209512 1
gene 1 12 12 0.1294627682 1 73 0.1294627682 1
gene 1 6 25 0.7394092194 0 91 0.7394092194 1
gene 1 25 12 0.03826884808 0 92 0.03826884808 1
gene 1 8 19 -0.7399530521 0 101 0 1
gene 1 6 19 -0.406014261 0 113 0 0
gene 1 4 19 0.1913574946 0 132 0.1913574946 1
gene 1 3 19 -0.7320855977 0 231 -0.7320855977 1
gene 1 9 25 0.0473545748 0 236 0 1
gene 1 11 25 0.921749271 0 526 0 1
gene 1 6 53 1 0 652 0 1
gene 1 53 19 -0.1218042783 0 653 0 1
gene 1 9 53 -0.1781597599 0 683 -0.1781597599 1
gene 1 11 53 -0.8954316182 0 744 -0.8954316182 0
gene 1 8 53 0.08679178873 0 833 0 1
gene 1 53 53 0.5168385694 1 861 0.5168385694 1
genomeend 61873
/* Novelty: 0 Fitness: 260.9750366 Generation: 0 Indiv: 62123 */
/* Point: 28.73687363 58.95928574 28.73687363 58.95928574 */

/* Organism #61893 Fitness: 260.9750366 Error: 0 */
genomestart 61893
trait 1 0.2051268995 0.1994656076 0.7022953483 0.3937767807 0.4654959061 0.368794683 0.6223407637 0.3961841435 
node 1 1 1 3
node 2 1 1 1
node 3 1 1 1
node 4 1 1 1
node 5 1 1 1
node 6 1 1 1
node 7 1 1 1
node 8 1 1 1
node 9 1 1 1
node 10 1 1 1
node 11 1 1 1
node 12 1 0 0
node 13 1 0 2
node 14 1 0 2
node 19 1 0 0
node 25 1 0 0
node 53 1 0 0
gene 1 1 12 0.1402567506 0 1 0.1402567506 1
gene 1 2 12 -0.7164208591 0 2 -0.7164208591 1
gene 1 3 12 -0.8703487004 0 3 -0.8703487004 1
gene 1 4 12 -0.9492427834 0 4 -0.9492427834 1
gene 1 5 12 0.003127472942 0 5 0.003127472942 1
gene 1 6 12 0.6630948763 0 6 0.6630948763 0
gene 1 7 12 -0.1399672703 0 7 -0.1399672703 1
gene 1 8 12 -1.473551419 0 8 -1.473551419 1
gene 1 9 12 -0.7100574565 0 9 -0.7100574565 1
gene 1 10 12 0.3871480862 0 10 0.3871480862 1
gene 1 11 12 0.8912487738 0 11 0.8912487738 0
gene 1 12 13 0.3101497369 0 12 0.3101497369 1
gene 1 12 14 -0.3700978653 0 13 -0.3700978653 1
gene 1 11 14 0.9662581724 0 20 0 1
gene 1 11 13 -0.2584925048 0 21 0 0
gene 1 10 19 0.3426929159 0 50 0.3426929159 1
gene 1 19 12 0.07867938256 0 51 0.07867938256 1
gene 1 5 14 0.01787209512 0 60 0.01787209512 1
gene 1 12 12 0.1294627682 1 73 0.1294627682 1
gene 1 6 25 0.7394092194 0 91 0.7394092194 1
gene 1 25 12 0.03826884808 0 92 0.03826884808 1
gene 1 8 19 -0.7399530521 0 101 0 1
gene 1 6 19 -0.406014261 0 113 0 0
gene 1 4 19 0.1913574946 0 132 0.1913574946 1
gene 1 3 19 -0.7320855977 0 231 -0.7320855977 1
gene 1 9 25 0.0473545748 0 236 0 1
gene 1 11 25 0.921749271 0 526 0 1
gene 1 6 53 1 0 652 0 1
gene 1 53 19 -0.1218042783 0 653 0 1
gene 1 9 53 -0.1781597599 0 683 -0.1781597599 1
gene 1 11 53 -0.8954316182 0 744 -0.8954316182 0
gene 1 8 53 0.08679178873 0 833 0 1
gene 1 53 53 0.5168385694 1 861 0.5168385694 1
genomeend 61893
/* Novelty: 0 Fitness: 260.9750366 Generation: 0 Indiv: 62143 */
/* Point: 28.73687363 58.95928574 28.73687363 58.95928574 */

/* Organism #61959 Fitness: 260.9750366 Error: 0 */
genomestart 61959
trait 1 0.3080797835 0.2883181184 0.710900594 0.4253929848 0.6409518444 0.378693151 0.6557066685 0.4026331652 
node 1 1 1 3
node 2 1 1 1
node 3 1 1 1
node 4 1 1 1
node 5 1 1 1
node 6 1 1 1
node 7 1 1 1
node 8 1 1 1
node 9 1 1 1
node 10 1 1 1
node 11 1 1 1
node 12 1 0 0
node 13 1 0 2
node 14 1 0 2
node 19 1 0 0
node 25 1 0 0
node 53 1 0 0
gene 1 1 12 0.1402567506 0 1 0.1402567506 1
gene 1 2 12 -0.7164208591 0 2 -0.7164208591 1
gene 1 3 12 -0.8703487004 0 3 -0.8703487004 1
gene 1 4 12 -0.9492427834 0 4 -0.9492427834 1
gene 1 5 12 0.003127472942 0 5 0.003127472942 1
gene 1 6 12 0.6630948763 0 6 0.6630948763 0
gene 1 7 12 -0.1399672703 0 7 -0.1399672703 1
gene 1 8 12 -1.473551419 0 8 -1.473551419 1
gene 1 9 12 -0.7100574565 0 9 -0.7100574565 1
gene 1 10 12 0.3871480862 0 10 0.3871480862 1
gene 1 11 12 0.8912487738 0 11 0.8912487738 0
gene 1 12 13 0.3101497369 0 12 0.3101497369 1
gene 1 12 14 -0.3700978653 0 13 -0.3700978653 1
gene 1 11 14 0.9662581724 0 20 0 1
gene 1 11 13 -0.2584925048 0 21 0 0
gene 1 10 19 0.3426929159 0 50 0.3426929159 1
gene 1 19 12 0.07867938256 0 51 0.07867938256 1
gene 1 5 14 0.01787209512 0 60 0.01787209512 1
gene 1 12 12 0.1294627682 1 73 0.1294627682 1
gene 1 6 25 0.7394092194 0 91 0.7394092194 1
gene 1 25 12 0.03826884808 0 92 0.03826884808 1
gene 1 8 19 -0.7399530521 0 101 0 1
gene 1 6 19 -0.406014261 0 113 0 0
gene 1 4 19 0.1913574946 0 132 0.1913574946 1
gene 1 3 19 -0.7320855977 0 231 -0.7320855977 1
gene 1 9 25 0.0473545748 0 236 0 1
gene 1 11 25 0.921749271 0 526 0 1
gene 1 6 53 1 0 652 0 1
gene 1 53 19 -0.1218042783 0 653 0 1
gene 1 9 53 -0.1781597599 0 683 -0.1781597599 1
gene 1 11 53 -0.8954316182 0 744 -0.8954316182 0
gene 1 8 53 0.08679178873 0 833 0 1
gene 1 53 53 0.5168385694 1 861 0.5168385694 1
genomeend 61959
/* Novelty: 0 Fitness: 260.9750366 Generation: 0 Indiv: 62209 */
/* Point: 28.73687363 58.95928574 28.73687363 58.95928574 */

/* Organism #61983 Fitness: 260.9750366 Error: 0 */
genomestart 61983
trait 1 0.3577138795 0.3899422193 0.7021822324 0.3959681902 0.7137023536 0.3696544288 0.645283085 0.3859660379 
node 1 1 1 3
node 2 1 1 1
node 3 1 1 1
node 4 1 1 1
node 5 1 1 1
node 6 1 1 1
node 7 1 1 1
node 8 1 1 1
node 9 1 1 1
node 10 1 1 1
node 11 1 1 1
node 12 1 0 0
node 13 1 0 2
node 14 1 0 2
node 19 1 0 0
node 25 1 0 0
node 53 1 0 0
gene 1 1 12 0.1402567506 0 1 0.1402567506 1
gene 1 2 12 -0.7164208591 0 2 -0.7164208591 1
gene 1 3 12 -0.8703487004 0 3 -0.8703487004 1
gene 1 4 12 -0.9492427834 0 4 -0.9492427834 1
gene 1 5 12 0.003127472942 0 5 0.003127472942 1
gene 1 6 12 0.6630948763 0 6 0.6630948763 0
gene 1 7 12 -0.1399672703 0 7 -0.1399672703 1
gene 1 8 12 -1.473551419 0 8 -1.473551419 1
gene 1 9 12 -0.7100574565 0 9 -0.7100574565 1
gene 1 10 12 0.3871480862 0 10 0.3871480862 1
gene 1 11 12 0.8912487738 0 11 0.8912487738 0
gene 1 12 13 0.3101497369 0 12 0.3101497369 1
gene 1 12 14 -0.3700978653 0 13 -0.3700978653 1
gene 1 11 14 0.9662581724 0 20 0 1
gene 1 11 13 -0.2584925048 0 21 0 0
gene 1 10 19 0.3426929159 0 50 0.3426929159 1
gene 1 19 12 0.07867938256 0 51 0.07867938256 1
gene 1 5 14 0.01787209512 0 60 0.01787209512 1
gene 1 12 12 0.1294627682 1 73 0.1294627682 1
gene 1 6 25 0.7394092194 0 91 0.7394092194 1
gene 1 25 12 0.03826884808 0 92 0.03826884808 1
gene 1 8 19 -0.7399530521 0 101 0 1
gene 1 6 19 -0.406014261 0 113 0 0
gene 1 4 19 0.1913574946 0 132 0.1913574946 1
gene 1 3 19 -0.7320855977 0 231 -0.7320855977 1
gene 1 9 25 0.0473545748 0 236 0 1
gene 1 11 25 0.921749271 0 526 0 1
gene 1 6 53 1 0 652 0 1
gene 1 53 19 -0.1218042783 0 653 0 1
gene 1 9 53 -0.1781597599 0 683 -0.1781597599 1
gene 1 11 53 -0.8954316182 0 744 -0.8954316182 0
gene 1 8 53 0.08679178873 0 833 0 1
gene 1 53 53 0.5168385694 1 861 0.5168385694 1
genomeend 61983
/* Novelty: 0 Fitness: 260.9750366 Generation: 0 Indiv: 62233 */
/* Point: 28.73687363 58.95928574 28.73687363 58.95928574 */

/* Organism #62145 Fitness: 260.9750366 Error: 0 */
genomestart 62145
trait 1 0.4103112109 0.3808141315 0.713510346 0.4602121592 0.8253872255 0.3895832304 0.6554275386 0.3978036377 
node 1 1 1 3
node 2 1 1 1
node 3 1 1 1
node 4 1 1 1
node 5 1 1 1
node 6 1 1 1
node 7 1 1 1
node 8 1 1 1
node 9 1 1 1
node 10 1 1 1
node 11 1 1 1
node 12 1 0 0
node 13 1 0 2
node 14 1 0 2
node 19 1 0 0
node 25 1 0 0
node 53 1 0 0
gene 1 1 12 0.1402567506 0 1 0.1402567506 1
gene 1 2 12 -0.7164208591 0 2 -0.7164208591 1
gene 1 3 12 -0.8703487004 0 3 -0.8703487004 1
gene 1 4 12 -0.9492427834 0 4 -0.9492427834 1
gene 1 5 12 0.003127472942 0 5 0.003127472942 1
gene 1 6 12 0.6630948763 0 6 0.6630948763 0
gene 1 7 12 -0.1399672703 0 7 -0.1399672703 1
gene 1 8 12 -1.473551419 0 8 -1.473551419 1
gene 1 9 12 -0.7100574565 0 9 -0.7100574565 1
gene 1 10 12 0.3871480862 0 10 0.3871480862 1
gene 1 11 12 0.8912487738 0 11 0.8912487738 1
gene 1 12 13 0.3101497369 0 12 0.3101497369 1
gene 1 12 14 -0.3700978653 0 13 -0.3700978653 1
gene 1 11 14 0.9662581724 0 20 0 1
gene 1 11 13 -0.2584925048 0 21 0 0
gene 1 10 19 0.3426929159 0 50 0.3426929159 1
gene 1 19 12 0.07867938256 0 51 0.07867938256 1
gene 1 5 14 0.01787209512 0 60 0.01787209512 1
gene 1 12 12 0.1294627682 1 73 0.1294627682 1
gene 1 6 25 0.7394092194 0 91 0.7394092194 1
gene 1 25 12 0.03826884808 0 92 0.03826884808 1
gene 1 8 19 -0.7399530521 0 101 0 1
gene 1 6 19 -0.406014261 0 113 0 0
gene 1 4 19 0.1913574946 0 132 0.1913574946 1
gene 1 3 19 -0.7320855977 0 231 -0.7320855977 1
gene 1 9 25 0.0473545748 0 236 0 1
gene 1 11 25 0.921749271 0 526 0 1
gene 1 6 53 1 0 652 0 1
gene 1 53 19 -0.1218042783 0 653 0 1
gene 1 9 53 -0.1781597599 0 683 -0.1781597599 1
gene 1 11 53 -0.8954316182 0 744 -0.8954316182 0
gene 1 8 53 0.08679178873 0 833 0 1
gene 1 53 53 0.5168385694 1 861 0.5168385694 1
genomeend 62145
/* Novelty: 0 Fitness: 260.9750366 Generation: 0 Indiv: 62395 */
/* Point: 28.73687363 58.95928574 28.73687363 58.95928574 */

/* Organism #62162 Fitness: 260.9750366 Error: 0 */
genomestart 62162
trait 1 0.3602649071 0.377417026 0.7037121022 0.4147449769 0.7269305866 0.3755503584 0.6326094164 0.3835048685 
node 1 1 1 3
node 2 1 1 1
node 3 1 1 1
node 4 1 1 1
node 5 1 1 1
node 6 1 1 1
node 7 1 1 1
node 8 1 1 1
node 9 1 1 1
node 10 1 1 1
node 11 1 1 1
node 12 1 0 0
node 13 1 0 2
node 14 1 0 2
node 19 1 0 0
node 25 1 0 0
node 53 1 0 0
gene 1 1 12 0.1402567506 0 1 0.1402567506 1
gene 1 2 12 -0.7164208591 0 2 -0.7164208591 1
gene 1 3 12 -0.8703487004 0 3 -0.8703487004 1
gene 1 4 12 -0.9492427834 0 4 -0.9492427834 1
gene 1 5 12 0.003127472942 0 5 0.003127472942 1
gene 1 6 12 0.6630948763 0 6 0.6630948763 0
gene 1 7 12 -0.1399672703 0 7 -0.1399672703 1
gene 1 8 12 -1.473551419 0 8 -1.473551419 1
gene 1 9 12 -0.7100574565 0 9 -0.7100574565 1
gene 1 10 12 0.3871480862 0 10 0.3871480862 1
gene 1 11 12 0.8912487738 0 11 0.8912487738 0
gene 1 12 13 0.3101497369 0 12 0.3101497369 1
gene 1 12 14 -0.3700978653 0 13 -0.3700978653 1
gene 1 11 14 0.9662581724 0 20 0 1
gene 1 11 13 -0.2584925048 0 21 0 0
gene 1 10 19 0.3426929159 0 50 0.3426929159 1
gene 1 19 12 0.07867938256 0 51 0.07867938256 1
gene 1 5 14 0.01787209512 0 60 0.01787209512 1
gene 1 12 12 0.1294627682 1 73 0.1294627682 1
gene 1 6 25 0.7394092194 0 91 0.7394092194 1
gene 1 25 12 0.03826884808 0 92 0.03826884808 1
gene 1 8 19 -0.7399530521 0 101 0 1
gene 1 6 19 -0.406014261 0 113 0 0
gene 1 4 19 0.1913574946 0 132 0.1913574946 1
gene 1 3 19 -0.7320855977 0 231 -0.7320855977 1
gene 1 9 25 0.0473545748 0 236 0 1
gene 1 11 25 0.921749271 0 526 0 1
gene 1 6 53 1 0 652 0 1
gene 1 53 19 -0.1218042783 0 653 0 1
gene 1 9 53 -0.1781597599 0 683 -0.1781597599 1
gene 1 11 53 -0.8954316182 0 744 -0.8954316182 0
gene 1 8 53 0.08679178873 0 833 0 1
gene 1 53 53 0.5168385694 1 861 0.5168385694 1
genomeend 62162
/* Novelty: 0 Fitness: 260.9750366 Generation: 0 Indiv: 62412 */
/* Point: 28.73687363 58.95928574 28.73687363 58.95928574 */

/* Organism #62216 Fitness: 260.9750366 Error: 0 */
genomestart 62216
trait 1 0.1551093016 0.4049721451 0.8469569292 0.4005604735 0.7251591485 0.3713494641 0.3048956471 0.3708554625 
node 1 1 1 3
node 2 1 1 1
node 3 1 1 1
node 4 1 1 1
node 5 1 1 1
node 6 1 1 1
node 7 1 1 1
node 8 1 1 1
node 9 1 1 1
node 10 1 1 1
node 11 1 1 1
node 12 1 0 0
node 13 1 0 2
node 14 1 0 2
node 19 1 0 0
node 25 1 0 0
node 53 1 0 0
gene 1 1 12 0.1402567506 0 1 0.1402567506 1
gene 1 2 12 -0.7164208591 0 2 -0.7164208591 1
gene 1 3 12 -0.8703487004 0 3 -0.8703487004 1
gene 1 4 12 -0.9492427834 0 4 -0.9492427834 1
gene 1 5 12 0.003127472942 0 5 0.003127472942 1
gene 1 6 12 0.6630948763 0 6 0.6630948763 0
gene 1 7 12 -0.1399672703 0 7 -0.1399672703 1
gene 1 8 12 -1.473551419 0 8 -1.473551419 1
gene 1 9 12 -0.7100574565 0 9 -0.7100574565 1
gene 1 10 12 0.3871480862 0 10 0.3871480862 1
gene 1 11 12 0.8912487738 0 11 0.8912487738 0
gene 1 12 13 0.3101497369 0 12 0.3101497369 1
gene 1 12 14 -0.3700978653 0 13 -0.3700978653 1
gene 1 11 14 0.9662581724 0 20 0 1
gene 1 11 13 -0.2584925048 0 21 0 0
gene 1 10 19 0.3426929159 0 50 0.3426929159 1
gene 1 19 12 0.07867938256 0 51 0.07867938256 1
gene 1 5 14 0.01787209512 0 60 0.01787209512 1
gene 1 12 12 0.1294627682 1 73 0.1294627682 1
gene 1 6 25 0.7394092194 0 91 0.7394092194 1
gene 1 25 12 0.03826884808 0 92 0.03826884808 1
gene 1 8 19 -0.7399530521 0 101 0 1
gene 1 6 19 -0.406014261 0 113 0 0
gene 1 4 19 0.1913574946 0 132 0.1913574946 1
gene 1 3 19 -0.7320855977 0 231 -0.7320855977 1
gene 1 9 25 0.0473545748 0 236 0 1
gene 1 11 25 0.921749271 0 526 0 1
gene 1 6 53 1 0 652 0 1
gene 1 53 19 -0.1218042783 0 653 0 1
gene 1 9 53 -0.1781597599 0 683 -0.1781597599 1
gene 1 11 53 -0.8954316182 0 744 -0.8954316182 1
gene 1 8 53 0.08679178873 0 833 0 1
gene 1 53 53 0.5168385694 1 861 0.5168385694 1
genomeend 62216
/* Novelty: 1.60292542 Fitness: 260.9750366 Generation: 0 Indiv: 62466 */
/* Point: 28.73687363 58.95928574 28.73687363 58.95928574 */

/* Organism #62245 Fitness: 260.9750366 Error: 0 */
genomestart 62245
trait 1 0.362712293 0.4069836431 0.6979319093 0.3955977106 0.7225600394 0.3697345783 0.6214804307 0.3725518612 
node 1 1 1 3
node 2 1 1 1
node 3 1 1 1
node 4 1 1 1
node 5 1 1 1
node 6 1 1 1
node 7 1 1 1
node 8 1 1 1
node 9 1 1 1
node 10 1 1 1
node 11 1 1 1
node 12 1 0 0
node 13 1 0 2
node 14 1 0 2
node 19 1 0 0
node 25 1 0 0
node 53 1 0 0
gene 1 1 12 0.1402567506 0 1 0.1402567506 1
gene 1 2 12 -0.7164208591 0 2 -0.7164208591 1
gene 1 3 12 -0.8703487004 0 3 -0.8703487004 1
gene 1 4 12 -0.9492427834 0 4 -0.9492427834 1
gene 1 5 12 0.003127472942 0 5 0.003127472942 1
gene 1 6 12 0.6630948763 0 6 0.6630948763 0
gene 1 7 12 -0.1399672703 0 7 -0.1399672703 1
gene 1 8 12 -1.473551419 0 8 -1.473551419 1
gene 1 9 12 -0.7100574565 0 9 -0.7100574565 1
gene 1 10 12 0.3871480862 0 10 0.3871480862 1
gene 1 11 12 0.8912487738 0 11 0.8912487738 0
gene 1 12 13 0.3101497369 0 12 0.3101497369 1
gene 1 12 14 -0.3700978653 0 13 -0.3700978653 1
gene 1 11 14 0.9662581724 0 20 0 1
gene 1 11 13 -0.2584925048 0 21 0 0
gene 1 10 19 0.3426929159 0 50 0.3426929159 1
gene 1 19 12 0.07867938256 0 51 0.07867938256 1
gene 1 5 14 0.01787209512 0 60 0.01787209512 1
gene 1 12 12 0.1294627682 1 73 0.1294627682 1
gene 1 6 25 0.7394092194 0 91 0.7394092194 1
gene 1 25 12 0.03826884808 0 92 0.03826884808 1
gene 1 8 19 -0.7399530521 0 101 0 1
gene 1 6 19 -0.406014261 0 113 0 0
gene 1 4 19 0.1913574946 0 132 0.1913574946 1
gene 1 3 19 -0.7320855977 0 231 -0.7320855977 1
gene 1 9 25 0.0473545748 0 236 0 1
gene 1 11 25 0.921749271 0 526 0 1
gene 1 6 53 1 0 652 0 1
gene 1 53 19 -0.1218042783 0 653 0 1
gene 1 9 53 -0.1781597599 0 683 -0.1781597599 1
gene 1 11 53 -0.8954316182 0 744 -0.8954316182 0
gene 1 8 53 0.08679178873 0 833 0 1
gene 1 53 53 0.5168385694 1 861 0.5168385694 1
genomeend 62245
/* Novelty: 0 Fitness: 260.9750366 Generation: 0 Indiv: 62495 */
/* Point: 28.73687363 58.95928574 28.73687363 58.95928574 */

/* Organism #62264 Fitness: 260.9750366 Error: 0 */
genomestart 62264
trait 1 0.5208386657 0.4324330859 0 0 1 0.2446130637 0.657117473 0 
node 1 1 1 3
node 2 1 1 1
node 3 1 1 1
node 4 1 1 1
node 5 1 1 1
node 6 1 1 1
node 7 1 1 1
node 8 1 1 1
node 9 1 1 1
node 10 1 1 1
node 11 1 1 1
node 12 1 0 0
node 13 1 0 2
node 14 1 0 2
node 19 1 0 0
node 25 1 0 0
node 53 1 0 0
gene 1 1 12 0.1402567506 0 1 0.1402567506 1
gene 1 2 12 -0.7164208591 0 2 -0.7164208591 1
gene 1 3 12 -0.8703487004 0 3 -0.8703487004 1
gene 1 4 12 -0.9492427834 0 4 -0.9492427834 1
gene 1 5 12 0.003127472942 0 5 0.003127472942 1
gene 1 6 12 0.6630948763 0 6 0.6630948763 0
gene 1 7 12 -0.1399672703 0 7 -0.1399672703 1
gene 1 8 12 -1.473551419 0 8 -1.473551419 1
gene 1 9 12 -0.7100574565 0 9 -0.7100574565 1
gene 1 10 12 0.3871480862 0 10 0.3871480862 1
gene 1 11 12 0.8912487738 0 11 0.8912487738 1
gene 1 12 13 0.3101497369 0 12 0.3101497369 1
gene 1 12 14 -0.3700978653 0 13 -0.3700978653 1
gene 1 11 14 0.9662581724 0 20 0 1
gene 1 11 13 -0.2584925048 0 21 0 0
gene 1 10 19 0.3426929159 0 50 0.3426929159 1
gene 1 19 12 0.07867938256 0 51 0.07867938256 1
gene 1 5 14 0.01787209512 0 60 0.01787209512 1
gene 1 12 12 0.1294627682 1 73 0.1294627682 1
gene 1 6 25 0.7394092194 0 91 0.7394092194 1
gene 1 25 12 0.03826884808 0 92 0.03826884808 1
gene 1 8 19 -0.7399530521 0 101 0 1
gene 1 6 19 -0.406014261 0 113 0 0
gene 1 4 19 0.1913574946 0 132 0.1913574946 1
gene 1 3 19 -0.7320855977 0 231 -0.7320855977 1
gene 1 9 25 0.0473545748 0 236 0 1
gene 1 11 25 0.921749271 0 526 0 1
gene 1 6 53 1 0 652 0 1
gene 1 53 19 -0.1218042783 0 653 0 1
gene 1 9 53 -0.1781597599 0 683 -0.1781597599 1
gene 1 11 53 -0.8954316182 0 744 -0.8954316182 0
gene 1 8 53 0.08679178873 0 833 0 1
gene 1 53 53 0.5168385694 1 861 0.5168385694 1
genomeend 62264
/* Novelty: 0 Fitness: 260.9750366 Generation: 0 Indiv: 62514 */
/* Point: 28.73687363 58.95928574 28.73687363 58.95928574 */

/* Organism #62273 Fitness: 260.9750366 Error: 0 */
genomestart 62273
trait 1 0.1022027215 0.3195167398 0.8481499273 0.4144114517 0.648159849 0.3754838683 0.2943478645 0.37870521 
node 1 1 1 3
node 2 1 1 1
node 3 1 1 1
node 4 1 1 1
node 5 1 1 1
node 6 1 1 1
node 7 1 1 1
node 8 1 1 1
node 9 1 1 1
node 10 1 1 1
node 11 1 1 1
node 12 1 0 0
node 13 1 0 2
node 14 1 0 2
node 19 1 0 0
node 25 1 0 0
node 53 1 0 0
gene 1 1 12 0.1402567506 0 1 0.1402567506 1
gene 1 2 12 -0.7164208591 0 2 -0.7164208591 1
gene 1 3 12 -0.8703487004 0 3 -0.8703487004 1
gene 1 4 12 -0.9492427834 0 4 -0.9492427834 1
gene 1 5 12 0.003127472942 0 5 0.003127472942 1
gene 1 6 12 0.6630948763 0 6 0.6630948763 0
gene 1 7 12 -0.1399672703 0 7 -0.1399672703 1
gene 1 8 12 -1.473551419 0 8 -1.473551419 1
gene 1 9 12 -0.7100574565 0 9 -0.7100574565 1
gene 1 10 12 0.3871480862 0 10 0.3871480862 1
gene 1 11 12 0.8912487738 0 11 0.8912487738 0
gene 1 12 13 0.3101497369 0 12 0.3101497369 1
gene 1 12 14 -0.3700978653 0 13 -0.3700978653 1
gene 1 11 14 0.9662581724 0 20 0 1
gene 1 11 13 -0.2584925048 0 21 0 0
gene 1 10 19 0.3426929159 0 50 0.3426929159 1
gene 1 19 12 0.07867938256 0 51 0.07867938256 1
gene 1 5 14 0.01787209512 0 60 0.01787209512 1
gene 1 12 12 0.1294627682 1 73 0.1294627682 1
gene 1 6 25 0.7394092194 0 91 0.7394092194 1
gene 1 25 12 0.03826884808 0 92 0.03826884808 1
gene 1 8 19 -0.7399530521 0 101 0 1
gene 1 6 19 -0.406014261 0 113 0 0
gene 1 4 19 0.1913574946 0 132 0.1913574946 1
gene 1 3 19 -0.7320855977 0 231 -0.7320855977 1
gene 1 9 25 0.0473545748 0 236 0 1
gene 1 11 25 0.921749271 0 526 0 1
gene 1 6 53 1 0 652 0 1
gene 1 53 19 -0.1218042783 0 653 0 1
gene 1 9 53 -0.1781597599 0 683 -0.1781597599 1
gene 1 11 53 -0.8954316182 0 744 -0.8954316182 0
gene 1 8 53 0.08679178873 0 833 0 1
gene 1 53 53 0.5168385694 1 861 0.5168385694 1
genomeend 62273
/* Novelty: 0 Fitness: 260.9750366 Generation: 0 Indiv: 62523 */
/* Point: 28.73687363 58.95928574 28.73687363 58.95928574 */

/* Organism #62345 Fitness: 260.9750366 Error: 0 */
genomestart 62345
trait 1 0.2044054429 0.2031091098 0.6962998546 0.3969797509 0.4744753487 0.3697862946 0.588695729 0.3849055943 
node 1 1 1 3
node 2 1 1 1
node 3 1 1 1
node 4 1 1 1
node 5 1 1 1
node 6 1 1 1
node 7 1 1 1
node 8 1 1 1
node 9 1 1 1
node 10 1 1 1
node 11 1 1 1
node 12 1 0 0
node 13 1 0 2
node 14 1 0 2
node 19 1 0 0
node 25 1 0 0
node 53 1 0 0
gene 1 1 12 0.1402567506 0 1 0.1402567506 1
gene 1 2 12 -0.7164208591 0 2 -0.7164208591 1
gene 1 3 12 -0.8703487004 0 3 -0.8703487004 1
gene 1 4 12 -0.9492427834 0 4 -0.9492427834 1
gene 1 5 12 0.003127472942 0 5 0.003127472942 1
gene 1 6 12 0.6630948763 0 6 0.6630948763 0
gene 1 7 12 -0.1399672703 0 7 -0.1399672703 1
gene 1 8 12 -1.473551419 0 8 -1.473551419 1
gene 1 9 12 -0.7100574565 0 9 -0.7100574565 1
gene 1 10 12 0.3871480862 0 10 0.3871480862 1
gene 1 11 12 0.8912487738 0 11 0.8912487738 0
gene 1 12 13 0.3101497369 0 12 0.3101497369 1
gene 1 12 14 -0.3700978653 0 13 -0.3700978653 1
gene 1 11 14 0.9662581724 0 20 0 1
gene 1 11 13 -0.2584925048 0 21 0 0
gene 1 10 19 0.3426929159 0 50 0.3426929159 1
gene 1 19 12 0.07867938256 0 51 0.07867938256 1
gene 1 5 14 0.01787209512 0 60 0.01787209512 1
gene 1 12 12 0.1294627682 1 73 0.1294627682 1
gene 1 6 25 0.7394092194 0 91 0.7394092194 1
gene 1 25 12 0.03826884808 0 92 0.03826884808 1
gene 1 8 19 -0.7399530521 0 101 0 1
gene 1 6 19 -0.406014261 0 113 0 0
gene 1 4 19 0.1913574946 0 132 0.1913574946 1
gene 1 3 19 -0.7320855977 0 231 -0.7320855977 1
gene 1 9 25 0.0473545748 0 236 0 1
gene 1 11 25 0.921749271 0 526 0 1
gene 1 6 53 1 0 652 0 1
gene 1 53 19 -0.1218042783 0 653 0 1
gene 1 9 53 -0.1781597599 0 683 -0.1781597599 1
gene 1 11 53 -0.8954316182 0 744 -0.8954316182 0
gene 1 8 53 0.08679178873 0 833 0 1
gene 1 53 53 0.5168385694 1 861 0.5168385694 1
genomeend 62345
/* Novelty: 0 Fitness: 260.9750366 Generation: 0 Indiv: 62595 */
/* Point: 28.73687363 58.95928574 28.73687363 58.95928574 */

/* Organism #62373 Fitness: 260.9750366 Error: 0 */
genomestart 62373
trait 1 0.4401910581 0.406746807 0.3488583043 0.2089739736 0.8679550147 0.3105775168 0.6280409274 0.1861131597 
node 1 1 1 3
node 2 1 1 1
node 3 1 1 1
node 4 1 1 1
node 5 1 1 1
node 6 1 1 1
node 7 1 1 1
node 8 1 1 1
node 9 1 1 1
node 10 1 1 1
node 11 1 1 1
node 12 1 0 0
node 13 1 0 2
node 14 1 0 2
node 19 1 0 0
node 25 1 0 0
node 53 1 0 0
gene 1 1 12 0.1402567506 0 1 0.1402567506 1
gene 1 2 12 -0.7164208591 0 2 -0.7164208591 1
gene 1 3 12 -0.8703487004 0 3 -0.8703487004 1
gene 1 4 12 -0.9492427834 0 4 -0.9492427834 1
gene 1 5 12 0.003127472942 0 5 0.003127472942 1
gene 1 6 12 0.6630948763 0 6 0.6630948763 0
gene 1 7 12 -0.1399672703 0 7 -0.1399672703 1
gene 1 8 12 -1.473551419 0 8 -1.473551419 1
gene 1 9 12 -0.7100574565 0 9 -0.7100574565 1
gene 1 10 12 0.3871480862 0 10 0.3871480862 1
gene 1 11 12 0.8912487738 0 11 0.8912487738 0
gene 1 12 13 0.3101497369 0 12 0.3101497369 1
gene 1 12 14 -0.3700978653 0 13 -0.3700978653 1
gene 1 11 14 0.9662581724 0 20 0 1
gene 1 11 13 -0.2584925048 0 21 0 0
gene 1 10 19 0.3426929159 0 50 0.3426929159 1
gene 1 19 12 0.07867938256 0 51 0.07867938256 1
gene 1 5 14 0.01787209512 0 60 0.01787209512 1
gene 1 12 12 0.1294627682 1 73 0.1294627682 1
gene 1 6 25 0.7394092194 0 91 0.7394092194 1
gene 1 25 12 0.03826884808 0 92 0.03826884808 1
gene 1 8 19 -0.7399530521 0 101 0 1
gene 1 6 19 -0.406014261 0 113 0 0
gene 1 4 19 0.1913574946 0 132 0.1913574946 1
gene 1 3 19 -0.7320855977 0 231 -0.7320855977 1
gene 1 9 25 0.0473545748 0 236 0 1
gene 1 11 25 0.921749271 0 526 0 1
gene 1 6 53 1 0 652 0 1
gene 1 53 19 -0.1218042783 0 653 0 1
gene 1 9 53 -0.1781597599 0 683 -0.1781597599 1
gene 1 11 53 -0.8954316182 0 744 -0.8954316182 0
gene 1 8 53 0.08679178873 0 833 0 1
gene 1 53 53 0.5168385694 1 861 0.5168385694 1
genomeend 62373
/* Novelty: 0 Fitness: 260.9750366 Generation: 0 Indiv: 62623 */
/* Point: 28.73687363 58.95928574 28.73687363 58.95928574 */

/* Organism #62435 Fitness: 260.9750366 Error: 0 */
genomestart 62435
trait 1 0.1126968411 0.3810605282 1 0.7897893095 0.7359100293 0.3765419699 0.5989643818 0.3722263193 
node 1 1 1 3
node 2 1 1 1
node 3 1 1 1
node 4 1 1 1
node 5 1 1 1
node 6 1 1 1
node 7 1 1 1
node 8 1 1 1
node 9 1 1 1
node 10 1 1 1
node 11 1 1 1
node 12 1 0 0
node 13 1 0 2
node 14 1 0 2
node 19 1 0 0
node 25 1 0 0
node 53 1 0 0
gene 1 1 12 0.1402567506 0 1 0.1402567506 1
gene 1 2 12 -0.7164208591 0 2 -0.7164208591 1
gene 1 3 12 -0.8703487004 0 3 -0.8703487004 1
gene 1 4 12 -0.9492427834 0 4 -0.9492427834 1
gene 1 5 12 0.003127472942 0 5 0.003127472942 1
gene 1 6 12 0.6630948763 0 6 0.6630948763 0
gene 1 7 12 -0.1399672703 0 7 -0.1399672703 1
gene 1 8 12 -1.473551419 0 8 -1.473551419 1
gene 1 9 12 -0.7100574565 0 9 -0.7100574565 1
gene 1 10 12 0.3871480862 0 10 0.3871480862 1
gene 1 11 12 0.8912487738 0 11 0.8912487738 0
gene 1 12 13 0.3101497369 0 12 0.3101497369 1
gene 1 12 14 -0.3700978653 0 13 -0.3700978653 1
gene 1 11 14 0.9662581724 0 20 0 1
gene 1 11 13 -0.2584925048 0 21 0 0
gene 1 10 19 0.3426929159 0 50 0.3426929159 1
gene 1 19 12 0.07867938256 0 51 0.07867938256 1
gene 1 5 14 0.01787209512 0 60 0.01787209512 1
gene 1 12 12 0.1294627682 1 73 0.1294627682 1
gene 1 6 25 0.7394092194 0 91 0.7394092194 1
gene 1 25 12 0.03826884808 0 92 0.03826884808 1
gene 1 8 19 -0.7399530521 0 101 0 1
gene 1 6 19 -0.406014261 0 113 0 0
gene 1 4 19 0.1913574946 0 132 0.1913574946 1
gene 1 3 19 -0.7320855977 0 231 -0.7320855977 1
gene 1 9 25 0.0473545748 0 236 0 1
gene 1 11 25 0.921749271 0 526 0 1
gene 1 6 53 1 0 652 0 1
gene 1 53 19 -0.1218042783 0 653 0 1
gene 1 9 53 -0.1781597599 0 683 -0.1781597599 1
gene 1 11 53 -0.8954316182 0 744 -0.8954316182 0
gene 1 8 53 0.08679178873 0 833 0 1
gene 1 53 53 0.5168385694 1 861 0.5168385694 1
genomeend 62435
/* Novelty: 0 Fitness: 260.9750366 Generation: 0 Indiv: 62685 */
/* Point: 28.73687363 58.95928574 28.73687363 58.95928574 */

/* Species #42 : (Size 16) (AF 0) (Age 1)  */


/* Organism #61331 Fitness: 261.0466003 Error: 0 */
genomestart 61331
trait 1 0.3691035514 0.460111571 0.9455237835 0.3757766234 0 0.6551462482 0.8919559713 0.7335599376 
node 1 1 1 3
node 2 1 1 1
node 3 1 1 1
node 4 1 1 1
node 5 1 1 1
node 6 1 1 1
node 7 1 1 1
node 8 1 1 1
node 9 1 1 1
node 10 1 1 1
node 11 1 1 1
node 12 1 0 0
node 13 1 0 2
node 14 1 0 2
gene 1 1 12 -0.2539780141 0 1 -0.2539780141 1
gene 1 2 12 -0.07741587818 0 2 -0.07741587818 1
gene 1 3 12 0.7140804282 0 3 0.7140804282 1
gene 1 4 12 -1.681474232 0 4 -1.681474232 1
gene 1 5 12 -0.5754349734 0 5 -0.5754349734 0
gene 1 6 12 -0.3086733689 0 6 -0.3086733689 1
gene 1 7 12 -1.347089842 0 7 -1.347089842 0
gene 1 8 12 0.3071800803 0 8 0.3071800803 1
gene 1 9 12 1.356286511 0 9 1.356286511 1
gene 1 10 12 1.722529438 0 10 1.722529438 1
gene 1 11 12 0.5124090324 0 11 0.5124090324 0
gene 1 12 13 1.469119354 0 12 1.469119354 1
gene 1 12 14 -1.383852405 0 13 -1.383852405 1
gene 1 7 14 -0.5953873261 0 14 -0.5953873261 0
gene 1 7 13 -0.1159027572 0 15 -0.1159027572 1
gene 1 11 14 0.4378709635 0 20 0.4378709635 0
gene 1 11 13 0.2037385715 0 21 0.2037385715 0
gene 1 14 14 1.342536374 1 22 1.342536374 1
gene 1 1 13 -0.4616346507 0 31 -0.4616346507 1
gene 1 3 14 -1.113324792 0 33 -1.113324792 0
gene 1 5 13 -1.009985463 0 41 -1.009985463 1
gene 1 8 14 -0.4785523743 0 81 -0.4785523743 1
genomeend 61331
/* Novelty: 0 Fitness: 261.0466003 Generation: 0 Indiv: 61581 */
/* Point: 28.2267437 58.85454941 28.2267437 58.85454941 */

/* Organism #61399 Fitness: 261.0466003 Error: 0 */
genomestart 61399
trait 1 0.416934699 0.3616496942 0.4837039976 0.4913554078 0.3319382303 0.2736065366 0.9164154603 0.6423443878 
node 1 1 1 3
node 2 1 1 1
node 3 1 1 1
node 4 1 1 1
node 5 1 1 1
node 6 1 1 1
node 7 1 1 1
node 8 1 1 1
node 9 1 1 1
node 10 1 1 1
node 11 1 1 1
node 12 1 0 0
node 13 1 0 2
node 14 1 0 2
gene 1 1 12 -0.2539780141 0 1 -0.2539780141 1
gene 1 2 12 -0.07741587818 0 2 -0.07741587818 1
gene 1 3 12 0.7140804282 0 3 0.7140804282 1
gene 1 4 12 -1.681474232 0 4 -1.681474232 1
gene 1 5 12 -0.5754349734 0 5 -0.5754349734 0
gene 1 6 12 -0.3086733689 0 6 -0.3086733689 1
gene 1 7 12 -1.347089842 0 7 -1.347089842 0
gene 1 8 12 0.3071800803 0 8 0.3071800803 1
gene 1 9 12 1.356286511 0 9 1.356286511 1
gene 1 10 12 1.722529438 0 10 1.722529438 1
gene 1 11 12 0.5124090324 0 11 0.5124090324 0
gene 1 12 13 1.469119354 0 12 1.469119354 1
gene 1 12 14 -1.383852405 0 13 -1.383852405 1
gene 1 7 14 -0.5953873261 0 14 -0.5953873261 0
gene 1 7 13 -0.1159027572 0 15 -0.1159027572 1
gene 1 11 14 0.4378709635 0 20 0.4378709635 0
gene 1 11 13 0.2037385715 0 21 0.2037385715 0
gene 1 14 14 1.342536374 1 22 1.342536374 1
gene 1 1 13 -0.4616346507 0 31 -0.4616346507 1
gene 1 3 14 -1.113324792 0 33 -1.113324792 0
gene 1 5 13 -1.009985463 0 41 -1.009985463 1
gene 1 8 14 -0.4785523743 0 81 -0.4785523743 1
genomeend 61399
/* Novelty: 0 Fitness: 261.0466003 Generation: 0 Indiv: 61649 */
/* Point: 28.2267437 58.85454941 28.2267437 58.85454941 */

/* Organism #61483 Fitness: 261.0466003 Error: 0 */
genomestart 61483
trait 1 0.416934699 0.3616496942 0.4837039976 0.4913554078 0.3319382303 0.2736065366 0.9164154603 0.6423443878 
node 1 1 1 3
node 2 1 1 1
node 3 1 1 1
node 4 1 1 1
node 5 1 1 1
node 6 1 1 1
node 7 1 1 1
node 8 1 1 1
node 9 1 1 1
node 10 1 1 1
node 11 1 1 1
node 12 1 0 0
node 13 1 0 2
node 14 1 0 2
gene 1 1 12 -0.2539780141 0 1 -0.2539780141 1
gene 1 2 12 -0.07741587818 0 2 -0.07741587818 1
gene 1 3 12 0.7140804282 0 3 0.7140804282 1
gene 1 4 12 -1.681474232 0 4 -1.681474232 1
gene 1 5 12 -0.5754349734 0 5 -0.5754349734 0
gene 1 6 12 -0.3086733689 0 6 -0.3086733689 1
gene 1 7 12 -1.347089842 0 7 -1.347089842 0
gene 1 8 12 0.3071800803 0 8 0.3071800803 1
gene 1 9 12 1.356286511 0 9 1.356286511 1
gene 1 10 12 1.722529438 0 10 1.722529438 1
gene 1 11 12 0.5124090324 0 11 0.5124090324 0
gene 1 12 13 1.469119354 0 12 1.469119354 1
gene 1 12 14 -1.383852405 0 13 -1.383852405 1
gene 1 7 14 -0.5953873261 0 14 -0.5953873261 0
gene 1 7 13 -0.1159027572 0 15 -0.1159027572 1
gene 1 11 14 0.4378709635 0 20 0.4378709635 0
gene 1 11 13 0.2037385715 0 21 0.2037385715 0
gene 1 14 14 1.342536374 1 22 1.342536374 1
gene 1 1 13 -0.4616346507 0 31 -0.4616346507 1
gene 1 3 14 -1.113324792 0 33 -1.113324792 0
gene 1 5 13 -1.009985463 0 41 -1.009985463 1
gene 1 8 14 -0.4785523743 0 81 -0.4785523743 1
genomeend 61483
/* Novelty: 0 Fitness: 261.0466003 Generation: 0 Indiv: 61733 */
/* Point: 28.2267437 58.85454941 28.2267437 58.85454941 */

/* Organism #61510 Fitness: 261.0466003 Error: 0 */
genomestart 61510
trait 1 0.5491827849 0.3922314966 0.2363015392 0.2888133516 0.1772638975 0.1897208356 0.7503957944 0.5616367773 
node 1 1 1 3
node 2 1 1 1
node 3 1 1 1
node 4 1 1 1
node 5 1 1 1
node 6 1 1 1
node 7 1 1 1
node 8 1 1 1
node 9 1 1 1
node 10 1 1 1
node 11 1 1 1
node 12 1 0 0
node 13 1 0 2
node 14 1 0 2
gene 1 1 12 -0.2539780141 0 1 -0.2539780141 1
gene 1 2 12 -0.07741587818 0 2 -0.07741587818 1
gene 1 3 12 0.7140804282 0 3 0.7140804282 1
gene 1 4 12 -1.681474232 0 4 -1.681474232 1
gene 1 5 12 -0.5754349734 0 5 -0.5754349734 0
gene 1 6 12 -0.3086733689 0 6 -0.3086733689 1
gene 1 7 12 -1.347089842 0 7 -1.347089842 0
gene 1 8 12 0.3071800803 0 8 0.3071800803 1
gene 1 9 12 1.356286511 0 9 1.356286511 1
gene 1 10 12 1.722529438 0 10 1.722529438 1
gene 1 11 12 0.5124090324 0 11 0.5124090324 0
gene 1 12 13 1.469119354 0 12 1.469119354 1
gene 1 12 14 -1.383852405 0 13 -1.383852405 1
gene 1 7 14 -0.5953873261 0 14 -0.5953873261 0
gene 1 7 13 -0.1159027572 0 15 -0.1159027572 1
gene 1 11 14 0.4378709635 0 20 0.4378709635 0
gene 1 11 13 0.2037385715 0 21 0.2037385715 0
gene 1 14 14 1.342536374 1 22 1.342536374 1
gene 1 1 13 -0.4616346507 0 31 -0.4616346507 1
gene 1 3 14 -1.113324792 0 33 -1.113324792 0
gene 1 5 13 -1.009985463 0 41 -1.009985463 1
gene 1 8 14 -0.4785523743 0 81 -0.4785523743 1
genomeend 61510
/* Novelty: 0 Fitness: 261.0466003 Generation: 0 Indiv: 61760 */
/* Point: 28.2267437 58.85454941 28.2267437 58.85454941 */

/* Organism #61597 Fitness: 261.0466003 Error: 0 */
genomestart 61597
trait 1 0.3691035514 0.460111571 0.9455237835 0.3757766234 0 0.6551462482 0.8919559713 0.7335599376 
node 1 1 1 3
node 2 1 1 1
node 3 1 1 1
node 4 1 1 1
node 5 1 1 1
node 6 1 1 1
node 7 1 1 1
node 8 1 1 1
node 9 1 1 1
node 10 1 1 1
node 11 1 1 1
node 12 1 0 0
node 13 1 0 2
node 14 1 0 2
gene 1 1 12 -0.2539780141 0 1 -0.2539780141 1
gene 1 2 12 -0.07741587818 0 2 -0.07741587818 1
gene 1 3 12 0.7140804282 0 3 0.7140804282 1
gene 1 4 12 -1.681474232 0 4 -1.681474232 1
gene 1 5 12 -0.5754349734 0 5 -0.5754349734 0
gene 1 6 12 -0.3086733689 0 6 -0.3086733689 1
gene 1 7 12 -1.347089842 0 7 -1.347089842 0
gene 1 8 12 0.3071800803 0 8 0.3071800803 1
gene 1 9 12 1.356286511 0 9 1.356286511 1
gene 1 10 12 1.722529438 0 10 1.722529438 1
gene 1 11 12 0.5124090324 0 11 0.5124090324 0
gene 1 12 13 1.469119354 0 12 1.469119354 1
gene 1 12 14 -1.383852405 0 13 -1.383852405 1
gene 1 7 14 -0.5953873261 0 14 -0.5953873261 0
gene 1 7 13 -0.1159027572 0 15 -0.1159027572 1
gene 1 11 14 0.4378709635 0 20 0.4378709635 0
gene 1 11 13 0.2037385715 0 21 0.2037385715 0
gene 1 14 14 1.342536374 1 22 1.342536374 1
gene 1 1 13 -0.4616346507 0 31 -0.4616346507 1
gene 1 3 14 -1.113324792 0 33 -1.113324792 0
gene 1 5 13 -1.009985463 0 41 -1.009985463 1
gene 1 8 14 -0.4785523743 0 81 -0.4785523743 1
genomeend 61597
/* Novelty: 0 Fitness: 261.0466003 Generation: 0 Indiv: 61847 */
/* Point: 28.2267437 58.85454941 28.2267437 58.85454941 */

/* Organism #61901 Fitness: 261.0466003 Error: 0 */
genomestart 61901
trait 1 0.4697560374 0.388862989 0.478153538 0.5169596293 0.3432330127 0.3265241039 0.8982831885 0.639578333 
node 1 1 1 3
node 2 1 1 1
node 3 1 1 1
node 4 1 1 1
node 5 1 1 1
node 6 1 1 1
node 7 1 1 1
node 8 1 1 1
node 9 1 1 1
node 10 1 1 1
node 11 1 1 1
node 12 1 0 0
node 13 1 0 2
node 14 1 0 2
gene 1 1 12 -0.2539780141 0 1 -0.2539780141 1
gene 1 2 12 -0.07741587818 0 2 -0.07741587818 1
gene 1 3 12 0.7140804282 0 3 0.7140804282 1
gene 1 4 12 -1.681474232 0 4 -1.681474232 1
gene 1 5 12 -0.5754349734 0 5 -0.5754349734 0
gene 1 6 12 -0.3086733689 0 6 -0.3086733689 1
gene 1 7 12 -1.347089842 0 7 -1.347089842 0
gene 1 8 12 0.3071800803 0 8 0.3071800803 1
gene 1 9 12 1.356286511 0 9 1.356286511 1
gene 1 10 12 1.722529438 0 10 1.722529438 1
gene 1 11 12 0.5124090324 0 11 0.5124090324 0
gene 1 12 13 1.469119354 0 12 1.469119354 1
gene 1 12 14 -1.383852405 0 13 -1.383852405 1
gene 1 7 14 -0.5953873261 0 14 -0.5953873261 0
gene 1 7 13 -0.1159027572 0 15 -0.1159027572 1
gene 1 11 14 0.4378709635 0 20 0.4378709635 0
gene 1 11 13 0.2037385715 0 21 0.2037385715 0
gene 1 14 14 1.342536374 1 22 1.342536374 1
gene 1 1 13 -0.4616346507 0 31 -0.4616346507 1
gene 1 3 14 -1.113324792 0 33 -1.113324792 0
gene 1 5 13 -1.009985463 0 41 -1.009985463 1
gene 1 8 14 -0.4785523743 0 81 -0.4785523743 1
genomeend 61901
/* Novelty: 0 Fitness: 261.0466003 Generation: 0 Indiv: 62151 */
/* Point: 28.2267437 58.85454941 28.2267437 58.85454941 */

/* Organism #61906 Fitness: 261.0466003 Error: 0 */
genomestart 61906
trait 1 0.3931401774 0.4190250839 0.704477748 0.4334981547 0.1418639545 0.4745472437 0.903992576 0.6877981076 
node 1 1 1 3
node 2 1 1 1
node 3 1 1 1
node 4 1 1 1
node 5 1 1 1
node 6 1 1 1
node 7 1 1 1
node 8 1 1 1
node 9 1 1 1
node 10 1 1 1
node 11 1 1 1
node 12 1 0 0
node 13 1 0 2
node 14 1 0 2
gene 1 1 12 -0.2539780141 0 1 -0.2539780141 1
gene 1 2 12 -0.07741587818 0 2 -0.07741587818 1
gene 1 3 12 0.7140804282 0 3 0.7140804282 1
gene 1 4 12 -1.681474232 0 4 -1.681474232 1
gene 1 5 12 -0.5754349734 0 5 -0.5754349734 0
gene 1 6 12 -0.3086733689 0 6 -0.3086733689 1
gene 1 7 12 -1.347089842 0 7 -1.347089842 0
gene 1 8 12 0.3071800803 0 8 0.3071800803 1
gene 1 9 12 1.356286511 0 9 1.356286511 1
gene 1 10 12 1.722529438 0 10 1.722529438 1
gene 1 11 12 0.5124090324 0 11 0.5124090324 0
gene 1 12 13 1.469119354 0 12 1.469119354 1
gene 1 12 14 -1.383852405 0 13 -1.383852405 1
gene 1 7 14 -0.5953873261 0 14 -0.5953873261 0
gene 1 7 13 -0.1159027572 0 15 -0.1159027572 1
gene 1 11 14 0.4378709635 0 20 0.4378709635 0
gene 1 11 13 0.2037385715 0 21 0.2037385715 0
gene 1 14 14 1.342536374 1 22 1.342536374 1
gene 1 1 13 -0.4616346507 0 31 -0.4616346507 1
gene 1 3 14 -1.113324792 0 33 -1.113324792 0
gene 1 5 13 -1.009985463 0 41 -1.009985463 1
gene 1 8 14 -0.4785523743 0 81 -0.4785523743 1
genomeend 61906
/* Novelty: 0 Fitness: 261.0466003 Generation: 0 Indiv: 62156 */
/* Point: 28.2267437 58.85454941 28.2267437 58.85454941 */

/* Organism #61981 Fitness: 261.0466003 Error: 0 */
genomestart 61981
trait 1 0.41025653 0.4127239015 0.4066301233 0.4955222996 0.2875761519 0.2881678626 0.9163797676 0.6325927645 
node 1 1 1 3
node 2 1 1 1
node 3 1 1 1
node 4 1 1 1
node 5 1 1 1
node 6 1 1 1
node 7 1 1 1
node 8 1 1 1
node 9 1 1 1
node 10 1 1 1
node 11 1 1 1
node 12 1 0 0
node 13 1 0 2
node 14 1 0 2
gene 1 1 12 -0.2539780141 0 1 -0.2539780141 1
gene 1 2 12 -0.07741587818 0 2 -0.07741587818 1
gene 1 3 12 0.7140804282 0 3 0.7140804282 1
gene 1 4 12 -1.681474232 0 4 -1.681474232 1
gene 1 5 12 -0.5754349734 0 5 -0.5754349734 0
gene 1 6 12 -0.3086733689 0 6 -0.3086733689 1
gene 1 7 12 -1.347089842 0 7 -1.347089842 0
gene 1 8 12 0.3071800803 0 8 0.3071800803 1
gene 1 9 12 1.356286511 0 9 1.356286511 1
gene 1 10 12 1.722529438 0 10 1.722529438 1
gene 1 11 12 0.5124090324 0 11 0.5124090324 0
gene 1 12 13 1.469119354 0 12 1.469119354 1
gene 1 12 14 -1.383852405 0 13 -1.383852405 1
gene 1 7 14 -0.5953873261 0 14 -0.5953873261 0
gene 1 7 13 -0.1159027572 0 15 -0.1159027572 1
gene 1 11 14 0.4378709635 0 20 0.4378709635 0
gene 1 11 13 0.2037385715 0 21 0.2037385715 0
gene 1 14 14 1.342536374 1 22 1.342536374 1
gene 1 1 13 -0.4616346507 0 31 -0.4616346507 1
gene 1 3 14 -1.113324792 0 33 -1.113324792 0
gene 1 5 13 -1.009985463 0 41 -1.009985463 1
gene 1 8 14 -0.4785523743 0 81 -0.4785523743 1
genomeend 61981
/* Novelty: 0 Fitness: 261.0466003 Generation: 0 Indiv: 62231 */
/* Point: 28.2267437 58.85454941 28.2267437 58.85454941 */

/* Organism #62016 Fitness: 261.0466003 Error: 0 */
genomestart 62016
trait 1 0.3701896448 0.3880257842 0.5756379761 0.5516072302 0.3521229282 0.3767274271 0.9128834184 0.6939028917 
node 1 1 1 3
node 2 1 1 1
node 3 1 1 1
node 4 1 1 1
node 5 1 1 1
node 6 1 1 1
node 7 1 1 1
node 8 1 1 1
node 9 1 1 1
node 10 1 1 1
node 11 1 1 1
node 12 1 0 0
node 13 1 0 2
node 14 1 0 2
gene 1 1 12 -0.2539780141 0 1 -0.2539780141 1
gene 1 2 12 -0.07741587818 0 2 -0.07741587818 1
gene 1 3 12 0.7140804282 0 3 0.7140804282 1
gene 1 4 12 -1.681474232 0 4 -1.681474232 1
gene 1 5 12 -0.5754349734 0 5 -0.5754349734 0
gene 1 6 12 -0.3086733689 0 6 -0.3086733689 1
gene 1 7 12 -1.347089842 0 7 -1.347089842 1
gene 1 8 12 0.3071800803 0 8 0.3071800803 1
gene 1 9 12 1.356286511 0 9 1.356286511 1
gene 1 10 12 1.722529438 0 10 1.722529438 1
gene 1 11 12 0.5124090324 0 11 0.5124090324 0
gene 1 12 13 1.469119354 0 12 1.469119354 1
gene 1 12 14 -1.383852405 0 13 -1.383852405 1
gene 1 7 14 -0.5953873261 0 14 -0.5953873261 0
gene 1 7 13 -0.1159027572 0 15 -0.1159027572 1
gene 1 11 14 0.4378709635 0 20 0.4378709635 0
gene 1 11 13 0.2037385715 0 21 0.2037385715 0
gene 1 14 14 1.342536374 1 22 1.342536374 1
gene 1 1 13 -0.4616346507 0 31 -0.4616346507 1
gene 1 3 14 -1.113324792 0 33 -1.113324792 0
gene 1 5 13 -1.009985463 0 41 -1.009985463 1
gene 1 8 14 -0.4785523743 0 81 -0.4785523743 1
genomeend 62016
/* Novelty: 0 Fitness: 261.0466003 Generation: 0 Indiv: 62266 */
/* Point: 28.2267437 58.85454941 28.2267437 58.85454941 */

/* Organism #62067 Fitness: 261.0466003 Error: 0 */
genomestart 62067
trait 1 0.3232024863 0.3981129715 0.6878442396 0.6119947745 0.4205179473 0.459506615 0.9097376562 0.7457695056 
node 1 1 1 3
node 2 1 1 1
node 3 1 1 1
node 4 1 1 1
node 5 1 1 1
node 6 1 1 1
node 7 1 1 1
node 8 1 1 1
node 9 1 1 1
node 10 1 1 1
node 11 1 1 1
node 12 1 0 0
node 13 1 0 2
node 14 1 0 2
gene 1 1 12 -0.2539780141 0 1 -0.2539780141 1
gene 1 2 12 -0.07741587818 0 2 -0.07741587818 1
gene 1 3 12 0.7140804282 0 3 0.7140804282 1
gene 1 4 12 -1.681474232 0 4 -1.681474232 1
gene 1 5 12 -0.5754349734 0 5 -0.5754349734 0
gene 1 6 12 -0.3086733689 0 6 -0.3086733689 1
gene 1 7 12 -1.347089842 0 7 -1.347089842 0
gene 1 8 12 0.3071800803 0 8 0.3071800803 1
gene 1 9 12 1.356286511 0 9 1.356286511 1
gene 1 10 12 1.722529438 0 10 1.722529438 1
gene 1 11 12 0.5124090324 0 11 0.5124090324 0
gene 1 12 13 1.469119354 0 12 1.469119354 1
gene 1 12 14 -1.383852405 0 13 -1.383852405 1
gene 1 7 14 -0.5953873261 0 14 -0.5953873261 0
gene 1 7 13 -0.1159027572 0 15 -0.1159027572 1
gene 1 11 14 0.4378709635 0 20 0.4378709635 1
gene 1 11 13 0.2037385715 0 21 0.2037385715 0
gene 1 14 14 1.342536374 1 22 1.342536374 1
gene 1 1 13 -0.4616346507 0 31 -0.4616346507 1
gene 1 3 14 -1.113324792 0 33 -1.113324792 0
gene 1 5 13 -1.009985463 0 41 -1.009985463 1
gene 1 8 14 -0.4785523743 0 81 -0.4785523743 1
genomeend 62067
/* Novelty: 0 Fitness: 261.0466003 Generation: 0 Indiv: 62317 */
/* Point: 28.2267437 58.85454941 28.2267437 58.85454941 */

/* Organism #62068 Fitness: 261.0466003 Error: 0 */
genomestart 62068
trait 1 0.4932779983 0.3554730826 0.5273107159 0.552784675 0.3240585091 0.2812844868 0.9266882343 0.5667730959 
node 1 1 1 3
node 2 1 1 1
node 3 1 1 1
node 4 1 1 1
node 5 1 1 1
node 6 1 1 1
node 7 1 1 1
node 8 1 1 1
node 9 1 1 1
node 10 1 1 1
node 11 1 1 1
node 12 1 0 0
node 13 1 0 2
node 14 1 0 2
gene 1 1 12 -0.2539780141 0 1 -0.2539780141 1
gene 1 2 12 -0.07741587818 0 2 -0.07741587818 1
gene 1 3 12 0.7140804282 0 3 0.7140804282 1
gene 1 4 12 -1.681474232 0 4 -1.681474232 1
gene 1 5 12 -0.5754349734 0 5 -0.5754349734 0
gene 1 6 12 -0.3086733689 0 6 -0.3086733689 1
gene 1 7 12 -1.347089842 0 7 -1.347089842 0
gene 1 8 12 0.3071800803 0 8 0.3071800803 1
gene 1 9 12 1.356286511 0 9 1.356286511 1
gene 1 10 12 1.722529438 0 10 1.722529438 1
gene 1 11 12 0.5124090324 0 11 0.5124090324 0
gene 1 12 13 1.469119354 0 12 1.469119354 1
gene 1 12 14 -1.383852405 0 13 -1.383852405 1
gene 1 7 14 -0.5953873261 0 14 -0.5953873261 0
gene 1 7 13 -0.1159027572 0 15 -0.1159027572 1
gene 1 11 14 0.4378709635 0 20 0.4378709635 0
gene 1 11 13 0.2037385715 0 21 0.2037385715 0
gene 1 14 14 1.342536374 1 22 1.342536374 1
gene 1 1 13 -0.4616346507 0 31 -0.4616346507 1
gene 1 3 14 -1.113324792 0 33 -1.113324792 0
gene 1 5 13 -1.009985463 0 41 -1.009985463 1
gene 1 8 14 -0.4785523743 0 81 -0.4785523743 1
genomeend 62068
/* Novelty: 0 Fitness: 261.0466003 Generation: 0 Indiv: 62318 */
/* Point: 28.2267437 58.85454941 28.2267437 58.85454941 */

/* Organism #62141 Fitness: 261.0466003 Error: 0 */
genomestart 62141
trait 1 0.416934699 0.3616496942 0.4837039976 0.4913554078 0.3319382303 0.2736065366 0.9164154603 0.6423443878 
node 1 1 1 3
node 2 1 1 1
node 3 1 1 1
node 4 1 1 1
node 5 1 1 1
node 6 1 1 1
node 7 1 1 1
node 8 1 1 1
node 9 1 1 1
node 10 1 1 1
node 11 1 1 1
node 12 1 0 0
node 13 1 0 2
node 14 1 0 2
gene 1 1 12 -0.2539780141 0 1 -0.2539780141 1
gene 1 2 12 -0.07741587818 0 2 -0.07741587818 1
gene 1 3 12 0.7140804282 0 3 0.7140804282 1
gene 1 4 12 -1.681474232 0 4 -1.681474232 1
gene 1 5 12 -0.5754349734 0 5 -0.5754349734 0
gene 1 6 12 -0.3086733689 0 6 -0.3086733689 1
gene 1 7 12 -1.347089842 0 7 -1.347089842 1
gene 1 8 12 0.3071800803 0 8 0.3071800803 1
gene 1 9 12 1.356286511 0 9 1.356286511 1
gene 1 10 12 1.722529438 0 10 1.722529438 1
gene 1 11 12 0.5124090324 0 11 0.5124090324 0
gene 1 12 13 1.469119354 0 12 1.469119354 1
gene 1 12 14 -1.383852405 0 13 -1.383852405 1
gene 1 7 14 -0.5953873261 0 14 -0.5953873261 0
gene 1 7 13 -0.1159027572 0 15 -0.1159027572 1
gene 1 11 14 0.4378709635 0 20 0.4378709635 0
gene 1 11 13 0.2037385715 0 21 0.2037385715 0
gene 1 14 14 1.342536374 1 22 1.342536374 1
gene 1 1 13 -0.4616346507 0 31 -0.4616346507 1
gene 1 3 14 -1.113324792 0 33 -1.113324792 0
gene 1 5 13 -1.009985463 0 41 -1.009985463 1
gene 1 8 14 -0.4785523743 0 81 -0.4785523743 1
genomeend 62141
/* Novelty: 0 Fitness: 261.0466003 Generation: 0 Indiv: 62391 */
/* Point: 28.2267437 58.85454941 28.2267437 58.85454941 */

/* Organism #62172 Fitness: 261.0466003 Error: 0 */
genomestart 62172
trait 1 0.7151455185 0.3554396501 0.6216015667 0.7415108122 0.3524779094 0.2781962581 0.9582434228 0.3309238172 
node 1 1 1 3
node 2 1 1 1
node 3 1 1 1
node 4 1 1 1
node 5 1 1 1
node 6 1 1 1
node 7 1 1 1
node 8 1 1 1
node 9 1 1 1
node 10 1 1 1
node 11 1 1 1
node 12 1 0 0
node 13 1 0 2
node 14 1 0 2
gene 1 1 12 -0.2539780141 0 1 -0.2539780141 1
gene 1 2 12 -0.07741587818 0 2 -0.07741587818 1
gene 1 3 12 0.7140804282 0 3 0.7140804282 1
gene 1 4 12 -1.681474232 0 4 -1.681474232 1
gene 1 5 12 -0.5754349734 0 5 -0.5754349734 0
gene 1 6 12 -0.3086733689 0 6 -0.3086733689 1
gene 1 7 12 -1.347089842 0 7 -1.347089842 0
gene 1 8 12 0.3071800803 0 8 0.3071800803 1
gene 1 9 12 1.356286511 0 9 1.356286511 1
gene 1 10 12 1.722529438 0 10 1.722529438 1
gene 1 11 12 0.5124090324 0 11 0.5124090324 0
gene 1 12 13 1.469119354 0 12 1.469119354 1
gene 1 12 14 -1.383852405 0 13 -1.383852405 1
gene 1 7 14 -0.5953873261 0 14 -0.5953873261 0
gene 1 7 13 -0.1159027572 0 15 -0.1159027572 1
gene 1 11 14 0.4378709635 0 20 0.4378709635 1
gene 1 11 13 0.2037385715 0 21 0.2037385715 0
gene 1 14 14 1.342536374 1 22 1.342536374 1
gene 1 1 13 -0.4616346507 0 31 -0.4616346507 1
gene 1 3 14 -1.113324792 0 33 -1.113324792 0
gene 1 5 13 -1.009985463 0 41 -1.009985463 1
gene 1 8 14 -0.4785523743 0 81 -0.4785523743 1
genomeend 62172
/* Novelty: 0 Fitness: 261.0466003 Generation: 0 Indiv: 62422 */
/* Point: 28.2267437 58.85454941 28.2267437 58.85454941 */

/* Organism #62289 Fitness: 261.0466003 Error: 0 */
genomestart 62289
trait 1 0.4830587419 0.3769405954 0.3600027684 0.3900843797 0.2546010639 0.2316636861 0.8334056273 0.6019905826 
node 1 1 1 3
node 2 1 1 1
node 3 1 1 1
node 4 1 1 1
node 5 1 1 1
node 6 1 1 1
node 7 1 1 1
node 8 1 1 1
node 9 1 1 1
node 10 1 1 1
node 11 1 1 1
node 12 1 0 0
node 13 1 0 2
node 14 1 0 2
gene 1 1 12 -0.2539780141 0 1 -0.2539780141 1
gene 1 2 12 -0.07741587818 0 2 -0.07741587818 1
gene 1 3 12 0.7140804282 0 3 0.7140804282 1
gene 1 4 12 -1.681474232 0 4 -1.681474232 1
gene 1 5 12 -0.5754349734 0 5 -0.5754349734 0
gene 1 6 12 -0.3086733689 0 6 -0.3086733689 1
gene 1 7 12 -1.347089842 0 7 -1.347089842 0
gene 1 8 12 0.3071800803 0 8 0.3071800803 1
gene 1 9 12 1.356286511 0 9 1.356286511 1
gene 1 10 12 1.722529438 0 10 1.722529438 1
gene 1 11 12 0.5124090324 0 11 0.5124090324 0
gene 1 12 13 1.469119354 0 12 1.469119354 1
gene 1 12 14 -1.383852405 0 13 -1.383852405 1
gene 1 7 14 -0.5953873261 0 14 -0.5953873261 0
gene 1 7 13 -0.1159027572 0 15 -0.1159027572 1
gene 1 11 14 0.4378709635 0 20 0.4378709635 0
gene 1 11 13 0.2037385715 0 21 0.2037385715 0
gene 1 14 14 1.342536374 1 22 1.342536374 1
gene 1 1 13 -0.4616346507 0 31 -0.4616346507 1
gene 1 3 14 -1.113324792 0 33 -1.113324792 0
gene 1 5 13 -1.009985463 0 41 -1.009985463 1
gene 1 8 14 -0.4785523743 0 81 -0.4785523743 1
genomeend 62289
/* Novelty: 0 Fitness: 261.0466003 Generation: 0 Indiv: 62539 */
/* Point: 28.2267437 58.85454941 28.2267437 58.85454941 */

/* Organism #62365 Fitness: 261.0466003 Error: 0 */
genomestart 62365
trait 1 0.6065886768 0.3840691896 0.4961563321 0.6592968988 0.3062337924 0.3151097561 0.9072871921 0.477184839 
node 1 1 1 3
node 2 1 1 1
node 3 1 1 1
node 4 1 1 1
node 5 1 1 1
node 6 1 1 1
node 7 1 1 1
node 8 1 1 1
node 9 1 1 1
node 10 1 1 1
node 11 1 1 1
node 12 1 0 0
node 13 1 0 2
node 14 1 0 2
gene 1 1 12 -0.2539780141 0 1 -0.2539780141 1
gene 1 2 12 -0.07741587818 0 2 -0.07741587818 1
gene 1 3 12 0.7140804282 0 3 0.7140804282 1
gene 1 4 12 -1.681474232 0 4 -1.681474232 1
gene 1 5 12 -0.5754349734 0 5 -0.5754349734 0
gene 1 6 12 -0.3086733689 0 6 -0.3086733689 1
gene 1 7 12 -1.347089842 0 7 -1.347089842 0
gene 1 8 12 0.3071800803 0 8 0.3071800803 1
gene 1 9 12 1.356286511 0 9 1.356286511 1
gene 1 10 12 1.722529438 0 10 1.722529438 1
gene 1 11 12 0.5124090324 0 11 0.5124090324 0
gene 1 12 13 1.469119354 0 12 1.469119354 1
gene 1 12 14 -1.383852405 0 13 -1.383852405 1
gene 1 7 14 -0.5953873261 0 14 -0.5953873261 0
gene 1 7 13 -0.1159027572 0 15 -0.1159027572 1
gene 1 11 14 0.4378709635 0 20 0.4378709635 0
gene 1 11 13 0.2037385715 0 21 0.2037385715 0
gene 1 14 14 1.342536374 1 22 1.342536374 1
gene 1 1 13 -0.4616346507 0 31 -0.4616346507 1
gene 1 3 14 -1.113324792 0 33 -1.113324792 0
gene 1 5 13 -1.009985463 0 41 -1.009985463 1
gene 1 8 14 -0.4785523743 0 81 -0.4785523743 1
genomeend 62365
/* Novelty: 0 Fitness: 261.0466003 Generation: 0 Indiv: 62615 */
/* Point: 28.2267437 58.85454941 28.2267437 58.85454941 */

/* Organism #62476 Fitness: 261.0466003 Error: 0 */
genomestart 62476
trait 1 0.5660401088 0.3585446721 0.5526527822 0.61643311 0.3422080699 0.2759013974 0.9373294416 0.4866341025 
node 1 1 1 3
node 2 1 1 1
node 3 1 1 1
node 4 1 1 1
node 5 1 1 1
node 6 1 1 1
node 7 1 1 1
node 8 1 1 1
node 9 1 1 1
node 10 1 1 1
node 11 1 1 1
node 12 1 0 0
node 13 1 0 2
node 14 1 0 2
gene 1 1 12 -0.2539780141 0 1 -0.2539780141 1
gene 1 2 12 -0.07741587818 0 2 -0.07741587818 1
gene 1 3 12 0.7140804282 0 3 0.7140804282 1
gene 1 4 12 -1.681474232 0 4 -1.681474232 1
gene 1 5 12 -0.5754349734 0 5 -0.5754349734 0
gene 1 6 12 -0.3086733689 0 6 -0.3086733689 1
gene 1 7 12 -1.347089842 0 7 -1.347089842 0
gene 1 8 12 0.3071800803 0 8 0.3071800803 1
gene 1 9 12 1.356286511 0 9 1.356286511 1
gene 1 10 12 1.722529438 0 10 1.722529438 1
gene 1 11 12 0.5124090324 0 11 0.5124090324 0
gene 1 12 13 1.469119354 0 12 1.469119354 1
gene 1 12 14 -1.383852405 0 13 -1.383852405 1
gene 1 7 14 -0.5953873261 0 14 -0.5953873261 0
gene 1 7 13 -0.1159027572 0 15 -0.1159027572 1
gene 1 11 14 0.4378709635 0 20 0.4378709635 0
gene 1 11 13 0.2037385715 0 21 0.2037385715 0
gene 1 14 14 1.342536374 1 22 1.342536374 1
gene 1 1 13 -0.4616346507 0 31 -0.4616346507 1
gene 1 3 14 -1.113324792 0 33 -1.113324792 0
