
/* Species #1 : (Size 17) (AF 0) (Age 1)  */


/* Organism #190952 Fitness: 8.07255 Error: 0 */
genomestart 190952
trait 1 1 0.8837617991 0.809173143 0.6021849304 0.2531465856 0 0.9753518579 0.7526120023 
node 1 1 1 3
node 2 1 1 1
node 3 1 1 1
node 4 1 1 1
node 5 1 1 1
node 6 1 1 1
node 7 1 1 1
node 8 1 1 1
node 9 1 1 1
node 10 1 1 1
node 11 1 1 1
node 12 1 0 0
node 13 1 0 2
node 14 1 0 2
node 22 1 0 0
gene 1 1 12 -0.6939495526 0 1 -0.6939495526 1
gene 1 2 12 0.7159290923 0 2 0.7159290923 1
gene 1 3 12 -1.231002876 0 3 -1.231002876 1
gene 1 4 12 -2.355085182 0 4 -2.355085182 1
gene 1 5 12 -0.709879714 0 5 -0.709879714 0
gene 1 6 12 2.08398054 0 6 2.08398054 1
gene 1 7 12 0.252225785 0 7 0.252225785 1
gene 1 8 12 -1.459137334 0 8 -1.459137334 1
gene 1 9 12 1.143749869 0 9 1.143749869 1
gene 1 10 12 0.740245109 0 10 0.740245109 1
gene 1 11 12 -0.8704183868 0 11 -0.8704183868 1
gene 1 12 13 -0.6623315707 0 12 -0.6623315707 1
gene 1 12 14 0.8780824528 0 13 0.8780824528 1
gene 1 3 13 -1.824890722 0 14 -1.824890722 1
gene 1 10 13 0.4656752584 0 15 0.4656752584 1
gene 1 2 14 -0.5264922003 0 16 -0.5264922003 1
gene 1 8 14 2.82267636 0 17 2.82267636 1
gene 1 9 14 -0.3758267504 0 19 -0.3758267504 1
gene 1 6 13 2.1182902 0 20 2.1182902 1
gene 1 11 13 -0.4883258328 0 24 -0.4883258328 1
gene 1 2 13 0.06531303798 0 26 0.06531303798 1
gene 1 7 13 0.3913401415 0 27 0.3913401415 1
gene 1 11 14 0.2471300346 0 28 0.2471300346 1
gene 1 5 14 -0.4969182242 0 31 -0.4969182242 1
gene 1 4 14 1.088110201 0 32 1.088110201 1
gene 1 13 13 -0.1310245879 1 42 -0.1310245879 1
gene 1 10 14 1.336978668 0 46 1.336978668 1
gene 1 14 13 -0.1397217751 0 48 -0.1397217751 1
gene 1 3 14 -0.1465213264 0 52 -0.1465213264 1
gene 1 14 14 1.095739726 1 57 1.095739726 1
gene 1 5 22 1 0 117 0 1
gene 1 22 12 -0.2129639142 0 118 0 1
gene 1 4 22 -0.5924113945 0 218 0 1
gene 1 12 12 -0.2767242351 1 334 -0.2767242351 1
genomeend 190952
/* Novelty: 1.329616547 Fitness: 139.5515747 Generation: 851 Indiv: 191202 */
/* Point: 167.8629303 103.7390976 167.8629303 103.7390976 */

/* Organism #212270 Fitness: 8.018473625 Error: 0 */
genomestart 212270
trait 1 0.7983684215 0.8837617991 0.809173143 0.7409620393 0.2531465856 0 0.9753518579 0.7526120023 
node 1 1 1 3
node 2 1 1 1
node 3 1 1 1
node 4 1 1 1
node 5 1 1 1
node 6 1 1 1
node 7 1 1 1
node 8 1 1 1
node 9 1 1 1
node 10 1 1 1
node 11 1 1 1
node 12 1 0 0
node 13 1 0 2
node 14 1 0 2
node 30 1 0 0
gene 1 1 12 0.352186237 0 1 0.352186237 1
gene 1 2 12 -0.4441677228 0 2 -0.4441677228 1
gene 1 3 12 -0.4771258245 0 3 -0.4771258245 1
gene 1 4 12 -1.375356867 0 4 -1.375356867 1
gene 1 5 12 -1.096685763 0 5 -1.096685763 1
gene 1 6 12 1.318772236 0 6 1.318772236 1
gene 1 7 12 0.1591792102 0 7 0.1591792102 1
gene 1 8 12 0.1034597703 0 8 0.1034597703 1
gene 1 9 12 1.884471756 0 9 1.884471756 1
gene 1 10 12 -0.2690483259 0 10 -0.2690483259 1
gene 1 11 12 -0.5897472995 0 11 -0.5897472995 1
gene 1 12 13 -0.3308882614 0 12 -0.3308882614 0
gene 1 12 14 1.191434792 0 13 1.191434792 1
gene 1 3 13 -2.598115917 0 14 -2.598115917 1
gene 1 10 13 0.03868545435 0 15 0.03868545435 1
gene 1 2 14 0.6298795368 0 16 0.6298795368 1
gene 1 8 14 2.289705477 0 17 2.289705477 1
gene 1 9 14 -0.2649146876 0 19 -0.2649146876 1
gene 1 6 13 2.048129711 0 20 2.048129711 1
gene 1 11 13 -0.260449017 0 24 -0.260449017 1
gene 1 2 13 -0.2345649034 0 26 -0.2345649034 1
gene 1 7 13 -0.1405856603 0 27 -0.1405856603 1
gene 1 11 14 -0.1774824754 0 28 -0.1774824754 0
gene 1 7 14 0.04354905339 0 30 0 1
gene 1 5 14 -1.363957412 0 31 -1.363957412 1
gene 1 9 13 -0.5445567897 0 40 -0.5445567897 1
gene 1 13 13 -0.02806663381 1 42 -0.02806663381 1
gene 1 10 14 0.5246864547 0 46 0.5246864547 1
gene 1 3 14 -0.4604995182 0 52 -0.4604995182 1
gene 1 14 14 1.393050255 1 57 1.393050255 1
gene 1 11 30 0.8836151536 0 221 0.8836151536 1
gene 1 30 14 0.1167212689 0 222 0.1167212689 1
gene 1 12 12 -0.1772633745 1 334 -0.1772633745 1
gene 1 3 30 0.5755451956 0 3426 0.5755451956 0
genomeend 212270
/* Novelty: 1.109169006 Fitness: 174.6679688 Generation: 851 Indiv: 212520 */
/* Point: 126.4734344 101.1969299 126.4734344 101.1969299 */

/* Organism #210316 Fitness: 8.018473625 Error: 0 */
genomestart 210316
trait 1 0.7983684215 0.8837617991 0.809173143 0.7409620393 0.2531465856 0 0.9753518579 0.7526120023 
node 1 1 1 3
node 2 1 1 1
node 3 1 1 1
node 4 1 1 1
node 5 1 1 1
node 6 1 1 1
node 7 1 1 1
node 8 1 1 1
node 9 1 1 1
node 10 1 1 1
node 11 1 1 1
node 12 1 0 0
node 13 1 0 2
node 14 1 0 2
node 30 1 0 0
gene 1 1 12 0.352186237 0 1 0.352186237 1
gene 1 2 12 -0.4441677228 0 2 -0.4441677228 1
gene 1 3 12 -0.4771258245 0 3 -0.4771258245 1
gene 1 4 12 -1.375356867 0 4 -1.375356867 1
gene 1 5 12 -1.096685763 0 5 -1.096685763 1
gene 1 6 12 1.318772236 0 6 1.318772236 1
gene 1 7 12 0.1591792102 0 7 0.1591792102 1
gene 1 8 12 0.1034597703 0 8 0.1034597703 1
gene 1 9 12 1.884471756 0 9 1.884471756 1
gene 1 10 12 -0.2690483259 0 10 -0.2690483259 1
gene 1 11 12 -0.5897472995 0 11 -0.5897472995 1
gene 1 12 13 -0.3308882614 0 12 -0.3308882614 0
gene 1 12 14 1.191434792 0 13 1.191434792 1
gene 1 3 13 -2.598115917 0 14 -2.598115917 1
gene 1 10 13 0.03868545435 0 15 0.03868545435 1
gene 1 2 14 0.6298795368 0 16 0.6298795368 1
gene 1 8 14 2.289705477 0 17 2.289705477 1
gene 1 9 14 -0.2649146876 0 19 -0.2649146876 1
gene 1 6 13 2.048129711 0 20 2.048129711 1
gene 1 11 13 -0.260449017 0 24 -0.260449017 1
gene 1 2 13 -0.2345649034 0 26 -0.2345649034 1
gene 1 7 13 -0.1405856603 0 27 -0.1405856603 1
gene 1 11 14 -0.1774824754 0 28 -0.1774824754 0
gene 1 7 14 0.04354905339 0 30 0 1
gene 1 5 14 -1.363957412 0 31 -1.363957412 1
gene 1 9 13 -0.5445567897 0 40 -0.5445567897 1
gene 1 13 13 -0.02806663381 1 42 -0.02806663381 1
gene 1 10 14 0.5246864547 0 46 0.5246864547 1
gene 1 3 14 -0.4604995182 0 52 -0.4604995182 1
gene 1 14 14 1.393050255 1 57 1.393050255 1
gene 1 11 30 0.8836151536 0 221 0.8836151536 1
gene 1 30 14 0.1167212689 0 222 0.1167212689 1
gene 1 12 12 -0.1772633745 1 334 -0.1772633745 1
gene 1 3 30 0.5755451956 0 3426 0.5755451956 0
genomeend 210316
/* Novelty: 1.109169006 Fitness: 174.6679688 Generation: 851 Indiv: 210566 */
/* Point: 126.4734344 101.1969299 126.4734344 101.1969299 */

/* Organism #209831 Fitness: 7.754154682 Error: 0 */
genomestart 209831
trait 1 1 0.8837617991 0.809173143 0.6021849304 0.2531465856 0 0.9753518579 0.7526120023 
node 1 1 1 3
node 2 1 1 1
node 3 1 1 1
node 4 1 1 1
node 5 1 1 1
node 6 1 1 1
node 7 1 1 1
node 8 1 1 1
node 9 1 1 1
node 10 1 1 1
node 11 1 1 1
node 12 1 0 0
node 13 1 0 2
node 14 1 0 2
gene 1 1 12 -0.6939495526 0 1 -0.6939495526 1
gene 1 2 12 0.7159290923 0 2 0.7159290923 1
gene 1 3 12 -1.231002876 0 3 -1.231002876 1
gene 1 4 12 -2.355085182 0 4 -2.355085182 1
gene 1 5 12 -0.709879714 0 5 -0.709879714 1
gene 1 6 12 2.08398054 0 6 2.08398054 1
gene 1 7 12 0.252225785 0 7 0.252225785 1
gene 1 8 12 -1.459137334 0 8 -1.459137334 1
gene 1 9 12 1.143749869 0 9 1.143749869 1
gene 1 10 12 0.740245109 0 10 0.740245109 1
gene 1 11 12 -0.8704183868 0 11 -0.8704183868 1
gene 1 12 13 -0.6623315707 0 12 -0.6623315707 1
gene 1 12 14 0.8780824528 0 13 0.8780824528 1
gene 1 3 13 -1.824890722 0 14 -1.824890722 1
gene 1 10 13 0.4656752584 0 15 0.4656752584 1
gene 1 2 14 -0.5264922003 0 16 -0.5264922003 1
gene 1 8 14 2.82267636 0 17 2.82267636 1
gene 1 9 14 -0.3758267504 0 19 -0.3758267504 1
gene 1 6 13 2.1182902 0 20 2.1182902 1
gene 1 11 13 -0.4883258328 0 24 -0.4883258328 1
gene 1 2 13 0.06531303798 0 26 0.06531303798 1
gene 1 7 13 0.3913401415 0 27 0.3913401415 1
gene 1 11 14 0.2471300346 0 28 0.2471300346 1
gene 1 5 14 -0.4969182242 0 31 -0.4969182242 0
gene 1 4 14 1.088110201 0 32 1.088110201 1
gene 1 13 13 -0.1310245879 1 42 -0.1310245879 1
gene 1 10 14 1.336978668 0 46 1.336978668 1
gene 1 14 13 -0.1397217751 0 48 -0.1397217751 1
gene 1 3 14 -0.1465213264 0 52 -0.1465213264 1
gene 1 14 14 1.095739726 1 57 1.095739726 1
gene 1 12 12 -0.2767242351 1 334 -0.2767242351 1
genomeend 209831
/* Novelty: 1.675537109 Fitness: 129.3843536 Generation: 851 Indiv: 210081 */
/* Point: 166.548111 123.6166458 166.548111 123.6166458 */

/* Organism #199697 Fitness: 7.598232746 Error: 0 */
genomestart 199697
trait 1 0.8991842108 0.5866289271 0.809173143 0.8010924652 0.2531465856 0 0.7778347249 0.7526120023 
node 1 1 1 3
node 2 1 1 1
node 3 1 1 1
node 4 1 1 1
node 5 1 1 1
node 6 1 1 1
node 7 1 1 1
node 8 1 1 1
node 9 1 1 1
node 10 1 1 1
node 11 1 1 1
node 12 1 0 0
node 13 1 0 2
node 14 1 0 2
node 30 1 0 0
gene 1 1 12 0.4075506888 0 1 0.4075506888 1
gene 1 2 12 0.8821910469 0 2 0.8821910469 1
gene 1 3 12 -1.139594704 0 3 -1.139594704 1
gene 1 4 12 -2.677906656 0 4 -2.677906656 1
gene 1 5 12 0.1923230114 0 5 0.1923230114 1
gene 1 6 12 2.053274704 0 6 2.053274704 1
gene 1 7 12 -0.09207299278 0 7 -0.09207299278 1
gene 1 8 12 -0.9500756459 0 8 -0.9500756459 1
gene 1 9 12 0.1650776351 0 9 0.1650776351 1
gene 1 10 12 0.5054829527 0 10 0.5054829527 1
gene 1 11 12 -1.506936849 0 11 -1.506936849 1
gene 1 12 13 -0.1804241144 0 12 -0.1804241144 0
gene 1 12 14 1.527171928 0 13 1.527171928 1
gene 1 3 13 -2.459668564 0 14 -2.459668564 1
gene 1 10 13 1.111322175 0 15 1.111322175 1
gene 1 2 14 0.5504666802 0 16 0.5504666802 1
gene 1 8 14 2.4122988 0 17 2.4122988 1
gene 1 9 14 -0.6219653872 0 19 -0.6219653872 1
gene 1 6 13 2.61098552 0 20 2.61098552 1
gene 1 11 13 -0.8685789839 0 24 -0.8685789839 1
gene 1 2 13 -0.6815351029 0 26 -0.6815351029 1
gene 1 7 13 0.4900234871 0 27 0.4900234871 1
gene 1 11 14 -0.967577266 0 28 -0.967577266 1
gene 1 5 14 -1.156658655 0 31 -1.156658655 1
gene 1 4 14 0.9241596562 0 32 0.9241596562 1
gene 1 9 13 0.04514244797 0 40 0.04514244797 1
gene 1 13 13 0.6162655024 1 42 0.6162655024 1
gene 1 10 14 0.1845761002 0 46 0.1845761002 1
gene 1 14 13 -0.3171481771 0 48 -0.3171481771 1
gene 1 3 14 -0.1318321649 0 52 -0.1318321649 1
gene 1 14 14 -0.3623412801 1 57 -0.3623412801 1
gene 1 11 30 0.0192863904 0 221 0.0192863904 1
gene 1 30 14 0.04896651658 0 222 0.04896651658 1
gene 1 12 12 0.1226793747 1 334 0.1226793747 1
gene 1 3 30 0.8369754519 0 3426 0.8369754519 1
genomeend 199697
/* Novelty: 1.962228775 Fitness: 227.0625305 Generation: 851 Indiv: 199947 */
/* Point: 97.44450378 50.08323288 97.44450378 50.08323288 */

/* Organism #211108 Fitness: 7.533980846 Error: 0 */
genomestart 211108
trait 1 1 0.8456644882 1 0.2716693616 0.2531465856 0 0.9753518579 0.3913170089 
node 1 1 1 3
node 2 1 1 1
node 3 1 1 1
node 4 1 1 1
node 5 1 1 1
node 6 1 1 1
node 7 1 1 1
node 8 1 1 1
node 9 1 1 1
node 10 1 1 1
node 11 1 1 1
node 12 1 0 0
node 13 1 0 2
node 14 1 0 2
node 22 1 0 0
gene 1 1 12 -0.6939495526 0 1 -0.6939495526 1
gene 1 2 12 0.7159290923 0 2 0.7159290923 1
gene 1 3 12 -1.231002876 0 3 -1.231002876 1
gene 1 4 12 -2.355085182 0 4 -2.355085182 1
gene 1 5 12 -0.709879714 0 5 -0.709879714 0
gene 1 6 12 2.08398054 0 6 2.08398054 1
gene 1 7 12 0.252225785 0 7 0.252225785 1
gene 1 8 12 -1.459137334 0 8 -1.459137334 1
gene 1 9 12 1.143749869 0 9 1.143749869 1
gene 1 10 12 0.740245109 0 10 0.740245109 1
gene 1 11 12 -0.8704183868 0 11 -0.8704183868 1
gene 1 12 13 -0.6623315707 0 12 -0.6623315707 1
gene 1 12 14 0.8780824528 0 13 0.8780824528 1
gene 1 3 13 -1.824890722 0 14 -1.824890722 1
gene 1 10 13 0.4656752584 0 15 0.4656752584 1
gene 1 2 14 -0.5264922003 0 16 -0.5264922003 1
gene 1 8 14 2.82267636 0 17 2.82267636 1
gene 1 9 14 -0.3758267504 0 19 -0.3758267504 1
gene 1 6 13 2.1182902 0 20 2.1182902 1
gene 1 11 13 -0.4883258328 0 24 -0.4883258328 1
gene 1 2 13 0.06531303798 0 26 0.06531303798 1
gene 1 7 13 0.3913401415 0 27 0.3913401415 1
gene 1 11 14 0.2471300346 0 28 0.2471300346 1
gene 1 5 14 -0.4969182242 0 31 -0.4969182242 0
gene 1 4 14 1.088110201 0 32 1.088110201 1
gene 1 13 13 -0.1310245879 1 42 -0.1310245879 1
gene 1 10 14 1.336978668 0 46 1.336978668 1
gene 1 14 13 -0.1397217751 0 48 -0.1397217751 1
gene 1 3 14 -0.1465213264 0 52 -0.1465213264 1
gene 1 14 14 1.095739726 1 57 1.095739726 1
gene 1 5 22 1 0 117 0 1
gene 1 22 12 -0.2129639142 0 118 0 1
gene 1 4 22 -0.5924113945 0 218 0 1
gene 1 12 12 -0.2767242351 1 334 -0.2767242351 1
genomeend 211108
/* Novelty: 1.566482544 Fitness: 140.2344818 Generation: 851 Indiv: 211358 */
/* Point: 158.5354156 116.2275391 158.5354156 116.2275391 */

/* Organism #177393 Fitness: 7.516178608 Error: 0 */
genomestart 177393
trait 1 0.7983684215 0.8837617991 0.809173143 0.7409620393 0.2531465856 0 0.9753518579 0.7526120023 
node 1 1 1 3
node 2 1 1 1
node 3 1 1 1
node 4 1 1 1
node 5 1 1 1
node 6 1 1 1
node 7 1 1 1
node 8 1 1 1
node 9 1 1 1
node 10 1 1 1
node 11 1 1 1
node 12 1 0 0
node 13 1 0 2
node 14 1 0 2
node 30 1 0 0
gene 1 1 12 0.4896484541 0 1 0.4896484541 1
gene 1 2 12 0.2711565591 0 2 0.2711565591 1
gene 1 3 12 -0.9858076853 0 3 -0.9858076853 1
gene 1 4 12 -1.114628368 0 4 -1.114628368 1
gene 1 5 12 -1.096685763 0 5 -1.096685763 1
gene 1 6 12 1.449639244 0 6 1.449639244 1
gene 1 7 12 -0.3631665062 0 7 -0.3631665062 1
gene 1 8 12 -1.10773247 0 8 -1.10773247 1
gene 1 9 12 1.121385366 0 9 1.121385366 1
gene 1 10 12 0.007987875466 0 10 0.007987875466 1
gene 1 11 12 -0.2393677759 0 11 -0.2393677759 1
gene 1 12 13 -0.3308882614 0 12 -0.3308882614 0
gene 1 12 14 0.5384268902 0 13 0.5384268902 1
gene 1 3 13 -1.959395656 0 14 -1.959395656 1
gene 1 10 13 0.03868545435 0 15 0.1553979568 1
gene 1 2 14 0.410239754 0 16 0.410239754 1
gene 1 8 14 1.630934239 0 17 1.630934239 1
gene 1 9 14 0.0006451713754 0 19 0.0006451713754 1
gene 1 6 13 1.879584598 0 20 1.879584598 1
gene 1 11 13 -0.4192767408 0 24 -0.4192767408 1
gene 1 2 13 -0.2345649034 0 26 -0.2345649034 1
gene 1 7 13 0.428484917 0 27 0.428484917 1
gene 1 11 14 -0.1774824754 0 28 -0.1774824754 0
gene 1 5 14 -0.674868477 0 31 -0.674868477 1
gene 1 9 13 -0.4942341866 0 40 -0.05931496697 1
gene 1 13 13 -0.4922842909 1 42 -0.4922842909 1
gene 1 10 14 0.3152456924 0 46 0.3152456924 1
gene 1 3 14 -0.2480068141 0 52 -0.2480068141 1
gene 1 14 14 1.405999741 1 57 1.405999741 1
gene 1 11 30 1 0 221 0 1
gene 1 30 14 -0.05324474263 0 222 0 1
gene 1 12 12 -0.1772633745 1 334 -0.1772633745 1
gene 1 3 30 0.1202685079 0 3426 0.1202685079 1
genomeend 177393
/* Novelty: 0.806453228 Fitness: 153.0120239 Generation: 851 Indiv: 177643 */
/* Point: 177.9295044 15.85438442 177.9295044 15.85438442 */

/* Organism #177233 Fitness: 7.516178608 Error: 0 */
genomestart 177233
trait 1 0.7983684215 0.8837617991 0.809173143 0.7409620393 0.2531465856 0 0.9753518579 0.7526120023 
node 1 1 1 3
node 2 1 1 1
node 3 1 1 1
node 4 1 1 1
node 5 1 1 1
node 6 1 1 1
node 7 1 1 1
node 8 1 1 1
node 9 1 1 1
node 10 1 1 1
node 11 1 1 1
node 12 1 0 0
node 13 1 0 2
node 14 1 0 2
node 30 1 0 0
gene 1 1 12 0.4896484541 0 1 0.4896484541 1
gene 1 2 12 0.2711565591 0 2 0.2711565591 1
gene 1 3 12 -0.9858076853 0 3 -0.9858076853 1
gene 1 4 12 -1.114628368 0 4 -1.114628368 1
gene 1 5 12 -1.096685763 0 5 -1.096685763 1
gene 1 6 12 1.449639244 0 6 1.449639244 1
gene 1 7 12 -0.3631665062 0 7 -0.3631665062 1
gene 1 8 12 -1.10773247 0 8 -1.10773247 1
gene 1 9 12 1.121385366 0 9 1.121385366 1
gene 1 10 12 0.007987875466 0 10 0.007987875466 1
gene 1 11 12 -0.2393677759 0 11 -0.2393677759 1
gene 1 12 13 -0.3308882614 0 12 -0.3308882614 0
gene 1 12 14 0.5384268902 0 13 0.5384268902 1
gene 1 3 13 -1.959395656 0 14 -1.959395656 1
gene 1 10 13 0.03868545435 0 15 0.1553979568 1
gene 1 2 14 0.410239754 0 16 0.410239754 1
gene 1 8 14 1.630934239 0 17 1.630934239 1
gene 1 9 14 0.0006451713754 0 19 0.0006451713754 1
gene 1 6 13 1.879584598 0 20 1.879584598 1
gene 1 11 13 -0.4192767408 0 24 -0.4192767408 1
gene 1 2 13 -0.2345649034 0 26 -0.2345649034 1
gene 1 7 13 0.428484917 0 27 0.428484917 1
gene 1 11 14 -0.1774824754 0 28 -0.1774824754 0
gene 1 5 14 -0.674868477 0 31 -0.674868477 1
gene 1 9 13 -0.4942341866 0 40 -0.05931496697 1
gene 1 13 13 -0.4922842909 1 42 -0.4922842909 1
gene 1 10 14 0.3152456924 0 46 0.3152456924 1
gene 1 3 14 -0.2480068141 0 52 -0.2480068141 1
gene 1 14 14 1.405999741 1 57 1.405999741 1
gene 1 11 30 1 0 221 0 1
gene 1 30 14 -0.05324474263 0 222 0 1
gene 1 12 12 -0.1772633745 1 334 -0.1772633745 1
gene 1 3 30 0.1202685079 0 3426 0.1202685079 1
genomeend 177233
/* Novelty: 0.806453228 Fitness: 153.0120239 Generation: 851 Indiv: 177483 */
/* Point: 177.9295044 15.85438442 177.9295044 15.85438442 */

/* Organism #176202 Fitness: 7.516178608 Error: 0 */
genomestart 176202
trait 1 0.7983684215 0.8837617991 0.809173143 0.7409620393 0.2531465856 0 0.9753518579 0.7526120023 
node 1 1 1 3
node 2 1 1 1
node 3 1 1 1
node 4 1 1 1
node 5 1 1 1
node 6 1 1 1
node 7 1 1 1
node 8 1 1 1
node 9 1 1 1
node 10 1 1 1
node 11 1 1 1
node 12 1 0 0
node 13 1 0 2
node 14 1 0 2
node 30 1 0 0
gene 1 1 12 0.4896484541 0 1 0.4896484541 1
gene 1 2 12 0.2711565591 0 2 0.2711565591 1
gene 1 3 12 -0.9858076853 0 3 -0.9858076853 1
gene 1 4 12 -1.114628368 0 4 -1.114628368 1
gene 1 5 12 -1.096685763 0 5 -1.096685763 1
gene 1 6 12 1.449639244 0 6 1.449639244 1
gene 1 7 12 -0.3631665062 0 7 -0.3631665062 1
gene 1 8 12 -1.10773247 0 8 -1.10773247 1
gene 1 9 12 1.121385366 0 9 1.121385366 1
gene 1 10 12 0.007987875466 0 10 0.007987875466 1
gene 1 11 12 -0.2393677759 0 11 -0.2393677759 1
gene 1 12 13 -0.3308882614 0 12 -0.3308882614 0
gene 1 12 14 0.5384268902 0 13 0.5384268902 1
gene 1 3 13 -1.959395656 0 14 -1.959395656 1
gene 1 10 13 0.03868545435 0 15 0.1553979568 1
gene 1 2 14 0.410239754 0 16 0.410239754 1
gene 1 8 14 1.630934239 0 17 1.630934239 1
gene 1 9 14 0.0006451713754 0 19 0.0006451713754 1
gene 1 6 13 1.879584598 0 20 1.879584598 1
gene 1 11 13 -0.4192767408 0 24 -0.4192767408 1
gene 1 2 13 -0.2345649034 0 26 -0.2345649034 1
gene 1 7 13 0.428484917 0 27 0.428484917 1
gene 1 11 14 -0.1774824754 0 28 -0.1774824754 0
gene 1 5 14 -0.674868477 0 31 -0.674868477 1
gene 1 9 13 -0.4942341866 0 40 -0.05931496697 1
gene 1 13 13 -0.4922842909 1 42 -0.4922842909 1
gene 1 10 14 0.3152456924 0 46 0.3152456924 1
gene 1 3 14 -0.2480068141 0 52 -0.2480068141 1
gene 1 14 14 1.405999741 1 57 1.405999741 1
gene 1 11 30 1 0 221 0 1
gene 1 30 14 -0.05324474263 0 222 0 1
gene 1 12 12 -0.1772633745 1 334 -0.1772633745 1
gene 1 3 30 0.1202685079 0 3426 0.1202685079 1
genomeend 176202
/* Novelty: 0.806453228 Fitness: 153.0120239 Generation: 851 Indiv: 176452 */
/* Point: 177.9295044 15.85438442 177.9295044 15.85438442 */

/* Organism #175326 Fitness: 7.516178608 Error: 0 */
genomestart 175326
trait 1 0.7983684215 0.8837617991 0.809173143 0.7409620393 0.2531465856 0 0.9753518579 0.7526120023 
node 1 1 1 3
node 2 1 1 1
node 3 1 1 1
node 4 1 1 1
node 5 1 1 1
node 6 1 1 1
node 7 1 1 1
node 8 1 1 1
node 9 1 1 1
node 10 1 1 1
node 11 1 1 1
node 12 1 0 0
node 13 1 0 2
node 14 1 0 2
node 30 1 0 0
gene 1 1 12 0.4896484541 0 1 0.4896484541 1
gene 1 2 12 0.2711565591 0 2 0.2711565591 1
gene 1 3 12 -0.9858076853 0 3 -0.9858076853 1
gene 1 4 12 -1.114628368 0 4 -1.114628368 1
gene 1 5 12 -1.096685763 0 5 -1.096685763 1
gene 1 6 12 1.449639244 0 6 1.449639244 1
gene 1 7 12 -0.3631665062 0 7 -0.3631665062 1
gene 1 8 12 -1.10773247 0 8 -1.10773247 1
gene 1 9 12 1.121385366 0 9 1.121385366 1
gene 1 10 12 0.007987875466 0 10 0.007987875466 1
gene 1 11 12 -0.2393677759 0 11 -0.2393677759 1
gene 1 12 13 -0.3308882614 0 12 -0.3308882614 0
gene 1 12 14 0.5384268902 0 13 0.5384268902 1
gene 1 3 13 -1.959395656 0 14 -1.959395656 1
gene 1 10 13 0.03868545435 0 15 0.1553979568 1
gene 1 2 14 0.410239754 0 16 0.410239754 1
gene 1 8 14 1.630934239 0 17 1.630934239 1
gene 1 9 14 0.0006451713754 0 19 0.0006451713754 1
gene 1 6 13 1.879584598 0 20 1.879584598 1
gene 1 11 13 -0.4192767408 0 24 -0.4192767408 1
gene 1 2 13 -0.2345649034 0 26 -0.2345649034 1
gene 1 7 13 0.428484917 0 27 0.428484917 1
gene 1 11 14 -0.1774824754 0 28 -0.1774824754 0
gene 1 5 14 -0.674868477 0 31 -0.674868477 1
gene 1 9 13 -0.4942341866 0 40 -0.05931496697 1
gene 1 13 13 -0.4922842909 1 42 -0.4922842909 1
gene 1 10 14 0.3152456924 0 46 0.3152456924 1
gene 1 3 14 -0.2480068141 0 52 -0.2480068141 1
gene 1 14 14 1.405999741 1 57 1.405999741 1
gene 1 11 30 1 0 221 0 1
gene 1 30 14 -0.05324474263 0 222 0 1
gene 1 12 12 -0.1772633745 1 334 -0.1772633745 1
gene 1 3 30 0.1202685079 0 3426 0.1202685079 1
genomeend 175326
/* Novelty: 0.806453228 Fitness: 153.0120239 Generation: 851 Indiv: 175576 */
/* Point: 177.9295044 15.85438442 177.9295044 15.85438442 */

/* Organism #212280 Fitness: 7.630296707 Error: 0 */
genomestart 212280
trait 1 1 0.8456644882 1 0.2716693616 0.2531465856 0 0.9753518579 0.3913170089 
node 1 1 1 3
node 2 1 1 1
node 3 1 1 1
node 4 1 1 1
node 5 1 1 1
node 6 1 1 1
node 7 1 1 1
node 8 1 1 1
node 9 1 1 1
node 10 1 1 1
node 11 1 1 1
node 12 1 0 0
node 13 1 0 2
node 14 1 0 2
node 22 1 0 0
gene 1 1 12 -0.6939495526 0 1 -0.6939495526 1
gene 1 2 12 0.7159290923 0 2 0.7159290923 1
gene 1 3 12 -1.231002876 0 3 -1.231002876 1
gene 1 4 12 -2.355085182 0 4 -2.355085182 1
gene 1 5 12 -0.709879714 0 5 -0.709879714 1
gene 1 6 12 2.08398054 0 6 2.08398054 1
gene 1 7 12 0.252225785 0 7 0.252225785 1
gene 1 8 12 -1.459137334 0 8 -1.459137334 1
gene 1 9 12 1.143749869 0 9 1.143749869 1
gene 1 10 12 0.740245109 0 10 0.740245109 1
gene 1 11 12 -0.8704183868 0 11 -0.8704183868 1
gene 1 12 13 -0.6623315707 0 12 -0.6623315707 1
gene 1 12 14 0.8780824528 0 13 0.8780824528 1
gene 1 3 13 -1.824890722 0 14 -1.824890722 1
gene 1 10 13 0.4656752584 0 15 0.4656752584 1
gene 1 2 14 -0.5264922003 0 16 -0.5264922003 1
gene 1 8 14 2.82267636 0 17 2.82267636 1
gene 1 9 14 -0.3758267504 0 19 -0.3758267504 1
gene 1 6 13 2.1182902 0 20 2.1182902 1
gene 1 11 13 -0.4883258328 0 24 -0.4883258328 1
gene 1 2 13 0.06531303798 0 26 0.06531303798 1
gene 1 7 13 0.3913401415 0 27 0.3913401415 1
gene 1 11 14 0.2471300346 0 28 0.2471300346 1
gene 1 5 14 -0.4969182242 0 31 -0.4969182242 0
gene 1 4 14 1.088110201 0 32 1.088110201 1
gene 1 13 13 -0.1310245879 1 42 -0.1310245879 1
gene 1 10 14 1.336978668 0 46 1.336978668 1
gene 1 14 13 -0.1397217751 0 48 -0.1397217751 1
gene 1 3 14 -0.1465213264 0 52 -0.1465213264 1
gene 1 14 14 1.095739726 1 57 1.095739726 1
gene 1 5 22 1 0 117 0 1
gene 1 22 12 -0.2129639142 0 118 0 1
gene 1 4 22 -0.5924113945 0 218 0 1
gene 1 12 12 -0.2767242351 1 334 -0.2767242351 1
genomeend 212280
/* Novelty: 0.3107719421 Fitness: 139.7005463 Generation: 851 Indiv: 212530 */
/* Point: 157.2851715 118.7318039 157.2851715 118.7318039 */

/* Organism #211353 Fitness: 7.442838669 Error: 0 */
genomestart 211353
trait 1 0.8991842108 0.9418808995 0.809173143 0.8704810197 0.2531465856 0 0.9281718318 0.8763060012 
node 1 1 1 3
node 2 1 1 1
node 3 1 1 1
node 4 1 1 1
node 5 1 1 1
node 6 1 1 1
node 7 1 1 1
node 8 1 1 1
node 9 1 1 1
node 10 1 1 1
node 11 1 1 1
node 12 1 0 0
node 13 1 0 2
node 14 1 0 2
node 30 1 0 0
gene 1 1 12 0.1337253441 0 1 0.1337253441 1
gene 1 2 12 0.3076404811 0 2 0.3076404811 1
gene 1 3 12 -0.1534542882 0 3 -0.1534542882 1
gene 1 4 12 -1.003342959 0 4 -1.003342959 1
gene 1 5 12 0.2463451148 0 5 0.2463451148 1
gene 1 6 12 1.759516242 0 6 1.759516242 0
gene 1 7 12 0.1591792102 0 7 0.1591792102 1
gene 1 8 12 0.04972589354 0 8 0.04972589354 1
gene 1 9 12 1.601212098 0 9 1.601212098 1
gene 1 10 12 -0.5410298347 0 10 -0.5410298347 1
gene 1 11 12 0.01268500016 0 11 0.01268500016 1
gene 1 12 13 -0.7172616563 0 12 -0.7172616563 0
gene 1 12 14 1.158575215 0 13 1.158575215 1
gene 1 3 13 -1.802514981 0 14 -1.802514981 1
gene 1 10 13 0.5114108278 0 15 0.5114108278 1
gene 1 2 14 0.6710526574 0 16 0.6710526574 1
gene 1 8 14 1.502612417 0 17 1.502612417 1
gene 1 9 14 -0.167864527 0 19 -0.167864527 1
gene 1 6 13 1.390671176 0 20 1.390671176 1
gene 1 11 13 -0.5985864255 0 24 -0.5985864255 1
gene 1 2 13 0.2550733303 0 26 0.2550733303 1
gene 1 7 13 -0.6316073439 0 27 -0.6316073439 1
gene 1 11 14 0.4052369652 0 28 0.4052369652 0
gene 1 7 14 -0.2210965582 0 30 -0.2210965582 1
gene 1 5 14 -1.363957412 0 31 -1.363957412 1
gene 1 9 13 0.0527197853 0 40 0.0527197853 1
gene 1 13 13 -0.02806663381 1 42 -0.02806663381 1
gene 1 10 14 0.5143593507 0 46 0.5143593507 1
gene 1 3 14 -0.4604995182 0 52 -0.4604995182 1
gene 1 14 14 2.166667068 1 57 2.166667068 1
gene 1 11 30 1.299944903 0 221 1.299944903 1
gene 1 30 14 0.1167212689 0 222 0.1167212689 1
gene 1 12 12 0.4127575208 1 334 0.4127575208 1
gene 1 3 30 0.5755451956 0 3426 0.5755451956 0
genomeend 211353
/* Novelty: 2.45766449 Fitness: 116.2618103 Generation: 851 Indiv: 211603 */
/* Point: 95.48474884 192.0506897 95.48474884 192.0506897 */

/* Organism #210468 Fitness: 7.442838669 Error: 0 */
genomestart 210468
trait 1 0.8991842108 0.9418808995 0.809173143 0.8704810197 0.2531465856 0 0.9281718318 0.8763060012 
node 1 1 1 3
node 2 1 1 1
node 3 1 1 1
node 4 1 1 1
node 5 1 1 1
node 6 1 1 1
node 7 1 1 1
node 8 1 1 1
node 9 1 1 1
node 10 1 1 1
node 11 1 1 1
node 12 1 0 0
node 13 1 0 2
node 14 1 0 2
node 30 1 0 0
gene 1 1 12 0.1337253441 0 1 0.1337253441 1
gene 1 2 12 0.3076404811 0 2 0.3076404811 1
gene 1 3 12 -0.1534542882 0 3 -0.1534542882 1
gene 1 4 12 -1.003342959 0 4 -1.003342959 1
gene 1 5 12 0.2463451148 0 5 0.2463451148 1
gene 1 6 12 1.759516242 0 6 1.759516242 0
gene 1 7 12 0.1591792102 0 7 0.1591792102 1
gene 1 8 12 0.04972589354 0 8 0.04972589354 1
gene 1 9 12 1.601212098 0 9 1.601212098 1
gene 1 10 12 -0.5410298347 0 10 -0.5410298347 1
gene 1 11 12 0.01268500016 0 11 0.01268500016 1
gene 1 12 13 -0.7172616563 0 12 -0.7172616563 0
gene 1 12 14 1.158575215 0 13 1.158575215 1
gene 1 3 13 -1.802514981 0 14 -1.802514981 1
gene 1 10 13 0.5114108278 0 15 0.5114108278 1
gene 1 2 14 0.6710526574 0 16 0.6710526574 1
gene 1 8 14 1.502612417 0 17 1.502612417 1
gene 1 9 14 -0.167864527 0 19 -0.167864527 1
gene 1 6 13 1.390671176 0 20 1.390671176 1
gene 1 11 13 -0.5985864255 0 24 -0.5985864255 1
gene 1 2 13 0.2550733303 0 26 0.2550733303 1
gene 1 7 13 -0.6316073439 0 27 -0.6316073439 1
gene 1 11 14 0.4052369652 0 28 0.4052369652 0
gene 1 7 14 -0.2210965582 0 30 -0.2210965582 1
gene 1 5 14 -1.363957412 0 31 -1.363957412 1
gene 1 9 13 0.0527197853 0 40 0.0527197853 1
gene 1 13 13 -0.02806663381 1 42 -0.02806663381 1
gene 1 10 14 0.5143593507 0 46 0.5143593507 1
gene 1 3 14 -0.4604995182 0 52 -0.4604995182 1
gene 1 14 14 2.166667068 1 57 2.166667068 1
gene 1 11 30 1.299944903 0 221 1.299944903 1
gene 1 30 14 0.1167212689 0 222 0.1167212689 1
gene 1 12 12 0.4127575208 1 334 0.4127575208 1
gene 1 3 30 0.5755451956 0 3426 0.5755451956 0
genomeend 210468
/* Novelty: 2.45766449 Fitness: 116.2618103 Generation: 851 Indiv: 210718 */
/* Point: 95.48474884 192.0506897 95.48474884 192.0506897 */

/* Organism #212132 Fitness: 7.411539078 Error: 0 */
genomestart 212132
trait 1 0.8991842108 0.8837617991 0.809173143 0.6715734849 0.2531465856 0 0.9753518579 0.7526120023 
node 1 1 1 3
node 2 1 1 1
node 3 1 1 1
node 4 1 1 1
node 5 1 1 1
node 6 1 1 1
node 7 1 1 1
node 8 1 1 1
node 9 1 1 1
node 10 1 1 1
node 11 1 1 1
node 12 1 0 0
node 13 1 0 2
node 14 1 0 2
node 30 1 0 0
gene 1 1 12 -0.1708816578 0 1 -0.1708816578 1
gene 1 2 12 0.1358806848 0 2 0.1358806848 1
gene 1 3 12 -0.8540643502 0 3 -0.8540643502 1
gene 1 4 12 -1.865221024 0 4 -1.865221024 1
gene 1 5 12 -0.9032827386 0 5 -0.9032827386 1
gene 1 6 12 1.701376388 0 6 1.701376388 1
gene 1 7 12 0.2057024976 0 7 0.2057024976 1
gene 1 8 12 -0.677838782 0 8 -0.677838782 1
gene 1 9 12 1.514110812 0 9 1.514110812 1
gene 1 10 12 0.2355983916 0 10 0.2355983916 1
gene 1 11 12 -0.7300828432 0 11 -0.7300828432 1
gene 1 12 13 -0.496609916 0 12 -0.496609916 0
gene 1 12 14 1.034758623 0 13 1.034758623 1
gene 1 3 13 -2.211503319 0 14 -2.211503319 1
gene 1 10 13 0.2521803564 0 15 0.2521803564 1
gene 1 2 14 0.05169366825 0 16 0.05169366825 0
gene 1 8 14 2.556190918 0 17 2.556190918 1
gene 1 9 14 -0.320370719 0 19 -0.320370719 1
gene 1 6 13 2.083209955 0 20 2.083209955 1
gene 1 11 13 -0.3743874249 0 24 -0.3743874249 1
gene 1 2 13 -0.08462593273 0 26 -0.08462593273 1
gene 1 7 13 0.1253772406 0 27 0.1253772406 1
gene 1 11 14 0.03482377959 0 28 0.03482377959 0
gene 1 7 14 0.04354905339 0 30 0 1
gene 1 5 14 -0.9304378182 0 31 -0.9304378182 0
gene 1 4 14 1.088110201 0 32 1.088110201 1
gene 1 9 13 -0.5445567897 0 40 -0.5445567897 1
gene 1 13 13 -0.07954561086 1 42 -0.07954561086 1
gene 1 10 14 0.9308325614 0 46 0.9308325614 1
gene 1 14 13 -0.1397217751 0 48 -0.1397217751 1
gene 1 3 14 -0.3035104223 0 52 -0.3035104223 1
gene 1 14 14 1.244394991 1 57 1.244394991 1
gene 1 11 30 0.8836151536 0 221 0.8836151536 1
gene 1 30 14 0.1167212689 0 222 0.1167212689 1
gene 1 12 12 -0.2269938048 1 334 -0.2269938048 1
gene 1 3 30 0.5755451956 0 3426 0.5755451956 0
genomeend 212132
/* Novelty: 3.099582672 Fitness: 188.6448364 Generation: 851 Indiv: 212382 */
/* Point: 142.2645874 24.49069405 142.2645874 24.49069405 */

/* Organism #212096 Fitness: 7.375105858 Error: 0 */
genomestart 212096
trait 1 0.8991842108 0.8837617991 0.809173143 0.6715734849 0.2531465856 0 0.9753518579 0.7526120023 
node 1 1 1 3
node 2 1 1 1
node 3 1 1 1
node 4 1 1 1
node 5 1 1 1
node 6 1 1 1
node 7 1 1 1
node 8 1 1 1
node 9 1 1 1
node 10 1 1 1
node 11 1 1 1
node 12 1 0 0
node 13 1 0 2
node 14 1 0 2
node 22 1 0 0
node 30 1 0 0
gene 1 1 12 0.1610076795 0 1 0.1610076795 1
gene 1 2 12 0.08056899688 0 2 0.08056899688 1
gene 1 3 12 -1.61717748 0 3 -1.61717748 1
gene 1 4 12 -1.616807549 0 4 -1.616807549 1
gene 1 5 12 -1.392148843 0 5 -1.392148843 1
gene 1 6 12 2.119157801 0 6 2.119157801 1
gene 1 7 12 -0.806324224 0 7 -0.806324224 1
gene 1 8 12 -0.6983316269 0 8 -0.6983316269 1
gene 1 9 12 0.5599853756 0 9 0.5599853756 1
gene 1 10 12 0.4780414075 0 10 0.4780414075 1
gene 1 11 12 -1.272862423 0 11 -1.272862423 1
gene 1 12 13 0.1620578826 0 12 0.1620578826 0
gene 1 12 14 1.363320489 0 13 1.363320489 1
gene 1 3 13 -2.68205869 0 14 -2.68205869 1
gene 1 10 13 0.9297092652 0 15 0.9297092652 1
gene 1 2 14 0.5453650391 0 16 0.5453650391 1
gene 1 8 14 2.333291941 0 17 2.333291941 1
gene 1 9 14 0.09139309082 0 19 0.09139309082 1
gene 1 6 13 2.166028108 0 20 2.166028108 1
gene 1 11 13 -0.2321761073 0 24 -0.2321761073 1
gene 1 2 13 -0.4192480448 0 26 -0.4192480448 1
gene 1 7 13 0.1125745366 0 27 0.1125745366 1
gene 1 11 14 0.1427168729 0 28 0.1427168729 1
gene 1 5 14 -1.056189182 0 31 -1.056189182 1
gene 1 4 14 1.681957919 0 32 1.681957919 1
gene 1 9 13 -0.1001615659 0 40 -0.1001615659 1
gene 1 13 13 0.1397502475 1 42 0.1397502475 1
gene 1 10 14 0.5670361648 0 46 0.5670361648 1
gene 1 14 13 0.02409853713 0 48 0.02409853713 1
gene 1 3 14 -0.4940478522 0 52 -0.4940478522 1
gene 1 14 14 0.6095802519 1 57 0.6095802519 1
gene 1 5 22 1 0 117 1 1
gene 1 22 12 -0.3013317001 0 118 -0.3013317001 1
gene 1 4 22 -0.5168495793 0 218 -0.5168495793 1
gene 1 11 30 1 0 221 1 1
gene 1 30 14 -0.5905139448 0 222 -0.5905139448 1
gene 1 12 12 -0.2269938048 1 334 -0.2269938048 1
gene 1 3 30 0.4802884397 0 3426 0.4802884397 1
genomeend 212096
/* Novelty: 1.189353943 Fitness: 156.7149506 Generation: 851 Indiv: 212346 */
/* Point: 142.5670013 109.9077911 142.5670013 109.9077911 */

/* Organism #212267 Fitness: 7.375105858 Error: 0 */
genomestart 212267
trait 1 0.8991842108 0.8837617991 0.809173143 0.6715734849 0.2531465856 0 0.9753518579 0.7526120023 
node 1 1 1 3
node 2 1 1 1
node 3 1 1 1
node 4 1 1 1
node 5 1 1 1
node 6 1 1 1
node 7 1 1 1
node 8 1 1 1
node 9 1 1 1
node 10 1 1 1
node 11 1 1 1
node 12 1 0 0
node 13 1 0 2
node 14 1 0 2
node 22 1 0 0
node 30 1 0 0
gene 1 1 12 0.1610076795 0 1 0.1610076795 1
gene 1 2 12 0.08056899688 0 2 0.08056899688 1
gene 1 3 12 -1.61717748 0 3 -1.61717748 1
gene 1 4 12 -1.616807549 0 4 -1.616807549 1
gene 1 5 12 -1.392148843 0 5 -1.392148843 1
gene 1 6 12 2.119157801 0 6 2.119157801 1
gene 1 7 12 -0.806324224 0 7 -0.806324224 1
gene 1 8 12 -0.6983316269 0 8 -0.6983316269 1
gene 1 9 12 0.5599853756 0 9 0.5599853756 1
gene 1 10 12 0.4780414075 0 10 0.4780414075 1
gene 1 11 12 -1.272862423 0 11 -1.272862423 1
gene 1 12 13 0.1620578826 0 12 0.1620578826 0
gene 1 12 14 1.363320489 0 13 1.363320489 1
gene 1 3 13 -2.68205869 0 14 -2.68205869 1
gene 1 10 13 0.9297092652 0 15 0.9297092652 1
gene 1 2 14 0.5453650391 0 16 0.5453650391 1
gene 1 8 14 2.333291941 0 17 2.333291941 1
gene 1 9 14 0.09139309082 0 19 0.09139309082 1
gene 1 6 13 2.166028108 0 20 2.166028108 1
gene 1 11 13 -0.2321761073 0 24 -0.2321761073 1
gene 1 2 13 -0.4192480448 0 26 -0.4192480448 1
gene 1 7 13 0.1125745366 0 27 0.1125745366 1
gene 1 11 14 0.1427168729 0 28 0.1427168729 1
gene 1 5 14 -1.056189182 0 31 -1.056189182 1
gene 1 4 14 1.681957919 0 32 1.681957919 1
gene 1 9 13 -0.1001615659 0 40 -0.1001615659 1
gene 1 13 13 0.1397502475 1 42 0.1397502475 1
gene 1 10 14 0.5670361648 0 46 0.5670361648 1
gene 1 14 13 0.02409853713 0 48 0.02409853713 1
gene 1 3 14 -0.4940478522 0 52 -0.4940478522 1
gene 1 14 14 0.6095802519 1 57 0.6095802519 1
gene 1 5 22 1 0 117 1 1
gene 1 22 12 -0.3013317001 0 118 -0.3013317001 1
gene 1 4 22 -0.5168495793 0 218 -0.5168495793 1
gene 1 11 30 1 0 221 1 1
gene 1 30 14 -0.5905139448 0 222 -0.5905139448 1
gene 1 12 12 -0.2269938048 1 334 -0.2269938048 1
gene 1 3 30 0.4802884397 0 3426 0.4802884397 1
genomeend 212267
/* Novelty: 1.189353943 Fitness: 156.7149506 Generation: 851 Indiv: 212517 */
/* Point: 142.5670013 109.9077911 142.5670013 109.9077911 */

/* Organism #210674 Fitness: 7.291043282 Error: 0 */
genomestart 210674
trait 1 1 1 0.809173143 0.6021849304 0.4068394719 0 0.9753518579 0.7226494738 
node 1 1 1 3
node 2 1 1 1
node 3 1 1 1
node 4 1 1 1
node 5 1 1 1
node 6 1 1 1
node 7 1 1 1
node 8 1 1 1
node 9 1 1 1
node 10 1 1 1
node 11 1 1 1
node 12 1 0 0
node 13 1 0 2
node 14 1 0 2
gene 1 1 12 0.2846704791 0 1 0.2846704791 1
gene 1 2 12 0.6085233719 0 2 0.6085233719 1
gene 1 3 12 -0.7387132975 0 3 -0.7387132975 1
gene 1 4 12 -2.401098416 0 4 -2.401098416 1
gene 1 5 12 -1.32061506 0 5 -1.32061506 1
gene 1 6 12 1.437223615 0 6 1.437223615 1
gene 1 7 12 -0.6546793664 0 7 -0.6546793664 1
gene 1 8 12 -1.010614792 0 8 -1.010614792 1
gene 1 9 12 1.234049867 0 9 1.234049867 1
gene 1 10 12 0.4625476083 0 10 0.4625476083 1
gene 1 11 12 -0.1011857785 0 11 -0.1011857785 1
gene 1 12 13 -0.427439469 0 12 -0.427439469 0
gene 1 12 14 0.5144271467 0 13 0.5144271467 1
gene 1 3 13 -1.959395656 0 14 -1.959395656 1
gene 1 10 13 -0.233425005 0 15 0 1
gene 1 2 14 0.02069794371 0 16 0.02069794371 1
gene 1 8 14 2.535432813 0 17 2.535432813 1
gene 1 9 14 0.032905366 0 19 0.032905366 1
gene 1 6 13 1.866041819 0 20 1.866041819 1
gene 1 11 13 -0.1392263676 0 24 -0.1392263676 1
gene 1 2 13 -0.2466395553 0 26 -0.2466395553 1
gene 1 7 13 0.2220612351 0 27 0.2220612351 1
gene 1 11 14 -0.1730074358 0 28 -0.1730074358 1
gene 1 5 14 -0.9404159794 0 31 -0.9404159794 1
gene 1 9 13 -0.8698384393 0 40 0 1
gene 1 13 13 -0.2890499268 1 42 -0.2890499268 1
gene 1 4 13 0.8864088598 0 43 0 1
gene 1 10 14 0.5169037874 0 46 0.5169037874 1
gene 1 3 14 -0.1017748194 0 52 -0.1017748194 1
gene 1 14 14 1.017995688 1 57 1.017995688 1
gene 1 13 12 -0.9877689625 0 75 0 1
gene 1 12 12 -0.2798808632 1 334 -0.2798808632 1
genomeend 210674
/* Novelty: 1.814529419 Fitness: 155.9028015 Generation: 851 Indiv: 210924 */
/* Point: 142.7370911 110.9880524 142.7370911 110.9880524 */

/* Species #3 : (Size 17) (AF 0) (Age 1)  */


/* Organism #209755 Fitness: 8.383108139 Error: 0 */
genomestart 209755
trait 1 1 0.6906512928 0.7217013066 0.5437912958 0 0.1141145635 0.166915846 0.4308929163 
node 1 1 1 3
node 2 1 1 1
node 3 1 1 1
node 4 1 1 1
node 5 1 1 1
node 6 1 1 1
node 7 1 1 1
node 8 1 1 1
node 9 1 1 1
node 10 1 1 1
node 11 1 1 1
node 12 1 0 0
node 13 1 0 2
node 14 1 0 2
node 15 1 0 0
node 18 1 0 0
gene 1 1 12 0.3449033158 0 1 0.3449033158 1
gene 1 2 12 -0.7120879871 0 2 -0.7120879871 0
gene 1 3 12 -1.167135894 0 3 -1.167135894 1
gene 1 4 12 0.4699172704 0 4 0.4699172704 1
gene 1 5 12 1.083912871 0 5 1.083912871 1
gene 1 6 12 -0.07325907034 0 6 -0.07325907034 1
gene 1 7 12 1.993300445 0 7 1.993300445 1
gene 1 8 12 0.163195601 0 8 0.163195601 0
gene 1 9 12 0.9982399851 0 9 0.9982399851 1
gene 1 10 12 -0.1289066651 0 10 -0.1289066651 1
gene 1 11 12 0.2701023124 0 11 0.2701023124 0
gene 1 12 13 -0.7645763727 0 12 -0.7645763727 1
gene 1 12 14 1.342289951 0 13 1.342289951 1
gene 1 3 13 -0.2116791115 0 14 -0.2116791115 0
gene 1 10 13 0.6290773132 0 15 0.6290773132 1
gene 1 2 14 -0.4065295629 0 16 -0.4065295629 1
gene 1 8 14 -0.2880309186 0 17 -0.2880309186 1
gene 1 9 14 0.6312786246 0 19 0.6312786246 1
gene 1 13 13 0.3397087883 1 21 0.3397087883 1
gene 1 1 14 1.517370824 0 22 1.517370824 1
gene 1 11 13 -1.161584187 0 24 -1.161584187 1
gene 1 6 14 -1.923466665 0 25 -1.923466665 0
gene 1 2 13 -2.665488316 0 26 -2.665488316 1
gene 1 11 14 -1.071077866 0 28 -1.071077866 1
gene 1 7 14 -0.8981615749 0 30 -0.8981615749 1
gene 1 5 14 1.2061047 0 31 1.2061047 1
gene 1 4 14 0.9367683235 0 32 0.9367683235 1
gene 1 12 15 0.03784544404 0 37 0.03784544404 0
gene 1 15 13 0.8934101901 0 38 0.8934101901 1
gene 1 5 13 1.217670819 0 41 1.217670819 1
gene 1 10 14 -0.8917425763 0 46 -0.8917425763 1
gene 1 10 15 0.03828560842 0 49 0.03828560842 1
gene 1 3 14 -0.2200784198 0 52 -0.2200784198 1
gene 1 3 15 0.1436624301 0 68 0.1436624301 1
gene 1 12 12 -1.290091761 1 72 -1.290091761 1
gene 1 2 15 0.1604509434 0 77 0.1604509434 1
gene 1 6 15 1.168329661 0 84 1.168329661 1
gene 1 8 18 1 0 85 0 1
gene 1 18 12 0.0489586803 0 86 0 1
gene 1 15 14 -0.7031787833 0 124 -0.7031787833 1
gene 1 9 15 -0.7837685936 0 134 -0.7837685936 1
gene 1 14 14 0.1722990345 1 140 0.1722990345 1
gene 1 1 15 -0.4152301735 0 226 -0.4152301735 1
gene 1 11 15 0.8417192059 0 270 0 1
gene 1 8 15 0.5278786887 0 281 0.5278786887 1
gene 1 13 12 0.1483800976 1 416 0.1483800976 1
gene 1 15 12 0.2317004416 1 498 0.2317004416 1
gene 1 11 18 -0.8922069808 0 846 0 1
genomeend 209755
/* Novelty: 0.4493136406 Fitness: 279.6731873 Generation: 851 Indiv: 210005 */
/* Point: 11.19455242 15.42578983 11.19455242 15.42578983 */

/* Organism #210054 Fitness: 8.383108139 Error: 0 */
genomestart 210054
trait 1 1 0.6906512928 0.7217013066 0.5437912958 0 0.1141145635 0.166915846 0.4308929163 
node 1 1 1 3
node 2 1 1 1
node 3 1 1 1
node 4 1 1 1
node 5 1 1 1
node 6 1 1 1
node 7 1 1 1
node 8 1 1 1
node 9 1 1 1
node 10 1 1 1
node 11 1 1 1
node 12 1 0 0
node 13 1 0 2
node 14 1 0 2
node 15 1 0 0
node 18 1 0 0
gene 1 1 12 0.3449033158 0 1 0.3449033158 1
gene 1 2 12 -0.7120879871 0 2 -0.7120879871 0
gene 1 3 12 -1.167135894 0 3 -1.167135894 1
gene 1 4 12 0.4699172704 0 4 0.4699172704 1
gene 1 5 12 1.083912871 0 5 1.083912871 1
gene 1 6 12 -0.07325907034 0 6 -0.07325907034 1
gene 1 7 12 1.993300445 0 7 1.993300445 1
gene 1 8 12 0.163195601 0 8 0.163195601 0
gene 1 9 12 0.9982399851 0 9 0.9982399851 1
gene 1 10 12 -0.1289066651 0 10 -0.1289066651 1
gene 1 11 12 0.2701023124 0 11 0.2701023124 0
gene 1 12 13 -0.7645763727 0 12 -0.7645763727 1
gene 1 12 14 1.342289951 0 13 1.342289951 1
gene 1 3 13 -0.2116791115 0 14 -0.2116791115 0
gene 1 10 13 0.6290773132 0 15 0.6290773132 1
gene 1 2 14 -0.4065295629 0 16 -0.4065295629 1
gene 1 8 14 -0.2880309186 0 17 -0.2880309186 1
gene 1 9 14 0.6312786246 0 19 0.6312786246 1
gene 1 13 13 0.3397087883 1 21 0.3397087883 1
gene 1 1 14 1.517370824 0 22 1.517370824 1
gene 1 11 13 -1.161584187 0 24 -1.161584187 1
gene 1 6 14 -1.923466665 0 25 -1.923466665 0
gene 1 2 13 -2.665488316 0 26 -2.665488316 1
gene 1 11 14 -1.071077866 0 28 -1.071077866 1
gene 1 7 14 -0.8981615749 0 30 -0.8981615749 1
gene 1 5 14 1.2061047 0 31 1.2061047 1
gene 1 4 14 0.9367683235 0 32 0.9367683235 1
gene 1 12 15 0.03784544404 0 37 0.03784544404 0
gene 1 15 13 0.8934101901 0 38 0.8934101901 1
gene 1 5 13 1.217670819 0 41 1.217670819 1
gene 1 10 14 -0.8917425763 0 46 -0.8917425763 1
gene 1 10 15 0.03828560842 0 49 0.03828560842 1
gene 1 3 14 -0.2200784198 0 52 -0.2200784198 1
gene 1 3 15 0.1436624301 0 68 0.1436624301 1
gene 1 12 12 -1.290091761 1 72 -1.290091761 1
gene 1 2 15 0.1604509434 0 77 0.1604509434 1
gene 1 6 15 1.168329661 0 84 1.168329661 1
gene 1 8 18 1 0 85 0 1
gene 1 18 12 0.0489586803 0 86 0 1
gene 1 15 14 -0.7031787833 0 124 -0.7031787833 1
gene 1 9 15 -0.7837685936 0 134 -0.7837685936 1
gene 1 14 14 0.1722990345 1 140 0.1722990345 1
gene 1 1 15 -0.4152301735 0 226 -0.4152301735 1
gene 1 11 15 0.8417192059 0 270 0 1
gene 1 8 15 0.5278786887 0 281 0.5278786887 1
gene 1 13 12 0.1483800976 1 416 0.1483800976 1
gene 1 15 12 0.2317004416 1 498 0.2317004416 1
gene 1 11 18 -0.8922069808 0 846 0 1
genomeend 210054
/* Novelty: 0.4493136406 Fitness: 279.6731873 Generation: 851 Indiv: 210304 */
/* Point: 11.19455242 15.42578983 11.19455242 15.42578983 */

/* Organism #212071 Fitness: 8.383108139 Error: 0 */
genomestart 212071
trait 1 0.2128732592 0.6906512928 1 0.5437912958 0 0.1141145635 0.166915846 0.1504079232 
node 1 1 1 3
node 2 1 1 1
node 3 1 1 1
node 4 1 1 1
node 5 1 1 1
node 6 1 1 1
node 7 1 1 1
node 8 1 1 1
node 9 1 1 1
node 10 1 1 1
node 11 1 1 1
node 12 1 0 0
node 13 1 0 2
node 14 1 0 2
node 15 1 0 0
node 18 1 0 0
gene 1 1 12 0.3449033158 0 1 0.3449033158 1
gene 1 2 12 -0.7120879871 0 2 -0.7120879871 0
gene 1 3 12 -1.167135894 0 3 -1.167135894 1
gene 1 4 12 0.4699172704 0 4 0.4699172704 1
gene 1 5 12 1.083912871 0 5 1.083912871 1
gene 1 6 12 -0.07325907034 0 6 -0.07325907034 1
gene 1 7 12 1.993300445 0 7 1.993300445 1
gene 1 8 12 0.163195601 0 8 0.163195601 0
gene 1 9 12 0.9982399851 0 9 0.9982399851 1
gene 1 10 12 -0.1289066651 0 10 -0.1289066651 1
gene 1 11 12 0.2701023124 0 11 0.2701023124 0
gene 1 12 13 -0.7645763727 0 12 -0.7645763727 1
gene 1 12 14 1.342289951 0 13 1.342289951 1
gene 1 3 13 -0.2116791115 0 14 -0.2116791115 0
gene 1 10 13 0.6290773132 0 15 0.6290773132 1
gene 1 2 14 -0.4065295629 0 16 -0.4065295629 1
gene 1 8 14 -0.2880309186 0 17 -0.2880309186 1
gene 1 9 14 0.6312786246 0 19 0.6312786246 1
gene 1 13 13 0.3397087883 1 21 0.3397087883 1
gene 1 1 14 1.517370824 0 22 1.517370824 1
gene 1 11 13 -1.161584187 0 24 -1.161584187 1
gene 1 6 14 -1.923466665 0 25 -1.923466665 0
gene 1 2 13 -2.665488316 0 26 -2.665488316 1
gene 1 11 14 -1.071077866 0 28 -1.071077866 1
gene 1 7 14 -0.8981615749 0 30 -0.8981615749 1
gene 1 5 14 1.2061047 0 31 1.2061047 1
gene 1 4 14 0.9367683235 0 32 0.9367683235 1
gene 1 12 15 0.03784544404 0 37 0.03784544404 0
gene 1 15 13 0.8934101901 0 38 0.8934101901 1
gene 1 5 13 1.217670819 0 41 1.217670819 1
gene 1 10 14 -0.8917425763 0 46 -0.8917425763 1
gene 1 10 15 0.03828560842 0 49 0.03828560842 1
gene 1 3 14 -0.2200784198 0 52 -0.2200784198 1
gene 1 3 15 0.1436624301 0 68 0.1436624301 1
gene 1 12 12 -1.290091761 1 72 -1.290091761 1
gene 1 2 15 0.1604509434 0 77 0.1604509434 1
gene 1 6 15 1.168329661 0 84 1.168329661 1
gene 1 8 18 1 0 85 0 1
gene 1 18 12 0.0489586803 0 86 0 1
gene 1 15 14 -0.7031787833 0 124 -0.7031787833 1
gene 1 9 15 -0.7837685936 0 134 -0.7837685936 1
gene 1 14 14 0.1722990345 1 140 0.1722990345 1
gene 1 1 15 -0.4152301735 0 226 -0.4152301735 1
gene 1 11 15 0.8417192059 0 270 0 1
gene 1 8 15 0.5278786887 0 281 0.5278786887 1
gene 1 13 12 0.1483800976 1 416 0.1483800976 1
gene 1 15 12 0.2317004416 1 498 0.2317004416 1
gene 1 11 18 -0.8922069808 0 846 0 1
genomeend 212071
/* Novelty: 0.4493136406 Fitness: 279.6731873 Generation: 851 Indiv: 212321 */
/* Point: 11.19455242 15.42578983 11.19455242 15.42578983 */

/* Organism #209577 Fitness: 8.383108139 Error: 0 */
genomestart 209577
trait 1 1 0.6906512928 0.7217013066 0.5437912958 0 0.1141145635 0.166915846 0.4308929163 
node 1 1 1 3
node 2 1 1 1
node 3 1 1 1
node 4 1 1 1
node 5 1 1 1
node 6 1 1 1
node 7 1 1 1
node 8 1 1 1
node 9 1 1 1
node 10 1 1 1
node 11 1 1 1
node 12 1 0 0
node 13 1 0 2
node 14 1 0 2
node 15 1 0 0
node 18 1 0 0
gene 1 1 12 0.3449033158 0 1 0.3449033158 1
gene 1 2 12 -0.7120879871 0 2 -0.7120879871 0
gene 1 3 12 -1.167135894 0 3 -1.167135894 1
gene 1 4 12 0.4699172704 0 4 0.4699172704 1
gene 1 5 12 1.083912871 0 5 1.083912871 1
gene 1 6 12 -0.07325907034 0 6 -0.07325907034 1
gene 1 7 12 1.993300445 0 7 1.993300445 1
gene 1 8 12 0.163195601 0 8 0.163195601 0
gene 1 9 12 0.9982399851 0 9 0.9982399851 1
gene 1 10 12 -0.1289066651 0 10 -0.1289066651 1
gene 1 11 12 0.2701023124 0 11 0.2701023124 0
gene 1 12 13 -0.7645763727 0 12 -0.7645763727 1
gene 1 12 14 1.342289951 0 13 1.342289951 1
gene 1 3 13 -0.2116791115 0 14 -0.2116791115 0
gene 1 10 13 0.6290773132 0 15 0.6290773132 1
gene 1 2 14 -0.4065295629 0 16 -0.4065295629 1
gene 1 8 14 -0.2880309186 0 17 -0.2880309186 1
gene 1 9 14 0.6312786246 0 19 0.6312786246 1
gene 1 13 13 0.3397087883 1 21 0.3397087883 1
gene 1 1 14 1.517370824 0 22 1.517370824 1
gene 1 11 13 -1.161584187 0 24 -1.161584187 1
gene 1 6 14 -1.923466665 0 25 -1.923466665 0
gene 1 2 13 -2.665488316 0 26 -2.665488316 1
gene 1 11 14 -1.071077866 0 28 -1.071077866 1
gene 1 7 14 -0.8981615749 0 30 -0.8981615749 1
gene 1 5 14 1.2061047 0 31 1.2061047 1
gene 1 4 14 0.9367683235 0 32 0.9367683235 1
gene 1 12 15 0.03784544404 0 37 0.03784544404 0
gene 1 15 13 0.8934101901 0 38 0.8934101901 1
gene 1 5 13 1.217670819 0 41 1.217670819 1
gene 1 10 14 -0.8917425763 0 46 -0.8917425763 1
gene 1 10 15 0.03828560842 0 49 0.03828560842 1
gene 1 3 14 -0.2200784198 0 52 -0.2200784198 1
gene 1 3 15 0.1436624301 0 68 0.1436624301 1
gene 1 12 12 -1.290091761 1 72 -1.290091761 1
gene 1 2 15 0.1604509434 0 77 0.1604509434 1
gene 1 6 15 1.168329661 0 84 1.168329661 1
gene 1 8 18 1 0 85 0 1
gene 1 18 12 0.0489586803 0 86 0 1
gene 1 15 14 -0.7031787833 0 124 -0.7031787833 1
gene 1 9 15 -0.7837685936 0 134 -0.7837685936 1
gene 1 14 14 0.1722990345 1 140 0.1722990345 1
gene 1 1 15 -0.4152301735 0 226 -0.4152301735 1
gene 1 11 15 0.8417192059 0 270 0 1
gene 1 8 15 0.5278786887 0 281 0.5278786887 1
gene 1 13 12 0.1483800976 1 416 0.1483800976 1
gene 1 15 12 0.2317004416 1 498 0.2317004416 1
gene 1 11 18 -0.8922069808 0 846 0 1
genomeend 209577
/* Novelty: 0.4493136406 Fitness: 279.6731873 Generation: 851 Indiv: 209827 */
/* Point: 11.19455242 15.42578983 11.19455242 15.42578983 */

/* Organism #209204 Fitness: 8.361559868 Error: 0 */
genomestart 209204
trait 1 0.8086033231 0.55363159 0.4688723586 0.1281143754 0.2988493443 0.5311897588 0.3204453083 0.1024392315 
node 1 1 1 3
node 2 1 1 1
node 3 1 1 1
node 4 1 1 1
node 5 1 1 1
node 6 1 1 1
node 7 1 1 1
node 8 1 1 1
node 9 1 1 1
node 10 1 1 1
node 11 1 1 1
node 12 1 0 0
node 13 1 0 2
node 14 1 0 2
node 15 1 0 0
node 18 1 0 0
gene 1 1 12 0.2689793566 0 1 0.2689793566 1
gene 1 2 12 -0.7120879871 0 2 -0.7120879871 0
gene 1 3 12 -1.124836146 0 3 -1.124836146 1
gene 1 4 12 0.4608211966 0 4 0.4608211966 1
gene 1 5 12 1.083912871 0 5 1.083912871 1
gene 1 6 12 -0.07325907034 0 6 -0.07325907034 1
gene 1 7 12 1.993300445 0 7 1.993300445 1
gene 1 8 12 0.163195601 0 8 0.163195601 0
gene 1 9 12 1.068796178 0 9 1.068796178 1
gene 1 10 12 -0.1289066651 0 10 -0.1289066651 1
gene 1 11 12 0.2701023124 0 11 0.2701023124 0
gene 1 12 13 -0.7843805471 0 12 -0.7843805471 1
gene 1 12 14 1.312905788 0 13 1.312905788 1
gene 1 3 13 -0.2116791115 0 14 -0.2116791115 0
gene 1 10 13 0.6290773132 0 15 0.6290773132 1
gene 1 2 14 -0.3521404012 0 16 -0.3521404012 1
gene 1 8 14 -0.2471964998 0 17 -0.2471964998 1
gene 1 9 14 0.6079470259 0 19 0.6079470259 1
gene 1 13 13 0.2901500063 1 21 0.2901500063 1
gene 1 1 14 1.517370824 0 22 1.517370824 1
gene 1 11 13 -1.161584187 0 24 -1.161584187 1
gene 1 6 14 -1.949027248 0 25 -1.949027248 0
gene 1 2 13 -2.644873492 0 26 -2.644873492 1
gene 1 7 13 0.520192147 0 27 0 1
gene 1 11 14 -1.071077866 0 28 -1.071077866 1
gene 1 7 14 -0.8852509463 0 30 -0.8852509463 1
gene 1 5 14 1.2061047 0 31 1.2061047 1
gene 1 4 14 0.6875327243 0 32 0.6875327243 1
gene 1 12 15 0.03784544404 0 37 0.03784544404 0
gene 1 15 13 0.8934101901 0 38 0.8934101901 1
gene 1 5 13 1.353853258 0 41 1.353853258 1
gene 1 10 14 -0.8488055167 0 46 -0.8488055167 1
gene 1 10 15 0.08045580447 0 49 0.08045580447 1
gene 1 3 14 -0.2200784198 0 52 -0.2200784198 1
gene 1 3 15 0.1043659172 0 68 0.1043659172 1
gene 1 12 12 -1.290091761 1 72 -1.290091761 1
gene 1 2 15 0.23524029 0 77 0.23524029 1
gene 1 6 15 1.108931471 0 84 1.108931471 0
gene 1 8 18 1 0 85 0 1
gene 1 18 12 -0.02178241145 0 86 -0.06462125671 1
gene 1 15 14 -0.7353085077 0 124 -0.7353085077 1
gene 1 9 15 -0.7837685936 0 134 -0.7837685936 1
gene 1 14 14 0.1919336073 1 140 0.1919336073 1
gene 1 1 15 -0.4152301735 0 226 -0.4152301735 1
gene 1 11 15 0.8417192059 0 270 0 1
gene 1 8 15 0.5278786887 0 281 0.5278786887 1
gene 1 13 12 0.1483800976 1 416 0.1483800976 1
gene 1 15 12 0.2317004416 1 498 0.2317004416 1
gene 1 5 18 -0.8856055112 0 714 0 1
gene 1 11 18 -0.8922069808 0 846 0 1
gene 1 15 18 -0.9322036961 0 1195 0 1
genomeend 209204
/* Novelty: 0.6245422363 Fitness: 261.5826416 Generation: 851 Indiv: 209454 */
/* Point: 59.97049332 45.23101425 59.97049332 45.23101425 */

/* Organism #208829 Fitness: 8.361559868 Error: 0 */
genomestart 208829
trait 1 0.8086033231 0.55363159 0.4688723586 0.1281143754 0.2988493443 0.5311897588 0.3204453083 0.1024392315 
node 1 1 1 3
node 2 1 1 1
node 3 1 1 1
node 4 1 1 1
node 5 1 1 1
node 6 1 1 1
node 7 1 1 1
node 8 1 1 1
node 9 1 1 1
node 10 1 1 1
node 11 1 1 1
node 12 1 0 0
node 13 1 0 2
node 14 1 0 2
node 15 1 0 0
node 18 1 0 0
gene 1 1 12 0.2689793566 0 1 0.2689793566 1
gene 1 2 12 -0.7120879871 0 2 -0.7120879871 0
gene 1 3 12 -1.124836146 0 3 -1.124836146 1
gene 1 4 12 0.4608211966 0 4 0.4608211966 1
gene 1 5 12 1.083912871 0 5 1.083912871 1
gene 1 6 12 -0.07325907034 0 6 -0.07325907034 1
gene 1 7 12 1.993300445 0 7 1.993300445 1
gene 1 8 12 0.163195601 0 8 0.163195601 0
gene 1 9 12 1.068796178 0 9 1.068796178 1
gene 1 10 12 -0.1289066651 0 10 -0.1289066651 1
gene 1 11 12 0.2701023124 0 11 0.2701023124 0
gene 1 12 13 -0.7843805471 0 12 -0.7843805471 1
gene 1 12 14 1.312905788 0 13 1.312905788 1
gene 1 3 13 -0.2116791115 0 14 -0.2116791115 0
gene 1 10 13 0.6290773132 0 15 0.6290773132 1
gene 1 2 14 -0.3521404012 0 16 -0.3521404012 1
gene 1 8 14 -0.2471964998 0 17 -0.2471964998 1
gene 1 9 14 0.6079470259 0 19 0.6079470259 1
gene 1 13 13 0.2901500063 1 21 0.2901500063 1
gene 1 1 14 1.517370824 0 22 1.517370824 1
gene 1 11 13 -1.161584187 0 24 -1.161584187 1
gene 1 6 14 -1.949027248 0 25 -1.949027248 0
gene 1 2 13 -2.644873492 0 26 -2.644873492 1
gene 1 7 13 0.520192147 0 27 0 1
gene 1 11 14 -1.071077866 0 28 -1.071077866 1
gene 1 7 14 -0.8852509463 0 30 -0.8852509463 1
gene 1 5 14 1.2061047 0 31 1.2061047 1
gene 1 4 14 0.6875327243 0 32 0.6875327243 1
gene 1 12 15 0.03784544404 0 37 0.03784544404 0
gene 1 15 13 0.8934101901 0 38 0.8934101901 1
gene 1 5 13 1.353853258 0 41 1.353853258 1
gene 1 10 14 -0.8488055167 0 46 -0.8488055167 1
gene 1 10 15 0.08045580447 0 49 0.08045580447 1
gene 1 3 14 -0.2200784198 0 52 -0.2200784198 1
gene 1 3 15 0.1043659172 0 68 0.1043659172 1
gene 1 12 12 -1.290091761 1 72 -1.290091761 1
gene 1 2 15 0.23524029 0 77 0.23524029 1
gene 1 6 15 1.108931471 0 84 1.108931471 0
gene 1 8 18 1 0 85 0 1
gene 1 18 12 -0.02178241145 0 86 -0.06462125671 1
gene 1 15 14 -0.7353085077 0 124 -0.7353085077 1
gene 1 9 15 -0.7837685936 0 134 -0.7837685936 1
gene 1 14 14 0.1919336073 1 140 0.1919336073 1
gene 1 1 15 -0.4152301735 0 226 -0.4152301735 1
gene 1 11 15 0.8417192059 0 270 0 1
gene 1 8 15 0.5278786887 0 281 0.5278786887 1
gene 1 13 12 0.1483800976 1 416 0.1483800976 1
gene 1 15 12 0.2317004416 1 498 0.2317004416 1
gene 1 5 18 -0.8856055112 0 714 0 1
gene 1 11 18 -0.8922069808 0 846 0 1
gene 1 15 18 -0.9322036961 0 1195 0 1
genomeend 208829
/* Novelty: 0.6245422363 Fitness: 261.5826416 Generation: 851 Indiv: 209079 */
/* Point: 59.97049332 45.23101425 59.97049332 45.23101425 */

/* Organism #209676 Fitness: 8.280413628 Error: 0 */
genomestart 209676
trait 1 0.8559118787 0.5555298998 0.5600377133 0.233205417 0.2350122301 0.4171281471 0.2827373851 0.168964821 
node 1 1 1 3
node 2 1 1 1
node 3 1 1 1
node 4 1 1 1
node 5 1 1 1
node 6 1 1 1
node 7 1 1 1
node 8 1 1 1
node 9 1 1 1
node 10 1 1 1
node 11 1 1 1
node 12 1 0 0
node 13 1 0 2
node 14 1 0 2
node 15 1 0 0
node 18 1 0 0
gene 1 1 12 0.231017377 0 1 0.231017377 1
gene 1 2 12 -0.7120879871 0 2 -0.7120879871 1
gene 1 3 12 -1.14598602 0 3 -1.14598602 1
gene 1 4 12 0.4653692335 0 4 0.4653692335 1
gene 1 5 12 1.083912871 0 5 1.083912871 1
gene 1 6 12 -0.07325907034 0 6 -0.07325907034 1
gene 1 7 12 1.993300445 0 7 1.993300445 1
gene 1 8 12 0.163195601 0 8 0.163195601 0
gene 1 9 12 1.033518081 0 9 1.033518081 1
gene 1 10 12 -0.1289066651 0 10 -0.1289066651 1
gene 1 11 12 0.2701023124 0 11 0.2701023124 1
gene 1 12 13 -0.7942826343 0 12 -0.7942826343 1
gene 1 12 14 1.298213707 0 13 1.298213707 1
gene 1 3 13 -0.2116791115 0 14 -0.2116791115 0
gene 1 10 13 0.6290773132 0 15 0.6290773132 1
gene 1 2 14 -0.3249458203 0 16 -0.3249458203 1
gene 1 8 14 -0.3072198647 0 17 -0.3072198647 1
gene 1 9 14 0.6196128252 0 19 0.6196128252 1
gene 1 13 13 0.2653706153 1 21 0.2653706153 1
gene 1 1 14 1.517370824 0 22 1.517370824 1
gene 1 11 13 -1.161584187 0 24 -1.161584187 1
gene 1 6 14 -1.905338701 0 25 -1.905338701 0
gene 1 2 13 -2.63456608 0 26 -2.63456608 1
gene 1 7 13 0.520192147 0 27 0 1
gene 1 11 14 -1.071077866 0 28 -1.071077866 1
gene 1 7 14 -0.878795632 0 30 -0.878795632 1
gene 1 5 14 1.2061047 0 31 1.2061047 1
gene 1 4 14 0.6459934577 0 32 0.6459934577 1
gene 1 12 15 0.03784544404 0 37 0.03784544404 0
gene 1 15 13 0.8934101901 0 38 0.8934101901 1
gene 1 5 13 1.421944478 0 41 1.421944478 1
gene 1 10 14 -0.8702740465 0 46 -0.8702740465 1
gene 1 10 15 0.05937070644 0 49 0.05937070644 1
gene 1 3 14 -0.2200784198 0 52 -0.2200784198 1
gene 1 3 15 0.08471766067 0 68 0.08471766067 1
gene 1 12 12 -1.290091761 1 72 -1.290091761 1
gene 1 2 15 0.1978456167 0 77 0.1978456167 1
gene 1 6 15 1.079232376 0 84 1.079232376 0
gene 1 8 18 1 0 85 0 1
gene 1 18 12 0.01358813443 0 86 -0.03231062836 1
gene 1 15 14 -0.7192436455 0 124 -0.7192436455 1
gene 1 9 15 -0.7837685936 0 134 -0.7837685936 1
gene 1 14 14 0.1821163209 1 140 0.1821163209 1
gene 1 1 15 -0.4152301735 0 226 -0.4152301735 1
gene 1 11 15 0.8417192059 0 270 0 1
gene 1 8 15 0.5278786887 0 281 0.5278786887 1
gene 1 13 12 0.1483800976 1 416 0.1483800976 1
gene 1 15 12 0.2317004416 1 498 0.2317004416 1
gene 1 5 18 -0.8856055112 0 714 0 1
gene 1 11 18 -0.8922069808 0 846 0 1
gene 1 15 18 -0.9322036961 0 1195 0 1
genomeend 209676
/* Novelty: 0.7283344269 Fitness: 276.7084656 Generation: 851 Indiv: 209926 */
/* Point: 37.4550209 42.37918472 37.4550209 42.37918472 */

/* Organism #210703 Fitness: 8.256789207 Error: 0 */
genomestart 210703
trait 1 0.9032204342 0.5574282095 0.651203068 0.3382964585 0.171175116 0.3030665355 0.2450294618 0.2354904106 
node 1 1 1 3
node 2 1 1 1
node 3 1 1 1
node 4 1 1 1
node 5 1 1 1
node 6 1 1 1
node 7 1 1 1
node 8 1 1 1
node 9 1 1 1
node 10 1 1 1
node 11 1 1 1
node 12 1 0 0
node 13 1 0 2
node 14 1 0 2
node 15 1 0 0
node 18 1 0 0
gene 1 1 12 0.1930553974 0 1 0.1930553974 1
gene 1 2 12 -0.7120879871 0 2 -0.7120879871 1
gene 1 3 12 -1.167135894 0 3 -1.167135894 1
gene 1 4 12 0.4699172704 0 4 0.4699172704 1
gene 1 5 12 1.083912871 0 5 1.083912871 1
gene 1 6 12 -0.07325907034 0 6 -0.07325907034 1
gene 1 7 12 1.993300445 0 7 1.993300445 1
gene 1 8 12 0.163195601 0 8 0.163195601 0
gene 1 9 12 0.9982399851 0 9 0.9982399851 1
gene 1 10 12 -0.1289066651 0 10 -0.1289066651 1
gene 1 11 12 0.2701023124 0 11 0.2701023124 0
gene 1 12 13 -0.8041847215 0 12 -0.8041847215 1
gene 1 12 14 1.283521625 0 13 1.283521625 1
gene 1 3 13 -0.2116791115 0 14 -0.2116791115 0
gene 1 10 13 0.6290773132 0 15 0.6290773132 1
gene 1 2 14 -0.2977512395 0 16 -0.2977512395 1
gene 1 8 14 -0.3672432295 0 17 -0.3672432295 1
gene 1 9 14 0.6312786246 0 19 0.6312786246 1
gene 1 13 13 0.2405912242 1 21 0.2405912242 1
gene 1 1 14 1.517370824 0 22 1.517370824 1
gene 1 11 13 -1.161584187 0 24 -1.161584187 1
gene 1 6 14 -1.861650155 0 25 -1.861650155 0
gene 1 2 13 -2.624258668 0 26 -2.624258668 1
gene 1 7 13 0.520192147 0 27 0 1
gene 1 11 14 -1.071077866 0 28 -1.071077866 1
gene 1 7 14 -0.8723403178 0 30 -0.8723403178 1
gene 1 5 14 1.2061047 0 31 1.2061047 1
gene 1 4 14 0.6044541912 0 32 0.6044541912 1
gene 1 12 15 0.03784544404 0 37 0.03784544404 0
gene 1 15 13 0.8934101901 0 38 0.8934101901 1
gene 1 5 13 1.490035697 0 41 1.490035697 1
gene 1 10 14 -0.8917425763 0 46 -0.8917425763 1
gene 1 10 15 0.03828560842 0 49 0.03828560842 1
gene 1 3 14 -0.2200784198 0 52 -0.2200784198 1
gene 1 3 15 0.06506940418 0 68 0.06506940418 1
gene 1 12 12 -1.290091761 1 72 -1.290091761 1
gene 1 2 15 0.1604509434 0 77 0.1604509434 1
gene 1 6 15 1.049533281 0 84 1.049533281 1
gene 1 8 18 1 0 85 0 1
gene 1 18 12 0.0489586803 0 86 0 1
gene 1 15 14 -0.7031787833 0 124 -0.7031787833 1
gene 1 9 15 -0.7837685936 0 134 -0.7837685936 1
gene 1 14 14 0.1722990345 1 140 0.1722990345 1
gene 1 1 15 -0.4152301735 0 226 -0.4152301735 1
gene 1 11 15 0.8417192059 0 270 0 1
gene 1 8 15 0.5278786887 0 281 0.5278786887 1
gene 1 13 12 0.1483800976 1 416 0.1483800976 1
gene 1 15 12 0.2317004416 1 498 0.2317004416 1
gene 1 5 18 -0.8856055112 0 714 0 1
gene 1 11 18 -0.8922069808 0 846 0 1
genomeend 210703
/* Novelty: 2.328983307 Fitness: 277.2953796 Generation: 851 Indiv: 210953 */
/* Point: 34.14752197 42.48538589 34.14752197 42.48538589 */

/* Organism #189910 Fitness: 8.238027573 Error: 0 */
genomestart 189910
trait 1 0.8055950334 0.55363159 0.4820788503 0.1273872087 0.2933899452 0.5240114757 0.3228437218 0.1025180758 
node 1 1 1 3
node 2 1 1 1
node 3 1 1 1
node 4 1 1 1
node 5 1 1 1
node 6 1 1 1
node 7 1 1 1
node 8 1 1 1
node 9 1 1 1
node 10 1 1 1
node 11 1 1 1
node 12 1 0 0
node 13 1 0 2
node 14 1 0 2
node 15 1 0 0
node 18 1 0 0
gene 1 1 12 0.2689793566 0 1 0.2689793566 1
gene 1 2 12 -0.7120879871 0 2 -0.7120879871 1
gene 1 3 12 -1.124836146 0 3 -1.124836146 1
gene 1 4 12 0.4608211966 0 4 0.4608211966 1
gene 1 5 12 1.083912871 0 5 1.083912871 1
gene 1 6 12 -0.07325907034 0 6 -0.07325907034 1
gene 1 7 12 1.993300445 0 7 1.993300445 1
gene 1 8 12 0.163195601 0 8 0.163195601 0
gene 1 9 12 1.068796178 0 9 1.068796178 1
gene 1 10 12 -0.1289066651 0 10 -0.1289066651 1
gene 1 11 12 0.2701023124 0 11 0.2701023124 1
gene 1 12 13 -0.7843805471 0 12 -0.7843805471 1
gene 1 12 14 1.312905788 0 13 1.312905788 1
gene 1 3 13 -0.2116791115 0 14 -0.2116791115 0
gene 1 10 13 0.6290773132 0 15 0.6290773132 1
gene 1 2 14 -0.3521404012 0 16 -0.3521404012 1
gene 1 8 14 -0.2471964998 0 17 -0.2471964998 1
gene 1 9 14 0.6079470259 0 19 0.6079470259 1
gene 1 13 13 0.2901500063 1 21 0.2901500063 1
gene 1 1 14 1.517370824 0 22 1.517370824 1
gene 1 11 13 -1.161584187 0 24 -1.161584187 1
gene 1 6 14 -1.949027248 0 25 -1.949027248 0
gene 1 2 13 -2.644873492 0 26 -2.644873492 1
gene 1 7 13 0.520192147 0 27 0 1
gene 1 11 14 -1.071077866 0 28 -1.071077866 1
gene 1 7 14 -0.8852509463 0 30 -0.8852509463 1
gene 1 5 14 1.2061047 0 31 1.2061047 1
gene 1 4 14 0.6875327243 0 32 0.6875327243 1
gene 1 12 15 0.03784544404 0 37 0.03784544404 0
gene 1 15 13 0.8934101901 0 38 0.8934101901 1
gene 1 5 13 1.353853258 0 41 1.353853258 1
gene 1 10 14 -0.8488055167 0 46 -0.8488055167 1
gene 1 10 15 0.08045580447 0 49 0.08045580447 1
gene 1 3 14 -0.2200784198 0 52 -0.2200784198 1
gene 1 3 15 0.1043659172 0 68 0.1043659172 1
gene 1 12 12 -1.290091761 1 72 -1.290091761 1
gene 1 2 15 0.23524029 0 77 0.23524029 1
gene 1 6 15 1.108931471 0 84 1.108931471 1
gene 1 8 18 1 0 85 0 1
gene 1 18 12 -0.02178241145 0 86 -0.06462125671 1
gene 1 15 14 -0.7353085077 0 124 -0.7353085077 1
gene 1 9 15 -0.7837685936 0 134 -0.7837685936 1
gene 1 14 14 0.1919336073 1 140 0.1919336073 1
gene 1 1 15 -0.4152301735 0 226 -0.4152301735 1
gene 1 11 15 0.8417192059 0 270 0 1
gene 1 8 15 0.5278786887 0 281 0.5278786887 1
gene 1 13 12 0.1483800976 1 416 0.1483800976 1
gene 1 15 12 0.2317004416 1 498 0.2317004416 1
gene 1 5 18 -0.8856055112 0 714 0 1
gene 1 11 18 -0.8922069808 0 846 0 1
gene 1 15 18 -0.9322036961 0 1195 0 1
genomeend 189910
/* Novelty: 1.977751732 Fitness: 292.9725647 Generation: 851 Indiv: 190160 */
/* Point: 26.45432091 25.35924911 26.45432091 25.35924911 */

/* Organism #192479 Fitness: 8.097715378 Error: 0 */
genomestart 192479
trait 1 0.8095405363 0.6221414414 0.446545049 0.1515672638 0.3599567589 0.5394789601 0.3195248101 0.1337769636 
node 1 1 1 3
node 2 1 1 1
node 3 1 1 1
node 4 1 1 1
node 5 1 1 1
node 6 1 1 1
node 7 1 1 1
node 8 1 1 1
node 9 1 1 1
node 10 1 1 1
node 11 1 1 1
node 12 1 0 0
node 13 1 0 2
node 14 1 0 2
node 15 1 0 0
node 18 1 0 0
gene 1 1 12 0.3069413362 0 1 0.3069413362 1
gene 1 2 12 -0.7120879871 0 2 -0.7120879871 1
gene 1 3 12 -1.14598602 0 3 -1.14598602 1
gene 1 4 12 0.4653692335 0 4 0.4653692335 1
gene 1 5 12 1.083912871 0 5 1.083912871 1
gene 1 6 12 -0.07325907034 0 6 -0.07325907034 1
gene 1 7 12 1.993300445 0 7 1.993300445 1
gene 1 8 12 0.163195601 0 8 0.163195601 1
gene 1 9 12 1.033518081 0 9 1.033518081 1
gene 1 10 12 -0.1289066651 0 10 -0.1289066651 1
gene 1 11 12 0.2701023124 0 11 0.2701023124 0
gene 1 12 13 -0.7744784599 0 12 -0.7744784599 1
gene 1 12 14 1.32759787 0 13 1.32759787 1
gene 1 3 13 -0.2116791115 0 14 -0.2116791115 0
gene 1 10 13 0.6290773132 0 15 0.6290773132 1
gene 1 2 14 -0.379334982 0 16 -0.379334982 1
gene 1 8 14 -0.2676137092 0 17 -0.2676137092 1
gene 1 9 14 0.6196128252 0 19 0.6196128252 1
gene 1 13 13 0.3149293973 1 21 0.3149293973 1
gene 1 1 14 1.517370824 0 22 1.517370824 1
gene 1 11 13 -1.161584187 0 24 -1.161584187 1
gene 1 6 14 -1.936246956 0 25 -1.936246956 0
gene 1 2 13 -2.655180904 0 26 -2.655180904 1
gene 1 7 13 0.520192147 0 27 0 1
gene 1 11 14 -1.071077866 0 28 -1.071077866 1
gene 1 7 14 -0.8917062606 0 30 -0.8917062606 1
gene 1 5 14 1.2061047 0 31 1.2061047 1
gene 1 4 14 0.8121505239 0 32 0.8121505239 1
gene 1 12 15 0.03784544404 0 37 0.03784544404 0
gene 1 15 13 0.8934101901 0 38 0.8934101901 1
gene 1 5 13 1.285762039 0 41 1.285762039 1
gene 1 10 14 -0.8702740465 0 46 -0.8702740465 1
gene 1 10 15 0.05937070644 0 49 0.05937070644 1
gene 1 3 14 -0.2200784198 0 52 -0.2200784198 1
gene 1 3 15 0.1240141736 0 68 0.1240141736 1
gene 1 12 12 -1.290091761 1 72 -1.290091761 1
gene 1 2 15 0.1978456167 0 77 0.1978456167 1
gene 1 6 15 1.138630566 0 84 1.138630566 1
gene 1 8 18 1 0 85 0 1
gene 1 18 12 0.01358813443 0 86 -0.03231062836 1
gene 1 15 14 -0.7192436455 0 124 -0.7192436455 1
gene 1 9 15 -0.7837685936 0 134 -0.7837685936 1
gene 1 14 14 0.1821163209 1 140 0.1821163209 1
gene 1 1 15 -0.4152301735 0 226 -0.4152301735 1
gene 1 11 15 0.8417192059 0 270 0 1
gene 1 8 15 0.5278786887 0 281 0.5278786887 1
gene 1 13 12 0.1483800976 1 416 0.1483800976 1
gene 1 15 12 0.2317004416 1 498 0.2317004416 1
gene 1 5 18 -0.8856055112 0 714 0 1
gene 1 11 18 -0.8922069808 0 846 0 1
gene 1 15 18 -0.9322036961 0 1195 0 1
genomeend 192479
/* Novelty: 2.172813416 Fitness: 280.8131104 Generation: 851 Indiv: 192729 */
/* Point: 47.27300644 30.16494751 47.27300644 30.16494751 */

/* Organism #209142 Fitness: 8.089762688 Error: 0 */
genomestart 209142
trait 1 0.4948512375 0.5360774177 0 0.3079957703 0.5358700457 0.3487099296 0.09813332865 0.001603267833 
node 1 1 1 3
node 2 1 1 1
node 3 1 1 1
node 4 1 1 1
node 5 1 1 1
node 6 1 1 1
node 7 1 1 1
node 8 1 1 1
node 9 1 1 1
node 10 1 1 1
node 11 1 1 1
node 12 1 0 0
node 13 1 0 2
node 14 1 0 2
node 15 1 0 0
gene 1 1 12 -0.06625261671 0 1 -0.06625261671 1
gene 1 2 12 -0.3624956856 0 2 -0.3624956856 1
gene 1 3 12 -0.07808869149 0 3 -0.07808869149 1
gene 1 4 12 -0.7353952432 0 4 -0.7353952432 1
gene 1 5 12 1.048082177 0 5 1.048082177 1
gene 1 6 12 -0.7435348613 0 6 -0.7435348613 1
gene 1 7 12 -0.5414908149 0 7 -0.5414908149 1
gene 1 8 12 -0.2220532878 0 8 -0.2220532878 1
gene 1 9 12 0.03008617769 0 9 0.03008617769 1
gene 1 10 12 0.3672893474 0 10 0.3672893474 1
gene 1 11 12 0.5338684689 0 11 0.5338684689 1
gene 1 12 13 -0.6426093101 0 12 -0.6426093101 1
gene 1 12 14 2.359439218 0 13 2.359439218 1
gene 1 3 13 -0.09155324128 0 14 -0.09155324128 1
gene 1 8 14 0.3355922251 0 17 0.3355922251 1
gene 1 9 14 1.897381537 0 19 1.897381537 1
gene 1 13 13 0.6149138302 1 21 0.6149138302 1
gene 1 11 13 -0.7036195735 0 24 -0.7036195735 0
gene 1 2 13 -0.1907290789 0 26 -0.1907290789 1
gene 1 11 14 0.1558725334 0 28 0.1558725334 1
gene 1 5 14 -0.06686222324 0 31 0 1
gene 1 12 15 0.8073078082 0 37 0.8073078082 1
gene 1 15 13 0.1294864314 0 38 0.1294864314 1
gene 1 5 13 0.7792773398 0 41 0.7792773398 1
gene 1 10 15 0.4496332521 0 49 0.4496332521 1
gene 1 1 13 -0.4447640873 0 74 -0.4447640873 1
gene 1 2 15 0.06798124735 0 77 0.06798124735 1
gene 1 6 15 1.722313258 0 84 1.722313258 1
gene 1 15 15 -0.5774196043 1 114 -0.5774196043 0
gene 1 14 15 -0.1547118934 0 125 -0.1547118934 0
gene 1 7 15 -0.4342120652 0 132 -0.4342120652 1
gene 1 9 15 -0.820804827 0 134 -0.820804827 1
gene 1 4 15 0.3500263329 0 191 0.3500263329 0
gene 1 8 15 0.2486950694 0 281 0.2486950694 1
gene 1 12 12 0.01586743542 1 311 0.01586743542 1
gene 1 14 14 -0.08309004596 1 2302 -0.08309004596 1
gene 1 14 12 -0.3070012239 1 3646 -0.3070012239 1
genomeend 209142
/* Novelty: 1.065177917 Fitness: 216.47995 Generation: 851 Indiv: 209392 */
/* Point: 64.46674347 96.52172852 64.46674347 96.52172852 */

/* Organism #208589 Fitness: 8.089762688 Error: 0 */
genomestart 208589
trait 1 0.4948512375 0.5360774177 0 0.3079957703 0.5358700457 0.3487099296 0.09813332865 0.001603267833 
node 1 1 1 3
node 2 1 1 1
node 3 1 1 1
node 4 1 1 1
node 5 1 1 1
node 6 1 1 1
node 7 1 1 1
node 8 1 1 1
node 9 1 1 1
node 10 1 1 1
node 11 1 1 1
node 12 1 0 0
node 13 1 0 2
node 14 1 0 2
node 15 1 0 0
gene 1 1 12 -0.06625261671 0 1 -0.06625261671 1
gene 1 2 12 -0.3624956856 0 2 -0.3624956856 1
gene 1 3 12 -0.07808869149 0 3 -0.07808869149 1
gene 1 4 12 -0.7353952432 0 4 -0.7353952432 1
gene 1 5 12 1.048082177 0 5 1.048082177 1
gene 1 6 12 -0.7435348613 0 6 -0.7435348613 1
gene 1 7 12 -0.5414908149 0 7 -0.5414908149 1
gene 1 8 12 -0.2220532878 0 8 -0.2220532878 1
gene 1 9 12 0.03008617769 0 9 0.03008617769 1
gene 1 10 12 0.3672893474 0 10 0.3672893474 1
gene 1 11 12 0.5338684689 0 11 0.5338684689 1
gene 1 12 13 -0.6426093101 0 12 -0.6426093101 1
gene 1 12 14 2.359439218 0 13 2.359439218 1
gene 1 3 13 -0.09155324128 0 14 -0.09155324128 1
gene 1 8 14 0.3355922251 0 17 0.3355922251 1
gene 1 9 14 1.897381537 0 19 1.897381537 1
gene 1 13 13 0.6149138302 1 21 0.6149138302 1
gene 1 11 13 -0.7036195735 0 24 -0.7036195735 0
gene 1 2 13 -0.1907290789 0 26 -0.1907290789 1
gene 1 11 14 0.1558725334 0 28 0.1558725334 1
gene 1 5 14 -0.06686222324 0 31 0 1
gene 1 12 15 0.8073078082 0 37 0.8073078082 1
gene 1 15 13 0.1294864314 0 38 0.1294864314 1
gene 1 5 13 0.7792773398 0 41 0.7792773398 1
gene 1 10 15 0.4496332521 0 49 0.4496332521 1
gene 1 1 13 -0.4447640873 0 74 -0.4447640873 1
gene 1 2 15 0.06798124735 0 77 0.06798124735 1
gene 1 6 15 1.722313258 0 84 1.722313258 1
gene 1 15 15 -0.5774196043 1 114 -0.5774196043 0
gene 1 14 15 -0.1547118934 0 125 -0.1547118934 0
gene 1 7 15 -0.4342120652 0 132 -0.4342120652 1
gene 1 9 15 -0.820804827 0 134 -0.820804827 1
gene 1 4 15 0.3500263329 0 191 0.3500263329 0
gene 1 8 15 0.2486950694 0 281 0.2486950694 1
gene 1 12 12 0.01586743542 1 311 0.01586743542 1
gene 1 14 14 -0.08309004596 1 2302 -0.08309004596 1
gene 1 14 12 -0.3070012239 1 3646 -0.3070012239 1
genomeend 208589
/* Novelty: 1.065177917 Fitness: 216.47995 Generation: 851 Indiv: 208839 */
/* Point: 64.46674347 96.52172852 64.46674347 96.52172852 */

/* Organism #177516 Fitness: 8.088441849 Error: 0 */
genomestart 177516
trait 1 0.899723677 0.7998712018 0.4204184137 0.1668288114 0.2005231885 0.5571601681 0.1636992475 0.5032748858 
node 1 1 1 3
node 2 1 1 1
node 3 1 1 1
node 4 1 1 1
node 5 1 1 1
node 6 1 1 1
node 7 1 1 1
node 8 1 1 1
node 9 1 1 1
node 10 1 1 1
node 11 1 1 1
node 12 1 0 0
node 13 1 0 2
node 14 1 0 2
node 15 1 0 0
node 18 1 0 0
gene 1 1 12 0.1930553974 0 1 0.1930553974 1
gene 1 2 12 -0.7120879871 0 2 -0.7120879871 0
gene 1 3 12 -1.167135894 0 3 -1.167135894 1
gene 1 4 12 0.4699172704 0 4 0.4699172704 1
gene 1 5 12 1.083912871 0 5 1.083912871 1
gene 1 6 12 -0.07325907034 0 6 -0.07325907034 1
gene 1 7 12 1.993300445 0 7 1.993300445 1
gene 1 8 12 0.163195601 0 8 0.163195601 0
gene 1 9 12 0.9982399851 0 9 0.9982399851 1
gene 1 10 12 -0.1289066651 0 10 -0.1289066651 1
gene 1 11 12 0.2701023124 0 11 0.2701023124 0
gene 1 12 13 -0.8041847215 0 12 -0.8041847215 1
gene 1 12 14 1.342289951 0 13 1.342289951 1
gene 1 3 13 -0.2116791115 0 14 -0.2116791115 0
gene 1 10 13 0.6290773132 0 15 0.6290773132 1
gene 1 2 14 -0.2977512395 0 16 -0.2977512395 1
gene 1 8 14 -0.3672432295 0 17 -0.3672432295 1
gene 1 9 14 0.6312786246 0 19 0.6312786246 1
gene 1 13 13 0.2405912242 1 21 0.2405912242 1
gene 1 1 14 1.517370824 0 22 1.517370824 1
gene 1 11 13 -1.161584187 0 24 -1.161584187 1
gene 1 6 14 -1.861650155 0 25 -1.861650155 1
gene 1 2 13 -2.624258668 0 26 -2.624258668 1
gene 1 7 13 0.520192147 0 27 0 1
gene 1 11 14 -1.071077866 0 28 -1.071077866 1
gene 1 7 14 -0.8981615749 0 30 -0.8981615749 1
gene 1 5 14 1.2061047 0 31 1.2061047 1
gene 1 4 14 0.9367683235 0 32 0.9367683235 1
gene 1 12 15 0.03784544404 0 37 0.03784544404 0
gene 1 15 13 0.8934101901 0 38 0.8934101901 1
gene 1 5 13 1.490035697 0 41 1.490035697 1
gene 1 10 14 -0.8917425763 0 46 -0.8917425763 1
gene 1 10 15 0.03828560842 0 49 0.03828560842 1
gene 1 3 14 -0.2200784198 0 52 -0.2200784198 1
gene 1 3 15 0.1436624301 0 68 0.1436624301 1
gene 1 12 12 -1.290091761 1 72 -1.290091761 1
gene 1 2 15 0.1604509434 0 77 0.1604509434 1
gene 1 6 15 1.168329661 0 84 1.168329661 1
gene 1 8 18 1 0 85 0 1
gene 1 18 12 0.0489586803 0 86 0 1
gene 1 15 14 -0.7031787833 0 124 -0.7031787833 1
gene 1 9 15 -0.7837685936 0 134 -0.7837685936 1
gene 1 14 14 0.1722990345 1 140 0.1722990345 1
gene 1 1 15 -0.4152301735 0 226 -0.4152301735 1
gene 1 11 15 0.8417192059 0 270 0 1
gene 1 8 15 0.5278786887 0 281 0.5278786887 1
gene 1 13 12 0.1483800976 1 416 0.1483800976 1
gene 1 15 12 0.2317004416 1 498 0.2317004416 1
gene 1 5 18 -0.8856055112 0 714 0 1
genomeend 177516
/* Novelty: 3.237823486 Fitness: 279.5403442 Generation: 851 Indiv: 177766 */
/* Point: 42.91731644 36.63053131 42.91731644 36.63053131 */

/* Organism #192914 Fitness: 7.949201584 Error: 0 */
genomestart 192914
trait 1 0.8134860392 0.6906512928 0.4110112476 0.175747319 0.4265235726 0.5549464445 0.3162058984 0.1650358514 
node 1 1 1 3
node 2 1 1 1
node 3 1 1 1
node 4 1 1 1
node 5 1 1 1
node 6 1 1 1
node 7 1 1 1
node 8 1 1 1
node 9 1 1 1
node 10 1 1 1
node 11 1 1 1
node 12 1 0 0
node 13 1 0 2
node 14 1 0 2
node 15 1 0 0
node 18 1 0 0
gene 1 1 12 0.6199616285 0 1 0.6199616285 1
gene 1 2 12 -1.000535307 0 2 -1.000535307 1
gene 1 3 12 -1.187714806 0 3 -1.187714806 1
gene 1 4 12 0.7754063016 0 4 0.7754063016 1
gene 1 5 12 1.435770608 0 5 1.435770608 1
gene 1 6 12 0.2295114967 0 6 0.2295114967 1
gene 1 7 12 1.877554476 0 7 1.877554476 1
gene 1 8 12 0.163195601 0 8 0.163195601 0
gene 1 9 12 1.093970864 0 9 1.093970864 1
gene 1 10 12 -0.3723333754 0 10 -0.3723333754 1
gene 1 11 12 0.00924587757 0 11 0.00924587757 0
gene 1 12 13 -0.6201618108 0 12 -0.6201618108 1
gene 1 12 14 1.344983597 0 13 1.344983597 1
gene 1 3 13 -0.3508389172 0 14 -0.3508389172 0
gene 1 10 13 0.5878249431 0 15 0.5878249431 1
gene 1 2 14 -0.5694466455 0 16 -0.5694466455 1
gene 1 8 14 -0.08967032204 0 17 -0.08967032204 1
gene 1 9 14 1.028609912 0 19 1.028609912 1
gene 1 13 13 0.4332308205 1 21 0.4332308205 1
gene 1 1 14 1.217148776 0 22 1.217148776 1
gene 1 11 13 -0.8466658453 0 24 -0.8466658453 1
gene 1 6 14 -1.610053333 0 25 -1.610053333 0
gene 1 2 13 -2.832744158 0 26 -2.832744158 1
gene 1 11 14 -0.2105394999 0 28 -0.2105394999 1
gene 1 7 14 -1.284139468 0 30 -1.284139468 1
gene 1 5 14 0.9282855155 0 31 0.9282855155 1
gene 1 4 14 1.022882458 0 32 1.022882458 1
gene 1 12 15 -0.151685293 0 37 -0.151685293 0
gene 1 15 13 1.225580954 0 38 1.225580954 1
gene 1 5 13 1.514418197 0 41 1.514418197 1
gene 1 10 14 -0.7629028536 0 46 -0.7629028536 1
gene 1 10 15 0.3063672488 0 49 0.3063672488 1
gene 1 3 14 -0.2584233419 0 52 -0.2584233419 1
gene 1 3 15 0.02343089214 0 68 0.02343089214 1
gene 1 12 12 -0.8487827541 1 72 -0.8487827541 1
gene 1 2 15 0.1604509434 0 77 0.1604509434 1
gene 1 6 15 0.892762033 0 84 0.892762033 1
gene 1 8 18 1.276637517 0 85 0.7766375167 1
gene 1 18 12 0.1914585566 0 86 0.1669792164 1
gene 1 15 14 -0.7050939438 0 124 -0.7050939438 1
gene 1 9 15 -0.5546477092 0 134 -0.5546477092 1
gene 1 14 14 0.08639796821 1 140 0.08639796821 1
gene 1 1 15 -0.7309728578 0 226 -0.7309728578 1
gene 1 11 15 0.8967011175 0 270 0.4758415145 1
gene 1 8 15 0.770657243 0 281 0.770657243 1
gene 1 13 12 0.5007989964 1 416 0.5007989964 1
gene 1 15 12 0.3785204691 1 498 0.3785204691 1
gene 1 11 18 -0.5264305682 0 846 -0.08032707781 1
genomeend 192914
/* Novelty: 1.438289642 Fitness: 190.9660339 Generation: 851 Indiv: 193164 */
/* Point: 112.6285019 92.28548431 112.6285019 92.28548431 */

/* Organism #191988 Fitness: 7.949201584 Error: 0 */
genomestart 191988
trait 1 0.8134860392 0.6906512928 0.4110112476 0.175747319 0.4265235726 0.5549464445 0.3162058984 0.1650358514 
node 1 1 1 3
node 2 1 1 1
node 3 1 1 1
node 4 1 1 1
node 5 1 1 1
node 6 1 1 1
node 7 1 1 1
node 8 1 1 1
node 9 1 1 1
node 10 1 1 1
node 11 1 1 1
node 12 1 0 0
node 13 1 0 2
node 14 1 0 2
node 15 1 0 0
node 18 1 0 0
gene 1 1 12 0.6199616285 0 1 0.6199616285 1
gene 1 2 12 -1.000535307 0 2 -1.000535307 1
gene 1 3 12 -1.187714806 0 3 -1.187714806 1
gene 1 4 12 0.7754063016 0 4 0.7754063016 1
gene 1 5 12 1.435770608 0 5 1.435770608 1
gene 1 6 12 0.2295114967 0 6 0.2295114967 1
gene 1 7 12 1.877554476 0 7 1.877554476 1
gene 1 8 12 0.163195601 0 8 0.163195601 0
gene 1 9 12 1.093970864 0 9 1.093970864 1
gene 1 10 12 -0.3723333754 0 10 -0.3723333754 1
gene 1 11 12 0.00924587757 0 11 0.00924587757 0
gene 1 12 13 -0.6201618108 0 12 -0.6201618108 1
gene 1 12 14 1.344983597 0 13 1.344983597 1
gene 1 3 13 -0.3508389172 0 14 -0.3508389172 0
gene 1 10 13 0.5878249431 0 15 0.5878249431 1
gene 1 2 14 -0.5694466455 0 16 -0.5694466455 1
gene 1 8 14 -0.08967032204 0 17 -0.08967032204 1
gene 1 9 14 1.028609912 0 19 1.028609912 1
gene 1 13 13 0.4332308205 1 21 0.4332308205 1
gene 1 1 14 1.217148776 0 22 1.217148776 1
gene 1 11 13 -0.8466658453 0 24 -0.8466658453 1
gene 1 6 14 -1.610053333 0 25 -1.610053333 0
gene 1 2 13 -2.832744158 0 26 -2.832744158 1
gene 1 11 14 -0.2105394999 0 28 -0.2105394999 1
gene 1 7 14 -1.284139468 0 30 -1.284139468 1
gene 1 5 14 0.9282855155 0 31 0.9282855155 1
gene 1 4 14 1.022882458 0 32 1.022882458 1
gene 1 12 15 -0.151685293 0 37 -0.151685293 0
gene 1 15 13 1.225580954 0 38 1.225580954 1
gene 1 5 13 1.514418197 0 41 1.514418197 1
gene 1 10 14 -0.7629028536 0 46 -0.7629028536 1
gene 1 10 15 0.3063672488 0 49 0.3063672488 1
gene 1 3 14 -0.2584233419 0 52 -0.2584233419 1
gene 1 3 15 0.02343089214 0 68 0.02343089214 1
gene 1 12 12 -0.8487827541 1 72 -0.8487827541 1
gene 1 2 15 0.1604509434 0 77 0.1604509434 1
gene 1 6 15 0.892762033 0 84 0.892762033 1
gene 1 8 18 1.276637517 0 85 0.7766375167 1
gene 1 18 12 0.1914585566 0 86 0.1669792164 1
gene 1 15 14 -0.7050939438 0 124 -0.7050939438 1
gene 1 9 15 -0.5546477092 0 134 -0.5546477092 1
gene 1 14 14 0.08639796821 1 140 0.08639796821 1
gene 1 1 15 -0.7309728578 0 226 -0.7309728578 1
gene 1 11 15 0.8967011175 0 270 0.4758415145 1
gene 1 8 15 0.770657243 0 281 0.770657243 1
gene 1 13 12 0.5007989964 1 416 0.5007989964 1
gene 1 15 12 0.3785204691 1 498 0.3785204691 1
gene 1 11 18 -0.5264305682 0 846 -0.08032707781 1
genomeend 191988
/* Novelty: 1.438289642 Fitness: 190.9660339 Generation: 851 Indiv: 192238 */
/* Point: 112.6285019 92.28548431 112.6285019 92.28548431 */

/* Organism #202274 Fitness: 7.891031742 Error: 0 */
genomestart 202274
trait 1 0.8657550726 0.6906512928 0.4992182324 0.1752928398 0.4231114482 0.5504600175 0.4916275649 0.3385197374 
node 1 1 1 3
node 2 1 1 1
node 3 1 1 1
node 4 1 1 1
node 5 1 1 1
node 6 1 1 1
node 7 1 1 1
node 8 1 1 1
node 9 1 1 1
node 10 1 1 1
node 11 1 1 1
node 12 1 0 0
node 13 1 0 2
node 14 1 0 2
node 15 1 0 0
node 18 1 0 0
gene 1 1 12 0.3449033158 0 1 0.3449033158 1
gene 1 2 12 -0.7120879871 0 2 -0.7120879871 0
gene 1 3 12 -1.167135894 0 3 -1.167135894 1
gene 1 4 12 0.4699172704 0 4 0.4699172704 1
gene 1 5 12 1.083912871 0 5 1.083912871 1
gene 1 6 12 -0.07325907034 0 6 -0.07325907034 1
gene 1 7 12 1.993300445 0 7 1.993300445 1
gene 1 8 12 0.163195601 0 8 0.163195601 0
gene 1 9 12 0.9982399851 0 9 0.9982399851 1
gene 1 10 12 -0.1289066651 0 10 -0.1289066651 1
gene 1 11 12 0.2701023124 0 11 0.2701023124 1
gene 1 12 13 -0.7645763727 0 12 -0.7645763727 1
gene 1 12 14 1.342289951 0 13 1.342289951 1
gene 1 3 13 -0.2116791115 0 14 -0.2116791115 1
gene 1 10 13 0.6290773132 0 15 0.6290773132 1
gene 1 2 14 -0.4065295629 0 16 -0.4065295629 1
gene 1 8 14 -0.2880309186 0 17 -0.2880309186 1
gene 1 9 14 0.6312786246 0 19 0.6312786246 1
gene 1 13 13 0.3397087883 1 21 0.3397087883 1
gene 1 1 14 1.517370824 0 22 1.517370824 1
gene 1 11 13 -1.161584187 0 24 -1.161584187 1
gene 1 6 14 -1.923466665 0 25 -1.923466665 0
gene 1 2 13 -2.665488316 0 26 -2.665488316 1
gene 1 11 14 -1.071077866 0 28 -1.071077866 1
gene 1 7 14 -0.8981615749 0 30 -0.8981615749 1
gene 1 5 14 1.2061047 0 31 1.2061047 1
gene 1 4 14 0.9367683235 0 32 0.9367683235 1
gene 1 12 15 0.03784544404 0 37 0.03784544404 0
gene 1 15 13 0.8934101901 0 38 0.8934101901 1
gene 1 5 13 1.217670819 0 41 1.217670819 1
gene 1 10 14 -0.8917425763 0 46 -0.8917425763 1
gene 1 10 15 0.03828560842 0 49 0.03828560842 1
gene 1 3 14 -0.2200784198 0 52 -0.2200784198 1
gene 1 3 15 0.1436624301 0 68 0.1436624301 1
gene 1 12 12 -1.290091761 1 72 -1.290091761 1
gene 1 2 15 0.1604509434 0 77 0.1604509434 1
gene 1 6 15 1.168329661 0 84 1.168329661 1
gene 1 8 18 1 0 85 0 1
gene 1 18 12 0.0489586803 0 86 0 1
gene 1 15 14 -0.7031787833 0 124 -0.7031787833 1
gene 1 9 15 -0.7837685936 0 134 -0.7837685936 1
gene 1 14 14 0.1722990345 1 140 0.1722990345 1
gene 1 1 15 -0.4152301735 0 226 -0.4152301735 1
gene 1 11 15 0.8417192059 0 270 0 1
gene 1 8 15 0.5278786887 0 281 0.5278786887 1
gene 1 13 12 0.1483800976 1 416 0.1483800976 1
gene 1 15 12 0.2317004416 1 498 0.2317004416 1
gene 1 11 18 -0.8922069808 0 846 0 1
gene 1 7 18 0.09761821669 0 939 0 1
genomeend 202274
/* Novelty: 0 Fitness: 274.2838135 Generation: 851 Indiv: 202524 */
/* Point: 11.7576313 37.0602684 11.7576313 37.0602684 */

/* Organism #209859 Fitness: 7.674020767 Error: 0 */
genomestart 209859
trait 1 0.9027975167 0.6221414414 0.6018900785 0.3355892523 0.1466949726 0.3190630196 0.2448797839 0.266705496 
node 1 1 1 3
node 2 1 1 1
node 3 1 1 1
node 4 1 1 1
node 5 1 1 1
node 6 1 1 1
node 7 1 1 1
node 8 1 1 1
node 9 1 1 1
node 10 1 1 1
node 11 1 1 1
node 12 1 0 0
node 13 1 0 2
node 14 1 0 2
node 15 1 0 0
node 18 1 0 0
gene 1 1 12 0.3069413362 0 1 0.3069413362 1
gene 1 2 12 -0.7120879871 0 2 -0.7120879871 0
gene 1 3 12 -1.14598602 0 3 -1.14598602 1
gene 1 4 12 0.4653692335 0 4 0.4653692335 1
gene 1 5 12 1.083912871 0 5 1.083912871 1
gene 1 6 12 -0.07325907034 0 6 -0.07325907034 1
gene 1 7 12 1.993300445 0 7 1.993300445 1
gene 1 8 12 0.163195601 0 8 0.163195601 1
gene 1 9 12 1.033518081 0 9 1.033518081 1
gene 1 10 12 -0.1289066651 0 10 -0.1289066651 1
gene 1 11 12 0.2701023124 0 11 0.2701023124 1
gene 1 12 13 -0.7744784599 0 12 -0.7744784599 1
gene 1 12 14 1.32759787 0 13 1.32759787 1
gene 1 3 13 -0.2116791115 0 14 -0.2116791115 0
gene 1 10 13 0.6290773132 0 15 0.6290773132 1
gene 1 2 14 -0.379334982 0 16 -0.379334982 1
gene 1 8 14 -0.2676137092 0 17 -0.2676137092 1
gene 1 9 14 0.6196128252 0 19 0.6196128252 1
gene 1 13 13 0.3149293973 1 21 0.3149293973 1
gene 1 1 14 1.517370824 0 22 1.517370824 1
gene 1 11 13 -1.161584187 0 24 -1.161584187 1
gene 1 6 14 -1.936246956 0 25 -1.936246956 1
gene 1 2 13 -2.655180904 0 26 -2.655180904 1
gene 1 7 13 0.520192147 0 27 0 1
gene 1 11 14 -1.071077866 0 28 -1.071077866 1
gene 1 7 14 -0.8917062606 0 30 -0.8917062606 1
gene 1 5 14 1.2061047 0 31 1.2061047 1
gene 1 4 14 0.8121505239 0 32 0.8121505239 1
gene 1 12 15 0.03784544404 0 37 0.03784544404 0
gene 1 15 13 0.8934101901 0 38 0.8934101901 1
gene 1 5 13 1.285762039 0 41 1.285762039 1
gene 1 10 14 -0.8702740465 0 46 -0.8702740465 1
gene 1 10 15 0.05937070644 0 49 0.05937070644 1
gene 1 3 14 -0.2200784198 0 52 -0.2200784198 1
gene 1 3 15 0.1240141736 0 68 0.1240141736 1
gene 1 12 12 -1.290091761 1 72 -1.290091761 1
gene 1 2 15 0.1978456167 0 77 0.1978456167 1
gene 1 6 15 1.138630566 0 84 1.138630566 1
gene 1 8 18 1 0 85 0 1
gene 1 18 12 0.01358813443 0 86 -0.03231062836 1
gene 1 15 14 -0.7192436455 0 124 -0.7192436455 1
gene 1 9 15 -0.7837685936 0 134 -0.7837685936 1
gene 1 14 14 0.1821163209 1 140 0.1821163209 1
gene 1 1 15 -0.4152301735 0 226 -0.4152301735 1
gene 1 11 15 0.8417192059 0 270 0 1
gene 1 8 15 0.5278786887 0 281 0.5278786887 1
gene 1 13 12 0.1483800976 1 416 0.1483800976 1
gene 1 15 12 0.2317004416 1 498 0.2317004416 1
gene 1 5 18 -0.8856055112 0 714 0 1
gene 1 11 18 -0.8922069808 0 846 0 1
gene 1 15 18 -0.9322036961 0 1195 0 1
genomeend 209859
/* Novelty: 1.206274986 Fitness: 281.8290405 Generation: 851 Indiv: 210109 */
/* Point: 19.90860939 34.39320374 19.90860939 34.39320374 */

/* Species #155 : (Size 17) (AF 0) (Age 1)  */


/* Organism #211010 Fitness: 8.078140259 Error: 0 */
genomestart 211010
trait 1 0.4243306152 0 0.1851998848 0.2838666717 0.776952467 0.1178296637 0.2773917318 0.2840874976 
node 1 1 1 3
node 2 1 1 1
node 3 1 1 1
node 4 1 1 1
node 5 1 1 1
node 6 1 1 1
node 7 1 1 1
node 8 1 1 1
node 9 1 1 1
node 10 1 1 1
node 11 1 1 1
node 12 1 0 0
node 13 1 0 2
node 14 1 0 2
node 15 1 0 0
node 22 1 0 0
node 24 1 0 0
node 56 1 0 0
gene 1 1 12 1.450932301 0 1 1.450932301 1
gene 1 2 12 0.1066406217 0 2 0.1066406217 0
gene 1 3 12 0.02054821701 0 3 0.02054821701 0
gene 1 4 12 0.4089846193 0 4 0.4089846193 1
gene 1 5 12 -0.9758598006 0 5 -0.9758598006 0
gene 1 6 12 -1.193474761 0 6 -1.193474761 1
gene 1 7 12 -0.3020112917 0 7 -0.3020112917 0
gene 1 8 12 -0.07426136363 0 8 -0.07426136363 1
gene 1 9 12 -1.139096789 0 9 -1.139096789 0
gene 1 10 12 -0.09757513557 0 10 -0.09757513557 1
gene 1 11 12 -1.091455738 0 11 -1.091455738 1
gene 1 12 13 -0.5997407386 0 12 -0.5997407386 1
gene 1 12 14 0.3220501179 0 13 0.3220501179 1
gene 1 3 13 -0.9352103281 0 14 -0.9352103281 1
gene 1 10 13 0.1176425758 0 15 0.2343550783 1
gene 1 2 14 0.6051433212 0 16 0.6051433212 1
gene 1 9 14 -1.169175022 0 19 -1.169175022 0
gene 1 13 13 0.4157535027 1 21 0.4157535027 1
gene 1 11 13 -0.5044170287 0 24 -0.5044170287 0
gene 1 6 14 -0.3767511176 0 25 -0.3767511176 1
gene 1 2 13 -1.238766258 0 26 -1.238766258 1
gene 1 7 13 0.1709586631 0 27 0.1709586631 1
gene 1 11 14 -1.452029794 0 28 -1.452029794 1
gene 1 7 14 0.08887992561 0 30 0.08887992561 1
gene 1 5 14 0.3352570288 0 31 0.3352570288 1
gene 1 4 14 0.5987532432 0 32 0.5987532432 1
gene 1 12 15 0.8617444618 0 37 0.8617444618 1
gene 1 15 13 0.4787425004 0 38 0.4787425004 1
gene 1 5 13 -0.109368318 0 41 -0.109368318 0
gene 1 14 13 -0.208228161 0 48 -0.208228161 0
gene 1 10 15 -0.8729722415 0 49 -0.8729722415 1
gene 1 12 12 0.4342582346 1 72 0.4342582346 1
gene 1 2 15 0.1119366886 0 77 0.1119366886 1
gene 1 6 15 0.5008127062 0 84 0.5008127062 0
gene 1 5 22 2.105528502 0 117 2.105528502 1
gene 1 22 12 -0.685466498 0 118 -0.685466498 1
gene 1 15 15 -0.395847261 1 128 -0.395847261 1
gene 1 9 15 -0.4991384766 0 134 -0.4991384766 1
gene 1 7 24 1 0 137 0 1
gene 1 24 12 -0.0906033875 0 138 0 1
gene 1 4 15 -0.2252521857 0 191 -0.2252521857 0
gene 1 14 14 1.431791629 1 223 1.431791629 1
gene 1 1 15 0.4940003324 0 226 0.4940003324 1
gene 1 8 22 0.4992651827 0 227 0.02776914985 1
gene 1 3 22 -0.9415399357 0 254 0 1
gene 1 11 15 -0.2295276242 0 270 -0.2295276242 1
gene 1 14 12 -0.4529999122 1 273 -0.4529999122 1
gene 1 5 15 -1.186014231 0 278 -1.186014231 1
gene 1 22 13 1.462001772 0 279 1.462001772 1
gene 1 8 15 0.1263686874 0 281 0.1263686874 1
gene 1 22 14 -0.6109506854 0 330 0 1
gene 1 2 24 0.3647457447 0 404 0 1
gene 1 24 24 0.6137374302 1 570 0.6137374302 1
gene 1 14 56 1 0 589 0 1
gene 1 56 13 -0.05834367729 0 590 0 1
genomeend 211010
/* Novelty: 2.097412109 Fitness: 207.5884552 Generation: 851 Indiv: 211260 */
/* Point: 100.4258652 80.99133301 100.4258652 80.99133301 */

/* Organism #211571 Fitness: 8.078140259 Error: 0 */
genomestart 211571
trait 1 0.4243306152 0 0.1851998848 0.2838666717 0.776952467 0.1178296637 0.2773917318 0.2840874976 
node 1 1 1 3
node 2 1 1 1
node 3 1 1 1
node 4 1 1 1
node 5 1 1 1
node 6 1 1 1
node 7 1 1 1
node 8 1 1 1
node 9 1 1 1
node 10 1 1 1
node 11 1 1 1
node 12 1 0 0
node 13 1 0 2
node 14 1 0 2
node 15 1 0 0
node 22 1 0 0
node 24 1 0 0
node 56 1 0 0
gene 1 1 12 1.450932301 0 1 1.450932301 1
gene 1 2 12 0.1066406217 0 2 0.1066406217 0
gene 1 3 12 0.02054821701 0 3 0.02054821701 0
gene 1 4 12 0.4089846193 0 4 0.4089846193 1
gene 1 5 12 -0.9758598006 0 5 -0.9758598006 0
gene 1 6 12 -1.193474761 0 6 -1.193474761 1
gene 1 7 12 -0.3020112917 0 7 -0.3020112917 0
gene 1 8 12 -0.07426136363 0 8 -0.07426136363 1
gene 1 9 12 -1.139096789 0 9 -1.139096789 0
gene 1 10 12 -0.09757513557 0 10 -0.09757513557 1
gene 1 11 12 -1.091455738 0 11 -1.091455738 1
gene 1 12 13 -0.5997407386 0 12 -0.5997407386 1
gene 1 12 14 0.3220501179 0 13 0.3220501179 1
gene 1 3 13 -0.9352103281 0 14 -0.9352103281 1
gene 1 10 13 0.1176425758 0 15 0.2343550783 1
gene 1 2 14 0.6051433212 0 16 0.6051433212 1
gene 1 9 14 -1.169175022 0 19 -1.169175022 0
gene 1 13 13 0.4157535027 1 21 0.4157535027 1
gene 1 11 13 -0.5044170287 0 24 -0.5044170287 0
gene 1 6 14 -0.3767511176 0 25 -0.3767511176 1
gene 1 2 13 -1.238766258 0 26 -1.238766258 1
gene 1 7 13 0.1709586631 0 27 0.1709586631 1
gene 1 11 14 -1.452029794 0 28 -1.452029794 1
gene 1 7 14 0.08887992561 0 30 0.08887992561 1
gene 1 5 14 0.3352570288 0 31 0.3352570288 1
gene 1 4 14 0.5987532432 0 32 0.5987532432 1
gene 1 12 15 0.8617444618 0 37 0.8617444618 1
gene 1 15 13 0.4787425004 0 38 0.4787425004 1
gene 1 5 13 -0.109368318 0 41 -0.109368318 0
gene 1 14 13 -0.208228161 0 48 -0.208228161 0
gene 1 10 15 -0.8729722415 0 49 -0.8729722415 1
gene 1 12 12 0.4342582346 1 72 0.4342582346 1
gene 1 2 15 0.1119366886 0 77 0.1119366886 1
gene 1 6 15 0.5008127062 0 84 0.5008127062 0
gene 1 5 22 2.105528502 0 117 2.105528502 1
gene 1 22 12 -0.685466498 0 118 -0.685466498 1
gene 1 15 15 -0.395847261 1 128 -0.395847261 1
gene 1 9 15 -0.4991384766 0 134 -0.4991384766 1
gene 1 7 24 1 0 137 0 1
gene 1 24 12 -0.0906033875 0 138 0 1
gene 1 4 15 -0.2252521857 0 191 -0.2252521857 0
gene 1 14 14 1.431791629 1 223 1.431791629 1
gene 1 1 15 0.4940003324 0 226 0.4940003324 1
gene 1 8 22 0.4992651827 0 227 0.02776914985 1
gene 1 3 22 -0.9415399357 0 254 0 1
gene 1 11 15 -0.2295276242 0 270 -0.2295276242 1
gene 1 14 12 -0.4529999122 1 273 -0.4529999122 1
gene 1 5 15 -1.186014231 0 278 -1.186014231 1
gene 1 22 13 1.462001772 0 279 1.462001772 1
gene 1 8 15 0.1263686874 0 281 0.1263686874 1
gene 1 22 14 -0.6109506854 0 330 0 1
gene 1 2 24 0.3647457447 0 404 0 1
gene 1 24 24 0.6137374302 1 570 0.6137374302 1
gene 1 14 56 1 0 589 0 1
gene 1 56 13 -0.05834367729 0 590 0 1
genomeend 211571
/* Novelty: 2.097412109 Fitness: 207.5884552 Generation: 851 Indiv: 211821 */
/* Point: 100.4258652 80.99133301 100.4258652 80.99133301 */

/* Organism #208965 Fitness: 8.055416107 Error: 0 */
genomestart 208965
trait 1 0.518162499 0 0.1851998848 0 0.9230671177 0.1178296637 0.2773917318 0.2840874976 
node 1 1 1 3
node 2 1 1 1
node 3 1 1 1
node 4 1 1 1
node 5 1 1 1
node 6 1 1 1
node 7 1 1 1
node 8 1 1 1
node 9 1 1 1
node 10 1 1 1
node 11 1 1 1
node 12 1 0 0
node 13 1 0 2
node 14 1 0 2
node 15 1 0 0
node 22 1 0 0
node 24 1 0 0
node 56 1 0 0
gene 1 1 12 1.450932301 0 1 1.450932301 1
gene 1 2 12 0.1066406217 0 2 0.1066406217 0
gene 1 3 12 0.02054821701 0 3 0.02054821701 0
gene 1 4 12 0.4089846193 0 4 0.4089846193 1
gene 1 5 12 -0.9758598006 0 5 -0.9758598006 0
gene 1 6 12 -1.193474761 0 6 -1.193474761 1
gene 1 7 12 -0.3020112917 0 7 -0.3020112917 1
gene 1 8 12 -0.07426136363 0 8 -0.07426136363 1
gene 1 9 12 -1.139096789 0 9 -1.139096789 0
gene 1 10 12 -0.09757513557 0 10 -0.09757513557 1
gene 1 11 12 -1.091455738 0 11 -1.091455738 1
gene 1 12 13 -0.5997407386 0 12 -0.5997407386 1
gene 1 12 14 0.3220501179 0 13 0.3220501179 1
gene 1 3 13 -0.9352103281 0 14 -0.9352103281 1
gene 1 10 13 0.1176425758 0 15 0.2343550783 1
gene 1 2 14 0.6051433212 0 16 0.6051433212 1
gene 1 9 14 -1.169175022 0 19 -1.169175022 0
gene 1 13 13 0.4157535027 1 21 0.4157535027 1
gene 1 11 13 -0.5044170287 0 24 -0.5044170287 0
gene 1 6 14 -0.3767511176 0 25 -0.3767511176 1
gene 1 2 13 -1.238766258 0 26 -1.238766258 1
gene 1 7 13 0.1709586631 0 27 0.1709586631 1
gene 1 11 14 -1.452029794 0 28 -1.452029794 1
gene 1 7 14 0.08887992561 0 30 0.08887992561 1
gene 1 5 14 0.3352570288 0 31 0.3352570288 1
gene 1 4 14 0.5987532432 0 32 0.5987532432 1
gene 1 12 15 0.8617444618 0 37 0.8617444618 1
gene 1 15 13 0.4787425004 0 38 0.4787425004 1
gene 1 5 13 -0.109368318 0 41 -0.109368318 0
gene 1 14 13 -0.208228161 0 48 -0.208228161 0
gene 1 10 15 -0.8729722415 0 49 -0.8729722415 1
gene 1 12 12 0.4342582346 1 72 0.4342582346 1
gene 1 2 15 0.1119366886 0 77 0.1119366886 1
gene 1 6 15 0.5008127062 0 84 0.5008127062 0
gene 1 5 22 2.105528502 0 117 2.105528502 1
gene 1 22 12 -0.685466498 0 118 -0.685466498 1
gene 1 15 15 -0.395847261 1 128 -0.395847261 1
gene 1 9 15 -0.4991384766 0 134 -0.4991384766 1
gene 1 7 24 1 0 137 0 1
gene 1 24 12 -0.0906033875 0 138 0 1
gene 1 4 15 -0.2252521857 0 191 -0.2252521857 0
gene 1 14 14 1.431791629 1 223 1.431791629 1
gene 1 1 15 0.4940003324 0 226 0.4940003324 1
gene 1 8 22 0.4992651827 0 227 0.02776914985 1
gene 1 3 22 -0.9415399357 0 254 0 1
gene 1 11 15 -0.2295276242 0 270 -0.2295276242 1
gene 1 14 12 -0.4529999122 1 273 -0.4529999122 1
gene 1 5 15 -1.186014231 0 278 -1.186014231 1
gene 1 22 13 1.462001772 0 279 1.462001772 1
gene 1 8 15 0.1263686874 0 281 0.1263686874 1
gene 1 22 14 -0.6109506854 0 330 0 1
gene 1 2 24 0.3647457447 0 404 0 1
gene 1 24 24 0.6137374302 1 570 0.6137374302 1
gene 1 14 56 1 0 589 0 1
gene 1 56 13 -0.05834367729 0 590 0 1
genomeend 208965
/* Novelty: 1.31098938 Fitness: 208.7285004 Generation: 851 Indiv: 209215 */
/* Point: 97.58840942 82.42171478 97.58840942 82.42171478 */

/* Organism #186801 Fitness: 7.593727112 Error: 0 */
genomestart 186801
trait 1 0.2217252434 0.7231634714 1 0.520960655 0 0.6028421512 0.2783186902 1 
node 1 1 1 3
node 2 1 1 1
node 3 1 1 1
node 4 1 1 1
node 5 1 1 1
node 6 1 1 1
node 7 1 1 1
node 8 1 1 1
node 9 1 1 1
node 10 1 1 1
node 11 1 1 1
node 12 1 0 0
node 13 1 0 2
node 14 1 0 2
node 15 1 0 0
node 22 1 0 0
node 24 1 0 0
node 56 1 0 0
gene 1 1 12 1.450932301 0 1 1.450932301 1
gene 1 2 12 0.1066406217 0 2 0.1066406217 0
gene 1 3 12 -0.1233456754 0 3 -0.1233456754 0
gene 1 4 12 0.4089846193 0 4 0.4089846193 1
gene 1 5 12 -0.9758598006 0 5 -0.9758598006 1
gene 1 6 12 -1.193474761 0 6 -1.193474761 0
gene 1 7 12 -0.1813005899 0 7 -0.1813005899 0
gene 1 8 12 -0.07426136363 0 8 -0.07426136363 1
gene 1 9 12 -1.139096789 0 9 -1.139096789 0
gene 1 10 12 -0.09757513557 0 10 -0.09757513557 1
gene 1 11 12 -1.091455738 0 11 -1.091455738 1
gene 1 12 13 -0.5997407386 0 12 -0.5997407386 1
gene 1 12 14 0.36165779 0 13 0.36165779 1
gene 1 3 13 -1.017151796 0 14 -1.017151796 1
gene 1 10 13 0.1176425758 0 15 0.2343550783 1
gene 1 2 14 0.6051433212 0 16 0.6051433212 1
gene 1 9 14 -1.169175022 0 19 -1.169175022 0
gene 1 13 13 0.4157535027 1 21 0.4157535027 1
gene 1 11 13 -0.5044170287 0 24 -0.5044170287 0
gene 1 6 14 -0.1521348451 0 25 -0.1521348451 1
gene 1 2 13 -1.238766258 0 26 -1.238766258 1
gene 1 7 13 0.1709586631 0 27 0.1709586631 1
gene 1 11 14 -1.452029794 0 28 -1.452029794 0
gene 1 7 14 0.09548532269 0 30 0.09548532269 1
gene 1 5 14 0.1529143837 0 31 0.1529143837 1
gene 1 4 14 0.5987532432 0 32 0.5987532432 1
gene 1 12 15 0.8566786964 0 37 0.8566786964 1
gene 1 15 13 0.5053186781 0 38 0.5053186781 1
gene 1 5 13 0.07102787237 0 41 0.07102787237 0
gene 1 14 13 -0.1944789243 0 48 -0.1944789243 0
gene 1 10 15 -0.8729722415 0 49 -0.8729722415 1
gene 1 12 12 0.4345364387 1 72 0.4345364387 1
gene 1 2 15 0.1119366886 0 77 0.1119366886 1
gene 1 6 15 0.5008127062 0 84 0.5008127062 0
gene 1 5 22 2.105528502 0 117 2.105528502 1
gene 1 22 12 -0.685466498 0 118 -0.685466498 1
gene 1 15 15 -0.395847261 1 128 -0.395847261 1
gene 1 9 15 -0.5709418846 0 134 -0.5709418846 1
gene 1 7 24 1 0 137 0 1
gene 1 24 12 -0.0906033875 0 138 0 1
gene 1 8 24 -0.8224074891 0 164 0 1
gene 1 4 15 -0.2252521857 0 191 -0.2252521857 0
gene 1 14 14 1.431791629 1 223 1.431791629 1
gene 1 1 15 0.4940003324 0 226 0.4940003324 1
gene 1 8 22 0.4992651827 0 227 0.02776914985 1
gene 1 3 22 -0.9415399357 0 254 0 1
gene 1 11 15 -0.2088286017 0 270 -0.2088286017 1
gene 1 14 12 -0.4529999122 1 273 -0.4529999122 1
gene 1 5 15 -1.186014231 0 278 -1.186014231 1
gene 1 22 13 1.462001772 0 279 1.462001772 1
gene 1 8 15 0.1931649 0 281 0.1931649 1
gene 1 22 14 -0.6109506854 0 330 0 1
gene 1 2 24 0.3647457447 0 404 0 1
gene 1 24 24 0.6137374302 1 570 0.6137374302 1
gene 1 14 56 1 0 589 0 1
gene 1 56 13 -0.05834367729 0 590 0 1
genomeend 186801
/* Novelty: 2.347485542 Fitness: 212.5879364 Generation: 851 Indiv: 187051 */
/* Point: 118.2574768 14.80366421 118.2574768 14.80366421 */

/* Organism #208412 Fitness: 7.593727112 Error: 0 */
genomestart 208412
trait 1 0.2217252434 0.7231634714 1 0.520960655 0 0.6028421512 0.2783186902 1 
node 1 1 1 3
node 2 1 1 1
node 3 1 1 1
node 4 1 1 1
node 5 1 1 1
node 6 1 1 1
node 7 1 1 1
node 8 1 1 1
node 9 1 1 1
node 10 1 1 1
node 11 1 1 1
node 12 1 0 0
node 13 1 0 2
node 14 1 0 2
node 15 1 0 0
node 22 1 0 0
node 24 1 0 0
node 56 1 0 0
gene 1 1 12 1.450932301 0 1 1.450932301 1
gene 1 2 12 0.1066406217 0 2 0.1066406217 0
gene 1 3 12 -0.1233456754 0 3 -0.1233456754 0
gene 1 4 12 0.4089846193 0 4 0.4089846193 1
gene 1 5 12 -0.9758598006 0 5 -0.9758598006 1
gene 1 6 12 -1.193474761 0 6 -1.193474761 0
gene 1 7 12 -0.1813005899 0 7 -0.1813005899 0
gene 1 8 12 -0.07426136363 0 8 -0.07426136363 1
gene 1 9 12 -1.139096789 0 9 -1.139096789 0
gene 1 10 12 -0.09757513557 0 10 -0.09757513557 1
gene 1 11 12 -1.091455738 0 11 -1.091455738 1
gene 1 12 13 -0.5997407386 0 12 -0.5997407386 1
gene 1 12 14 0.36165779 0 13 0.36165779 1
gene 1 3 13 -1.017151796 0 14 -1.017151796 1
gene 1 10 13 0.1176425758 0 15 0.2343550783 1
gene 1 2 14 0.6051433212 0 16 0.6051433212 1
gene 1 9 14 -1.169175022 0 19 -1.169175022 0
gene 1 13 13 0.4157535027 1 21 0.4157535027 1
gene 1 11 13 -0.5044170287 0 24 -0.5044170287 0
gene 1 6 14 -0.1521348451 0 25 -0.1521348451 1
gene 1 2 13 -1.238766258 0 26 -1.238766258 1
gene 1 7 13 0.1709586631 0 27 0.1709586631 1
gene 1 11 14 -1.452029794 0 28 -1.452029794 0
gene 1 7 14 0.09548532269 0 30 0.09548532269 1
gene 1 5 14 0.1529143837 0 31 0.1529143837 1
gene 1 4 14 0.5987532432 0 32 0.5987532432 1
gene 1 12 15 0.8566786964 0 37 0.8566786964 1
gene 1 15 13 0.5053186781 0 38 0.5053186781 1
gene 1 5 13 0.07102787237 0 41 0.07102787237 0
gene 1 14 13 -0.1944789243 0 48 -0.1944789243 0
gene 1 10 15 -0.8729722415 0 49 -0.8729722415 1
gene 1 12 12 0.4345364387 1 72 0.4345364387 1
gene 1 2 15 0.1119366886 0 77 0.1119366886 1
gene 1 6 15 0.5008127062 0 84 0.5008127062 0
gene 1 5 22 2.105528502 0 117 2.105528502 1
gene 1 22 12 -0.685466498 0 118 -0.685466498 1
gene 1 15 15 -0.395847261 1 128 -0.395847261 1
gene 1 9 15 -0.5709418846 0 134 -0.5709418846 1
gene 1 7 24 1 0 137 0 1
gene 1 24 12 -0.0906033875 0 138 0 1
gene 1 8 24 -0.8224074891 0 164 0 1
gene 1 4 15 -0.2252521857 0 191 -0.2252521857 0
gene 1 14 14 1.431791629 1 223 1.431791629 1
gene 1 1 15 0.4940003324 0 226 0.4940003324 1
gene 1 8 22 0.4992651827 0 227 0.02776914985 1
gene 1 3 22 -0.9415399357 0 254 0 1
gene 1 11 15 -0.2088286017 0 270 -0.2088286017 1
gene 1 14 12 -0.4529999122 1 273 -0.4529999122 1
gene 1 5 15 -1.186014231 0 278 -1.186014231 1
gene 1 22 13 1.462001772 0 279 1.462001772 1
gene 1 8 15 0.1931649 0 281 0.1931649 1
gene 1 22 14 -0.6109506854 0 330 0 1
gene 1 2 24 0.3647457447 0 404 0 1
gene 1 24 24 0.6137374302 1 570 0.6137374302 1
gene 1 14 56 1 0 589 0 1
gene 1 56 13 -0.05834367729 0 590 0 1
genomeend 208412
/* Novelty: 2.347485542 Fitness: 212.5879364 Generation: 851 Indiv: 208662 */
/* Point: 118.2574768 14.80366421 118.2574768 14.80366421 */

/* Organism #207116 Fitness: 7.593727112 Error: 0 */
genomestart 207116
trait 1 0.2217252434 0.7231634714 1 0.520960655 0 0.6028421512 0.2783186902 1 
node 1 1 1 3
node 2 1 1 1
node 3 1 1 1
node 4 1 1 1
node 5 1 1 1
node 6 1 1 1
node 7 1 1 1
node 8 1 1 1
node 9 1 1 1
node 10 1 1 1
node 11 1 1 1
node 12 1 0 0
node 13 1 0 2
node 14 1 0 2
node 15 1 0 0
node 22 1 0 0
node 24 1 0 0
node 56 1 0 0
gene 1 1 12 1.450932301 0 1 1.450932301 1
gene 1 2 12 0.1066406217 0 2 0.1066406217 0
gene 1 3 12 -0.1233456754 0 3 -0.1233456754 0
gene 1 4 12 0.4089846193 0 4 0.4089846193 1
gene 1 5 12 -0.9758598006 0 5 -0.9758598006 1
gene 1 6 12 -1.193474761 0 6 -1.193474761 0
gene 1 7 12 -0.1813005899 0 7 -0.1813005899 0
gene 1 8 12 -0.07426136363 0 8 -0.07426136363 1
gene 1 9 12 -1.139096789 0 9 -1.139096789 0
gene 1 10 12 -0.09757513557 0 10 -0.09757513557 1
gene 1 11 12 -1.091455738 0 11 -1.091455738 1
gene 1 12 13 -0.5997407386 0 12 -0.5997407386 1
gene 1 12 14 0.36165779 0 13 0.36165779 1
gene 1 3 13 -1.017151796 0 14 -1.017151796 1
gene 1 10 13 0.1176425758 0 15 0.2343550783 1
gene 1 2 14 0.6051433212 0 16 0.6051433212 1
gene 1 9 14 -1.169175022 0 19 -1.169175022 0
gene 1 13 13 0.4157535027 1 21 0.4157535027 1
gene 1 11 13 -0.5044170287 0 24 -0.5044170287 0
gene 1 6 14 -0.1521348451 0 25 -0.1521348451 1
gene 1 2 13 -1.238766258 0 26 -1.238766258 1
gene 1 7 13 0.1709586631 0 27 0.1709586631 1
gene 1 11 14 -1.452029794 0 28 -1.452029794 0
gene 1 7 14 0.09548532269 0 30 0.09548532269 1
gene 1 5 14 0.1529143837 0 31 0.1529143837 1
gene 1 4 14 0.5987532432 0 32 0.5987532432 1
gene 1 12 15 0.8566786964 0 37 0.8566786964 1
gene 1 15 13 0.5053186781 0 38 0.5053186781 1
gene 1 5 13 0.07102787237 0 41 0.07102787237 0
gene 1 14 13 -0.1944789243 0 48 -0.1944789243 0
gene 1 10 15 -0.8729722415 0 49 -0.8729722415 1
gene 1 12 12 0.4345364387 1 72 0.4345364387 1
gene 1 2 15 0.1119366886 0 77 0.1119366886 1
gene 1 6 15 0.5008127062 0 84 0.5008127062 0
gene 1 5 22 2.105528502 0 117 2.105528502 1
gene 1 22 12 -0.685466498 0 118 -0.685466498 1
gene 1 15 15 -0.395847261 1 128 -0.395847261 1
gene 1 9 15 -0.5709418846 0 134 -0.5709418846 1
gene 1 7 24 1 0 137 0 1
gene 1 24 12 -0.0906033875 0 138 0 1
gene 1 8 24 -0.8224074891 0 164 0 1
gene 1 4 15 -0.2252521857 0 191 -0.2252521857 0
gene 1 14 14 1.431791629 1 223 1.431791629 1
gene 1 1 15 0.4940003324 0 226 0.4940003324 1
gene 1 8 22 0.4992651827 0 227 0.02776914985 1
gene 1 3 22 -0.9415399357 0 254 0 1
gene 1 11 15 -0.2088286017 0 270 -0.2088286017 1
gene 1 14 12 -0.4529999122 1 273 -0.4529999122 1
gene 1 5 15 -1.186014231 0 278 -1.186014231 1
gene 1 22 13 1.462001772 0 279 1.462001772 1
gene 1 8 15 0.1931649 0 281 0.1931649 1
gene 1 22 14 -0.6109506854 0 330 0 1
gene 1 2 24 0.3647457447 0 404 0 1
gene 1 24 24 0.6137374302 1 570 0.6137374302 1
gene 1 14 56 1 0 589 0 1
gene 1 56 13 -0.05834367729 0 590 0 1
genomeend 207116
/* Novelty: 2.347485542 Fitness: 212.5879364 Generation: 851 Indiv: 207366 */
/* Point: 118.2574768 14.80366421 118.2574768 14.80366421 */

/* Organism #207191 Fitness: 7.474665165 Error: 0 */
genomestart 207191
trait 1 1 0.1800170886 0.538544691 0.2838666717 1 0.1178296637 0.2773917318 0.4729183791 
node 1 1 1 3
node 2 1 1 1
node 3 1 1 1
node 4 1 1 1
node 5 1 1 1
node 6 1 1 1
node 7 1 1 1
node 8 1 1 1
node 9 1 1 1
node 10 1 1 1
node 11 1 1 1
node 12 1 0 0
node 13 1 0 2
node 14 1 0 2
node 15 1 0 0
node 22 1 0 0
node 24 1 0 0
node 56 1 0 0
gene 1 1 12 1.450932301 0 1 1.450932301 1
gene 1 2 12 0.1066406217 0 2 0.1066406217 1
gene 1 3 12 0.02054821701 0 3 0.02054821701 0
gene 1 4 12 0.4089846193 0 4 0.4089846193 1
gene 1 5 12 -0.9758598006 0 5 -0.9758598006 0
gene 1 6 12 -1.193474761 0 6 -1.193474761 1
gene 1 7 12 -0.3020112917 0 7 -0.3020112917 0
gene 1 8 12 -0.07426136363 0 8 -0.07426136363 1
gene 1 9 12 -1.139096789 0 9 -1.139096789 0
gene 1 10 12 -0.09757513557 0 10 -0.09757513557 1
gene 1 11 12 -1.091455738 0 11 -1.091455738 1
gene 1 12 13 -0.5997407386 0 12 -0.5997407386 1
gene 1 12 14 0.3220501179 0 13 0.3220501179 1
gene 1 3 13 -0.9352103281 0 14 -0.9352103281 1
