
/* Species #1 : (Size 15) (AF 0) (Age 1)  */


/* Organism #11311 Fitness: 9.35472 Error: 0 */
genomestart 11311
trait 1 0.3152100264 0.102136499 0.5698168506 0 0.1773706184 0 0 0 
node 1 1 1 3
node 2 1 1 1
node 3 1 1 1
node 4 1 1 1
node 5 1 1 1
node 6 1 1 1
node 7 1 1 1
node 8 1 1 1
node 9 1 1 1
node 10 1 1 1
node 11 1 1 1
node 12 1 0 0
node 13 1 0 2
node 14 1 0 2
gene 1 1 12 -0.03556953074 0 1 -0.03556953074 1
gene 1 2 12 -0.4342992666 0 2 -0.4342992666 1
gene 1 3 12 0.2982595261 0 3 0.2982595261 1
gene 1 4 12 0.1727812652 0 4 0.1727812652 1
gene 1 5 12 -1.896027852 0 5 -1.896027852 1
gene 1 6 12 1.766263539 0 6 1.766263539 1
gene 1 7 12 1.506646555 0 7 1.506646555 1
gene 1 8 12 0.4059313232 0 8 0.4059313232 1
gene 1 9 12 0.632501848 0 9 0.632501848 1
gene 1 10 12 -0.2039697004 0 10 -0.2039697004 1
gene 1 11 12 -0.3455334062 0 11 -0.3455334062 1
gene 1 12 13 1.324207325 0 12 1.324207325 1
gene 1 12 14 -0.4600112229 0 13 -0.4600112229 1
gene 1 1 14 0.03493598012 0 14 0 1
gene 1 12 12 0.08874403387 1 15 0.08874403387 1
gene 1 7 14 0.4156284763 0 16 0.4156284763 1
gene 1 4 14 -0.1253200584 0 26 -0.1253200584 1
gene 1 8 13 -0.7411489206 0 28 0 1
gene 1 9 14 0.9027918036 0 37 0.9027918036 1
gene 1 2 13 -0.7979633665 0 43 -0.7979633665 1
gene 1 13 14 0.1819860931 0 44 0 1
gene 1 13 13 -0.04363609713 1 357 -0.04363609713 1
gene 1 14 14 0.4729325862 1 361 0.4729325862 1
genomeend 11311
/* Novelty: 9.354718208 Fitness: 85.73521423 Generation: 92 Indiv: 11561 */
/* Point: 160.5753326 190.6447449 160.5753326 190.6447449 */

/* Organism #13631 Fitness: 9.354718208 Error: 0 */
genomestart 13631
trait 1 0.3152100264 0.102136499 0.5698168506 0 0.1773706184 0 0 0 
node 1 1 1 3
node 2 1 1 1
node 3 1 1 1
node 4 1 1 1
node 5 1 1 1
node 6 1 1 1
node 7 1 1 1
node 8 1 1 1
node 9 1 1 1
node 10 1 1 1
node 11 1 1 1
node 12 1 0 0
node 13 1 0 2
node 14 1 0 2
gene 1 1 12 -0.03556953074 0 1 -0.03556953074 1
gene 1 2 12 -0.4342992666 0 2 -0.4342992666 1
gene 1 3 12 0.2982595261 0 3 0.2982595261 1
gene 1 4 12 0.1727812652 0 4 0.1727812652 1
gene 1 5 12 -1.896027852 0 5 -1.896027852 1
gene 1 6 12 1.766263539 0 6 1.766263539 1
gene 1 7 12 1.506646555 0 7 1.506646555 1
gene 1 8 12 0.4059313232 0 8 0.4059313232 1
gene 1 9 12 0.632501848 0 9 0.632501848 1
gene 1 10 12 -0.2039697004 0 10 -0.2039697004 1
gene 1 11 12 -0.3455334062 0 11 -0.3455334062 1
gene 1 12 13 1.324207325 0 12 1.324207325 1
gene 1 12 14 -0.4600112229 0 13 -0.4600112229 1
gene 1 1 14 0.03493598012 0 14 0 1
gene 1 12 12 0.08874403387 1 15 0.08874403387 1
gene 1 7 14 0.4156284763 0 16 0.4156284763 1
gene 1 4 14 -0.1253200584 0 26 -0.1253200584 1
gene 1 8 13 -0.7411489206 0 28 0 1
gene 1 9 14 0.9027918036 0 37 0.9027918036 1
gene 1 2 13 -0.7979633665 0 43 -0.7979633665 1
gene 1 13 14 0.1819860931 0 44 0 1
gene 1 13 13 -0.04363609713 1 357 -0.04363609713 1
gene 1 14 14 0.4729325862 1 361 0.4729325862 1
genomeend 13631
/* Novelty: 9.354718208 Fitness: 85.73521423 Generation: 92 Indiv: 13881 */
/* Point: 160.5753326 190.6447449 160.5753326 190.6447449 */

/* Organism #10814 Fitness: 9.354718208 Error: 0 */
genomestart 10814
trait 1 0.3152100264 0.102136499 0.5698168506 0 0.1773706184 0 0 0 
node 1 1 1 3
node 2 1 1 1
node 3 1 1 1
node 4 1 1 1
node 5 1 1 1
node 6 1 1 1
node 7 1 1 1
node 8 1 1 1
node 9 1 1 1
node 10 1 1 1
node 11 1 1 1
node 12 1 0 0
node 13 1 0 2
node 14 1 0 2
gene 1 1 12 -0.03556953074 0 1 -0.03556953074 1
gene 1 2 12 -0.4342992666 0 2 -0.4342992666 1
gene 1 3 12 0.2982595261 0 3 0.2982595261 1
gene 1 4 12 0.1727812652 0 4 0.1727812652 1
gene 1 5 12 -1.896027852 0 5 -1.896027852 1
gene 1 6 12 1.766263539 0 6 1.766263539 1
gene 1 7 12 1.506646555 0 7 1.506646555 1
gene 1 8 12 0.4059313232 0 8 0.4059313232 1
gene 1 9 12 0.632501848 0 9 0.632501848 1
gene 1 10 12 -0.2039697004 0 10 -0.2039697004 1
gene 1 11 12 -0.3455334062 0 11 -0.3455334062 1
gene 1 12 13 1.324207325 0 12 1.324207325 1
gene 1 12 14 -0.4600112229 0 13 -0.4600112229 1
gene 1 1 14 0.03493598012 0 14 0 1
gene 1 12 12 0.08874403387 1 15 0.08874403387 1
gene 1 7 14 0.4156284763 0 16 0.4156284763 1
gene 1 4 14 -0.1253200584 0 26 -0.1253200584 1
gene 1 8 13 -0.7411489206 0 28 0 1
gene 1 9 14 0.9027918036 0 37 0.9027918036 1
gene 1 2 13 -0.7979633665 0 43 -0.7979633665 1
gene 1 13 14 0.1819860931 0 44 0 1
gene 1 13 13 -0.04363609713 1 357 -0.04363609713 1
gene 1 14 14 0.4729325862 1 361 0.4729325862 1
genomeend 10814
/* Novelty: 9.354718208 Fitness: 85.73521423 Generation: 92 Indiv: 11064 */
/* Point: 160.5753326 190.6447449 160.5753326 190.6447449 */

/* Organism #14635 Fitness: 9.354718208 Error: 0 */
genomestart 14635
trait 1 0.7480831527 0 0.5698168506 0 0.1773706184 0.672964054 0 0 
node 1 1 1 3
node 2 1 1 1
node 3 1 1 1
node 4 1 1 1
node 5 1 1 1
node 6 1 1 1
node 7 1 1 1
node 8 1 1 1
node 9 1 1 1
node 10 1 1 1
node 11 1 1 1
node 12 1 0 0
node 13 1 0 2
node 14 1 0 2
gene 1 1 12 -0.03556953074 0 1 -0.03556953074 1
gene 1 2 12 -0.4342992666 0 2 -0.4342992666 1
gene 1 3 12 0.2982595261 0 3 0.2982595261 1
gene 1 4 12 0.1727812652 0 4 0.1727812652 1
gene 1 5 12 -1.896027852 0 5 -1.896027852 1
gene 1 6 12 1.766263539 0 6 1.766263539 1
gene 1 7 12 1.506646555 0 7 1.506646555 1
gene 1 8 12 0.4059313232 0 8 0.4059313232 1
gene 1 9 12 0.632501848 0 9 0.632501848 1
gene 1 10 12 -0.2039697004 0 10 -0.2039697004 1
gene 1 11 12 -0.3455334062 0 11 -0.3455334062 1
gene 1 12 13 1.324207325 0 12 1.324207325 1
gene 1 12 14 -0.4600112229 0 13 -0.4600112229 1
gene 1 1 14 0.03493598012 0 14 0 1
gene 1 12 12 0.08874403387 1 15 0.08874403387 1
gene 1 7 14 0.4156284763 0 16 0.4156284763 1
gene 1 4 14 -0.1253200584 0 26 -0.1253200584 1
gene 1 8 13 -0.7411489206 0 28 0 1
gene 1 9 14 0.9027918036 0 37 0.9027918036 1
gene 1 2 13 -0.7979633665 0 43 -0.7979633665 1
gene 1 13 14 0.1819860931 0 44 0 1
gene 1 13 13 -0.04363609713 1 357 -0.04363609713 1
gene 1 14 14 0.4729325862 1 361 0.4729325862 1
genomeend 14635
/* Novelty: 9.354718208 Fitness: 85.73521423 Generation: 92 Indiv: 14885 */
/* Point: 160.5753326 190.6447449 160.5753326 190.6447449 */

/* Organism #21914 Fitness: 9.291934967 Error: 0 */
genomestart 21914
trait 1 0.5316465896 0.05106824951 0.5698168506 0 0.1773706184 0.336482027 0 0 
node 1 1 1 3
node 2 1 1 1
node 3 1 1 1
node 4 1 1 1
node 5 1 1 1
node 6 1 1 1
node 7 1 1 1
node 8 1 1 1
node 9 1 1 1
node 10 1 1 1
node 11 1 1 1
node 12 1 0 0
node 13 1 0 2
node 14 1 0 2
gene 1 1 12 -0.5330198801 0 1 -0.5330198801 1
gene 1 2 12 -1.21309091 0 2 -1.21309091 1
gene 1 3 12 -0.3061295162 0 3 -0.3061295162 1
gene 1 4 12 0.02443007078 0 4 0.02443007078 1
gene 1 5 12 -2.252812401 0 5 -2.252812401 1
gene 1 6 12 2.477847013 0 6 2.477847013 1
gene 1 7 12 0.9109967926 0 7 0.9109967926 1
gene 1 8 12 0.2524556604 0 8 0.2524556604 1
gene 1 9 12 1.119784432 0 9 1.119784432 1
gene 1 10 12 -0.6155780315 0 10 -0.6155780315 1
gene 1 11 12 -0.3953879162 0 11 -0.3953879162 1
gene 1 12 13 0.914811122 0 12 0.914811122 1
gene 1 12 14 -0.6784563688 0 13 -0.6784563688 1
gene 1 1 14 0.1187654207 0 14 0.1187654207 1
gene 1 12 12 0.1037485886 1 15 0.1037485886 1
gene 1 7 14 0.08796104532 0 16 0.08796104532 1
gene 1 4 14 0.1707116873 0 26 0.1707116873 1
gene 1 8 13 -0.7412931363 0 28 -0.7412931363 1
gene 1 9 14 1.621623963 0 37 1.621623963 1
gene 1 2 13 -1.126191728 0 43 -1.126191728 1
gene 1 13 14 0.4763952063 0 44 0.4763952063 1
gene 1 13 13 -0.04363609713 1 357 -0.04363609713 1
gene 1 14 14 0.5032921085 1 361 0.5032921085 1
genomeend 21914
/* Novelty: 9.291934967 Fitness: 168.332428 Generation: 92 Indiv: 22164 */
/* Point: 93.71871185 135.7700806 93.71871185 135.7700806 */

/* Organism #14491 Fitness: 9.187430382 Error: 0 */
genomestart 14491
trait 1 0 0.7454185609 0 0.3958202421 0.5014076321 0.2255646164 0 0 
node 1 1 1 3
node 2 1 1 1
node 3 1 1 1
node 4 1 1 1
node 5 1 1 1
node 6 1 1 1
node 7 1 1 1
node 8 1 1 1
node 9 1 1 1
node 10 1 1 1
node 11 1 1 1
node 12 1 0 0
node 13 1 0 2
node 14 1 0 2
gene 1 1 12 -0.2750704135 0 1 -0.2750704135 1
gene 1 2 12 -0.3089870025 0 2 -0.3089870025 1
gene 1 3 12 -0.2204168041 0 3 -0.2204168041 1
gene 1 4 12 0.2811705405 0 4 0.2811705405 1
gene 1 5 12 -1.543745274 0 5 -1.543745274 1
gene 1 6 12 1.941397045 0 6 1.941397045 1
gene 1 7 12 1.17110507 0 7 1.17110507 1
gene 1 8 12 -0.4094623924 0 8 -0.4094623924 1
gene 1 9 12 0.744650229 0 9 0.744650229 1
gene 1 10 12 -0.6183731619 0 10 -0.6183731619 1
gene 1 11 12 0.2220997891 0 11 0.2220997891 1
gene 1 12 13 1.340589054 0 12 1.340589054 1
gene 1 12 14 -0.636491225 0 13 -0.636491225 1
gene 1 1 14 0.4781347987 0 14 0.4781347987 1
gene 1 12 12 -0.06422260905 1 15 -0.06422260905 1
gene 1 7 14 0.4060462493 0 16 0.4060462493 1
gene 1 4 14 0.3542938525 0 26 0.3542938525 1
gene 1 8 13 -0.4346200918 0 28 -0.4346200918 1
gene 1 9 14 -0.2675594509 0 37 -0.2675594509 1
gene 1 2 13 -0.6545764766 0 43 -0.6545764766 1
gene 1 13 14 0.1819860931 0 44 0.1819860931 1
gene 1 13 13 0.03463213399 1 357 0.03463213399 1
gene 1 14 14 0.04188485846 1 361 0.04188485846 1
genomeend 14491
/* Novelty: 9.187430382 Fitness: 103.2575684 Generation: 92 Indiv: 14741 */
/* Point: 127.9104919 191.2189789 127.9104919 191.2189789 */

/* Organism #10567 Fitness: 9.119399071 Error: 0 */
genomestart 10567
trait 1 0.1324845323 0.396632991 0 0 0.002815264267 0 0 0 
node 1 1 1 3
node 2 1 1 1
node 3 1 1 1
node 4 1 1 1
node 5 1 1 1
node 6 1 1 1
node 7 1 1 1
node 8 1 1 1
node 9 1 1 1
node 10 1 1 1
node 11 1 1 1
node 12 1 0 0
node 13 1 0 2
node 14 1 0 2
gene 1 1 12 -0.9875508045 0 1 -0.9875508045 1
gene 1 2 12 0.1167926215 0 2 0.1167926215 1
gene 1 3 12 -0.1202297194 0 3 -0.1202297194 1
gene 1 4 12 1.041906349 0 4 1.041906349 1
gene 1 5 12 -1.704251905 0 5 -1.704251905 1
gene 1 6 12 2.137200887 0 6 2.137200887 1
gene 1 7 12 1.560346892 0 7 1.560346892 1
gene 1 8 12 -1.009719448 0 8 -1.009719448 1
gene 1 9 12 1.211051041 0 9 1.211051041 1
gene 1 10 12 -0.3942071247 0 10 -0.3942071247 1
gene 1 11 12 0.08095637643 0 11 0.08095637643 1
gene 1 12 13 1.677817604 0 12 1.677817604 1
gene 1 12 14 -0.3007654324 0 13 -0.3007654324 1
gene 1 1 14 0.1446033152 0 14 0.1446033152 1
gene 1 12 12 -0.004351945829 1 15 -0.004351945829 1
gene 1 7 14 0.4852360778 0 16 0.4852360778 1
gene 1 4 14 0.4166313851 0 26 0.4166313851 1
gene 1 9 14 -0.7874021623 0 37 -0.7874021623 1
gene 1 2 13 -0.3398342223 0 43 -0.3398342223 1
gene 1 13 14 0.1819860931 0 44 0.1819860931 1
genomeend 10567
/* Novelty: 9.119399071 Fitness: 237.4329376 Generation: 92 Indiv: 10817 */
/* Point: 16.26584053 80.80741119 16.26584053 80.80741119 */

/* Organism #14607 Fitness: 9.119399071 Error: 0 */
genomestart 14607
trait 1 0.1324845323 0.396632991 0 0 0.002815264267 0 0 0 
node 1 1 1 3
node 2 1 1 1
node 3 1 1 1
node 4 1 1 1
node 5 1 1 1
node 6 1 1 1
node 7 1 1 1
node 8 1 1 1
node 9 1 1 1
node 10 1 1 1
node 11 1 1 1
node 12 1 0 0
node 13 1 0 2
node 14 1 0 2
gene 1 1 12 -0.9875508045 0 1 -0.9875508045 1
gene 1 2 12 0.1167926215 0 2 0.1167926215 1
gene 1 3 12 -0.1202297194 0 3 -0.1202297194 1
gene 1 4 12 1.041906349 0 4 1.041906349 1
gene 1 5 12 -1.704251905 0 5 -1.704251905 1
gene 1 6 12 2.137200887 0 6 2.137200887 1
gene 1 7 12 1.560346892 0 7 1.560346892 1
gene 1 8 12 -1.009719448 0 8 -1.009719448 1
gene 1 9 12 1.211051041 0 9 1.211051041 1
gene 1 10 12 -0.3942071247 0 10 -0.3942071247 1
gene 1 11 12 0.08095637643 0 11 0.08095637643 1
gene 1 12 13 1.677817604 0 12 1.677817604 1
gene 1 12 14 -0.3007654324 0 13 -0.3007654324 1
gene 1 1 14 0.1446033152 0 14 0.1446033152 1
gene 1 12 12 -0.004351945829 1 15 -0.004351945829 1
gene 1 7 14 0.4852360778 0 16 0.4852360778 1
gene 1 4 14 0.4166313851 0 26 0.4166313851 1
gene 1 9 14 -0.7874021623 0 37 -0.7874021623 1
gene 1 2 13 -0.3398342223 0 43 -0.3398342223 1
gene 1 13 14 0.1819860931 0 44 0.1819860931 1
genomeend 14607
/* Novelty: 9.119399071 Fitness: 237.4329376 Generation: 92 Indiv: 14857 */
/* Point: 16.26584053 80.80741119 16.26584053 80.80741119 */

/* Organism #9664 Fitness: 9.118078232 Error: 0 */
genomestart 9664
trait 1 0.1 0.5830364815 0 0 0.004138338993 0 0 0 
node 1 1 1 3
node 2 1 1 1
node 3 1 1 1
node 4 1 1 1
node 5 1 1 1
node 6 1 1 1
node 7 1 1 1
node 8 1 1 1
node 9 1 1 1
node 10 1 1 1
node 11 1 1 1
node 12 1 0 0
node 13 1 0 2
node 14 1 0 2
gene 1 1 12 -0.5294011003 0 1 -0.5294011003 1
gene 1 2 12 -0.635192909 0 2 -0.635192909 1
gene 1 3 12 0.4636463311 0 3 0.4636463311 1
gene 1 4 12 0.04148764934 0 4 0.04148764934 1
gene 1 5 12 -1.573308467 0 5 -1.573308467 1
gene 1 6 12 2.231593246 0 6 2.231593246 1
gene 1 7 12 0.4666422699 0 7 0.4666422699 1
gene 1 8 12 -1.215537929 0 8 -1.215537929 1
gene 1 9 12 0.54610594 0 9 0.54610594 1
gene 1 10 12 -0.01071432103 0 10 -0.01071432103 1
gene 1 11 12 -0.174835886 0 11 -0.174835886 1
gene 1 12 13 1.679836406 0 12 1.679836406 1
gene 1 12 14 -0.3084329725 0 13 -0.3084329725 1
gene 1 12 12 -0.4682660357 1 15 -0.4682660357 1
gene 1 7 14 -0.1130058514 0 16 -0.1130058514 1
gene 1 4 14 0.826135831 0 26 0.826135831 1
gene 1 9 14 0.8571364772 0 37 0 1
gene 1 2 13 -0.610736063 0 43 -0.610736063 1
gene 1 13 14 0.1819860931 0 44 0 1
genomeend 9664
/* Novelty: 9.118078232 Fitness: 115.7123871 Generation: 92 Indiv: 9914 */
/* Point: 97.57852173 191.840683 97.57852173 191.840683 */

/* Organism #12903 Fitness: 9.118078232 Error: 0 */
genomestart 12903
trait 1 0.1 0.5830364815 0 0 0.004138338993 0 0 0 
node 1 1 1 3
node 2 1 1 1
node 3 1 1 1
node 4 1 1 1
node 5 1 1 1
node 6 1 1 1
node 7 1 1 1
node 8 1 1 1
node 9 1 1 1
node 10 1 1 1
node 11 1 1 1
node 12 1 0 0
node 13 1 0 2
node 14 1 0 2
gene 1 1 12 -0.5294011003 0 1 -0.5294011003 1
gene 1 2 12 -0.635192909 0 2 -0.635192909 1
gene 1 3 12 0.4636463311 0 3 0.4636463311 1
gene 1 4 12 0.04148764934 0 4 0.04148764934 1
gene 1 5 12 -1.573308467 0 5 -1.573308467 1
gene 1 6 12 2.231593246 0 6 2.231593246 1
gene 1 7 12 0.4666422699 0 7 0.4666422699 1
gene 1 8 12 -1.215537929 0 8 -1.215537929 1
gene 1 9 12 0.54610594 0 9 0.54610594 1
gene 1 10 12 -0.01071432103 0 10 -0.01071432103 1
gene 1 11 12 -0.174835886 0 11 -0.174835886 1
gene 1 12 13 1.679836406 0 12 1.679836406 1
gene 1 12 14 -0.3084329725 0 13 -0.3084329725 1
gene 1 12 12 -0.4682660357 1 15 -0.4682660357 1
gene 1 7 14 -0.1130058514 0 16 -0.1130058514 1
gene 1 4 14 0.826135831 0 26 0.826135831 1
gene 1 9 14 0.8571364772 0 37 0 1
gene 1 2 13 -0.610736063 0 43 -0.610736063 1
gene 1 13 14 0.1819860931 0 44 0 1
genomeend 12903
/* Novelty: 9.118078232 Fitness: 115.7123871 Generation: 92 Indiv: 13153 */
/* Point: 97.57852173 191.840683 97.57852173 191.840683 */

/* Organism #14621 Fitness: 8.949621201 Error: 0 */
genomestart 14621
trait 1 0.09285407104 0.102136499 0.8573017434 0.7916404841 1 0.8885458013 0 0 
node 1 1 1 3
node 2 1 1 1
node 3 1 1 1
node 4 1 1 1
node 5 1 1 1
node 6 1 1 1
node 7 1 1 1
node 8 1 1 1
node 9 1 1 1
node 10 1 1 1
node 11 1 1 1
node 12 1 0 0
node 13 1 0 2
node 14 1 0 2
gene 1 1 12 1.104024163 0 1 1.104024163 1
gene 1 2 12 -0.3189172255 0 2 -0.3189172255 1
gene 1 3 12 0.06286304584 0 3 0.06286304584 1
gene 1 4 12 -0.8945484766 0 4 -0.8945484766 1
gene 1 5 12 -1.304303897 0 5 -1.304303897 1
gene 1 6 12 1.229185346 0 6 1.229185346 1
gene 1 7 12 1.168485144 0 7 1.168485144 1
gene 1 8 12 0.8747560658 0 8 0.8747560658 1
gene 1 9 12 0.8896096786 0 9 0.8896096786 1
gene 1 10 12 -0.9969049283 0 10 -0.9969049283 1
gene 1 11 12 -0.4805994163 0 11 -0.4805994163 1
gene 1 12 13 0.8229670054 0 12 0.8229670054 1
gene 1 12 14 -0.7344851166 0 13 -0.7344851166 1
gene 1 1 14 1.034631928 0 14 1.034631928 1
gene 1 12 12 -0.4556829872 1 15 -0.4556829872 1
gene 1 7 14 -0.05378213825 0 16 -0.05378213825 1
gene 1 4 14 0.2919563198 0 26 0.2919563198 1
gene 1 8 13 -0.2586192176 0 28 -0.2586192176 1
gene 1 9 14 0.117849288 0 37 0.117849288 1
gene 1 2 13 -0.430296173 0 43 -0.430296173 1
gene 1 13 14 0.8387289043 0 44 0.8387289043 1
gene 1 13 13 0.3737320871 1 357 0.3737320871 1
gene 1 14 14 -0.5123741824 1 361 -0.5123741824 1
genomeend 14621
/* Novelty: 8.949621201 Fitness: 129.6724243 Generation: 92 Indiv: 14871 */
/* Point: 118.7341156 165.9938507 118.7341156 165.9938507 */

/* Organism #16141 Fitness: 8.949621201 Error: 0 */
genomestart 16141
trait 1 0.09285407104 0.102136499 0.8573017434 0.7916404841 1 0.8885458013 0 0 
node 1 1 1 3
node 2 1 1 1
node 3 1 1 1
node 4 1 1 1
node 5 1 1 1
node 6 1 1 1
node 7 1 1 1
node 8 1 1 1
node 9 1 1 1
node 10 1 1 1
node 11 1 1 1
node 12 1 0 0
node 13 1 0 2
node 14 1 0 2
gene 1 1 12 1.104024163 0 1 1.104024163 1
gene 1 2 12 -0.3189172255 0 2 -0.3189172255 1
gene 1 3 12 0.06286304584 0 3 0.06286304584 1
gene 1 4 12 -0.8945484766 0 4 -0.8945484766 1
gene 1 5 12 -1.304303897 0 5 -1.304303897 1
gene 1 6 12 1.229185346 0 6 1.229185346 1
gene 1 7 12 1.168485144 0 7 1.168485144 1
gene 1 8 12 0.8747560658 0 8 0.8747560658 1
gene 1 9 12 0.8896096786 0 9 0.8896096786 1
gene 1 10 12 -0.9969049283 0 10 -0.9969049283 1
gene 1 11 12 -0.4805994163 0 11 -0.4805994163 1
gene 1 12 13 0.8229670054 0 12 0.8229670054 1
gene 1 12 14 -0.7344851166 0 13 -0.7344851166 1
gene 1 1 14 1.034631928 0 14 1.034631928 1
gene 1 12 12 -0.4556829872 1 15 -0.4556829872 1
gene 1 7 14 -0.05378213825 0 16 -0.05378213825 1
gene 1 4 14 0.2919563198 0 26 0.2919563198 1
gene 1 8 13 -0.2586192176 0 28 -0.2586192176 1
gene 1 9 14 0.117849288 0 37 0.117849288 1
gene 1 2 13 -0.430296173 0 43 -0.430296173 1
gene 1 13 14 0.8387289043 0 44 0.8387289043 1
gene 1 13 13 0.3737320871 1 357 0.3737320871 1
gene 1 14 14 -0.5123741824 1 361 -0.5123741824 1
genomeend 16141
/* Novelty: 8.949621201 Fitness: 129.6724243 Generation: 92 Indiv: 16391 */
/* Point: 118.7341156 165.9938507 118.7341156 165.9938507 */

/* Organism #9565 Fitness: 8.899505615 Error: 0 */
genomestart 9565
trait 1 0.2299381292 0.4204590011 0 0 0.002984379081 0 0 0 
node 1 1 1 3
node 2 1 1 1
node 3 1 1 1
node 4 1 1 1
node 5 1 1 1
node 6 1 1 1
node 7 1 1 1
node 8 1 1 1
node 9 1 1 1
node 10 1 1 1
node 11 1 1 1
node 12 1 0 0
node 13 1 0 2
node 14 1 0 2
gene 1 1 12 -0.2824853155 0 1 -0.2824853155 1
gene 1 2 12 -0.6693627257 0 2 -0.6693627257 1
gene 1 3 12 0.331353457 0 3 0.331353457 1
gene 1 4 12 0.3531892851 0 4 0.3531892851 1
gene 1 5 12 -1.734668159 0 5 -1.734668159 1
gene 1 6 12 1.998928393 0 6 1.998928393 1
gene 1 7 12 1.264330858 0 7 1.264330858 1
gene 1 8 12 -0.7288188372 0 8 -0.7288188372 1
gene 1 9 12 0.589303894 0 9 0.589303894 1
gene 1 10 12 -0.1073420107 0 10 -0.1073420107 1
gene 1 11 12 -0.2601846461 0 11 -0.2601846461 1
gene 1 12 13 1.502021865 0 12 1.502021865 1
gene 1 12 14 -0.2481543779 0 13 -0.2481543779 1
gene 1 1 14 0.03493598012 0 14 0 1
gene 1 12 12 -0.1897610009 1 15 -0.1897610009 1
gene 1 7 14 0.1513113124 0 16 0.1513113124 1
gene 1 4 14 0.7361401837 0 26 0.7361401837 1
gene 1 9 14 0.8799641404 0 37 0.2371117825 1
gene 1 2 13 -0.7043497148 0 43 -0.7043497148 1
gene 1 13 14 0.1819860931 0 44 0 1
genomeend 9565
/* Novelty: 8.899505615 Fitness: 124.0693512 Generation: 92 Indiv: 9815 */
/* Point: 107.4459305 178.4538116 107.4459305 178.4538116 */

/* Organism #10730 Fitness: 8.860331535 Error: 0 */
genomestart 10730
trait 1 0.2705437945 0.204272998 0.3798779004 0 0.1192136862 0 0 0 
node 1 1 1 3
node 2 1 1 1
node 3 1 1 1
node 4 1 1 1
node 5 1 1 1
node 6 1 1 1
node 7 1 1 1
node 8 1 1 1
node 9 1 1 1
node 10 1 1 1
node 11 1 1 1
node 12 1 0 0
node 13 1 0 2
node 14 1 0 2
gene 1 1 12 -0.4627156656 0 1 -0.4627156656 1
gene 1 2 12 -0.4342992666 0 2 -0.4342992666 1
gene 1 3 12 0.3480013881 0 3 0.3480013881 1
gene 1 4 12 0.7593912485 0 4 0.7593912485 1
gene 1 5 12 0.7870495364 0 5 0.7870495364 1
gene 1 6 12 2.431257968 0 6 2.431257968 1
gene 1 7 12 2.79959249 0 7 2.79959249 1
gene 1 8 12 -0.1388101701 0 8 -0.1388101701 1
gene 1 9 12 0.1108756461 0 9 0.1108756461 1
gene 1 10 12 -0.4206486632 0 10 -0.4206486632 1
gene 1 11 12 -0.3857448514 0 11 -0.3857448514 1
gene 1 12 13 0.7641831017 0 12 0.7641831017 1
gene 1 12 14 0.1633974788 0 13 0.1633974788 1
gene 1 1 14 -0.3058814529 0 14 -0.3058814529 1
gene 1 12 12 -0.1269087748 1 15 -0.1269087748 1
gene 1 7 14 -0.06707463901 0 16 -0.06707463901 1
gene 1 4 14 0.403625414 0 26 0.403625414 1
gene 1 9 14 1.020065172 0 37 1.020065172 1
gene 1 2 13 -0.2994747094 0 43 -0.2994747094 1
gene 1 13 14 0.5166088907 0 44 0.5166088907 1
genomeend 10730
/* Novelty: 8.860331535 Fitness: 123.7128601 Generation: 92 Indiv: 10980 */
/* Point: 107.1032181 179.0140076 107.1032181 179.0140076 */

/* Organism #14979 Fitness: 8.860331535 Error: 0 */
genomestart 14979
trait 1 0.2705437945 0.204272998 0.3798779004 0 0.1192136862 0 0 0 
node 1 1 1 3
node 2 1 1 1
node 3 1 1 1
node 4 1 1 1
node 5 1 1 1
node 6 1 1 1
node 7 1 1 1
node 8 1 1 1
node 9 1 1 1
node 10 1 1 1
node 11 1 1 1
node 12 1 0 0
node 13 1 0 2
node 14 1 0 2
gene 1 1 12 -0.4627156656 0 1 -0.4627156656 1
gene 1 2 12 -0.4342992666 0 2 -0.4342992666 1
gene 1 3 12 0.3480013881 0 3 0.3480013881 1
gene 1 4 12 0.7593912485 0 4 0.7593912485 1
gene 1 5 12 0.7870495364 0 5 0.7870495364 1
gene 1 6 12 2.431257968 0 6 2.431257968 1
gene 1 7 12 2.79959249 0 7 2.79959249 1
gene 1 8 12 -0.1388101701 0 8 -0.1388101701 1
gene 1 9 12 0.1108756461 0 9 0.1108756461 1
gene 1 10 12 -0.4206486632 0 10 -0.4206486632 1
gene 1 11 12 -0.3857448514 0 11 -0.3857448514 1
gene 1 12 13 0.7641831017 0 12 0.7641831017 1
gene 1 12 14 0.1633974788 0 13 0.1633974788 1
gene 1 1 14 -0.3058814529 0 14 -0.3058814529 1
gene 1 12 12 -0.1269087748 1 15 -0.1269087748 1
gene 1 7 14 -0.06707463901 0 16 -0.06707463901 1
gene 1 4 14 0.403625414 0 26 0.403625414 1
gene 1 9 14 1.020065172 0 37 1.020065172 1
gene 1 2 13 -0.2994747094 0 43 -0.2994747094 1
gene 1 13 14 0.5166088907 0 44 0.5166088907 1
genomeend 14979
/* Novelty: 8.860331535 Fitness: 123.7128601 Generation: 92 Indiv: 15229 */
/* Point: 107.1032181 179.0140076 107.1032181 179.0140076 */

/* Species #4 : (Size 18) (AF 0) (Age 1)  */


/* Organism #22689 Fitness: 13.7892313 Error: 0 */
genomestart 22689
trait 1 0.5639219985 0.5697696813 0 0.09015303424 0 0.5520276783 0.07109941903 0 
node 1 1 1 3
node 2 1 1 1
node 3 1 1 1
node 4 1 1 1
node 5 1 1 1
node 6 1 1 1
node 7 1 1 1
node 8 1 1 1
node 9 1 1 1
node 10 1 1 1
node 11 1 1 1
node 12 1 0 0
node 13 1 0 2
node 14 1 0 2
node 17 1 0 0
gene 1 1 12 -1.337981339 0 1 -1.337981339 1
gene 1 2 12 2.318361167 0 2 2.318361167 1
gene 1 3 12 -0.05469756241 0 3 -0.05469756241 1
gene 1 4 12 2.198851662 0 4 2.198851662 1
gene 1 5 12 -1.427327395 0 5 -1.427327395 1
gene 1 6 12 -0.7737274807 0 6 -0.7737274807 1
gene 1 7 12 0.3189120115 0 7 0.3189120115 1
gene 1 8 12 -2.411831386 0 8 -2.411831386 1
gene 1 9 12 1.240533665 0 9 1.240533665 1
gene 1 10 12 0.4225857115 0 10 0.4225857115 1
gene 1 11 12 1.496199081 0 11 1.496199081 1
gene 1 12 13 -2.453283624 0 12 -2.453283624 1
gene 1 12 14 1.44735336 0 13 1.44735336 1
gene 1 1 14 1.858454329 0 14 1.858454329 1
gene 1 8 14 -1.095668728 0 19 -1.095668728 0
gene 1 11 14 -0.3935993496 0 22 -0.3935993496 1
gene 1 4 14 -0.3049707426 0 26 -0.3049707426 1
gene 1 6 13 2.167142782 0 27 2.167142782 1
gene 1 10 14 -0.607956051 0 30 -0.607956051 1
gene 1 4 13 -0.6390865154 0 38 -0.6390865154 0
gene 1 8 17 -0.4871580761 0 49 -0.4871580761 1
gene 1 17 14 0.003829573842 0 50 0.003829573842 0
gene 1 17 13 0.8126561387 0 161 0.8126561387 1
gene 1 17 12 -0.1479779264 0 169 -0.1479779264 1
gene 1 7 17 0.503171447 0 181 0.503171447 1
gene 1 17 17 0.3640445789 1 338 0.3640445789 1
gene 1 14 14 -0.2287700606 1 413 -0.2287700606 1
genomeend 22689
/* Novelty: 13.7892313 Fitness: 280.1862183 Generation: 92 Indiv: 22939 */
/* Point: 11.30555344 17.82864761 11.30555344 17.82864761 */

/* Organism #22504 Fitness: 11.50287342 Error: 0 */
genomestart 22504
trait 1 1 0.5697696813 0 0.09015303424 0 0.5520276783 0.07109941903 0 
node 1 1 1 3
node 2 1 1 1
node 3 1 1 1
node 4 1 1 1
node 5 1 1 1
node 6 1 1 1
node 7 1 1 1
node 8 1 1 1
node 9 1 1 1
node 10 1 1 1
node 11 1 1 1
node 12 1 0 0
node 13 1 0 2
node 14 1 0 2
node 17 1 0 0
gene 1 1 12 -0.6761944341 0 1 -0.6761944341 1
gene 1 2 12 2.090084212 0 2 2.090084212 1
gene 1 3 12 0.8013165589 0 3 0.8013165589 1
gene 1 4 12 2.45792684 0 4 2.45792684 1
gene 1 5 12 -0.6531405609 0 5 -0.6531405609 1
gene 1 6 12 -0.5223466695 0 6 -0.5223466695 1
gene 1 7 12 -0.491406747 0 7 -0.491406747 1
gene 1 8 12 -2.985704157 0 8 -2.985704157 1
gene 1 9 12 0.1918034119 0 9 0.1918034119 1
gene 1 10 12 0.01709096246 0 10 0.01709096246 1
gene 1 11 12 1.609173495 0 11 1.609173495 1
gene 1 12 13 -1.272917923 0 12 -1.272917923 1
gene 1 12 14 0.04767780213 0 13 0.04767780213 1
gene 1 1 14 1.906498731 0 14 1.906498731 1
gene 1 8 14 0.3222786689 0 19 0.3222786689 0
gene 1 11 14 -0.5260901426 0 22 0 1
gene 1 4 14 0.3463926293 0 26 0.3463926293 1
gene 1 6 13 2.251564781 0 27 2.251564781 1
gene 1 10 14 0.2610715465 0 30 0.2610715465 1
gene 1 4 13 -0.6729187541 0 38 -0.6729187541 0
gene 1 8 17 -1.544809763 0 49 -1.544809763 1
gene 1 17 14 -0.6819918468 0 50 -0.6819918468 1
gene 1 17 13 0.4100729834 0 161 0 1
gene 1 17 12 -0.06642203455 0 169 0 1
gene 1 7 17 0.5072460972 0 181 0.3279047534 1
gene 1 17 17 -0.1499796455 1 338 -0.1499796455 1
gene 1 14 14 0.3251328228 1 413 0.3251328228 1
genomeend 22504
/* Novelty: 11.50287342 Fitness: 186.0852661 Generation: 92 Indiv: 22754 */
/* Point: 132.6351471 71.44769287 132.6351471 71.44769287 */

/* Organism #22412 Fitness: 11.30636024 Error: 0 */
genomestart 22412
trait 1 0.5639219985 0.5697696813 0 0.09015303424 0 0.5520276783 0.07109941903 0 
node 1 1 1 3
node 2 1 1 1
node 3 1 1 1
node 4 1 1 1
node 5 1 1 1
node 6 1 1 1
node 7 1 1 1
node 8 1 1 1
node 9 1 1 1
node 10 1 1 1
node 11 1 1 1
node 12 1 0 0
node 13 1 0 2
node 14 1 0 2
node 17 1 0 0
gene 1 1 12 -1.094696349 0 1 -1.094696349 1
gene 1 2 12 2.1995207 0 2 2.1995207 1
gene 1 3 12 -0.07731422264 0 3 -0.07731422264 1
gene 1 4 12 1.684986438 0 4 1.684986438 1
gene 1 5 12 -1.400932174 0 5 -1.400932174 1
gene 1 6 12 -0.3832574529 0 6 -0.3832574529 1
gene 1 7 12 -0.1893393752 0 7 -0.1893393752 1
gene 1 8 12 -3 0 8 -3 1
gene 1 9 12 0.7012342598 0 9 0.7012342598 1
gene 1 10 12 -0.02965027244 0 10 -0.02965027244 1
gene 1 11 12 -0.7028216995 0 11 -0.7028216995 1
gene 1 12 13 -2.032939883 0 12 -2.032939883 1
gene 1 12 14 0.6877206499 0 13 0.6877206499 1
gene 1 1 14 2.204170007 0 14 2.204170007 1
gene 1 8 14 -0.3252084507 0 19 -0.3252084507 0
gene 1 11 14 -0.9140310115 0 22 -0.9140310115 1
gene 1 4 14 -0.2711256427 0 26 -0.2711256427 0
gene 1 6 13 2.29144344 0 27 2.29144344 1
gene 1 10 14 0.6201765816 0 30 0.6201765816 1
gene 1 4 13 -0.5632016166 0 38 -0.5632016166 0
gene 1 8 17 -0.9485905799 0 49 -0.9485905799 1
gene 1 17 14 -0.3328755403 0 50 -0.3328755403 0
gene 1 17 13 0.1922754574 0 161 0.1922754574 1
gene 1 17 12 -0.06642203455 0 169 -0.06642203455 1
gene 1 7 17 1.2470744 0 181 1.2470744 1
gene 1 17 17 0.3640445789 1 338 0.3640445789 1
gene 1 14 14 0.041808882 1 413 0.041808882 1
genomeend 22412
/* Novelty: 11.30636024 Fitness: 281.0973206 Generation: 92 Indiv: 22662 */
/* Point: 33.27310181 38.76550293 33.27310181 38.76550293 */

/* Organism #20441 Fitness: 10.94794941 Error: 0 */
genomestart 20441
trait 1 0.5639219985 0.5697696813 0 0.09015303424 0 0.5520276783 0.07109941903 0 
node 1 1 1 3
node 2 1 1 1
node 3 1 1 1
node 4 1 1 1
node 5 1 1 1
node 6 1 1 1
node 7 1 1 1
node 8 1 1 1
node 9 1 1 1
node 10 1 1 1
node 11 1 1 1
node 12 1 0 0
node 13 1 0 2
node 14 1 0 2
node 17 1 0 0
gene 1 1 12 -1.094696349 0 1 -1.094696349 1
gene 1 2 12 2.1995207 0 2 2.1995207 1
gene 1 3 12 0.3126709146 0 3 0.3126709146 1
gene 1 4 12 1.896973819 0 4 1.896973819 1
gene 1 5 12 -1.400932174 0 5 -1.400932174 1
gene 1 6 12 -0.3832574529 0 6 -0.3832574529 1
gene 1 7 12 0.2974576013 0 7 0.2974576013 1
gene 1 8 12 -3 0 8 -3 1
gene 1 9 12 0.3891109517 0 9 0.3891109517 1
gene 1 10 12 -0.3945244608 0 10 -0.3945244608 1
gene 1 11 12 -0.7028216995 0 11 -0.7028216995 1
gene 1 12 13 -1.420177969 0 12 -1.420177969 1
gene 1 12 14 0.6877206499 0 13 0.6877206499 1
gene 1 1 14 2.024375727 0 14 2.024375727 1
gene 1 8 14 -0.3252084507 0 19 -0.3252084507 0
gene 1 11 14 -0.9140310115 0 22 -0.9140310115 1
gene 1 4 14 -0.2711256427 0 26 -0.2711256427 1
gene 1 6 13 2.29144344 0 27 2.29144344 1
gene 1 10 14 0.6201765816 0 30 0.6201765816 1
gene 1 4 13 0.07992995869 0 38 0.07992995869 0
gene 1 8 17 -1.351784832 0 49 -1.351784832 1
gene 1 17 14 -0.3328755403 0 50 -0.3328755403 0
gene 1 17 13 0.1922754574 0 161 0.1922754574 1
gene 1 17 12 -0.06642203455 0 169 -0.06642203455 1
gene 1 7 17 0.8791338763 0 181 0.8791338763 1
gene 1 17 17 -0.2338633345 1 338 -0.2338633345 1
gene 1 14 14 0.041808882 1 413 0.041808882 1
genomeend 20441
/* Novelty: 10.94794941 Fitness: 216.2765656 Generation: 92 Indiv: 20691 */
/* Point: 114.4576721 26.66564369 114.4576721 26.66564369 */

/* Organism #14148 Fitness: 10.9470892 Error: 0 */
genomestart 14148
trait 1 1 0.5127927132 0 0.09015303424 0 0.5513712387 0.09479922538 0 
node 1 1 1 3
node 2 1 1 1
node 3 1 1 1
node 4 1 1 1
node 5 1 1 1
node 6 1 1 1
node 7 1 1 1
node 8 1 1 1
node 9 1 1 1
node 10 1 1 1
node 11 1 1 1
node 12 1 0 0
node 13 1 0 2
node 14 1 0 2
node 17 1 0 0
gene 1 1 12 -0.9979173428 0 1 -0.9979173428 1
gene 1 2 12 2.096725981 0 2 2.096725981 1
gene 1 3 12 0.8828497379 0 3 0.8828497379 1
gene 1 4 12 2.45792684 0 4 2.45792684 1
gene 1 5 12 -0.6033890311 0 5 -0.6033890311 1
gene 1 6 12 -0.5355075854 0 6 -0.5355075854 1
gene 1 7 12 -0.5883378987 0 7 -0.5883378987 1
gene 1 8 12 -3 0 8 -3 1
gene 1 9 12 0.1706513346 0 9 0.1706513346 1
gene 1 10 12 0.01709096246 0 10 0.01709096246 1
gene 1 11 12 2.260667539 0 11 2.260667539 1
gene 1 12 13 -1.941294436 0 12 -1.941294436 1
gene 1 12 14 0.7454404186 0 13 0.7454404186 1
gene 1 1 14 1.180430628 0 14 1.180430628 1
gene 1 8 14 0.7896999455 0 19 0.7896999455 0
gene 1 11 14 -0.5260901426 0 22 0 1
gene 1 4 14 0.3353357707 0 26 0.3353357707 1
gene 1 6 13 2.835329729 0 27 2.835329729 1
gene 1 10 14 -0.3392035985 0 30 -0.3392035985 1
gene 1 4 13 -0.9398157998 0 38 -0.9398157998 0
gene 1 8 17 -1.609749215 0 49 -1.609749215 1
gene 1 17 14 -0.6819918468 0 50 -0.6819918468 1
gene 1 17 13 0.4100729834 0 161 0 1
gene 1 17 12 -0.06642203455 0 169 0 1
gene 1 7 17 0.5837512773 0 181 0.5837512773 1
genomeend 14148
/* Novelty: 10.9470892 Fitness: 221.7375641 Generation: 92 Indiv: 14398 */
/* Point: 104.1599808 47.79615784 104.1599808 47.79615784 */

/* Organism #21265 Fitness: 10.86153793 Error: 0 */
genomestart 21265
trait 1 1 0.5697696813 0.2534935359 0.3841179601 0 0 0.09479922538 0 
node 1 1 1 3
node 2 1 1 1
node 3 1 1 1
node 4 1 1 1
node 5 1 1 1
node 6 1 1 1
node 7 1 1 1
node 8 1 1 1
node 9 1 1 1
node 10 1 1 1
node 11 1 1 1
node 12 1 0 0
node 13 1 0 2
node 14 1 0 2
node 17 1 0 0
gene 1 1 12 -0.6928727602 0 1 -0.6928727602 1
gene 1 2 12 2.090084212 0 2 2.090084212 1
gene 1 3 12 0.8828497379 0 3 0.8828497379 1
gene 1 4 12 2.45792684 0 4 2.45792684 1
gene 1 5 12 -0.6531405609 0 5 -0.6531405609 1
gene 1 6 12 -0.5681491508 0 6 -0.5681491508 1
gene 1 7 12 -0.5220957012 0 7 -0.5220957012 1
gene 1 8 12 -2.983661894 0 8 -2.983661894 1
gene 1 9 12 0.1918034119 0 9 0.1918034119 1
gene 1 10 12 0.01709096246 0 10 0.01709096246 1
gene 1 11 12 1.609173495 0 11 1.609173495 1
gene 1 12 13 -1.222964505 0 12 -1.222964505 1
gene 1 12 14 0.07824776035 0 13 0.07824776035 1
gene 1 1 14 1.865854696 0 14 1.865854696 1
gene 1 8 14 0.488056066 0 19 0.488056066 1
gene 1 11 14 -0.5260901426 0 22 0 1
gene 1 4 14 0.3644907859 0 26 0.3644907859 1
gene 1 6 13 2.251564781 0 27 2.251564781 1
gene 1 10 14 0.2610715465 0 30 0.2610715465 1
gene 1 4 13 -0.5839530722 0 38 -0.5839530722 1
gene 1 8 17 -1.523163279 0 49 -1.523163279 1
gene 1 17 14 -0.6819918468 0 50 -0.6819918468 1
gene 1 17 13 0.4100729834 0 161 0 1
gene 1 17 12 -0.06642203455 0 169 0 1
gene 1 7 17 0.5072460972 0 181 0.3279047534 1
gene 1 5 17 -0.9682579338 0 214 0 1
genomeend 21265
/* Novelty: 10.86153793 Fitness: 214.7218323 Generation: 92 Indiv: 21515 */
/* Point: 96.92618561 74.09346008 96.92618561 74.09346008 */

/* Organism #21503 Fitness: 10.75835323 Error: 0 */
genomestart 21503
trait 1 1 0.5697696813 0.2534935359 0.3841179601 0 0 0.09479922538 0 
node 1 1 1 3
node 2 1 1 1
node 3 1 1 1
node 4 1 1 1
node 5 1 1 1
node 6 1 1 1
node 7 1 1 1
node 8 1 1 1
node 9 1 1 1
node 10 1 1 1
node 11 1 1 1
node 12 1 0 0
node 13 1 0 2
node 14 1 0 2
node 17 1 0 0
gene 1 1 12 -0.6928727602 0 1 -0.6928727602 1
gene 1 2 12 2.090084212 0 2 2.090084212 1
gene 1 3 12 0.8828497379 0 3 0.8828497379 1
gene 1 4 12 2.45792684 0 4 2.45792684 1
gene 1 5 12 -0.6531405609 0 5 -0.6531405609 1
gene 1 6 12 -0.5681491508 0 6 -0.5681491508 1
gene 1 7 12 -0.5220957012 0 7 -0.5220957012 1
gene 1 8 12 -2.983661894 0 8 -2.983661894 1
gene 1 9 12 0.1918034119 0 9 0.1918034119 1
gene 1 10 12 0.01709096246 0 10 0.01709096246 1
gene 1 11 12 1.609173495 0 11 1.609173495 1
gene 1 12 13 -1.222964505 0 12 -1.222964505 1
gene 1 12 14 0.07824776035 0 13 0.07824776035 1
gene 1 1 14 1.865854696 0 14 1.865854696 1
gene 1 8 14 0.488056066 0 19 0.488056066 1
gene 1 11 14 -0.5260901426 0 22 0 1
gene 1 4 14 0.3644907859 0 26 0.3644907859 1
gene 1 6 13 2.251564781 0 27 2.251564781 1
gene 1 10 14 0.2610715465 0 30 0.2610715465 1
gene 1 4 13 -0.5839530722 0 38 -0.5839530722 1
gene 1 8 17 -1.523163279 0 49 -1.523163279 1
gene 1 17 14 -0.6819918468 0 50 -0.6819918468 1
gene 1 17 13 0.4100729834 0 161 0 1
gene 1 17 12 -0.06642203455 0 169 0 1
gene 1 7 17 0.5072460972 0 181 0.3279047534 1
genomeend 21503
/* Novelty: 10.75835323 Fitness: 191.6458435 Generation: 92 Indiv: 21753 */
/* Point: 112.4736023 91.43301392 112.4736023 91.43301392 */

/* Organism #16990 Fitness: 10.75835323 Error: 0 */
genomestart 16990
trait 1 1 0.5697696813 0.2534935359 0.3841179601 0 0 0.09479922538 0 
node 1 1 1 3
node 2 1 1 1
node 3 1 1 1
node 4 1 1 1
node 5 1 1 1
node 6 1 1 1
node 7 1 1 1
node 8 1 1 1
node 9 1 1 1
node 10 1 1 1
node 11 1 1 1
node 12 1 0 0
node 13 1 0 2
node 14 1 0 2
node 17 1 0 0
gene 1 1 12 -0.6928727602 0 1 -0.6928727602 1
gene 1 2 12 2.090084212 0 2 2.090084212 1
gene 1 3 12 0.8828497379 0 3 0.8828497379 1
gene 1 4 12 2.45792684 0 4 2.45792684 1
gene 1 5 12 -0.6531405609 0 5 -0.6531405609 1
gene 1 6 12 -0.5681491508 0 6 -0.5681491508 1
gene 1 7 12 -0.5220957012 0 7 -0.5220957012 1
gene 1 8 12 -2.983661894 0 8 -2.983661894 1
gene 1 9 12 0.1918034119 0 9 0.1918034119 1
gene 1 10 12 0.01709096246 0 10 0.01709096246 1
gene 1 11 12 1.609173495 0 11 1.609173495 1
gene 1 12 13 -1.222964505 0 12 -1.222964505 1
gene 1 12 14 0.07824776035 0 13 0.07824776035 1
gene 1 1 14 1.865854696 0 14 1.865854696 1
gene 1 8 14 0.488056066 0 19 0.488056066 1
gene 1 11 14 -0.5260901426 0 22 0 1
gene 1 4 14 0.3644907859 0 26 0.3644907859 1
gene 1 6 13 2.251564781 0 27 2.251564781 1
gene 1 10 14 0.2610715465 0 30 0.2610715465 1
gene 1 4 13 -0.5839530722 0 38 -0.5839530722 1
gene 1 8 17 -1.523163279 0 49 -1.523163279 1
gene 1 17 14 -0.6819918468 0 50 -0.6819918468 1
gene 1 17 13 0.4100729834 0 161 0 1
gene 1 17 12 -0.06642203455 0 169 0 1
gene 1 7 17 0.5072460972 0 181 0.3279047534 1
genomeend 16990
/* Novelty: 10.75835323 Fitness: 191.6458435 Generation: 92 Indiv: 17240 */
/* Point: 112.4736023 91.43301392 112.4736023 91.43301392 */

/* Organism #18393 Fitness: 10.75835323 Error: 0 */
genomestart 18393
trait 1 1 0.5697696813 0.2534935359 0.3841179601 0 0 0.09479922538 0 
node 1 1 1 3
node 2 1 1 1
node 3 1 1 1
node 4 1 1 1
node 5 1 1 1
node 6 1 1 1
node 7 1 1 1
node 8 1 1 1
node 9 1 1 1
node 10 1 1 1
node 11 1 1 1
node 12 1 0 0
node 13 1 0 2
node 14 1 0 2
node 17 1 0 0
gene 1 1 12 -0.6928727602 0 1 -0.6928727602 1
gene 1 2 12 2.090084212 0 2 2.090084212 1
gene 1 3 12 0.8828497379 0 3 0.8828497379 1
gene 1 4 12 2.45792684 0 4 2.45792684 1
gene 1 5 12 -0.6531405609 0 5 -0.6531405609 1
gene 1 6 12 -0.5681491508 0 6 -0.5681491508 1
gene 1 7 12 -0.5220957012 0 7 -0.5220957012 1
gene 1 8 12 -2.983661894 0 8 -2.983661894 1
gene 1 9 12 0.1918034119 0 9 0.1918034119 1
gene 1 10 12 0.01709096246 0 10 0.01709096246 1
gene 1 11 12 1.609173495 0 11 1.609173495 1
gene 1 12 13 -1.222964505 0 12 -1.222964505 1
gene 1 12 14 0.07824776035 0 13 0.07824776035 1
gene 1 1 14 1.865854696 0 14 1.865854696 1
gene 1 8 14 0.488056066 0 19 0.488056066 1
gene 1 11 14 -0.5260901426 0 22 0 1
gene 1 4 14 0.3644907859 0 26 0.3644907859 1
gene 1 6 13 2.251564781 0 27 2.251564781 1
gene 1 10 14 0.2610715465 0 30 0.2610715465 1
gene 1 4 13 -0.5839530722 0 38 -0.5839530722 1
gene 1 8 17 -1.523163279 0 49 -1.523163279 1
gene 1 17 14 -0.6819918468 0 50 -0.6819918468 1
gene 1 17 13 0.4100729834 0 161 0 1
gene 1 17 12 -0.06642203455 0 169 0 1
gene 1 7 17 0.5072460972 0 181 0.3279047534 1
genomeend 18393
/* Novelty: 10.75835323 Fitness: 191.6458435 Generation: 92 Indiv: 18643 */
/* Point: 112.4736023 91.43301392 112.4736023 91.43301392 */

/* Organism #17153 Fitness: 10.71260548 Error: 0 */
genomestart 17153
trait 1 1 0.5697696813 0 0.09015303424 0.5813328138 1 0.09479922538 0 
node 1 1 1 3
node 2 1 1 1
node 3 1 1 1
node 4 1 1 1
node 5 1 1 1
node 6 1 1 1
node 7 1 1 1
node 8 1 1 1
node 9 1 1 1
node 10 1 1 1
node 11 1 1 1
node 12 1 0 0
node 13 1 0 2
node 14 1 0 2
node 17 1 0 0
gene 1 1 12 -0.659516108 0 1 -0.659516108 1
gene 1 2 12 1.98936356 0 2 1.98936356 1
gene 1 3 12 0.7197833798 0 3 0.7197833798 1
gene 1 4 12 2.490181003 0 4 2.490181003 1
gene 1 5 12 -0.7558640448 0 5 -0.7558640448 1
gene 1 6 12 -0.4765441882 0 6 -0.4765441882 1
gene 1 7 12 -0.4607177929 0 7 -0.4607177929 1
gene 1 8 12 -2.987746421 0 8 -2.987746421 1
gene 1 9 12 0.2409573533 0 9 0.2409573533 1
gene 1 10 12 0.06465502096 0 10 0.06465502096 1
gene 1 11 12 1.423605457 0 11 1.423605457 1
gene 1 12 13 -1.322871341 0 12 -1.322871341 1
gene 1 12 14 0.1857765378 0 13 0.1857765378 1
gene 1 1 14 1.947142765 0 14 1.947142765 1
gene 1 8 14 0.5526478018 0 19 0.5526478018 1
gene 1 11 14 -0.431077887 0 22 -0.03651028012 1
gene 1 4 14 0.3787151057 0 26 0.3787151057 1
gene 1 6 13 2.400928343 0 27 2.400928343 1
gene 1 10 14 0.354813353 0 30 0.354813353 1
gene 1 4 13 -0.761884436 0 38 -0.761884436 1
gene 1 8 17 -1.566456247 0 49 -1.566456247 1
gene 1 17 14 -0.6819918468 0 50 -0.6819918468 1
gene 1 17 13 0.5216842058 0 161 0.2141294682 1
gene 1 17 12 -0.06642203455 0 169 0 1
gene 1 7 17 0.5072460972 0 181 0.3727400894 1
genomeend 17153
/* Novelty: 10.71260548 Fitness: 217.2844849 Generation: 92 Indiv: 17403 */
/* Point: 91.52935028 76.37424469 91.52935028 76.37424469 */

/* Organism #16768 Fitness: 10.71260548 Error: 0 */
genomestart 16768
trait 1 1 0.5697696813 0 0.09015303424 0.5813328138 1 0.09479922538 0 
node 1 1 1 3
node 2 1 1 1
node 3 1 1 1
node 4 1 1 1
node 5 1 1 1
node 6 1 1 1
node 7 1 1 1
node 8 1 1 1
node 9 1 1 1
node 10 1 1 1
node 11 1 1 1
node 12 1 0 0
node 13 1 0 2
node 14 1 0 2
node 17 1 0 0
gene 1 1 12 -0.659516108 0 1 -0.659516108 1
gene 1 2 12 1.98936356 0 2 1.98936356 1
gene 1 3 12 0.7197833798 0 3 0.7197833798 1
gene 1 4 12 2.490181003 0 4 2.490181003 1
gene 1 5 12 -0.7558640448 0 5 -0.7558640448 1
gene 1 6 12 -0.4765441882 0 6 -0.4765441882 1
gene 1 7 12 -0.4607177929 0 7 -0.4607177929 1
gene 1 8 12 -2.987746421 0 8 -2.987746421 1
gene 1 9 12 0.2409573533 0 9 0.2409573533 1
gene 1 10 12 0.06465502096 0 10 0.06465502096 1
gene 1 11 12 1.423605457 0 11 1.423605457 1
gene 1 12 13 -1.322871341 0 12 -1.322871341 1
gene 1 12 14 0.1857765378 0 13 0.1857765378 1
gene 1 1 14 1.947142765 0 14 1.947142765 1
gene 1 8 14 0.5526478018 0 19 0.5526478018 1
gene 1 11 14 -0.431077887 0 22 -0.03651028012 1
gene 1 4 14 0.3787151057 0 26 0.3787151057 1
gene 1 6 13 2.400928343 0 27 2.400928343 1
gene 1 10 14 0.354813353 0 30 0.354813353 1
gene 1 4 13 -0.761884436 0 38 -0.761884436 1
gene 1 8 17 -1.566456247 0 49 -1.566456247 1
gene 1 17 14 -0.6819918468 0 50 -0.6819918468 1
gene 1 17 13 0.5216842058 0 161 0.2141294682 1
gene 1 17 12 -0.06642203455 0 169 0 1
gene 1 7 17 0.5072460972 0 181 0.3727400894 1
genomeend 16768
/* Novelty: 10.71260548 Fitness: 217.2844849 Generation: 92 Indiv: 17018 */
/* Point: 91.52935028 76.37424469 91.52935028 76.37424469 */

/* Organism #16902 Fitness: 10.69380665 Error: 0 */
genomestart 16902
trait 1 1 0.5697696813 0 0.09015303424 0 0.5065724048 0.05332456428 0 
node 1 1 1 3
node 2 1 1 1
node 3 1 1 1
node 4 1 1 1
node 5 1 1 1
node 6 1 1 1
node 7 1 1 1
node 8 1 1 1
node 9 1 1 1
node 10 1 1 1
node 11 1 1 1
node 12 1 0 0
node 13 1 0 2
node 14 1 0 2
node 17 1 0 0
gene 1 1 12 -0.659516108 0 1 -0.659516108 1
gene 1 2 12 2.090084212 0 2 2.090084212 1
gene 1 3 12 0.8013165589 0 3 0.8013165589 1
gene 1 4 12 2.45792684 0 4 2.45792684 1
gene 1 5 12 -0.6531405609 0 5 -0.6531405609 1
gene 1 6 12 -0.4765441882 0 6 -0.4765441882 1
gene 1 7 12 -0.491406747 0 7 -0.491406747 1
gene 1 8 12 -2.985704157 0 8 -2.985704157 1
gene 1 9 12 0.1918034119 0 9 0.1918034119 1
gene 1 10 12 0.01709096246 0 10 0.01709096246 1
gene 1 11 12 1.609173495 0 11 1.609173495 1
gene 1 12 13 -1.322871341 0 12 -1.322871341 1
gene 1 12 14 0.01710784392 0 13 0.01710784392 1
gene 1 1 14 1.947142765 0 14 1.947142765 1
gene 1 8 14 0.1565012717 0 19 0.1565012717 0
gene 1 11 14 -0.5260901426 0 22 0 1
gene 1 6 14 -0.7203907821 0 24 0 1
gene 1 4 14 0.3282944727 0 26 0.3282944727 1
gene 1 6 13 2.251564781 0 27 2.251564781 1
gene 1 10 14 0.2610715465 0 30 0.2610715465 1
gene 1 4 13 -0.761884436 0 38 -0.761884436 0
gene 1 8 17 -1.566456247 0 49 -1.566456247 1
gene 1 17 14 -0.6819918468 0 50 -0.6819918468 1
gene 1 17 13 0.4100729834 0 161 0 1
gene 1 17 12 -0.06642203455 0 169 0 1
gene 1 7 17 0.5072460972 0 181 0.3279047534 1
gene 1 17 17 -0.1499796455 1 338 -0.1499796455 1
gene 1 14 14 0.3251328228 1 413 0.3251328228 1
genomeend 16902
/* Novelty: 10.69380665 Fitness: 251.6708527 Generation: 92 Indiv: 17152 */
/* Point: 75.21516418 39.51220703 75.21516418 39.51220703 */

/* Organism #19797 Fitness: 10.65521908 Error: 0 */
genomestart 19797
trait 1 1 0.5697696813 0 0.09015303424 0.483011696 1 0 0 
node 1 1 1 3
node 2 1 1 1
node 3 1 1 1
node 4 1 1 1
node 5 1 1 1
node 6 1 1 1
node 7 1 1 1
node 8 1 1 1
node 9 1 1 1
node 10 1 1 1
node 11 1 1 1
node 12 1 0 0
node 13 1 0 2
node 14 1 0 2
node 17 1 0 0
gene 1 1 12 -0.659516108 0 1 -0.659516108 1
gene 1 2 12 1.946667768 0 2 1.946667768 1
gene 1 3 12 0.7197833798 0 3 0.7197833798 1
gene 1 4 12 1.684986438 0 4 1.684986438 1
gene 1 5 12 -1.400932174 0 5 -1.400932174 1
gene 1 6 12 -0.1045079712 0 6 -0.1045079712 1
gene 1 7 12 -0.4607177929 0 7 -0.4607177929 1
gene 1 8 12 -2.987746421 0 8 -2.987746421 1
gene 1 9 12 0.2409573533 0 9 0.2409573533 1
gene 1 10 12 0.06465502096 0 10 0.06465502096 1
gene 1 11 12 1.423605457 0 11 1.423605457 1
gene 1 12 13 -2.032939883 0 12 -2.032939883 1
gene 1 12 14 0.1857765378 0 13 0.1857765378 1
gene 1 1 14 2.204170007 0 14 2.204170007 1
gene 1 8 14 0.5526478018 0 19 0.5526478018 0
gene 1 11 14 -0.431077887 0 22 -0.03651028012 1
gene 1 4 14 0.3787151057 0 26 0.3787151057 1
gene 1 6 13 2.400928343 0 27 2.400928343 1
gene 1 10 14 0.354813353 0 30 0.354813353 1
gene 1 4 13 -0.5632016166 0 38 -0.5632016166 0
gene 1 8 17 -0.9485905799 0 49 -0.9485905799 1
gene 1 17 14 -0.6819918468 0 50 -0.6819918468 1
gene 1 17 13 0.489729137 0 161 0.489729137 1
gene 1 17 12 -0.06642203455 0 169 -0.06642203455 1
gene 1 7 17 0.5072460972 0 181 0.3727400894 1
gene 1 17 17 0.3640445789 1 338 0.3640445789 1
gene 1 14 14 -0.2287700606 1 413 -0.2287700606 1
genomeend 19797
/* Novelty: 10.65521908 Fitness: 271.2944336 Generation: 92 Indiv: 20047 */
/* Point: 57.04616547 32.06679153 57.04616547 32.06679153 */

/* Organism #22343 Fitness: 10.60538006 Error: 0 */
genomestart 22343
trait 1 1 0.5697696813 0 0.09015303424 0 0.491420647 0.04739961269 0 
node 1 1 1 3
node 2 1 1 1
node 3 1 1 1
node 4 1 1 1
node 5 1 1 1
node 6 1 1 1
node 7 1 1 1
node 8 1 1 1
node 9 1 1 1
node 10 1 1 1
node 11 1 1 1
node 12 1 0 0
node 13 1 0 2
node 14 1 0 2
node 17 1 0 0
gene 1 1 12 -0.659516108 0 1 -0.659516108 1
gene 1 2 12 2.090084212 0 2 2.090084212 1
gene 1 3 12 0.7197833798 0 3 0.7197833798 1
gene 1 4 12 2.45792684 0 4 2.45792684 1
gene 1 5 12 -0.6531405609 0 5 -0.6531405609 1
gene 1 6 12 -0.4765441882 0 6 -0.4765441882 1
gene 1 7 12 -0.4607177929 0 7 -0.4607177929 1
gene 1 8 12 -2.987746421 0 8 -2.987746421 1
gene 1 9 12 0.1918034119 0 9 0.1918034119 1
gene 1 10 12 0.01709096246 0 10 0.01709096246 1
gene 1 11 12 1.609173495 0 11 1.609173495 1
gene 1 12 13 -1.322871341 0 12 -1.322871341 1
gene 1 12 14 0.01710784392 0 13 0.01710784392 1
gene 1 1 14 1.947142765 0 14 1.947142765 1
gene 1 8 14 0.1565012717 0 19 0.1565012717 0
gene 1 11 14 -0.5260901426 0 22 0 1
gene 1 6 14 -0.7203907821 0 24 0 1
gene 1 4 14 0.3282944727 0 26 0.3282944727 1
gene 1 6 13 2.251564781 0 27 2.251564781 1
gene 1 10 14 0.2610715465 0 30 0.2610715465 1
gene 1 4 13 -0.761884436 0 38 -0.761884436 0
gene 1 8 17 -1.566456247 0 49 -1.566456247 1
gene 1 17 14 -0.6819918468 0 50 -0.6819918468 1
gene 1 17 13 0.4100729834 0 161 0 1
gene 1 17 12 -0.06642203455 0 169 0 1
gene 1 7 17 0.5072460972 0 181 0.3279047534 1
gene 1 17 17 -0.1499796455 1 338 -0.1499796455 1
gene 1 14 14 0.3251328228 1 413 0.3251328228 1
genomeend 22343
/* Novelty: 10.60538006 Fitness: 250.116684 Generation: 92 Indiv: 22593 */
/* Point: 76.78162384 39.80878448 76.78162384 39.80878448 */

/* Organism #21006 Fitness: 10.46442318 Error: 0 */
genomestart 21006
trait 1 0.5639219985 0.5697696813 0 0.09015303424 0 0.5520276783 0.07109941903 0 
node 1 1 1 3
node 2 1 1 1
node 3 1 1 1
node 4 1 1 1
node 5 1 1 1
node 6 1 1 1
node 7 1 1 1
node 8 1 1 1
node 9 1 1 1
node 10 1 1 1
node 11 1 1 1
node 12 1 0 0
node 13 1 0 2
node 14 1 0 2
node 17 1 0 0
gene 1 1 12 -1.022431782 0 1 -1.022431782 1
gene 1 2 12 1.946667768 0 2 1.946667768 1
gene 1 3 12 -0.07731422264 0 3 -0.07731422264 1
gene 1 4 12 1.684986438 0 4 1.684986438 1
gene 1 5 12 -1.400932174 0 5 -1.400932174 1
gene 1 6 12 -0.1045079712 0 6 -0.1045079712 1
gene 1 7 12 -0.1893393752 0 7 -0.1893393752 1
gene 1 8 12 -3 0 8 -3 1
gene 1 9 12 0.7012342598 0 9 0.7012342598 1
gene 1 10 12 -0.02965027244 0 10 -0.02965027244 1
gene 1 11 12 1.437122449 0 11 1.437122449 1
gene 1 12 13 -2.032939883 0 12 -2.032939883 1
gene 1 12 14 0.6877206499 0 13 0.6877206499 1
gene 1 1 14 2.204170007 0 14 2.204170007 1
gene 1 8 14 -0.3252084507 0 19 -0.3252084507 0
gene 1 11 14 -0.70737312 0 22 -0.70737312 1
gene 1 4 14 -0.3109314361 0 26 -0.3109314361 0
gene 1 6 13 2.29144344 0 27 2.29144344 1
gene 1 10 14 0.0001042068005 0 30 0.0001042068005 1
gene 1 4 13 -0.5632016166 0 38 -0.5632016166 0
gene 1 8 17 -0.9485905799 0 49 -0.9485905799 1
gene 1 17 14 -0.3486371511 0 50 -0.3486371511 0
gene 1 17 13 0.489729137 0 161 0.489729137 1
gene 1 17 12 -0.06642203455 0 169 -0.06642203455 1
gene 1 7 17 1.2470744 0 181 1.2470744 1
gene 1 17 17 0.3640445789 1 338 0.3640445789 1
gene 1 14 14 -0.2287700606 1 413 -0.2287700606 1
genomeend 21006
/* Novelty: 10.46442318 Fitness: 286.4766541 Generation: 92 Indiv: 21256 */
/* Point: 22.0820179 30.16612816 22.0820179 30.16612816 */

/* Organism #16696 Fitness: 10.45440769 Error: 0 */
genomestart 16696
trait 1 0.5639219985 0.5697696813 0 0.09015303424 0 0.5520276783 0.07109941903 0 
node 1 1 1 3
node 2 1 1 1
node 3 1 1 1
node 4 1 1 1
node 5 1 1 1
node 6 1 1 1
node 7 1 1 1
node 8 1 1 1
node 9 1 1 1
node 10 1 1 1
node 11 1 1 1
node 12 1 0 0
node 13 1 0 2
node 14 1 0 2
node 17 1 0 0
gene 1 1 12 -1.022431782 0 1 -1.022431782 1
gene 1 2 12 1.946667768 0 2 1.946667768 1
gene 1 3 12 -0.07731422264 0 3 -0.07731422264 1
gene 1 4 12 1.684986438 0 4 1.684986438 1
gene 1 5 12 -1.400932174 0 5 -1.400932174 1
gene 1 6 12 -0.1045079712 0 6 -0.1045079712 1
gene 1 7 12 -0.1893393752 0 7 -0.1893393752 1
gene 1 8 12 -3 0 8 -3 1
gene 1 9 12 0.7012342598 0 9 0.7012342598 1
gene 1 10 12 -0.02965027244 0 10 -0.02965027244 1
gene 1 11 12 1.437122449 0 11 1.437122449 1
gene 1 12 13 -2.032939883 0 12 -2.032939883 1
gene 1 12 14 0.6877206499 0 13 0.6877206499 1
gene 1 1 14 2.204170007 0 14 2.204170007 1
gene 1 8 14 -0.3252084507 0 19 -0.3252084507 0
gene 1 11 14 -0.70737312 0 22 -0.70737312 1
gene 1 4 14 -0.3109314361 0 26 -0.3109314361 1
gene 1 6 13 2.29144344 0 27 2.29144344 1
gene 1 10 14 0.0001042068005 0 30 0.0001042068005 1
gene 1 4 13 -0.5632016166 0 38 -0.5632016166 0
gene 1 8 17 -0.9485905799 0 49 -0.9485905799 1
gene 1 17 14 -0.3486371511 0 50 -0.3486371511 0
gene 1 17 13 0.489729137 0 161 0.489729137 1
gene 1 17 12 -0.06642203455 0 169 -0.06642203455 1
gene 1 7 17 1.2470744 0 181 1.2470744 1
gene 1 17 17 0.3640445789 1 338 0.3640445789 1
gene 1 14 14 -0.2287700606 1 413 -0.2287700606 1
genomeend 16696
/* Novelty: 10.45440769 Fitness: 286.5010986 Generation: 92 Indiv: 16946 */
/* Point: 22.08909607 30.1398201 22.08909607 30.1398201 */

/* Organism #22436 Fitness: 10.35499191 Error: 0 */
genomestart 22436
trait 1 0.5639219985 0.5697696813 0 0.09015303424 0 0.5520276783 0.07109941903 0 
node 1 1 1 3
node 2 1 1 1
node 3 1 1 1
node 4 1 1 1
node 5 1 1 1
node 6 1 1 1
node 7 1 1 1
node 8 1 1 1
node 9 1 1 1
node 10 1 1 1
node 11 1 1 1
node 12 1 0 0
node 13 1 0 2
node 14 1 0 2
node 17 1 0 0
gene 1 1 12 -1.094696349 0 1 -1.094696349 1
gene 1 2 12 2.1995207 0 2 2.1995207 1
gene 1 3 12 0.3126709146 0 3 0.3126709146 1
gene 1 4 12 1.896973819 0 4 1.896973819 1
gene 1 5 12 -1.400932174 0 5 -1.400932174 1
gene 1 6 12 -0.3832574529 0 6 -0.3832574529 1
gene 1 7 12 0.2974576013 0 7 0.2974576013 1
gene 1 8 12 -3 0 8 -3 1
gene 1 9 12 0.3891109517 0 9 0.3891109517 1
gene 1 10 12 -0.3945244608 0 10 -0.3945244608 1
gene 1 11 12 -0.7028216995 0 11 -0.7028216995 1
gene 1 12 13 -1.420177969 0 12 -1.420177969 1
gene 1 12 14 0.6877206499 0 13 0.6877206499 1
gene 1 1 14 2.024375727 0 14 2.024375727 0
gene 1 8 14 -0.3252084507 0 19 -0.3252084507 0
gene 1 11 14 -0.9140310115 0 22 -0.9140310115 1
gene 1 4 14 -0.2711256427 0 26 -0.2711256427 1
gene 1 6 13 2.29144344 0 27 2.29144344 1
gene 1 10 14 0.6201765816 0 30 0.6201765816 1
gene 1 4 13 0.07992995869 0 38 0.07992995869 0
gene 1 8 17 -1.351784832 0 49 -1.351784832 1
gene 1 17 14 -0.3328755403 0 50 -0.3328755403 0
gene 1 17 13 0.1922754574 0 161 0.1922754574 1
gene 1 17 12 -0.06642203455 0 169 -0.06642203455 1
gene 1 7 17 0.8791338763 0 181 0.8791338763 1
gene 1 17 17 -0.2338633345 1 338 -0.2338633345 1
gene 1 14 14 0.041808882 1 413 0.041808882 1
genomeend 22436
/* Novelty: 10.35499191 Fitness: 246.6013794 Generation: 92 Indiv: 22686 */
/* Point: 82.69818115 33.36829758 82.69818115 33.36829758 */

/* Organism #22765 Fitness: 12.35908413 Error: 0 */
genomestart 22765
trait 1 0.5639219985 0.5697696813 0 0.09015303424 0 0.5520276783 0.07109941903 0 
node 1 1 1 3
node 2 1 1 1
node 3 1 1 1
node 4 1 1 1
node 5 1 1 1
node 6 1 1 1
node 7 1 1 1
node 8 1 1 1
node 9 1 1 1
node 10 1 1 1
node 11 1 1 1
node 12 1 0 0
node 13 1 0 2
node 14 1 0 2
node 17 1 0 0
gene 1 1 12 -1.337981339 0 1 -1.337981339 1
gene 1 2 12 2.318361167 0 2 2.318361167 1
gene 1 3 12 -0.05469756241 0 3 -0.05469756241 1
gene 1 4 12 2.198851662 0 4 2.198851662 1
gene 1 5 12 -1.427327395 0 5 -1.427327395 1
gene 1 6 12 -0.7737274807 0 6 -0.7737274807 1
gene 1 7 12 0.3189120115 0 7 0.3189120115 1
gene 1 8 12 -2.411831386 0 8 -2.411831386 1
gene 1 9 12 1.240533665 0 9 1.240533665 1
gene 1 10 12 0.4225857115 0 10 0.4225857115 1
gene 1 11 12 1.496199081 0 11 1.496199081 1
gene 1 12 13 -2.453283624 0 12 -2.453283624 1
gene 1 12 14 1.44735336 0 13 1.44735336 1
gene 1 1 14 1.858454329 0 14 1.858454329 1
gene 1 8 14 -1.095668728 0 19 -1.095668728 0
gene 1 11 14 -0.3935993496 0 22 -0.3935993496 1
gene 1 4 14 -0.3049707426 0 26 -0.3049707426 1
gene 1 6 13 2.167142782 0 27 2.167142782 1
gene 1 10 14 -0.607956051 0 30 -0.607956051 1
gene 1 4 13 -0.6390865154 0 38 -0.6390865154 0
gene 1 8 17 -0.4871580761 0 49 -0.4871580761 1
gene 1 17 14 0.003829573842 0 50 0.003829573842 0
gene 1 17 13 0.8126561387 0 161 0.8126561387 1
gene 1 17 12 -0.1479779264 0 169 -0.1479779264 1
gene 1 7 17 0.503171447 0 181 0.503171447 1
gene 1 17 17 0.3640445789 1 338 0.3640445789 1
gene 1 14 14 -0.2287700606 1 413 -0.2287700606 1
genomeend 22765
/* Novelty: 12.35908413 Fitness: 280.1862183 Generation: 92 Indiv: 23015 */
/* Point: 11.30555344 17.82864761 11.30555344 17.82864761 */

/* Species #86 : (Size 17) (AF 0) (Age 1)  */


/* Organism #21714 Fitness: 11.18401623 Error: 0 */
genomestart 21714
trait 1 1 0 0.775650929 0.4732717231 0.480871265 0 0.01840069489 0.752285086 
node 1 1 1 3
node 2 1 1 1
node 3 1 1 1
node 4 1 1 1
node 5 1 1 1
node 6 1 1 1
node 7 1 1 1
node 8 1 1 1
node 9 1 1 1
node 10 1 1 1
node 11 1 1 1
node 12 1 0 0
node 13 1 0 2
node 14 1 0 2
node 18 1 0 0
node 22 1 0 0
gene 1 1 12 0.1937424278 0 1 0.1937424278 1
gene 1 2 12 -0.3038384322 0 2 -0.3038384322 1
gene 1 3 12 -1.45206463 0 3 -1.45206463 1
gene 1 4 12 -0.2740766683 0 4 -0.2740766683 1
gene 1 5 12 2.186069295 0 5 2.186069295 1
gene 1 6 12 0.6638043167 0 6 0.6638043167 1
gene 1 7 12 0.4088306287 0 7 0.4088306287 1
gene 1 8 12 -0.6749968847 0 8 -0.6749968847 0
gene 1 9 12 -2.215808907 0 9 -2.215808907 1
gene 1 10 12 -0.4991318775 0 10 -0.4991318775 1
gene 1 11 12 -0.7672448194 0 11 -0.7672448194 0
gene 1 12 13 1.597672368 0 12 1.597672368 1
gene 1 12 14 2.105823156 0 13 2.105823156 1
gene 1 1 14 -0.130462424 0 14 -0.130462424 1
gene 1 8 14 1.689194593 0 19 1.689194593 1
gene 1 6 14 -1.454151888 0 24 -1.454151888 1
gene 1 1 13 -1.28961464 0 25 -1.28961464 1
gene 1 6 13 1.204146692 0 27 1.204146692 1
gene 1 3 14 0.6238971586 0 29 0.6238971586 1
gene 1 10 14 0.9880572039 0 30 0.9880572039 1
gene 1 9 14 2.240861414 0 37 2.240861414 1
gene 1 4 13 0.2244274514 0 38 0.2244274514 1
gene 1 5 14 -0.1471313779 0 52 0 1
gene 1 11 18 1.359525577 0 55 1.359525577 1
gene 1 18 12 0.2836556738 0 56 0.2836556738 1
gene 1 3 18 -0.8354294041 0 73 -0.8354294041 1
gene 1 8 22 0.140152308 0 83 -0.359847692 1
gene 1 22 12 0.04712485158 0 84 0.1483743843 1
gene 1 2 18 -0.3832364755 0 125 0 1
gene 1 3 22 0.1774620429 0 178 0 1
gene 1 7 18 0.0468912069 0 210 0 1
gene 1 12 12 -0.2150338792 1 243 -0.2150338792 1
gene 1 6 18 0.03750282016 0 325 0 0
genomeend 21714
/* Novelty: 11.18401623 Fitness: 225.227417 Generation: 92 Indiv: 21964 */
/* Point: 105.6125183 15.11020756 105.6125183 15.11020756 */

/* Organism #21919 Fitness: 11.18401623 Error: 0 */
genomestart 21919
trait 1 1 0 0.775650929 0.4732717231 0.480871265 0 0.01840069489 0.752285086 
node 1 1 1 3
node 2 1 1 1
node 3 1 1 1
node 4 1 1 1
node 5 1 1 1
node 6 1 1 1
node 7 1 1 1
node 8 1 1 1
node 9 1 1 1
node 10 1 1 1
node 11 1 1 1
node 12 1 0 0
node 13 1 0 2
node 14 1 0 2
node 18 1 0 0
node 22 1 0 0
gene 1 1 12 0.1937424278 0 1 0.1937424278 1
gene 1 2 12 -0.3038384322 0 2 -0.3038384322 1
gene 1 3 12 -1.45206463 0 3 -1.45206463 1
gene 1 4 12 -0.2740766683 0 4 -0.2740766683 1
gene 1 5 12 2.186069295 0 5 2.186069295 1
gene 1 6 12 0.6638043167 0 6 0.6638043167 1
gene 1 7 12 0.4088306287 0 7 0.4088306287 1
gene 1 8 12 -0.6749968847 0 8 -0.6749968847 0
gene 1 9 12 -2.215808907 0 9 -2.215808907 1
gene 1 10 12 -0.4991318775 0 10 -0.4991318775 1
gene 1 11 12 -0.7672448194 0 11 -0.7672448194 0
gene 1 12 13 1.597672368 0 12 1.597672368 1
gene 1 12 14 2.105823156 0 13 2.105823156 1
gene 1 1 14 -0.130462424 0 14 -0.130462424 1
gene 1 8 14 1.689194593 0 19 1.689194593 1
gene 1 6 14 -1.454151888 0 24 -1.454151888 1
gene 1 1 13 -1.28961464 0 25 -1.28961464 1
gene 1 6 13 1.204146692 0 27 1.204146692 1
gene 1 3 14 0.6238971586 0 29 0.6238971586 1
gene 1 10 14 0.9880572039 0 30 0.9880572039 1
gene 1 9 14 2.240861414 0 37 2.240861414 1
gene 1 4 13 0.2244274514 0 38 0.2244274514 1
gene 1 5 14 -0.1471313779 0 52 0 1
gene 1 11 18 1.359525577 0 55 1.359525577 1
gene 1 18 12 0.2836556738 0 56 0.2836556738 1
gene 1 3 18 -0.8354294041 0 73 -0.8354294041 1
gene 1 8 22 0.140152308 0 83 -0.359847692 1
gene 1 22 12 0.04712485158 0 84 0.1483743843 1
gene 1 2 18 -0.3832364755 0 125 0 1
gene 1 3 22 0.1774620429 0 178 0 1
gene 1 7 18 0.0468912069 0 210 0 1
gene 1 12 12 -0.2150338792 1 243 -0.2150338792 1
gene 1 6 18 0.03750282016 0 325 0 0
genomeend 21919
/* Novelty: 11.18401623 Fitness: 225.227417 Generation: 92 Indiv: 22169 */
/* Point: 105.6125183 15.11020756 105.6125183 15.11020756 */

/* Organism #20669 Fitness: 11.0329504 Error: 0 */
genomestart 20669
trait 1 1 0 0.775650929 0.4732717231 0.480871265 0 0.01840069489 0.752285086 
node 1 1 1 3
node 2 1 1 1
node 3 1 1 1
node 4 1 1 1
node 5 1 1 1
node 6 1 1 1
node 7 1 1 1
node 8 1 1 1
node 9 1 1 1
node 10 1 1 1
node 11 1 1 1
node 12 1 0 0
node 13 1 0 2
node 14 1 0 2
node 18 1 0 0
node 22 1 0 0
gene 1 1 12 0.1937424278 0 1 0.1937424278 1
gene 1 2 12 -0.3038384322 0 2 -0.3038384322 1
gene 1 3 12 -1.45206463 0 3 -1.45206463 1
gene 1 4 12 -0.2740766683 0 4 -0.2740766683 1
gene 1 5 12 2.186069295 0 5 2.186069295 1
gene 1 6 12 0.6638043167 0 6 0.6638043167 1
gene 1 7 12 0.4088306287 0 7 0.4088306287 1
gene 1 8 12 -0.6749968847 0 8 -0.6749968847 0
gene 1 9 12 -2.215808907 0 9 -2.215808907 1
gene 1 10 12 -0.4991318775 0 10 -0.4991318775 1
gene 1 11 12 -0.7672448194 0 11 -0.7672448194 0
gene 1 12 13 1.597672368 0 12 1.597672368 1
gene 1 12 14 2.105823156 0 13 2.105823156 1
gene 1 1 14 -0.130462424 0 14 -0.130462424 1
gene 1 8 14 1.689194593 0 19 1.689194593 1
gene 1 6 14 -1.454151888 0 24 -1.454151888 1
gene 1 1 13 -1.28961464 0 25 -1.28961464 1
gene 1 6 13 1.204146692 0 27 1.204146692 1
gene 1 3 14 0.6238971586 0 29 0.6238971586 1
gene 1 10 14 0.9880572039 0 30 0.9880572039 1
gene 1 9 14 2.240861414 0 37 2.240861414 1
gene 1 4 13 0.2244274514 0 38 0.2244274514 1
gene 1 5 14 -0.1471313779 0 52 0 1
gene 1 11 18 1.359525577 0 55 1.359525577 1
gene 1 18 12 0.2836556738 0 56 0.2836556738 1
gene 1 3 18 -0.8354294041 0 73 -0.8354294041 1
gene 1 8 22 0.140152308 0 83 -0.359847692 1
gene 1 22 12 -0.2024990654 0 84 0 1
gene 1 2 18 -0.3832364755 0 125 0 1
gene 1 3 22 0.1774620429 0 178 0 1
gene 1 12 12 -0.2150338792 1 243 -0.2150338792 1
gene 1 6 18 0.03750282016 0 325 0 1
genomeend 20669
/* Novelty: 11.0329504 Fitness: 220.1736755 Generation: 92 Indiv: 20919 */
/* Point: 110.6832123 24.77791595 110.6832123 24.77791595 */

/* Organism #21525 Fitness: 10.96694946 Error: 0 */
genomestart 21525
trait 1 1 0 0.775650929 0.4732717231 0.480871265 0 0.01840069489 0.752285086 
node 1 1 1 3
node 2 1 1 1
node 3 1 1 1
node 4 1 1 1
node 5 1 1 1
node 6 1 1 1
node 7 1 1 1
node 8 1 1 1
node 9 1 1 1
node 10 1 1 1
node 11 1 1 1
node 12 1 0 0
node 13 1 0 2
node 14 1 0 2
node 18 1 0 0
node 22 1 0 0
gene 1 1 12 0.1937424278 0 1 0.1937424278 1
gene 1 2 12 -0.3038384322 0 2 -0.3038384322 1
gene 1 3 12 -1.45206463 0 3 -1.45206463 1
gene 1 4 12 -0.2740766683 0 4 -0.2740766683 1
gene 1 5 12 2.186069295 0 5 2.186069295 1
gene 1 6 12 0.6638043167 0 6 0.6638043167 1
gene 1 7 12 0.4088306287 0 7 0.4088306287 1
gene 1 8 12 -0.6749968847 0 8 -0.6749968847 0
gene 1 9 12 -2.215808907 0 9 -2.215808907 1
gene 1 10 12 -0.4991318775 0 10 -0.4991318775 1
gene 1 11 12 -0.7672448194 0 11 -0.7672448194 0
gene 1 12 13 1.597672368 0 12 1.597672368 1
gene 1 12 14 2.105823156 0 13 2.105823156 1
gene 1 1 14 -0.130462424 0 14 -0.130462424 1
gene 1 8 14 1.689194593 0 19 1.689194593 1
gene 1 6 14 -1.454151888 0 24 -1.454151888 1
gene 1 1 13 -1.28961464 0 25 -1.28961464 1
gene 1 6 13 1.204146692 0 27 1.204146692 1
gene 1 3 14 0.6238971586 0 29 0.6238971586 1
gene 1 10 14 0.9880572039 0 30 0.9880572039 1
gene 1 9 14 2.240861414 0 37 2.240861414 1
gene 1 4 13 0.2244274514 0 38 0.2244274514 1
gene 1 5 14 -0.1471313779 0 52 0 1
gene 1 11 18 1.359525577 0 55 1.359525577 1
gene 1 18 12 0.2836556738 0 56 0.2836556738 1
gene 1 3 18 -0.8354294041 0 73 -0.8354294041 1
gene 1 8 22 -0.719695384 0 83 -0.719695384 1
gene 1 22 12 0.04712485158 0 84 0.1483743843 1
gene 1 3 22 0.1774620429 0 178 0 1
gene 1 7 18 0.0468912069 0 210 0 1
gene 1 12 12 -0.2150338792 1 243 -0.2150338792 1
gene 1 6 18 0.03750282016 0 325 0 0
genomeend 21525
/* Novelty: 10.96694946 Fitness: 229.9247894 Generation: 92 Indiv: 21775 */
/* Point: 100.8467712 14.34630775 100.8467712 14.34630775 */

/* Organism #21502 Fitness: 10.93293571 Error: 0 */
genomestart 21502
trait 1 1 0 0.775650929 0.4732717231 0.480871265 0 0.01840069489 0.752285086 
node 1 1 1 3
node 2 1 1 1
node 3 1 1 1
node 4 1 1 1
node 5 1 1 1
node 6 1 1 1
node 7 1 1 1
node 8 1 1 1
node 9 1 1 1
node 10 1 1 1
node 11 1 1 1
node 12 1 0 0
node 13 1 0 2
node 14 1 0 2
node 18 1 0 0
node 22 1 0 0
gene 1 1 12 0.1937424278 0 1 0.1937424278 1
gene 1 2 12 -0.3038384322 0 2 -0.3038384322 1
gene 1 3 12 -1.45206463 0 3 -1.45206463 1
gene 1 4 12 -0.2740766683 0 4 -0.2740766683 1
gene 1 5 12 2.186069295 0 5 2.186069295 1
gene 1 6 12 0.6638043167 0 6 0.6638043167 1
gene 1 7 12 0.4088306287 0 7 0.4088306287 1
gene 1 8 12 -0.6749968847 0 8 -0.6749968847 0
gene 1 9 12 -2.215808907 0 9 -2.215808907 1
gene 1 10 12 -0.4991318775 0 10 -0.4991318775 1
gene 1 11 12 -0.7672448194 0 11 -0.7672448194 0
gene 1 12 13 1.597672368 0 12 1.597672368 1
gene 1 12 14 2.105823156 0 13 2.105823156 1
gene 1 1 14 -0.130462424 0 14 -0.130462424 1
gene 1 8 14 1.689194593 0 19 1.689194593 1
gene 1 6 14 -1.454151888 0 24 -1.454151888 1
gene 1 1 13 -1.28961464 0 25 -1.28961464 1
gene 1 6 13 1.204146692 0 27 1.204146692 1
gene 1 3 14 0.6238971586 0 29 0.6238971586 1
gene 1 10 14 0.9880572039 0 30 0.9880572039 1
gene 1 9 14 2.240861414 0 37 2.240861414 1
gene 1 4 13 0.2244274514 0 38 0.2244274514 1
gene 1 5 14 -0.1471313779 0 52 0 1
gene 1 11 18 1.359525577 0 55 1.359525577 1
gene 1 18 12 0.2836556738 0 56 0.2836556738 1
gene 1 3 18 -0.8354294041 0 73 -0.8354294041 1
gene 1 8 22 -0.719695384 0 83 -0.719695384 1
gene 1 22 12 0.04712485158 0 84 0.1483743843 1
gene 1 3 22 0.1774620429 0 178 0 1
gene 1 7 18 0.0468912069 0 210 0 1
gene 1 12 12 -0.2150338792 1 243 -0.2150338792 1
gene 1 6 18 0.03750282016 0 325 0 1
genomeend 21502
/* Novelty: 10.93293571 Fitness: 228.2243347 Generation: 92 Indiv: 21752 */
/* Point: 102.5860443 14.7861805 102.5860443 14.7861805 */

/* Organism #22167 Fitness: 10.33697224 Error: 0 */
genomestart 22167
trait 1 1 0 0.775650929 0.4732717231 0.480871265 0 0.01840069489 0.752285086 
node 1 1 1 3
node 2 1 1 1
node 3 1 1 1
node 4 1 1 1
node 5 1 1 1
node 6 1 1 1
node 7 1 1 1
node 8 1 1 1
node 9 1 1 1
node 10 1 1 1
node 11 1 1 1
node 12 1 0 0
node 13 1 0 2
node 14 1 0 2
node 18 1 0 0
node 22 1 0 0
gene 1 1 12 0.1937424278 0 1 0.1937424278 1
gene 1 2 12 -0.3038384322 0 2 -0.3038384322 1
gene 1 3 12 -1.45206463 0 3 -1.45206463 1
gene 1 4 12 -0.2740766683 0 4 -0.2740766683 1
gene 1 5 12 2.186069295 0 5 2.186069295 1
gene 1 6 12 0.6638043167 0 6 0.6638043167 1
gene 1 7 12 0.4088306287 0 7 0.4088306287 1
gene 1 8 12 -0.6749968847 0 8 -0.6749968847 0
gene 1 9 12 -2.215808907 0 9 -2.215808907 1
gene 1 10 12 -0.4991318775 0 10 -0.4991318775 1
gene 1 11 12 -0.7672448194 0 11 -0.7672448194 0
gene 1 12 13 1.597672368 0 12 1.597672368 1
gene 1 12 14 2.105823156 0 13 2.105823156 1
gene 1 1 14 -0.130462424 0 14 -0.130462424 1
gene 1 8 14 1.689194593 0 19 1.689194593 1
gene 1 6 14 -1.454151888 0 24 -1.454151888 1
gene 1 1 13 -1.28961464 0 25 -1.28961464 1
gene 1 6 13 1.204146692 0 27 1.204146692 1
gene 1 3 14 0.6238971586 0 29 0.6238971586 1
gene 1 10 14 0.9880572039 0 30 0.9880572039 1
gene 1 9 14 2.240861414 0 37 2.240861414 1
gene 1 4 13 0.2244274514 0 38 0.2244274514 1
gene 1 5 14 -0.1471313779 0 52 0 1
gene 1 11 18 1.359525577 0 55 1.359525577 1
gene 1 18 12 0.2836556738 0 56 0.2836556738 1
gene 1 3 18 -0.8354294041 0 73 -0.8354294041 1
gene 1 8 22 -0.719695384 0 83 -0.719695384 1
gene 1 22 12 0.2967487686 0 84 0.2967487686 1
gene 1 3 22 0.1774620429 0 178 0 1
gene 1 7 18 0.0468912069 0 210 0 1
gene 1 12 12 -0.2150338792 1 243 -0.2150338792 1
gene 1 6 18 0.03750282016 0 325 0 0
genomeend 22167
/* Novelty: 10.33697224 Fitness: 247.9029541 Generation: 92 Indiv: 22417 */
/* Point: 83.05799103 22.01709366 83.05799103 22.01709366 */

/* Organism #20476 Fitness: 10.25780106 Error: 0 */
genomestart 20476
trait 1 0.9355304287 0 0.1309927893 0 0 0 0.001340491872 0 
node 1 1 1 3
node 2 1 1 1
node 3 1 1 1
node 4 1 1 1
node 5 1 1 1
node 6 1 1 1
node 7 1 1 1
node 8 1 1 1
node 9 1 1 1
node 10 1 1 1
node 11 1 1 1
node 12 1 0 0
node 13 1 0 2
node 14 1 0 2
node 18 1 0 0
node 22 1 0 0
gene 1 1 12 0.8358017714 0 1 0.8358017714 1
gene 1 2 12 -0.7457759851 0 2 -0.7457759851 1
gene 1 3 12 -1.557299807 0 3 -1.557299807 1
gene 1 4 12 0.2281981213 0 4 0.2281981213 1
gene 1 5 12 1.869779385 0 5 1.869779385 1
gene 1 6 12 1.015805411 0 6 1.015805411 1
gene 1 7 12 1.101654046 0 7 1.101654046 1
gene 1 8 12 -0.5590296694 0 8 -0.5590296694 1
gene 1 9 12 -1.918033991 0 9 -1.918033991 1
gene 1 10 12 -1.12447403 0 10 -1.12447403 0
gene 1 11 12 -0.4291323525 0 11 -0.4291323525 0
gene 1 12 13 1.398210837 0 12 1.398210837 1
gene 1 12 14 1.570428992 0 13 1.570428992 1
gene 1 1 14 0.2020161121 0 14 0.2020161121 1
gene 1 8 14 1.729592649 0 19 1.729592649 1
gene 1 6 14 -1.1212089 0 24 -0.9861356279 1
gene 1 1 13 -1.445325215 0 25 -1.445325215 1
gene 1 6 13 1.320326543 0 27 1.320326543 1
gene 1 3 14 0.5781665156 0 29 0.5781665156 1
gene 1 10 14 1.030535676 0 30 1.030535676 1
gene 1 9 14 1.252556595 0 37 1.252556595 1
gene 1 4 13 -0.8050164936 0 38 -0.8050164936 1
gene 1 9 13 0.09023242588 0 42 0 1
gene 1 11 18 0.4724237544 0 55 0.4724237544 1
gene 1 18 12 1.697654771 0 56 1.697654771 1
gene 1 3 18 -0.9498029823 0 73 -0.9498029823 0
gene 1 8 22 -0.03489143217 0 83 -0.03489143217 1
gene 1 22 12 0.3398053237 0 84 0.3398053237 1
gene 1 1 18 0.1384119159 0 98 0 1
gene 1 12 12 -0.2150338792 1 243 -0.2150338792 1
genomeend 20476
/* Novelty: 10.25780106 Fitness: 122.0208893 Generation: 92 Indiv: 20726 */
/* Point: 176.6747284 122.2518463 176.6747284 122.2518463 */

/* Organism #20064 Fitness: 10.25774956 Error: 0 */
genomestart 20064
trait 1 0.9355304287 0 0.1309927893 0 0 0 0.001340491872 0 
node 1 1 1 3
node 2 1 1 1
node 3 1 1 1
node 4 1 1 1
node 5 1 1 1
node 6 1 1 1
node 7 1 1 1
node 8 1 1 1
node 9 1 1 1
node 10 1 1 1
node 11 1 1 1
node 12 1 0 0
node 13 1 0 2
node 14 1 0 2
node 18 1 0 0
node 22 1 0 0
gene 1 1 12 0.8358017714 0 1 0.8358017714 1
gene 1 2 12 -0.7457759851 0 2 -0.7457759851 1
gene 1 3 12 -1.557299807 0 3 -1.557299807 1
gene 1 4 12 0.2281981213 0 4 0.2281981213 1
gene 1 5 12 1.869779385 0 5 1.869779385 1
gene 1 6 12 1.015805411 0 6 1.015805411 1
gene 1 7 12 1.101654046 0 7 1.101654046 1
gene 1 8 12 -0.5590296694 0 8 -0.5590296694 0
gene 1 9 12 -1.918033991 0 9 -1.918033991 1
gene 1 10 12 -1.12447403 0 10 -1.12447403 0
gene 1 11 12 -0.4291323525 0 11 -0.4291323525 0
gene 1 12 13 1.398210837 0 12 1.398210837 1
gene 1 12 14 1.570428992 0 13 1.570428992 1
gene 1 1 14 0.2020161121 0 14 0.2020161121 1
gene 1 8 14 1.729592649 0 19 1.729592649 1
gene 1 6 14 -1.1212089 0 24 -0.9861356279 1
gene 1 1 13 -1.445325215 0 25 -1.445325215 1
gene 1 6 13 1.320326543 0 27 1.320326543 1
gene 1 3 14 0.5781665156 0 29 0.5781665156 1
gene 1 10 14 1.030535676 0 30 1.030535676 1
gene 1 9 14 1.252556595 0 37 1.252556595 1
gene 1 4 13 -0.8050164936 0 38 -0.8050164936 1
gene 1 9 13 0.09023242588 0 42 0 1
gene 1 11 18 0.4724237544 0 55 0.4724237544 1
gene 1 18 12 1.697654771 0 56 1.697654771 1
gene 1 3 18 -0.9498029823 0 73 -0.9498029823 0
gene 1 8 22 -0.03489143217 0 83 -0.03489143217 1
gene 1 22 12 0.3398053237 0 84 0.3398053237 1
gene 1 1 18 0.1384119159 0 98 0 1
gene 1 12 12 -0.2150338792 1 243 -0.2150338792 1
genomeend 20064
/* Novelty: 10.25774956 Fitness: 122.0204163 Generation: 92 Indiv: 20314 */
/* Point: 176.675415 122.2516708 176.675415 122.2516708 */

/* Organism #18392 Fitness: 10.25774956 Error: 0 */
genomestart 18392
trait 1 0.9355304287 0 0.1309927893 0 0 0 0.001340491872 0 
node 1 1 1 3
node 2 1 1 1
node 3 1 1 1
node 4 1 1 1
node 5 1 1 1
node 6 1 1 1
node 7 1 1 1
node 8 1 1 1
node 9 1 1 1
node 10 1 1 1
node 11 1 1 1
node 12 1 0 0
node 13 1 0 2
node 14 1 0 2
node 18 1 0 0
node 22 1 0 0
gene 1 1 12 0.8358017714 0 1 0.8358017714 1
gene 1 2 12 -0.7457759851 0 2 -0.7457759851 1
gene 1 3 12 -1.557299807 0 3 -1.557299807 1
gene 1 4 12 0.2281981213 0 4 0.2281981213 1
gene 1 5 12 1.869779385 0 5 1.869779385 1
gene 1 6 12 1.015805411 0 6 1.015805411 1
gene 1 7 12 1.101654046 0 7 1.101654046 1
gene 1 8 12 -0.5590296694 0 8 -0.5590296694 0
gene 1 9 12 -1.918033991 0 9 -1.918033991 1
gene 1 10 12 -1.12447403 0 10 -1.12447403 0
gene 1 11 12 -0.4291323525 0 11 -0.4291323525 0
gene 1 12 13 1.398210837 0 12 1.398210837 1
gene 1 12 14 1.570428992 0 13 1.570428992 1
gene 1 1 14 0.2020161121 0 14 0.2020161121 1
gene 1 8 14 1.729592649 0 19 1.729592649 1
gene 1 6 14 -1.1212089 0 24 -0.9861356279 1
gene 1 1 13 -1.445325215 0 25 -1.445325215 1
gene 1 6 13 1.320326543 0 27 1.320326543 1
gene 1 3 14 0.5781665156 0 29 0.5781665156 1
gene 1 10 14 1.030535676 0 30 1.030535676 1
gene 1 9 14 1.252556595 0 37 1.252556595 1
gene 1 4 13 -0.8050164936 0 38 -0.8050164936 1
gene 1 9 13 0.09023242588 0 42 0 1
gene 1 11 18 0.4724237544 0 55 0.4724237544 1
gene 1 18 12 1.697654771 0 56 1.697654771 1
gene 1 3 18 -0.9498029823 0 73 -0.9498029823 0
gene 1 8 22 -0.03489143217 0 83 -0.03489143217 1
gene 1 22 12 0.3398053237 0 84 0.3398053237 1
gene 1 1 18 0.1384119159 0 98 0 1
gene 1 12 12 -0.2150338792 1 243 -0.2150338792 1
genomeend 18392
/* Novelty: 10.25774956 Fitness: 122.0204163 Generation: 92 Indiv: 18642 */
/* Point: 176.675415 122.2516708 176.675415 122.2516708 */

/* Organism #15097 Fitness: 10.19562149 Error: 0 */
genomestart 15097
trait 1 0.9355304287 0 0.1309927893 0 0 0 0.001340491872 0 
node 1 1 1 3
node 2 1 1 1
node 3 1 1 1
node 4 1 1 1
node 5 1 1 1
node 6 1 1 1
node 7 1 1 1
node 8 1 1 1
node 9 1 1 1
node 10 1 1 1
node 11 1 1 1
node 12 1 0 0
node 13 1 0 2
node 14 1 0 2
node 18 1 0 0
node 22 1 0 0
gene 1 1 12 0.8358017714 0 1 0.8358017714 1
gene 1 2 12 -0.7457759851 0 2 -0.7457759851 1
gene 1 3 12 -1.557299807 0 3 -1.557299807 1
gene 1 4 12 -0.1407657241 0 4 -0.1407657241 1
gene 1 5 12 2.216480498 0 5 2.216480498 1
gene 1 6 12 1.109081759 0 6 1.109081759 1
gene 1 7 12 0.8343371477 0 7 0.8343371477 1
gene 1 8 12 -0.5590296694 0 8 -0.5590296694 0
gene 1 9 12 -1.918033991 0 9 -1.918033991 1
gene 1 10 12 -1.12447403 0 10 -1.12447403 1
gene 1 11 12 -0.7601079276 0 11 -0.7601079276 0
gene 1 12 13 1.398210837 0 12 1.398210837 1
gene 1 12 14 1.570428992 0 13 1.570428992 1
gene 1 1 14 0.2020161121 0 14 0.2020161121 1
gene 1 8 14 1.184635435 0 19 1.184635435 1
gene 1 6 14 -1.1212089 0 24 -0.9861356279 1
gene 1 1 13 -1.445325215 0 25 -1.445325215 1
gene 1 6 13 1.213995315 0 27 1.213995315 1
gene 1 3 14 0.5781665156 0 29 0.5781665156 1
gene 1 10 14 0.5737700441 0 30 0.5737700441 1
gene 1 9 14 1.675858178 0 37 1.675858178 1
gene 1 4 13 -0.4111574654 0 38 -0.4111574654 1
gene 1 11 18 0.6088128912 0 55 0.6088128912 1
gene 1 18 12 2.12275369 0 56 2.12275369 1
gene 1 3 18 -0.9498029823 0 73 -0.9498029823 0
gene 1 8 22 -0.03489143217 0 83 -0.03489143217 1
gene 1 22 12 0.1522620052 0 84 0.1522620052 1
gene 1 12 12 -0.2150338792 1 243 -0.2150338792 1
genomeend 15097
/* Novelty: 10.19562149 Fitness: 144.9322052 Generation: 92 Indiv: 15347 */
/* Point: 155.6365967 112.259079 155.6365967 112.259079 */

/* Organism #10601 Fitness: 10.19562149 Error: 0 */
genomestart 10601
trait 1 0.9355304287 0 0.1309927893 0 0 0 0.001340491872 0 
node 1 1 1 3
node 2 1 1 1
node 3 1 1 1
node 4 1 1 1
node 5 1 1 1
node 6 1 1 1
node 7 1 1 1
node 8 1 1 1
node 9 1 1 1
node 10 1 1 1
node 11 1 1 1
node 12 1 0 0
node 13 1 0 2
node 14 1 0 2
node 18 1 0 0
node 22 1 0 0
gene 1 1 12 0.8358017714 0 1 0.8358017714 1
gene 1 2 12 -0.7457759851 0 2 -0.7457759851 1
gene 1 3 12 -1.557299807 0 3 -1.557299807 1
gene 1 4 12 -0.1407657241 0 4 -0.1407657241 1
gene 1 5 12 2.216480498 0 5 2.216480498 1
gene 1 6 12 1.109081759 0 6 1.109081759 1
gene 1 7 12 0.8343371477 0 7 0.8343371477 1
gene 1 8 12 -0.5590296694 0 8 -0.5590296694 0
gene 1 9 12 -1.918033991 0 9 -1.918033991 1
gene 1 10 12 -1.12447403 0 10 -1.12447403 1
gene 1 11 12 -0.7601079276 0 11 -0.7601079276 0
gene 1 12 13 1.398210837 0 12 1.398210837 1
gene 1 12 14 1.570428992 0 13 1.570428992 1
gene 1 1 14 0.2020161121 0 14 0.2020161121 1
gene 1 8 14 1.184635435 0 19 1.184635435 1
gene 1 6 14 -1.1212089 0 24 -0.9861356279 1
gene 1 1 13 -1.445325215 0 25 -1.445325215 1
gene 1 6 13 1.213995315 0 27 1.213995315 1
gene 1 3 14 0.5781665156 0 29 0.5781665156 1
gene 1 10 14 0.5737700441 0 30 0.5737700441 1
gene 1 9 14 1.675858178 0 37 1.675858178 1
gene 1 4 13 -0.4111574654 0 38 -0.4111574654 1
gene 1 11 18 0.6088128912 0 55 0.6088128912 1
gene 1 18 12 2.12275369 0 56 2.12275369 1
gene 1 3 18 -0.9498029823 0 73 -0.9498029823 0
gene 1 8 22 -0.03489143217 0 83 -0.03489143217 1
gene 1 22 12 0.1522620052 0 84 0.1522620052 1
gene 1 12 12 -0.2150338792 1 243 -0.2150338792 1
genomeend 10601
/* Novelty: 10.19562149 Fitness: 144.9322052 Generation: 92 Indiv: 10851 */
/* Point: 155.6365967 112.259079 155.6365967 112.259079 */

/* Organism #17380 Fitness: 10.19562149 Error: 0 */
genomestart 17380
trait 1 0.9355304287 0 0.1309927893 0 0 0 0.001340491872 0 
node 1 1 1 3
node 2 1 1 1
node 3 1 1 1
node 4 1 1 1
node 5 1 1 1
node 6 1 1 1
node 7 1 1 1
node 8 1 1 1
node 9 1 1 1
node 10 1 1 1
node 11 1 1 1
node 12 1 0 0
node 13 1 0 2
node 14 1 0 2
node 18 1 0 0
node 22 1 0 0
gene 1 1 12 0.8358017714 0 1 0.8358017714 1
gene 1 2 12 -0.7457759851 0 2 -0.7457759851 1
gene 1 3 12 -1.557299807 0 3 -1.557299807 1
gene 1 4 12 -0.1407657241 0 4 -0.1407657241 1
gene 1 5 12 2.216480498 0 5 2.216480498 1
gene 1 6 12 1.109081759 0 6 1.109081759 1
gene 1 7 12 0.8343371477 0 7 0.8343371477 1
gene 1 8 12 -0.5590296694 0 8 -0.5590296694 0
gene 1 9 12 -1.918033991 0 9 -1.918033991 1
gene 1 10 12 -1.12447403 0 10 -1.12447403 1
gene 1 11 12 -0.7601079276 0 11 -0.7601079276 0
gene 1 12 13 1.398210837 0 12 1.398210837 1
gene 1 12 14 1.570428992 0 13 1.570428992 1
gene 1 1 14 0.2020161121 0 14 0.2020161121 1
gene 1 8 14 1.184635435 0 19 1.184635435 1
gene 1 6 14 -1.1212089 0 24 -0.9861356279 1
gene 1 1 13 -1.445325215 0 25 -1.445325215 1
gene 1 6 13 1.213995315 0 27 1.213995315 1
gene 1 3 14 0.5781665156 0 29 0.5781665156 1
gene 1 10 14 0.5737700441 0 30 0.5737700441 1
gene 1 9 14 1.675858178 0 37 1.675858178 1
gene 1 4 13 -0.4111574654 0 38 -0.4111574654 1
gene 1 11 18 0.6088128912 0 55 0.6088128912 1
gene 1 18 12 2.12275369 0 56 2.12275369 1
gene 1 3 18 -0.9498029823 0 73 -0.9498029823 0
gene 1 8 22 -0.03489143217 0 83 -0.03489143217 1
gene 1 22 12 0.1522620052 0 84 0.1522620052 1
gene 1 12 12 -0.2150338792 1 243 -0.2150338792 1
genomeend 17380
/* Novelty: 10.19562149 Fitness: 144.9322052 Generation: 92 Indiv: 17630 */
/* Point: 155.6365967 112.259079 155.6365967 112.259079 */

/* Organism #9124 Fitness: 10.19562149 Error: 0 */
genomestart 9124
trait 1 0.9355304287 0 0.1309927893 0 0 0 0.001340491872 0 
node 1 1 1 3
node 2 1 1 1
node 3 1 1 1
node 4 1 1 1
node 5 1 1 1
node 6 1 1 1
node 7 1 1 1
node 8 1 1 1
node 9 1 1 1
node 10 1 1 1
node 11 1 1 1
node 12 1 0 0
node 13 1 0 2
node 14 1 0 2
node 18 1 0 0
node 22 1 0 0
gene 1 1 12 0.8358017714 0 1 0.8358017714 1
gene 1 2 12 -0.7457759851 0 2 -0.7457759851 1
gene 1 3 12 -1.557299807 0 3 -1.557299807 1
gene 1 4 12 -0.1407657241 0 4 -0.1407657241 1
gene 1 5 12 2.216480498 0 5 2.216480498 1
gene 1 6 12 1.109081759 0 6 1.109081759 1
gene 1 7 12 0.8343371477 0 7 0.8343371477 1
gene 1 8 12 -0.5590296694 0 8 -0.5590296694 0
gene 1 9 12 -1.918033991 0 9 -1.918033991 1
gene 1 10 12 -1.12447403 0 10 -1.12447403 1
gene 1 11 12 -0.7601079276 0 11 -0.7601079276 0
gene 1 12 13 1.398210837 0 12 1.398210837 1
gene 1 12 14 1.570428992 0 13 1.570428992 1
gene 1 1 14 0.2020161121 0 14 0.2020161121 1
gene 1 8 14 1.184635435 0 19 1.184635435 1
gene 1 6 14 -1.1212089 0 24 -0.9861356279 1
gene 1 1 13 -1.445325215 0 25 -1.445325215 1
gene 1 6 13 1.213995315 0 27 1.213995315 1
gene 1 3 14 0.5781665156 0 29 0.5781665156 1
gene 1 10 14 0.5737700441 0 30 0.5737700441 1
gene 1 9 14 1.675858178 0 37 1.675858178 1
gene 1 4 13 -0.4111574654 0 38 -0.4111574654 1
gene 1 11 18 0.6088128912 0 55 0.6088128912 1
gene 1 18 12 2.12275369 0 56 2.12275369 1
gene 1 3 18 -0.9498029823 0 73 -0.9498029823 0
gene 1 8 22 -0.03489143217 0 83 -0.03489143217 1
gene 1 22 12 0.1522620052 0 84 0.1522620052 1
gene 1 12 12 -0.2150338792 1 243 -0.2150338792 1
genomeend 9124
/* Novelty: 10.19562149 Fitness: 144.9322052 Generation: 92 Indiv: 9374 */
/* Point: 155.6365967 112.259079 155.6365967 112.259079 */

/* Organism #18415 Fitness: 10.06114674 Error: 0 */
genomestart 18415
trait 1 1 0 0.775650929 0.4732717231 0.480871265 0 0.01840069489 0.752285086 
node 1 1 1 3
node 2 1 1 1
node 3 1 1 1
node 4 1 1 1
node 5 1 1 1
node 6 1 1 1
node 7 1 1 1
node 8 1 1 1
node 9 1 1 1
node 10 1 1 1
node 11 1 1 1
node 12 1 0 0
node 13 1 0 2
node 14 1 0 2
node 18 1 0 0
node 22 1 0 0
gene 1 1 12 0.1937424278 0 1 0.1937424278 1
gene 1 2 12 -0.3038384322 0 2 -0.3038384322 1
gene 1 3 12 -1.45206463 0 3 -1.45206463 1
gene 1 4 12 -0.2740766683 0 4 -0.2740766683 1
gene 1 5 12 2.186069295 0 5 2.186069295 1
gene 1 6 12 0.6638043167 0 6 0.6638043167 1
gene 1 7 12 0.4088306287 0 7 0.4088306287 1
gene 1 8 12 -0.6749968847 0 8 -0.6749968847 0
gene 1 9 12 -2.215808907 0 9 -2.215808907 1
gene 1 10 12 -0.4991318775 0 10 -0.4991318775 1
gene 1 11 12 -0.7672448194 0 11 -0.7672448194 0
gene 1 12 13 1.597672368 0 12 1.597672368 1
gene 1 12 14 2.105823156 0 13 2.105823156 1
gene 1 1 14 -0.130462424 0 14 -0.130462424 1
gene 1 8 14 1.689194593 0 19 1.689194593 1
gene 1 6 14 -1.454151888 0 24 -1.454151888 1
gene 1 1 13 -1.28961464 0 25 -1.28961464 1
gene 1 6 13 1.204146692 0 27 1.204146692 1
gene 1 3 14 0.6238971586 0 29 0.6238971586 1
gene 1 10 14 0.9880572039 0 30 0.9880572039 1
gene 1 9 14 2.240861414 0 37 2.240861414 1
gene 1 4 13 0.2244274514 0 38 0.2244274514 1
gene 1 5 14 -0.1471313779 0 52 0 1
gene 1 11 18 1.359525577 0 55 1.359525577 1
gene 1 18 12 0.2836556738 0 56 0.2836556738 1
gene 1 3 18 -0.8354294041 0 73 -0.8354294041 1
gene 1 8 22 -0.719695384 0 83 -0.719695384 1
gene 1 22 12 0.2967487686 0 84 0.2967487686 1
gene 1 12 12 -0.2150338792 1 243 -0.2150338792 1
genomeend 18415
/* Novelty: 10.06114674 Fitness: 264.5648193 Generation: 92 Indiv: 18665 */
/* Point: 65.84850311 13.57863617 65.84850311 13.57863617 */

/* Organism #22688 Fitness: 10.06114674 Error: 0 */
genomestart 22688
trait 1 1 0.7247766548 0.8320535597 0.4732717231 0.480871265 0 0.01840069489 0.7039572279 
node 1 1 1 3
node 2 1 1 1
node 3 1 1 1
node 4 1 1 1
node 5 1 1 1
node 6 1 1 1
node 7 1 1 1
node 8 1 1 1
node 9 1 1 1
node 10 1 1 1
node 11 1 1 1
node 12 1 0 0
node 13 1 0 2
node 14 1 0 2
node 18 1 0 0
node 22 1 0 0
gene 1 1 12 0.1937424278 0 1 0.1937424278 1
gene 1 2 12 -0.3038384322 0 2 -0.3038384322 1
gene 1 3 12 -1.45206463 0 3 -1.45206463 1
gene 1 4 12 -0.2740766683 0 4 -0.2740766683 1
gene 1 5 12 2.186069295 0 5 2.186069295 1
gene 1 6 12 0.6638043167 0 6 0.6638043167 1
gene 1 7 12 0.4088306287 0 7 0.4088306287 1
gene 1 8 12 -0.6749968847 0 8 -0.6749968847 0
gene 1 9 12 -2.215808907 0 9 -2.215808907 1
gene 1 10 12 -0.4991318775 0 10 -0.4991318775 1
gene 1 11 12 -0.7672448194 0 11 -0.7672448194 0
gene 1 12 13 1.597672368 0 12 1.597672368 1
gene 1 12 14 2.105823156 0 13 2.105823156 1
gene 1 1 14 -0.130462424 0 14 -0.130462424 1
gene 1 8 14 1.689194593 0 19 1.689194593 1
gene 1 6 14 -1.454151888 0 24 -1.454151888 1
gene 1 1 13 -1.28961464 0 25 -1.28961464 1
gene 1 6 13 1.204146692 0 27 1.204146692 1
gene 1 3 14 0.6238971586 0 29 0.6238971586 1
gene 1 10 14 0.9880572039 0 30 0.9880572039 1
gene 1 9 14 2.240861414 0 37 2.240861414 1
gene 1 4 13 0.2244274514 0 38 0.2244274514 1
gene 1 5 14 -0.1471313779 0 52 0 1
gene 1 11 18 1.359525577 0 55 1.359525577 1
gene 1 18 12 0.2836556738 0 56 0.2836556738 1
gene 1 3 18 -0.8354294041 0 73 -0.8354294041 1
gene 1 8 22 -0.719695384 0 83 -0.719695384 1
gene 1 22 12 0.2967487686 0 84 0.2967487686 1
gene 1 12 12 -0.2150338792 1 243 -0.2150338792 1
genomeend 22688
/* Novelty: 10.06114674 Fitness: 264.5648193 Generation: 92 Indiv: 22938 */
/* Point: 65.84850311 13.57863617 65.84850311 13.57863617 */

/* Organism #13690 Fitness: 10.05466843 Error: 0 */
genomestart 13690
trait 1 1 0 0.775650929 0.4732717231 0.480871265 0 0.01840069489 0.752285086 
node 1 1 1 3
node 2 1 1 1
node 3 1 1 1
node 4 1 1 1
node 5 1 1 1
node 6 1 1 1
node 7 1 1 1
node 8 1 1 1
node 9 1 1 1
node 10 1 1 1
node 11 1 1 1
node 12 1 0 0
node 13 1 0 2
node 14 1 0 2
node 18 1 0 0
node 22 1 0 0
gene 1 1 12 0.1937424278 0 1 0.1937424278 1
gene 1 2 12 -0.3038384322 0 2 -0.3038384322 1
gene 1 3 12 -1.45206463 0 3 -1.45206463 1
gene 1 4 12 -0.2740766683 0 4 -0.2740766683 1
gene 1 5 12 2.186069295 0 5 2.186069295 1
gene 1 6 12 0.6638043167 0 6 0.6638043167 1
gene 1 7 12 0.4088306287 0 7 0.4088306287 1
gene 1 8 12 -0.6749968847 0 8 -0.6749968847 0
gene 1 9 12 -2.215808907 0 9 -2.215808907 1
gene 1 10 12 -0.4991318775 0 10 -0.4991318775 1
gene 1 11 12 -0.7672448194 0 11 -0.7672448194 0
gene 1 12 13 1.597672368 0 12 1.597672368 1
gene 1 12 14 2.105823156 0 13 2.105823156 1
gene 1 1 14 -0.130462424 0 14 -0.130462424 1
gene 1 8 14 1.689194593 0 19 1.689194593 1
gene 1 6 14 -1.454151888 0 24 -1.454151888 1
gene 1 1 13 -1.28961464 0 25 -1.28961464 1
gene 1 6 13 1.204146692 0 27 1.204146692 1
gene 1 3 14 0.6238971586 0 29 0.6238971586 1
gene 1 10 14 0.9880572039 0 30 0.9880572039 1
gene 1 9 14 2.240861414 0 37 2.240861414 1
gene 1 4 13 0.2244274514 0 38 0.2244274514 1
gene 1 11 18 1.359525577 0 55 1.359525577 1
gene 1 18 12 0.2836556738 0 56 0.2836556738 1
gene 1 3 18 -0.8354294041 0 73 -0.8354294041 1
gene 1 8 22 -0.719695384 0 83 -0.719695384 1
gene 1 22 12 0.2967487686 0 84 0.2967487686 1
gene 1 12 12 -0.2150338792 1 243 -0.2150338792 1
genomeend 13690
/* Novelty: 10.05466843 Fitness: 262.6585693 Generation: 92 Indiv: 13940 */
/* Point: 67.79075623 13.61065388 67.79075623 13.61065388 */

/* Organism #20024 Fitness: 10.05466843 Error: 0 */
genomestart 20024
trait 1 0.02083003149 0 0.775650929 0 0 0.3705548231 0 1 
node 1 1 1 3
node 2 1 1 1
node 3 1 1 1
node 4 1 1 1
node 5 1 1 1
node 6 1 1 1
node 7 1 1 1
node 8 1 1 1
node 9 1 1 1
node 10 1 1 1
node 11 1 1 1
node 12 1 0 0
node 13 1 0 2
node 14 1 0 2
node 18 1 0 0
node 22 1 0 0
gene 1 1 12 0.1937424278 0 1 0.1937424278 1
gene 1 2 12 -0.3038384322 0 2 -0.3038384322 1
gene 1 3 12 -1.45206463 0 3 -1.45206463 1
gene 1 4 12 -0.2740766683 0 4 -0.2740766683 1
gene 1 5 12 2.186069295 0 5 2.186069295 1
gene 1 6 12 0.6638043167 0 6 0.6638043167 1
gene 1 7 12 0.4088306287 0 7 0.4088306287 1
gene 1 8 12 -0.6749968847 0 8 -0.6749968847 0
gene 1 9 12 -2.215808907 0 9 -2.215808907 1
gene 1 10 12 -0.4991318775 0 10 -0.4991318775 1
gene 1 11 12 -0.7672448194 0 11 -0.7672448194 0
gene 1 12 13 1.597672368 0 12 1.597672368 1
gene 1 12 14 2.105823156 0 13 2.105823156 1
gene 1 1 14 -0.130462424 0 14 -0.130462424 1
gene 1 8 14 1.689194593 0 19 1.689194593 1
gene 1 6 14 -1.454151888 0 24 -1.454151888 1
gene 1 1 13 -1.28961464 0 25 -1.28961464 1
gene 1 6 13 1.204146692 0 27 1.204146692 1
gene 1 3 14 0.6238971586 0 29 0.6238971586 1
gene 1 10 14 0.9880572039 0 30 0.9880572039 1
gene 1 9 14 2.240861414 0 37 2.240861414 1
gene 1 4 13 0.2244274514 0 38 0.2244274514 1
gene 1 11 18 1.359525577 0 55 1.359525577 1
gene 1 18 12 0.2836556738 0 56 0.2836556738 1
gene 1 3 18 -0.8354294041 0 73 -0.8354294041 1
gene 1 8 22 -0.719695384 0 83 -0.719695384 1
gene 1 22 12 0.2967487686 0 84 0.2967487686 1
gene 1 12 12 -0.2150338792 1 243 -0.2150338792 1
genomeend 20024
/* Novelty: 10.05466843 Fitness: 262.6585693 Generation: 92 Indiv: 20274 */
/* Point: 67.79075623 13.61065388 67.79075623 13.61065388 */

/* Species #128 : (Size 15) (AF 0) (Age 1)  */


/* Organism #17858 Fitness: 9.84646225 Error: 0 */
genomestart 17858
trait 1 1 0.1157668699 0.9036187856 0.1465755367 0.3888872444 0.4842728063 0.6207762999 0.4919617758 
node 1 1 1 3
node 2 1 1 1
node 3 1 1 1
node 4 1 1 1
node 5 1 1 1
node 6 1 1 1
node 7 1 1 1
node 8 1 1 1
node 9 1 1 1
node 10 1 1 1
node 11 1 1 1
node 12 1 0 0
node 13 1 0 2
node 14 1 0 2
node 17 1 0 0
node 20 1 0 0
gene 1 1 12 2.075920726 0 1 2.075920726 1
gene 1 2 12 -1.867780396 0 2 -1.867780396 1
gene 1 3 12 -0.4732183536 0 3 -0.4732183536 1
gene 1 4 12 -0.6531183969 0 4 -0.6531183969 1
gene 1 5 12 0.1651446336 0 5 0.1651446336 1
gene 1 6 12 -0.08221635729 0 6 -0.08221635729 1
gene 1 7 12 0.3426514653 0 7 0.3426514653 1
gene 1 8 12 0.4146044755 0 8 0.4146044755 1
gene 1 9 12 -1.735991599 0 9 -1.735991599 0
gene 1 10 12 1.180797961 0 10 1.180797961 1
gene 1 11 12 -0.1079157729 0 11 -0.1079157729 1
gene 1 12 13 0.2101345706 0 12 0.2101345706 1
gene 1 12 14 1.008978087 0 13 1.008978087 1
gene 1 1 14 0.6710209151 0 14 0.6710209151 1
gene 1 8 14 -2.202190188 0 19 -2.202190188 1
gene 1 4 13 -1.735748013 0 38 -1.735748013 1
gene 1 2 13 -1.51812342 0 43 -1.51812342 1
gene 1 8 17 0.7244775377 0 49 0.7244775377 0
gene 1 17 14 0.200197487 0 50 0.200197487 1
gene 1 5 14 0.6089323117 0 52 0.6089323117 1
gene 1 12 12 -1.165156502 1 58 -1.165156502 1
gene 1 3 20 -0.8196476018 0 62 -0.8196476018 1
gene 1 20 12 -1.403027798 0 63 -1.403027798 1
gene 1 13 13 1.388049325 1 70 1.388049325 1
gene 1 11 20 -0.7668839811 0 76 -0.7668839811 1
gene 1 20 20 -0.07568415863 1 113 -0.07568415863 1
gene 1 17 17 -0.2267002278 1 157 -0.2267002278 1
gene 1 17 13 -0.7103326402 0 161 -0.7103326402 1
gene 1 17 12 -0.06642203455 0 169 0 1
gene 1 9 20 0.04200401131 0 172 0.04200401131 1
genomeend 17858
/* Novelty: 9.84646225 Fitness: 192.9425354 Generation: 92 Indiv: 18108 */
/* Point: 85.67796326 112.0414047 85.67796326 112.0414047 */

/* Organism #17886 Fitness: 9.79395771 Error: 0 */
genomestart 17886
trait 1 1 0 1 0.2755298484 0.3888872444 0.9110626514 0.6207762999 0.7058525577 
node 1 1 1 3
node 2 1 1 1
node 3 1 1 1
node 4 1 1 1
node 5 1 1 1
node 6 1 1 1
node 7 1 1 1
node 8 1 1 1
node 9 1 1 1
node 10 1 1 1
node 11 1 1 1
node 12 1 0 0
node 13 1 0 2
node 14 1 0 2
node 17 1 0 0
node 20 1 0 0
gene 1 1 12 2.075920726 0 1 2.075920726 1
gene 1 2 12 -2.342077253 0 2 -2.342077253 1
gene 1 3 12 -0.4732183536 0 3 -0.4732183536 1
gene 1 4 12 -0.6531183969 0 4 -0.6531183969 1
gene 1 5 12 0.1651446336 0 5 0.1651446336 1
gene 1 6 12 -0.08221635729 0 6 -0.08221635729 1
gene 1 7 12 0.3426514653 0 7 0.3426514653 1
gene 1 8 12 0.4146044755 0 8 0.4146044755 1
gene 1 9 12 -1.735991599 0 9 -1.735991599 1
gene 1 10 12 1.180797961 0 10 1.180797961 1
gene 1 11 12 -0.1079157729 0 11 -0.1079157729 1
gene 1 12 13 0.2101345706 0 12 0.2101345706 1
gene 1 12 14 1.008978087 0 13 1.008978087 1
gene 1 1 14 -0.08637210749 0 14 -0.08637210749 1
gene 1 8 14 -2.202190188 0 19 -2.202190188 1
gene 1 4 13 -1.40925453 0 38 -1.40925453 1
gene 1 2 13 -1.51812342 0 43 -1.51812342 1
gene 1 8 17 1.393269982 0 49 1.393269982 0
gene 1 17 14 0.200197487 0 50 0.200197487 1
gene 1 5 14 1.172474664 0 52 1.172474664 1
gene 1 12 12 -1.165156502 1 58 -1.165156502 1
gene 1 3 20 -0.4415515317 0 62 -0.4415515317 1
gene 1 20 12 -0.13988125 0 63 -0.13988125 1
gene 1 13 13 1.388049325 1 70 1.388049325 1
gene 1 11 20 -0.7668839811 0 76 -0.7668839811 1
gene 1 20 20 -0.07568415863 1 113 -0.07568415863 1
gene 1 17 17 -0.2267002278 1 157 -0.2267002278 1
gene 1 17 13 -0.7103326402 0 161 -0.7103326402 1
gene 1 17 12 -0.06642203455 0 169 0 1
gene 1 9 20 0.04200401131 0 172 0.04200401131 1
genomeend 17886
/* Novelty: 9.79395771 Fitness: 237.7063904 Generation: 92 Indiv: 18136 */
/* Point: 81.80509186 56.04631805 81.80509186 56.04631805 */

/* Organism #18762 Fitness: 9.79395771 Error: 0 */
genomestart 18762
trait 1 1 0 1 0.2755298484 0.3888872444 0.9110626514 0.6207762999 0.7058525577 
node 1 1 1 3
node 2 1 1 1
node 3 1 1 1
node 4 1 1 1
node 5 1 1 1
node 6 1 1 1
node 7 1 1 1
node 8 1 1 1
node 9 1 1 1
node 10 1 1 1
node 11 1 1 1
node 12 1 0 0
node 13 1 0 2
node 14 1 0 2
node 17 1 0 0
node 20 1 0 0
gene 1 1 12 2.075920726 0 1 2.075920726 1
gene 1 2 12 -2.342077253 0 2 -2.342077253 1
gene 1 3 12 -0.4732183536 0 3 -0.4732183536 1
gene 1 4 12 -0.6531183969 0 4 -0.6531183969 1
gene 1 5 12 0.1651446336 0 5 0.1651446336 1
gene 1 6 12 -0.08221635729 0 6 -0.08221635729 1
gene 1 7 12 0.3426514653 0 7 0.3426514653 1
gene 1 8 12 0.4146044755 0 8 0.4146044755 1
gene 1 9 12 -1.735991599 0 9 -1.735991599 1
gene 1 10 12 1.180797961 0 10 1.180797961 1
gene 1 11 12 -0.1079157729 0 11 -0.1079157729 1
gene 1 12 13 0.2101345706 0 12 0.2101345706 1
gene 1 12 14 1.008978087 0 13 1.008978087 1
gene 1 1 14 -0.08637210749 0 14 -0.08637210749 1
gene 1 8 14 -2.202190188 0 19 -2.202190188 1
gene 1 4 13 -1.40925453 0 38 -1.40925453 1
gene 1 2 13 -1.51812342 0 43 -1.51812342 1
gene 1 8 17 1.393269982 0 49 1.393269982 0
gene 1 17 14 0.200197487 0 50 0.200197487 1
gene 1 5 14 1.172474664 0 52 1.172474664 1
gene 1 12 12 -1.165156502 1 58 -1.165156502 1
gene 1 3 20 -0.4415515317 0 62 -0.4415515317 1
gene 1 20 12 -0.13988125 0 63 -0.13988125 1
gene 1 13 13 1.388049325 1 70 1.388049325 1
gene 1 11 20 -0.7668839811 0 76 -0.7668839811 1
gene 1 20 20 -0.07568415863 1 113 -0.07568415863 1
gene 1 17 17 -0.2267002278 1 157 -0.2267002278 1
gene 1 17 13 -0.7103326402 0 161 -0.7103326402 1
gene 1 17 12 -0.06642203455 0 169 0 1
gene 1 9 20 0.04200401131 0 172 0.04200401131 1
genomeend 18762
/* Novelty: 9.79395771 Fitness: 237.7063904 Generation: 92 Indiv: 19012 */
/* Point: 81.80509186 56.04631805 81.80509186 56.04631805 */

/* Organism #16559 Fitness: 9.70625782 Error: 0 */
genomestart 16559
trait 1 1 0.5211643361 1 0 0.3789296324 0 0.6284418487 0 
node 1 1 1 3
node 2 1 1 1
node 3 1 1 1
node 4 1 1 1
node 5 1 1 1
node 6 1 1 1
node 7 1 1 1
node 8 1 1 1
node 9 1 1 1
node 10 1 1 1
node 11 1 1 1
node 12 1 0 0
node 13 1 0 2
node 14 1 0 2
node 17 1 0 0
node 20 1 0 0
gene 1 1 12 2.075920726 0 1 2.075920726 1
gene 1 2 12 -3 0 2 -3 1
gene 1 3 12 0.4571617519 0 3 0.4571617519 1
gene 1 4 12 -0.6531183969 0 4 -0.6531183969 1
gene 1 5 12 0.6239964612 0 5 0.6239964612 1
gene 1 6 12 -0.08221635729 0 6 -0.08221635729 1
gene 1 7 12 2.383861806 0 7 2.383861806 1
gene 1 8 12 0.5825934456 0 8 0.5825934456 1
gene 1 9 12 -1.735991599 0 9 -1.735991599 0
gene 1 10 12 1.687675269 0 10 1.687675269 1
gene 1 11 12 0.5675145087 0 11 0.5675145087 1
gene 1 12 13 0.04206119219 0 12 0.04206119219 1
gene 1 12 14 0.1282210829 0 13 0.1282210829 1
gene 1 1 14 -0.08637210749 0 14 -0.08637210749 1
gene 1 8 14 -2.202190188 0 19 -2.202190188 1
gene 1 4 13 -1.40925453 0 38 -1.40925453 1
gene 1 2 13 -1.51812342 0 43 -1.51812342 1
gene 1 8 17 1.393269982 0 49 1.393269982 1
gene 1 17 14 -0.3689179903 0 50 -0.3689179903 1
gene 1 5 14 1.172474664 0 52 1.172474664 1
gene 1 12 12 -0.8055885051 1 58 -0.8055885051 1
gene 1 3 20 -0.6097714988 0 62 -0.6097714988 1
gene 1 20 12 -0.4720051698 0 63 -0.4720051698 1
gene 1 13 13 1.388049325 1 70 1.388049325 1
gene 1 11 20 -0.7668839811 0 76 -0.7668839811 1
gene 1 20 20 -0.07568415863 1 113 -0.07568415863 1
gene 1 17 17 -0.2267002278 1 157 -0.2267002278 1
gene 1 17 13 1.20742147 0 161 1.20742147 1
gene 1 9 20 0.04200401131 0 172 0.04200401131 1
genomeend 16559
/* Novelty: 9.70625782 Fitness: 104.4007263 Generation: 92 Indiv: 16809 */
/* Point: 166.9034424 160.6745453 166.9034424 160.6745453 */

/* Organism #18522 Fitness: 9.575710297 Error: 0 */
genomestart 18522
trait 1 1 0 1 0.2755298484 0.3888872444 0.9110626514 0.6207762999 0.7058525577 
node 1 1 1 3
node 2 1 1 1
node 3 1 1 1
node 4 1 1 1
node 5 1 1 1
node 6 1 1 1
node 7 1 1 1
node 8 1 1 1
node 9 1 1 1
node 10 1 1 1
node 11 1 1 1
node 12 1 0 0
node 13 1 0 2
node 14 1 0 2
node 17 1 0 0
node 20 1 0 0
gene 1 1 12 2.017113125 0 1 2.017113125 1
gene 1 2 12 -2.023581201 0 2 -2.023581201 1
gene 1 3 12 -0.7174398869 0 3 -0.7174398869 1
gene 1 4 12 -1.403344385 0 4 -1.403344385 1
gene 1 5 12 0.4731858602 0 5 0.4731858602 1
gene 1 6 12 -0.5755622328 0 6 -0.5755622328 1
gene 1 7 12 0.9933395457 0 7 0.9933395457 1
gene 1 8 12 0.4828762381 0 8 0.4828762381 1
gene 1 9 12 -1.462733132 0 9 -1.462733132 1
gene 1 10 12 1.180797961 0 10 1.180797961 1
gene 1 11 12 0.3629127716 0 11 0.3629127716 1
gene 1 12 13 0.5820533053 0 12 0.5820533053 1
gene 1 12 14 1.699754329 0 13 1.699754329 1
gene 1 1 14 -0.2602341554 0 14 -0.2602341554 1
gene 1 8 14 -2.096496283 0 19 -2.096496283 1
gene 1 4 13 -1.307381223 0 38 -1.307381223 1
gene 1 2 13 -0.4074510345 0 43 -0.4074510345 1
gene 1 8 17 -0.09043641951 0 49 -0.09043641951 1
gene 1 17 14 -0.3629201444 0 50 -0.3629201444 1
gene 1 5 14 0.5885612034 0 52 0.5885612034 1
gene 1 12 12 -1.165156502 1 58 -1.165156502 1
gene 1 3 20 -0.5302330005 0 62 -0.5302330005 1
gene 1 20 12 0.04401125195 0 63 0.04401125195 1
gene 1 13 13 1.835644125 1 70 1.835644125 1
gene 1 11 20 -0.1259765181 0 76 -0.1259765181 1
gene 1 20 20 0.6697656473 1 113 0.6697656473 1
gene 1 17 17 -0.6637245204 1 157 -0.6637245204 1
gene 1 17 13 -0.2948001226 0 161 -0.2948001226 1
gene 1 17 12 0.01154405028 0 169 0.01154405028 1
gene 1 9 20 -0.3605367374 0 172 -0.3605367374 1
genomeend 18522
/* Novelty: 9.575710297 Fitness: 171.7986145 Generation: 92 Indiv: 18772 */
/* Point: 115.0551987 116.8003998 115.0551987 116.8003998 */

/* Organism #15925 Fitness: 9.537163734 Error: 0 */
genomestart 15925
trait 1 1 0.2882164665 0.8443640951 0.01535383863 0.3938660504 0.04654077312 0.6169435255 0.2335444372 
node 1 1 1 3
node 2 1 1 1
node 3 1 1 1
node 4 1 1 1
node 5 1 1 1
node 6 1 1 1
node 7 1 1 1
node 8 1 1 1
node 9 1 1 1
node 10 1 1 1
node 11 1 1 1
node 12 1 0 0
node 13 1 0 2
node 14 1 0 2
node 17 1 0 0
node 20 1 0 0
gene 1 1 12 1.210373481 0 1 1.210373481 1
gene 1 2 12 -2.390568248 0 2 -2.390568248 1
gene 1 3 12 0.1129041652 0 3 0.1129041652 1
gene 1 4 12 -0.5857694785 0 4 -0.5857694785 1
gene 1 5 12 0.825046945 0 5 0.825046945 1
gene 1 6 12 0.2254304095 0 6 0.2254304095 1
gene 1 7 12 1.576991209 0 7 1.576991209 1
gene 1 8 12 -0.3262421096 0 8 -0.3262421096 1
gene 1 9 12 -1.597485872 0 9 -1.597485872 0
gene 1 10 12 2.216862696 0 10 2.216862696 1
gene 1 11 12 0.9783956532 0 11 0.9783956532 1
gene 1 12 13 0.5511636493 0 12 0.5511636493 1
gene 1 12 14 1.447727158 0 13 1.447727158 1
gene 1 1 14 0.8520576158 0 14 0.8520576158 1
gene 1 8 14 -2.509359308 0 19 -2.509359308 1
gene 1 4 13 -1.518539532 0 38 -1.518539532 1
gene 1 2 13 -2.146373426 0 43 -2.146373426 1
gene 1 8 17 0.2948422819 0 49 0.2948422819 0
gene 1 17 14 -0.3341032578 0 50 -0.3341032578 1
gene 1 5 14 0.529983657 0 52 0.529983657 1
gene 1 12 12 0.001272935985 1 58 0.001272935985 1
gene 1 3 20 -1.069088576 0 62 -1.069088576 1
gene 1 20 12 -0.2181121798 0 63 -0.2181121798 1
gene 1 13 13 1.143118273 1 70 1.143118273 1
gene 1 11 20 -1.193820227 0 76 -1.193820227 1
gene 1 20 20 0.2888965499 1 113 0.2888965499 1
gene 1 17 17 -0.2267002278 1 157 -0.2267002278 1
gene 1 17 13 1.20742147 0 161 1.20742147 1
gene 1 9 20 0.5876247015 0 172 0.5876247015 1
genomeend 15925
/* Novelty: 9.537163734 Fitness: 153.2734833 Generation: 92 Indiv: 16175 */
/* Point: 177.7197266 21.41149521 177.7197266 21.41149521 */

/* Organism #18261 Fitness: 9.471617699 Error: 0 */
genomestart 18261
trait 1 1 0.3165578297 0.8629273571 0.01422014548 0.3963554534 0.0410696791 0.6150271383 0.2112811589 
node 1 1 1 3
node 2 1 1 1
node 3 1 1 1
node 4 1 1 1
node 5 1 1 1
node 6 1 1 1
node 7 1 1 1
node 8 1 1 1
node 9 1 1 1
node 10 1 1 1
node 11 1 1 1
node 12 1 0 0
node 13 1 0 2
node 14 1 0 2
node 17 1 0 0
node 20 1 0 0
gene 1 1 12 0.8625767207 0 1 0.8625767207 1
gene 1 2 12 -2.342077253 0 2 -2.342077253 1
gene 1 3 12 0.1129041652 0 3 0.1129041652 1
gene 1 4 12 -0.5857694785 0 4 -0.5857694785 1
gene 1 5 12 0.1651446336 0 5 0.1651446336 1
gene 1 6 12 0.2254304095 0 6 0.2254304095 1
gene 1 7 12 0.3426514653 0 7 0.3426514653 1
gene 1 8 12 0.3340236077 0 8 0.3340236077 1
gene 1 9 12 -1.735991599 0 9 -1.735991599 0
gene 1 10 12 1.448010677 0 10 1.448010677 1
gene 1 11 12 0.5699106282 0 11 0.5699106282 1
gene 1 12 13 0.5511636493 0 12 0.5511636493 1
gene 1 12 14 1.008978087 0 13 1.008978087 1
gene 1 1 14 -0.1898631633 0 14 -0.1898631633 1
gene 1 8 14 -2.509359308 0 19 -2.509359308 1
gene 1 4 13 -1.518539532 0 38 -1.518539532 1
gene 1 2 13 -2.146373426 0 43 -2.146373426 1
gene 1 8 17 1.393269982 0 49 1.393269982 0
gene 1 17 14 -0.3341032578 0 50 -0.3341032578 1
gene 1 5 14 0.529983657 0 52 0.529983657 1
gene 1 12 12 0.001272935985 1 58 0.001272935985 1
gene 1 3 20 -1.069088576 0 62 -1.069088576 1
gene 1 20 12 -0.2181121798 0 63 -0.2181121798 1
gene 1 13 13 1.388049325 1 70 1.388049325 1
gene 1 11 20 -0.7668839811 0 76 -0.7668839811 1
gene 1 20 20 0.2888965499 1 113 0.2888965499 1
gene 1 17 17 -0.2267002278 1 157 -0.2267002278 1
gene 1 17 13 1.20742147 0 161 1.20742147 1
gene 1 9 20 0.04200401131 0 172 0.04200401131 1
genomeend 18261
/* Novelty: 9.471617699 Fitness: 149.9795532 Generation: 92 Indiv: 18511 */
/* Point: 179.5149994 41.19970322 179.5149994 41.19970322 */

/* Organism #21536 Fitness: 9.471617699 Error: 0 */
genomestart 21536
trait 1 1 0.3165578297 0.8629273571 0.01422014548 0.3963554534 0.0410696791 0.6150271383 0.2112811589 
node 1 1 1 3
node 2 1 1 1
node 3 1 1 1
node 4 1 1 1
node 5 1 1 1
node 6 1 1 1
node 7 1 1 1
node 8 1 1 1
node 9 1 1 1
node 10 1 1 1
node 11 1 1 1
node 12 1 0 0
node 13 1 0 2
node 14 1 0 2
node 17 1 0 0
node 20 1 0 0
gene 1 1 12 0.8625767207 0 1 0.8625767207 1
gene 1 2 12 -2.342077253 0 2 -2.342077253 1
gene 1 3 12 0.1129041652 0 3 0.1129041652 1
gene 1 4 12 -0.5857694785 0 4 -0.5857694785 1
gene 1 5 12 0.1651446336 0 5 0.1651446336 1
gene 1 6 12 0.2254304095 0 6 0.2254304095 1
gene 1 7 12 0.3426514653 0 7 0.3426514653 1
gene 1 8 12 0.3340236077 0 8 0.3340236077 1
gene 1 9 12 -1.735991599 0 9 -1.735991599 0
gene 1 10 12 1.448010677 0 10 1.448010677 1
gene 1 11 12 0.5699106282 0 11 0.5699106282 1
gene 1 12 13 0.5511636493 0 12 0.5511636493 1
gene 1 12 14 1.008978087 0 13 1.008978087 1
gene 1 1 14 -0.1898631633 0 14 -0.1898631633 1
gene 1 8 14 -2.509359308 0 19 -2.509359308 1
gene 1 4 13 -1.518539532 0 38 -1.518539532 1
gene 1 2 13 -2.146373426 0 43 -2.146373426 1
gene 1 8 17 1.393269982 0 49 1.393269982 0
gene 1 17 14 -0.3341032578 0 50 -0.3341032578 1
gene 1 5 14 0.529983657 0 52 0.529983657 1
gene 1 12 12 0.001272935985 1 58 0.001272935985 1
gene 1 3 20 -1.069088576 0 62 -1.069088576 1
gene 1 20 12 -0.2181121798 0 63 -0.2181121798 1
gene 1 13 13 1.388049325 1 70 1.388049325 1
gene 1 11 20 -0.7668839811 0 76 -0.7668839811 1
gene 1 20 20 0.2888965499 1 113 0.2888965499 1
gene 1 17 17 -0.2267002278 1 157 -0.2267002278 1
gene 1 17 13 1.20742147 0 161 1.20742147 1
gene 1 9 20 0.04200401131 0 172 0.04200401131 1
genomeend 21536
/* Novelty: 9.471617699 Fitness: 149.9795532 Generation: 92 Indiv: 21786 */
/* Point: 179.5149994 41.19970322 179.5149994 41.19970322 */

/* Organism #14409 Fitness: 9.446742058 Error: 0 */
genomestart 14409
trait 1 1 0.1181682867 0.7329845232 0.02215599752 0.3789296324 0.07936733723 0.6284418487 0.3671241071 
node 1 1 1 3
node 2 1 1 1
node 3 1 1 1
node 4 1 1 1
node 5 1 1 1
node 6 1 1 1
node 7 1 1 1
node 8 1 1 1
node 9 1 1 1
node 10 1 1 1
node 11 1 1 1
node 12 1 0 0
node 13 1 0 2
node 14 1 0 2
node 17 1 0 0
node 20 1 0 0
gene 1 1 12 1.811998138 0 1 1.811998138 1
gene 1 2 12 -2.438302342 0 2 -2.438302342 1
gene 1 3 12 -0.3070118904 0 3 -0.3070118904 1
gene 1 4 12 -0.2708837021 0 4 -0.2708837021 1
gene 1 5 12 0.6193511094 0 5 0.6193511094 1
gene 1 6 12 0.517985562 0 6 0.517985562 1
gene 1 7 12 2.52025676 0 7 2.52025676 1
gene 1 8 12 0.1361069353 0 8 0.1361069353 1
gene 1 9 12 -1.320574799 0 9 -1.320574799 0
gene 1 10 12 1.004741925 0 10 1.004741925 1
gene 1 11 12 0.2137651028 0 11 0.2137651028 1
gene 1 12 13 0.07618139976 0 12 0.07618139976 1
gene 1 12 14 0.5356880273 0 13 0.5356880273 1
gene 1 1 14 -0.1208066265 0 14 -0.1208066265 1
gene 1 8 14 -2.029217348 0 19 -2.029217348 1
gene 1 4 13 -1.097765073 0 38 -1.097765073 1
gene 1 2 13 -0.809038587 0 43 -0.809038587 1
gene 1 8 17 0.7441037986 0 49 0.7441037986 0
gene 1 17 14 -0.8958314978 0 50 -0.8958314978 1
gene 1 5 14 0.5083253087 0 52 0.5083253087 1
gene 1 12 12 -0.3445995681 1 58 -0.3445995681 1
gene 1 3 20 -0.233243599 0 62 -0.233243599 1
gene 1 20 12 -0.6960342495 0 63 -0.6960342495 1
gene 1 13 13 1.82472254 1 70 1.82472254 1
gene 1 11 20 -0.03703163259 0 76 -0.03703163259 1
gene 1 20 20 0.2054007158 1 113 0.2054007158 1
gene 1 17 17 -0.06149147044 1 157 -0.06149147044 1
gene 1 17 13 1.082143352 0 161 1.082143352 1
gene 1 9 20 0.1687783248 0 172 0.1687783248 1
genomeend 14409
/* Novelty: 9.446742058 Fitness: 92.88777161 Generation: 92 Indiv: 14659 */
/* Point: 173.670105 170.1356659 173.670105 170.1356659 */

/* Organism #21833 Fitness: 9.370363235 Error: 0 */
genomestart 21833
